{"learner":{"attributes":{},"feature_names":["day_of_week","hour_of_day"],"feature_types":["float","float"],"gradient_booster":{"model":{"cats":{"enc":[],"feature_segments":[],"sorted_idx":[]},"gbtree_model_param":{"num_parallel_tree":"1","num_trees":"80"},"iteration_indptr":[0,1,2,3,4,5,6,7,8,9,10,11,12,13,14,15,16,17,18,19,20,21,22,23,24,25,26,27,28,29,30,31,32,33,34,35,36,37,38,39,40,41,42,43,44,45,46,47,48,49,50,51,52,53,54,55,56,57,58,59,60,61,62,63,64,65,66,67,68,69,70,71,72,73,74,75,76,77,78,79,80],"tree_info":[0,0,0,0,0,0,0,0,0,0,0,0,0,0,0,0,0,0,0,0,0,0,0,0,0,0,0,0,0,0,0,0,0,0,0,0,0,0,0,0,0,0,0,0,0,0,0,0,0,0,0,0,0,0,0,0,0,0,0,0,0,0,0,0,0,0,0,0,0,0,0,0,0,0,0,0,0,0,0,0],"trees":[{"base_weights":[1.1688267E0,-1.2960458E2,1.7047021E2,-1.6817238E2,1.2398551E2,1.0513613E2,3.9643103E2,-2.5677924E2,-8.0997086E1,2.7051588E1,2.075392E2,2.3354292E2,7.670902E1,3.331271E1,2.4802711E1,-2.414306E1,-1.6126072E1,-9.486324E0,-3.3743925E0,-3.8138592E0,3.3193688E0,5.265715E0,1.7629799E1,1.4628593E1,2.56254E1,2.8227987E0,1.2589711E1],"categories":[],"categories_nodes":[],"categories_segments":[],"categories_sizes":[],"default_left":[0,0,0,0,0,0,0,0,0,0,0,0,0,0,0,0,0,0,0,0,0,0,0,0,0,0,0],"id":0,"left_children":[1,3,5,7,9,11,13,15,17,19,21,23,25,-1,-1,-1,-1,-1,-1,-1,-1,-1,-1,-1,-1,-1,-1],"loss_changes":[1.7069988E7,4.2753285E6,4.918669E6,2.898998E6,4.641387E5,9.384465E5,3.52E2,4.03795E5,2.7509288E5,3.21919E4,4.1874625E4,1.481435E5,7.161811E5,0E0,0E0,0E0,0E0,0E0,0E0,0E0,0E0,0E0,0E0,0E0,0E0,0E0,0E0],"parents":[2147483647,0,0,1,1,2,2,3,3,4,4,5,5,6,6,7,7,8,8,9,9,10,10,11,11,12,12],"right_children":[2,4,6,8,10,12,14,16,18,20,22,24,26,-1,-1,-1,-1,-1,-1,-1,-1,-1,-1,-1,-1,-1,-1],"split_conditions":[5E0,1.5E1,1.3E1,3E0,3E0,9E0,2.3E1,2E0,4E0,1.6E1,1.7E1,7E0,7E0,3.331271E1,2.4802711E1,-2.414306E1,-1.6126072E1,-9.486324E0,-3.3743925E0,-3.8138592E0,3.3193688E0,5.265715E0,1.7629799E1,1.4628593E1,2.56254E1,2.8227987E0,1.2589711E1],"split_indices":[0,1,1,0,0,1,1,0,0,1,1,0,0,0,0,0,0,0,0,0,0,0,0,0,0,0,0],"split_type":[0,0,0,0,0,0,0,0,0,0,0,0,0,0,0,0,0,0,0,0,0,0,0,0,0,0,0],"sum_hessian":[7.69E2,4.34E2,3.35E2,3.77E2,5.7E1,2.61E2,7.4E1,1.86E2,1.91E2,2.7E1,3E1,4.6E1,2.15E2,5.7E1,1.7E1,1E2,8.6E1,9.6E1,9.5E1,4E0,2.3E1,3E0,2.7E1,3.1E1,1.5E1,1.43E2,7.2E1],"tree_param":{"num_deleted":"0","num_feature":"2","num_nodes":"27","size_leaf_vector":"1"}},{"base_weights":[1.2652267E0,-1.555445E2,1.23966774E2,-1.9421043E2,7.646945E1,6.0437992E1,3.4267206E2,-2.2693695E1,-1.432858E2,3.87474E1,1.4949185E2,-1.8836714E1,1.3652171E2,2.0818599E2,2.9545126E1,-1.4561756E1,-8.626459E0,-2.187097E0,4.607304E0,3.2200975E0,1.2977805E1,4.8809266E0,-3.3707783E0,2.0294514E1,8.902221E0,1.1095395E1,1.9992928E1],"categories":[],"categories_nodes":[],"categories_segments":[],"categories_sizes":[],"default_left":[0,0,0,0,0,0,0,0,0,0,0,0,0,0,0,0,0,0,0,0,0,0,0,0,0,0,0],"id":1,"left_children":[1,3,5,7,9,11,13,-1,15,17,19,21,23,25,-1,-1,-1,-1,-1,-1,-1,-1,-1,-1,-1,-1,-1],"loss_changes":[1.4507603E7,2.9842645E6,5.856486E6,1.253189E6,1.2642622E5,1.9869401E6,2.63496E5,0E0,2.3170325E5,4.267004E4,1.57216875E4,3.0394044E5,4.68643E5,1.7533062E4,0E0,0E0,0E0,0E0,0E0,0E0,0E0,0E0,0E0,0E0,0E0,0E0,0E0],"parents":[2147483647,0,0,1,1,2,2,3,3,4,4,5,5,6,6,8,8,9,9,10,10,11,11,12,12,13,13],"right_children":[2,4,6,8,10,12,14,-1,16,18,20,22,24,26,-1,-1,-1,-1,-1,-1,-1,-1,-1,-1,-1,-1,-1],"split_conditions":[4E0,1.5E1,1.3E1,2E0,3E0,6E0,5E0,-2.2693695E1,3E0,1.9E1,1.6E1,1E1,9E0,1.9E1,2.9545126E1,-1.4561756E1,-8.626459E0,-2.187097E0,4.607304E0,3.2200975E0,1.2977805E1,4.8809266E0,-3.3707783E0,2.0294514E1,8.902221E0,1.1095395E1,1.9992928E1],"split_indices":[0,1,1,0,0,0,0,0,0,1,1,1,1,1,0,0,0,0,0,0,0,0,0,0,0,0,0],"split_type":[0,0,0,0,0,0,0,0,0,0,0,0,0,0,0,0,0,0,0,0,0,0,0,0,0,0,0],"sum_hessian":[7.52E2,3.3E2,4.22E2,2.83E2,4.7E1,3.28E2,9.4E1,1.01E2,1.82E2,3.2E1,1.5E1,1.61E2,1.67E2,1.7E1,7.7E1,8.5E1,9.7E1,7E0,2.5E1,2E0,1.3E1,3.6E1,1.25E2,2.8E1,1.39E2,8E0,9E0],"tree_param":{"num_deleted":"0","num_feature":"2","num_nodes":"27","size_leaf_vector":"1"}},{"base_weights":[-1.1384764E0,-1.1117424E2,1.4268073E2,-1.4422049E2,1.0326419E2,8.82757E1,2.6580933E1,-2.1737343E2,-7.107866E1,2.669908E1,1.6908867E2,1.3766993E1,1.2699168E2,-2.0177982E1,-1.3913258E1,-6.275219E0,8.348956E0,-2.1835058E0,3.6797132E0,4.9981446E0,1.4605526E1,8.876182E0,-3.453364E-1,1.7937052E1,8.48761E0],"categories":[],"categories_nodes":[],"categories_segments":[],"categories_sizes":[],"default_left":[0,0,0,0,0,0,0,0,0,0,0,0,0,0,0,0,0,0,0,0,0,0,0,0,0],"id":2,"left_children":[1,3,5,7,9,11,-1,13,15,17,19,21,23,-1,-1,-1,-1,-1,-1,-1,-1,-1,-1,-1,-1],"loss_changes":[1.2011406E7,3.0620395E6,3.3640255E6,1.9803005E6,2.877973E5,7.3961375E5,0E0,2.37842E5,2.50992E5,3.042916E4,3.3145938E4,1.5689372E5,3.195515E5,0E0,0E0,0E0,0E0,0E0,0E0,0E0,0E0,0E0,0E0,0E0,0E0],"parents":[2147483647,0,0,1,1,2,2,3,3,4,4,5,5,7,7,8,8,9,9,10,10,11,11,12,12],"right_children":[2,4,6,8,10,12,-1,14,16,18,20,22,24,-1,-1,-1,-1,-1,-1,-1,-1,-1,-1,-1,-1],"split_conditions":[5E0,1.5E1,1.3E1,3E0,3E0,6E0,2.6580933E1,2E0,1.3E1,1.9E1,1.7E1,9E0,9E0,-2.0177982E1,-1.3913258E1,-6.275219E0,8.348956E0,-2.1835058E0,3.6797132E0,4.9981446E0,1.4605526E1,8.876182E0,-3.453364E-1,1.7937052E1,8.48761E0],"split_indices":[0,1,1,0,0,0,0,0,1,1,1,1,1,0,0,0,0,0,0,0,0,0,0,0,0],"split_type":[0,0,0,0,0,0,0,0,0,0,0,0,0,0,0,0,0,0,0,0,0,0,0,0,0],"sum_hessian":[7.57E2,4.29E2,3.28E2,3.72E2,5.7E1,2.56E2,7.2E1,1.85E2,1.87E2,2.7E1,3E1,8.8E1,1.68E2,1E2,8.5E1,1.8E2,7E0,7E0,2E1,4E0,2.6E1,1.3E1,7.5E1,2.8E1,1.4E2],"tree_param":{"num_deleted":"0","num_feature":"2","num_nodes":"25","size_leaf_vector":"1"}},{"base_weights":[1.6022557E0,-9.9138374E1,1.3581483E2,-1.3207495E2,1.0388592E2,8.520628E1,3.0935114E2,-2.0402597E2,-6.094789E1,3.3567192E1,1.625331E2,4.7206287E1,1.597568E2,3.273698E2,1.7975916E1,-1.9074965E1,-1.3001871E1,-5.4575477E0,7.364895E0,-1.7870679E0,4.189656E0,4.6782618E0,1.398952E1,1.1089575E1,2.053352E0,2.0575603E1,1.08162365E1,1.950634E1,2.8709387E1],"categories":[],"categories_nodes":[],"categories_segments":[],"categories_sizes":[],"default_left":[0,0,0,0,0,0,0,0,0,0,0,0,0,0,0,0,0,0,0,0,0,0,0,0,0,0,0,0,0],"id":3,"left_children":[1,3,5,7,9,11,13,15,17,19,21,23,25,27,-1,-1,-1,-1,-1,-1,-1,-1,-1,-1,-1,-1,-1,-1,-1],"loss_changes":[1.0248605E7,2.9091595E6,2.827928E6,1.8964535E6,2.4610788E5,7.091871E5,3.7789E4,2.25456E5,2.1656162E5,3.1655262E4,3.2133125E4,3.2920112E5,1.685875E5,6.51145E4,0E0,0E0,0E0,0E0,0E0,0E0,0E0,0E0,0E0,0E0,0E0,0E0,0E0,0E0,0E0],"parents":[2147483647,0,0,1,1,2,2,3,3,4,4,5,5,6,6,7,7,8,8,9,9,10,10,11,11,12,12,13,13],"right_children":[2,4,6,8,10,12,14,16,18,20,22,24,26,28,-1,-1,-1,-1,-1,-1,-1,-1,-1,-1,-1,-1,-1,-1,-1],"split_conditions":[5E0,1.5E1,1.3E1,3E0,3E0,7E0,2.3E1,2E0,1.3E1,1.9E1,1.7E1,9E0,9E0,6E0,1.7975916E1,-1.9074965E1,-1.3001871E1,-5.4575477E0,7.364895E0,-1.7870679E0,4.189656E0,4.6782618E0,1.398952E1,1.1089575E1,2.053352E0,2.0575603E1,1.08162365E1,1.950634E1,2.8709387E1],"split_indices":[0,1,1,0,0,0,1,0,1,1,1,1,1,0,0,0,0,0,0,0,0,0,0,0,0,0,0,0,0],"split_type":[0,0,0,0,0,0,0,0,0,0,0,0,0,0,0,0,0,0,0,0,0,0,0,0,0,0,0,0,0],"sum_hessian":[7.56E2,4.32E2,3.24E2,3.72E2,6E1,2.52E2,7.2E1,1.84E2,1.88E2,2.8E1,3.2E1,1.68E2,8.4E1,5.7E1,1.5E1,9.8E1,8.6E1,1.8E2,8E0,7E0,2.1E1,4E0,2.8E1,3.1E1,1.37E2,1.5E1,6.9E1,1.8E1,3.9E1],"tree_param":{"num_deleted":"0","num_feature":"2","num_nodes":"29","size_leaf_vector":"1"}},{"base_weights":[-3.822015E0,-1.2510529E2,9.003025E1,-1.5471658E2,5.948713E1,4.75682E1,2.5557552E2,-2.2236613E2,-1.1781181E2,2.4484959E1,1.0236893E1,-1.564917E1,1.0980803E2,1.7337349E2,2.7371805E2,-1.8737413E1,-1.4426523E1,-3.5969608E0,-1.0877506E1,-1.335157E0,4.1666245E0,4.728495E0,-2.7699726E0,1.5594754E1,7.1272044E0,8.9528E0,1.6632048E1,2.334873E1,1.6246437E1],"categories":[],"categories_nodes":[],"categories_segments":[],"categories_sizes":[],"default_left":[0,0,0,0,0,0,0,0,0,0,0,0,0,0,0,0,0,0,0,0,0,0,0,0,0,0,0,0,0],"id":4,"left_children":[1,3,5,7,9,11,13,15,17,19,-1,21,23,25,27,-1,-1,-1,-1,-1,-1,-1,-1,-1,-1,-1,-1,-1,-1],"loss_changes":[8.923925E6,1.8785825E6,3.0948338E6,7.10297E5,1.1191039E5,1.3906458E6,8.67665E4,9.075E3,2.491745E5,3.8367973E4,0E0,2.5170597E5,2.965625E5,1.7054812E4,3.29925E4,0E0,0E0,0E0,0E0,0E0,0E0,0E0,0E0,0E0,0E0,0E0,0E0,0E0,0E0],"parents":[2147483647,0,0,1,1,2,2,3,3,4,4,5,5,6,6,7,7,8,8,9,9,11,11,12,12,13,13,14,14],"right_children":[2,4,6,8,10,12,14,16,18,20,-1,22,24,26,28,-1,-1,-1,-1,-1,-1,-1,-1,-1,-1,-1,-1,-1,-1],"split_conditions":[4E0,1.5E1,1.3E1,2E0,3E0,6E0,5E0,1.3E1,1E1,2E0,1.0236893E1,1E1,9E0,1.9E1,2.3E1,-1.8737413E1,-1.4426523E1,-3.5969608E0,-1.0877506E1,-1.335157E0,4.1666245E0,4.728495E0,-2.7699726E0,1.5594754E1,7.1272044E0,8.9528E0,1.6632048E1,2.334873E1,1.6246437E1],"split_indices":[0,1,1,0,0,0,0,1,1,0,0,1,1,1,1,0,0,0,0,0,0,0,0,0,0,0,0,0,0],"split_type":[0,0,0,0,0,0,0,0,0,0,0,0,0,0,0,0,0,0,0,0,0,0,0,0,0,0,0,0,0],"sum_hessian":[7.82E2,3.41E2,4.41E2,2.94E2,4.7E1,3.52E2,8.9E1,1.02E2,1.92E2,3.2E1,1.5E1,1.75E2,1.77E2,1.8E1,7.1E1,7.6E1,2.6E1,3.9E1,1.53E2,1.3E1,1.9E1,3.5E1,1.4E2,3.3E1,1.44E2,8E0,1E1,5.4E1,1.7E1],"tree_param":{"num_deleted":"0","num_feature":"2","num_nodes":"29","size_leaf_vector":"1"}},{"base_weights":[3.3528998E0,-1.0971876E2,9.158323E1,-1.3766527E2,5.5636765E1,5.0378845E1,2.4796422E2,-2.0419443E2,-1.0189904E2,-1.5449629E1,8.173601E1,-5.4909897E0,1.0247057E2,1.6022261E2,2.6500043E2,-2.2773432E1,-1.5598177E1,-3.374048E0,-9.379863E0,-2.0031455E0,1.2078776E-1,1.4489697E0,8.181852E0,5.3630795E0,-1.6643094E0,1.4637855E1,6.6648364E0,8.116482E0,1.5297089E1,2.2363077E1,1.6403894E1],"categories":[],"categories_nodes":[],"categories_segments":[],"categories_sizes":[],"default_left":[0,0,0,0,0,0,0,0,0,0,0,0,0,0,0,0,0,0,0,0,0,0,0,0,0,0,0,0,0,0,0],"id":5,"left_children":[1,3,5,7,9,11,13,15,17,19,21,23,25,27,29,-1,-1,-1,-1,-1,-1,-1,-1,-1,-1,-1,-1,-1,-1,-1,-1],"loss_changes":[7.602051E6,1.55111E6,2.745361E6,6.59729E5,9.217255E4,9.9008375E5,9.0577E4,1.79285E4,1.6739662E5,2.3147114E3,4.518711E4,1.8464947E5,2.5622562E5,1.1561219E4,6.3065E3,0E0,0E0,0E0,0E0,0E0,0E0,0E0,0E0,0E0,0E0,0E0,0E0,0E0,0E0,0E0,0E0],"parents":[2147483647,0,0,1,1,2,2,3,3,4,4,5,5,6,6,7,7,8,8,9,9,10,10,11,11,12,12,13,13,14,14],"right_children":[2,4,6,8,10,12,14,16,18,20,22,24,26,28,30,-1,-1,-1,-1,-1,-1,-1,-1,-1,-1,-1,-1,-1,-1,-1,-1],"split_conditions":[4E0,1.5E1,1.3E1,2E0,2E0,6E0,5E0,1E0,1E1,2.3E1,1.9E1,9E0,9E0,1.9E1,2.3E1,-2.2773432E1,-1.5598177E1,-3.374048E0,-9.379863E0,-2.0031455E0,1.2078776E-1,1.4489697E0,8.181852E0,5.3630795E0,-1.6643094E0,1.4637855E1,6.6648364E0,8.116482E0,1.5297089E1,2.2363077E1,1.6403894E1],"split_indices":[0,1,1,0,0,0,0,1,1,1,1,1,1,1,1,0,0,0,0,0,0,0,0,0,0,0,0,0,0,0,0],"split_type":[0,0,0,0,0,0,0,0,0,0,0,0,0,0,0,0,0,0,0,0,0,0,0,0,0,0,0,0,0,0,0],"sum_hessian":[7.6E2,3.33E2,4.27E2,2.85E2,4.8E1,3.39E2,8.8E1,9.8E1,1.87E2,1.3E1,3.5E1,1.64E2,1.75E2,1.6E1,7.2E1,7E0,9.1E1,3.9E1,1.48E2,8E0,5E0,9E0,2.6E1,2.8E1,1.36E2,3.2E1,1.43E2,7E0,9E0,5.5E1,1.7E1],"tree_param":{"num_deleted":"0","num_feature":"2","num_nodes":"31","size_leaf_vector":"1"}},{"base_weights":[-5.293158E-1,-8.2142746E1,1.0388943E2,-1.0502458E2,6.839993E1,6.3889095E1,2.3968419E2,-1.6163228E2,-5.1635635E1,9.755047E0,1.2280999E2,3.4750736E1,1.2591474E2,1.4875394E1,2.5527881E2,-1.514292E1,-1.0259191E1,4.2263556E-1,-5.338048E0,-1.6517359E0,2.5943692E0,2.9444847E0,1.0480223E1,8.860106E0,1.4644482E0,1.636119E1,8.581845E0,2.2745941E1,1.4124093E1],"categories":[],"categories_nodes":[],"categories_segments":[],"categories_sizes":[],"default_left":[0,0,0,0,0,0,0,0,0,0,0,0,0,0,0,0,0,0,0,0,0,0,0,0,0,0,0,0,0],"id":6,"left_children":[1,3,5,7,9,11,13,15,17,19,21,23,25,-1,27,-1,-1,-1,-1,-1,-1,-1,-1,-1,-1,-1,-1,-1,-1],"loss_changes":[6.60454E6,1.5056245E6,1.8315105E6,1.1340552E6,1.8387256E5,4.7275838E5,1.70655E4,1.447155E5,1.6869678E5,2.0660611E4,1.6316719E4,2.2419362E5,1.01141125E5,0E0,8.0143E4,0E0,0E0,0E0,0E0,0E0,0E0,0E0,0E0,0E0,0E0,0E0,0E0,0E0,0E0],"parents":[2147483647,0,0,1,1,2,2,3,3,4,4,5,5,6,6,7,7,8,8,9,9,10,10,11,11,12,12,14,14],"right_children":[2,4,6,8,10,12,14,16,18,20,22,24,26,-1,28,-1,-1,-1,-1,-1,-1,-1,-1,-1,-1,-1,-1,-1,-1],"split_conditions":[5E0,1.5E1,1.3E1,3E0,3E0,7E0,6E0,2E0,1E1,2E0,1.7E1,9E0,9E0,1.4875394E1,2.3E1,-1.514292E1,-1.0259191E1,4.2263556E-1,-5.338048E0,-1.6517359E0,2.5943692E0,2.9444847E0,1.0480223E1,8.860106E0,1.4644482E0,1.636119E1,8.581845E0,2.2745941E1,1.4124093E1],"split_indices":[0,1,1,0,0,0,0,0,1,0,1,1,1,0,1,0,0,0,0,0,0,0,0,0,0,0,0,0,0],"split_type":[0,0,0,0,0,0,0,0,0,0,0,0,0,0,0,0,0,0,0,0,0,0,0,0,0,0,0,0,0],"sum_hessian":[7.73E2,4.34E2,3.39E2,3.77E2,5.7E1,2.63E2,7.6E1,1.82E2,1.95E2,2.8E1,2.9E1,1.8E2,8.3E1,2E1,5.6E1,9.7E1,8.5E1,4.1E1,1.54E2,1.2E1,1.6E1,3E0,2.6E1,3.1E1,1.49E2,1.4E1,6.9E1,3.9E1,1.7E1],"tree_param":{"num_deleted":"0","num_feature":"2","num_nodes":"29","size_leaf_vector":"1"}},{"base_weights":[-2.2734098E-2,-7.399634E1,9.764907E1,-9.627922E1,7.190772E1,5.9002563E1,2.2373245E2,-1.4805624E2,-4.612433E1,2.1624243E1,1.166275E2,2.8143585E1,1.2111551E2,2.3664897E2,1.307715E1,-1.3648012E1,-9.772095E0,-4.132836E0,7.2345676E0,-2.8535595E0,3.3180325E0,4.958954E0,1.0635027E1,7.957138E0,9.9885267E-1,1.5575625E1,8.098548E0,1.4013065E1,2.0940586E1],"categories":[],"categories_nodes":[],"categories_segments":[],"categories_sizes":[],"default_left":[0,0,0,0,0,0,0,0,0,0,0,0,0,0,0,0,0,0,0,0,0,0,0,0,0,0,0,0,0],"id":7,"left_children":[1,3,5,7,9,11,13,15,17,19,21,23,25,27,-1,-1,-1,-1,-1,-1,-1,-1,-1,-1,-1,-1,-1,-1,-1],"loss_changes":[5.5994805E6,1.440686E6,1.6142752E6,9.877725E5,1.3014931E5,4.89194E5,2.20355E4,8.895325E4,1.5284638E5,3.4462484E4,1.9386969E4,1.91953E5,1.04648625E5,4.986525E4,0E0,0E0,0E0,0E0,0E0,0E0,0E0,0E0,0E0,0E0,0E0,0E0,0E0,0E0,0E0],"parents":[2147483647,0,0,1,1,2,2,3,3,4,4,5,5,6,6,7,7,8,8,9,9,10,10,11,11,12,12,13,13],"right_children":[2,4,6,8,10,12,14,16,18,20,22,24,26,28,-1,-1,-1,-1,-1,-1,-1,-1,-1,-1,-1,-1,-1,-1,-1],"split_conditions":[5E0,1.5E1,1.3E1,3E0,3E0,7E0,2.3E1,2E0,1.3E1,1.9E1,1.9E1,9E0,9E0,6E0,1.307715E1,-1.3648012E1,-9.772095E0,-4.132836E0,7.2345676E0,-2.8535595E0,3.3180325E0,4.958954E0,1.0635027E1,7.957138E0,9.9885267E-1,1.5575625E1,8.098548E0,1.4013065E1,2.0940586E1],"split_indices":[0,1,1,0,0,0,1,0,1,1,1,1,1,0,0,0,0,0,0,0,0,0,0,0,0,0,0,0,0],"split_type":[0,0,0,0,0,0,0,0,0,0,0,0,0,0,0,0,0,0,0,0,0,0,0,0,0,0,0,0,0],"sum_hessian":[7.73E2,4.4E2,3.33E2,3.82E2,5.8E1,2.56E2,7.7E1,1.87E2,1.95E2,2.8E1,3E1,1.72E2,8.4E1,6.1E1,1.6E1,9.7E1,9E1,1.88E2,7E0,7E0,2.1E1,8E0,2.2E1,3E1,1.42E2,1.6E1,6.8E1,2E1,4.1E1],"tree_param":{"num_deleted":"0","num_feature":"2","num_nodes":"29","size_leaf_vector":"1"}},{"base_weights":[-1.8042523E0,-6.993725E1,8.938825E1,-9.266466E1,6.8619606E1,5.5366337E1,2.0887166E2,-1.3917052E2,-4.759153E1,2.2300817E1,1.15713165E2,2.8946363E1,1.1006335E2,1.6593176E2,2.2090733E2,-1.2688948E1,-9.07548E0,9.2869294E-1,-4.959534E0,-1.2010937E0,3.7844734E0,4.9072714E0,1.0813452E1,7.2277026E0,1.1739626E0,1.3967375E1,7.573072E0,7.591316E0,1.4662862E1,1.944368E1,1.2251011E1],"categories":[],"categories_nodes":[],"categories_segments":[],"categories_sizes":[],"default_left":[0,0,0,0,0,0,0,0,0,0,0,0,0,0,0,0,0,0,0,0,0,0,0,0,0,0,0,0,0,0,0],"id":8,"left_children":[1,3,5,7,9,11,13,15,17,19,21,23,25,27,29,-1,-1,-1,-1,-1,-1,-1,-1,-1,-1,-1,-1,-1,-1,-1,-1],"loss_changes":[4.8090695E6,1.401383E6,1.3339688E6,7.9201525E5,1.348425E5,3.710932E5,1.0715E3,7.553775E4,1.669844E5,3.1500975E4,2.4500812E4,1.5290114E5,6.694669E4,7.264375E3,4.379825E4,0E0,0E0,0E0,0E0,0E0,0E0,0E0,0E0,0E0,0E0,0E0,0E0,0E0,0E0,0E0,0E0],"parents":[2147483647,0,0,1,1,2,2,3,3,4,4,5,5,6,6,7,7,8,8,9,9,10,10,11,11,12,12,13,13,14,14],"right_children":[2,4,6,8,10,12,14,16,18,20,22,24,26,28,30,-1,-1,-1,-1,-1,-1,-1,-1,-1,-1,-1,-1,-1,-1,-1,-1],"split_conditions":[5E0,1.5E1,1.3E1,3E0,3E0,7E0,6E0,2E0,1E1,2E0,1.9E1,9E0,9E0,1.7E1,2.3E1,-1.2688948E1,-9.07548E0,9.2869294E-1,-4.959534E0,-1.2010937E0,3.7844734E0,4.9072714E0,1.0813452E1,7.2277026E0,1.1739626E0,1.3967375E1,7.573072E0,7.591316E0,1.4662862E1,1.944368E1,1.2251011E1],"split_indices":[0,1,1,0,0,0,0,0,1,0,1,1,1,1,1,0,0,0,0,0,0,0,0,0,0,0,0,0,0,0,0],"split_type":[0,0,0,0,0,0,0,0,0,0,0,0,0,0,0,0,0,0,0,0,0,0,0,0,0,0,0,0,0,0,0],"sum_hessian":[7.72E2,4.42E2,3.3E2,3.8E2,6.2E1,2.58E2,7.2E1,1.86E2,1.94E2,3.2E1,3E1,1.75E2,8.3E1,1.9E1,5.3E1,1.03E2,8.3E1,3.8E1,1.56E2,1.3E1,1.9E1,9E0,2.1E1,3.2E1,1.43E2,1.4E1,6.9E1,5E0,1.4E1,3.8E1,1.5E1],"tree_param":{"num_deleted":"0","num_feature":"2","num_nodes":"31","size_leaf_vector":"1"}},{"base_weights":[-9.618666E-1,-6.3476784E1,8.4709694E1,-8.264143E1,6.0554348E1,4.5308712E1,1.8208946E2,-1.24479034E2,-4.166294E1,1.7846159E1,1.0266766E2,2.1700703E1,9.5421745E1,1.2700963E2,2.0630193E2,-1.1650627E1,-7.9892154E0,-3.7782376E0,7.601505E0,-2.2140625E0,2.582124E0,5.150308E0,9.093164E0,6.7817664E0,6.058146E-1,1.2763516E1,6.435016E0,5.2442546E0,1.2989924E1,1.824311E1,1.1143255E1],"categories":[],"categories_nodes":[],"categories_segments":[],"categories_sizes":[],"default_left":[0,0,0,0,0,0,0,0,0,0,0,0,0,0,0,0,0,0,0,0,0,0,0,0,0,0,0,0,0,0,0],"id":9,"left_children":[1,3,5,7,9,11,13,15,17,19,21,23,25,27,29,-1,-1,-1,-1,-1,-1,-1,-1,-1,-1,-1,-1,-1,-1,-1,-1],"loss_changes":[4.1132375E6,1.0603984E6,1.234892E6,6.5487425E5,1.0608278E5,2.724013E5,9.782425E4,8.43845E4,1.5357266E5,2.1257158E4,5.314125E3,1.4103875E5,5.8266562E4,5.6730438E4,6.00035E4,0E0,0E0,0E0,0E0,0E0,0E0,0E0,0E0,0E0,0E0,0E0,0E0,0E0,0E0,0E0,0E0],"parents":[2147483647,0,0,1,1,2,2,3,3,4,4,5,5,6,6,7,7,8,8,9,9,10,10,11,11,12,12,13,13,14,14],"right_children":[2,4,6,8,10,12,14,16,18,20,22,24,26,28,30,-1,-1,-1,-1,-1,-1,-1,-1,-1,-1,-1,-1,-1,-1,-1,-1],"split_conditions":[5E0,1.5E1,1.2E1,3E0,3E0,7E0,6E0,2E0,1.3E1,1.9E1,1.9E1,9E0,9E0,1.5E1,2.3E1,-1.1650627E1,-7.9892154E0,-3.7782376E0,7.601505E0,-2.2140625E0,2.582124E0,5.150308E0,9.093164E0,6.7817664E0,6.058146E-1,1.2763516E1,6.435016E0,5.2442546E0,1.2989924E1,1.824311E1,1.1143255E1],"split_indices":[0,1,1,0,0,0,0,0,1,1,1,1,1,1,1,0,0,0,0,0,0,0,0,0,0,0,0,0,0,0,0],"split_type":[0,0,0,0,0,0,0,0,0,0,0,0,0,0,0,0,0,0,0,0,0,0,0,0,0,0,0,0,0,0,0],"sum_hessian":[7.66E2,4.43E2,3.23E2,3.84E2,5.9E1,2.31E2,9.2E1,1.89E2,1.95E2,3E1,2.9E1,1.58E2,7.3E1,3E1,6.2E1,9.9E1,9E1,1.88E2,7E0,7E0,2.3E1,8E0,2.1E1,2.8E1,1.3E2,1.2E1,6.1E1,1.2E1,1.8E1,4.5E1,1.7E1],"tree_param":{"num_deleted":"0","num_feature":"2","num_nodes":"31","size_leaf_vector":"1"}},{"base_weights":[3.032384E0,-7.39369E1,6.039932E1,-9.211392E1,4.4241665E1,3.1948006E1,1.6643524E2,-1.1275573E2,-5.2207306E1,-1.435269E1,6.666307E1,-6.886839E0,7.1048676E1,1.3364902E2,1.842224E2,-9.494904E0,-3.7732968E0,-4.7702427E0,4.2224383E0,-1.7980359E0,-9.041829E-2,1.769445E0,5.9274364E0,4.2709904E0,-1.7958306E0,9.997287E0,4.54873E0,7.36964E0,1.2249313E1,1.636576E1,1.0301315E1],"categories":[],"categories_nodes":[],"categories_segments":[],"categories_sizes":[],"default_left":[0,0,0,0,0,0,0,0,0,0,0,0,0,0,0,0,0,0,0,0,0,0,0,0,0,0,0,0,0,0,0],"id":10,"left_children":[1,3,5,7,9,11,13,15,17,19,21,23,25,27,29,-1,-1,-1,-1,-1,-1,-1,-1,-1,-1,-1,-1,-1,-1,-1,-1],"loss_changes":[3.3602395E6,7.0221875E5,1.3100344E6,2.2640925E5,5.876257E4,5.243609E5,2.903075E4,6.636375E4,7.949766E4,1.3708347E3,8.9520625E3,1.6439822E5,1.2448556E5,1.4999125E4,3.7982875E4,0E0,0E0,0E0,0E0,0E0,0E0,0E0,0E0,0E0,0E0,0E0,0E0,0E0,0E0,0E0,0E0],"parents":[2147483647,0,0,1,1,2,2,3,3,4,4,5,5,6,6,7,7,8,8,9,9,10,10,11,11,12,12,13,13,14,14],"right_children":[2,4,6,8,10,12,14,16,18,20,22,24,26,28,30,-1,-1,-1,-1,-1,-1,-1,-1,-1,-1,-1,-1,-1,-1,-1,-1],"split_conditions":[4E0,1.6E1,1.3E1,3E0,2E0,6E0,6E0,1.4E1,1.3E1,2.3E1,1.9E1,1E1,9E0,1.9E1,2.3E1,-9.494904E0,-3.7732968E0,-4.7702427E0,4.2224383E0,-1.7980359E0,-9.041829E-2,1.769445E0,5.9274364E0,4.2709904E0,-1.7958306E0,9.997287E0,4.54873E0,7.36964E0,1.2249313E1,1.636576E1,1.0301315E1],"split_indices":[0,1,1,0,0,0,0,1,1,1,1,1,1,1,1,0,0,0,0,0,0,0,0,0,0,0,0,0,0,0,0],"split_type":[0,0,0,0,0,0,0,0,0,0,0,0,0,0,0,0,0,0,0,0,0,0,0,0,0,0,0,0,0,0,0],"sum_hessian":[7.59E2,3.24E2,4.35E2,2.81E2,4.3E1,3.44E2,9.1E1,1.84E2,9.7E1,1.2E1,3.1E1,1.73E2,1.71E2,3.5E1,5.6E1,1.68E2,1.6E1,9.1E1,6E0,7E0,5E0,5E0,2.6E1,3.5E1,1.38E2,3.4E1,1.37E2,1.3E1,2.2E1,3.9E1,1.7E1],"tree_param":{"num_deleted":"0","num_feature":"2","num_nodes":"31","size_leaf_vector":"1"}},{"base_weights":[8.692592E-1,-6.982884E1,5.3450005E1,-8.707558E1,4.9686436E1,2.7637777E1,1.5667818E2,-1.1753407E2,-7.115124E1,-5.411066E0,6.70735E1,-9.616083E0,6.536961E1,1.302767E2,1.6943835E2,-1.049481E1,-5.8377295E0,-1.48994E0,-6.6584716E0,-1.9905566E0,1.3443685E-1,4.5500307E0,8.142889E0,3.7582855E0,-1.6696725E0,9.853863E0,4.1335187E0,6.5774775E0,1.158982E1,1.4805509E1,9.815497E0],"categories":[],"categories_nodes":[],"categories_segments":[],"categories_sizes":[],"default_left":[0,0,0,0,0,0,0,0,0,0,0,0,0,0,0,0,0,0,0,0,0,0,0,0,0,0,0,0,0,0,0],"id":11,"left_children":[1,3,5,7,9,11,13,15,17,19,21,23,25,27,29,-1,-1,-1,-1,-1,-1,-1,-1,-1,-1,-1,-1,-1,-1,-1,-1],"loss_changes":[2.8586642E6,6.804161E5,1.1707358E6,1.3084125E5,4.0598258E4,4.98231E5,7.57225E3,4.943475E4,1.1964094E5,1.5606749E3,5.5389844E3,1.14996836E5,1.3301844E5,1.12369375E4,1.820925E4,0E0,0E0,0E0,0E0,0E0,0E0,0E0,0E0,0E0,0E0,0E0,0E0,0E0,0E0,0E0,0E0],"parents":[2147483647,0,0,1,1,2,2,3,3,4,4,5,5,6,6,7,7,8,8,9,9,10,10,11,11,12,12,13,13,14,14],"right_children":[2,4,6,8,10,12,14,16,18,20,22,24,26,28,30,-1,-1,-1,-1,-1,-1,-1,-1,-1,-1,-1,-1,-1,-1,-1,-1],"split_conditions":[4E0,1.6E1,1.3E1,2E0,2E0,6E0,6E0,1.3E1,1E1,2E1,2.3E1,9E0,9E0,1.7E1,2.3E1,-1.049481E1,-5.8377295E0,-1.48994E0,-6.6584716E0,-1.9905566E0,1.3443685E-1,4.5500307E0,8.142889E0,3.7582855E0,-1.6696725E0,9.853863E0,4.1335187E0,6.5774775E0,1.158982E1,1.4805509E1,9.815497E0],"split_indices":[0,1,1,0,0,0,0,1,1,1,1,1,1,1,1,0,0,0,0,0,0,0,0,0,0,0,0,0,0,0,0],"split_type":[0,0,0,0,0,0,0,0,0,0,0,0,0,0,0,0,0,0,0,0,0,0,0,0,0,0,0,0,0,0,0],"sum_hessian":[7.67E2,3.27E2,4.4E2,2.86E2,4.1E1,3.53E2,8.7E1,9.6E1,1.9E2,1E1,3.1E1,1.78E2,1.75E2,3.2E1,5.5E1,7.2E1,2.4E1,3.6E1,1.54E2,2E0,8E0,2.6E1,5E0,2.9E1,1.49E2,3.2E1,1.43E2,9E0,2.3E1,3.9E1,1.6E1],"tree_param":{"num_deleted":"0","num_feature":"2","num_nodes":"31","size_leaf_vector":"1"}},{"base_weights":[7.463824E-1,-6.569701E1,5.004628E1,-8.3506775E1,3.6323494E1,2.5799252E1,1.422212E2,-1.1661436E2,-6.530268E1,-1.1135508E1,5.2016563E1,7.4768705E0,8.4208336E1,1.0153708E2,1.5019545E2,-1.5969821E1,-8.635209E0,-1.0922551E0,-6.2425475E0,-1.6556878E0,6.640527E-1,5.499815E-1,5.3024716E0,4.3969254E0,-1.9525236E-1,1.100072E1,5.7120657E0,5.0866246E0,9.592763E0,9.806254E0,1.3008085E1],"categories":[],"categories_nodes":[],"categories_segments":[],"categories_sizes":[],"default_left":[0,0,0,0,0,0,0,0,0,0,0,0,0,0,0,0,0,0,0,0,0,0,0,0,0,0,0,0,0,0,0],"id":12,"left_children":[1,3,5,7,9,11,13,15,17,19,21,23,25,27,29,-1,-1,-1,-1,-1,-1,-1,-1,-1,-1,-1,-1,-1,-1,-1,-1],"loss_changes":[2.499335E6,5.935459E5,9.7524675E5,1.5933088E5,3.707332E4,3.7179778E5,1.427225E4,4.8296125E4,1.17933875E5,2.5874675E3,2.3369281E4,1.254017E5,4.6841562E4,4.927453E3,5.42175E3,0E0,0E0,0E0,0E0,0E0,0E0,0E0,0E0,0E0,0E0,0E0,0E0,0E0,0E0,0E0,0E0],"parents":[2147483647,0,0,1,1,2,2,3,3,4,4,5,5,6,6,7,7,8,8,9,9,10,10,11,11,12,12,13,13,14,14],"right_children":[2,4,6,8,10,12,14,16,18,20,22,24,26,28,30,-1,-1,-1,-1,-1,-1,-1,-1,-1,-1,-1,-1,-1,-1,-1,-1],"split_conditions":[4E0,1.5E1,1.3E1,2E0,2E0,7E0,5E0,1E0,1E1,2.3E1,1.9E1,9E0,9E0,1.9E1,1.8E1,-1.5969821E1,-8.635209E0,-1.0922551E0,-6.2425475E0,-1.6556878E0,6.640527E-1,5.499815E-1,5.3024716E0,4.3969254E0,-1.9525236E-1,1.100072E1,5.7120657E0,5.0866246E0,9.592763E0,9.806254E0,1.3008085E1],"split_indices":[0,1,1,0,0,0,0,1,1,1,1,1,1,1,1,0,0,0,0,0,0,0,0,0,0,0,0,0,0,0,0],"split_type":[0,0,0,0,0,0,0,0,0,0,0,0,0,0,0,0,0,0,0,0,0,0,0,0,0,0,0,0,0,0,0],"sum_hessian":[7.61E2,3.24E2,4.37E2,2.76E2,4.8E1,3.47E2,9E1,9.6E1,1.8E2,1.2E1,3.6E1,2.65E2,8.2E1,1.7E1,7.3E1,7E0,8.9E1,3.6E1,1.44E2,8E0,4E0,9E0,2.7E1,4.5E1,2.2E2,1.4E1,6.8E1,7E0,1E1,2.6E1,4.7E1],"tree_param":{"num_deleted":"0","num_feature":"2","num_nodes":"31","size_leaf_vector":"1"}},{"base_weights":[-1.7386287E0,-6.429024E1,4.5574516E1,-7.855487E1,2.5175978E1,2.4887232E1,1.2571961E2,-1.1271575E2,-5.8492516E1,-1.6537646E0,4.017599E1,-9.310542E0,5.93365E1,1.3304553E2,6.949279E0,-9.789412E0,-6.452626E0,-1.3721915E0,-5.462827E0,-6.245117E-2,4.5271893E0,1.7382224E0,-1.4004447E0,2.8950467E0,6.54423E0,8.994287E0,1.48579035E1],"categories":[],"categories_nodes":[],"categories_segments":[],"categories_sizes":[],"default_left":[0,0,0,0,0,0,0,0,0,0,0,0,0,0,0,0,0,0,0,0,0,0,0,0,0,0,0],"id":13,"left_children":[1,3,5,7,9,11,13,15,17,-1,19,21,23,25,-1,-1,-1,-1,-1,-1,-1,-1,-1,-1,-1,-1,-1],"loss_changes":[2.2610388E6,4.2184838E5,7.1809444E5,1.8804575E5,3.246569E4,4.0934906E5,1.377575E4,2.230975E4,7.210419E4,0E0,2.3573176E4,4.489328E4,8.701025E4,5.8402125E4,0E0,0E0,0E0,0E0,0E0,0E0,0E0,0E0,0E0,0E0,0E0,0E0,0E0],"parents":[2147483647,0,0,1,1,2,2,3,3,4,4,5,5,6,6,7,7,8,8,10,10,11,11,12,12,13,13],"right_children":[2,4,6,8,10,12,14,16,18,-1,20,22,24,26,-1,-1,-1,-1,-1,-1,-1,-1,-1,-1,-1,-1,-1],"split_conditions":[4E0,1.5E1,1.3E1,2E0,2E0,6E0,2.3E1,1.3E1,1E1,-1.6537646E0,1.9E1,1E1,7E0,7E0,6.949279E0,-9.789412E0,-6.452626E0,-1.3721915E0,-5.462827E0,-6.245117E-2,4.5271893E0,1.7382224E0,-1.4004447E0,2.8950467E0,6.54423E0,8.994287E0,1.48579035E1],"split_indices":[0,1,1,0,0,0,1,1,1,0,1,1,0,0,0,0,0,0,0,0,0,0,0,0,0,0,0],"split_type":[0,0,0,0,0,0,0,0,0,0,0,0,0,0,0,0,0,0,0,0,0,0,0,0,0,0,0],"sum_hessian":[7.62E2,3.28E2,4.34E2,2.83E2,4.5E1,3.46E2,8.8E1,1.03E2,1.8E2,1.1E1,3.4E1,1.74E2,1.72E2,7.2E1,1.6E1,7.7E1,2.6E1,3.5E1,1.45E2,1E1,2.4E1,3.6E1,1.38E2,8.6E1,8.6E1,5.4E1,1.8E1],"tree_param":{"num_deleted":"0","num_feature":"2","num_nodes":"27","size_leaf_vector":"1"}},{"base_weights":[9.225919E-1,-5.5875576E1,4.2785236E1,-6.884514E1,2.3130625E1,2.163376E1,1.2153561E2,-8.4181984E1,-3.7769646E1,-1.098415E1,3.5140953E1,-8.447294E0,5.176281E1,9.424509E1,1.3759708E2,-1.304277E1,-6.418535E0,-3.6121209E0,6.3402634E0,-1.4074157E0,-2.736491E-2,-1.302037E0,3.3840272E0,2.535148E0,-1.2961944E0,7.9539237E0,3.3659227E0,4.946949E0,8.845867E0,1.2102644E1,7.445728E0],"categories":[],"categories_nodes":[],"categories_segments":[],"categories_sizes":[],"default_left":[0,0,0,0,0,0,0,0,0,0,0,0,0,0,0,0,0,0,0,0,0,0,0,0,0,0,0,0,0,0,0],"id":14,"left_children":[1,3,5,7,9,11,13,15,17,19,21,23,25,27,29,-1,-1,-1,-1,-1,-1,-1,-1,-1,-1,-1,-1,-1,-1,-1,-1],"loss_changes":[1.8379916E6,3.3768606E5,7.3860125E5,1.3122175E5,1.9643281E4,3.1945962E5,2.823475E4,4.547975E4,8.564394E4,9.08256E2,1.3572316E4,5.5607375E4,7.708994E4,1.3270969E4,2.0654125E4,0E0,0E0,0E0,0E0,0E0,0E0,0E0,0E0,0E0,0E0,0E0,0E0,0E0,0E0,0E0,0E0],"parents":[2147483647,0,0,1,1,2,2,3,3,4,4,5,5,6,6,7,7,8,8,9,9,10,10,11,11,12,12,13,13,14,14],"right_children":[2,4,6,8,10,12,14,16,18,20,22,24,26,28,30,-1,-1,-1,-1,-1,-1,-1,-1,-1,-1,-1,-1,-1,-1,-1,-1],"split_conditions":[4E0,1.5E1,1.3E1,3E0,2E0,6E0,6E0,1E0,1.3E1,2.3E1,1.6E1,9E0,9E0,1.9E1,2.3E1,-1.304277E1,-6.418535E0,-3.6121209E0,6.3402634E0,-1.4074157E0,-2.736491E-2,-1.302037E0,3.3840272E0,2.535148E0,-1.2961944E0,7.9539237E0,3.3659227E0,4.946949E0,8.845867E0,1.2102644E1,7.445728E0],"split_indices":[0,1,1,0,0,0,0,1,1,1,1,1,1,1,1,0,0,0,0,0,0,0,0,0,0,0,0,0,0,0,0],"split_type":[0,0,0,0,0,0,0,0,0,0,0,0,0,0,0,0,0,0,0,0,0,0,0,0,0,0,0,0,0,0,0],"sum_hessian":[7.71E2,3.27E2,4.44E2,2.81E2,4.6E1,3.51E2,9.3E1,1.87E2,9.4E1,1.2E1,3.4E1,1.76E2,1.75E2,3.7E1,5.6E1,7E0,1.8E2,8.9E1,5E0,7E0,5E0,4E0,3E1,2.8E1,1.48E2,2.8E1,1.47E2,1.4E1,2.3E1,4.1E1,1.5E1],"tree_param":{"num_deleted":"0","num_feature":"2","num_nodes":"31","size_leaf_vector":"1"}},{"base_weights":[-8.5127336E-1,-3.847257E1,4.8252205E1,-5.2902084E1,3.0917295E1,2.3460747E1,1.1539908E2,-7.849888E1,-2.9598608E1,-3.782768E1,6.0166676E1,-9.729773E0,3.8914963E1,8.606886E1,1.2885396E2,-3.768405E0,-6.9988437E0,8.693833E-1,-3.2153752E0,-4.9523396E0,-8.4790444E-1,3.6520724E0,7.5117245E0,2.4293435E0,-1.4573013E0,6.7138705E0,2.236643E0,4.870408E0,8.710255E0,1.13561945E1,7.0514274E0],"categories":[],"categories_nodes":[],"categories_segments":[],"categories_sizes":[],"default_left":[0,0,0,0,0,0,0,0,0,0,0,0,0,0,0,0,0,0,0,0,0,0,0,0,0,0,0,0,0,0,0],"id":15,"left_children":[1,3,5,7,9,11,13,15,17,19,21,23,25,27,29,-1,-1,-1,-1,-1,-1,-1,-1,-1,-1,-1,-1,-1,-1,-1,-1],"loss_changes":[1.4095268E6,4.3418088E5,5.4829794E5,2.1122156E5,1.5308206E5,1.2502145E5,2.403225E4,4.3840312E4,8.145709E4,1.4422176E4,2.1663125E4,2.7094957E4,7.951719E4,1.1182172E4,1.895E4,0E0,0E0,0E0,0E0,0E0,0E0,0E0,0E0,0E0,0E0,0E0,0E0,0E0,0E0,0E0,0E0],"parents":[2147483647,0,0,1,1,2,2,3,3,4,4,5,5,6,6,7,7,8,8,9,9,10,10,11,11,12,12,13,13,14,14],"right_children":[2,4,6,8,10,12,14,16,18,20,22,24,26,28,30,-1,-1,-1,-1,-1,-1,-1,-1,-1,-1,-1,-1,-1,-1,-1,-1],"split_conditions":[5E0,1.4E1,1.2E1,3E0,2E0,6E0,6E0,1E1,1E1,1.5E1,4E0,9E0,9E0,1.8E1,2.3E1,-3.768405E0,-6.9988437E0,8.693833E-1,-3.2153752E0,-4.9523396E0,-8.4790444E-1,3.6520724E0,7.5117245E0,2.4293435E0,-1.4573013E0,6.7138705E0,2.236643E0,4.870408E0,8.710255E0,1.13561945E1,7.0514274E0],"split_indices":[0,1,1,0,0,0,0,1,1,1,0,1,1,1,1,0,0,0,0,0,0,0,0,0,0,0,0,0,0,0,0],"split_type":[0,0,0,0,0,0,0,0,0,0,0,0,0,0,0,0,0,0,0,0,0,0,0,0,0,0,0,0,0,0,0],"sum_hessian":[7.61E2,4.31E2,3.3E2,3.57E2,7.4E1,2.42E2,8.8E1,1.69E2,1.88E2,2.2E1,5.2E1,7.7E1,1.65E2,3E1,5.8E1,3.9E1,1.3E2,3.9E1,1.49E2,1.1E1,1.1E1,3.8E1,1.4E1,1.3E1,6.4E1,3.1E1,1.34E2,1.6E1,1.4E1,4.2E1,1.6E1],"tree_param":{"num_deleted":"0","num_feature":"2","num_nodes":"31","size_leaf_vector":"1"}},{"base_weights":[3.5642928E-1,-4.869968E1,3.714771E1,-5.894617E1,2.5713013E1,1.9195463E1,1.0378697E2,-8.194192E1,-4.6236702E1,6.810796E0,4.385764E0,-7.6720433E0,4.5650932E1,8.188695E1,1.1656617E2,-7.175023E0,-4.639272E0,-5.7351846E-1,-4.3480835E0,-6.040446E-1,1.427666E0,2.7628012E0,-1.4179144E0,3.365311E0,1.5213274E1,4.320274E0,7.8179107E0,1.0161204E1,6.5481944E0],"categories":[],"categories_nodes":[],"categories_segments":[],"categories_sizes":[],"default_left":[0,0,0,0,0,0,0,0,0,0,0,0,0,0,0,0,0,0,0,0,0,0,0,0,0,0,0,0,0],"id":16,"left_children":[1,3,5,7,9,11,13,15,17,19,-1,21,23,25,27,-1,-1,-1,-1,-1,-1,-1,-1,-1,-1,-1,-1,-1,-1],"loss_changes":[1.4023626E6,2.5541775E5,5.291759E5,8.184456E4,2.2185854E4,2.4983838E5,1.6761938E4,1.3907625E4,6.015903E4,4.2551724E3,0E0,7.48577E4,8.369006E4,1.1502984E4,1.02785625E4,0E0,0E0,0E0,0E0,0E0,0E0,0E0,0E0,0E0,0E0,0E0,0E0,0E0,0E0],"parents":[2147483647,0,0,1,1,2,2,3,3,4,4,5,5,6,6,7,7,8,8,9,9,11,11,12,12,13,13,14,14],"right_children":[2,4,6,8,10,12,14,16,18,20,-1,22,24,26,28,-1,-1,-1,-1,-1,-1,-1,-1,-1,-1,-1,-1,-1,-1],"split_conditions":[4E0,1.6E1,1.3E1,2E0,3E0,6E0,6E0,1.3E1,1E1,2E0,4.385764E0,1E1,1.2E1,1.9E1,2.3E1,-7.175023E0,-4.639272E0,-5.7351846E-1,-4.3480835E0,-6.040446E-1,1.427666E0,2.7628012E0,-1.4179144E0,3.365311E0,1.5213274E1,4.320274E0,7.8179107E0,1.0161204E1,6.5481944E0],"split_indices":[0,1,1,0,0,0,0,1,1,0,0,1,1,1,1,0,0,0,0,0,0,0,0,0,0,0,0,0,0],"split_type":[0,0,0,0,0,0,0,0,0,0,0,0,0,0,0,0,0,0,0,0,0,0,0,0,0,0,0,0,0],"sum_hessian":[7.75E2,3.32E2,4.43E2,2.92E2,4E1,3.5E2,9.3E1,1.02E2,1.9E2,2.5E1,1.5E1,1.74E2,1.76E2,3.7E1,5.6E1,7.5E1,2.7E1,3.3E1,1.57E2,1.1E1,1.4E1,3.3E1,1.41E2,1.73E2,3E0,1.5E1,2.2E1,4.1E1,1.5E1],"tree_param":{"num_deleted":"0","num_feature":"2","num_nodes":"29","size_leaf_vector":"1"}},{"base_weights":[1.5154253E0,-4.1375294E1,3.423366E1,-5.7402603E1,1.7690567E0,1.8413961E1,9.6562546E1,-8.6588E1,-4.3356354E1,-1.5584385E1,5.5326553E1,6.217521E0,5.7486263E1,8.0524284E1,1.238165E2,-1.24876375E1,-6.1819406E0,-4.6168083E-1,-4.2341175E0,-2.8730383E0,1.4908303E0,6.330249E0,3.49372E0,3.5787802E0,-1.0988906E-1,8.2548895E0,3.711756E0,5.1988173E0,7.387462E0,1.2803769E1,5.678251E0],"categories":[],"categories_nodes":[],"categories_segments":[],"categories_sizes":[],"default_left":[0,0,0,0,0,0,0,0,0,0,0,0,0,0,0,0,0,0,0,0,0,0,0,0,0,0,0,0,0,0,0],"id":17,"left_children":[1,3,5,7,9,11,13,15,17,19,21,23,25,27,29,-1,-1,-1,-1,-1,-1,-1,-1,-1,-1,-1,-1,-1,-1,-1,-1],"loss_changes":[1.053898E6,2.2483506E5,4.1826822E5,9.3402875E4,8.3579445E4,1.6214372E5,2.7620875E4,3.7138312E4,5.7965344E4,4.797275E4,2.6473438E3,7.63751E4,3.6261656E4,4.4674688E3,4.6071156E4,0E0,0E0,0E0,0E0,0E0,0E0,0E0,0E0,0E0,0E0,0E0,0E0,0E0,0E0,0E0,0E0],"parents":[2147483647,0,0,1,1,2,2,3,3,4,4,5,5,6,6,7,7,8,8,9,9,10,10,11,11,12,12,13,13,14,14],"right_children":[2,4,6,8,10,12,14,16,18,20,22,24,26,28,30,-1,-1,-1,-1,-1,-1,-1,-1,-1,-1,-1,-1,-1,-1,-1,-1],"split_conditions":[4E0,1.3E1,1.3E1,2E0,3E0,7E0,7E0,1E0,1E1,1.9E1,1.5E1,9E0,9E0,1.9E1,2.3E1,-1.24876375E1,-6.1819406E0,-4.6168083E-1,-4.2341175E0,-2.8730383E0,1.4908303E0,6.330249E0,3.49372E0,3.5787802E0,-1.0988906E-1,8.2548895E0,3.711756E0,5.1988173E0,7.387462E0,1.2803769E1,5.678251E0],"split_indices":[0,1,1,0,0,0,0,1,1,1,1,1,1,1,1,0,0,0,0,0,0,0,0,0,0,0,0,0,0,0,0],"split_type":[0,0,0,0,0,0,0,0,0,0,0,0,0,0,0,0,0,0,0,0,0,0,0,0,0,0,0,0,0,0,0],"sum_hessian":[7.49E2,3.24E2,4.25E2,2.36E2,8.8E1,3.4E2,8.5E1,7.5E1,1.61E2,6.7E1,2.1E1,2.6E2,8E1,5.6E1,2.9E1,7E0,6.8E1,3.3E1,1.28E2,4.2E1,2.5E1,5E0,1.6E1,4.2E1,2.18E2,1.4E1,6.6E1,2.7E1,2.9E1,1.6E1,1.3E1],"tree_param":{"num_deleted":"0","num_feature":"2","num_nodes":"31","size_leaf_vector":"1"}},{"base_weights":[5.66755E-1,-4.171484E1,3.1597818E1,-5.0914482E1,2.395551E1,1.7301834E1,8.87472E1,-7.62274E1,-3.7155888E1,-1.4809426E1,3.73708E1,6.0079007E0,5.0858685E1,4.8631063E0,9.5665146E1,-1.0470742E1,-5.7505198E0,-3.7967954E0,-7.483155E-1,-2.1439111E0,-2.813802E-2,2.1442142E0,6.7880697E0,3.0273068E0,-3.0887563E-2,3.709645E0,1.300522E1,5.938436E0,8.637614E0],"categories":[],"categories_nodes":[],"categories_segments":[],"categories_sizes":[],"default_left":[0,0,0,0,0,0,0,0,0,0,0,0,0,0,0,0,0,0,0,0,0,0,0,0,0,0,0,0,0],"id":18,"left_children":[1,3,5,7,9,11,13,15,17,19,21,23,25,-1,27,-1,-1,-1,-1,-1,-1,-1,-1,-1,-1,-1,-1,-1,-1],"loss_changes":[9.919104E5,1.9454562E5,3.546794E5,9.5031625E4,2.1355162E4,1.3234053E5,1.1011625E4,1.3870125E4,5.2267047E4,1.8973147E3,1.2779027E4,5.3546375E4,3.6580797E4,0E0,9.9206875E3,0E0,0E0,0E0,0E0,0E0,0E0,0E0,0E0,0E0,0E0,0E0,0E0,0E0,0E0],"parents":[2147483647,0,0,1,1,2,2,3,3,4,4,5,5,6,6,7,7,8,8,9,9,10,10,11,11,12,12,14,14],"right_children":[2,4,6,8,10,12,14,16,18,20,22,24,26,-1,28,-1,-1,-1,-1,-1,-1,-1,-1,-1,-1,-1,-1,-1,-1],"split_conditions":[4E0,1.6E1,1.3E1,2E0,2E0,7E0,1.6E1,1E0,1.2E1,2.3E1,2.3E1,9E0,1.2E1,4.8631063E0,6E0,-1.0470742E1,-5.7505198E0,-3.7967954E0,-7.483155E-1,-2.1439111E0,-2.813802E-2,2.1442142E0,6.7880697E0,3.0273068E0,-3.0887563E-2,3.709645E0,1.300522E1,5.938436E0,8.637614E0],"split_indices":[0,1,1,0,0,0,1,1,1,1,1,1,1,0,0,0,0,0,0,0,0,0,0,0,0,0,0,0,0],"split_type":[0,0,0,0,0,0,0,0,0,0,0,0,0,0,0,0,0,0,0,0,0,0,0,0,0,0,0,0,0],"sum_hessian":[7.54E2,3.19E2,4.35E2,2.8E2,3.9E1,3.49E2,8.6E1,9.7E1,1.83E2,1E1,2.9E1,2.62E2,8.7E1,1.9E1,6.7E1,5E0,9.2E1,1.33E2,5E1,5E0,5E0,2.5E1,4E0,4.3E1,2.19E2,8.5E1,2E0,2.7E1,4E1],"tree_param":{"num_deleted":"0","num_feature":"2","num_nodes":"29","size_leaf_vector":"1"}},{"base_weights":[2.0221627E0,-3.446601E1,2.917923E1,-4.6110672E1,1.5986754E1,1.4882381E1,8.1845665E1,-5.9995056E1,-2.228438E1,-2.3779509E1,3.790474E1,3.5664885E0,5.0943012E1,4.4670725E0,8.803642E1,-2.5936322E0,-5.4365454E0,-2.049524E0,5.1988916E0,-3.4371142E0,-6.7022526E-1,7.9920874E0,2.4305048E0,2.469963E0,-1.7640108E-1,7.187017E0,3.350454E0,5.573502E0,8.006812E0],"categories":[],"categories_nodes":[],"categories_segments":[],"categories_sizes":[],"default_left":[0,0,0,0,0,0,0,0,0,0,0,0,0,0,0,0,0,0,0,0,0,0,0,0,0,0,0,0,0],"id":19,"left_children":[1,3,5,7,9,11,13,15,17,19,21,23,25,-1,27,-1,-1,-1,-1,-1,-1,-1,-1,-1,-1,-1,-1,-1,-1],"loss_changes":[7.709442E5,1.9578897E5,3.346039E5,8.7982625E4,5.5811926E4,1.4345481E5,1.0379625E4,3.5119062E4,3.1057746E4,6.435924E3,1.6088293E4,4.2464758E4,2.5845594E4,0E0,9.6251875E3,0E0,0E0,0E0,0E0,0E0,0E0,0E0,0E0,0E0,0E0,0E0,0E0,0E0,0E0],"parents":[2147483647,0,0,1,1,2,2,3,3,4,4,5,5,6,6,7,7,8,8,9,9,10,10,11,11,12,12,14,14],"right_children":[2,4,6,8,10,12,14,16,18,20,22,24,26,-1,28,-1,-1,-1,-1,-1,-1,-1,-1,-1,-1,-1,-1,-1,-1],"split_conditions":[4E0,1.4E1,1.3E1,3E0,2E0,7E0,1.6E1,1E1,1.3E1,1.5E1,1.5E1,9E0,9E0,4.4670725E0,6E0,-2.5936322E0,-5.4365454E0,-2.049524E0,5.1988916E0,-3.4371142E0,-6.7022526E-1,7.9920874E0,2.4305048E0,2.469963E0,-1.7640108E-1,7.187017E0,3.350454E0,5.573502E0,8.006812E0],"split_indices":[0,1,1,0,0,0,1,1,1,1,1,1,1,0,0,0,0,0,0,0,0,0,0,0,0,0,0,0,0],"split_type":[0,0,0,0,0,0,0,0,0,0,0,0,0,0,0,0,0,0,0,0,0,0,0,0,0,0,0,0,0],"sum_hessian":[7.76E2,3.31E2,4.45E2,2.69E2,6.2E1,3.51E2,9.4E1,1.69E2,1E2,2.2E1,4E1,2.68E2,8.3E1,2E1,7.4E1,3.9E1,1.3E2,9.7E1,3E0,9E0,1.3E1,3E0,3.7E1,4.6E1,2.22E2,1.4E1,6.9E1,3.2E1,4.2E1],"tree_param":{"num_deleted":"0","num_feature":"2","num_nodes":"29","size_leaf_vector":"1"}},{"base_weights":[-6.3109916E-1,-3.6895744E1,2.6547815E1,-4.5742863E1,9.037544E0,1.180905E1,6.509139E1,-9.203232E0,-4.1805233E1,-3.1177637E1,3.2427723E1,-1.5044346E-1,4.4951626E1,2.3646917E1,7.8795746E1,9.01355E-1,-4.3191733E0,-3.3329823E0,1.8419595E-2,7.512563E0,1.8759081E0,2.4074788E0,-5.7824075E-1,6.650387E0,2.8800433E0,6.087101E-1,4.960447E0,4.71383E0,7.072123E0],"categories":[],"categories_nodes":[],"categories_segments":[],"categories_sizes":[],"default_left":[0,0,0,0,0,0,0,0,0,0,0,0,0,0,0,0,0,0,0,0,0,0,0,0,0,0,0,0,0],"id":20,"left_children":[1,3,5,7,9,11,13,-1,15,17,19,21,23,25,27,-1,-1,-1,-1,-1,-1,-1,-1,-1,-1,-1,-1,-1,-1],"loss_changes":[7.431617E5,1.3167319E5,2.4407584E5,6.913794E4,5.086496E4,1.2407007E5,6.572516E4,0E0,1.6744516E5,6.5956016E3,1.6566492E4,4.9663855E4,2.537139E4,1.8599342E4,1.178075E4,0E0,0E0,0E0,0E0,0E0,0E0,0E0,0E0,0E0,0E0,0E0,0E0,0E0,0E0],"parents":[2147483647,0,0,1,1,2,2,3,3,4,4,5,5,6,6,8,8,9,9,10,10,11,11,12,12,13,13,14,14],"right_children":[2,4,6,8,10,12,14,-1,16,18,20,22,24,26,28,-1,-1,-1,-1,-1,-1,-1,-1,-1,-1,-1,-1,-1,-1],"split_conditions":[4E0,1.4E1,1.2E1,1E0,2E0,7E0,5E0,-9.203232E0,1E1,2.3E1,1.5E1,9E0,9E0,1.9E1,6E0,9.01355E-1,-4.3191733E0,-3.3329823E0,1.8419595E-2,7.512563E0,1.8759081E0,2.4074788E0,-5.7824075E-1,6.650387E0,2.8800433E0,6.087101E-1,4.960447E0,4.71383E0,7.072123E0],"split_indices":[0,1,1,1,0,0,0,0,1,1,1,1,1,1,0,0,0,0,0,0,0,0,0,0,0,0,0,0,0],"split_type":[0,0,0,0,0,0,0,0,0,0,0,0,0,0,0,0,0,0,0,0,0,0,0,0,0,0,0,0,0],"sum_hessian":[7.52E2,3.22E2,4.3E2,2.7E2,5.2E1,3.12E2,1.18E2,1.3E1,2.57E2,1.9E1,3.3E1,2.3E2,8.2E1,3E1,8.8E1,4.8E1,2.09E2,1.4E1,5E0,3E0,3E1,4.3E1,1.87E2,1.4E1,6.8E1,2.2E1,8E0,3.1E1,5.7E1],"tree_param":{"num_deleted":"0","num_feature":"2","num_nodes":"29","size_leaf_vector":"1"}},{"base_weights":[1.1013112E0,-2.3463892E1,3.3729412E1,-3.2245193E1,2.0997017E1,1.8390398E1,7.34461E1,-4.97839E1,-1.5720775E1,-1.983722E1,3.7550907E1,-9.02209E0,2.9985258E1,4.1747046E0,8.427062E1,-8.38779E0,-3.7018142E0,-1.8147992E0,9.187581E-1,-3.1685214E0,-2.4833007E-1,7.2662907E0,2.5078447E0,-4.8591404E0,-4.1149712E-1,4.8991427E0,1.7654165E0,7.8063116E0,3.5894856E0],"categories":[],"categories_nodes":[],"categories_segments":[],"categories_sizes":[],"default_left":[0,0,0,0,0,0,0,0,0,0,0,0,0,0,0,0,0,0,0,0,0,0,0,0,0,0,0,0,0],"id":21,"left_children":[1,3,5,7,9,11,13,15,17,19,21,23,25,-1,27,-1,-1,-1,-1,-1,-1,-1,-1,-1,-1,-1,-1,-1,-1],"loss_changes":[6.251724E5,1.7441598E5,2.0273625E5,1.0702922E5,5.0766348E4,7.750662E4,1.7006781E4,2.9949656E4,3.6826926E4,7.1546895E3,1.4667805E4,1.4329813E4,4.0963438E4,0E0,2.7084156E4,0E0,0E0,0E0,0E0,0E0,0E0,0E0,0E0,0E0,0E0,0E0,0E0,0E0,0E0],"parents":[2147483647,0,0,1,1,2,2,3,3,4,4,5,5,6,6,7,7,8,8,9,9,10,10,11,11,12,12,14,14],"right_children":[2,4,6,8,10,12,14,16,18,20,22,24,26,-1,28,-1,-1,-1,-1,-1,-1,-1,-1,-1,-1,-1,-1,-1,-1],"split_conditions":[5E0,1.4E1,1.2E1,3E0,2E0,6E0,6E0,1E0,1.2E1,1.5E1,1.5E1,3E0,9E0,4.1747046E0,2.3E1,-8.38779E0,-3.7018142E0,-1.8147992E0,9.187581E-1,-3.1685214E0,-2.4833007E-1,7.2662907E0,2.5078447E0,-4.8591404E0,-4.1149712E-1,4.8991427E0,1.7654165E0,7.8063116E0,3.5894856E0],"split_indices":[0,1,1,0,0,0,0,1,1,1,1,1,1,0,1,0,0,0,0,0,0,0,0,0,0,0,0,0,0],"split_type":[0,0,0,0,0,0,0,0,0,0,0,0,0,0,0,0,0,0,0,0,0,0,0,0,0,0,0,0,0],"sum_hessian":[7.78E2,4.44E2,3.34E2,3.71E2,7.3E1,2.42E2,9.2E1,1.79E2,1.92E2,2.1E1,5.2E1,7.2E1,1.7E2,3.3E1,5.9E1,9E0,1.7E2,1.53E2,3.9E1,9E0,1.2E1,4E0,4.8E1,4E0,6.8E1,3.3E1,1.37E2,4.3E1,1.6E1],"tree_param":{"num_deleted":"0","num_feature":"2","num_nodes":"29","size_leaf_vector":"1"}},{"base_weights":[1.9105196E0,-2.1070444E1,3.1104242E1,-5.9669563E1,-8.336773E0,1.6249287E1,7.0383E1,-9.983419E0,-5.166931E1,-1.7293737E1,3.423721E1,3.5443687E0,4.0571133E1,5.3442005E1,7.880985E1,1.0915469E0,-5.0280366E0,1.2190313E0,-2.0247576E0,6.492656E0,2.2531874E0,2.6136222E0,-2.5761318E-1,6.090018E0,2.5990624E0,3.5245066E0,6.275072E0,7.4646807E0,3.183667E0],"categories":[],"categories_nodes":[],"categories_segments":[],"categories_sizes":[],"default_left":[0,0,0,0,0,0,0,0,0,0,0,0,0,0,0,0,0,0,0,0,0,0,0,0,0,0,0,0,0],"id":22,"left_children":[1,3,5,7,9,11,13,-1,15,17,19,21,23,25,27,-1,-1,-1,-1,-1,-1,-1,-1,-1,-1,-1,-1,-1,-1],"loss_changes":[5.1791916E5,2.1183423E5,1.9724097E5,4.929922E4,1.2490686E5,7.648996E4,9.064844E3,0E0,7.169491E4,7.079218E4,1.3954727E4,3.2417008E4,2.1953969E4,4.520961E3,3.022575E4,0E0,0E0,0E0,0E0,0E0,0E0,0E0,0E0,0E0,0E0,0E0,0E0,0E0,0E0],"parents":[2147483647,0,0,1,1,2,2,3,3,4,4,5,5,6,6,8,8,9,9,10,10,11,11,12,12,13,13,14,14],"right_children":[2,4,6,8,10,12,14,-1,16,18,20,22,24,26,28,-1,-1,-1,-1,-1,-1,-1,-1,-1,-1,-1,-1,-1,-1],"split_conditions":[5E0,2E0,1.2E1,4E0,1.4E1,7E0,6E0,-9.983419E0,1E1,1E1,1.5E1,9E0,9E0,2.1E1,2.3E1,1.0915469E0,-5.0280366E0,1.2190313E0,-2.0247576E0,6.492656E0,2.2531874E0,2.6136222E0,-2.5761318E-1,6.090018E0,2.5990624E0,3.5245066E0,6.275072E0,7.4646807E0,3.183667E0],"split_indices":[0,0,1,1,1,0,0,0,1,1,1,1,1,1,1,0,0,0,0,0,0,0,0,0,0,0,0,0,0],"split_type":[0,0,0,0,0,0,0,0,0,0,0,0,0,0,0,0,0,0,0,0,0,0,0,0,0,0,0,0,0],"sum_hessian":[7.7E2,4.31E2,3.39E2,1.06E2,3.25E2,2.47E2,9.2E1,1E1,9.6E1,2.69E2,5.6E1,1.63E2,8.4E1,3.3E1,5.9E1,1.4E1,8.2E1,5.3E1,2.16E2,5E0,5.1E1,3E1,1.33E2,1.4E1,7E1,2.6E1,7E0,4.2E1,1.7E1],"tree_param":{"num_deleted":"0","num_feature":"2","num_nodes":"29","size_leaf_vector":"1"}},{"base_weights":[1.53807E0,-2.6776678E1,2.3014688E1,-3.516228E1,1.1544566E1,9.726873E0,5.7814144E1,-4.7339115E1,-1.484143E1,-1.5403386E1,2.8712303E1,-7.216605E0,2.5080719E1,2.8229492E1,6.918215E1,-8.398825E0,-3.5058098E0,-1.5329727E0,5.894183E0,-2.591045E0,-7.6643415E-2,6.2362742E0,1.76598E0,1.7249494E0,-1.3130411E0,1.0632994E0,2.9596524E0,1.2120647E0,4.430996E0,4.7236166E0,6.5296874E0],"categories":[],"categories_nodes":[],"categories_segments":[],"categories_sizes":[],"default_left":[0,0,0,0,0,0,0,0,0,0,0,0,0,0,0,0,0,0,0,0,0,0,0,0,0,0,0,0,0,0,0],"id":23,"left_children":[1,3,5,7,9,11,13,15,17,19,21,23,25,27,29,-1,-1,-1,-1,-1,-1,-1,-1,-1,-1,-1,-1,-1,-1,-1,-1],"loss_changes":[4.652085E5,1.0645033E5,2.005854E5,6.635466E4,2.8200389E4,8.238762E4,3.840525E4,2.9657625E4,4.0805758E4,5.8573574E3,1.0372299E4,4.0317336E4,2.2826445E4,1.1592492E4,6.0246562E3,0E0,0E0,0E0,0E0,0E0,0E0,0E0,0E0,0E0,0E0,0E0,0E0,0E0,0E0,0E0,0E0],"parents":[2147483647,0,0,1,1,2,2,3,3,4,4,5,5,6,6,7,7,8,8,9,9,10,10,11,11,12,12,13,13,14,14],"right_children":[2,4,6,8,10,12,14,16,18,20,22,24,26,28,30,-1,-1,-1,-1,-1,-1,-1,-1,-1,-1,-1,-1,-1,-1,-1,-1],"split_conditions":[4E0,1.4E1,1.2E1,3E0,2E0,6E0,5E0,1E0,1.3E1,1.5E1,1.5E1,1E1,7E0,1.9E1,7E0,-8.398825E0,-3.5058098E0,-1.5329727E0,5.894183E0,-2.591045E0,-7.6643415E-2,6.2362742E0,1.76598E0,1.7249494E0,-1.3130411E0,1.0632994E0,2.9596524E0,1.2120647E0,4.430996E0,4.7236166E0,6.5296874E0],"split_indices":[0,1,1,0,0,0,0,1,1,1,1,1,0,1,0,0,0,0,0,0,0,0,0,0,0,0,0,0,0,0,0],"split_type":[0,0,0,0,0,0,0,0,0,0,0,0,0,0,0,0,0,0,0,0,0,0,0,0,0,0,0,0,0,0,0],"sum_hessian":[7.63E2,3.29E2,4.34E2,2.7E2,5.9E1,3.15E2,1.19E2,1.68E2,1.02E2,2.3E1,3.6E1,1.5E2,1.65E2,3.4E1,8.5E1,8E0,1.6E2,9.8E1,4E0,1E1,1.3E1,3E0,3.3E1,3.6E1,1.14E2,8.4E1,8.1E1,2.4E1,1E1,5E1,3.5E1],"tree_param":{"num_deleted":"0","num_feature":"2","num_nodes":"31","size_leaf_vector":"1"}},{"base_weights":[9.838415E-1,-2.2944912E1,1.9244444E1,-3.270306E1,2.8665957E0,9.783122E0,5.9854973E1,-7.795601E0,-2.8584242E1,-9.177467E0,3.9397804E1,-2.7485864E0,2.1776129E1,5.065133E1,7.579588E1,1.3932714E0,-3.275816E0,-1.6174259E0,1.0260502E0,5.516957E0,2.3635356E0,1.3173718E0,-6.591016E-1,3.8865814E0,1.2729849E0,2.6197665E0,4.9276123E0,9.268545E0,2.1967564E0],"categories":[],"categories_nodes":[],"categories_segments":[],"categories_sizes":[],"default_left":[0,0,0,0,0,0,0,0,0,0,0,0,0,0,0,0,0,0,0,0,0,0,0,0,0,0,0,0,0],"id":24,"left_children":[1,3,5,7,9,11,13,-1,15,17,19,21,23,25,27,-1,-1,-1,-1,-1,-1,-1,-1,-1,-1,-1,-1,-1,-1],"loss_changes":[3.351479E5,8.371542E4,1.6655417E5,6.147975E4,4.0840117E4,5.326353E4,8.1914062E3,0E0,1.3038145E5,1.726385E4,4.662789E3,1.8492305E4,2.7677664E4,8.759703E3,5.1037906E4,0E0,0E0,0E0,0E0,0E0,0E0,0E0,0E0,0E0,0E0,0E0,0E0,0E0,0E0],"parents":[2147483647,0,0,1,1,2,2,3,3,4,4,5,5,6,6,8,8,9,9,10,10,11,11,12,12,13,13,14,14],"right_children":[2,4,6,8,10,12,14,-1,16,18,20,22,24,26,28,-1,-1,-1,-1,-1,-1,-1,-1,-1,-1,-1,-1,-1,-1],"split_conditions":[4E0,1.3E1,1.4E1,1E0,3E0,6E0,7E0,-7.795601E0,1E1,1.9E1,1.4E1,1E1,9E0,1.9E1,2.3E1,1.3932714E0,-3.275816E0,-1.6174259E0,1.0260502E0,5.516957E0,2.3635356E0,1.3173718E0,-6.591016E-1,3.8865814E0,1.2729849E0,2.6197665E0,4.9276123E0,9.268545E0,2.1967564E0],"split_indices":[0,1,1,1,0,0,0,0,1,1,1,1,1,1,1,0,0,0,0,0,0,0,0,0,0,0,0,0,0],"split_type":[0,0,0,0,0,0,0,0,0,0,0,0,0,0,0,0,0,0,0,0,0,0,0,0,0,0,0,0,0],"sum_hessian":[7.65E2,3.31E2,4.34E2,2.4E2,9.1E1,3.53E2,8.1E1,1.3E1,2.27E2,6.9E1,2.2E1,1.73E2,1.8E2,5.4E1,2.7E1,4.8E1,1.79E2,4.6E1,2.3E1,4E0,1.8E1,3.8E1,1.35E2,3.1E1,1.49E2,2.2E1,3.2E1,1.4E1,1.3E1],"tree_param":{"num_deleted":"0","num_feature":"2","num_nodes":"29","size_leaf_vector":"1"}},{"base_weights":[-7.9129654E-1,-2.3790228E1,1.6975214E1,-2.911107E1,2.2800772E1,5.457262E0,4.6147114E1,-3.8260593E1,-1.2079136E1,-2.5470526E0,3.3041782E1,-1.0956144E1,1.9507479E1,3.5180767E1,7.068563E1,-1.0969616E0,-3.5262313E0,-1.7820998E0,1.7806753E0,-6.792269E-1,3.0565917E-1,1.9575418E0,4.995037E0,1.0456499E0,-1.5446849E0,1.2266663E0,3.9870586E0,1.5580618E0,3.5534081E0,7.8467484E0,1.9169499E0],"categories":[],"categories_nodes":[],"categories_segments":[],"categories_sizes":[],"default_left":[0,0,0,0,0,0,0,0,0,0,0,0,0,0,0,0,0,0,0,0,0,0,0,0,0,0,0,0,0,0,0],"id":25,"left_children":[1,3,5,7,9,11,13,15,17,19,21,23,25,27,29,-1,-1,-1,-1,-1,-1,-1,-1,-1,-1,-1,-1,-1,-1,-1,-1],"loss_changes":[3.1503412E5,8.395933E4,1.459084E5,4.6599734E4,9.169715E3,7.2395266E4,3.0612266E4,2.7385656E4,3.7961258E4,4.487409E2,4.772164E3,2.9351205E4,2.0632086E4,1.1755523E4,4.5016062E4,0E0,0E0,0E0,0E0,0E0,0E0,0E0,0E0,0E0,0E0,0E0,0E0,0E0,0E0,0E0,0E0],"parents":[2147483647,0,0,1,1,2,2,3,3,4,4,5,5,6,6,7,7,8,8,9,9,10,10,11,11,12,12,13,13,14,14],"right_children":[2,4,6,8,10,12,14,16,18,20,22,24,26,28,30,-1,-1,-1,-1,-1,-1,-1,-1,-1,-1,-1,-1,-1,-1,-1,-1],"split_conditions":[4E0,1.9E1,1.2E1,3E0,2E0,6E0,7E0,1E1,1.2E1,2.3E1,2.3E1,1E1,1.1E1,5E0,2.3E1,-1.0969616E0,-3.5262313E0,-1.7820998E0,1.7806753E0,-6.792269E-1,3.0565917E-1,1.9575418E0,4.995037E0,1.0456499E0,-1.5446849E0,1.2266663E0,3.9870586E0,1.5580618E0,3.5534081E0,7.8467484E0,1.9169499E0],"split_indices":[0,1,1,0,0,0,0,1,1,1,1,1,1,0,1,0,0,0,0,0,0,0,0,0,0,0,0,0,0,0,0],"split_type":[0,0,0,0,0,0,0,0,0,0,0,0,0,0,0,0,0,0,0,0,0,0,0,0,0,0,0,0,0,0,0],"sum_hessian":[7.69E2,3.35E2,4.34E2,3.01E2,3.4E1,3.12E2,1.22E2,1.95E2,1.06E2,1E1,2.4E1,1.44E2,1.68E2,8.6E1,3.6E1,3.8E1,1.57E2,8.2E1,2.4E1,5E0,5E0,2E1,4E0,3.7E1,1.07E2,1.49E2,1.9E1,3.3E1,5.3E1,2.2E1,1.4E1],"tree_param":{"num_deleted":"0","num_feature":"2","num_nodes":"31","size_leaf_vector":"1"}},{"base_weights":[3.657308E-1,-1.5718358E1,2.041081E1,-2.2337904E1,1.650655E1,1.072608E1,4.689934E1,2.9391046E0,-2.9167814E1,-8.979592E0,2.6971714E1,3.855037E1,3.9570336E0,5.238439E1,1.9941801E1,-3.5010421E0,2.3652844E0,-3.1593523E0,-1.5316099E0,-9.4070584E-1,2.257246E-1,5.748537E0,1.6534278E0,1.4885012E0,7.8795333E0,-5.670848E-1,7.3688275E-1,2.9584706E0,7.218593E0,9.587317E0,-1.09406896E-1],"categories":[],"categories_nodes":[],"categories_segments":[],"categories_sizes":[],"default_left":[0,0,0,0,0,0,0,0,0,0,0,0,0,0,0,0,0,0,0,0,0,0,0,0,0,0,0,0,0,0,0],"id":26,"left_children":[1,3,5,7,9,11,13,15,17,19,21,23,25,27,29,-1,-1,-1,-1,-1,-1,-1,-1,-1,-1,-1,-1,-1,-1,-1,-1],"loss_changes":[2.4696203E5,9.10273E4,8.697517E4,6.102753E4,1.971251E4,4.7121773E4,1.2410922E4,9.580258E4,2.801E4,7.547367E2,1.3228223E4,5.6748133E4,1.1846106E4,4.0387562E4,3.6353508E4,0E0,0E0,0E0,0E0,0E0,0E0,0E0,0E0,0E0,0E0,0E0,0E0,0E0,0E0,0E0,0E0],"parents":[2147483647,0,0,1,1,2,2,3,3,4,4,5,5,6,6,7,7,8,8,9,9,10,10,11,11,12,12,13,13,14,14],"right_children":[2,4,6,8,10,12,14,16,18,20,22,24,26,28,30,-1,-1,-1,-1,-1,-1,-1,-1,-1,-1,-1,-1,-1,-1,-1,-1],"split_conditions":[5E0,1.4E1,1.2E1,1E1,2E0,9E0,2.3E1,3E0,3E0,2.3E1,1.5E1,7E0,6E0,7E0,7E0,-3.5010421E0,2.3652844E0,-3.1593523E0,-1.5316099E0,-9.4070584E-1,2.257246E-1,5.748537E0,1.6534278E0,1.4885012E0,7.8795333E0,-5.670848E-1,7.3688275E-1,2.9584706E0,7.218593E0,9.587317E0,-1.09406896E-1],"split_indices":[0,1,1,1,0,1,1,1,0,1,1,1,0,0,0,0,0,0,0,0,0,0,0,0,0,0,0,0,0,0,0],"split_type":[0,0,0,0,0,0,0,0,0,0,0,0,0,0,0,0,0,0,0,0,0,0,0,0,0,0,0,0,0,0,0],"sum_hessian":[7.64E2,4.24E2,3.4E2,3.52E2,7.2E1,2.5E2,9E1,7.5E1,2.77E2,2.1E1,5.1E1,4.8E1,2.02E2,7.4E1,1.6E1,2.7E1,4.8E1,1.35E2,1.42E2,1.7E1,4E0,5E0,4.6E1,3.7E1,1.1E1,6.5E1,1.37E2,5.4E1,2E1,2E0,1.4E1],"tree_param":{"num_deleted":"0","num_feature":"2","num_nodes":"31","size_leaf_vector":"1"}},{"base_weights":[-5.160846E-1,-1.600362E1,1.9777872E1,-2.1409668E1,1.2013438E1,9.966757E0,4.7726334E1,-3.6589792E-1,-2.7034683E1,-2.0949052E-1,2.7791716E1,3.1211184E1,5.2083035E0,3.9322895E1,4.447494E0,-5.201275E0,1.4973729E0,-3.8415577E0,-1.6659724E0,-3.7036997E-1,1.7536886E0,1.2489371E0,2.6968105E0,9.4220984E-1,7.216629E0,-3.7042257E-1,7.900778E-1,4.799947E0,2.1587758E0],"categories":[],"categories_nodes":[],"categories_segments":[],"categories_sizes":[],"default_left":[0,0,0,0,0,0,0,0,0,0,0,0,0,0,0,0,0,0,0,0,0,0,0,0,0,0,0,0,0],"id":27,"left_children":[1,3,5,7,9,11,13,15,17,19,21,23,25,27,-1,-1,-1,-1,-1,-1,-1,-1,-1,-1,-1,-1,-1,-1,-1],"loss_changes":[2.410729E5,6.614297E4,9.056056E4,4.3195703E4,1.3698651E4,2.4806822E4,3.4996094E3,9.744711E4,3.6531062E4,4.112115E3,1.7084023E3,5.0530773E4,9.36815E3,9.860883E3,0E0,0E0,0E0,0E0,0E0,0E0,0E0,0E0,0E0,0E0,0E0,0E0,0E0,0E0,0E0],"parents":[2147483647,0,0,1,1,2,2,3,3,4,4,5,5,6,6,7,7,8,8,9,9,10,10,11,11,12,12,13,13],"right_children":[2,4,6,8,10,12,14,16,18,20,22,24,26,28,-1,-1,-1,-1,-1,-1,-1,-1,-1,-1,-1,-1,-1,-1,-1],"split_conditions":[5E0,1.4E1,1.2E1,1E1,3E0,9E0,1.9E1,1E0,2E0,2.3E1,1.9E1,7E0,6E0,1.3E1,4.447494E0,-5.201275E0,1.4973729E0,-3.8415577E0,-1.6659724E0,-3.7036997E-1,1.7536886E0,1.2489371E0,2.6968105E0,9.4220984E-1,7.216629E0,-3.7042257E-1,7.900778E-1,4.799947E0,2.1587758E0],"split_indices":[0,1,1,1,0,1,1,1,0,1,1,1,0,1,0,0,0,0,0,0,0,0,0,0,0,0,0,0,0],"split_type":[0,0,0,0,0,0,0,0,0,0,0,0,0,0,0,0,0,0,0,0,0,0,0,0,0,0,0,0,0],"sum_hessian":[7.65E2,4.34E2,3.31E2,3.64E2,7E1,2.46E2,8.5E1,7.7E1,2.87E2,4E1,3E1,4.4E1,2.02E2,4.4E1,4.1E1,1.7E1,6E1,6.4E1,2.23E2,3.4E1,6E0,1.1E1,1.9E1,3.4E1,1E1,6.5E1,1.37E2,1.5E1,2.9E1],"tree_param":{"num_deleted":"0","num_feature":"2","num_nodes":"29","size_leaf_vector":"1"}},{"base_weights":[-1.0027068E-2,-2.0628628E1,1.5209594E1,-2.8021784E1,7.4979466E-1,6.423446E0,3.801564E1,-4.7477604E1,-1.9221735E1,-7.195221E0,3.0722643E1,-1.8146063E0,2.8601826E1,2.3514938E1,5.2849464E1,-3.1211889E0,-5.2873373E0,7.446959E-1,-2.1394546E0,-1.3021858E0,1.0027605E0,5.147566E0,1.5766894E0,-2.7161515E0,-6.789202E-3,4.4172645E0,1.7461295E0,1.2251018E0,2.997487E0,1.0710645E1,3.698857E0],"categories":[],"categories_nodes":[],"categories_segments":[],"categories_sizes":[],"default_left":[0,0,0,0,0,0,0,0,0,0,0,0,0,0,0,0,0,0,0,0,0,0,0,0,0,0,0,0,0,0,0],"id":28,"left_children":[1,3,5,7,9,11,13,15,17,19,21,23,25,27,29,-1,-1,-1,-1,-1,-1,-1,-1,-1,-1,-1,-1,-1,-1,-1,-1],"loss_changes":[2.4163155E5,5.1704688E4,8.852296E4,4.0691953E4,2.0462508E4,5.8700734E4,2.5214656E4,9.235906E3,3.651468E4,1.2388771E4,5.3974863E3,1.306058E4,1.4482242E4,6.750133E3,2.5965984E4,0E0,0E0,0E0,0E0,0E0,0E0,0E0,0E0,0E0,0E0,0E0,0E0,0E0,0E0,0E0,0E0],"parents":[2147483647,0,0,1,1,2,2,3,3,4,4,5,5,6,6,7,7,8,8,9,9,10,10,11,11,12,12,13,13,14,14],"right_children":[2,4,6,8,10,12,14,16,18,20,22,24,26,28,30,-1,-1,-1,-1,-1,-1,-1,-1,-1,-1,-1,-1,-1,-1,-1,-1],"split_conditions":[4E0,1.3E1,1.2E1,2E0,3E0,7E0,6E0,1.2E1,1E1,1.9E1,1.4E1,3E0,9E0,1.9E1,1.3E1,-3.1211889E0,-5.2873373E0,7.446959E-1,-2.1394546E0,-1.3021858E0,1.0027605E0,5.147566E0,1.5766894E0,-2.7161515E0,-6.789202E-3,4.4172645E0,1.7461295E0,1.2251018E0,2.997487E0,1.0710645E1,3.698857E0],"split_indices":[0,1,1,0,0,0,0,1,1,1,1,1,1,1,1,0,0,0,0,0,0,0,0,0,0,0,0,0,0,0,0],"split_type":[0,0,0,0,0,0,0,0,0,0,0,0,0,0,0,0,0,0,0,0,0,0,0,0,0,0,0,0,0,0,0],"sum_hessian":[7.68E2,3.26E2,4.42E2,2.42E2,8.4E1,3.2E2,1.22E2,7.4E1,1.68E2,6.7E1,1.7E1,2.34E2,8.6E1,6.3E1,5.9E1,5.3E1,2.1E1,3.5E1,1.33E2,4.6E1,2.1E1,3E0,1.4E1,1.1E1,2.23E2,1.6E1,7E1,4.1E1,2.2E1,3E0,5.6E1],"tree_param":{"num_deleted":"0","num_feature":"2","num_nodes":"31","size_leaf_vector":"1"}},{"base_weights":[1.0598726E0,-8.78051E0,2.46457E1,-1.4039079E1,1.6151243E1,1.2121945E1,5.091638E1,-6.211148E1,-1.1743814E1,-1.1116194E1,2.367104E1,3.5241554E1,5.7164164E0,5.488857E1,3.053955E1,-5.568787E0,-2.6410937E0,8.3232754E-1,-1.3591294E0,-1.3745556E0,-4.10804E-1,1.5242414E0,4.751047E0,1.8567244E0,5.595359E0,-1.6798078E-1,6.562427E-1,3.6174333E0,5.8294353E0,6.803945E0,1.5843389E0],"categories":[],"categories_nodes":[],"categories_segments":[],"categories_sizes":[],"default_left":[0,0,0,0,0,0,0,0,0,0,0,0,0,0,0,0,0,0,0,0,0,0,0,0,0,0,0,0,0,0,0],"id":29,"left_children":[1,3,5,7,9,11,13,15,17,19,21,23,25,27,29,-1,-1,-1,-1,-1,-1,-1,-1,-1,-1,-1,-1,-1,-1,-1,-1],"loss_changes":[1.7660752E5,7.063031E4,7.30805E4,4.8261008E4,1.9537418E4,2.2456826E4,4.151453E3,2.0656406E3,4.955009E4,6.7365283E2,1.1074195E4,1.2155301E4,2.3689617E3,6.9635312E3,6.508175E3,0E0,0E0,0E0,0E0,0E0,0E0,0E0,0E0,0E0,0E0,0E0,0E0,0E0,0E0,0E0,0E0],"parents":[2147483647,0,0,1,1,2,2,3,3,4,4,5,5,6,6,7,7,8,8,9,9,10,10,11,11,12,12,13,13,14,14],"right_children":[2,4,6,8,10,12,14,16,18,20,22,24,26,28,30,-1,-1,-1,-1,-1,-1,-1,-1,-1,-1,-1,-1,-1,-1,-1,-1],"split_conditions":[6E0,1.4E1,1.1E1,1E0,2E0,9E0,2.3E1,4E0,1E1,1.5E1,2.3E1,7E0,1E1,1.8E1,7E0,-5.568787E0,-2.6410937E0,8.3232754E-1,-1.3591294E0,-1.3745556E0,-4.10804E-1,1.5242414E0,4.751047E0,1.8567244E0,5.595359E0,-1.6798078E-1,6.562427E-1,3.6174333E0,5.8294353E0,6.803945E0,1.5843389E0],"split_indices":[0,1,1,1,0,1,1,0,1,1,1,1,1,1,0,0,0,0,0,0,0,0,0,0,0,0,0,0,0,0,0],"split_type":[0,0,0,0,0,0,0,0,0,0,0,0,0,0,0,0,0,0,0,0,0,0,0,0,0,0,0,0,0,0,0],"sum_hessian":[7.59E2,5.36E2,2.23E2,4.43E2,9.3E1,1.52E2,7.1E1,1.9E1,4.24E2,2E1,7.3E1,3.2E1,1.2E2,5.8E1,1.3E1,1.4E1,5E0,8.1E1,3.43E2,9E0,1.1E1,6.6E1,7E0,2.5E1,7E0,2.9E1,9.1E1,4E1,1.8E1,1E0,1.2E1],"tree_param":{"num_deleted":"0","num_feature":"2","num_nodes":"31","size_leaf_vector":"1"}},{"base_weights":[2.7777386E-1,-1.5811529E1,1.2828278E1,-2.262792E1,3.4367018E0,5.355511E0,3.221284E1,-4.125938E1,-1.4204507E1,-5.4360275E0,2.7693512E1,2.542426E1,8.836276E-1,2.2167685E1,4.2222786E1,-1.8610338E0,-3.9982326E0,-1.5962881E0,9.4007933E-1,-1.1597323E0,8.0026126E-1,5.012098E0,1.4055526E0,1.7774621E-2,4.613922E0,-6.3622004E-1,6.848825E-1,1.2388057E0,2.6260648E0,2.652924E0,3.906552E0],"categories":[],"categories_nodes":[],"categories_segments":[],"categories_sizes":[],"default_left":[0,0,0,0,0,0,0,0,0,0,0,0,0,0,0,0,0,0,0,0,0,0,0,0,0,0,0,0,0,0,0],"id":30,"left_children":[1,3,5,7,9,11,13,15,17,19,21,23,25,27,29,-1,-1,-1,-1,-1,-1,-1,-1,-1,-1,-1,-1,-1,-1,-1,-1],"loss_changes":[1.552842E5,4.429333E4,6.24054E4,3.84921E4,1.9305488E4,2.806775E4,1.1130211E4,1.0918875E4,2.6049645E4,9.377733E3,7.3932246E3,4.6314582E4,1.7503078E4,3.907588E3,1.9139766E3,0E0,0E0,0E0,0E0,0E0,0E0,0E0,0E0,0E0,0E0,0E0,0E0,0E0,0E0,0E0,0E0],"parents":[2147483647,0,0,1,1,2,2,3,3,4,4,5,5,6,6,7,7,8,8,9,9,10,10,11,11,12,12,13,13,14,14],"right_children":[2,4,6,8,10,12,14,16,18,20,22,24,26,28,30,-1,-1,-1,-1,-1,-1,-1,-1,-1,-1,-1,-1,-1,-1,-1,-1],"split_conditions":[4E0,1.3E1,1.2E1,2E0,3E0,9E0,1.8E1,1E1,1.2E1,1.9E1,1.4E1,5E0,6E0,6E0,6E0,-1.8610338E0,-3.9982326E0,-1.5962881E0,9.4007933E-1,-1.1597323E0,8.0026126E-1,5.012098E0,1.4055526E0,1.7774621E-2,4.613922E0,-6.3622004E-1,6.848825E-1,1.2388057E0,2.6260648E0,2.652924E0,3.906552E0],"split_indices":[0,1,1,0,0,1,1,1,1,1,1,1,0,0,0,0,0,0,0,0,0,0,0,0,0,0,0,0,0,0,0],"split_type":[0,0,0,0,0,0,0,0,0,0,0,0,0,0,0,0,0,0,0,0,0,0,0,0,0,0,0,0,0,0,0],"sum_hessian":[7.67E2,3.36E2,4.31E2,2.48E2,8.8E1,3.12E2,1.19E2,7.6E1,1.72E2,6.5E1,2.3E1,5.6E1,2.56E2,6.1E1,5.8E1,2.6E1,5E1,1.41E2,3.1E1,4.1E1,2.4E1,4E0,1.9E1,3.2E1,2.4E1,1.19E2,1.37E2,3.9E1,2.2E1,2.7E1,3.1E1],"tree_param":{"num_deleted":"0","num_feature":"2","num_nodes":"31","size_leaf_vector":"1"}},{"base_weights":[2.0971348E0,-1.2282326E1,1.2819913E1,-5.0705624E0,-1.0647078E1,6.098256E0,3.0148277E1,1.4302227E1,-1.5430411E1,2.602239E1,1.8488247E0,2.2755814E1,4.808488E1,-1.6320323E0,2.5392528E0,-2.290715E0,-2.4478215E-1,2.8599036E-1,4.645941E0,-1.04167715E-1,8.479983E-1,1.0658457E0,3.009824E0,5.6971903E0,9.99778E-1],"categories":[],"categories_nodes":[],"categories_segments":[],"categories_sizes":[],"default_left":[0,0,0,0,0,0,0,0,0,0,0,0,0,0,0,0,0,0,0,0,0,0,0,0,0],"id":31,"left_children":[1,3,5,-1,7,9,11,13,15,17,19,21,23,-1,-1,-1,-1,-1,-1,-1,-1,-1,-1,-1,-1],"loss_changes":[1.1872786E5,2.681664E4,5.1181766E4,0E0,3.840976E4,2.6960418E4,1.521507E4,3.2115816E4,4.384976E4,4.0083543E4,7.2933906E3,1.1979789E4,2.7919992E4,0E0,0E0,0E0,0E0,0E0,0E0,0E0,0E0,0E0,0E0,0E0,0E0],"parents":[2147483647,0,0,1,1,2,2,4,4,5,5,6,6,7,7,8,8,9,9,10,10,11,11,12,12],"right_children":[2,4,6,-1,8,10,12,14,16,18,20,22,24,-1,-1,-1,-1,-1,-1,-1,-1,-1,-1,-1,-1],"split_conditions":[4E0,1E0,1.2E1,-5.0705624E0,1E1,9E0,7E0,4E0,1.2E1,5E0,7E0,1.9E1,2.3E1,-1.6320323E0,2.5392528E0,-2.290715E0,-2.4478215E-1,2.8599036E-1,4.645941E0,-1.04167715E-1,8.479983E-1,1.0658457E0,3.009824E0,5.6971903E0,9.99778E-1],"split_indices":[0,1,1,0,1,1,0,1,1,1,0,1,1,0,0,0,0,0,0,0,0,0,0,0,0],"split_type":[0,0,0,0,0,0,0,0,0,0,0,0,0,0,0,0,0,0,0,0,0,0,0,0,0],"sum_hessian":[7.68E2,3.28E2,4.4E2,9E0,3.19E2,3.18E2,1.22E2,5.1E1,2.68E2,5.5E1,2.63E2,8.8E1,3.4E1,1.7E1,3.4E1,1.29E2,1.39E2,3.3E1,2.2E1,1.94E2,6.9E1,5.5E1,3.3E1,2E1,1.4E1],"tree_param":{"num_deleted":"0","num_feature":"2","num_nodes":"25","size_leaf_vector":"1"}},{"base_weights":[-5.432844E-2,-1.0513371E1,1.3524238E1,-2.6987602E1,-5.137763E0,6.855454E0,3.1571415E1,-3.6498764E1,-6.6872287E0,-1.3432766E1,1.0300741E1,1.1379071E0,1.7811935E1,5.9666424E1,2.6192915E1,-2.3430712E0,-4.2641344E0,-7.305066E-1,-1.3285081E-1,8.062674E-1,-1.680003E0,6.6700375E-1,3.2192242E0,-3.0303302E0,2.8926563E-1,3.133312E0,1.0778047E0,2.640876E0,9.444189E0,6.831219E-1,2.500982E0],"categories":[],"categories_nodes":[],"categories_segments":[],"categories_sizes":[],"default_left":[0,0,0,0,0,0,0,0,0,0,0,0,0,0,0,0,0,0,0,0,0,0,0,0,0,0,0,0,0,0,0],"id":32,"left_children":[1,3,5,7,9,11,13,15,17,19,21,23,25,27,29,-1,-1,-1,-1,-1,-1,-1,-1,-1,-1,-1,-1,-1,-1,-1,-1],"loss_changes":[1.11626945E5,3.9181547E4,4.0944195E4,2.0801656E4,4.3167348E4,1.5703425E4,1.23391875E4,7.404367E3,4.2711475E2,3.9175008E4,6.6002E3,1.6185981E4,7.4415195E3,1.7891246E4,6.8030703E3,0E0,0E0,0E0,0E0,0E0,0E0,0E0,0E0,0E0,0E0,0E0,0E0,0E0,0E0,0E0,0E0],"parents":[2147483647,0,0,1,1,2,2,3,3,4,4,5,5,6,6,7,7,8,8,9,9,10,10,11,11,12,12,13,13,14,14],"right_children":[2,4,6,8,10,12,14,16,18,20,22,24,26,28,30,-1,-1,-1,-1,-1,-1,-1,-1,-1,-1,-1,-1,-1,-1,-1,-1],"split_conditions":[5E0,2E0,1.2E1,1.3E1,1.2E1,7E0,1.3E1,1.2E1,1.5E1,1E1,2.3E1,3E0,9E0,6E0,1.6E1,-2.3430712E0,-4.2641344E0,-7.305066E-1,-1.3285081E-1,8.062674E-1,-1.680003E0,6.6700375E-1,3.2192242E0,-3.0303302E0,2.8926563E-1,3.133312E0,1.0778047E0,2.640876E0,9.444189E0,6.831219E-1,2.500982E0],"split_indices":[0,0,1,1,1,0,1,1,1,1,1,1,1,0,1,0,0,0,0,0,0,0,0,0,0,0,0,0,0,0,0],"split_type":[0,0,0,0,0,0,0,0,0,0,0,0,0,0,0,0,0,0,0,0,0,0,0,0,0,0,0,0,0,0,0],"sum_hessian":[7.84E2,4.43E2,3.41E2,1.08E2,3.35E2,2.5E2,9.1E1,7.3E1,3.5E1,2.18E2,1.17E2,1.65E2,8.5E1,1.3E1,7.8E1,5.3E1,2E1,2.3E1,1.2E1,5.3E1,1.65E2,1.11E2,6E0,9E0,1.56E2,1.3E1,7.2E1,1E1,3E0,1.8E1,6E1],"tree_param":{"num_deleted":"0","num_feature":"2","num_nodes":"31","size_leaf_vector":"1"}},{"base_weights":[6.8112457E-1,-9.721452E0,1.3837118E1,-1.4288894E1,5.463145E0,7.7758636E0,3.1095467E1,3.146586E0,-1.9580698E1,-4.2691326E0,2.2613216E1,2.2908375E1,4.251335E0,3.5273567E1,1.0350548E1,-2.0380404E0,2.3119626E0,-2.489731E0,-9.070837E-1,-4.6781397E-1,9.571777E-1,4.5482783E0,1.1096038E0,5.274585E-1,5.5955815E0,-2.9995823E-1,6.348505E-1,1.8018186E0,5.21339E0,7.8832684E0,-7.4293596E-1],"categories":[],"categories_nodes":[],"categories_segments":[],"categories_sizes":[],"default_left":[0,0,0,0,0,0,0,0,0,0,0,0,0,0,0,0,0,0,0,0,0,0,0,0,0,0,0,0,0,0,0],"id":33,"left_children":[1,3,5,7,9,11,13,15,17,19,21,23,25,27,29,-1,-1,-1,-1,-1,-1,-1,-1,-1,-1,-1,-1,-1,-1,-1,-1],"loss_changes":[1.0414524E5,2.9553844E4,3.490624E4,3.0232312E4,1.6620555E4,1.3236352E4,7.1755703E3,5.749318E4,2.3522797E4,1.7100187E3,9.988701E3,3.56069E4,6.0431367E3,2.5976562E4,2.8624156E4,0E0,0E0,0E0,0E0,0E0,0E0,0E0,0E0,0E0,0E0,0E0,0E0,0E0,0E0,0E0,0E0],"parents":[2147483647,0,0,1,1,2,2,3,3,4,4,5,5,6,6,7,7,8,8,9,9,10,10,11,11,12,12,13,13,14,14],"right_children":[2,4,6,8,10,12,14,16,18,20,22,24,26,28,30,-1,-1,-1,-1,-1,-1,-1,-1,-1,-1,-1,-1,-1,-1,-1,-1],"split_conditions":[5E0,1.3E1,1.2E1,1E1,3E0,9E0,2.3E1,4E0,3E0,2.3E1,1.5E1,7E0,6E0,7E0,7E0,-2.0380404E0,2.3119626E0,-2.489731E0,-9.070837E-1,-4.6781397E-1,9.571777E-1,4.5482783E0,1.1096038E0,5.274585E-1,5.5955815E0,-2.9995823E-1,6.348505E-1,1.8018186E0,5.21339E0,7.8832684E0,-7.4293596E-1],"split_indices":[0,1,1,1,0,1,1,1,0,1,1,1,0,0,0,0,0,0,0,0,0,0,0,0,0,0,0,0,0,0,0],"split_type":[0,0,0,0,0,0,0,0,0,0,0,0,0,0,0,0,0,0,0,0,0,0,0,0,0,0,0,0,0,0,0],"sum_hessian":[7.59E2,4.24E2,3.35E2,3.26E2,9.8E1,2.49E2,8.6E1,7.6E1,2.5E2,6.3E1,3.5E1,4.6E1,2.03E2,7.1E1,1.5E1,3.6E1,4E1,1.03E2,1.47E2,5.8E1,5E0,6E0,2.9E1,3.5E1,1.1E1,6.4E1,1.39E2,5.1E1,2E1,2E0,1.3E1],"tree_param":{"num_deleted":"0","num_feature":"2","num_nodes":"31","size_leaf_vector":"1"}},{"base_weights":[2.6080914E0,-1.4854824E1,9.37341E0,-1.9482265E1,4.559512E0,3.6407053E0,2.3151892E1,-4.4548103E1,-1.6465166E1,-5.331989E0,1.5706762E1,-3.9900699E0,5.3211217E0,1.5959753E1,2.9018467E1,-4.2424407E0,-9.5101947E-1,1.2418057E0,-1.6811781E0,-8.532324E-1,-9.1323934E-2,6.6859665E0,2.8182888E-1,1.5996696E0,-4.030116E-2,3.8724607E-1,2.0879593E0,5.2132835E0,1.7962805E0],"categories":[],"categories_nodes":[],"categories_segments":[],"categories_sizes":[],"default_left":[0,0,0,0,0,0,0,0,0,0,0,0,0,0,0,0,0,0,0,0,0,0,0,0,0,0,0,0,0],"id":34,"left_children":[1,3,5,7,9,11,13,15,17,19,21,-1,23,25,27,-1,-1,-1,-1,-1,-1,-1,-1,-1,-1,-1,-1,-1,-1],"loss_changes":[9.0518016E4,1.9314309E4,4.351707E4,1.234982E4,4.714796E3,3.5428082E4,6.3721797E3,4.3562812E3,2.3028898E4,5.0186017E2,1.6243478E4,0E0,3.2491992E4,8.329576E3,1.9419836E4,0E0,0E0,0E0,0E0,0E0,0E0,0E0,0E0,0E0,0E0,0E0,0E0,0E0,0E0],"parents":[2147483647,0,0,1,1,2,2,3,3,4,4,5,5,6,6,7,7,8,8,9,9,10,10,12,12,13,13,14,14],"right_children":[2,4,6,8,10,12,14,16,18,20,22,-1,24,26,28,-1,-1,-1,-1,-1,-1,-1,-1,-1,-1,-1,-1,-1,-1],"split_conditions":[3E0,1.4E1,1.2E1,4E0,2E0,1E0,5E0,2E0,1E1,1.5E1,1.5E1,-3.9900699E0,1E1,1.3E1,1.3E1,-4.2424407E0,-9.5101947E-1,1.2418057E0,-1.6811781E0,-8.532324E-1,-9.1323934E-2,6.6859665E0,2.8182888E-1,1.5996696E0,-4.030116E-2,3.8724607E-1,2.0879593E0,5.2132835E0,1.7962805E0],"split_indices":[0,1,1,1,0,1,0,0,1,1,1,0,1,1,1,0,0,0,0,0,0,0,0,0,0,0,0,0,0],"split_type":[0,0,0,0,0,0,0,0,0,0,0,0,0,0,0,0,0,0,0,0,0,0,0,0,0,0,0,0,0],"sum_hessian":[7.64E2,2.13E2,5.51E2,1.72E2,4.1E1,3.9E2,1.61E2,1.7E1,1.55E2,2.2E1,1.9E1,1.1E1,3.79E2,7.4E1,8.7E1,1.3E1,4E0,1.9E1,1.36E2,9E0,1.3E1,2E0,1.7E1,1.07E2,2.72E2,3.6E1,3.8E1,1.2E1,7.5E1],"tree_param":{"num_deleted":"0","num_feature":"2","num_nodes":"29","size_leaf_vector":"1"}},{"base_weights":[-6.221002E-1,-1.824856E1,6.319861E0,-5.100587E0,-1.6410488E1,-7.2944516E-1,1.579266E1,-1.899697E1,4.210739E0,-5.075553E0,1.9384329E1,9.8649645E0,2.8148806E1,-1.2670532E-1,-1.7993543E0,-8.000344E-2,1.1805847E0,-2.7855413E0,-2.689751E-1,1.271265E0,3.3255062E0,2.278334E0,3.96042E-1,2.7109008E0,6.4781034E-1],"categories":[],"categories_nodes":[],"categories_segments":[],"categories_sizes":[],"default_left":[0,0,0,0,0,0,0,0,0,0,0,0,0,0,0,0,0,0,0,0,0,0,0,0,0],"id":35,"left_children":[1,3,5,-1,7,9,11,13,15,17,19,21,23,-1,-1,-1,-1,-1,-1,-1,-1,-1,-1,-1,-1],"loss_changes":[9.311059E4,1.693811E4,3.647158E4,0E0,1.1173973E4,2.7547209E4,1.6788035E4,1.1223156E4,1.333699E3,1.3082039E4,3.679545E3,1.4404083E4,8.353805E3,0E0,0E0,0E0,0E0,0E0,0E0,0E0,0E0,0E0,0E0,0E0,0E0],"parents":[2147483647,0,0,1,1,2,2,4,4,5,5,6,6,7,7,8,8,9,9,10,10,11,11,12,12],"right_children":[2,4,6,-1,8,10,12,14,16,18,20,22,24,-1,-1,-1,-1,-1,-1,-1,-1,-1,-1,-1,-1],"split_conditions":[3E0,1E0,6E0,-5.100587E0,1.6E1,1.3E1,1.1E1,1E1,2.3E1,2E0,2.3E1,9E0,2.3E1,-1.2670532E-1,-1.7993543E0,-8.000344E-2,1.1805847E0,-2.7855413E0,-2.689751E-1,1.271265E0,3.3255062E0,2.278334E0,3.96042E-1,2.7109008E0,6.4781034E-1],"split_indices":[0,1,0,0,1,1,1,1,1,1,1,1,1,0,0,0,0,0,0,0,0,0,0,0,0],"split_type":[0,0,0,0,0,0,0,0,0,0,0,0,0,0,0,0,0,0,0,0,0,0,0,0,0],"sum_hessian":[7.59E2,2.14E2,5.45E2,7E0,2.07E2,3.13E2,2.32E2,1.84E2,2.3E1,2.58E2,5.5E1,1.58E2,7.4E1,3.1E1,1.53E2,1.6E1,7E0,1.3E1,2.45E2,4.9E1,6E0,3.2E1,1.26E2,5.7E1,1.7E1],"tree_param":{"num_deleted":"0","num_feature":"2","num_nodes":"25","size_leaf_vector":"1"}},{"base_weights":[-1.8099272E-1,-5.98428E0,1.397477E1,-1.0604199E1,9.8869705E0,6.7350917E0,2.8556025E1,-2.8463194E1,-6.6225047E0,1.3265209E0,2.0376532E1,2.5070377E1,1.5700524E0,4.5290813E1,2.177055E1,-1.7078294E0,-3.6742394E0,9.0148634E-1,-9.0087575E-1,-5.0413626E-1,4.6991816E-1,3.8750522E0,1.3397436E0,4.5650488E-1,2.545055E0,-4.6811685E-1,3.1577653E-1,7.5903974E0,2.8061776E0,5.6763226E-1,2.429833E0],"categories":[],"categories_nodes":[],"categories_segments":[],"categories_sizes":[],"default_left":[0,0,0,0,0,0,0,0,0,0,0,0,0,0,0,0,0,0,0,0,0,0,0,0,0,0,0,0,0,0,0],"id":36,"left_children":[1,3,5,7,9,11,13,15,17,19,21,23,25,27,29,-1,-1,-1,-1,-1,-1,-1,-1,-1,-1,-1,-1,-1,-1,-1,-1],"loss_changes":[6.4982098E4,4.123954E4,2.40873E4,3.0743945E4,1.137698E4,1.463952E4,7.6440586E3,8.836676E3,2.9753172E4,2.4999363E3,4.994623E3,4.257785E3,2.175431E3,7.3080273E3,6.8539805E3,0E0,0E0,0E0,0E0,0E0,0E0,0E0,0E0,0E0,0E0,0E0,0E0,0E0,0E0,0E0,0E0],"parents":[2147483647,0,0,1,1,2,2,3,3,4,4,5,5,6,6,7,7,8,8,9,9,10,10,11,11,12,12,13,13,14,14],"right_children":[2,4,6,8,10,12,14,16,18,20,22,24,26,28,30,-1,-1,-1,-1,-1,-1,-1,-1,-1,-1,-1,-1,-1,-1,-1,-1],"split_conditions":[6E0,1.3E1,1.1E1,2E0,3E0,9E0,1.3E1,1.2E1,1E1,1.4E1,1.4E1,3E0,1E1,7E0,1.8E1,-1.7078294E0,-3.6742394E0,9.0148634E-1,-9.0087575E-1,-5.0413626E-1,4.6991816E-1,3.8750522E0,1.3397436E0,4.5650488E-1,2.545055E0,-4.6811685E-1,3.1577653E-1,7.5903974E0,2.8061776E0,5.6763226E-1,2.429833E0],"split_indices":[0,1,1,0,0,1,1,1,1,1,1,1,1,0,1,0,0,0,0,0,0,0,0,0,0,0,0,0,0,0,0],"split_type":[0,0,0,0,0,0,0,0,0,0,0,0,0,0,0,0,0,0,0,0,0,0,0,0,0,0,0,0,0,0,0],"sum_hessian":[7.89E2,5.6E2,2.29E2,4.34E2,1.26E2,1.54E2,7.5E1,7.8E1,3.56E2,7E1,5.6E1,3.3E1,1.21E2,2E1,5.5E1,5.7E1,2.1E1,7.3E1,2.83E2,2.6E1,4.4E1,5E0,5.1E1,9E0,2.4E1,2.9E1,9.2E1,2E0,1.8E1,2.1E1,3.4E1],"tree_param":{"num_deleted":"0","num_feature":"2","num_nodes":"31","size_leaf_vector":"1"}},{"base_weights":[1.118855E0,-4.389408E0,1.4526336E1,-1.9599455E1,-5.6806475E-1,8.04005E0,2.7477911E1,-4.8314095E0,-1.5770367E1,-7.707512E0,1.3763985E1,2.4819103E1,3.4604719E0,3.46891E1,-5.904977E0,1.8358861E-1,-1.5772619E0,9.359395E-1,-1.1407816E0,9.460592E-1,3.3391232E0,1.3958175E0,3.580183E0,-5.3478517E-2,7.337437E-1,2.341878E0,5.0181413E0,5.6448092E0,-1.3771687E0],"categories":[],"categories_nodes":[],"categories_segments":[],"categories_sizes":[],"default_left":[0,0,0,0,0,0,0,0,0,0,0,0,0,0,0,0,0,0,0,0,0,0,0,0,0,0,0,0,0],"id":37,"left_children":[1,3,5,7,9,11,13,-1,15,17,19,21,23,25,27,-1,-1,-1,-1,-1,-1,-1,-1,-1,-1,-1,-1,-1,-1],"loss_changes":[5.656049E4,3.1549555E4,1.8512777E4,1.6073461E4,4.4616555E4,1.1440263E4,1.8018883E4,0E0,7.2439883E3,3.7169832E4,7.368666E3,3.9210977E3,2.8123647E3,7.4260938E3,1.3321755E4,0E0,0E0,0E0,0E0,0E0,0E0,0E0,0E0,0E0,0E0,0E0,0E0,0E0,0E0],"parents":[2147483647,0,0,1,1,2,2,3,3,4,4,5,5,6,6,8,8,9,9,10,10,11,11,12,12,13,13,14,14],"right_children":[2,4,6,8,10,12,14,-1,16,18,20,22,24,26,28,-1,-1,-1,-1,-1,-1,-1,-1,-1,-1,-1,-1,-1,-1],"split_conditions":[6E0,2E0,1.1E1,2E0,1.2E1,9E0,2.3E1,-4.8314095E0,1E1,1E1,2.3E1,7E0,7E0,2.1E1,7E0,1.8358861E-1,-1.5772619E0,9.359395E-1,-1.1407816E0,9.460592E-1,3.3391232E0,1.3958175E0,3.580183E0,-5.3478517E-2,7.337437E-1,2.341878E0,5.0181413E0,5.6448092E0,-1.3771687E0],"split_indices":[0,0,1,1,1,1,1,0,1,1,1,1,0,1,0,0,0,0,0,0,0,0,0,0,0,0,0,0,0],"split_type":[0,0,0,0,0,0,0,0,0,0,0,0,0,0,0,0,0,0,0,0,0,0,0,0,0,0,0,0,0],"sum_hessian":[7.64E2,5.42E2,2.22E2,1.08E2,4.34E2,1.49E2,7.3E1,8E0,1E2,2.9E2,1.44E2,3.1E1,1.18E2,6E1,1.3E1,1.8E1,8.2E1,7.3E1,2.17E2,1.36E2,8E0,2.4E1,7E0,6.9E1,4.9E1,5.2E1,8E0,1E0,1.2E1],"tree_param":{"num_deleted":"0","num_feature":"2","num_nodes":"29","size_leaf_vector":"1"}},{"base_weights":[1.8507898E0,-2.3619657E0,1.2009347E1,8.584764E0,-4.5848355E0,8.367146E0,1.9039885E1,-1.779409E1,2.9218384E1,-1.0630874E1,2.751762E0,2.1149488E1,4.721515E0,2.445205E1,-2.7839813E0,-1.0274842E0,-2.9287694E0,1.396644E0,2.9808552E0,-1.3680449E0,-2.3998718E-1,-9.4615287E-1,6.6482955E-1,4.610677E-2,2.2167876E0,-6.0930324E-1,6.4960206E-1,2.8268435E0,1.392528E0,5.4190183E0,-9.601022E-1],"categories":[],"categories_nodes":[],"categories_segments":[],"categories_sizes":[],"default_left":[0,0,0,0,0,0,0,0,0,0,0,0,0,0,0,0,0,0,0,0,0,0,0,0,0,0,0,0,0,0,0],"id":38,"left_children":[1,3,5,7,9,11,13,15,17,19,21,23,25,27,29,-1,-1,-1,-1,-1,-1,-1,-1,-1,-1,-1,-1,-1,-1,-1,-1],"loss_changes":[3.2852527E4,1.3252261E4,5.6021836E3,5.059471E4,2.0078775E4,6.8900967E3,9.044762E3,3.348829E3,4.267672E3,1.21925625E4,1.6710898E4,4.437949E3,5.0096035E3,4.0623555E3,1.1213252E4,0E0,0E0,0E0,0E0,0E0,0E0,0E0,0E0,0E0,0E0,0E0,0E0,0E0,0E0,0E0,0E0],"parents":[2147483647,0,0,1,1,2,2,3,3,4,4,5,5,6,6,7,7,8,8,9,9,10,10,11,11,12,12,13,13,14,14],"right_children":[2,4,6,8,10,12,14,16,18,20,22,24,26,28,30,-1,-1,-1,-1,-1,-1,-1,-1,-1,-1,-1,-1,-1,-1,-1,-1],"split_conditions":[6E0,1E1,1.1E1,4E0,1.2E1,9E0,2.3E1,5E0,7E0,4E0,2E0,3E0,1E1,1.3E1,7E0,-1.0274842E0,-2.9287694E0,1.396644E0,2.9808552E0,-1.3680449E0,-2.3998718E-1,-9.4615287E-1,6.6482955E-1,4.610677E-2,2.2167876E0,-6.0930324E-1,6.4960206E-1,2.8268435E0,1.392528E0,5.4190183E0,-9.601022E-1],"split_indices":[0,1,1,1,1,1,1,0,1,0,0,1,1,1,0,0,0,0,0,0,0,0,0,0,0,0,0,0,0,0,0],"split_type":[0,0,0,0,0,0,0,0,0,0,0,0,0,0,0,0,0,0,0,0,0,0,0,0,0,0,0,0,0,0,0],"sum_hessian":[7.66E2,5.42E2,2.24E2,9.1E1,4.51E2,1.49E2,7.5E1,4E1,5.1E1,2.47E2,2.04E2,3.2E1,1.17E2,6E1,1.5E1,3.3E1,7E0,2.2E1,2.9E1,1.33E2,1.14E2,5.6E1,1.48E2,8E0,2.4E1,2.5E1,9.2E1,2.2E1,3.8E1,1E0,1.4E1],"tree_param":{"num_deleted":"0","num_feature":"2","num_nodes":"31","size_leaf_vector":"1"}},{"base_weights":[-4.2012677E-1,-1.3662572E1,4.742539E0,-6.758078E1,-1.15127735E1,1.4529395E0,1.6876333E1,-6.0082364E0,-5.9702146E-1,-1.4045851E1,1.0426547E1,-2.385181E0,1.1600461E1,1.9651655E1,-4.8405904E-2,-2.505066E-1,-1.3034774E0,2.1132104E0,9.633593E-2,-1.9060763E0,-5.551811E-2,7.224512E-1,3.6902306E0,1.2265401E0,4.968572E0],"categories":[],"categories_nodes":[],"categories_segments":[],"categories_sizes":[],"default_left":[0,0,0,0,0,0,0,0,0,0,0,0,0,0,0,0,0,0,0,0,0,0,0,0,0],"id":39,"left_children":[1,3,5,7,9,11,13,-1,-1,15,17,19,21,23,-1,-1,-1,-1,-1,-1,-1,-1,-1,-1,-1],"loss_changes":[5.215993E4,2.4027395E4,2.1888992E4,3.0572734E3,1.1650264E4,1.6891896E4,5.688324E3,0E0,0E0,4.511871E3,3.2121414E3,1.1405597E4,1.0142219E4,1.7571562E4,0E0,0E0,0E0,0E0,0E0,0E0,0E0,0E0,0E0,0E0,0E0],"parents":[2147483647,0,0,1,1,2,2,3,3,4,4,5,5,6,6,9,9,10,10,11,11,12,12,13,13],"right_children":[2,4,6,8,10,12,14,-1,-1,16,18,20,22,24,-1,-1,-1,-1,-1,-1,-1,-1,-1,-1,-1],"split_conditions":[3E0,1E0,7E0,2E0,1.9E1,1.2E1,2.3E1,-6.0082364E0,-5.9702146E-1,1E1,2.2E1,3E0,2.3E1,1.7E1,-4.8405904E-2,-2.505066E-1,-1.3034774E0,2.1132104E0,9.633593E-2,-1.9060763E0,-5.551811E-2,7.224512E-1,3.6902306E0,1.2265401E0,4.968572E0],"split_indices":[0,1,0,0,1,1,1,0,0,1,1,1,1,1,0,0,0,0,0,0,0,0,0,0,0],"split_type":[0,0,0,0,0,0,0,0,0,0,0,0,0,0,0,0,0,0,0,0,0,0,0,0,0],"sum_hessian":[7.61E2,2.13E2,5.48E2,7E0,2.06E2,4.32E2,1.16E2,6E0,1E0,1.85E2,2.1E1,3.14E2,1.18E2,1E2,1.6E1,3.2E1,1.53E2,7E0,1.4E1,2.2E1,2.92E2,1.11E2,7E0,9.2E1,8E0],"tree_param":{"num_deleted":"0","num_feature":"2","num_nodes":"25","size_leaf_vector":"1"}},{"base_weights":[3.2113862E-1,-8.81582E0,7.3420916E0,-1.3334584E1,3.3515167E0,4.046558E0,1.645E1,-3.9983204E1,-1.1465517E1,-1.8823487E0,2.2457783E1,2.8313017E0,4.0099586E1,2.0762854E1,-1.668902E0,-2.387708E0,-4.0171275E0,6.0077393E-1,-1.3196956E0,-4.7579062E-1,5.805721E-1,3.7608943E0,1.0220906E0,-1.1070638E0,3.5708743E-1,7.423706E-1,4.158598E0,1.224015E0,5.0855894E0],"categories":[],"categories_nodes":[],"categories_segments":[],"categories_sizes":[],"default_left":[0,0,0,0,0,0,0,0,0,0,0,0,0,0,0,0,0,0,0,0,0,0,0,0,0,0,0,0,0],"id":40,"left_children":[1,3,5,7,9,11,13,15,17,19,21,23,25,27,-1,-1,-1,-1,-1,-1,-1,-1,-1,-1,-1,-1,-1,-1,-1],"loss_changes":[4.753584E4,1.7748678E4,1.2509896E4,1.1246465E4,8.84224E3,1.3424888E4,1.8295045E4,5.6927734E1,2.1220113E4,2.643828E3,3.9160107E3,8.224662E3,3.1799238E3,2.2411414E4,0E0,0E0,0E0,0E0,0E0,0E0,0E0,0E0,0E0,0E0,0E0,0E0,0E0,0E0,0E0],"parents":[2147483647,0,0,1,1,2,2,3,3,4,4,5,5,6,6,7,7,8,8,9,9,10,10,11,11,12,12,13,13],"right_children":[2,4,6,8,10,12,14,16,18,20,22,24,26,28,-1,-1,-1,-1,-1,-1,-1,-1,-1,-1,-1,-1,-1,-1,-1],"split_conditions":[4E0,1.3E1,7E0,1E0,3E0,2.2E1,2.3E1,3E0,1E1,2E1,1.4E1,5E0,5E0,1.7E1,-1.668902E0,-2.387708E0,-4.0171275E0,6.0077393E-1,-1.3196956E0,-4.7579062E-1,5.805721E-1,3.7608943E0,1.0220906E0,-1.1070638E0,3.5708743E-1,7.423706E-1,4.158598E0,1.224015E0,5.0855894E0],"split_indices":[0,1,0,1,0,1,1,0,1,1,1,1,0,1,0,0,0,0,0,0,0,0,0,0,0,0,0,0,0],"split_type":[0,0,0,0,0,0,0,0,0,0,0,0,0,0,0,0,0,0,0,0,0,0,0,0,0,0,0,0,0],"sum_hessian":[7.39E2,3.21E2,4.18E2,2.34E2,8.7E1,3.08E2,1.1E2,1.4E1,2.2E2,6.9E1,1.8E1,2.99E2,9E0,9.9E1,1.1E1,9E0,5E0,4.6E1,1.74E2,4.8E1,2.1E1,4E0,1.4E1,2.6E1,2.73E2,3E0,6E0,8.9E1,1E1],"tree_param":{"num_deleted":"0","num_feature":"2","num_nodes":"29","size_leaf_vector":"1"}},{"base_weights":[4.0748915E-1,-4.7834616E0,1.2646379E1,-7.069944E0,1.4715501E1,7.100183E0,2.2887419E1,-1.4467244E1,-2.1984372E0,6.707473E0,2.035765E0,2.0642479E1,3.398892E0,4.016384E1,1.5641814E1,-1.3983724E0,-4.2553532E-1,-2.5612504E0,-4.699859E-2,-6.259257E-2,1.980914E0,-3.7662647E0,1.9476541E0,-3.1633282E-1,4.3976814E-1,2.2023294E0,7.463718E0,7.898763E-3,2.0682414E0],"categories":[],"categories_nodes":[],"categories_segments":[],"categories_sizes":[],"default_left":[0,0,0,0,0,0,0,0,0,0,0,0,0,0,0,0,0,0,0,0,0,0,0,0,0,0,0,0,0],"id":41,"left_children":[1,3,5,7,9,11,13,15,17,19,-1,21,23,25,27,-1,-1,-1,-1,-1,-1,-1,-1,-1,-1,-1,-1,-1,-1],"loss_changes":[4.8852668E4,2.4179418E4,1.2844426E4,1.7409617E4,4.7278164E3,7.448435E3,9.386016E3,5.1980977E3,1.4055199E4,4.61692E3,0E0,9.171221E3,1.857698E3,1.2871895E4,9.202832E3,0E0,0E0,0E0,0E0,0E0,0E0,0E0,0E0,0E0,0E0,0E0,0E0,0E0,0E0],"parents":[2147483647,0,0,1,1,2,2,3,3,4,4,5,5,6,6,7,7,8,8,9,9,11,11,12,12,13,13,14,14],"right_children":[2,4,6,8,10,12,14,16,18,20,-1,22,24,26,28,-1,-1,-1,-1,-1,-1,-1,-1,-1,-1,-1,-1,-1,-1],"split_conditions":[6E0,1.9E1,1.1E1,3E0,4E0,9E0,1.3E1,1.3E1,2E0,2.3E1,2.035765E0,1E0,1E1,1.2E1,1.8E1,-1.3983724E0,-4.2553532E-1,-2.5612504E0,-4.699859E-2,-6.259257E-2,1.980914E0,-3.7662647E0,1.9476541E0,-3.1633282E-1,4.3976814E-1,2.2023294E0,7.463718E0,7.898763E-3,2.0682414E0],"split_indices":[0,1,1,0,0,1,1,1,1,1,0,1,1,1,1,0,0,0,0,0,0,0,0,0,0,0,0,0,0],"split_type":[0,0,0,0,0,0,0,0,0,0,0,0,0,0,0,0,0,0,0,0,0,0,0,0,0,0,0,0,0],"sum_hessian":[7.67E2,5.39E2,2.28E2,4.83E2,5.6E1,1.49E2,7.9E1,1.91E2,2.92E2,3.3E1,2.3E1,3.1E1,1.18E2,2.2E1,5.7E1,1.43E2,4.8E1,1.4E1,2.78E2,2.4E1,9E0,1E0,3E1,2.6E1,9.2E1,1.9E1,3E0,2.3E1,3.4E1],"tree_param":{"num_deleted":"0","num_feature":"2","num_nodes":"29","size_leaf_vector":"1"}},{"base_weights":[1.2507466E0,-5.785563E0,6.66416E0,-2.6187492E1,-3.590072E0,3.7795062E0,1.425935E1,-3.5518806E1,-1.6956535E1,1.8284264E1,-6.1788774E0,1.3720356E1,1.5600201E0,1.6900873E1,-3.938952E-1,-2.1151152E0,-3.5785692E0,-3.266261E0,-3.7075722E-1,1.0321764E0,2.190894E0,-1.4573627E0,-2.8911838E-1,1.5711263E-1,4.2688274E0,-3.3555847E-1,2.6066312E-1,8.3979595E-1,3.6391063E0,3.6383789E0,-1.2527076E0],"categories":[],"categories_nodes":[],"categories_segments":[],"categories_sizes":[],"default_left":[0,0,0,0,0,0,0,0,0,0,0,0,0,0,0,0,0,0,0,0,0,0,0,0,0,0,0,0,0,0,0],"id":42,"left_children":[1,3,5,7,9,11,13,15,17,19,21,23,25,27,29,-1,-1,-1,-1,-1,-1,-1,-1,-1,-1,-1,-1,-1,-1,-1,-1],"loss_changes":[2.89873E4,1.4732219E4,9.3671875E3,2.1541074E3,1.7101496E4,6.8844956E3,4.5740684E3,7.216406E1,5.1054683E3,1.2142422E3,8.2399795E3,2.645866E4,2.5252483E3,1.7828562E4,1.4017076E4,0E0,0E0,0E0,0E0,0E0,0E0,0E0,0E0,0E0,0E0,0E0,0E0,0E0,0E0,0E0,0E0],"parents":[2147483647,0,0,1,1,2,2,3,3,4,4,5,5,6,6,7,7,8,8,9,9,10,10,11,11,12,12,13,13,14,14],"right_children":[2,4,6,8,10,12,14,16,18,20,22,24,26,28,30,-1,-1,-1,-1,-1,-1,-1,-1,-1,-1,-1,-1,-1,-1,-1,-1],"split_conditions":[4E0,4E0,1.2E1,1E0,1E1,9E0,2.3E1,3E0,2E0,3E0,1.1E1,7E0,5E0,7E0,7E0,-2.1151152E0,-3.5785692E0,-3.266261E0,-3.7075722E-1,1.0321764E0,2.190894E0,-1.4573627E0,-2.8911838E-1,1.5711263E-1,4.2688274E0,-3.3555847E-1,2.6066312E-1,8.3979595E-1,3.6391063E0,3.6383789E0,-1.2527076E0],"split_indices":[0,1,1,1,1,1,1,0,0,0,1,1,0,0,0,0,0,0,0,0,0,0,0,0,0,0,0,0,0,0,0],"split_type":[0,0,0,0,0,0,0,0,0,0,0,0,0,0,0,0,0,0,0,0,0,0,0,0,0,0,0,0,0,0,0],"sum_hessian":[7.59E2,3.3E2,4.29E2,3.1E1,2.99E2,3.12E2,1.17E2,1.4E1,1.7E1,3.1E1,2.68E2,5.6E1,2.56E2,9.9E1,1.8E1,9E0,5E0,5E0,1.2E1,2.1E1,1E1,4.6E1,2.22E2,4.4E1,1.2E1,5.8E1,1.98E2,8.2E1,1.7E1,4E0,1.4E1],"tree_param":{"num_deleted":"0","num_feature":"2","num_nodes":"31","size_leaf_vector":"1"}},{"base_weights":[1.2936808E-1,-7.967741E0,3.2220848E0,-8.892596E0,2.0387661E1,-2.6676118E-1,1.2147189E1,-1.4791459E0,-1.0782144E1,6.847636E-1,2.6644237E0,9.843284E0,-2.7073703E0,9.099235E0,1.6060156E1,-1.4904678E0,1.0300455E0,-1.1284364E0,-3.8293147E-1,-1.2767212E0,1.844107E0,-4.0160877E-1,2.8125487E-2,1.4074777E0,4.595083E-1,2.312333E0,1.0639783E0],"categories":[],"categories_nodes":[],"categories_segments":[],"categories_sizes":[],"default_left":[0,0,0,0,0,0,0,0,0,0,0,0,0,0,0,0,0,0,0,0,0,0,0,0,0,0,0],"id":43,"left_children":[1,3,5,7,9,11,13,15,17,-1,-1,19,21,23,25,-1,-1,-1,-1,-1,-1,-1,-1,-1,-1,-1,-1],"loss_changes":[1.9207895E4,5.74092E3,1.7285006E4,2.869713E3,7.844607E2,9.896517E3,1.7144062E3,1.0826818E4,3.200168E3,0E0,0E0,2.6950137E4,2.2868381E3,2.4640713E3,1.9910625E3,0E0,0E0,0E0,0E0,0E0,0E0,0E0,0E0,0E0,0E0,0E0,0E0],"parents":[2147483647,0,0,1,1,2,2,3,3,4,4,5,5,6,6,7,7,8,8,11,11,12,12,13,13,14,14],"right_children":[2,4,6,8,10,12,14,16,18,-1,-1,20,22,24,26,-1,-1,-1,-1,-1,-1,-1,-1,-1,-1,-1,-1],"split_conditions":[3E0,2.3E1,1.2E1,1E1,2E0,9E0,1.9E1,4E0,1.3E1,6.847636E-1,2.6644237E0,3E0,6E0,4E0,2E1,-1.4904678E0,1.0300455E0,-1.1284364E0,-3.8293147E-1,-1.2767212E0,1.844107E0,-4.0160877E-1,2.8125487E-2,1.4074777E0,4.595083E-1,2.312333E0,1.0639783E0],"split_indices":[0,1,1,1,0,1,1,1,1,0,0,1,0,0,1,0,0,0,0,0,0,0,0,0,0,0,0],"split_type":[0,0,0,0,0,0,0,0,0,0,0,0,0,0,0,0,0,0,0,0,0,0,0,0,0,0,0],"sum_hessian":[7.65E2,2.11E2,5.54E2,2.05E2,6E0,3.99E2,1.55E2,4.2E1,1.63E2,4E0,2E0,7.7E1,3.22E2,8.9E1,6.6E1,1.9E1,2.3E1,1.04E2,5.9E1,2.6E1,5.1E1,1.83E2,1.39E2,2.4E1,6.5E1,1E1,5.6E1],"tree_param":{"num_deleted":"0","num_feature":"2","num_nodes":"27","size_leaf_vector":"1"}},{"base_weights":[6.2191177E-2,-1.370045E1,2.4747546E0,-2.0315628E1,-2.8842086E-1,-6.234147E-1,9.592778E0,-3.529416E0,-1.691658E1,6.583026E-1,-5.954539E0,7.0890884E0,-3.7680144E0,7.065277E0,2.123406E1,3.1894788E-1,-1.9497948E0,-9.1239095E-1,-3.723257E-2,-7.407135E-1,1.2443264E0,-5.479904E-1,1.7453673E-1,4.1386354E-1,3.1427865E0,2.7864828E0,2.3285705E-1],"categories":[],"categories_nodes":[],"categories_segments":[],"categories_sizes":[],"default_left":[0,0,0,0,0,0,0,0,0,0,0,0,0,0,0,0,0,0,0,0,0,0,0,0,0,0,0],"id":44,"left_children":[1,3,5,7,9,11,13,-1,15,-1,17,19,21,23,25,-1,-1,-1,-1,-1,-1,-1,-1,-1,-1,-1,-1],"loss_changes":[2.5600402E4,1.0197281E4,1.4472645E4,5.4833203E3,1.9311184E3,1.1134464E4,5.7052227E3,0E0,1.0851018E4,0E0,7.127163E2,1.8549318E4,5.99256E3,9.854975E3,8.618591E3,0E0,0E0,0E0,0E0,0E0,0E0,0E0,0E0,0E0,0E0,0E0,0E0],"parents":[2147483647,0,0,1,1,2,2,3,3,4,4,5,5,6,6,8,8,10,10,11,11,12,12,13,13,14,14],"right_children":[2,4,6,8,10,12,14,-1,16,-1,18,20,22,24,26,-1,-1,-1,-1,-1,-1,-1,-1,-1,-1,-1,-1],"split_conditions":[2E0,1.3E1,1.2E1,2E0,1.4E1,1E1,7E0,-3.529416E0,1E1,6.583026E-1,1.5E1,4E0,6E0,2.3E1,2.3E1,3.1894788E-1,-1.9497948E0,-9.1239095E-1,-3.723257E-2,-7.407135E-1,1.2443264E0,-5.479904E-1,1.7453673E-1,4.1386354E-1,3.1427865E0,2.7864828E0,2.3285705E-1],"split_indices":[0,1,1,1,1,1,0,0,1,0,1,1,0,1,1,0,0,0,0,0,0,0,0,0,0,0,0],"split_type":[0,0,0,0,0,0,0,0,0,0,0,0,0,0,0,0,0,0,0,0,0,0,0,0,0,0,0],"sum_hessian":[7.69E2,1.14E2,6.55E2,7.6E1,3.8E1,4.57E2,1.98E2,8E0,6.8E1,1.5E1,2.3E1,1.32E2,3.25E2,1.64E2,3.4E1,1.8E1,5E1,1.1E1,1.2E1,4.5E1,8.7E1,2.14E2,1.11E2,1.56E2,8E0,1.9E1,1.5E1],"tree_param":{"num_deleted":"0","num_feature":"2","num_nodes":"27","size_leaf_vector":"1"}},{"base_weights":[9.8763686E-1,-1.1846889E0,1.2954838E1,-2.0144512E1,5.1186305E-1,3.081261E0,1.097809E1,-3.0267746E1,-1.3092015E1,-1.6904318E-1,2.8684275E1,6.75654E0,1.946804E1,-1.6237041E0,-2.8843977E0,-7.5060296E-1,-1.5726411E0,8.8867164E-1,-1.4927256E-1,1.2241268E0,5.8122883E0,1.0703912E0,3.902163E-1,5.7319207E0,1.1432999E0],"categories":[],"categories_nodes":[],"categories_segments":[],"categories_sizes":[],"default_left":[0,0,0,0,0,0,0,0,0,0,0,0,0,0,0,0,0,0,0,0,0,0,0,0,0],"id":45,"left_children":[1,3,5,7,9,-1,11,13,15,17,19,21,23,-1,-1,-1,-1,-1,-1,-1,-1,-1,-1,-1,-1],"loss_changes":[1.9798809E4,2.0757594E4,5.4888867E3,3.3876191E3,1.1380231E4,0E0,3.8109463E3,4.8006445E2,6.193208E2,1.1119769E4,7.1262754E3,8.680513E2,8.700728E3,0E0,0E0,0E0,0E0,0E0,0E0,0E0,0E0,0E0,0E0,0E0,0E0],"parents":[2147483647,0,0,1,1,2,2,3,3,4,4,6,6,7,7,8,8,9,9,10,10,11,11,12,12],"right_children":[2,4,6,8,10,-1,12,14,16,18,20,22,24,-1,-1,-1,-1,-1,-1,-1,-1,-1,-1,-1,-1],"split_conditions":[7E0,4E0,5E0,1E0,2.3E1,3.081261E0,1.2E1,3E0,5E0,1E1,5E0,1E1,1.3E1,-1.6237041E0,-2.8843977E0,-7.5060296E-1,-1.5726411E0,8.8867164E-1,-1.4927256E-1,1.2241268E0,5.8122883E0,1.0703912E0,3.902163E-1,5.7319207E0,1.1432999E0],"split_indices":[0,1,1,1,1,0,1,0,0,1,0,1,1,0,0,0,0,0,0,0,0,0,0,0,0],"split_type":[0,0,0,0,0,0,0,0,0,0,0,0,0,0,0,0,0,0,0,0,0,0,0,0,0],"sum_hessian":[7.6E2,6.44E2,1.16E2,5.2E1,5.92E2,7E0,1.09E2,2E1,3.2E1,5.79E2,1.3E1,7.4E1,3.5E1,9E0,1.1E1,2.2E1,1E1,7.5E1,5.04E2,1.1E1,2E0,1.5E1,5.9E1,2E0,3.3E1],"tree_param":{"num_deleted":"0","num_feature":"2","num_nodes":"25","size_leaf_vector":"1"}},{"base_weights":[-1.7809683E0,-4.9376287E0,5.8309917E0,-7.8489146E0,4.5398808E0,7.1954923E0,-1.24425125E1,1.1607666E0,-1.0675241E1,2.5716636E0,2.3351675E1,5.4163413E0,2.479557E1,4.2592773E0,-1.6296648E0,-1.655158E0,1.4405804E0,-1.6821054E0,-6.920403E-1,-5.3320616E-2,5.089498E-1,2.1961522E-1,2.6649413E0,5.6456596E-1,-7.237456E-1,6.372158E-1,3.1317108E0],"categories":[],"categories_nodes":[],"categories_segments":[],"categories_sizes":[],"default_left":[0,0,0,0,0,0,0,0,0,0,0,0,0,0,0,0,0,0,0,0,0,0,0,0,0,0,0],"id":46,"left_children":[1,3,5,7,9,11,13,15,17,19,21,23,25,-1,-1,-1,-1,-1,-1,-1,-1,-1,-1,-1,-1,-1,-1],"loss_changes":[1.8434525E4,1.4990355E4,5.6997256E3,1.0580078E4,4.6792354E3,6.4414697E3,9.416691E3,3.7182547E4,6.4409023E3,1.4402219E3,2.3714634E3,4.620042E3,4.277253E3,0E0,0E0,0E0,0E0,0E0,0E0,0E0,0E0,0E0,0E0,0E0,0E0,0E0,0E0],"parents":[2147483647,0,0,1,1,2,2,3,3,4,4,5,5,6,6,7,7,8,8,9,9,10,10,11,11,12,12],"right_children":[2,4,6,8,10,12,14,16,18,20,22,24,26,-1,-1,-1,-1,-1,-1,-1,-1,-1,-1,-1,-1,-1,-1],"split_conditions":[6E0,1.3E1,2.3E1,1E1,2.3E1,1.8E1,7E0,4E0,2E0,3E0,2E0,1.3E1,7E0,4.2592773E0,-1.6296648E0,-1.655158E0,1.4405804E0,-1.6821054E0,-6.920403E-1,-5.3320616E-2,5.089498E-1,2.1961522E-1,2.6649413E0,5.6456596E-1,-7.237456E-1,6.372158E-1,3.1317108E0],"split_indices":[0,1,1,1,1,1,0,1,0,0,0,1,0,0,0,0,0,0,0,0,0,0,0,0,0,0,0],"split_type":[0,0,0,0,0,0,0,0,0,0,0,0,0,0,0,0,0,0,0,0,0,0,0,0,0,0,0],"sum_hessian":[7.65E2,5.41E2,2.24E2,4.14E2,1.27E2,2.09E2,1.5E1,9.9E1,3.15E2,1.16E2,1.1E1,1.91E2,1.8E1,1E0,1.4E1,4.3E1,5.6E1,5E1,2.65E2,6.3E1,5.3E1,4E0,7E0,1.72E2,1.9E1,9E0,9E0],"tree_param":{"num_deleted":"0","num_feature":"2","num_nodes":"27","size_leaf_vector":"1"}},{"base_weights":[3.3408126E-1,-4.376189E0,3.9632483E0,-2.4362108E1,-3.2347386E0,1.2721152E0,1.1376097E1,-2.6077888E1,-1.1837402E1,7.979911E0,-5.250543E0,1.0895974E1,-9.366772E-1,1.7250546E1,9.219665E0,-1.3876299E0,-2.9028614E0,-1.4961327E0,3.5021484E-1,7.991486E-2,2.5604153E0,-7.191059E-1,1.5073481E-1,1.0465617E-1,3.6367059E0,-9.159763E-1,7.183179E-2,5.7840997E-1,6.446059E0,-2.2826862E-2,1.2026849E0],"categories":[],"categories_nodes":[],"categories_segments":[],"categories_sizes":[],"default_left":[0,0,0,0,0,0,0,0,0,0,0,0,0,0,0,0,0,0,0,0,0,0,0,0,0,0,0,0,0,0,0],"id":47,"left_children":[1,3,5,7,9,11,13,15,17,19,21,23,25,27,29,-1,-1,-1,-1,-1,-1,-1,-1,-1,-1,-1,-1,-1,-1,-1,-1],"loss_changes":[1.3197093E4,7.586343E3,8.683275E3,7.811914E1,7.2533857E3,6.8337373E3,1.3104258E3,7.077168E2,5.270881E2,8.1863037E3,7.2449453E3,1.9823375E4,5.063457E3,1.8453781E4,4.812004E3,0E0,0E0,0E0,0E0,0E0,0E0,0E0,0E0,0E0,0E0,0E0,0E0,0E0,0E0,0E0,0E0],"parents":[2147483647,0,0,1,1,2,2,3,3,4,4,5,5,6,6,7,7,8,8,9,9,10,10,11,11,12,12,13,13,14,14],"right_children":[2,4,6,8,10,12,14,16,18,20,22,24,26,28,30,-1,-1,-1,-1,-1,-1,-1,-1,-1,-1,-1,-1,-1,-1,-1,-1],"split_conditions":[4E0,2E0,1.2E1,1E0,1E1,9E0,1.3E1,3E0,3E0,8E0,1.3E1,7E0,1E1,6E0,1.9E1,-1.3876299E0,-2.9028614E0,-1.4961327E0,3.5021484E-1,7.991486E-2,2.5604153E0,-7.191059E-1,1.5073481E-1,1.0465617E-1,3.6367059E0,-9.159763E-1,7.183179E-2,5.7840997E-1,6.446059E0,-2.2826862E-2,1.2026849E0],"split_indices":[0,1,1,1,1,1,1,0,0,1,1,1,1,0,1,0,0,0,0,0,0,0,0,0,0,0,0,0,0,0,0],"split_type":[0,0,0,0,0,0,0,0,0,0,0,0,0,0,0,0,0,0,0,0,0,0,0,0,0,0,0,0,0,0,0],"sum_hessian":[7.7E2,3.35E2,4.35E2,1.7E1,3.18E2,3.2E2,1.15E2,1.4E1,3E0,4.8E1,2.7E2,5.9E1,2.61E2,2.9E1,8.6E1,9E0,5E0,2E0,1E0,3.8E1,1E1,1.77E2,9.3E1,4.7E1,1.2E1,3.8E1,2.23E2,2.6E1,3E0,3.3E1,5.3E1],"tree_param":{"num_deleted":"0","num_feature":"2","num_nodes":"31","size_leaf_vector":"1"}},{"base_weights":[7.5199425E-1,-1.2383813E0,9.703313E0,4.9742713E0,-2.5912602E0,6.505207E0,2.2263407E1,-8.7515955E0,1.768526E1,-4.259917E0,1.3441092E0,2.7142729E1,2.8212576E0,3.6411915E1,4.4112372E-1,-1.0565906E0,1.895131E0,6.4068466E-1,2.0053318E0,1.5598007E0,-4.2127368E-1,-1.8480499E-1,1.331746E0,2.737424E0,-3.5245603E-1,-9.1782606E-1,7.514264E-1,7.6063275E-1,3.6264665E0],"categories":[],"categories_nodes":[],"categories_segments":[],"categories_sizes":[],"default_left":[0,0,0,0,0,0,0,0,0,0,0,0,0,0,0,0,0,0,0,0,0,0,0,0,0,0,0,0,0],"id":48,"left_children":[1,3,5,7,9,11,13,15,17,19,21,23,25,27,-1,-1,-1,-1,-1,-1,-1,-1,-1,-1,-1,-1,-1,-1,-1],"loss_changes":[1.3712893E4,5.308019E3,5.4787627E3,1.986981E4,3.4073174E3,8.51454E3,6.434619E3,8.263065E3,4.0134727E3,8.802299E3,8.705862E3,3.9452793E3,9.219417E3,3.1683184E3,0E0,0E0,0E0,0E0,0E0,0E0,0E0,0E0,0E0,0E0,0E0,0E0,0E0,0E0,0E0],"parents":[2147483647,0,0,1,1,2,2,3,3,4,4,5,5,6,6,7,7,8,8,9,9,10,10,11,11,12,12,13,13],"right_children":[2,4,6,8,10,12,14,16,18,20,22,24,26,28,-1,-1,-1,-1,-1,-1,-1,-1,-1,-1,-1,-1,-1,-1,-1],"split_conditions":[1.4E1,9E0,7E0,4E0,6E0,1.5E1,2.3E1,7E0,6E0,1E1,1.1E1,5E0,1.9E1,1.7E1,4.4112372E-1,-1.0565906E0,1.895131E0,6.4068466E-1,2.0053318E0,1.5598007E0,-4.2127368E-1,-1.8480499E-1,1.331746E0,2.737424E0,-3.5245603E-1,-9.1782606E-1,7.514264E-1,7.6063275E-1,3.6264665E0],"split_indices":[1,1,0,1,0,1,1,0,1,1,1,0,1,1,0,0,0,0,0,0,0,0,0,0,0,0,0,0,0],"split_type":[0,0,0,0,0,0,0,0,0,0,0,0,0,0,0,0,0,0,0,0,0,0,0,0,0,0,0,0,0],"sum_hessian":[7.68E2,6.29E2,1.39E2,1.12E2,5.17E2,1.12E2,2.7E1,5.4E1,5.8E1,3.63E2,1.54E2,1.6E1,9.6E1,1.4E1,1.3E1,4.8E1,6E0,2.6E1,3.2E1,1.4E1,3.49E2,1.25E2,2.9E1,1.3E1,3E0,3E1,6.6E1,4E0,1E1],"tree_param":{"num_deleted":"0","num_feature":"2","num_nodes":"29","size_leaf_vector":"1"}},{"base_weights":[-7.996849E-1,-4.126371E0,6.9274898E0,-6.8237367E0,4.1400285E0,3.9423423E0,1.2475362E1,1.3967993E0,-9.505414E0,9.423066E0,1.0089707E0,1.3056278E1,1.3818195E0,2.4445175E1,7.5136194E0,-1.0076122E0,1.0092311E0,-1.5816048E0,-4.9408185E-1,4.5040306E-1,1.8922294E0,-1.4432634E0,3.3012936E-1,4.3756565E-1,1.6620245E0,-3.610062E-1,2.4625902E-1,1.0530782E0,5.9793897E0,-1.4961393E0,9.665689E-1],"categories":[],"categories_nodes":[],"categories_segments":[],"categories_sizes":[],"default_left":[0,0,0,0,0,0,0,0,0,0,0,0,0,0,0,0,0,0,0,0,0,0,0,0,0,0,0,0,0,0,0],"id":49,"left_children":[1,3,5,7,9,11,13,15,17,19,21,23,25,27,29,-1,-1,-1,-1,-1,-1,-1,-1,-1,-1,-1,-1,-1,-1,-1,-1],"loss_changes":[1.9642176E4,1.1935117E4,3.7598965E3,8.897344E3,2.1739695E3,3.5057612E3,4.567619E3,1.585589E4,1.0267105E4,2.5115615E3,5.0632427E3,1.8189146E3,1.2038151E3,1.2067199E4,7.1723076E3,0E0,0E0,0E0,0E0,0E0,0E0,0E0,0E0,0E0,0E0,0E0,0E0,0E0,0E0,0E0,0E0],"parents":[2147483647,0,0,1,1,2,2,3,3,4,4,5,5,6,6,7,7,8,8,9,9,10,10,11,11,12,12,13,13,14,14],"right_children":[2,4,6,8,10,12,14,16,18,20,22,24,26,28,30,-1,-1,-1,-1,-1,-1,-1,-1,-1,-1,-1,-1,-1,-1,-1,-1],"split_conditions":[6E0,1.3E1,1.1E1,1E1,1.5E1,9E0,1.3E1,4E0,1.1E1,3E0,1.7E1,7E0,1E1,1.2E1,1.4E1,-1.0076122E0,1.0092311E0,-1.5816048E0,-4.9408185E-1,4.5040306E-1,1.8922294E0,-1.4432634E0,3.3012936E-1,4.3756565E-1,1.6620245E0,-3.610062E-1,2.4625902E-1,1.0530782E0,5.9793897E0,-1.4961393E0,9.665689E-1],"split_indices":[0,1,1,1,1,1,1,1,1,0,1,0,1,1,1,0,0,0,0,0,0,0,0,0,0,0,0,0,0,0,0],"split_type":[0,0,0,0,0,0,0,0,0,0,0,0,0,0,0,0,0,0,0,0,0,0,0,0,0,0,0,0,0,0,0],"sum_hessian":[7.62E2,5.33E2,2.29E2,4.02E2,1.31E2,1.5E2,7.9E1,9.9E1,3.03E2,4.8E1,8.3E1,3.2E1,1.18E2,2.2E1,5.7E1,4.4E1,5.5E1,7.3E1,2.3E2,3.9E1,9E0,1.1E1,7.2E1,1.7E1,1.5E1,2.6E1,9.2E1,1.9E1,3E0,8E0,4.9E1],"tree_param":{"num_deleted":"0","num_feature":"2","num_nodes":"31","size_leaf_vector":"1"}},{"base_weights":[-1.1353806E0,-1.0942302E1,5.13061E-1,-2.8231358E1,-8.386857E0,-2.3566477E0,6.9919004E0,-2.5910363E0,-1.7291239E1,-7.990212E-1,-1.3963876E1,-4.1463637E0,5.425875E0,1.5384874E1,3.2454023E0,-4.5632225E-1,-3.0090916E0,-1.006189E0,7.2396445E-1,-2.0296266E0,-5.690031E-1,1.7122677E-1,-5.395524E-1,2.0332189E0,2.6872924E-1,9.176209E-1,5.6206274E0,-1.1346154E0,5.363181E-1],"categories":[],"categories_nodes":[],"categories_segments":[],"categories_sizes":[],"default_left":[0,0,0,0,0,0,0,0,0,0,0,0,0,0,0,0,0,0,0,0,0,0,0,0,0,0,0,0,0],"id":50,"left_children":[1,3,5,7,9,11,13,-1,15,17,19,21,23,25,27,-1,-1,-1,-1,-1,-1,-1,-1,-1,-1,-1,-1,-1,-1],"loss_changes":[1.2582869E4,4.7115254E3,1.2417597E4,7.6603516E1,4.178276E3,6.4713945E3,6.3961426E3,0E0,1.1983309E3,5.101815E3,4.274073E3,6.1720166E3,3.508876E3,1.2726928E4,8.7146E3,0E0,0E0,0E0,0E0,0E0,0E0,0E0,0E0,0E0,0E0,0E0,0E0,0E0,0E0],"parents":[2147483647,0,0,1,1,2,2,3,3,4,4,5,5,6,6,8,8,9,9,10,10,11,11,12,12,13,13,14,14],"right_children":[2,4,6,8,10,12,14,-1,16,18,20,22,24,26,28,-1,-1,-1,-1,-1,-1,-1,-1,-1,-1,-1,-1,-1,-1],"split_conditions":[2E0,4E0,1.2E1,2E0,1.2E1,7E0,1.3E1,-2.5910363E0,3E0,1.1E1,1.3E1,1E1,5E0,6E0,1.4E1,-4.5632225E-1,-3.0090916E0,-1.006189E0,7.2396445E-1,-2.0296266E0,-5.690031E-1,1.7122677E-1,-5.395524E-1,2.0332189E0,2.6872924E-1,9.176209E-1,5.6206274E0,-1.1346154E0,5.363181E-1],"split_indices":[0,1,1,1,1,0,1,0,1,1,1,1,1,0,1,0,0,0,0,0,0,0,0,0,0,0,0,0,0],"split_type":[0,0,0,0,0,0,0,0,0,0,0,0,0,0,0,0,0,0,0,0,0,0,0,0,0,0,0,0,0],"sum_hessian":[7.77E2,1.11E2,6.66E2,1.3E1,9.8E1,4.62E2,2.04E2,8E0,5E0,4.2E1,5.6E1,3.76E2,8.6E1,6.2E1,1.42E2,4E0,1E0,1.9E1,2.3E1,2E1,3.6E1,1.1E2,2.66E2,7E0,7.9E1,5.9E1,3E0,2.3E1,1.19E2],"tree_param":{"num_deleted":"0","num_feature":"2","num_nodes":"29","size_leaf_vector":"1"}},{"base_weights":[1.6004807E0,-6.5342016E0,2.9682338E0,-9.56887E-1,-1.1801186E1,3.0506694E-1,9.122765E0,-6.4892654E0,5.1675904E-1,-2.435497E0,-1.678772E0,6.187306E0,-2.048753E0,1.6730608E1,5.874641E0,2.2828043E-1,-2.4545832E0,3.5539517E-1,-4.347664E-1,9.502179E-1,2.0581506E-1,-6.902869E-1,8.4814794E-2,1.0327661E0,5.283391E0,-2.711869E-2,8.8348913E-1],"categories":[],"categories_nodes":[],"categories_segments":[],"categories_sizes":[],"default_left":[0,0,0,0,0,0,0,0,0,0,0,0,0,0,0,0,0,0,0,0,0,0,0,0,0,0,0],"id":51,"left_children":[1,3,5,7,9,11,13,15,-1,-1,17,19,21,23,25,-1,-1,-1,-1,-1,-1,-1,-1,-1,-1,-1,-1],"loss_changes":[8.575471E3,3.2494028E3,1.0798586E4,2.298578E3,1.0705213E4,6.395558E3,4.819246E3,7.32051E3,0E0,0E0,8.977666E2,2.6845088E3,6.759725E3,1.0264311E4,4.532389E3,0E0,0E0,0E0,0E0,0E0,0E0,0E0,0E0,0E0,0E0,0E0,0E0],"parents":[2147483647,0,0,1,1,2,2,3,3,4,4,5,5,6,6,7,7,10,10,11,11,12,12,13,13,14,14],"right_children":[2,4,6,8,10,12,14,16,-1,-1,18,20,22,24,26,-1,-1,-1,-1,-1,-1,-1,-1,-1,-1,-1,-1],"split_conditions":[2E0,1.2E1,1.2E1,1.1E1,1.3E1,1E1,1.3E1,1E1,5.1675904E-1,-2.435497E0,1.4E1,5E0,4E0,6E0,1.9E1,2.2828043E-1,-2.4545832E0,3.5539517E-1,-4.347664E-1,9.502179E-1,2.0581506E-1,-6.902869E-1,8.4814794E-2,1.0327661E0,5.283391E0,-2.711869E-2,8.8348913E-1],"split_indices":[0,1,1,1,1,1,1,1,0,0,1,0,0,0,1,0,0,0,0,0,0,0,0,0,0,0,0],"split_type":[0,0,0,0,0,0,0,0,0,0,0,0,0,0,0,0,0,0,0,0,0,0,0,0,0,0,0],"sum_hessian":[7.68E2,1.1E2,6.58E2,5.4E1,5.6E1,4.6E2,1.98E2,3.1E1,2.3E1,1.9E1,3.7E1,1.31E2,3.29E2,5.8E1,1.4E2,2.3E1,8E0,1.4E1,2.3E1,5E1,8.1E1,1.05E2,2.24E2,5.5E1,3E0,6.4E1,7.6E1],"tree_param":{"num_deleted":"0","num_feature":"2","num_nodes":"27","size_leaf_vector":"1"}},{"base_weights":[-8.464403E-1,-6.973535E0,1.5372338E0,-9.969807E0,-3.6186595E0,-2.0065023E1,2.0126765E0,-1.3102178E1,-3.181634E0,-1.0167196E1,4.716858E0,-2.5953379E0,-9.821457E0,1.0001387E1,7.675945E-1,-6.4331555E-1,-2.031079E0,3.2886264E-1,-6.239381E-1,-1.1710379E-2,-1.5112225E0,2.01735E0,-3.2984436E-1,1.1594872E0,-2.1847363E0,2.125157E-1,2.583734E0,-1.7809646E-1,5.0109017E-1],"categories":[],"categories_nodes":[],"categories_segments":[],"categories_sizes":[],"default_left":[0,0,0,0,0,0,0,0,0,0,0,0,0,0,0,0,0,0,0,0,0,0,0,0,0,0,0,0,0],"id":52,"left_children":[1,3,5,7,9,11,13,15,17,19,21,-1,23,25,27,-1,-1,-1,-1,-1,-1,-1,-1,-1,-1,-1,-1,-1,-1],"loss_changes":[1.1212754E4,2.125128E3,5.7200435E3,2.36104E3,5.670258E3,1.2027534E3,5.3833794E3,4.5835254E3,1.2779769E3,5.0671567E3,8.440015E3,0E0,3.7975322E3,1.186851E4,7.7473364E3,0E0,0E0,0E0,0E0,0E0,0E0,0E0,0E0,0E0,0E0,0E0,0E0,0E0,0E0],"parents":[2147483647,0,0,1,1,2,2,3,3,4,4,5,5,6,6,7,7,8,8,9,9,10,10,12,12,13,13,14,14],"right_children":[2,4,6,8,10,12,14,16,18,20,22,-1,24,26,28,-1,-1,-1,-1,-1,-1,-1,-1,-1,-1,-1,-1,-1,-1],"split_conditions":[3E0,2E0,1E0,1.3E1,1.2E1,4E0,9E0,1.2E1,1.4E1,1.1E1,1.3E1,-2.5953379E0,5E0,7E0,1.2E1,-6.4331555E-1,-2.031079E0,3.2886264E-1,-6.239381E-1,-1.1710379E-2,-1.5112225E0,2.01735E0,-3.2984436E-1,1.1594872E0,-2.1847363E0,2.125157E-1,2.583734E0,-1.7809646E-1,5.0109017E-1],"split_indices":[0,0,1,1,1,0,1,1,1,1,1,0,0,1,1,0,0,0,0,0,0,0,0,0,0,0,0,0,0],"split_type":[0,0,0,0,0,0,0,0,0,0,0,0,0,0,0,0,0,0,0,0,0,0,0,0,0,0,0,0,0],"sum_hessian":[7.66E2,2.14E2,5.52E2,1.12E2,1.02E2,1.1E1,5.41E2,7.6E1,3.6E1,5.7E1,4.5E1,4E0,7E0,7.2E1,4.69E2,5.5E1,2.1E1,1.4E1,2.2E1,2.7E1,3E1,1.3E1,3.2E1,3E0,4E0,5.5E1,1.7E1,3.04E2,1.65E2],"tree_param":{"num_deleted":"0","num_feature":"2","num_nodes":"29","size_leaf_vector":"1"}},{"base_weights":[3.3848014E-2,-1.0032313E1,1.7524095E0,-1.1708121E1,3.6302302E0,-1.1468873E0,8.274328E0,-9.820612E0,-2.2170918E0,1.0759326E0,1.6912231E0,-3.632307E0,3.0412123E0,1.3597207E1,6.035966E0,-9.885304E-1,2.2714111E-1,-1.571936E-1,5.7622457E-1,1.9783065E-1,-4.4978318E-1,5.0719507E-2,1.7711117E0,4.1936574E0,3.6833844E-1,-5.678414E-1,6.9775295E-1],"categories":[],"categories_nodes":[],"categories_segments":[],"categories_sizes":[],"default_left":[0,0,0,0,0,0,0,0,0,0,0,0,0,0,0,0,0,0,0,0,0,0,0,0,0,0,0],"id":53,"left_children":[1,3,5,7,9,11,13,15,-1,-1,17,19,21,23,25,-1,-1,-1,-1,-1,-1,-1,-1,-1,-1,-1,-1],"loss_changes":[1.3286157E4,2.606831E3,1.2413778E4,2.7488945E3,2.2476105E2,4.7472266E3,2.324664E3,2.9567002E3,0E0,0E0,2.5596666E2,3.4885808E3,7.801255E3,2.035784E4,5.141823E3,0E0,0E0,0E0,0E0,0E0,0E0,0E0,0E0,0E0,0E0,0E0,0E0],"parents":[2147483647,0,0,1,1,2,2,3,3,4,4,5,5,6,6,7,7,10,10,11,11,12,12,13,13,14,14],"right_children":[2,4,6,8,10,12,14,16,-1,-1,18,20,22,24,26,-1,-1,-1,-1,-1,-1,-1,-1,-1,-1,-1,-1],"split_conditions":[2E0,1.5E1,1.2E1,1.4E1,1.6E1,6E0,1.3E1,1.3E1,-2.2170918E0,1.0759326E0,2.3E1,1E1,1.1E1,3E0,1.4E1,-9.885304E-1,2.2714111E-1,-1.571936E-1,5.7622457E-1,1.9783065E-1,-4.4978318E-1,5.0719507E-2,1.7711117E0,4.1936574E0,3.6833844E-1,-5.678414E-1,6.9775295E-1],"split_indices":[0,1,1,1,1,0,1,1,0,0,1,1,1,0,1,0,0,0,0,0,0,0,0,0,0,0,0],"split_type":[0,0,0,0,0,0,0,0,0,0,0,0,0,0,0,0,0,0,0,0,0,0,0,0,0,0,0],"sum_hessian":[7.66E2,1.11E2,6.55E2,9.9E1,1.2E1,4.54E2,2.01E2,9E1,9E0,1E0,1.1E1,2.85E2,1.69E2,5.8E1,1.43E2,7.5E1,1.5E1,7E0,4E0,7E1,2.15E2,1.51E2,1.8E1,1E1,4.8E1,2.4E1,1.19E2],"tree_param":{"num_deleted":"0","num_feature":"2","num_nodes":"27","size_leaf_vector":"1"}},{"base_weights":[8.6439914E-1,-4.4748116E0,2.8843822E0,-6.7989693E0,4.3953023E0,-9.685984E0,3.4990788E0,4.047862E0,-9.623516E0,-3.615219E0,1.3340884E1,-1.7522429E1,2.6731567E1,1.27794075E1,2.456223E0,-2.0231391E-1,8.3198136E-1,-8.8292754E-1,-2.5072616E-1,-5.907297E-1,-3.1656668E-2,6.231696E0,1.9566303E-1,-5.190004E-1,-2.619274E0,2.8033447E0,-2.6037598E-1,4.803734E-1,2.245656E0,-1.4261568E-1,4.03898E-1],"categories":[],"categories_nodes":[],"categories_segments":[],"categories_sizes":[],"default_left":[0,0,0,0,0,0,0,0,0,0,0,0,0,0,0,0,0,0,0,0,0,0,0,0,0,0,0,0,0,0,0],"id":54,"left_children":[1,3,5,7,9,11,13,15,17,19,21,23,25,27,29,-1,-1,-1,-1,-1,-1,-1,-1,-1,-1,-1,-1,-1,-1,-1,-1],"loss_changes":[8.209594E3,4.338533E3,4.2991743E3,5.12476E3,3.2012163E3,7.8883887E3,5.068941E3,1.4884294E3,1.1758604E3,2.8829462E2,1.4579547E4,3.4821626E3,1.3600159E3,5.321955E3,5.228968E3,0E0,0E0,0E0,0E0,0E0,0E0,0E0,0E0,0E0,0E0,0E0,0E0,0E0,0E0,0E0,0E0],"parents":[2147483647,0,0,1,1,2,2,3,3,4,4,5,5,6,6,7,7,8,8,9,9,10,10,11,11,12,12,13,13,14,14],"right_children":[2,4,6,8,10,12,14,16,18,20,22,24,26,28,30,-1,-1,-1,-1,-1,-1,-1,-1,-1,-1,-1,-1,-1,-1,-1,-1],"split_conditions":[3E0,1.4E1,3E0,1E1,2E0,7E0,9E0,4E0,1.3E1,1.5E1,1.5E1,5E0,2E0,7E0,1.1E1,-2.0231391E-1,8.3198136E-1,-8.8292754E-1,-2.5072616E-1,-5.907297E-1,-3.1656668E-2,6.231696E0,1.9566303E-1,-5.190004E-1,-2.619274E0,2.8033447E0,-2.6037598E-1,4.803734E-1,2.245656E0,-1.4261568E-1,4.03898E-1],"split_indices":[0,1,1,1,0,0,1,1,1,1,1,0,1,1,1,0,0,0,0,0,0,0,0,0,0,0,0,0,0,0,0],"split_type":[0,0,0,0,0,0,0,0,0,0,0,0,0,0,0,0,0,0,0,0,0,0,0,0,0,0,0,0,0,0,0],"sum_hessian":[7.59E2,2.08E2,5.51E2,1.65E2,4.3E1,2.5E1,5.26E2,3.4E1,1.31E2,2.3E1,2E1,2.1E1,4E0,5.2E1,4.74E2,1.7E1,1.7E1,1.07E2,2.4E1,1E1,1.3E1,2E0,1.8E1,1.3E1,8E0,3E0,1E0,3.7E1,1.5E1,1.8E2,2.94E2],"tree_param":{"num_deleted":"0","num_feature":"2","num_nodes":"31","size_leaf_vector":"1"}},{"base_weights":[3.3771005E-1,-3.112951E0,2.9882462E0,-2.1032078E1,-2.324191E0,1.7734002E0,1.0875115E1,-1.0991785E1,-2.9524999E0,7.0203834E0,-4.1086698E0,6.842434E0,9.10107E-1,6.2220664E0,1.7685318E1,-9.7197264E-1,-2.2836914E-2,2.4518907E-1,2.9468179E0,-1.0171736E0,-1.6832623E-1,2.382834E-2,2.639494E0,-7.4622995E-1,1.7741622E-1,1.9041839E-1,2.3652322E0,3.8314235E0,-1.2945507E-1],"categories":[],"categories_nodes":[],"categories_segments":[],"categories_sizes":[],"default_left":[0,0,0,0,0,0,0,0,0,0,0,0,0,0,0,0,0,0,0,0,0,0,0,0,0,0,0,0,0],"id":55,"left_children":[1,3,5,7,9,11,13,15,-1,17,19,21,23,25,27,-1,-1,-1,-1,-1,-1,-1,-1,-1,-1,-1,-1,-1,-1],"loss_changes":[7.0518013E3,4.685971E3,4.158175E3,1.8256733E3,5.398256E3,1.6523E3,1.7278774E3,1.2049756E2,0E0,6.019632E3,4.648409E3,9.403359E3,4.3715073E3,3.1581538E3,1.3489034E4,0E0,0E0,0E0,0E0,0E0,0E0,0E0,0E0,0E0,0E0,0E0,0E0,0E0,0E0],"parents":[2147483647,0,0,1,1,2,2,3,3,4,4,5,5,6,6,7,7,9,9,10,10,11,11,12,12,13,13,14,14],"right_children":[2,4,6,8,10,12,14,16,-1,18,20,22,24,26,28,-1,-1,-1,-1,-1,-1,-1,-1,-1,-1,-1,-1,-1,-1],"split_conditions":[4E0,1E0,1.8E1,3E0,1E1,9E0,7E0,2E0,-2.9524999E0,9E0,1.1E1,7E0,1E1,2.3E1,2.3E1,-9.7197264E-1,-2.2836914E-2,2.4518907E-1,2.9468179E0,-1.0171736E0,-1.6832623E-1,2.382834E-2,2.639494E0,-7.4622995E-1,1.7741622E-1,1.9041839E-1,2.3652322E0,3.8314235E0,