{"learner":{"attributes":{},"feature_names":["day_of_week","hour_of_day"],"feature_types":[],"gradient_booster":{"model":{"cats":{"enc":[],"feature_segments":[],"sorted_idx":[]},"gbtree_model_param":{"num_parallel_tree":"1","num_trees":"80"},"iteration_indptr":[0,1,2,3,4,5,6,7,8,9,10,11,12,13,14,15,16,17,18,19,20,21,22,23,24,25,26,27,28,29,30,31,32,33,34,35,36,37,38,39,40,41,42,43,44,45,46,47,48,49,50,51,52,53,54,55,56,57,58,59,60,61,62,63,64,65,66,67,68,69,70,71,72,73,74,75,76,77,78,79,80],"tree_info":[0,0,0,0,0,0,0,0,0,0,0,0,0,0,0,0,0,0,0,0,0,0,0,0,0,0,0,0,0,0,0,0,0,0,0,0,0,0,0,0,0,0,0,0,0,0,0,0,0,0,0,0,0,0,0,0,0,0,0,0,0,0,0,0,0,0,0,0,0,0,0,0,0,0,0,0,0,0,0,0],"trees":[{"base_weights":[5.7584076E0,-2.230625E2,1.2138717E2,-3.6680945E2,-4.6631607E1,-1.1761684E1,3.17649E2,-3.585226E1,-2.1722515E1,-1.1874475E1,-1.2439343E1,-9.794343E1,7.7716484E1,2.1865863E2,3.9979633E2,-4.327428E0,1.658614E0,-1.3910947E1,-3.1284052E-1,2.5166023E0,1.3662608E1,1.0985325E1,2.1756454E1,2.6814438E1,3.96936E1],"categories":[],"categories_nodes":[],"categories_segments":[],"categories_sizes":[],"default_left":[0,0,0,0,0,0,0,0,0,0,0,0,0,0,0,0,0,0,0,0,0,0,0,0,0],"id":0,"left_children":[1,3,5,7,9,11,13,-1,-1,-1,15,17,19,21,23,-1,-1,-1,-1,-1,-1,-1,-1,-1,-1],"loss_changes":[1.1033721E7,3.53349E6,7.24231E6,4.75084E5,2.209216E5,1.2877018E6,8.23343E5,0E0,0E0,0E0,6.8826305E4,6.0632044E5,3.4764922E5,1.924265E5,2.0733E5,0E0,0E0,0E0,0E0,0E0,0E0,0E0,0E0,0E0,0E0],"parents":[2147483647,0,0,1,1,2,2,3,3,4,4,5,5,6,6,10,10,11,11,12,12,13,13,14,14],"right_children":[2,4,6,8,10,12,14,-1,-1,-1,16,18,20,22,24,-1,-1,-1,-1,-1,-1,-1,-1,-1,-1],"split_conditions":[1E0,5E0,5E0,3E0,6E0,3E0,1.1E1,-3.585226E1,-2.1722515E1,-1.1874475E1,7E0,1.4E1,1.6E1,6E0,7E0,-4.327428E0,1.658614E0,-1.3910947E1,-3.1284052E-1,2.5166023E0,1.3662608E1,1.0985325E1,2.1756454E1,2.6814438E1,3.96936E1],"split_indices":[1,0,0,0,0,0,1,0,0,0,0,1,1,0,0,0,0,0,0,0,0,0,0,0,0],"split_type":[0,0,0,0,0,0,0,0,0,0,0,0,0,0,0,0,0,0,0,0,0,0,0,0,0],"sum_hessian":[4.15E2,1.39E2,2.76E2,7.6E1,6.3E1,1.65E2,1.11E2,3.9E1,3.7E1,1.5E1,4.8E1,8.4E1,8.1E1,5.2E1,5.9E1,2.1E1,2.7E1,4.6E1,3.8E1,5.5E1,2.6E1,2.2E1,3E1,3.8E1,2.1E1],"tree_param":{"num_deleted":"0","num_feature":"2","num_nodes":"25","size_leaf_vector":"1"}},{"base_weights":[2.941891E0,-1.9980469E2,1.0835942E2,-3.3189108E2,-4.9240425E1,-5.326893E1,2.4340483E2,-3.178164E1,-1.9516253E1,-1.1254525E1,-1.6001587E1,-9.6804436E1,6.738022E1,1.5562468E2,3.4982465E2,-3.9001336E0,1.1932172E0,-1.4701475E1,-3.4859884E0,-1.606366E0,7.6050572E0,7.504786E0,1.770206E1,2.0155748E1,3.3090855E1],"categories":[],"categories_nodes":[],"categories_segments":[],"categories_sizes":[],"default_left":[0,0,0,0,0,0,0,0,0,0,0,0,0,0,0,0,0,0,0,0,0,0,0,0,0],"id":1,"left_children":[1,3,5,7,9,11,13,-1,-1,-1,15,17,19,21,23,-1,-1,-1,-1,-1,-1,-1,-1,-1,-1],"loss_changes":[8.93421E6,2.827569E6,6.015436E6,3.400335E5,2.0442788E5,6.683405E5,1.346791E6,0E0,0E0,0E0,5.2366066E4,4.2249456E5,8.422791E4,3.2013212E5,3.14247E5,0E0,0E0,0E0,0E0,0E0,0E0,0E0,0E0,0E0,0E0],"parents":[2147483647,0,0,1,1,2,2,3,3,4,4,5,5,6,6,10,10,11,11,12,12,13,13,14,14],"right_children":[2,4,6,8,10,12,14,-1,-1,-1,16,18,20,22,24,-1,-1,-1,-1,-1,-1,-1,-1,-1,-1],"split_conditions":[1E0,5E0,4E0,3E0,6E0,1.7E1,6E0,-3.178164E1,-1.9516253E1,-1.1254525E1,7E0,2E0,2E0,1.3E1,1.1E1,-3.9001336E0,1.1932172E0,-1.4701475E1,-3.4859884E0,-1.606366E0,7.6050572E0,7.504786E0,1.770206E1,2.0155748E1,3.3090855E1],"split_indices":[1,0,0,0,0,1,0,0,0,0,0,0,0,1,1,0,0,0,0,0,0,0,0,0,0],"split_type":[0,0,0,0,0,0,0,0,0,0,0,0,0,0,0,0,0,0,0,0,0,0,0,0,0],"sum_hessian":[4.16E2,1.42E2,2.74E2,7.5E1,6.7E1,1.25E2,1.49E2,4.1E1,3.4E1,1.7E1,5E1,9.2E1,3.3E1,8.3E1,6.6E1,2.4E1,2.6E1,3.4E1,5.8E1,8E0,2.5E1,4.4E1,3.9E1,2.8E1,3.8E1],"tree_param":{"num_deleted":"0","num_feature":"2","num_nodes":"25","size_leaf_vector":"1"}},{"base_weights":[2.5023499E0,-1.8086168E2,1.0138593E2,-3.1042792E2,-3.9456955E1,-5.3048855E1,2.3169002E2,-3.141049E1,-1.8614641E1,-9.300213E0,-1.06382E1,-1.6598392E2,-1.4833415E1,1.5462822E2,3.1204727E2,-3.4237475E0,1.1497093E0,-2.0330849E1,-7.7546887E0,-6.801116E0,1.5948253E0,7.5850077E0,1.7209167E1,1.9385422E1,3.098229E1],"categories":[],"categories_nodes":[],"categories_segments":[],"categories_sizes":[],"default_left":[0,0,0,0,0,0,0,0,0,0,0,0,0,0,0,0,0,0,0,0,0,0,0,0,0],"id":2,"left_children":[1,3,5,7,9,11,13,-1,-1,-1,15,17,19,21,23,-1,-1,-1,-1,-1,-1,-1,-1,-1,-1],"loss_changes":[7.4523305E6,2.626015E6,5.385261E6,3.879575E5,1.5368428E5,5.2838906E5,8.496585E5,0E0,0E0,0E0,4.2437285E4,1.6405975E5,2.2862298E5,2.5457488E5,2.733645E5,0E0,0E0,0E0,0E0,0E0,0E0,0E0,0E0,0E0,0E0],"parents":[2147483647,0,0,1,1,2,2,3,3,4,4,5,5,6,6,10,10,11,11,12,12,13,13,14,14],"right_children":[2,4,6,8,10,12,14,-1,-1,-1,16,18,20,22,24,-1,-1,-1,-1,-1,-1,-1,-1,-1,-1],"split_conditions":[1E0,5E0,4E0,3E0,6E0,8E0,6E0,-3.141049E1,-1.8614641E1,-9.300213E0,7E0,2E0,2E0,1.3E1,1.4E1,-3.4237475E0,1.1497093E0,-2.0330849E1,-7.7546887E0,-6.801116E0,1.5948253E0,7.5850077E0,1.7209167E1,1.9385422E1,3.098229E1],"split_indices":[1,0,0,0,0,1,0,0,0,0,0,0,0,1,1,0,0,0,0,0,0,0,0,0,0],"split_type":[0,0,0,0,0,0,0,0,0,0,0,0,0,0,0,0,0,0,0,0,0,0,0,0,0],"sum_hessian":[4.09E2,1.43E2,2.66E2,7.4E1,6.9E1,1.22E2,1.44E2,3.4E1,4E1,1.8E1,5.1E1,3E1,9.2E1,7.5E1,6.9E1,2.2E1,2.9E1,1.2E1,1.8E1,3E1,6.2E1,3.9E1,3.6E1,3.8E1,3.1E1],"tree_param":{"num_deleted":"0","num_feature":"2","num_nodes":"25","size_leaf_vector":"1"}},{"base_weights":[1.6296208E0,-1.7228273E2,9.7401535E1,-2.845892E2,-4.015016E1,-1.022485E1,2.4816739E2,-3.0799736E1,-2.2829831E2,-8.806396E0,-1.2481974E1,-7.75625E1,6.3287014E1,2.0639716E2,2.9646568E1,-2.00814E1,-1.436493E1,-3.4432847E0,7.6862115E-1,-1.1062636E1,9.425138E-2,-4.9459532E-1,8.739107E0,1.1691243E1,2.0285313E1],"categories":[],"categories_nodes":[],"categories_segments":[],"categories_sizes":[],"default_left":[0,0,0,0,0,0,0,0,0,0,0,0,0,0,0,0,0,0,0,0,0,0,0,0,0],"id":3,"left_children":[1,3,5,7,9,11,13,-1,15,-1,17,19,21,23,-1,-1,-1,-1,-1,-1,-1,-1,-1,-1,-1],"loss_changes":[7.128858E6,2.2441535E6,4.481019E6,3.75572E5,1.359989E5,8.0682756E5,5.11541E5,0E0,1.582625E4,0E0,3.5515723E4,4.065622E5,2.4967066E5,2.1306275E5,0E0,0E0,0E0,0E0,0E0,0E0,0E0,0E0,0E0,0E0,0E0],"parents":[2147483647,0,0,1,1,2,2,3,3,4,4,5,5,6,6,8,8,10,10,11,11,12,12,13,13],"right_children":[2,4,6,8,10,12,14,-1,16,-1,18,20,22,24,-1,-1,-1,-1,-1,-1,-1,-1,-1,-1,-1],"split_conditions":[1E0,5E0,5E0,2E0,6E0,3E0,1.8E1,-3.0799736E1,4E0,-8.806396E0,7E0,1.4E1,1.1E1,6E0,2.9646568E1,-2.00814E1,-1.436493E1,-3.4432847E0,7.6862115E-1,-1.1062636E1,9.425138E-2,-4.9459532E-1,8.739107E0,1.1691243E1,2.0285313E1],"split_indices":[1,0,0,0,0,0,1,0,0,0,0,1,1,0,0,0,0,0,0,0,0,0,0,0,0],"split_type":[0,0,0,0,0,0,0,0,0,0,0,0,0,0,0,0,0,0,0,0,0,0,0,0,0],"sum_hessian":[4.26E2,1.51E2,2.75E2,8.1E1,7E1,1.61E2,1.14E2,2.7E1,5.4E1,1.9E1,5.1E1,8.4E1,7.7E1,8.7E1,2.7E1,3.4E1,2E1,2.1E1,3E1,4.7E1,3.7E1,3.1E1,4.6E1,4E1,4.7E1],"tree_param":{"num_deleted":"0","num_feature":"2","num_nodes":"25","size_leaf_vector":"1"}},{"base_weights":[1.8417971E0,-1.569627E2,8.515176E1,-2.6008258E2,-3.363412E1,-4.15856E1,1.9240787E2,-2.8076752E1,-2.1074153E2,-8.866563E0,-8.23792E0,-1.229393E2,3.8874497E0,1.25118164E2,2.7136813E2,-1.8530947E1,-1.3270455E1,-2.665202E0,7.40802E-1,-1.5974443E1,-6.151169E0,-2.642824E0,6.754122E0,5.7298837E0,1.4910231E1,1.6024117E1,2.6075413E1],"categories":[],"categories_nodes":[],"categories_segments":[],"categories_sizes":[],"default_left":[0,0,0,0,0,0,0,0,0,0,0,0,0,0,0,0,0,0,0,0,0,0,0,0,0,0,0],"id":4,"left_children":[1,3,5,7,9,11,13,-1,15,-1,17,19,21,23,25,-1,-1,-1,-1,-1,-1,-1,-1,-1,-1,-1,-1],"loss_changes":[5.728724E6,1.8861788E6,3.868515E6,2.892385E5,1.3436381E5,4.8509947E5,7.84281E5,0E0,1.3132E4,0E0,2.3564781E4,1.5074044E5,2.5555558E5,2.652015E5,2.06203E5,0E0,0E0,0E0,0E0,0E0,0E0,0E0,0E0,0E0,0E0,0E0,0E0],"parents":[2147483647,0,0,1,1,2,2,3,3,4,4,5,5,6,6,8,8,10,10,11,11,12,12,13,13,14,14],"right_children":[2,4,6,8,10,12,14,-1,16,-1,18,20,22,24,26,-1,-1,-1,-1,-1,-1,-1,-1,-1,-1,-1,-1],"split_conditions":[1E0,5E0,4E0,2E0,6E0,2E0,6E0,-2.8076752E1,4E0,-8.866563E0,7E0,1E1,1.7E1,1.3E1,1.1E1,-1.8530947E1,-1.3270455E1,-2.665202E0,7.40802E-1,-1.5974443E1,-6.151169E0,-2.642824E0,6.754122E0,5.7298837E0,1.4910231E1,1.6024117E1,2.6075413E1],"split_indices":[1,0,0,0,0,0,0,0,0,0,0,1,1,1,1,0,0,0,0,0,0,0,0,0,0,0,0],"split_type":[0,0,0,0,0,0,0,0,0,0,0,0,0,0,0,0,0,0,0,0,0,0,0,0,0,0,0],"sum_hessian":[4.31E2,1.48E2,2.83E2,8E1,6.8E1,1.3E2,1.53E2,2.6E1,5.4E1,1.6E1,5.2E1,4.6E1,8.4E1,8.4E1,6.9E1,3.4E1,2E1,2.1E1,3.1E1,1.6E1,3E1,5.8E1,2.6E1,4.6E1,3.8E1,3.2E1,3.7E1],"tree_param":{"num_deleted":"0","num_feature":"2","num_nodes":"27","size_leaf_vector":"1"}},{"base_weights":[-2.4291542E0,-1.458529E2,7.6853905E1,-2.4284576E2,-3.4710224E1,-1.0002223E1,2.1125182E2,-2.6201096E1,-1.9919913E2,-8.2144165E0,-1.1834406E1,-7.423419E1,5.5113483E1,1.5762878E2,2.886441E2,-1.7386854E1,-1.2195348E1,-2.8685367E0,6.3361394E-1,-1.2637386E1,-2.772594E0,1.6221564E0,9.924989E0,7.354229E0,1.58428955E1,1.9127039E1,2.8029745E1],"categories":[],"categories_nodes":[],"categories_segments":[],"categories_sizes":[],"default_left":[0,0,0,0,0,0,0,0,0,0,0,0,0,0,0,0,0,0,0,0,0,0,0,0,0,0,0],"id":5,"left_children":[1,3,5,7,9,11,13,-1,15,-1,17,19,21,23,25,-1,-1,-1,-1,-1,-1,-1,-1,-1,-1,-1,-1],"loss_changes":[4.855287E6,1.6301375E6,3.2122655E6,2.34093E5,1.1073541E5,7.067529E5,4.027025E5,0E0,1.4358E4,0E0,2.6384271E4,2.762056E5,1.9924733E5,1.57012E5,4.776675E4,0E0,0E0,0E0,0E0,0E0,0E0,0E0,0E0,0E0,0E0,0E0,0E0],"parents":[2147483647,0,0,1,1,2,2,3,3,4,4,5,5,6,6,8,8,10,10,11,11,12,12,13,13,14,14],"right_children":[2,4,6,8,10,12,14,-1,16,-1,18,20,22,24,26,-1,-1,-1,-1,-1,-1,-1,-1,-1,-1,-1,-1],"split_conditions":[1E0,5E0,5E0,2E0,6E0,3E0,1.4E1,-2.6201096E1,4E0,-8.2144165E0,7E0,1E1,1.6E1,6E0,7E0,-1.7386854E1,-1.2195348E1,-2.8685367E0,6.3361394E-1,-1.2637386E1,-2.772594E0,1.6221564E0,9.924989E0,7.354229E0,1.58428955E1,1.9127039E1,2.8029745E1],"split_indices":[1,0,0,0,0,0,1,0,0,0,0,1,1,0,0,0,0,0,0,0,0,0,0,0,0,0,0],"split_type":[0,0,0,0,0,0,0,0,0,0,0,0,0,0,0,0,0,0,0,0,0,0,0,0,0,0,0],"sum_hessian":[4.25E2,1.51E2,2.74E2,8E1,7.1E1,1.67E2,1.07E2,2.5E1,5.5E1,1.7E1,5.4E1,8.4E1,8.3E1,6.5E1,4.2E1,3.7E1,1.8E1,2.4E1,3E1,2.6E1,5.8E1,5.6E1,2.7E1,2.6E1,3.9E1,2.6E1,1.6E1],"tree_param":{"num_deleted":"0","num_feature":"2","num_nodes":"27","size_leaf_vector":"1"}},{"base_weights":[3.6010584E-1,-1.3808218E2,7.5555885E1,-2.2332346E2,-3.0753527E1,-3.6791546E1,1.6625636E2,-2.4056067E1,-1.8543982E2,-5.630642E1,6.209239E-1,-7.064573E1,4.5635853E1,1.07040375E2,2.3049545E2,-1.6328869E1,-1.1106057E1,-6.3475084E0,-2.786191E0,-1.0641192E1,-2.3737426E0,-7.996982E-1,5.3288445E0,3.7025871E0,1.1445139E1,1.4050433E1,2.3061062E1],"categories":[],"categories_nodes":[],"categories_segments":[],"categories_sizes":[],"default_left":[0,0,0,0,0,0,0,0,0,0,0,0,0,0,0,0,0,0,0,0,0,0,0,0,0,0,0],"id":6,"left_children":[1,3,5,7,9,11,13,-1,15,17,-1,19,21,23,25,-1,-1,-1,-1,-1,-1,-1,-1,-1,-1,-1,-1],"loss_changes":[4.466031E6,1.3746058E6,2.8389268E6,1.904705E5,6.73607E4,3.52038E5,5.61141E5,0E0,2.301375E4,1.7524367E4,0E0,2.2349369E5,4.3839914E4,1.7285525E5,1.8074075E5,0E0,0E0,0E0,0E0,0E0,0E0,0E0,0E0,0E0,0E0,0E0,0E0],"parents":[2147483647,0,0,1,1,2,2,3,3,4,4,5,5,6,6,8,8,9,9,11,11,12,12,13,13,14,14],"right_children":[2,4,6,8,10,12,14,-1,16,18,-1,20,22,24,26,-1,-1,-1,-1,-1,-1,-1,-1,-1,-1,-1,-1],"split_conditions":[1E0,5E0,4E0,2E0,7E0,1.7E1,6E0,-2.4056067E1,4E0,6E0,6.209239E-1,2E0,2E0,9E0,1.4E1,-1.6328869E1,-1.1106057E1,-6.3475084E0,-2.786191E0,-1.0641192E1,-2.3737426E0,-7.996982E-1,5.3288445E0,3.7025871E0,1.1445139E1,1.4050433E1,2.3061062E1],"split_indices":[1,0,0,0,0,1,0,0,0,0,0,0,0,1,1,0,0,0,0,0,0,0,0,0,0,0,0],"split_type":[0,0,0,0,0,0,0,0,0,0,0,0,0,0,0,0,0,0,0,0,0,0,0,0,0,0,0],"sum_hessian":[4.27E2,1.5E2,2.77E2,8.3E1,6.7E1,1.24E2,1.53E2,2.5E1,5.8E1,4E1,2.7E1,8.8E1,3.6E1,8.1E1,7.2E1,3.9E1,1.9E1,1.8E1,2.2E1,3.4E1,5.4E1,1E1,2.6E1,3.1E1,5E1,3.9E1,3.3E1],"tree_param":{"num_deleted":"0","num_feature":"2","num_nodes":"27","size_leaf_vector":"1"}},{"base_weights":[-1.0477562E0,-1.2961357E2,6.6719955E1,-2.1041963E2,-2.2793007E1,-8.539129E0,1.760211E2,-2.2490692E1,-1.7130511E2,-5.2671537E0,-1.0529422E1,-9.859202E1,2.30122E1,1.4843361E2,2.318499E1,-1.5039656E1,-1.0548983E1,-1.9522103E0,6.692416E-2,-1.2082744E1,-3.3334622E0,-4.5099306E-1,7.1804442E0,8.053605E0,1.4041658E1],"categories":[],"categories_nodes":[],"categories_segments":[],"categories_sizes":[],"default_left":[0,0,0,0,0,0,0,0,0,0,0,0,0,0,0,0,0,0,0,0,0,0,0,0,0],"id":7,"left_children":[1,3,5,7,9,11,13,-1,15,-1,17,19,21,23,-1,-1,-1,-1,-1,-1,-1,-1,-1,-1,-1],"loss_changes":[3.6853698E6,1.255439E6,2.2800785E6,1.8141375E5,3.3092566E4,4.7108138E5,3.1171375E5,0E0,1.2076625E4,0E0,8.0622227E3,1.2207078E5,2.3570308E5,1.0265125E5,0E0,0E0,0E0,0E0,0E0,0E0,0E0,0E0,0E0,0E0,0E0],"parents":[2147483647,0,0,1,1,2,2,3,3,4,4,5,5,6,6,8,8,10,10,11,11,12,12,13,13],"right_children":[2,4,6,8,10,12,14,-1,16,-1,18,20,22,24,-1,-1,-1,-1,-1,-1,-1,-1,-1,-1,-1],"split_conditions":[1E0,5E0,5E0,2E0,6E0,2E0,1.9E1,-2.2490692E1,4E0,-5.2671537E0,7E0,1.2E1,1.7E1,7E0,2.318499E1,-1.5039656E1,-1.0548983E1,-1.9522103E0,6.692416E-2,-1.2082744E1,-3.3334622E0,-4.5099306E-1,7.1804442E0,8.053605E0,1.4041658E1],"split_indices":[1,0,0,0,0,0,1,0,0,0,0,1,1,1,0,0,0,0,0,0,0,0,0,0,0],"split_type":[0,0,0,0,0,0,0,0,0,0,0,0,0,0,0,0,0,0,0,0,0,0,0,0,0],"sum_hessian":[4.21E2,1.45E2,2.76E2,8.2E1,6.3E1,1.64E2,1.12E2,2.7E1,5.5E1,1.3E1,5E1,4.2E1,1.22E2,9.2E1,2E1,3.6E1,1.9E1,2.2E1,2.8E1,2.1E1,2.1E1,8.6E1,3.6E1,3.5E1,5.7E1],"tree_param":{"num_deleted":"0","num_feature":"2","num_nodes":"25","size_leaf_vector":"1"}},{"base_weights":[-3.1767297E0,-1.13502716E2,6.605127E1,-2.1147868E2,-4.263834E1,-2.7602118E1,1.4604889E2,-2.030682E1,-1.3953944E1,-8.361423E1,-5.57047E0,-5.324731E1,4.3175747E1,9.545756E1,2.0285925E2,-8.016056E0,6.157263E-1,-9.6031815E-1,8.280918E0,-8.107931E0,-1.9968779E0,-8.8108885E-1,5.1164527E0,6.2994494E0,1.3734948E1,1.1073377E1,1.9513905E1],"categories":[],"categories_nodes":[],"categories_segments":[],"categories_sizes":[],"default_left":[0,0,0,0,0,0,0,0,0,0,0,0,0,0,0,0,0,0,0,0,0,0,0,0,0,0,0],"id":8,"left_children":[1,3,5,7,9,11,13,-1,-1,15,17,19,21,23,25,-1,-1,-1,-1,-1,-1,-1,-1,-1,-1,-1,-1],"loss_changes":[3.2687725E6,1.1365788E6,1.9744399E6,6.402025E4,1.4686644E5,2.2374266E5,3.887595E5,0E0,0E0,7.043931E4,3.7735082E4,1.1992644E5,3.7864043E4,8.458881E4,1.408915E5,0E0,0E0,0E0,0E0,0E0,0E0,0E0,0E0,0E0,0E0,0E0,0E0],"parents":[2147483647,0,0,1,1,2,2,3,3,4,4,5,5,6,6,9,9,10,10,11,11,12,12,13,13,14,14],"right_children":[2,4,6,8,10,12,14,-1,-1,16,18,20,22,24,26,-1,-1,-1,-1,-1,-1,-1,-1,-1,-1,-1,-1],"split_conditions":[2E0,4E0,4E0,2E0,6E0,1.7E1,6E0,-2.030682E1,-1.3953944E1,1E0,1E0,2E0,2E0,2E1,1.1E1,-8.016056E0,6.157263E-1,-9.6031815E-1,8.280918E0,-8.107931E0,-1.9968779E0,-8.8108885E-1,5.1164527E0,6.2994494E0,1.3734948E1,1.1073377E1,1.9513905E1],"split_indices":[1,0,0,0,0,1,0,0,0,1,1,0,0,1,1,0,0,0,0,0,0,0,0,0,0,0,0],"split_type":[0,0,0,0,0,0,0,0,0,0,0,0,0,0,0,0,0,0,0,0,0,0,0,0,0,0,0],"sum_hessian":[4.26E2,1.64E2,2.62E2,6.8E1,9.6E1,1.21E2,1.41E2,2.9E1,3.9E1,4.5E1,5.1E1,8.9E1,3.2E1,7.6E1,6.5E1,3.8E1,7E0,4.9E1,2E0,3.2E1,5.7E1,9E0,2.3E1,6.4E1,1.2E1,2.7E1,3.8E1],"tree_param":{"num_deleted":"0","num_feature":"2","num_nodes":"27","size_leaf_vector":"1"}},{"base_weights":[3.1607463E0,-1.0699138E2,6.1791515E1,-1.7929657E2,-2.1608673E1,-5.228076E0,1.5270984E2,-1.9274162E1,-1.1612882E1,-4.680643E1,1.0166901E0,-4.9439278E1,3.796856E1,1.2595436E2,1.9403095E1,-4.5880895E0,-2.92152E0,-9.836977E0,-1.4091917E0,1.5742793E0,9.4681835E0,8.260962E0,1.4683764E1],"categories":[],"categories_nodes":[],"categories_segments":[],"categories_sizes":[],"default_left":[0,0,0,0,0,0,0,0,0,0,0,0,0,0,0,0,0,0,0,0,0,0,0],"id":9,"left_children":[1,3,5,7,9,11,13,-1,-1,15,-1,17,19,21,-1,-1,-1,-1,-1,-1,-1,-1,-1],"loss_changes":[2.7513902E6,9.0982025E5,1.6947382E6,1.3333E5,6.026045E4,3.0935097E5,2.53054E5,0E0,0E0,2.244711E3,0E0,1.8501981E5,1.1822939E5,1.025895E5,0E0,0E0,0E0,0E0,0E0,0E0,0E0,0E0,0E0],"parents":[2147483647,0,0,1,1,2,2,3,3,4,4,5,5,6,6,9,9,11,11,12,12,13,13],"right_children":[2,4,6,8,10,12,14,-1,-1,16,-1,18,20,22,-1,-1,-1,-1,-1,-1,-1,-1,-1],"split_conditions":[1E0,5E0,5E0,2E0,7E0,3E0,1.8E1,-1.9274162E1,-1.1612882E1,6E0,1.0166901E0,1E1,2E1,7E0,1.9403095E1,-4.5880895E0,-2.92152E0,-9.836977E0,-1.4091917E0,1.5742793E0,9.4681835E0,8.260962E0,1.4683764E1],"split_indices":[1,0,0,0,0,0,1,0,0,0,0,1,1,0,0,0,0,0,0,0,0,0,0],"split_type":[0,0,0,0,0,0,0,0,0,0,0,0,0,0,0,0,0,0,0,0,0,0,0],"sum_hessian":[4.24E2,1.47E2,2.77E2,7.9E1,6.8E1,1.6E2,1.17E2,2.6E1,5.3E1,3.9E1,2.9E1,7.9E1,8.1E1,9.2E1,2.5E1,1.7E1,2.2E1,2.3E1,5.6E1,6.7E1,1.4E1,6.8E1,2.4E1],"tree_param":{"num_deleted":"0","num_feature":"2","num_nodes":"23","size_leaf_vector":"1"}},{"base_weights":[4.2386383E-1,-8.78939E1,6.2805363E1,-1.8737964E2,-2.167741E1,-1.8474396E1,1.3226807E2,-1.7168951E1,-1.2762587E1,-5.571642E1,8.627193E0,-6.399285E1,1.191774E1,1.05766045E2,2.0866333E2,-6.3205295E0,9.183671E-1,-3.3885986E-1,8.235841E0,-6.7747564E0,-2.0761344E0,-2.7109752E0,2.8822796E0,3.9716976E0,9.774934E0,5.0736594E0,1.7653858E1],"categories":[],"categories_nodes":[],"categories_segments":[],"categories_sizes":[],"default_left":[0,0,0,0,0,0,0,0,0,0,0,0,0,0,0,0,0,0,0,0,0,0,0,0,0,0,0],"id":10,"left_children":[1,3,5,7,9,11,13,-1,-1,15,17,19,21,23,25,-1,-1,-1,-1,-1,-1,-1,-1,-1,-1,-1,-1],"loss_changes":[2.3690505E6,1.1685301E6,1.425213E6,1.9605E4,1.1188684E5,1.6262081E5,2.5328E5,0E0,0E0,8.072241E4,7.0804164E4,3.4797547E4,7.96327E4,8.885075E4,4.5312625E4,0E0,0E0,0E0,0E0,0E0,0E0,0E0,0E0,0E0,0E0,0E0,0E0],"parents":[2147483647,0,0,1,1,2,2,3,3,4,4,5,5,6,6,9,9,10,10,11,11,12,12,13,13,14,14],"right_children":[2,4,6,8,10,12,14,-1,-1,16,18,20,22,24,26,-1,-1,-1,-1,-1,-1,-1,-1,-1,-1,-1,-1],"split_conditions":[3E0,4E0,4E0,2E0,6E0,1.2E1,7E0,-1.7168951E1,-1.2762587E1,1E0,1E0,3E0,2E0,8E0,4E0,-6.3205295E0,9.183671E-1,-3.3885986E-1,8.235841E0,-6.7747564E0,-2.0761344E0,-2.7109752E0,2.8822796E0,3.9716976E0,9.774934E0,5.0736594E0,1.7653858E1],"split_indices":[1,0,0,0,0,1,0,0,0,1,1,0,0,1,1,0,0,0,0,0,0,0,0,0,0,0,0],"split_type":[0,0,0,0,0,0,0,0,0,0,0,0,0,0,0,0,0,0,0,0,0,0,0,0,0,0,0],"sum_hessian":[4.28E2,1.77E2,2.51E2,7E1,1.07E2,1.16E2,1.35E2,3.2E1,3.8E1,5E1,5.7E1,4.6E1,7E1,1.02E2,3.3E1,3.7E1,1.3E1,5.1E1,6E0,2.9E1,1.7E1,2.4E1,4.6E1,2.4E1,7.8E1,3E0,3E1],"tree_param":{"num_deleted":"0","num_feature":"2","num_nodes":"27","size_leaf_vector":"1"}},{"base_weights":[-4.9361067E0,-8.928859E1,5.314024E1,-1.6902983E2,-2.8978388E1,-5.8865247E0,1.4144173E2,-1.606093E1,-1.3621849E2,-5.1153976E1,1.835733E1,-5.368718E1,2.5169796E1,9.341305E1,1.6982988E2,-1.1080708E1,-1.9673828E0,-4.942565E0,2.1652831E-1,6.4457935E-1,7.0754905E0,-7.575869E0,-2.7866151E0,-7.733258E-1,5.2833905E0,6.2834306E0,9.626055E0,1.1192012E1,1.7935266E1],"categories":[],"categories_nodes":[],"categories_segments":[],"categories_sizes":[],"default_left":[0,0,0,0,0,0,0,0,0,0,0,0,0,0,0,0,0,0,0,0,0,0,0,0,0,0,0,0,0],"id":11,"left_children":[1,3,5,7,9,11,13,-1,15,17,19,21,23,25,27,-1,-1,-1,-1,-1,-1,-1,-1,-1,-1,-1,-1,-1,-1],"loss_changes":[2.0426806E6,8.1266775E5,1.288234E6,4.86575E4,1.03809414E5,2.2254362E5,1.19116875E5,0E0,6.5646875E3,3.8520375E4,2.2388031E4,4.232286E4,1.3020897E5,6.156875E3,6.788325E4,0E0,0E0,0E0,0E0,0E0,0E0,0E0,0E0,0E0,0E0,0E0,0E0,0E0,0E0],"parents":[2147483647,0,0,1,1,2,2,3,3,4,4,5,5,6,6,8,8,9,9,10,10,11,11,12,12,13,13,14,14],"right_children":[2,4,6,8,10,12,14,-1,16,18,20,22,24,26,28,-1,-1,-1,-1,-1,-1,-1,-1,-1,-1,-1,-1,-1,-1],"split_conditions":[3E0,4E0,5E0,2E0,7E0,1.2E1,1.1E1,-1.606093E1,2E0,1E0,1E0,2E0,3E0,7E0,7E0,-1.1080708E1,-1.9673828E0,-4.942565E0,2.1652831E-1,6.4457935E-1,7.0754905E0,-7.575869E0,-2.7866151E0,-7.733258E-1,5.2833905E0,6.2834306E0,9.626055E0,1.1192012E1,1.7935266E1],"split_indices":[1,0,0,0,0,1,1,0,1,1,1,0,0,0,0,0,0,0,0,0,0,0,0,0,0,0,0,0,0],"split_type":[0,0,0,0,0,0,0,0,0,0,0,0,0,0,0,0,0,0,0,0,0,0,0,0,0,0,0,0,0],"sum_hessian":[4.15E2,1.69E2,2.46E2,7.2E1,9.7E1,1.48E2,9.8E1,3.4E1,3.8E1,6.6E1,3.1E1,5.8E1,9E1,3.8E1,6E1,3.7E1,1E0,5.5E1,1.1E1,2.8E1,3E0,1.7E1,4.1E1,4.9E1,4.1E1,2.7E1,1.1E1,4.1E1,1.9E1],"tree_param":{"num_deleted":"0","num_feature":"2","num_nodes":"29","size_leaf_vector":"1"}},{"base_weights":[1.1689104E0,-7.296034E1,5.1666653E1,-1.3251581E2,-3.559543E0,-1.7460724E1,1.1215444E2,-1.294025E1,-9.694436E1,-1.5728155E1,6.6706604E1,-6.748552E1,1.9378705E0,8.888852E1,1.8066867E2,-8.739608E0,-6.656901E-2,-4.1423216E0,-7.945957E-2,2.7501013E0,8.407506E0,-7.1013966E0,-2.5809891E0,-2.861354E0,1.6605486E0,5.895209E0,1.0817032E1,4.027611E0,1.4996208E1],"categories":[],"categories_nodes":[],"categories_segments":[],"categories_sizes":[],"default_left":[0,0,0,0,0,0,0,0,0,0,0,0,0,0,0,0,0,0,0,0,0,0,0,0,0,0,0,0,0],"id":12,"left_children":[1,3,5,7,9,11,13,-1,15,17,19,21,23,25,27,-1,-1,-1,-1,-1,-1,-1,-1,-1,-1,-1,-1,-1,-1],"loss_changes":[1.579724E6,7.0630494E5,1.0514802E6,8.000025E4,6.9452484E4,1.14639234E5,1.9754288E5,0E0,5.192822E4,3.660181E4,1.1280125E4,2.1873516E4,6.1765086E4,6.1849938E4,1.9738125E4,0E0,0E0,0E0,0E0,0E0,0E0,0E0,0E0,0E0,0E0,0E0,0E0,0E0,0E0],"parents":[2147483647,0,0,1,1,2,2,3,3,4,4,5,5,6,6,8,8,9,9,10,10,11,11,12,12,13,13,14,14],"right_children":[2,4,6,8,10,12,14,-1,16,18,20,22,24,26,28,-1,-1,-1,-1,-1,-1,-1,-1,-1,-1,-1,-1,-1,-1],"split_conditions":[3E0,5E0,4E0,3E0,1E0,1E1,7E0,-1.294025E1,1E0,6E0,7E0,3E0,2E0,1.8E1,4E0,-8.739608E0,-6.656901E-2,-4.1423216E0,-7.945957E-2,2.7501013E0,8.407506E0,-7.1013966E0,-2.5809891E0,-2.861354E0,1.6605486E0,5.895209E0,1.0817032E1,4.027611E0,1.4996208E1],"split_indices":[1,0,0,0,1,1,0,0,1,0,0,0,0,1,1,0,0,0,0,0,0,0,0,0,0,0,0,0,0],"split_type":[0,0,0,0,0,0,0,0,0,0,0,0,0,0,0,0,0,0,0,0,0,0,0,0,0,0,0,0,0],"sum_hessian":[4.2E2,1.7E2,2.5E2,9.1E1,7.9E1,1.17E2,1.33E2,4.8E1,4.3E1,6.8E1,1.1E1,3.2E1,8.5E1,1.01E2,3.2E1,3.8E1,5E0,1.9E1,4.9E1,7E0,4E0,1.9E1,1.3E1,2.8E1,5.7E1,7.8E1,2.3E1,2E0,3E1],"tree_param":{"num_deleted":"0","num_feature":"2","num_nodes":"29","size_leaf_vector":"1"}},{"base_weights":[2.0813315E0,-7.874743E1,4.9223557E1,-1.324552E2,-1.57405815E1,2.5784025E-1,1.16714516E2,-1.6633818E2,-8.795331E1,-4.4331078E1,-4.654723E0,-2.252866E1,5.261282E1,6.982832E1,1.4424194E2,-1.47458105E1,-1.0699381E1,-7.7484508E0,-7.8614646E-1,-4.47857E0,1.3014916E0,-6.3377047E-1,4.195423E0,-4.4291444E0,1.0072541E0,2.4931898E0,5.4990015E0,3.8200426E0,8.628546E0,9.508316E0,1.5446196E1],"categories":[],"categories_nodes":[],"categories_segments":[],"categories_sizes":[],"default_left":[0,0,0,0,0,0,0,0,0,0,0,0,0,0,0,0,0,0,0,0,0,0,0,0,0,0,0,0,0,0,0],"id":13,"left_children":[1,3,5,7,9,11,13,15,17,19,21,23,25,27,29,-1,-1,-1,-1,-1,-1,-1,-1,-1,-1,-1,-1,-1,-1,-1,-1],"loss_changes":[1.5928329E6,5.1904456E5,8.724221E5,1.10522125E5,2.2614064E4,1.8490527E5,1.3319075E5,2.314375E3,2.54775E4,1.5031762E4,1.0303185E4,1.25239E5,1.4112359E4,3.0951938E4,6.2600625E4,0E0,0E0,0E0,0E0,0E0,0E0,0E0,0E0,0E0,0E0,0E0,0E0,0E0,0E0,0E0,0E0],"parents":[2147483647,0,0,1,1,2,2,3,3,4,4,5,5,6,6,7,7,8,8,9,9,10,10,11,11,12,12,13,13,14,14],"right_children":[2,4,6,8,10,12,14,16,18,20,22,24,26,28,30,-1,-1,-1,-1,-1,-1,-1,-1,-1,-1,-1,-1,-1,-1,-1,-1],"split_conditions":[2E0,5E0,5E0,3E0,6E0,1.7E1,1E1,2E0,1E0,1E0,1E0,3E0,3E0,7E0,7E0,-1.47458105E1,-1.0699381E1,-7.7484508E0,-7.8614646E-1,-4.47857E0,1.3014916E0,-6.3377047E-1,4.195423E0,-4.4291444E0,1.0072541E0,2.4931898E0,5.4990015E0,3.8200426E0,8.628546E0,9.508316E0,1.5446196E1],"split_indices":[1,0,0,0,0,1,1,0,1,1,1,0,0,0,0,0,0,0,0,0,0,0,0,0,0,0,0,0,0,0,0],"split_type":[0,0,0,0,0,0,0,0,0,0,0,0,0,0,0,0,0,0,0,0,0,0,0,0,0,0,0,0,0,0,0],"sum_hessian":[4.16E2,1.53E2,2.63E2,8.2E1,7.1E1,1.53E2,1.1E2,4.5E1,3.7E1,1.9E1,5.2E1,1.07E2,4.6E1,4.2E1,6.8E1,2.6E1,1.9E1,3.3E1,4E0,1.6E1,3E0,5E1,2E0,5.5E1,5.2E1,2.1E1,2.5E1,2.8E1,1.4E1,4.7E1,2.1E1],"tree_param":{"num_deleted":"0","num_feature":"2","num_nodes":"31","size_leaf_vector":"1"}},{"base_weights":[-5.4356103E0,-7.7191414E1,3.365157E1,-1.1684033E2,-2.5089488E0,-8.62668E0,9.9144585E1,-1.2560773E1,-6.723297E0,-1.367786E0,7.7205646E-1,-4.000416E1,2.440681E1,6.5227776E1,1.331115E2,-7.107226E0,-1.4540073E0,-1.3835212E0,3.4665658E0,2.7753334E0,6.887319E0,8.679912E0,1.3611938E1],"categories":[],"categories_nodes":[],"categories_segments":[],"categories_sizes":[],"default_left":[0,0,0,0,0,0,0,0,0,0,0,0,0,0,0,0,0,0,0,0,0,0,0],"id":14,"left_children":[1,3,5,7,9,11,13,-1,-1,-1,-1,15,17,19,21,-1,-1,-1,-1,-1,-1,-1,-1],"loss_changes":[1.169366E6,4.3498556E5,7.4846625E5,1.132865E5,9.389262E3,1.7200016E5,1.1343469E5,0E0,0E0,0E0,0E0,8.899939E4,6.467451E4,3.205364E4,2.8941938E4,0E0,0E0,0E0,0E0,0E0,0E0,0E0,0E0],"parents":[2147483647,0,0,1,1,2,2,3,3,4,4,5,5,6,6,11,11,12,12,13,13,14,14],"right_children":[2,4,6,8,10,12,14,-1,-1,-1,-1,16,18,20,22,-1,-1,-1,-1,-1,-1,-1,-1],"split_conditions":[1E0,6E0,5E0,3E0,7E0,3E0,1.1E1,-1.2560773E1,-6.723297E0,-1.367786E0,7.7205646E-1,1E1,9E0,6E0,7E0,-7.107226E0,-1.4540073E0,-1.3835212E0,3.4665658E0,2.7753334E0,6.887319E0,8.679912E0,1.3611938E1],"split_indices":[1,0,0,0,0,0,1,0,0,0,0,1,1,0,0,0,0,0,0,0,0,0,0],"split_type":[0,0,0,0,0,0,0,0,0,0,0,0,0,0,0,0,0,0,0,0,0,0,0],"sum_hessian":[4.15E2,1.46E2,2.69E2,9.5E1,5.1E1,1.64E2,1.05E2,4.1E1,5.4E1,2.3E1,2.8E1,8.4E1,8E1,5.4E1,5.1E1,2.5E1,5.9E1,2.5E1,5.5E1,2.3E1,3.1E1,3.3E1,1.8E1],"tree_param":{"num_deleted":"0","num_feature":"2","num_nodes":"23","size_leaf_vector":"1"}},{"base_weights":[1.3769889E0,-5.181052E1,4.8259937E1,-1.1629209E2,-9.102849E0,6.4536123E0,1.1348045E2,-1.1832733E1,-8.9707535E1,-3.71473E1,1.6061474E1,-1.2042441E1,5.82681E1,9.293659E1,1.2577052E1,-7.7274766E0,-4.420711E0,-4.393247E0,-2.580994E-1,-1.3774493E-1,5.309951E0,-2.7946234E0,1.2312587E0,3.1081514E0,5.826342E0,5.5879874E0,8.664909E0],"categories":[],"categories_nodes":[],"categories_segments":[],"categories_sizes":[],"default_left":[0,0,0,0,0,0,0,0,0,0,0,0,0,0,0,0,0,0,0,0,0,0,0,0,0,0,0],"id":15,"left_children":[1,3,5,7,9,11,13,-1,15,17,19,21,23,25,-1,-1,-1,-1,-1,-1,-1,-1,-1,-1,-1,-1,-1],"loss_changes":[1.0697558E6,5.5246675E5,6.209393E5,5.39735E4,8.6694445E4,1.3487258E5,6.535025E4,0E0,5.5740312E3,3.478054E4,5.8271668E4,6.584497E4,7.6311953E3,1.47965625E4,0E0,0E0,0E0,0E0,0E0,0E0,0E0,0E0,0E0,0E0,0E0,0E0,0E0],"parents":[2147483647,0,0,1,1,2,2,3,3,4,4,5,5,6,6,8,8,9,9,10,10,11,11,12,12,13,13],"right_children":[2,4,6,8,10,12,14,-1,16,18,20,22,24,26,-1,-1,-1,-1,-1,-1,-1,-1,-1,-1,-1,-1,-1],"split_conditions":[6E0,4E0,5E0,2E0,6E0,1.9E1,1.8E1,-1.1832733E1,2E0,1E0,1E0,3E0,3E0,6E0,1.2577052E1,-7.7274766E0,-4.420711E0,-4.393247E0,-2.580994E-1,-1.3774493E-1,5.309951E0,-2.7946234E0,1.2312587E0,3.1081514E0,5.826342E0,5.5879874E0,8.664909E0],"split_indices":[1,0,0,0,0,1,1,0,1,1,1,0,0,0,0,0,0,0,0,0,0,0,0,0,0,0,0],"split_type":[0,0,0,0,0,0,0,0,0,0,0,0,0,0,0,0,0,0,0,0,0,0,0,0,0,0,0],"sum_hessian":[4.27E2,2E2,2.27E2,7.9E1,1.21E2,1.39E2,8.8E1,3.4E1,4.5E1,5.7E1,6.4E1,1.03E2,3.6E1,6.2E1,2.6E1,3.6E1,9E0,3.7E1,2E1,4.8E1,1.6E1,5.6E1,4.7E1,1.7E1,1.9E1,2.7E1,3.5E1],"tree_param":{"num_deleted":"0","num_feature":"2","num_nodes":"27","size_leaf_vector":"1"}},{"base_weights":[6.1556756E-2,-3.940023E1,5.4379185E1,-9.138193E1,6.658863E0,2.9143353E0,1.0009334E2,-1.19768585E2,-5.741664E1,-3.4656452E1,2.1855188E1,-1.0055022E1,4.2973625E1,8.3524826E1,1.2608896E1,-9.959258E0,-3.509705E0,-5.935595E0,-1.4806939E0,-3.5953317E0,9.1482E-1,1.7948797E-1,3.6119115E0,-2.899358E0,5.1456377E-2,2.2650802E0,5.2923827E0,4.7756004E0,7.856627E0],"categories":[],"categories_nodes":[],"categories_segments":[],"categories_sizes":[],"default_left":[0,0,0,0,0,0,0,0,0,0,0,0,0,0,0,0,0,0,0,0,0,0,0,0,0,0,0,0,0],"id":16,"left_children":[1,3,5,7,9,11,13,15,17,19,21,23,25,27,-1,-1,-1,-1,-1,-1,-1,-1,-1,-1,-1,-1,-1,-1,-1],"loss_changes":[8.6596125E5,5.6085825E5,3.996625E5,9.918106E4,7.923754E4,4.2515105E4,7.260431E4,1.56838125E4,3.2572844E4,1.6632031E4,4.1926758E4,1.7392857E4,4.923699E3,1.9329781E4,0E0,0E0,0E0,0E0,0E0,0E0,0E0,0E0,0E0,0E0,0E0,0E0,0E0,0E0,0E0],"parents":[2147483647,0,0,1,1,2,2,3,3,4,4,5,5,6,6,7,7,8,8,9,9,10,10,11,11,12,12,13,13],"right_children":[2,4,6,8,10,12,14,16,18,20,22,24,26,28,-1,-1,-1,-1,-1,-1,-1,-1,-1,-1,-1,-1,-1,-1,-1],"split_conditions":[5E0,7E0,5E0,3E0,2E0,1E0,1.9E1,6E0,1E0,2E1,1.6E1,6E0,7E0,6E0,1.2608896E1,-9.959258E0,-3.509705E0,-5.935595E0,-1.4806939E0,-3.5953317E0,9.1482E-1,1.7948797E-1,3.6119115E0,-2.899358E0,5.1456377E-2,2.2650802E0,5.2923827E0,4.7756004E0,7.856627E0],"split_indices":[0,1,1,0,0,1,1,1,1,1,1,0,0,0,0,0,0,0,0,0,0,0,0,0,0,0,0,0,0],"split_type":[0,0,0,0,0,0,0,0,0,0,0,0,0,0,0,0,0,0,0,0,0,0,0,0,0,0,0,0,0],"sum_hessian":[4.02E2,2.33E2,1.69E2,1.09E2,1.24E2,8E1,8.9E1,5.8E1,5.1E1,3.3E1,9.1E1,6.1E1,1.9E1,7.1E1,1.8E1,5.4E1,4E0,3.5E1,1.6E1,2.7E1,6E0,5E1,4.1E1,1.7E1,4.4E1,1.3E1,6E0,2.9E1,4.2E1],"tree_param":{"num_deleted":"0","num_feature":"2","num_nodes":"29","size_leaf_vector":"1"}},{"base_weights":[1.637066E0,-4.3158516E1,4.2657143E1,-9.357738E1,-1.0446759E1,-4.159192E0,8.299607E1,-9.537961E0,-7.268997E1,-2.6908382E1,2.4432724E1,-1.8409212E1,3.5050465E1,6.7126114E1,1.27744E2,-6.2155724E0,-3.7923281E0,-3.2060971E0,1.1194299E-1,3.5135818E-1,4.4964094E0,-3.2215774E0,-2.741159E-1,2.0856512E0,4.5586185E0,4.7627826E0,9.133043E0,6.7654266E0,1.1213202E1],"categories":[],"categories_nodes":[],"categories_segments":[],"categories_sizes":[],"default_left":[0,0,0,0,0,0,0,0,0,0,0,0,0,0,0,0,0,0,0,0,0,0,0,0,0,0,0,0,0],"id":17,"left_children":[1,3,5,7,9,11,13,-1,15,17,19,21,23,25,27,-1,-1,-1,-1,-1,-1,-1,-1,-1,-1,-1,-1,-1,-1],"loss_changes":[7.5338594E5,3.2228322E5,4.0448866E5,3.2582625E4,6.955819E4,5.651909E4,7.3092E4,0E0,2.0116094E3,3.0621633E4,2.4586107E4,2.4099299E4,3.8320195E3,2.4268625E4,3.699E3,0E0,0E0,0E0,0E0,0E0,0E0,0E0,0E0,0E0,0E0,0E0,0E0,0E0,0E0],"parents":[2147483647,0,0,1,1,2,2,3,3,4,4,5,5,6,6,8,8,9,9,10,10,11,11,12,12,13,13,14,14],"right_children":[2,4,6,8,10,12,14,-1,16,18,20,22,24,26,28,-1,-1,-1,-1,-1,-1,-1,-1,-1,-1,-1,-1,-1,-1],"split_conditions":[6E0,4E0,4E0,2E0,1E0,1.9E1,7E0,-9.537961E0,1E0,7E0,6E0,2E0,2.3E1,2.1E1,1.1E1,-6.2155724E0,-3.7923281E0,-3.2060971E0,1.1194299E-1,3.5135818E-1,4.4964094E0,-3.2215774E0,-2.741159E-1,2.0856512E0,4.5586185E0,4.7627826E0,9.133043E0,6.7654266E0,1.1213202E1],"split_indices":[1,0,0,0,1,1,0,0,1,0,0,0,1,1,1,0,0,0,0,0,0,0,0,0,0,0,0,0,0],"split_type":[0,0,0,0,0,0,0,0,0,0,0,0,0,0,0,0,0,0,0,0,0,0,0,0,0,0,0,0,0],"sum_hessian":[4.08E2,1.95E2,2.13E2,7.6E1,1.19E2,9.9E1,1.14E2,3.2E1,4.4E1,8.1E1,3.8E1,7.3E1,2.6E1,8.6E1,2.8E1,3.5E1,9E0,5.5E1,2.6E1,2.4E1,1.4E1,2.9E1,4.4E1,2E1,6E0,7.6E1,1E1,8E0,2E1],"tree_param":{"num_deleted":"0","num_feature":"2","num_nodes":"29","size_leaf_vector":"1"}},{"base_weights":[-3.1002533E-2,-4.3326374E1,3.493847E1,-8.826751E1,-4.128861E0,-3.9342682E0,7.253762E1,-9.267711E0,-6.499064E1,-3.4799095E1,1.1718009E1,-1.396728E1,2.2838867E1,5.4472992E1,1.111005E2,-5.709214E0,-3.3086476E0,-3.556181E0,8.13111E-1,1.4787039E-1,3.9723637E0,-2.880697E0,-5.1763058E-2,2.138168E-1,3.8860698E0,7.82965E-1,5.480292E0,7.2203164E0,1.1112135E1],"categories":[],"categories_nodes":[],"categories_segments":[],"categories_sizes":[],"default_left":[0,0,0,0,0,0,0,0,0,0,0,0,0,0,0,0,0,0,0,0,0,0,0,0,0,0,0,0,0],"id":18,"left_children":[1,3,5,7,9,11,13,-1,15,17,19,21,23,25,27,-1,-1,-1,-1,-1,-1,-1,-1,-1,-1,-1,-1,-1,-1],"loss_changes":[6.404286E5,3.325744E5,3.4229556E5,4.8962688E4,4.9982555E4,3.1478357E4,7.684631E4,0E0,4.5807812E3,1.5643035E4,2.5368748E4,2.4932469E4,1.6478697E4,5.136836E4,8.907219E3,0E0,0E0,0E0,0E0,0E0,0E0,0E0,0E0,0E0,0E0,0E0,0E0,0E0,0E0],"parents":[2147483647,0,0,1,1,2,2,3,3,4,4,5,5,6,6,8,8,9,9,10,10,11,11,12,12,13,13,14,14],"right_children":[2,4,6,8,10,12,14,-1,16,18,20,22,24,26,28,-1,-1,-1,-1,-1,-1,-1,-1,-1,-1,-1,-1,-1,-1],"split_conditions":[4E0,7E0,5E0,2E0,2E0,1E0,1.8E1,-9.267711E0,2E0,2E1,2.1E1,6E0,6E0,5E0,7E0,-5.709214E0,-3.3086476E0,-3.556181E0,8.13111E-1,1.4787039E-1,3.9723637E0,-2.880697E0,-5.1763058E-2,2.138168E-1,3.8860698E0,7.82965E-1,5.480292E0,7.2203164E0,1.1112135E1],"split_indices":[0,1,1,0,0,1,1,0,1,1,1,0,0,0,0,0,0,0,0,0,0,0,0,0,0,0,0,0,0],"split_type":[0,0,0,0,0,0,0,0,0,0,0,0,0,0,0,0,0,0,0,0,0,0,0,0,0,0,0,0,0],"sum_hessian":[4.21E2,1.88E2,2.33E2,8.7E1,1.01E2,1.15E2,1.18E2,3.8E1,4.9E1,3.4E1,6.7E1,8.4E1,3.1E1,8.2E1,3.6E1,3.7E1,1.2E1,2.8E1,6E0,5.4E1,1.3E1,3.1E1,5.3E1,1.8E1,1.3E1,2E1,6.2E1,2.3E1,1.3E1],"tree_param":{"num_deleted":"0","num_feature":"2","num_nodes":"29","size_leaf_vector":"1"}},{"base_weights":[9.145346E-2,-4.0869854E1,3.2577614E1,-8.3508316E1,-7.994165E0,-6.5093923E0,7.240099E1,-9.7413956E1,-5.0880695E1,-1.816465E1,2.9055595E1,-1.849956E1,2.2452993E1,5.6810783E1,1.1881306E2,-8.691989E0,-6.1645985E0,-4.2806807E0,-1.0318359E0,-2.4491458E0,4.8585296E-1,1.5827936E0,3.7935433E0,-2.7814305E0,7.2183686E-1,8.65954E-1,5.393673E0,3.928778E0,8.119333E0,6.915403E0,1.1015063E1],"categories":[],"categories_nodes":[],"categories_segments":[],"categories_sizes":[],"default_left":[0,0,0,0,0,0,0,0,0,0,0,0,0,0,0,0,0,0,0,0,0,0,0,0,0,0,0,0,0,0,0],"id":19,"left_children":[1,3,5,7,9,11,13,15,17,19,21,23,25,27,29,-1,-1,-1,-1,-1,-1,-1,-1,-1,-1,-1,-1,-1,-1,-1,-1],"loss_changes":[5.5356175E5,2.5725784E5,3.6159712E5,3.1340125E4,4.009326E4,4.1392504E4,7.6461125E4,4.2075E3,1.9049531E3,2.523141E4,2.9774238E3,3.7924305E4,1.7572146E4,2.5295688E4,5.205875E3,0E0,0E0,0E0,0E0,0E0,0E0,0E0,0E0,0E0,0E0,0E0,0E0,0E0,0E0,0E0,0E0],"parents":[2147483647,0,0,1,1,2,2,3,3,4,4,5,5,6,6,7,7,8,8,9,9,10,10,11,11,12,12,13,13,14,14],"right_children":[2,4,6,8,10,12,14,16,18,20,22,24,26,28,30,-1,-1,-1,-1,-1,-1,-1,-1,-1,-1,-1,-1,-1,-1,-1,-1],"split_conditions":[4E0,6E0,6E0,3E0,2E1,7E0,7E0,2E0,5E0,3E0,3E0,1E0,1E0,2.1E1,1.6E1,-8.691989E0,-6.1645985E0,-4.2806807E0,-1.0318359E0,-2.4491458E0,4.8585296E-1,1.5827936E0,3.7935433E0,-2.7814305E0,7.2183686E-1,8.65954E-1,5.393673E0,3.928778E0,8.119333E0,6.915403E0,1.1015063E1],"split_indices":[0,1,1,0,1,0,0,0,1,0,0,1,1,1,1,0,0,0,0,0,0,0,0,0,0,0,0,0,0,0,0],"split_type":[0,0,0,0,0,0,0,0,0,0,0,0,0,0,0,0,0,0,0,0,0,0,0,0,0,0,0,0,0,0,0],"sum_hessian":[4.14E2,1.83E2,2.31E2,7.9E1,1.04E2,1.17E2,1.14E2,5.4E1,2.5E1,8.2E1,2.2E1,8.3E1,3.4E1,8.7E1,2.7E1,3.2E1,2.2E1,2.3E1,2E0,5.4E1,2.8E1,1.6E1,6E0,5.2E1,3.1E1,2.8E1,6E0,7.6E1,1.1E1,1.2E1,1.5E1],"tree_param":{"num_deleted":"0","num_feature":"2","num_nodes":"31","size_leaf_vector":"1"}},{"base_weights":[-1.062992E0,-2.7867762E1,3.6348537E1,-6.466411E1,3.6445622E0,5.348888E0,7.562567E1,-8.3972824E1,-4.2424347E1,-1.4499747E1,2.2558392E1,-4.501273E0,2.7418642E1,6.1725403E1,8.6561985E0,-7.067882E0,-2.389339E0,-4.491566E0,-8.8819927E-1,-2.1376271E0,1.7287782E0,1.3696055E0,6.8385525E0,-9.803445E-1,4.518274E-1,1.3139966E0,4.5577893E0,4.046263E0,5.4639773E0],"categories":[],"categories_nodes":[],"categories_segments":[],"categories_sizes":[],"default_left":[0,0,0,0,0,0,0,0,0,0,0,0,0,0,0,0,0,0,0,0,0,0,0,0,0,0,0,0,0],"id":20,"left_children":[1,3,5,7,9,11,13,15,17,19,21,23,25,27,-1,-1,-1,-1,-1,-1,-1,-1,-1,-1,-1,-1,-1,-1,-1],"loss_changes":[4.252005E5,2.8664166E5,2.1510672E5,4.539153E4,4.6313E4,2.1862482E4,2.8641625E4,1.15664375E4,2.3012523E4,3.1025678E4,2.1121637E4,5.5772603E3,9.136266E3,7.2275E2,0E0,0E0,0E0,0E0,0E0,0E0,0E0,0E0,0E0,0E0,0E0,0E0,0E0,0E0,0E0],"parents":[2147483647,0,0,1,1,2,2,3,3,4,4,5,5,6,6,7,7,8,8,9,9,10,10,11,11,12,12,13,13],"right_children":[2,4,6,8,10,12,14,16,18,20,22,24,26,28,-1,-1,-1,-1,-1,-1,-1,-1,-1,-1,-1,-1,-1,-1,-1],"split_conditions":[5E0,7E0,7E0,3E0,3E0,1E0,1.9E1,6E0,1E0,2E1,2.2E1,7E0,7E0,6E0,8.6561985E0,-7.067882E0,-2.389339E0,-4.491566E0,-8.8819927E-1,-2.1376271E0,1.7287782E0,1.3696055E0,6.8385525E0,-9.803445E-1,4.518274E-1,1.3139966E0,4.5577893E0,4.046263E0,5.4639773E0],"split_indices":[0,1,1,0,0,1,1,1,1,1,1,0,0,0,0,0,0,0,0,0,0,0,0,0,0,0,0,0,0],"split_type":[0,0,0,0,0,0,0,0,0,0,0,0,0,0,0,0,0,0,0,0,0,0,0,0,0,0,0,0,0],"sum_hessian":[4.22E2,2.46E2,1.76E2,1.13E2,1.33E2,9.9E1,7.7E1,5.9E1,5.4E1,6.8E1,6.5E1,6.9E1,3E1,5.6E1,2.1E1,5.4E1,5E0,3.7E1,1.7E1,5.1E1,1.7E1,6.1E1,4E0,3.9E1,3E1,2.3E1,7E0,2.4E1,3.2E1],"tree_param":{"num_deleted":"0","num_feature":"2","num_nodes":"29","size_leaf_vector":"1"}},{"base_weights":[8.558147E-1,-4.266781E1,2.4033775E1,-7.057612E1,-7.347368E0,-2.6247337E0,6.3684933E1,-7.7930036E0,-5.7791862E1,-2.4868731E0,8.7068605E-1,-1.4515638E1,3.6469124E1,4.7127872E1,9.304341E1,-5.0563006E0,-3.4685373E0,-3.609144E-1,3.9389175E-1,-3.2984858E0,-2.560184E-1,2.3312132E0,5.753737E0,1.7806326E0,5.196346E0,5.0193253E0,8.911605E0],"categories":[],"categories_nodes":[],"categories_segments":[],"categories_sizes":[],"default_left":[0,0,0,0,0,0,0,0,0,0,0,0,0,0,0,0,0,0,0,0,0,0,0,0,0,0,0],"id":21,"left_children":[1,3,5,7,9,11,13,-1,15,-1,17,19,21,23,25,-1,-1,-1,-1,-1,-1,-1,-1,-1,-1,-1,-1],"loss_changes":[4.2673434E5,1.4438431E5,2.9191044E5,2.2503188E4,1.2902652E4,7.769636E4,4.9571062E4,0E0,1.7907344E3,0E0,1.1128882E3,3.8561945E4,8.037582E3,3.0918312E4,1.4698344E4,0E0,0E0,0E0,0E0,0E0,0E0,0E0,0E0,0E0,0E0,0E0,0E0],"parents":[2147483647,0,0,1,1,2,2,3,3,4,4,5,5,6,6,8,8,10,10,11,11,12,12,13,13,14,14],"right_children":[2,4,6,8,10,12,14,-1,16,-1,18,20,22,24,26,-1,-1,-1,-1,-1,-1,-1,-1,-1,-1,-1,-1],"split_conditions":[1E0,5E0,5E0,2E0,6E0,1.9E1,7E0,-7.7930036E0,4E0,-2.4868731E0,7E0,2E0,2.3E1,1E1,1.1E1,-5.0563006E0,-3.4685373E0,-3.609144E-1,3.9389175E-1,-3.2984858E0,-2.560184E-1,2.3312132E0,5.753737E0,1.7806326E0,5.196346E0,5.0193253E0,8.911605E0],"split_indices":[1,0,0,0,0,1,0,0,0,0,0,0,1,1,1,0,0,0,0,0,0,0,0,0,0,0,0],"split_type":[0,0,0,0,0,0,0,0,0,0,0,0,0,0,0,0,0,0,0,0,0,0,0,0,0,0,0],"sum_hessian":[4.21E2,1.46E2,2.75E2,8.1E1,6.5E1,1.65E2,1.1E2,2.4E1,5.7E1,1.6E1,4.9E1,1.27E2,3.8E1,7.2E1,3.8E1,3.9E1,1.8E1,2.1E1,2.8E1,3.7E1,9E1,3.3E1,5E0,3.1E1,4.1E1,1.6E1,2.2E1],"tree_param":{"num_deleted":"0","num_feature":"2","num_nodes":"27","size_leaf_vector":"1"}},{"base_weights":[8.658073E-1,-2.9883404E1,2.8396393E1,-7.038524E1,-3.308184E0,-1.4655411E0,5.6685707E1,-6.291332E0,-4.7222454E1,-1.3650536E1,2.0261162E1,-1.3405533E1,2.3820885E1,4.700257E1,8.996163E0,-4.0067606E0,-9.157812E-1,-2.4231129E0,-1.8325023E-1,3.2364258E-1,3.128032E0,-2.2906413E0,-3.6486328E-1,9.927154E-1,2.6222272E0,2.569019E0,5.2240715E0],"categories":[],"categories_nodes":[],"categories_segments":[],"categories_sizes":[],"default_left":[0,0,0,0,0,0,0,0,0,0,0,0,0,0,0,0,0,0,0,0,0,0,0,0,0,0,0],"id":22,"left_children":[1,3,5,7,9,11,13,-1,15,17,19,21,23,25,-1,-1,-1,-1,-1,-1,-1,-1,-1,-1,-1,-1,-1],"loss_changes":[3.5301078E5,2.1180712E5,1.8593328E5,1.1203219E4,2.952807E4,3.292666E4,5.5733688E4,0E0,1.7816484E3,1.5807494E4,1.1144952E4,9.835965E3,3.17083E3,2.4604E4,0E0,0E0,0E0,0E0,0E0,0E0,0E0,0E0,0E0,0E0,0E0,0E0,0E0],"parents":[2147483647,0,0,1,1,2,2,3,3,4,4,5,5,6,6,8,8,9,9,10,10,11,11,12,12,13,13],"right_children":[2,4,6,8,10,12,14,-1,16,18,20,22,24,26,-1,-1,-1,-1,-1,-1,-1,-1,-1,-1,-1,-1,-1],"split_conditions":[6E0,4E0,4E0,3E0,1E0,1.7E1,2.1E1,-6.291332E0,5E0,6E0,6E0,2E0,2.1E1,6E0,8.996163E0,-4.0067606E0,-9.157812E-1,-2.4231129E0,-1.8325023E-1,3.2364258E-1,3.128032E0,-2.2906413E0,-3.6486328E-1,9.927154E-1,2.6222272E0,2.569019E0,5.2240715E0],"split_indices":[1,0,0,0,1,1,1,0,1,0,0,0,1,0,0,0,0,0,0,0,0,0,0,0,0,0,0],"split_type":[0,0,0,0,0,0,0,0,0,0,0,0,0,0,0,0,0,0,0,0,0,0,0,0,0,0,0],"sum_hessian":[4.15E2,1.96E2,2.19E2,7.7E1,1.19E2,1.07E2,1.12E2,5.5E1,2.2E1,8.3E1,3.6E1,7.3E1,3.4E1,9.7E1,1.5E1,2E1,2E0,3.3E1,5E1,2E1,1.6E1,2.6E1,4.7E1,1.6E1,1.8E1,5.5E1,4.2E1],"tree_param":{"num_deleted":"0","num_feature":"2","num_nodes":"27","size_leaf_vector":"1"}},{"base_weights":[2.600268E-1,-2.6221205E1,2.456353E1,-6.0250946E1,-6.342905E0,9.564571E-1,6.1768135E1,-6.3519416E0,-4.5390747E1,-1.5066838E1,1.4715538E1,-7.690037E0,3.1475521E1,4.8925808E1,8.488001E1,-3.8635643E0,-2.4550674E0,-3.1189466E0,-7.2358847E-1,2.6470435E-1,3.7058806E0,-2.5673604E0,1.1848645E-1,1.2710557E0,4.050942E0,3.468586E0,6.209048E0,4.3928986E0,7.6496325E0],"categories":[],"categories_nodes":[],"categories_segments":[],"categories_sizes":[],"default_left":[0,0,0,0,0,0,0,0,0,0,0,0,0,0,0,0,0,0,0,0,0,0,0,0,0,0,0,0,0],"id":23,"left_children":[1,3,5,7,9,11,13,-1,15,17,19,21,23,25,27,-1,-1,-1,-1,-1,-1,-1,-1,-1,-1,-1,-1,-1,-1],"loss_changes":[2.703069E5,1.3558498E5,1.9228684E5,1.7452531E4,2.373691E4,3.586624E4,2.1076031E4,0E0,3.9641406E2,1.2755535E4,1.3547386E4,2.3769627E4,8.1556543E3,5.7403438E3,4.0837969E3,0E0,0E0,0E0,0E0,0E0,0E0,0E0,0E0,0E0,0E0,0E0,0E0,0E0,0E0],"parents":[2147483647,0,0,1,1,2,2,3,3,4,4,5,5,6,6,8,8,9,9,10,10,11,11,12,12,13,13,14,14],"right_children":[2,4,6,8,10,12,14,-1,16,18,20,22,24,26,28,-1,-1,-1,-1,-1,-1,-1,-1,-1,-1,-1,-1,-1,-1],"split_conditions":[6E0,4E0,5E0,2E0,1E0,2E1,7E0,-6.3519416E0,2E0,5E0,7E0,2E0,3E0,2.1E1,1.1E1,-3.8635643E0,-2.4550674E0,-3.1189466E0,-7.2358847E-1,2.6470435E-1,3.7058806E0,-2.5673604E0,1.1848645E-1,1.2710557E0,4.050942E0,3.468586E0,6.209048E0,4.3928986E0,7.6496325E0],"split_indices":[1,0,0,0,1,1,0,0,1,0,0,0,0,1,1,0,0,0,0,0,0,0,0,0,0,0,0,0,0],"split_type":[0,0,0,0,0,0,0,0,0,0,0,0,0,0,0,0,0,0,0,0,0,0,0,0,0,0,0,0,0],"sum_hessian":[4.18E2,2E2,2.18E2,7.3E1,1.27E2,1.34E2,8.4E1,3E1,4.3E1,9E1,3.7E1,1.05E2,2.9E1,5.6E1,2.8E1,3.4E1,9E0,1.7E1,7.3E1,2.8E1,9E0,2.8E1,7.7E1,1.7E1,1.2E1,4.9E1,7E0,9E0,1.9E1],"tree_param":{"num_deleted":"0","num_feature":"2","num_nodes":"29","size_leaf_vector":"1"}},{"base_weights":[3.290191E-1,-3.50061E1,1.8997826E1,-5.594674E1,-9.239355E0,-2.7303689E0,4.966349E1,-5.4621515E0,-3.3561037E0,-1.398699E0,-4.918727E-1,-2.012489E1,1.2181947E1,3.2062E1,7.1048775E1,-2.6055908E0,-5.7310945E-1,-8.6729443E-1,1.5832028E0,1.0584658E0,3.6471539E0,4.61535E0,7.162818E0],"categories":[],"categories_nodes":[],"categories_segments":[],"categories_sizes":[],"default_left":[0,0,0,0,0,0,0,0,0,0,0,0,0,0,0,0,0,0,0,0,0,0,0],"id":24,"left_children":[1,3,5,7,9,11,13,-1,-1,-1,-1,15,17,19,21,-1,-1,-1,-1,-1,-1,-1,-1],"loss_changes":[2.8432078E5,7.987934E4,1.8803484E5,1.1286125E4,1.6253433E3,4.330433E4,4.1762344E4,0E0,0E0,0E0,0E0,1.218676E4,1.5979127E4,1.6209477E4,7.6744688E3,0E0,0E0,0E0,0E0,0E0,0E0,0E0,0E0],"parents":[2147483647,0,0,1,1,2,2,3,3,4,4,5,5,6,6,11,11,12,12,13,13,14,14],"right_children":[2,4,6,8,10,12,14,-1,-1,-1,-1,16,18,20,22,-1,-1,-1,-1,-1,-1,-1,-1],"split_conditions":[1E0,5E0,5E0,3E0,6E0,1.2E1,1.4E1,-5.4621515E0,-3.3561037E0,-1.398699E0,-4.918727E-1,3E0,2E0,6E0,7E0,-2.6055908E0,-5.7310945E-1,-8.6729443E-1,1.5832028E0,1.0584658E0,3.6471539E0,4.61535E0,7.162818E0],"split_indices":[1,0,0,0,0,1,1,0,0,0,0,0,0,0,0,0,0,0,0,0,0,0,0],"split_type":[0,0,0,0,0,0,0,0,0,0,0,0,0,0,0,0,0,0,0,0,0,0,0],"sum_hessian":[4.29E2,1.48E2,2.81E2,8.1E1,6.7E1,1.65E2,1.16E2,4.1E1,4E1,1.7E1,5E1,7.6E1,8.9E1,6.5E1,5.1E1,3.8E1,3.8E1,2.2E1,6.7E1,2.8E1,3.7E1,3.2E1,1.9E1],"tree_param":{"num_deleted":"0","num_feature":"2","num_nodes":"23","size_leaf_vector":"1"}},{"base_weights":[-5.6464803E-1,-2.9069668E1,2.1529095E1,-5.1568783E1,9.46819E-2,-1.3406363E0,4.558309E1,-5.7903217E1,-2.4075832E0,-1.0769158E1,2.390792E1,-1.5101646E1,1.0214043E1,3.6485813E1,7.602026E1,-5.22863E0,-3.0228603E0,-1.574532E0,1.0639361E0,1.3133045E0,4.8806176E0,-1.855929E0,-1.698255E-1,2.3053785E-1,2.563319E0,2.514604E0,5.404387E0,3.8140154E0,7.057764E0],"categories":[],"categories_nodes":[],"categories_segments":[],"categories_sizes":[],"default_left":[0,0,0,0,0,0,0,0,0,0,0,0,0,0,0,0,0,0,0,0,0,0,0,0,0,0,0,0,0],"id":25,"left_children":[1,3,5,7,9,11,13,15,-1,17,19,21,23,25,27,-1,-1,-1,-1,-1,-1,-1,-1,-1,-1,-1,-1,-1,-1],"loss_changes":[2.6828344E5,1.2205291E5,1.3208712E5,1.2540125E4,2.1471135E4,1.9870752E4,2.962311E4,9.527906E3,0E0,1.2488766E4,6.2248496E3,5.941204E3,1.0790779E4,1.232057E4,4.786375E3,0E0,0E0,0E0,0E0,0E0,0E0,0E0,0E0,0E0,0E0,0E0,0E0,0E0,0E0],"parents":[2147483647,0,0,1,1,2,2,3,3,4,4,5,5,6,6,7,7,9,9,10,10,11,11,12,12,13,13,14,14],"right_children":[2,4,6,8,10,12,14,16,-1,18,20,22,24,26,28,-1,-1,-1,-1,-1,-1,-1,-1,-1,-1,-1,-1,-1,-1],"split_conditions":[4E0,1E1,6E0,5E0,3E0,6E0,7E0,3E0,-2.4075832E0,2.1E1,2.2E1,1E0,1E0,2.1E1,1.1E1,-5.22863E0,-3.0228603E0,-1.574532E0,1.0639361E0,1.3133045E0,4.8806176E0,-1.855929E0,-1.698255E-1,2.3053785E-1,2.563319E0,2.514604E0,5.404387E0,3.8140154E0,7.057764E0],"split_indices":[0,1,1,1,0,0,0,0,0,1,1,1,1,1,1,0,0,0,0,0,0,0,0,0,0,0,0,0,0],"split_type":[0,0,0,0,0,0,0,0,0,0,0,0,0,0,0,0,0,0,0,0,0,0,0,0,0,0,0,0,0],"sum_hessian":[4.24E2,1.85E2,2.39E2,1.04E2,8.1E1,1.23E2,1.16E2,7.9E1,2.5E1,5.6E1,2.5E1,5.6E1,6.7E1,9.1E1,2.5E1,5.6E1,2.3E1,4.1E1,1.5E1,2.2E1,3E0,3.4E1,2.2E1,5.1E1,1.6E1,8E1,1.1E1,9E0,1.6E1],"tree_param":{"num_deleted":"0","num_feature":"2","num_nodes":"29","size_leaf_vector":"1"}},{"base_weights":[1.2421876E0,-2.3433704E1,2.023433E1,-4.9484177E1,-1.5359467E0,-1.1954241E0,4.011834E1,-5.10232E0,-3.743433E1,-1.1187345E1,1.1742389E1,-7.4583426E0,1.547781E1,3.1606672E1,6.573467E1,-3.321515E0,-2.1336145E0,-1.5402085E0,4.402036E-1,5.6037E-1,2.8085895E0,-2.4160357E0,-1.3976987E-1,4.3504986E-1,2.2398033E0,2.2717159E0,6.6969123E0,3.2645583E0,5.835554E0],"categories":[],"categories_nodes":[],"categories_segments":[],"categories_sizes":[],"default_left":[0,0,0,0,0,0,0,0,0,0,0,0,0,0,0,0,0,0,0,0,0,0,0,0,0,0,0,0,0],"id":26,"left_children":[1,3,5,7,9,11,13,-1,15,17,19,21,23,25,27,-1,-1,-1,-1,-1,-1,-1,-1,-1,-1,-1,-1,-1,-1],"loss_changes":[1.9824362E5,1.0488624E5,1.0188809E5,1.2081516E4,1.3074972E4,1.2228519E4,2.4959047E4,0E0,1.0031094E3,8.04783E3,4.5140894E3,1.0987472E4,3.8699595E3,1.3513328E4,2.4150234E3,0E0,0E0,0E0,0E0,0E0,0E0,0E0,0E0,0E0,0E0,0E0,0E0,0E0,0E0],"parents":[2147483647,0,0,1,1,2,2,3,3,4,4,5,5,6,6,8,8,9,9,10,10,11,11,12,12,13,13,14,14],"right_children":[2,4,6,8,10,12,14,-1,16,18,20,22,24,26,28,-1,-1,-1,-1,-1,-1,-1,-1,-1,-1,-1,-1,-1,-1],"split_conditions":[4E0,7E0,5E0,2E0,1.6E1,1E0,7E0,-5.10232E0,1E0,3E0,2.3E1,5E0,6E0,2.3E1,1.1E1,-3.321515E0,-2.1336145E0,-1.5402085E0,4.402036E-1,5.6037E-1,2.8085895E0,-2.4160357E0,-1.3976987E-1,4.3504986E-1,2.2398033E0,2.2717159E0,6.6969123E0,3.2645583E0,5.835554E0],"split_indices":[0,1,1,0,1,1,0,0,1,0,1,0,0,1,1,0,0,0,0,0,0,0,0,0,0,0,0,0,0],"split_type":[0,0,0,0,0,0,0,0,0,0,0,0,0,0,0,0,0,0,0,0,0,0,0,0,0,0,0,0,0],"sum_hessian":[4.21E2,1.83E2,2.38E2,8.3E1,1E2,1.15E2,1.23E2,3.6E1,4.7E1,5.8E1,4.2E1,8.4E1,3.1E1,9.4E1,2.9E1,3.2E1,1.5E1,3.9E1,1.9E1,3.6E1,6E0,1.6E1,6.8E1,1.8E1,1.3E1,9E1,4E0,8E0,2.1E1],"tree_param":{"num_deleted":"0","num_feature":"2","num_nodes":"29","size_leaf_vector":"1"}},{"base_weights":[-6.1567175E-1,-2.445323E1,1.9096836E1,-4.949189E1,-3.0315447E0,4.1891537E0,4.8285122E1,-6.1746563E1,-3.894341E1,-1.0976304E1,1.1651568E1,-8.204684E0,1.9178968E1,3.8223316E1,7.377558E1,-5.215926E0,-2.0183692E0,-3.4515457E0,-1.893454E0,-1.7474484E0,-3.6420187E-1,-4.389178E-1,1.4561754E0,-2.356142E0,-1.6455457E-1,9.57183E-1,3.2773144E0,2.7166216E0,5.5625405E0,3.6033723E0,6.395171E0],"categories":[],"categories_nodes":[],"categories_segments":[],"categories_sizes":[],"default_left":[0,0,0,0,0,0,0,0,0,0,0,0,0,0,0,0,0,0,0,0,0,0,0,0,0,0,0,0,0,0,0],"id":27,"left_children":[1,3,5,7,9,11,13,15,17,19,21,23,25,27,29,-1,-1,-1,-1,-1,-1,-1,-1,-1,-1,-1,-1,-1,-1,-1,-1],"loss_changes":[1.9829408E5,1.0229669E5,1.00312695E5,8.970984E3,1.2259887E4,2.8767686E4,1.71855E4,3.272E3,2.1873516E3,4.6473633E3,4.253666E3,1.1042277E4,1.0512355E4,5.384617E3,1.1875E2,0E0,0E0,0E0,0E0,0E0,0E0,0E0,0E0,0E0,0E0,0E0,0E0,0E0,0E0,0E0,0E0],"parents":[2147483647,0,0,1,1,2,2,3,3,4,4,5,5,6,6,7,7,8,8,9,9,10,10,11,11,12,12,13,13,14,14],"right_children":[2,4,6,8,10,12,14,16,18,20,22,24,26,28,30,-1,-1,-1,-1,-1,-1,-1,-1,-1,-1,-1,-1,-1,-1,-1,-1],"split_conditions":[4E0,7E0,1.2E1,2E0,1.7E1,1E0,7E0,5E0,1E0,2E0,2E0,5E0,7E0,2.3E1,1.6E1,-5.215926E0,-2.0183692E0,-3.4515457E0,-1.893454E0,-1.7474484E0,-3.6420187E-1,-4.389178E-1,1.4561754E0,-2.356142E0,-1.6455457E-1,9.57183E-1,3.2773144E0,2.7166216E0,5.5625405E0,3.6033723E0,6.395171E0],"split_indices":[0,1,1,0,1,1,0,1,1,0,0,0,0,1,1,0,0,0,0,0,0,0,0,0,0,0,0,0,0,0,0],"split_type":[0,0,0,0,0,0,0,0,0,0,0,0,0,0,0,0,0,0,0,0,0,0,0,0,0,0,0,0,0,0,0],"sum_hessian":[4.2E2,1.9E2,2.3E2,8.7E1,1.03E2,1.53E2,7.7E1,3.8E1,4.9E1,6.7E1,3.6E1,8.4E1,6.9E1,5.7E1,2E1,3.4E1,4E0,3.7E1,1.2E1,2.4E1,4.3E1,1E1,2.6E1,1.8E1,6.6E1,5.3E1,1.6E1,5.2E1,5E0,5E0,1.5E1],"tree_param":{"num_deleted":"0","num_feature":"2","num_nodes":"31","size_leaf_vector":"1"}},{"base_weights":[1.5098914E0,-1.6311134E1,2.4897774E1,-3.4965763E1,4.487842E0,1.1377157E1,4.5788776E1,-4.8106266E1,-2.8600122E1,-3.874824E0,1.702503E1,-9.170269E0,1.7217955E1,3.6350918E1,4.9890704E0,-4.2821217E0,-1.2545048E0,-2.5347905E0,-1.742859E0,-9.026943E-1,5.1823205E-1,6.2320065E-1,2.953406E0,-2.0864685E0,-9.159938E-2,1.0980641E0,5.6836524E0,2.1265047E0,3.4082537E0],"categories":[],"categories_nodes":[],"categories_segments":[],"categories_sizes":[],"default_left":[0,0,0,0,0,0,0,0,0,0,0,0,0,0,0,0,0,0,0,0,0,0,0,0,0,0,0,0,0],"id":28,"left_children":[1,3,5,7,9,11,13,15,17,19,21,23,25,27,-1,-1,-1,-1,-1,-1,-1,-1,-1,-1,-1,-1,-1,-1,-1],"loss_changes":[1.7254289E5,9.133627E4,5.0039266E4,8.996469E3,1.1808531E4,1.3359358E4,8.683047E3,6.0149375E3,1.1175078E3,5.2888193E3,7.9792783E3,3.362941E3,1.519065E4,1.7384102E3,0E0,0E0,0E0,0E0,0E0,0E0,0E0,0E0,0E0,0E0,0E0,0E0,0E0,0E0,0E0],"parents":[2147483647,0,0,1,1,2,2,3,3,4,4,5,5,6,6,7,7,8,8,9,9,10,10,11,11,12,12,13,13],"right_children":[2,4,6,8,10,12,14,16,18,20,22,24,26,28,-1,-1,-1,-1,-1,-1,-1,-1,-1,-1,-1,-1,-1,-1,-1],"split_conditions":[9E0,5E0,5E0,2E0,1E0,2E0,1.9E1,6E0,4E0,7E0,7E0,1.2E1,2.3E1,6E0,4.9890704E0,-4.2821217E0,-1.2545048E0,-2.5347905E0,-1.742859E0,-9.026943E-1,5.1823205E-1,6.2320065E-1,2.953406E0,-2.0864685E0,-9.159938E-2,1.0980641E0,5.6836524E0,2.1265047E0,3.4082537E0],"split_indices":[1,0,0,0,1,0,1,1,0,0,0,1,1,0,0,0,0,0,0,0,0,0,0,0,0,0,0,0,0],"split_type":[0,0,0,0,0,0,0,0,0,0,0,0,0,0,0,0,0,0,0,0,0,0,0,0,0,0,0,0,0],"sum_hessian":[4.12E2,2.34E2,1.78E2,1.23E2,1.11E2,1.09E2,6.9E1,3.8E1,8.5E1,6.7E1,4.4E1,2.4E1,8.5E1,4.6E1,2.3E1,3.2E1,6E0,5.6E1,2.9E1,3.9E1,2.8E1,3.1E1,1.3E1,7E0,1.7E1,8.1E1,4E0,2E1,2.6E1],"tree_param":{"num_deleted":"0","num_feature":"2","num_nodes":"29","size_leaf_vector":"1"}},{"base_weights":[2.0088391E0,-1.2914125E1,2.203038E1,-2.9879673E1,5.8861747E0,2.1658697E0,4.144441E1,-4.4458282E1,-2.3143145E1,-6.886246E0,2.0150038E1,-1.0150228E1,7.9962993E0,3.24758E1,5.6766853E1,-3.9437397E0,-1.1684808E0,-2.2123632E0,-1.1813244E0,-1.1608809E0,1.1679251E0,1.289358E0,4.645109E0,-9.690661E-1,4.5105955E-1,4.2729816E-1,1.4237801E0,1.343623E0,2.9779112E0,3.5519066E0,5.263652E0],"categories":[],"categories_nodes":[],"categories_segments":[],"categories_sizes":[],"default_left":[0,0,0,0,0,0,0,0,0,0,0,0,0,0,0,0,0,0,0,0,0,0,0,0,0,0,0,0,0,0,0],"id":29,"left_children":[1,3,5,7,9,11,13,15,17,19,21,23,25,27,29,-1,-1,-1,-1,-1,-1,-1,-1,-1,-1,-1,-1,-1,-1,-1,-1],"loss_changes":[1.2876023E5,7.895835E4,7.086986E4,1.1738297E4,2.1636477E4,6.6875127E3,1.0936609E4,5.0575312E3,3.030539E3,1.0532537E4,7.627082E3,9.981279E2,1.5443411E3,3.916418E3,7.638047E2,0E0,0E0,0E0,0E0,0E0,0E0,0E0,0E0,0E0,0E0,0E0,0E0,0E0,0E0,0E0,0E0],"parents":[2147483647,0,0,1,1,2,2,3,3,4,4,5,5,6,6,7,7,8,8,9,9,10,10,11,11,12,12,13,13,14,14],"right_children":[2,4,6,8,10,12,14,16,18,20,22,24,26,28,30,-1,-1,-1,-1,-1,-1,-1,-1,-1,-1,-1,-1,-1,-1,-1,-1],"split_conditions":[5E0,9E0,5E0,2E0,3E0,6E0,7E0,6E0,4E0,2E1,2.2E1,4E0,1E0,1E1,1.6E1,-3.9437397E0,-1.1684808E0,-2.2123632E0,-1.1813244E0,-1.1608809E0,1.1679251E0,1.289358E0,4.645109E0,-9.690661E-1,4.5105955E-1,4.2729816E-1,1.4237801E0,1.343623E0,2.9779112E0,3.5519066E0,5.263652E0],"split_indices":[0,1,1,0,0,0,0,1,0,1,1,1,1,1,1,0,0,0,0,0,0,0,0,0,0,0,0,0,0,0,0],"split_type":[0,0,0,0,0,0,0,0,0,0,0,0,0,0,0,0,0,0,0,0,0,0,0,0,0,0,0,0,0,0,0],"sum_hessian":[4.29E2,2.46E2,1.83E2,1.29E2,1.17E2,9.1E1,9.2E1,3.9E1,9E1,6.2E1,5.5E1,2.9E1,6.2E1,6E1,3.2E1,3.3E1,6E0,5.7E1,3.3E1,4.6E1,1.6E1,5.1E1,4E0,2.6E1,3E0,5E1,1.2E1,1.5E1,4.5E1,1.6E1,1.6E1],"tree_param":{"num_deleted":"0","num_feature":"2","num_nodes":"31","size_leaf_vector":"1"}},{"base_weights":[5.3293073E-1,-1.2925002E1,1.8820879E1,-2.8092058E1,4.037751E0,4.1767793E0,3.9939014E1,-3.6901745E1,-1.8430477E1,-1.9351954E1,1.1965631E1,-4.6565657E0,1.7131111E1,3.371827E1,4.5935364E0,-3.2519457E0,-1.1302228E0,-1.961099E0,-7.3489904E-1,-2.0310802E0,-9.298268E-1,7.47275E-1,3.280212E0,-1.0604855E0,5.7443947E-1,7.91569E-1,2.4369628E0,2.0651717E0,3.0644464E0],"categories":[],"categories_nodes":[],"categories_segments":[],"categories_sizes":[],"default_left":[0,0,0,0,0,0,0,0,0,0,0,0,0,0,0,0,0,0,0,0,0,0,0,0,0,0,0,0,0],"id":30,"left_children":[1,3,5,7,9,11,13,15,17,19,21,23,25,27,-1,-1,-1,-1,-1,-1,-1,-1,-1,-1,-1,-1,-1,-1,-1],"loss_changes":[1.0508952E5,6.3403074E4,5.5808523E4,1.0384906E4,2.1926955E4,1.2438222E4,6.110672E3,5.1439766E3,3.3738594E3,1.1046299E3,6.3237617E3,6.711719E3,3.9432354E3,1.0777656E3,0E0,0E0,0E0,0E0,0E0,0E0,0E0,0E0,0E0,0E0,0E0,0E0,0E0,0E0,0E0],"parents":[2147483647,0,0,1,1,2,2,3,3,4,4,5,5,6,6,7,7,8,8,9,9,10,10,11,11,12,12,13,13],"right_children":[2,4,6,8,10,12,14,16,18,20,22,24,26,28,-1,-1,-1,-1,-1,-1,-1,-1,-1,-1,-1,-1,-1,-1,-1],"split_conditions":[5E0,9E0,9E0,3E0,2E0,7E0,2E1,6E0,1E0,1.6E1,2.3E1,1E0,1E0,1.4E1,4.5935364E0,-3.2519457E0,-1.1302228E0,-1.961099E0,-7.3489904E-1,-2.0310802E0,-9.298268E-1,7.47275E-1,3.280212E0,-1.0604855E0,5.7443947E-1,7.91569E-1,2.4369628E0,2.0651717E0,3.0644464E0],"split_indices":[0,1,1,0,0,0,1,1,1,1,1,1,1,1,0,0,0,0,0,0,0,0,0,0,0,0,0,0,0],"split_type":[0,0,0,0,0,0,0,0,0,0,0,0,0,0,0,0,0,0,0,0,0,0,0,0,0,0,0,0,0],"sum_hessian":[4.25E2,2.45E2,1.8E2,1.29E2,1.16E2,1.07E2,7.3E1,6.6E1,6.3E1,2.9E1,8.7E1,6.4E1,4.3E1,5.6E1,1.7E1,5.6E1,1E1,3.7E1,2.6E1,1.5E1,1.4E1,8.1E1,6E0,3.7E1,2.7E1,2.9E1,1.4E1,2.3E1,3.3E1],"tree_param":{"num_deleted":"0","num_feature":"2","num_nodes":"29","size_leaf_vector":"1"}},{"base_weights":[1.9330367E-1,-1.2967413E1,1.7716433E1,-3.0064625E1,4.791232E0,9.339833E-1,3.431041E1,-3.7416363E1,-1.759826E1,-5.5593414E0,1.5751989E1,-4.830262E0,1.0354998E1,2.6177668E1,4.510844E1,-3.5935946E0,-2.6660278E0,-1.9118327E0,-1.137207E-2,-1.2303877E0,2.4136579E-1,6.704603E-1,2.8399272E0,-5.608147E-1,5.241894E-1,5.47596E-1,1.7427636E0,1.4125558E0,2.561314E0,2.7451944E0,4.5646386E0],"categories":[],"categories_nodes":[],"categories_segments":[],"categories_sizes":[],"default_left":[0,0,0,0,0,0,0,0,0,0,0,0,0,0,0,0,0,0,0,0,0,0,0,0,0,0,0,0,0,0,0],"id":31,"left_children":[1,3,5,7,9,11,13,15,17,19,21,23,25,27,29,-1,-1,-1,-1,-1,-1,-1,-1,-1,-1,-1,-1,-1,-1,-1,-1],"loss_changes":[1.005481E5,7.574625E4,5.2045137E4,1.0981023E4,1.4041936E4,5.154691E3,7.0740156E3,9.2809375E2,5.385002E3,5.436783E3,8.436124E3,1.509914E3,1.2951433E3,2.220711E3,3.0721875E3,0E0,0E0,0E0,0E0,0E0,0E0,0E0,0E0,0E0,0E0,0E0,0E0,0E0,0E0,0E0,0E0],"parents":[2147483647,0,0,1,1,2,2,3,3,4,4,5,5,6,6,7,7,8,8,9,9,10,10,11,11,12,12,13,13,14,14],"right_children":[2,4,6,8,10,12,14,16,18,20,22,24,26,28,30,-1,-1,-1,-1,-1,-1,-1,-1,-1,-1,-1,-1,-1,-1,-1,-1],"split_conditions":[5E0,9E0,5E0,1E0,3E0,7E0,1.6E1,2E0,4E0,1.4E1,2E1,3E0,1E0,6E0,7E0,-3.5935946E0,-2.6660278E0,-1.9118327E0,-1.137207E-2,-1.2303877E0,2.4136579E-1,6.704603E-1,2.8399272E0,-5.608147E-1,5.241894E-1,5.47596E-1,1.7427636E0,1.4125558E0,2.561314E0,2.7451944E0,4.5646386E0],"split_indices":[0,1,1,1,0,0,1,0,0,1,1,1,1,0,0,0,0,0,0,0,0,0,0,0,0,0,0,0,0,0,0],"split_type":[0,0,0,0,0,0,0,0,0,0,0,0,0,0,0,0,0,0,0,0,0,0,0,0,0,0,0,0,0,0,0],"sum_hessian":[4.34E2,2.48E2,1.86E2,1.26E2,1.22E2,9.3E1,9.3E1,7.8E1,4.8E1,6.3E1,5.9E1,5.8E1,3.5E1,5.5E1,3.8E1,2.4E1,5.4E1,3.5E1,1.3E1,2.9E1,3.4E1,4.4E1,1.5E1,4.9E1,9E0,2.8E1,7E0,2.4E1,3.1E1,2.2E1,1.6E1],"tree_param":{"num_deleted":"0","num_feature":"2","num_nodes":"31","size_leaf_vector":"1"}},{"base_weights":[2.0458446E-1,-1.4236205E1,1.1633445E1,-2.7102457E1,-4.6929636E0,-6.237385E0,2.1432894E1,-3.3727148E0,-1.2307655E0,-9.181159E0,4.167659E0,-1.2682356E1,5.1385266E-1,1.714769E1,5.0526817E1,4.7400388E-1,-8.125514E-1,-7.477166E-2,3.7196264E0,-6.710126E-1,-1.5150688E0,6.1990285E-1,2.2350051E0,3.1840549E0,5.0582924E0],"categories":[],"categories_nodes":[],"categories_segments":[],"categories_sizes":[],"default_left":[0,0,0,0,0,0,0,0,0,0,0,0,0,0,0,0,0,0,0,0,0,0,0,0,0],"id":32,"left_children":[1,3,5,7,9,11,13,-1,-1,15,17,19,-1,21,23,-1,-1,-1,-1,-1,-1,-1,-1,-1,-1],"loss_changes":[6.948316E4,2.271096E4,4.1287887E4,1.3289379E4,4.3332295E3,6.935595E3,1.8083938E4,0E0,0E0,1.1214341E3,8.034297E3,1.3457402E3,0E0,1.3372863E4,7.2046875E1,0E0,0E0,0E0,0E0,0E0,0E0,0E0,0E0,0E0,0E0],"parents":[2147483647,0,0,1,1,2,2,3,3,4,4,5,5,6,6,9,9,10,10,11,11,13,13,14,14],"right_children":[2,4,6,8,10,12,14,-1,-1,16,18,20,-1,22,24,-1,-1,-1,-1,-1,-1,-1,-1,-1,-1],"split_conditions":[4E0,6E0,1E0,2E0,3E0,7E0,2.1E1,-3.3727148E0,-1.2307655E0,7E0,2.2E1,6E0,5.1385266E-1,6E0,2.3E1,4.7400388E-1,-8.125514E-1,-7.477166E-2,3.7196264E0,-6.710126E-1,-1.5150688E0,6.1990285E-1,2.2350051E0,3.1840549E0,5.0582924E0],"split_indices":[0,1,1,0,0,0,1,0,0,1,1,0,0,0,1,0,0,0,0,0,0,0,0,0,0],"split_type":[0,0,0,0,0,0,0,0,0,0,0,0,0,0,0,0,0,0,0,0,0,0,0,0,0],"sum_hessian":[4.19E2,1.85E2,2.34E2,7.8E1,1.07E2,8.3E1,1.51E2,3.3E1,4.5E1,7.1E1,3.6E1,5.5E1,2.8E1,1.33E2,1.8E1,4E0,6.7E1,3.3E1,3E0,3.4E1,2.1E1,7.2E1,6.1E1,1.2E1,6E0],"tree_param":{"num_deleted":"0","num_feature":"2","num_nodes":"25","size_leaf_vector":"1"}},{"base_weights":[2.9808173E-1,-1.036417E1,1.37401705E1,-2.2322803E1,3.8148205E0,1.5332674E0,2.6472565E1,-2.7336414E1,-1.2690825E1,-1.1019008E0,1.2771548E1,-1.1691158E1,8.121523E0,2.0314568E1,4.256062E1,-2.9216597E0,-1.8133986E0,-1.5081793E0,4.6592692E-1,-3.668586E-1,5.7963264E-1,5.848995E-1,2.5867028E0,-1.813623E0,-3.1761327E-1,4.4189468E-1,2.5850682E0,5.802034E-1,1.9688483E0,2.7075746E0,4.711434E0],"categories":[],"categories_nodes":[],"categories_segments":[],"categories_sizes":[],"default_left":[0,0,0,0,0,0,0,0,0,0,0,0,0,0,0,0,0,0,0,0,0,0,0,0,0,0,0,0,0,0,0],"id":33,"left_children":[1,3,5,7,9,11,13,15,17,19,21,23,25,27,29,-1,-1,-1,-1,-1,-1,-1,-1,-1,-1,-1,-1,-1,-1,-1,-1],"loss_changes":[5.9621418E4,3.942339E4,2.8557266E4,5.737742E3,4.7261113E3,8.37191E3,8.051715E3,2.6884102E3,5.2433096E3,2.068869E3,3.8225996E3,2.622628E3,3.8436865E3,3.581213E3,1.4232188E3,0E0,0E0,0E0,0E0,0E0,0E0,0E0,0E0,0E0,0E0,0E0,0E0,0E0,0E0,0E0,0E0],"parents":[2147483647,0,0,1,1,2,2,3,3,4,4,5,5,6,6,7,7,8,8,9,9,10,10,11,11,12,12,13,13,14,14],"right_children":[2,4,6,8,10,12,14,16,18,20,22,24,26,28,30,-1,-1,-1,-1,-1,-1,-1,-1,-1,-1,-1,-1,-1,-1,-1,-1],"split_conditions":[9E0,5E0,4E0,1E0,7E0,2E0,2E1,2E0,4E0,3E0,4E0,1.3E1,2.3E1,5E0,2.3E1,-2.9216597E0,-1.8133986E0,-1.5081793E0,4.6592692E-1,-3.668586E-1,5.7963264E-1,5.848995E-1,2.5867028E0,-1.813623E0,-3.1761327E-1,4.4189468E-1,2.5850682E0,5.802034E-1,1.9688483E0,2.7075746E0,4.711434E0],"split_indices":[1,0,0,1,0,0,1,0,0,1,1,1,1,0,1,0,0,0,0,0,0,0,0,0,0,0,0,0,0,0,0],"split_type":[0,0,0,0,0,0,0,0,0,0,0,0,0,0,0,0,0,0,0,0,0,0,0,0,0,0,0,0,0,0,0],"sum_hessian":[4.14E2,2.31E2,1.83E2,1.25E2,1.06E2,9.4E1,8.9E1,8.1E1,4.4E1,6.9E1,3.7E1,3.1E1,6.3E1,6.6E1,2.3E1,2.5E1,5.6E1,3.3E1,1.1E1,4.9E1,2E1,3E1,7E0,1.2E1,1.9E1,5.8E1,5E0,1.7E1,4.9E1,1.7E1,6E0],"tree_param":{"num_deleted":"0","num_feature":"2","num_nodes":"31","size_leaf_vector":"1"}},{"base_weights":[5.107864E-1,-9.418632E0,1.2879074E1,-1.8586575E1,5.8503973E-1,-5.945836E0,2.1661398E1,-2.8235073E1,-1.3888654E1,-3.3551488E0,1.1706088E1,-1.4991598E1,2.70813E0,1.8017717E1,4.9263603E1,-2.6366198E0,7.6208985E-1,-1.0333949E0,-2.8126595E0,-3.7553447E-1,1.9693969E-1,1.2668291E0,-2.8270647E-1,-2.6727135E0,-5.107659E-1,-5.037982E-1,9.2355835E-1,4.5145583E-1,1.7206999E0,2.516268E0,4.6951694E0],"categories":[],"categories_nodes":[],"categories_segments":[],"categories_sizes":[],"default_left":[0,0,0,0,0,0,0,0,0,0,0,0,0,0,0,0,0,0,0,0,0,0,0,0,0,0,0,0,0,0,0],"id":34,"left_children":[1,3,5,7,9,11,13,15,17,19,21,23,25,27,29,-1,-1,-1,-1,-1,-1,-1,-1,-1,-1,-1,-1,-1,-1,-1,-1],"loss_changes":[5.047336E4,2.0921459E4,3.038354E4,5.001871E3,4.8593687E3,4.6592207E3,1.1684086E4,7.0906445E3,1.2397529E3,6.502548E2,1.8809246E3,4.3837305E3,2.5395786E3,4.717004E3,5.0433203E2,0E0,0E0,0E0,0E0,0E0,0E0,0E0,0E0,0E0,0E0,0E0,0E0,0E0,0E0,0E0,0E0],"parents":[2147483647,0,0,1,1,2,2,3,3,4,4,5,5,6,6,7,7,8,8,9,9,10,10,11,11,12,12,13,13,14,14],"right_children":[2,4,6,8,10,12,14,16,18,20,22,24,26,28,30,-1,-1,-1,-1,-1,-1,-1,-1,-1,-1,-1,-1,-1,-1,-1,-1],"split_conditions":[9E0,5E0,3E0,2E0,4E0,2E0,2.2E1,6E0,8E0,1E0,8E0,1.3E1,1.6E1,4E0,2.3E1,-2.6366198E0,7.6208985E-1,-1.0333949E0,-2.8126595E0,-3.7553447E-1,1.9693969E-1,1.2668291E0,-2.8270647E-1,-2.6727135E0,-5.107659E-1,-5.037982E-1,9.2355835E-1,4.5145583E-1,1.7206999E0,2.516268E0,4.6951694E0],"split_indices":[1,0,0,0,1,0,1,1,1,1,1,1,1,0,1,0,0,0,0,0,0,0,0,0,0,0,0,0,0,0,0],"split_type":[0,0,0,0,0,0,0,0,0,0,0,0,0,0,0,0,0,0,0,0,0,0,0,0,0,0,0,0,0,0,0],"sum_hessian":[4.09E2,2.27E2,1.82E2,1.18E2,1.09E2,5.8E1,1.24E2,3.7E1,8.1E1,8.1E1,2.8E1,2.8E1,3E1,1.11E2,1.3E1,3.3E1,4E0,7.9E1,2E0,6.6E1,1.5E1,2.2E1,6E0,8E0,2E1,1.5E1,1.5E1,2.5E1,8.6E1,6E0,7E0],"tree_param":{"num_deleted":"0","num_feature":"2","num_nodes":"31","size_leaf_vector":"1"}},{"base_weights":[4.7885552E-1,-9.9043255E0,1.4897281E1,-2.2353455E1,3.5526254E0,3.6519308E0,2.5614008E1,-2.8277138E1,-1.23100195E1,-9.573529E0,7.9851327E0,-3.6827586E0,1.6210276E1,1.8430244E1,3.984611E1,-2.5819712E0,-1.812085E0,9.466308E-2,-1.4501339E0,-1.8757983E0,-3.639986E-1,2.4993825E-1,1.5513252E0,-4.043182E-1,2.6138964E-1,1.4223799E0,-4.328841E-1,9.408467E-1,1.9018538E0,1.9173198E0,3.7270074E0],"categories":[],"categories_nodes":[],"categories_segments":[],"categories_sizes":[],"default_left":[0,0,0,0,0,0,0,0,0,0,0,0,0,0,0,0,0,0,0,0,0,0,0,0,0,0,0,0,0,0,0],"id":35,"left_children":[1,3,5,7,9,11,13,15,17,19,21,23,25,27,29,-1,-1,-1,-1,-1,-1,-1,-1,-1,-1,-1,-1,-1,-1,-1,-1],"loss_changes":[6.437276E4,4.1961246E4,2.1598855E4,7.3861406E3,7.116441E3,8.257627E3,8.671715E3,1.0906562E3,3.9457456E3,2.0539043E3,4.9849644E3,5.5973193E2,1.2160342E3,1.9654512E3,2.0950234E3,0E0,0E0,0E0,0E0,0E0,0E0,0E0,0E0,0E0,0E0,0E0,0E0,0E0,0E0,0E0,0E0],"parents":[2147483647,0,0,1,1,2,2,3,3,4,4,5,5,6,6,7,7,8,8,9,9,10,10,11,11,12,12,13,13,14,14],"right_children":[2,4,6,8,10,12,14,16,18,20,22,24,26,28,30,-1,-1,-1,-1,-1,-1,-1,-1,-1,-1,-1,-1,-1,-1,-1,-1],"split_conditions":[5E0,9E0,5E0,1E0,2E0,7E0,7E0,3E0,3E0,1.2E1,2E1,3E0,3E0,1.4E1,1.1E1,-2.5819712E0,-1.812085E0,9.466308E-2,-1.4501339E0,-1.8757983E0,-3.639986E-1,2.4993825E-1,1.5513252E0,-4.043182E-1,2.6138964E-1,1.4223799E0,-4.328841E-1,9.408467E-1,1.9018538E0,1.9173198E0,3.7270074E0],"split_indices":[0,1,1,1,0,0,0,0,1,1,1,1,1,1,1,0,0,0,0,0,0,0,0,0,0,0,0,0,0,0,0],"split_type":[0,0,0,0,0,0,0,0,0,0,0,0,0,0,0,0,0,0,0,0,0,0,0,0,0,0,0,0,0,0,0],"sum_hessian":[4.28E2,2.49E2,1.79E2,1.29E2,1.2E2,8.8E1,9.1E1,8E1,4.9E1,3E1,9E1,5.6E1,3.2E1,6.2E1,2.9E1,4.4E1,3.6E1,1.5E1,3.4E1,7E0,2.3E1,6.4E1,2.6E1,4.7E1,9E0,3E1,2E0,2.9E1,3.3E1,1E1,1.9E1],"tree_param":{"num_deleted":"0","num_feature":"2","num_nodes":"31","size_leaf_vector":"1"}},{"base_weights":[-9.4336915E-1,-1.7788458E1,8.035924E0,-2.406598E1,-3.6184983E0,-2.6185389E0,1.712431E1,-2.3650382E0,-1.9304035E1,5.8716707E-2,-5.8431363E-1,-1.2969808E1,6.5534415E0,1.0984254E1,2.968725E1,-1.2608184E0,-2.1372259E0,-1.4907957E0,-7.3596776E-1,1.4120801E-1,1.5047538E0,4.0443218E-1,1.4370558E0,1.7603549E0,3.3922167E0],"categories":[],"categories_nodes":[],"categories_segments":[],"categories_sizes":[],"default_left":[0,0,0,0,0,0,0,0,0,0,0,0,0,0,0,0,0,0,0,0,0,0,0,0,0],"id":36,"left_children":[1,3,5,7,9,11,13,-1,15,-1,-1,17,19,21,23,-1,-1,-1,-1,-1,-1,-1,-1,-1,-1],"loss_changes":[6.351963E4,1.2899941E4,2.6576771E4,2.0731328E3,7.432304E2,1.2142585E4,1.1090207E4,0E0,1.0760176E3,0E0,0E0,1.1100918E3,3.9574355E3,4.0882793E3,3.7560977E3,0E0,0E0,0E0,0E0,0E0,0E0,0E0,0E0,0E0,0E0],"parents":[2147483647,0,0,1,1,2,2,3,3,4,4,5,5,6,6,8,8,11,11,12,12,13,13,14,14],"right_children":[2,4,6,8,10,12,14,-1,16,-1,-1,18,20,22,24,-1,-1,-1,-1,-1,-1,-1,-1,-1,-1],"split_conditions":[1E0,6E0,4E0,3E0,7E0,1.2E1,1.6E1,-2.3650382E0,5E0,5.8716707E-2,-5.8431363E-1,2E0,2.1E1,6E0,7E0,-1.2608184E0,-2.1372259E0,-1.4907957E0,-7.3596776E-1,1.4120801E-1,1.5047538E0,4.0443218E-1,1.4370558E0,1.7603549E0,3.3922167E0],"split_indices":[1,0,0,0,0,1,1,0,0,0,0,0,1,0,0,0,0,0,0,0,0,0,0,0,0],"split_type":[0,0,0,0,0,0,0,0,0,0,0,0,0,0,0,0,0,0,0,0,0,0,0,0,0],"sum_hessian":[4.18E2,1.45E2,2.73E2,1E2,4.5E1,1.26E2,1.47E2,4.4E1,5.6E1,2.1E1,2.4E1,5.9E1,6.7E1,1E2,4.7E1,4E1,1.6E1,2.2E1,3.7E1,4.9E1,1.8E1,5.5E1,4.5E1,3.1E1,1.6E1],"tree_param":{"num_deleted":"0","num_feature":"2","num_nodes":"25","size_leaf_vector":"1"}},{"base_weights":[2.2336864E0,-5.9543443E0,1.3572583E1,-9.097652E0,1.6771175E1,2.3432224E0,2.5843512E1,-2.072845E1,-4.0307684E0,9.787323E0,2.310254E1,-1.8280829E0,8.9985695E0,2.0736359E1,3.310801E1,-2.1400402E0,-1.0945807E0,-6.967023E-1,1.5713459E-1,1.4020593E0,1.4569987E-1,1.293868E0,3.0491576E0,-2.0824099E-1,1.7215037E-1,8.9279974E-1,-8.866284E-1,2.481091E0,1.3212302E0,3.533883E0,2.1101058E0],"categories":[],"categories_nodes":[],"categories_segments":[],"categories_sizes":[],"default_left":[0,0,0,0,0,0,0,0,0,0,0,0,0,0,0,0,0,0,0,0,0,0,0,0,0,0,0,0,0,0,0],"id":37,"left_children":[1,3,5,7,9,11,13,15,17,19,21,23,25,27,29,-1,-1,-1,-1,-1,-1,-1,-1,-1,-1,-1,-1,-1,-1,-1,-1],"loss_changes":[3.8982133E4,1.7582305E4,2.4191309E4,1.2586809E4,1.1004082E3,2.598268E3,2.4299336E3,2.3921074E3,4.2518164E3,9.543983E2,9.4386865E2,1.8448445E2,1.6862488E3,1.7435684E3,1.2930234E3,0E0,0E0,0E0,0E0,0E0,0E0,0E0,0E0,0E0,0E0,0E0,0E0,0E0,0E0,0E0,0E0],"parents":[2147483647,0,0,1,1,2,2,3,3,4,4,5,5,6,6,7,7,8,8,9,9,10,10,11,11,12,12,13,13,14,14],"right_children":[2,4,6,8,10,12,14,16,18,20,22,24,26,28,30,-1,-1,-1,-1,-1,-1,-1,-1,-1,-1,-1,-1,-1,-1,-1,-1],"split_conditions":[5E0,2E1,5E0,2E0,3E0,7E0,1.6E1,5E0,9E0,2.2E1,2.2E1,3E0,3E0,8E0,1.9E1,-2.1400402E0,-1.0945807E0,-6.967023E-1,1.5713459E-1,1.4020593E0,1.4569987E-1,1.293868E0,3.0491576E0,-2.0824099E-1,1.7215037E-1,8.9279974E-1,-8.866284E-1,2.481091E0,1.3212302E0,3.533883E0,2.1101058E0],"split_indices":[0,1,1,0,0,0,1,1,1,1,1,1,1,1,1,0,0,0,0,0,0,0,0,0,0,0,0,0,0,0,0],"split_type":[0,0,0,0,0,0,0,0,0,0,0,0,0,0,0,0,0,0,0,0,0,0,0,0,0,0,0,0,0,0,0],"sum_hessian":[4.18E2,2.43E2,1.75E2,2.14E2,2.9E1,9.2E1,8.3E1,6.4E1,1.5E2,1.5E1,1.4E1,5.7E1,3.5E1,5.1E1,3.2E1,3.3E1,3.1E1,8.4E1,6.6E1,7E0,8E0,1.1E1,3E0,4.8E1,9E0,3.2E1,3E0,1.3E1,3.8E1,1E1,2.2E1],"tree_param":{"num_deleted":"0","num_feature":"2","num_nodes":"31","size_leaf_vector":"1"}},{"base_weights":[-1.5206795E0,-1.7091602E1,4.7646613E0,-3.1186142E1,-5.647531E0,-2.8865697E0,1.4929368E1,-3.4650513E1,-1.9868742E1,-1.409864E1,2.723476E0,-8.588783E0,1.4967634E1,1.1052347E1,3.2316837E1,-2.16759E0,-3.7397656E0,-1.7702147E-1,-2.278036E0,-1.2339777E0,-5.4241765E-1,-3.0263877E-1,7.8681576E-1,-1.0590725E0,-1.7001674E-1,7.634198E-1,1.8549322E0,7.767294E-1,1.9679872E0,1.2951758E0,2.9645145E0],"categories":[],"categories_nodes":[],"categories_segments":[],"categories_sizes":[],"default_left":[0,0,0,0,0,0,0,0,0,0,0,0,0,0,0,0,0,0,0,0,0,0,0,0,0,0,0,0,0,0,0],"id":38,"left_children":[1,3,5,7,9,11,13,15,17,19,21,23,25,27,29,-1,-1,-1,-1,-1,-1,-1,-1,-1,-1,-1,-1,-1,-1,-1,-1],"loss_changes":[4.1186227E4,1.9341043E4,2.337485E4,1.4287539E3,4.84901E3,1.7639613E4,8.338914E3,2.3892852E3,2.2163877E3,2.2538037E2,1.6567312E3,3.908833E3,1.6514004E3,1.7082793E3,1.1580977E3,0E0,0E0,0E0,0E0,0E0,0E0,0E0,0E0,0E0,0E0,0E0,0E0,0E0,0E0,0E0,0E0],"parents":[2147483647,0,0,1,1,2,2,3,3,4,4,5,5,6,6,7,7,8,8,9,9,10,10,11,11,12,12,13,13,14,14],"right_children":[2,4,6,8,10,12,14,16,18,20,22,24,26,28,30,-1,-1,-1,-1,-1,-1,-1,-1,-1,-1,-1,-1,-1,-1,-1,-1],"split_conditions":[3E0,6E0,9E0,1E0,2E0,7E0,7E0,2E0,2E0,2E1,1.6E1,1E0,1E0,2.2E1,1.6E1,-2.16759E0,-3.7397656E0,-1.7702147E-1,-2.278036E0,-1.2339777E0,-5.4241765E-1,-3.0263877E-1,7.8681576E-1,-1.0590725E0,-1.7001674E-1,7.634198E-1,1.8549322E0,7.767294E-1,1.9679872E0,1.2951758E0,2.9645145E0],"split_indices":[0,1,1,1,0,0,0,0,1,1,1,1,1,1,1,0,0,0,0,0,0,0,0,0,0,0,0,0,0,0,0],"split_type":[0,0,0,0,0,0,0,0,0,0,0,0,0,0,0,0,0,0,0,0,0,0,0,0,0,0,0,0,0,0,0],"sum_hessian":[4.19E2,1.2E2,2.99E2,5.3E1,6.7E1,1.71E2,1.28E2,3.9E1,1.4E1,3.3E1,3.4E1,1.3E2,4.1E1,1.06E2,2.2E1,2.6E1,1.3E1,5E0,9E0,2.7E1,6E0,1.8E1,1.6E1,7.5E1,5.5E1,2.6E1,1.5E1,9.8E1,8E0,6E0,1.6E1],"tree_param":{"num_deleted":"0","num_feature":"2","num_nodes":"31","size_leaf_vector":"1"}},{"base_weights":[5.7099843E-1,-7.4868298E0,7.2249823E0,-1.4957164E1,6.3327825E-1,-2.9829603E-1,1.4882865E1,-1.651139E1,-8.398066E0,-3.761629E0,1.0310547E1,-3.3303297E0,6.900478E0,1.0578009E1,2.6583862E1,-1.8209926E0,-9.026054E-1,3.142634E-1,-1.0872396E0,-6.962649E-1,4.6525948E-2,5.8498627E-1,2.7086132E0,-4.111446E-1,-2.2933349E-2,2.3356625E-1,1.4461164E0,6.729743E-1,3.483908E0,1.33462E0,2.4026222E0],"categories":[],"categories_nodes":[],"categories_segments":[],"categories_sizes":[],"default_left":[0,0,0,0,0,0,0,0,0,0,0,0,0,0,0,0,0,0,0,0,0,0,0,0,0,0,0,0,0,0,0],"id":39,"left_children":[1,3,5,7,9,11,13,15,17,19,21,23,25,27,29,-1,-1,-1,-1,-1,-1,-1,-1,-1,-1,-1,-1,-1,-1,-1,-1],"loss_changes":[2.251947E4,1.1534856E4,1.3255287E4,8.705762E2,3.951609E3,2.576731E3,5.4611035E3,2.325332E3,1.397466E3,1.3786765E3,1.7998047E3,4.5551807E2,1.5043901E3,5.7034443E3,5.2341406E2,0E0,0E0,0E0,0E0,0E0,0E0,0E0,0E0,0E0,0E0,0E0,0E0,0E0,0E0,0E0,0E0],"parents":[2147483647,0,0,1,1,2,2,3,3,4,4,5,5,6,6,7,7,8,8,9,9,10,10,11,11,12,12,13,13,14,14],"right_children":[2,4,6,8,10,12,14,16,18,20,22,24,26,28,30,-1,-1,-1,-1,-1,-1,-1,-1,-1,-1,-1,-1,-1,-1,-1,-1],"split_conditions":[4E0,9E0,6E0,5E0,3E0,7E0,7E0,2E0,2E0,2E0,2.2E1,6E0,1E0,2.3E1,1.1E1,-1.8209926E0,-9.026054E-1,3.142634E-1,-1.0872396E0,-6.962649E-1,4.6525948E-2,5.8498627E-1,2.7086132E0,-4.111446E-1,-2.2933349E-2,2.3356625E-1,1.4461164E0,6.729743E-1,3.483908E0,1.33462E0,2.4026222E0],"split_indices":[0,1,1,1,0,0,0,0,0,0,1,0,1,1,1,0,0,0,0,0,0,0,0,0,0,0,0,0,0,0,0],"split_type":[0,0,0,0,0,0,0,0,0,0,0,0,0,0,0,0,0,0,0,0,0,0,0,0,0,0,0,0,0,0,0],"sum_hessian":[4.18E2,1.89E2,2.29E2,9.8E1,9.1E1,1.16E2,1.13E2,7.8E1,2E1,6.3E1,2.8E1,8.2E1,3.4E1,8.4E1,2.9E1,3.4E1,4.4E1,6E0,1.4E1,2.9E1,3.4E1,2.6E1,2E0,5.1E1,3.1E1,2.6E1,8E0,8E1,4E0,9E0,2E1],"tree_param":{"num_deleted":"0","num_feature":"2","num_nodes":"31","size_leaf_vector":"1"}},{"base_weights":[-3.958063E-1,-4.5811734E0,1.4212665E1,-1.6919542E1,1.5568684E-1,1.128775E1,2.7766136E1,-1.5870833E1,-2.8609009E0,-5.5883145E0,4.732442E0,9.136516E0,2.3755705E1,-1.0465137E0,3.13614E1,-1.5270823E0,-8.7357783E-1,-9.626074E-1,-3.0837107E-1,-5.083507E-2,1.1918842E0,4.8959336E-1,1.0109491E0,-1.1611035E0,2.3227227E0,1.996727E0,3.8920767E0],"categories":[],"categories_nodes":[],"categories_segments":[],"categories_sizes":[],"default_left":[0,0,0,0,0,0,0,0,0,0,0,0,0,0,0,0,0,0,0,0,0,0,0,0,0,0,0],"id":40,"left_children":[1,3,5,7,9,11,13,15,-1,17,19,21,23,-1,25,-1,-1,-1,-1,-1,-1,-1,-1,-1,-1,-1,-1],"loss_changes":[2.5805814E4,1.9172639E4,3.413E3,1.2305527E3,6.2832017E3,1.9018535E3,2.7599766E3,1.193502E3,0E0,1.1378813E3,7.267339E3,6.512451E2,2.6433833E3,0E0,4.4611426E2,0E0,0E0,0E0,0E0,0E0,0E0,0E0,0E0,0E0,0E0,0E0,0E0],"parents":[2147483647,0,0,1,1,2,2,3,3,4,4,5,5,6,6,7,7,9,9,10,10,11,11,12,12,14,14],"right_children":[2,4,6,8,10,12,14,16,-1,18,20,22,24,-1,26,-1,-1,-1,-1,-1,-1,-1,-1,-1,-1,-1,-1],"split_conditions":[1.6E1,3E0,7E0,1.5E1,1E0,2.3E1,1.7E1,6E0,-2.8609009E0,4E0,6E0,4E0,2E0,-1.0465137E0,2.2E1,-1.5270823E0,-8.7357783E-1,-9.626074E-1,-3.0837107E-1,-5.083507E-2,1.1918842E0,4.8959336E-1,1.0109491E0,-1.1611035E0,2.3227227E0,1.996727E0,3.8920767E0],"split_indices":[1,0,0,1,1,1,1,1,0,0,0,0,0,0,1,0,0,0,0,0,0,0,0,0,0,0,0],"split_type":[0,0,0,0,0,0,0,0,0,0,0,0,0,0,0,0,0,0,0,0,0,0,0,0,0,0,0],"sum_hessian":[4.2E2,3.27E2,9.3E1,9E1,2.37E2,7.8E1,1.5E1,8.7E1,3E0,1.05E2,1.32E2,6.8E1,1E1,1E0,1.4E1,5.1E1,3.6E1,2.1E1,8.4E1,8.7E1,4.5E1,3.8E1,3E1,1E0,9E0,1.2E1,2E0],"tree_param":{"num_deleted":"0","num_feature":"2","num_nodes":"27","size_leaf_vector":"1"}},{"base_weights":[1.6210203E0,-4.7232413E0,1.0212014E1,-7.6867495E0,1.5150211E1,2.4659584E0,1.8104431E1,-1.5311648E1,-4.6660957E0,1.0336504E1,2.2639415E0,-5.438447E0,6.0091114E0,1.1811429E1,3.0717142E1,-1.7475053E0,-6.797017E-1,-6.5288687E-1,-1.93917E-2,2.060547E-2,1.0274687E0,-5.1569897E-1,1.9774413E-1,5.9954625E-1,-3.1199327E-1,4.8185056E-1,1.4073519E0,1.7917279E0,2.95919E0],"categories":[],"categories_nodes":[],"categories_segments":[],"categories_sizes":[],"default_left":[0,0,0,0,0,0,0,0,0,0,0,0,0,0,0,0,0,0,0,0,0,0,0,0,0,0,0,0,0],"id":41,"left_children":[1,3,5,7,9,11,13,15,17,19,-1,21,23,25,27,-1,-1,-1,-1,-1,-1,-1,-1,-1,-1,-1,-1,-1,-1],"loss_changes":[2.3103219E4,1.4486869E4,1.0959672E4,4.834409E3,1.7329473E3,2.60928E3,6.7012793E3,2.4855625E3,2.3789827E3,6.283528E2,0E0,2.4711816E2,9.7111865E2,1.9350449E3,6.851367E2,0E0,0E0,0E0,0E0,0E0,0E0,0E0,0E0,0E0,0E0,0E0,0E0,0E0,0E0],"parents":[2147483647,0,0,1,1,2,2,3,3,4,4,5,5,6,6,7,7,8,8,9,9,11,11,12,12,13,13,14,14],"right_children":[2,4,6,8,10,12,14,16,18,20,-1,22,24,26,28,-1,-1,-1,-1,-1,-1,-1,-1,-1,-1,-1,-1,-1,-1],"split_conditions":[5E0,2E1,5E0,2E0,4E0,6E0,7E0,5E0,9E0,2.1E1,2.2639415E0,3E0,3E0,1.4E1,1.6E1,-1.7475053E0,-6.797017E-1,-6.5288687E-1,-1.93917E-2,2.060547E-2,1.0274687E0,-5.1569897E-1,1.9774413E-1,5.9954625E-1,-3.1199327E-1,4.8185056E-1,1.4073519E0,1.7917279E0,2.95919E0],"split_indices":[0,1,1,0,0,0,0,1,1,1,0,1,1,1,1,0,0,0,0,0,0,0,0,0,0,0,0,0,0],"split_type":[0,0,0,0,0,0,0,0,0,0,0,0,0,0,0,0,0,0,0,0,0,0,0,0,0,0,0,0,0],"sum_hessian":[4.22E2,2.43E2,1.79E2,2.12E2,3.1E1,9.1E1,8.8E1,5.9E1,1.53E2,2.4E1,7E0,2.8E1,6.3E1,6E1,2.8E1,2.9E1,3E1,8.5E1,6.8E1,5E0,1.9E1,2.5E1,3E0,5.5E1,8E0,3.1E1,2.9E1,1.4E1,1.4E1],"tree_param":{"num_deleted":"0","num_feature":"2","num_nodes":"29","size_leaf_vector":"1"}},{"base_weights":[3.8886282E-1,-1.5015581E1,3.34681E0,-2.1163394E0,-2.7988532E0,2.3257515E0,3.2253162E1,-7.6608233E0,1.7048862E1,-1.5524225E0,9.8301935E0,9.949414E-1,3.248541E0,-3.1762055E-1,-2.9673696E0,2.829602E0,-4.427612E-1,-5.0550216E-1,4.9036063E-2,4.0499324E-1,1.6001664E0],"categories":[],"categories_nodes":[],"categories_segments":[],"categories_sizes":[],"default_left":[0,0,0,0,0,0,0,0,0,0,0,0,0,0,0,0,0,0,0,0,0],"id":42,"left_children":[1,3,5,-1,7,9,11,13,15,17,19,-1,-1,-1,-1,-1,-1,-1,-1,-1,-1],"loss_changes":[1.9233342E4,9.428483E3,1.0373324E4,0E0,3.4115742E3,9.997772E3,1.4814424E3,2.894043E3,3.0920322E3,2.346726E3,5.572926E3,0E0,0E0,0E0,0E0,0E0,0E0,0E0,0E0,0E0,0E0],"parents":[2147483647,0,0,1,1,2,2,4,4,5,5,6,6,7,7,8,8,9,9,10,10],"right_children":[2,4,6,-1,8,10,12,14,16,18,20,-1,-1,-1,-1,-1,-1,-1,-1,-1,-1],"split_conditions":[2E0,7E0,2.3E1,-2.1163394E0,2E1,6E0,3E0,1.7E1,2.2E1,1E0,1.1E1,9.949414E-1,3.248541E0,-3.1762055E-1,-2.9673696E0,2.829602E0,-4.427612E-1,-5.0550216E-1,4.9036063E-2,4.0499324E-1,1.6001664E0],"split_indices":[0,1,1,0,1,0,0,1,1,1,1,0,0,0,0,0,0,0,0,0,0],"split_type":[0,0,0,0,0,0,0,0,0,0,0,0,0,0,0,0,0,0,0,0,0],"sum_hessian":[4.2E2,6.7E1,3.53E2,3.4E1,3.3E1,3.42E2,1.1E1,2.7E1,6E0,2.26E2,1.16E2,4E0,7E0,2.5E1,2E0,3E0,3E0,7E1,1.56E2,8E1,3.6E1],"tree_param":{"num_deleted":"0","num_feature":"2","num_nodes":"21","size_leaf_vector":"1"}},{"base_weights":[6.6191316E-1,-1.0223715E1,5.3511333E0,-1.2649158E1,-2.8580692E0,-3.0337012E-1,1.3134157E1,-1.4040126E1,-1.0608194E1,6.2378154E0,-7.084011E0,-3.4304738E0,8.667735E0,9.481169E0,2.81121E1,-9.6035635E-1,-1.8307725E0,-1.0223361E0,-6.3639957E-1,1.2616797E-1,2.1137989E0,-2.8563416E-1,-1.0580542E0,-5.07713E-1,4.86543E-2,2.8709114E-1,1.4119445E0,6.3058126E-1,2.4043624E0,1.3041449E0,2.6398706E0],"categories":[],"categories_nodes":[],"categories_segments":[],"categories_sizes":[],"default_left":[0,0,0,0,0,0,0,0,0,0,0,0,0,0,0,0,0,0,0,0,0,0,0,0,0,0,0,0,0,0,0],"id":43,"left_children":[1,3,5,7,9,11,13,15,17,19,21,23,25,27,29,-1,-1,-1,-1,-1,-1,-1,-1,-1,-1,-1,-1,-1,-1,-1,-1],"loss_changes":[2.1697832E4,2.2505615E3,1.3074697E4,1.2359668E2,1.312665E3,4.8830034E3,6.572748E3,6.975283E2,1.4602637E2,9.931542E2,4.4910168E2,1.5230238E3,1.9894851E3,3.118372E3,8.4706836E2,0E0,0E0,0E0,0E0,0E0,0E0,0E0,0E0,0E0,0E0,0E0,0E0,0E0,0E0,0E0,0E0],"parents":[2147483647,0,0,1,1,2,2,3,3,4,4,5,5,6,6,7,7,8,8,9,9,10,10,11,11,12,12,13,13,14,14],"right_children":[2,4,6,8,10,12,14,16,18,20,22,24,26,28,30,-1,-1,-1,-1,-1,-1,-1,-1,-1,-1,-1,-1,-1,-1,-1,-1],"split_conditions":[3E0,1.6E1,9E0,2E0,1.8E1,7E0,7E0,1.2E1,6E0,1.7E1,2.2E1,1E0,1E0,2.3E1,1.6E1,-9.6035635E-1,-1.8307725E0,-1.0223361E0,-6.3639957E-1,1.2616797E-1,2.1137989E0,-2.8563416E-1,-1.0580542E0,-5.07713E-1,4.86543E-2,2.8709114E-1,1.4119445E0,6.3058126E-1,2.4043624E0,1.3041449E0,2.6398706E0],"split_indices":[0,1,1,0,1,0,0,1,1,1,1,1,1,1,1,0,0,0,0,0,0,0,0,0,0,0,0,0,0,0,0],"split_type":[0,0,0,0,0,0,0,0,0,0,0,0,0,0,0,0,0,0,0,0,0,0,0,0,0,0,0,0,0,0,0],"sum_hessian":[4.23E2,1.27E2,2.96E2,9.5E1,3.2E1,1.72E2,1.24E2,5.3E1,4.2E1,1E1,2.2E1,1.28E2,4.4E1,1.01E2,2.3E1,4.5E1,8E0,2.1E1,2.1E1,9E0,1E0,1.5E1,7E0,7.4E1,5.4E1,2.9E1,1.5E1,9.5E1,6E0,8E0,1.5E1],"tree_param":{"num_deleted":"0","num_feature":"2","num_nodes":"31","size_leaf_vector":"1"}},{"base_weights":[-2.8613207E-1,-4.5534043E0,7.8355255E0,-1.1079595E1,2.3647937E-1,2.246281E0,1.6327068E1,-1.3320807E1,-6.488269E0,-4.241924E0,5.706799E0,-3.153655E0,5.704642E0,1.443522E1,2.6492205E0,-9.805787E-1,-1.3287683E0,-7.36258E-1,-1.1325872E-2,-5.4406136E-1,9.588059E-2,1.6083398E0,7.129173E-2,7.3441625E-2,-1.0739716E0,1.9663354E0,1.8964614E-1,1.5689951E0,6.643641E-1],"categories":[],"categories_nodes":[],"categories_segments":[],"categories_sizes":[],"default_left":[0,0,0,0,0,0,0,0,0,0,0,0,0,0,0,0,0,0,0,0,0,0,0,0,0,0,0,0,0],"id":44,"left_children":[1,3,5,7,9,11,13,15,17,19,21,23,25,27,-1,-1,-1,-1,-1,-1,-1,-1,-1,-1,-1,-1,-1,-1,-1],"loss_changes":[1.4487781E4,8.567775E3,6.797754E3,1.1072266E3,3.9194373E3,1.661384E3,1.3323359E3,6.575E1,6.87937E2,1.2332175E3,4.9740684E3,1.476029E3,3.339898E3,1.5193379E3,0E0,0E0,0E0,0E0,0E0,0E0,0E0,0E0,0E0,0E0,0E0,0E0,0E0,0E0,0E0],"parents":[2147483647,0,0,1,1,2,2,3,3,4,4,5,5,6,6,7,7,8,8,9,9,10,10,11,11,12,12,13,13],"right_children":[2,4,6,8,10,12,14,16,18,20,22,24,26,28,-1,-1,-1,-1,-1,-1,-1,-1,-1,-1,-1,-1,-1,-1,-1],"split_conditions":[1.2E1,4E0,5E0,3E0,1E0,1.6E1,2.3E1,9E0,7E0,7E0,3E0,4E0,1.7E1,1.7E1,2.6492205E0,-9.805787E-1,-1.3287683E0,-7.36258E-1,-1.1325872E-2,-5.4406136E-1,9.588059E-2,1.6083398E0,7.129173E-2,7.3441625E-2,-1.0739716E0,1.9663354E0,1.8964614E-1,1.5689951E0,6.643641E-1],"split_indices":[1,0,0,0,1,1,1,1,1,0,1,0,1,1,0,0,0,0,0,0,0,0,0,0,0,0,0,0,0],"split_type":[0,0,0,0,0,0,0,0,0,0,0,0,0,0,0,0,0,0,0,0,0,0,0,0,0,0,0,0,0],"sum_hessian":[4.16E2,2.73E2,1.43E2,1.15E2,1.58E2,8.7E1,5.6E1,7.6E1,3.9E1,8.7E1,7.1E1,3.4E1,5.3E1,5.2E1,4E0,6.1E1,1.5E1,2.7E1,1.2E1,5.9E1,2.8E1,1.7E1,5.4E1,2.5E1,9E0,7E0,4.6E1,2.7E1,2.5E1],"tree_param":{"num_deleted":"0","num_feature":"2","num_nodes":"29","size_leaf_vector":"1"}},{"base_weights":[-1.0062876E0,-9.157492E0,3.3842015E0,-1.6033817E1,-1.0522231E0,1.3745571E0,1.6273952E1,-1.720766E0,-1.0523002E0,3.004182E-1,-2.5743823E0,-3.9052384E0,4.36781E0,-3.3930316E0,2.0189919E1,-4.5833293E-1,2.8203123E-3,-6.390791E-1,-3.3693645E-2,2.399134E-1,1.7413068E0,7.2256833E-1,-1.1975927E0,1.2459638E0,2.9459896E0],"categories":[],"categories_nodes":[],"categories_segments":[],"categories_sizes":[],"default_left":[0,0,0,0,0,0,0,0,0,0,0,0,0,0,0,0,0,0,0,0,0,0,0,0,0],"id":45,"left_children":[1,3,5,7,9,11,13,-1,-1,-1,15,17,19,21,23,-1,-1,-1,-1,-1,-1,-1,-1,-1,-1],"loss_changes":[1.5133431E4,8.23183E3,7.1011787E3,9.7871094E2,5.1458905E2,3.7941562E3,2.9180693E3,0E0,0E0,0E0,4.3654178E2,1.2343254E3,3.5786804E3,1.1421198E3,1.80654E3,0E0,0E0,0E0,0E0,0E0,0E0,0E0,0E0,0E0,0E0],"parents":[2147483647,0,0,1,1,2,2,3,3,4,4,5,5,6,6,10,10,11,11,12,12,13,13,14,14],"right_children":[2,4,6,8,10,12,14,-1,-1,-1,16,18,20,22,24,-1,-1,-1,-1,-1,-1,-1,-1,-1,-1],"split_conditions":[1E0,5E0,7E0,2E0,6E0,3E0,4E0,-1.720766E0,-1.0523002E0,3.004182E-1,7E0,1.2E1,2.2E1,3E0,2.1E1,-4.5833293E-1,2.8203123E-3,-6.390791E-1,-3.3693645E-2,2.399134E-1,1.7413068E0,7.2256833E-1,-1.1975927E0,1.2459638E0,2.9459896E0],"split_indices":[1,0,0,0,0,0,1,0,0,0,0,1,1,1,1,0,0,0,0,0,0,0,0,0,0],"split_type":[0,0,0,0,0,0,0,0,0,0,0,0,0,0,0,0,0,0,0,0,0,0,0,0,0],"sum_hessian":[4.21E2,1.47E2,2.74E2,7.9E1,6.8E1,2.38E2,3.6E1,2.5E1,5.4E1,1.6E1,5.2E1,8.6E1,1.52E2,6E0,3E1,2.3E1,2.9E1,3.9E1,4.7E1,1.42E2,1E1,3E0,3E0,2.5E1,5E0],"tree_param":{"num_deleted":"0","num_feature":"2","num_nodes":"25","size_leaf_vector":"1"}},{"base_weights":[1.3790313E0,-1.4734733E0,8.441104E0,-5.7613187E0,3.4243743E0,6.038962E0,1.36553955E1,-1.3991631E1,-3.0599167E0,2.2241294E0,1.5255737E1,7.425257E0,-1.0178548E0,1.8796035E0,6.9366403E0,-1.2076261E0,1.1620996E0,4.0779296E-1,-4.13707E-1,-9.21935E-2,3.8085207E-1,1.521765E0,-2.9114908E-1,4.4775653E-1,2.128299E0,3.3077928E-1,-7.5486976E-1,-7.2517043E-1,1.5210874E0],"categories":[],"categories_nodes":[],"categories_segments":[],"categories_sizes":[],"default_left":[0,0,0,0,0,0,0,0,0,0,0,0,0,0,0,0,0,0,0,0,0,0,0,0,0,0,0,0,0],"id":46,"left_children":[1,3,5,7,9,11,13,15,17,19,21,23,25,-1,27,-1,-1,-1,-1,-1,-1,-1,-1,-1,-1,-1,-1,-1,-1],"loss_changes":[8.61418E3,6.4250986E3,1.458168E3,3.5812275E3,1.9967456E3,8.488816E2,2.34921E3,1.4782803E3,2.1620806E3,1.1274603E3,9.94374E2,2.3757104E3,6.896345E2,0E0,4.8102695E3,0E0,0E0,0E0,0E0,0E0,0E0,0E0,0E0,0E0,0E0,0E0,0E0,0E0,0E0],"parents":[2147483647,0,0,1,1,2,2,3,3,4,4,5,5,6,6,7,7,8,8,9,9,10,10,11,11,12,12,14,14],"right_children":[2,4,6,8,10,12,14,16,18,20,22,24,26,-1,28,-1,-1,-1,-1,-1,-1,-1,-1,-1,-1,-1,-1,-1,-1],"split_conditions":[6E0,9E0,1.2E1,2E0,2.2E1,8E0,1.7E1,8E0,3E0,3E0,5E0,6E0,7E0,1.8796035E0,7E0,-1.2076261E0,1.1620996E0,4.0779296E-1,-4.13707E-1,-9.21935E-2,3.8085207E-1,1.521765E0,-2.9114908E-1,4.4775653E-1,2.128299E0,3.3077928E-1,-7.5486976E-1,-7.2517043E-1,1.5210874E0],"split_indices":[0,1,1,0,1,1,1,1,0,0,0,1,0,0,0,0,0,0,0,0,0,0,0,0,0,0,0,0,0],"split_type":[0,0,0,0,0,0,0,0,0,0,0,0,0,0,0,0,0,0,0,0,0,0,0,0,0,0,0,0,0],"sum_hessian":[4.26E2,3.04E2,1.22E2,1.62E2,1.42E2,8.5E1,3.7E1,3.9E1,1.23E2,1.3E2,1.2E1,7.1E1,1.4E1,1.4E1,2.3E1,3.8E1,1E0,2.5E1,9.8E1,5.6E1,7.4E1,1E1,2E0,6.6E1,5E0,9E0,5E0,1E1,1.3E1],"tree_param":{"num_deleted":"0","num_feature":"2","num_nodes":"29","size_leaf_vector":"1"}},{"base_weights":[7.7251494E-1,-5.0357714E0,5.471117E0,-1.0970396E1,1.2116169E0,-1.7318966E0,9.676515E0,-1.2889276E1,-7.562203E0,3.1642044E-1,1.2036656E1,-4.6989822E-1,-5.4915124E-1,6.545746E0,1.9418503E1,-1.1838537E0,-5.752326E-1,4.1523272E-1,-7.773599E-1,-1.6743228E-1,1.2631476E-1,-1.162832E0,1.5110319E0,-1.4916109E-1,1.2138454E-1,8.120797E-1,1.9883662E-1,1.0183042E0,1.9505596E0],"categories":[],"categories_nodes":[],"categories_segments":[],"categories_sizes":[],"default_left":[0,0,0,0,0,0,0,0,0,0,0,0,0,0,0,0,0,0,0,0,0,0,0,0,0,0,0,0,0],"id":47,"left_children":[1,3,5,7,9,11,13,15,17,19,21,-1,23,25,27,-1,-1,-1,-1,-1,-1,-1,-1,-1,-1,-1,-1,-1,-1],"loss_changes":[1.1407825E4,6.9464873E3,7.0141035E3,5.303594E2,8.8772064E2,4.180654E2,4.325878E3,5.463076E2,1.0671682E3,2.6489984E2,1.5489044E3,0E0,1.8766263E2,1.6142661E3,8.517959E2,0E0,0E0,0E0,0E0,0E0,0E0,0E0,0E0,0E0,0E0,0E0,0E0,0E0,0E0],"parents":[2147483647,0,0,1,1,2,2,3,3,4,4,5,5,6,6,7,7,8,8,9,9,10,10,12,12,13,13,14,14],"right_children":[2,4,6,8,10,12,14,16,18,20,22,-1,24,26,28,-1,-1,-1,-1,-1,-1,-1,-1,-1,-1,-1,-1,-1,-1],"split_conditions":[4E0,9E0,1E0,1E0,2.3E1,5E0,7E0,3E0,2E0,2E0,2E0,-4.6989822E-1,7E0,1.3E1,1.1E1,-1.1838537E0,-5.752326E-1,4.1523272E-1,-7.773599E-1,-1.6743228E-1,1.2631476E-1,-1.162832E0,1.5110319E0,-1.4916109E-1,1.2138454E-1,8.120797E-1,1.9883662E-1,1.0183042E0,1.9505596E0],"split_indices":[0,1,1,1,1,0,0,0,1,0,0,0,0,1,1,0,0,0,0,0,0,0,0,0,0,0,0,0,0],"split_type":[0,0,0,0,0,0,0,0,0,0,0,0,0,0,0,0,0,0,0,0,0,0,0,0,0,0,0,0,0],"sum_hessian":[4.16E2,1.86E2,2.3E2,9.5E1,9.1E1,8.5E1,1.45E2,5.9E1,3.6E1,8.5E1,6E0,1.8E1,6.7E1,1.11E2,3.4E1,4.3E1,1.6E1,5E0,3.1E1,2.9E1,5.6E1,1E0,5E0,4.1E1,2.6E1,5.8E1,5.3E1,1.6E1,1.8E1],"tree_param":{"num_deleted":"0","num_feature":"2","num_nodes":"29","size_leaf_vector":"1"}},{"base_weights":[-2.5469244E-1,-2.947635E0,5.152247E0,-6.042438E0,-5.350035E-1,-5.7942367E0,1.0064547E1,-6.5152307E0,-3.820699E0,-4.232335E0,3.7691255E0,-1.0328689E1,7.157625E-1,8.257066E0,2.5699203E0,-4.0965638E-1,-7.563193E-1,-1.0600377E-1,-5.3197175E-1,-9.412328E-2,-8.1583846E-1,7.9386306E-1,1.29104E-1,-6.5863204E-1,-2.5089355E0,2.1071999E-1,-1.3666233E-1,1.0205764E0,2.8619397E-1],"categories":[],"categories_nodes":[],"categories_segments":[],"categories_sizes":[],"default_left":[0,0,0,0,0,0,0,0,0,0,0,0,0,0,0,0,0,0,0,0,0,0,0,0,0,0,0,0,0],"id":48,"left_children":[1,3,5,7,9,11,13,15,17,19,21,23,25,27,-1,-1,-1,-1,-1,-1,-1,-1,-1,-1,-1,-1,-1,-1,-1],"loss_changes":[6.1306294E3,2.0948872E3,7.586453E3,1.0430908E2,2.5462454E3,1.3062408E3,3.6023389E3,3.6140674E2,1.6063058E2,1.5557633E3,9.655382E2,8.879011E2,9.2847466E1,1.8707344E3,0E0,0E0,0E0,0E0,0E0,0E0,0E0,0E0,0E0,0E0,0E0,0E0,0E0,0E0,0E0],"parents":[2147483647,0,0,1,1,2,2,3,3,4,4,5,5,6,6,7,7,8,8,9,9,10,10,11,11,12,12,13,13],"right_children":[2,4,6,8,10,12,14,16,18,20,22,24,26,28,-1,-1,-1,-1,-1,-1,-1,-1,-1,-1,-1,-1,-1,-1,-1],"split_conditions":[1.2E1,4E0,3E0,9E0,1E0,2E1,2.3E1,2E0,1.1E1,7E0,3E0,1.9E1,2.2E1,1.7E1,2.5699203E0,-4.0965638E-1,-7.563193E-1,-1.0600377E-1,-5.3197175E-1,-9.412328E-2,-8.1583846E-1,7.9386306E-1,1.29104E-1,-6.5863204E-1,-2.5089355E0,2.1071999E-1,-1.3666233E-1,1.0205764E0,2.8619397E-1],"split_indices":[1,0,0,1,1,1,1,1,1,0,1,1,1,1,0,0,0,0,0,0,0,0,0,0,0,0,0,0,0],"split_type":[0,0,0,0,0,0,0,0,0,0,0,0,0,0,0,0,0,0,0,0,0,0,0,0,0,0,0,0,0],"sum_hessian":[4.19E2,2.8E2,1.39E2,1.22E2,1.58E2,4.3E1,9.6E1,9.9E1,2.3E1,8.5E1,7.3E1,2.5E1,1.8E1,9E1,6E0,6.9E1,3E1,1.3E1,1E1,5.7E1,2.8E1,1.8E1,5.5E1,2.4E1,1E0,1E1,8E0,4.5E1,4.5E1],"tree_param":{"num_deleted":"0","num_feature":"2","num_nodes":"29","size_leaf_vector":"1"}},{"base_weights":[-6.389119E-1,-7.4986854E0,3.0007508E0,-1.3181229E1,-3.2975485E0,-9.498794E-1,8.546505E0,-7.6749974E-1,-1.5142916E1,2.1202475E-1,-4.7798896E0,-2.377673E0,5.298572E0,5.6215878E0,1.4971412E1,-1.4751233E0,-9.151693E-1,-4.434589E-1,-2.8618553E-1,-1.2842736E-1,-1.1550207E0,-1.1172472E-1,1.0822502E0,-1.1225155E-1,8.304932E-1,2.0690398E0,7.315676E-1],"categories":[],"categories_nodes":[],"categories_segments":[],"categories_sizes":[],"default_left":[0,0,0,0,0,0,0,0,0,0,0,0,0,0,0,0,0,0,0,0,0,0,0,0,0,0,0],"id":49,"left_children":[1,3,5,7,9,11,13,-1,15,-1,17,19,21,23,25,-1,-1,-1,-1,-1,-1,-1,-1,-1,-1,-1,-1],"loss_changes":[1.0733457E4,3.5136318E3,6.1646104E3,2.980869E2,7.797259E2,1.4846455E3,2.114538E3,0E0,2.6512012E2,0E0,4.4428467E1,1.2342637E3,1.7269297E3,2.7562166E3,2.048171E3,0E0,0E0,0E0,0E0,0E0,0E0,0E0,0E0,0E0,0E0,0E0,0E0],"parents":[2147483647,0,0,1,1,2,2,3,3,4,4,5,5,6,6,8,8,10,10,11,11,12,12,13,13,14,14],"right_children":[2,4,6,8,10,12,14,-1,16,-1,18,20,22,24,26,-1,-1,-1,-1,-1,-1,-1,-1,-1,-1,-1,-1],"split_conditions":[1E0,4E0,5E0,2E0,5E0,2E1,7E0,-7.6749974E-1,3E0,2.1202475E-1,7E0,1.9E1,3E0,9E0,8E0,-1.4751233E0,-9.151693E-1,-4.434589E-1,-2.8618553E-1,-1.2842736E-1,-1.1550207E0,-1.1172472E-1,1.0822502E0,-1.1225155E-1,8.304932E-1,2.0690398E0,7.315676E-1],"split_indices":[1,0,0,0,0,1,0,0,0,0,0,1,0,1,1,0,0,0,0,0,0,0,0,0,0,0,0],"split_type":[0,0,0,0,0,0,0,0,0,0,0,0,0,0,0,0,0,0,0,0,0,0,0,0,0,0,0],"sum_hessian":[4.28E2,1.48E2,2.8E2,6.2E1,8.6E1,1.64E2,1.16E2,2.4E1,3.8E1,1.7E1,6.9E1,1.34E2,3E1,8.1E1,3.5E1,1.8E1,2E1,4E1,2.9E1,1.27E2,7E0,1.7E1,1.3E1,3.3E1,4.8E1,1.1E1,2.4E1],"tree_param":{"num_deleted":"0","num_feature":"2","num_nodes":"27","size_leaf_vector":"1"}},{"base_weights":[8.101837E-1,-2.710498E0,5.2490644E0,-4.283744E0,9.626247E0,6.748721E-1,9.96508E0,-5.8841963E0,-1.3844701E0,1.6205217E1,6.974865E0,2.4716563E0,-6.7369194E0,8.550913E0,2.628912E0,-3.3890772E-1,-7.026133E-1,1.7563254E-1,-3.46779E-1,2.6772437E0,-4.085132E-1,2.0071594E-1,1.4177197E0,1.4143799E-1,7.4851424E-1,-9.072184E-1,8.081298E-2,4.043732E-1,1.2391737E0],"categories":[],"categories_nodes":[],"categories_segments":[],"categories_sizes":[],"default_left":[0,0,0,0,0,0,0,0,0,0,0,0,0,0,0,0,0,0,0,0,0,0,0,0,0,0,0,0,0],"id":50,"left_children":[1,3,5,7,9,11,13,15,17,19,21,23,25,27,-1,-1,-1,-1,-1,-1,-1,-1,-1,-1,-1,-1,-1,-1,-1],"loss_changes":[6.609196E3,4.621698E3,4.027232E3,9.662849E2,3.5794165E2,1.2951207E3,2.6978926E3,6.0758594E2,8.121975E2,2.745809E3,9.634023E2,3.6134354E2,6.890379E2,2.0565513E3,0E0,0E0,0E0,0E0,0E0,0E0,0E0,0E0,0E0,0E0,0E0,0E0,0E0,0E0,0E0],"parents":[2147483647,0,0,1,1,2,2,3,3,4,4,5,5,6,6,7,7,8,8,9,9,10,10,11,11,12,12,13,13],"right_children":[2,4,6,8,10,12,14,16,18,20,22,24,26,28,-1,-1,-1,-1,-1,-1,-1,-1,-1,-1,-1,-1,-1,-1,-1],"split_conditions":[5E0,2E1,5E0,1.1E1,2E0,2E0,2.3E1,3E0,1.4E1,2.2E1,2.3E1,1E0,4E0,7E0,2.628912E0,-3.3890772E-1,-7.026133E-1,1.7563254E-1,-3.46779E-1,2.6772437E0,-4.085132E-1,2.0071594E-1,1.4177197E0,1.4143799E-1,7.4851424E-1,-9.072184E-1,8.081298E-2,4.043732E-1,1.2391737E0],"split_indices":[0,1,1,1,0,1,1,1,1,1,1,1,1,0,0,0,0,0,0,0,0,0,0,0,0,0,0,0,0],"split_type":[0,0,0,0,0,0,0,0,0,0,0,0,0,0,0,0,0,0,0,0,0,0,0,0,0,0,0,0,0],"sum_hessian":[4.21E2,2.35E2,1.86E2,2.09E2,2.6E1,9.5E1,9.1E1,1.34E2,7.5E1,6E0,2E1,7.7E1,1.8E1,8.7E1,4E0,8.7E1,4.7E1,3.4E1,4.1E1,3E0,3E0,1.5E1,5E0,7.1E1,6E0,1.1E1,7E0,5.9E1,2.8E1],"tree_param":{"num_deleted":"0","num_feature":"2","num_nodes":"29","size_leaf_vector":"1"}},{"base_weights":[-1.4872266E-1,-3.4475613E0,4.39717E0,-5.9699926E0,5.40657E-1,3.7300642E0,2.3121561E1,-1.148449E1,-3.6891866E0,-4.0228295E0,5.2830253E0,1.9860125E0,6.6509824E0,1.2926733E1,2.963828E0,-1.220036E0,-1.8602051E-1,-6.7513734E-2,-6.054093E-1,2.5418911E-2,-7.649303E-1,2.4896018E-1,1.8665136E0,2.3208499E-1,-9.6187633E-1,1.0657604E-1,8.9374995E-1,1.6265918E0,9.697265E-2],"categories":[],"categories_nodes":[],"categories_segments":[],"categories_sizes":[],"default_left":[0,0,0,0,0,0,0,0,0,0,0,0,0,0,0,0,0,0,0,0,0,0,0,0,0,0,0,0,0],"id":51,"left_children":[1,3,5,7,9,11,13,15,17,19,21,23,25,27,-1,-1,-1,-1,-1,-1,-1,-1,-1,-1,-1,-1,-1,-1,-1],"loss_changes":[6.4185225E3,2.4981096E3,2.162162E3,1.8694116E3,2.120501E3,8.7828174E2,3.7294922E2,1.4822446E3,1.196446E3,1.2051143E3,1.8081995E3,1.4578303E3,1.5480833E3,4.0912494E2,0E0,0E0,0E0,0E0,0E0,0E0,0E0,0E0,0E0,0E0,0E0,0E0,0E0,0E0,0E0],"parents":[2147483647,0,0,1,1,2,2,3,3,4,4,5,5,6,6,7,7,8,8,9,9,10,10,11,11,12,12,13,13],"right_children":[2,4,6,8,10,12,14,16,18,20,22,24,26,28,-1,-1,-1,-1,-1,-1,-1,-1,-1,-1,-1,-1,-1,-1,-1],"split_conditions":[5E0,1.2E1,2.3E1,2E0,3E0,7E0,7E0,5E0,3E0,1.8E1,2.2E1,1.9E1,1E0,6E0,2.963828E0,-1.220036E0,-1.8602051E-1,-6.7513734E-2,-6.054093E-1,2.5418911E-2,-7.649303E-1,2.4896018E-1,1.8665136E0,2.3208499E-1,-9.6187633E-1,1.0657604E-1,8.9374995E-1,1.6265918E0,9.697265E-2],"split_indices":[0,1,1,0,0,0,0,1,1,1,1,1,1,0,0,0,0,0,0,0,0,0,0,0,0,0,0,0,0],"split_type":[0,0,0,0,0,0,0,0,0,0,0,0,0,0,0,0,0,0,0,0,0,0,0,0,0,0,0,0,0],"sum_hessian":[4.26E2,2.47E2,1.79E2,1.51E2,9.6E1,1.74E2,5E0,4.3E1,1.08E2,4.9E1,4.7E1,1.1E2,6.4E1,4E0,1E0,3E1,1.3E1,6.3E1,4.5E1,2.8E1,2.1E1,4.3E1,4E0,1.04E2,6E0,3E1,3.4E1,2E0,2E0],"tree_param":{"num_deleted":"0","num_feature":"2","num_nodes":"29","size_leaf_vector":"1"}},{"base_weights":[-1.3743384E-1,-3.0736403E0,4.2164617E0,-9.875153E0,3.852051E-1,1.592879E0,1.1160185E1,-1.337183E0,-6.461848E0,-3.1079772E-1,1.6636526E1,5.8504357E0,-3.6636448E0,2.0216078E1,5.354643E0,-1.6028881E-1,-1.2044184E0,6.117554E-1,-9.3058735E-2,7.6901954E-1,1.8237858E0,4.6625532E-2,6.476874E-1,-1.1036923E0,-9.7140536E-2,2.2006896E0,8.3697915E-2,-2.4997497E-1,1.1233828E0],"categories":[],"categories_nodes":[],"categories_segments":[],"categories_sizes":[],"default_left":[0,0,0,0,0,0,0,0,0,0,0,0,0,0,0,0,0,0,0,0,0,0,0,0,0,0,0,0,0],"id":52,"left_children":[1,3,5,7,9,11,13,-1,15,17,19,21,23,25,27,-1,-1,-1,-1,-1,-1,-1,-1,-1,-1,-1,-1,-1,-1],"loss_changes":[5.4589165E3,6.0027764E3,3.1156216E3,1.8997266E3,1.9280348E3,2.8413076E3,2.362745E3,0E0,2.2302048E3,1.1213839E3,8.375989E1,8.233291E2,1.3978992E3,2.487565E3,2.253839E3,0E0,0E0,0E0,0E0,0E0,0E0,0E0,0E0,0E0,0E0,0E0,0E0,0E0,0E0],"parents":[2147483647,0,0,1,1,2,2,3,3,4,4,5,5,6,6,8,8,9,9,10,10,11,11,12,12,13,13,14,14],"right_children":[2,4,6,8,10,12,14,-1,16,18,20,22,24,26,28,-1,-1,-1,-1,-1,-1,-1,-1,-1,-1,-1,-1,-1,-1],"split_conditions":[5E0,1E0,1.4E1,2E0,2.3E1,2E0,1.7E1,-1.337183E0,4E0,3E0,3E0,6E0,4E0,7E0,2.1E1,-1.6028881E-1,-1.2044184E0,6.117554E-1,-9.3058735E-2,7.6901954E-1,1.8237858E0,4.6625532E-2,6.476874E-1,-1.1036923E0,-9.7140536E-2,2.2006896E0,8.3697915E-2,-2.4997497E-1,1.1233828E0],"split_indices":[0,1,1,0,1,1,1,0,0,1,0,0,1,0,1,0,0,0,0,0,0,0,0,0,0,0,0,0,0],"split_type":[0,0,0,0,0,0,0,0,0,0,0,0,0,0,0,0,0,0,0,0,0,0,0,0,0,0,0,0,0],"sum_hessian":[4.25E2,2.54E2,1.71E2,8.5E1,1.69E2,1.25E2,4.6E1,2.7E1,5.8E1,1.63E2,6E0,6.9E1,5.6E1,1.7E1,2.9E1,3.9E1,1.9E1,1.5E1,1.48E2,4E0,2E0,2.1E1,4.8E1,1E1,4.6E1,1.2E1,5E0,1.5E1,1.4E1],"tree_param":{"num_deleted":"0","num_feature":"2","num_nodes":"29","size_leaf_vector":"1"}},{"base_weights":[-7.9962903E-1,-4.274685E0,5.7037263E0,-1.0098091E1,2.4010344E0,3.3479316E0,1.3365521E1,-1.2144059E0,-4.9483232E0,-5.4207504E-1,7.841482E0,1.2906521E1,1.5208219E0,7.091675E0,1.740263E1,-8.407679E-2,-1.293988E0,-2.0559537E-1,3.4771913E-1,8.5343397E-1,-7.220843E-1,-5.933457E-1,1.539437E0,-3.035737E-1,3.9348665E-1,1.392631E0,-1.376009E-1,1.9686088E-1,2.172705E0],"categories":[],"categories_nodes":[],"categories_segments":[],"categories_sizes":[],"default_left":[0,0,0,0,0,0,0,0,0,0,0,0,0,0,0,0,0,0,0,0,0,0,0,0,0,0,0,0,0],"id":53,"left_children":[1,3,5,7,9,11,13,-1,15,17,19,21,23,25,27,-1,-1,-1,-1,-1,-1,-1,-1,-1,-1,-1,-1,-1,-1],"loss_changes":[9.470982E3,1.0637238E4,2.5904966E3,3.7458555E3,2.0537651E3,1.9538705E3,7.377451E2,0E0,3.2207856E3,8.4389246E2,2.2416702E3,2.4607202E3,1.752499E3,1.3934904E3,2.8486812E3,0E0,0E0,0E0,0E0,0E0,0E0,0E0,0E0,0E0,0E0,0E0,0E0,0E0,0E0],"parents":[2147483647,0,0,1,1,2,2,3,3,4,4,5,5,6,6,8,8,9,9,10,10,11,11,12,12,13,13,14,14],"right_children":[2,4,6,8,10,12,14,-1,16,18,20,22,24,26,28,-1,-1,-1,-1,-1,-1,-1,-1,-1,-1,-1,-1,-1,-1],"split_conditions":[1.2E1,5E0,2.1E1,1E0,7E0,1.3E1,3E0,-1.2144059E0,1E1,5E0,8E0,2E0,1.6E1,2.2E1,2.2E1,-8.407679E-2,-1.293988E0,-2.0559537E-1,3.4771913E-1,8.5343397E-1,-7.220843E-1,-5.933457E-1,1.539437E0,-3.035737E-1,3.9348665E-1,1.392631E0,-1.376009E-1,1.9686088E-1,2.172705E0],"split_indices":[1,0,1,1,0,1,0,0,1,1,1,0,1,1,1,0,0,0,0,0,0,0,0,0,0,0,0,0,0],"split_type":[0,0,0,0,0,0,0,0,0,0,0,0,0,0,0,0,0,0,0,0,0,0,0,0,0,0,0,0,0],"sum_hessian":[4.17E2,2.72E2,1.45E2,1.45E2,1.27E2,1.12E2,3.3E1,7.2E1,7.3E1,8.3E1,4.4E1,1.7E1,9.5E1,1.4E1,1.9E1,5.5E1,1.8E1,5.9E1,2.4E1,3.8E1,6E0,4E0,1.3E1,3.7E1,5.8E1,6E0,8E0,8E0,1.1E1],"tree_param":{"num_deleted":"0","num_feature":"2","num_nodes":"29","size_leaf_vector":"1"}},{"base_weights":[9.152185E-2,-3.2195015E0,4.7189097E0,-6.161494E0,-2.27416E-1,2.494927E0,1.3933928E1,-4.8423276E0,-9.8027725E0,-5.0774E0,5.1196413E0,-1.0046191E0,4.329846E0,6.3269715E0,2.3147608E1,-6.3404286E-1,-1.9750379E-1,-6.368855E-1,-1.1466198E0,-1.0905518E-1,-1.1759907E0,2.953684E0,2.2053517E-1,2.8617278E-1,-3.5566473E-1,1.5202877E-1,7.1820706E-1,2.0522606E0,-9.4540477E-1,2.3114574E0,1.1606835E0],"categories":[],"categories_nodes":[],"categories_segments":[],"categories_sizes":[],"default_left":[0,0,0,0,0,0,0,0,0,0,0,0,0,0,0,0,0,0,0,0,0,0,0,0,0,0,0,0,0,0,0],"id":54,"left_children":[1,3,5,7,9,11,13,15,17,19,21,23,25,27,29,-1,-1,-1,-1,-1,-1,-1,-1,-1,-1,-1,-1,-1,-1,-1,-1],"loss_changes":[6.465497E3,2.1640608E3,3.5721873E3,5.4816016E2,3.215771E3,9.2260767E2,2.2365396E3,6.610156E2,1.5286768E2,2.3030566E3,4.331786E3,8.0424194E2,1.0443523E3,7.316488E3,3.2535205E2,0E0,0E0,0E0,0E0,0E0,0E0,0E0,0E0,0E0,0E0,0E0,0E0,0E0,0E0,0E0,0E0],"parents":[2147483647,0,0,1,1,2,2,3,3,4,4,5,5,6,6,7,7,8,8,9,9,10,10,11,11,12,12,13,13,14,14],"right_children":[2,4,6,8,10,12,14,16,18,20,22,24,26,28,30,-1,-1,-1,-1,-1,-1,-1,-1,-1,-1,-1,-1,-1,-1,-1,-1],"split_conditions":[5E0,9E0,1.6E1,4E0,3E0,6E0,7E0,2E0,3E0,1.9E1,1E1,2E0,5E0,6E0,2.1E1,-6.3404286E-1,-1.9750379E-1,-6.368855E-1,-1.1466198E0,-1.0905518E-1,-1.1759907E0,2.953684E0,2.2053517E-1,2.8617278E-1,-3.5566473E-1,1.5202877E-1,7.1820706E-1,2.0522606E0,-9.4540477E-1,2.3114574E0,1.1606835E0],"split_indices":[0,1,1,0,0,0,0,0,1,1,1,1,1,0,1,0,0,0,0,0,0,0,0,0,0,0,0,0,0,0,0],"split_type":[0,0,0,0,0,0,0,0,0,0,0,0,0,0,0,0,0,0,0,0,0,0,0,0,0,0,0,0,0,0,0],"sum_hessian":[4.2E2,2.45E2,1.75E2,1.23E2,1.22E2,1.42E2,3.3E1,9.2E1,3.1E1,6.4E1,5.8E1,4.9E1,9.3E1,1.9E1,1.4E1,3.9E1,5.3E1,2.4E1,7E0,4.7E1,1.7E1,3E0,5.5E1,2.1E1,2.8E1,6.2E1,3.1E1,9E0,1E1,7E0,7E0],"tree_param":{"num_deleted":"0","num_feature":"2","num_nodes":"31","size_leaf_vector":"1"}},{"base_weights":[-4.4738126E-1,-2.6704035E0,2.5668604E0,-5.1680713E0,-1.4570748E0,-1.6438303E0,7.0765285E0,-1.1560098E0,-1.403813E0,-5.5317354E0,2.7306023E0,1.3101298E0,-6.264719E0,4.7796435E0,1.1743093E1,-1.3641189E-1,1.6434005E-2,4.9206543E-1,-5.055277E-1,1.3426624E-1,1.5385058E0,2.4241775E-1,-2.88761E-1,-8.2154834E-1,4.7801563E-1,5.2243555E-1,-3.1451082E-1,2.9828124E0,7.59941E-1],"categories":[],"categories_nodes":[],"categories_segments":[],"categories_sizes":[],"default_left":[0,0,0,0,0,0,0,0,0,0,0,0,0,0,0,0,0,0,0,0,0,0,0,0,0,0,0,0,0],"id":55,"left_children":[1,3,5,7,9,11,13,15,-1,17,19,21,23,25,27,-1,-1,-1,-1,-1,-1,-1,-1,-1,-1,-1,-1,-1,-1],"loss_changes":[2.9350718E3,7.561538E2,3.5435527E3,4.0524646E3,2.9329402E3,1.33225E3,9.0854297E2,4.7450134E1,0E0,8.391272E2,1.4436025E3,5.186719E2,1.9239844E3,9.7125305E2,1.3078672E3,0E0,0E0,0E0,0E0,0E0,0E0,0E0,0E0,0E0,0E0,0E0,0E0,0E0,0E0],"parents":[2147483647,0,0,1,1,2,2,3,3,4,4,5,5,6,6,7,7,9,9,10,10,11,11,12,12,13,13,14,14],"right_children":[2,4,6,8,10,12,14,16,-1,18,20,22,24,26,28,-1,-1,-1,-1,-1,-1,-1,-1,-1,-1,-1,-1,-1,-1],"split_conditions":[5E0,1E0,6E0,4E0,3E0,7E0,7E0,3E0,-1.403813E0,2E0,2.2E1,2E0,1E0,1.9E1,7E0,-1.3641189E-1,1.6434005E-2,4.9206543E-1,-5.055277E-1,1.3426624E-1,1.5385058E0,2.4241775E-1,-2.88761E-1,-8.2154834E-1,4.7801563E-1,5.2243555E-1,-3.1451082E-1,2.9828124E0,7.59941E-1],"split_indices":[0,1,1,0,0,0,0,0,0,1,1,1,1,1,1,0,0,0,0,0,0,0,0,0,0,0,0,0,0],"split_type":[0,0,0,0,0,0,0,0,0,0,0,0,0,0,0,0,0,0,0,0,0,0,0,0,0,0,0,0,0],"sum_hessian":[4.36E2,2.51E2,1.85E2,8.1E1,1.7E2,9.6E1,8.9E1,6.2E1,1.9E1,8.6E1,8.4E1,5.9E1,3.7E1,6.1E1,2.8E1,4.4E1,1.8E1,5E0,8.1E1,8E1,4E0,4.4E1,1.5E1,2.8E1,9E0,5.1E1,1E1,1E0,2.7E1],"tree_param":{"num_deleted":"0","num_feature":"2","num_nodes":"29","size_leaf_vector":"1"}},{"base_weights":[3.477158E-1,-3.0127373E0,4.980825E0,-6.8100214E0,1.2439982E0,2.2442083E0,1.1020637E1,-8.763412E0,-4.620767E0,1.9739448E-1,1.7213884E1,3.2237265E0,-3.1839278E0,2.6412748E1,5.9940157E0,-7.509452E-1,1.2703124E0,-2.5235766E-1,-8.905823E-1,-2.284205E-1,2.5527626E-1,-1.0174414E0,1.9457763E0,1.1896231E-1,1.0650573E0,-9.569751E-1,2.3468587E-1,3.5873706E0,1.3119775E0,-6.454701E-1,6.849496E-1],"categories":[],"categories_nodes":[],"categories_segments":[],"categories_sizes":[],"default_left":[0,0,0,0,0,0,0,0,0,0,0,0,0,0,0,0,0,0,0,0,0,0,0,0,0,0,0,0,0,0,0],"id":56,"left_children":[1,3,5,7,9,11,13,15,17,19,21,23,25,27,29,-1,-1,-1,-1,-1,-1,-1,-1,-1,-1,-1,-1,-1,-1,-1,-1],"loss_changes":[6.445146E3,3.88784E3,2.851253E3,5.0261768E2,1.9020145E3,6.536161E2,4.0196782E3,1.1629512E3,5.5684766E2,9.960463E2,1.798689E3,1.785009E3,1.0554114E3,1.663543E3,1.5857073E3,0E0,0E0,0E0,0E0,0E0,0E0,0E0,0E0,0E0,0E0,0E0,0E0,0E0,0E0,0E0,0E0],"parents":[2147483647,0,0,1,1,2,2,3,3,4,4,5,5,6,6,7,7,8,8,9,9,10,10,11,11,12,12,13,13,14,14],"right_children":[2,4,6,8,10,12,14,16,18,20,22,24,26,28,30,-1,-1,-1,-1,-1,-1,-1,-1,-1,-1,-1,-1,-1,-1,-1,-1],"split_conditions":[5E0,9E0,1.2E1,3E0,2.3E1,8E0,1.5E1,8E0,6E0,3E0,2E0,5E0,9E0,6E0,1.6E1,-7.509452E-1,1.2703124E0,-2.5235766E-1,-8.905823E-1,-2.284205E-1,2.5527626E-1,-1.0174414E0,1.9457763E0,1.1896231E-1,1.0650573E0,-9.569751E-1,2.3468587E-1,3.5873706E0,1.3119775E0,-6.454701E-1,6.849496E-1],"split_indices":[0,1,1,0,1,1,1,1,1,0,0,1,1,0,1,0,0,0,0,0,0,0,0,0,0,0,0,0,0,0,0],"split_type":[0,0,0,0,0,0,0,0,0,0,0,0,0,0,0,0,0,0,0,0,0,0,0,0,0,0,0,0,0,0,0],"sum_hessian":[4.12E2,2.39E2,1.73E2,1.26E2,1.13E2,1.2E2,5.3E1,6.5E1,6.1E1,1.07E2,6E0,1.02E2,1.8E1,1.2E1,4.1E1,6.4E1,1E0,5.1E1,1E1,5.3E1,5.4E1,1E0,5E0,8.8E1,1.4E1,7E0,1.1E1,3E0,9E0,6E0,3.5E1],"tree_param":{"num_deleted":"0","num_feature":"2","num_nodes":"31","size_leaf_vector":"1"}},{"base_weights":[-6.898596E-1,-1.9951004E0,6.0326624E0,-4.317329E0,-9.959075E-1,-7.5213866E0,8.155742E0,-4.8482E0,2.0994337E0,-6.244999E-1,-1.6181437E1,-2.5529752E0,2.5653381E0,5.8098683E0,1.725057E1,-1.8836485E-1,-7.043938E-1,-2.6754764E-1,1.14348724E-1,-1.6807051E0,3.1821775E-1,1.3823291E0,-1.6040598E-1,6.7431426E-1,8.744295E-2,1.0311025E0,2.6092088E0],"categories":[],"categories_nodes":[],"categories_segments":[],"categories_sizes":[],"default_left":[0,0,0,0,0,0,0,0,0,0,0,0,0,0,0,0,0,0,0,0,0,0,0,0,0,0,0],"id":57,"left_children":[1,3,5,7,9,11,13,15,-1,17,19,-1,21,23,25,-1,-1,-1,-1,-1,-1,-1,-1,-1,-1,-1,-1],"loss_changes":[3.7763005E3,8.3102795E2,2.075685E3,1.8793732E3,1.4168202E3,2.5420989E3,1.2012307E3,1.034999E3,0E0,1.3901528E3,6.6746204E2,0E0,5.726301E2,6.0847034E2,3.8383325E2,0E0,0E0,0E0,0E0,0E0,0E0,0E0,0E0,0E0,0E0,0E0,0E0],