{"learner":{"attributes":{},"feature_names":["day_of_week","hour_of_day"],"feature_types":[],"gradient_booster":{"model":{"cats":{"enc":[],"feature_segments":[],"sorted_idx":[]},"gbtree_model_param":{"num_parallel_tree":"1","num_trees":"80"},"iteration_indptr":[0,1,2,3,4,5,6,7,8,9,10,11,12,13,14,15,16,17,18,19,20,21,22,23,24,25,26,27,28,29,30,31,32,33,34,35,36,37,38,39,40,41,42,43,44,45,46,47,48,49,50,51,52,53,54,55,56,57,58,59,60,61,62,63,64,65,66,67,68,69,70,71,72,73,74,75,76,77,78,79,80],"tree_info":[0,0,0,0,0,0,0,0,0,0,0,0,0,0,0,0,0,0,0,0,0,0,0,0,0,0,0,0,0,0,0,0,0,0,0,0,0,0,0,0,0,0,0,0,0,0,0,0,0,0,0,0,0,0,0,0,0,0,0,0,0,0,0,0,0,0,0,0,0,0,0,0,0,0,0,0,0,0,0,0],"trees":[{"base_weights":[3.0325178E-2,-1.5902785E2,2.1269041E2,-2.9432312E2,6.7502003E0,7.5675865E1,4.0897314E2,-3.8891718E2,-2.023564E2,-6.092455E0,3.9437817E1,-6.5590614E1,1.3056973E2,2.9753024E2,4.940476E2,-3.3900326E1,-2.6411995E1,-1.9294218E1,-1.3289171E1,2.4482866E-1,5.5689607E0,-1.2635421E1,-4.6444964E-2,4.9261594E0,1.5098315E1,1.6058262E1,2.828064E1,3.3907486E1,4.6479668E1],"categories":[],"categories_nodes":[],"categories_segments":[],"categories_sizes":[],"default_left":[0,0,0,0,0,0,0,0,0,0,0,0,0,0,0,0,0,0,0,0,0,0,0,0,0,0,0,0,0],"id":0,"left_children":[1,3,5,7,9,11,13,15,17,-1,19,21,23,25,27,-1,-1,-1,-1,-1,-1,-1,-1,-1,-1,-1,-1,-1,-1],"loss_changes":[2.1580556E7,8.188568E6,7.311001E6,1.6699E6,4.5015275E5,1.2648195E6,9.14874E5,6.0731E4,1.0626E5,0E0,1.3040856E5,2.760839E5,4.578485E5,2.053975E5,1.32203E5,0E0,0E0,0E0,0E0,0E0,0E0,0E0,0E0,0E0,0E0,0E0,0E0,0E0,0E0],"parents":[2147483647,0,0,1,1,2,2,3,3,4,4,5,5,6,6,7,7,8,8,10,10,11,11,12,12,13,13,14,14],"right_children":[2,4,6,8,10,12,14,16,18,-1,20,22,24,26,28,-1,-1,-1,-1,-1,-1,-1,-1,-1,-1,-1,-1,-1,-1],"split_conditions":[1E0,5E0,5E0,3E0,6E0,2E0,1.1E1,2E0,4E0,-6.092455E0,7E0,1.1E1,1.2E1,6E0,7E0,-3.3900326E1,-2.6411995E1,-1.9294218E1,-1.3289171E1,2.4482866E-1,5.5689607E0,-1.2635421E1,-4.6444964E-2,4.9261594E0,1.5098315E1,1.6058262E1,2.828064E1,3.3907486E1,4.6479668E1],"split_indices":[1,0,0,0,0,0,1,0,0,0,0,1,1,0,0,0,0,0,0,0,0,0,0,0,0,0,0,0,0],"split_type":[0,0,0,0,0,0,0,0,0,0,0,0,0,0,0,0,0,0,0,0,0,0,0,0,0,0,0,0,0],"sum_hessian":[6.36E2,3.64E2,2.72E2,2E2,1.64E2,1.61E2,1.11E2,9.7E1,1.03E2,4.6E1,1.18E2,4.5E1,1.16E2,5E1,6.1E1,5.7E1,4E1,4.7E1,5.6E1,5.4E1,6.4E1,1.8E1,2.7E1,5.4E1,6.2E1,2E1,3E1,3.7E1,2.4E1],"tree_param":{"num_deleted":"0","num_feature":"2","num_nodes":"29","size_leaf_vector":"1"}},{"base_weights":[2.4326403E0,-1.4132741E2,1.9639406E2,-2.7384933E2,8.86395E0,2.2097185E1,3.3181384E2,-3.568869E2,-1.8801738E2,-5.9128246E0,4.5047188E1,-1.0256292E2,6.859362E1,2.3657896E2,4.3028653E2,-3.1039072E1,-2.4167204E1,-1.7723606E1,-1.2327822E1,8.711333E-1,5.720817E0,-1.3525034E1,-2.402384E0,-6.950498E-1,8.384259E0,1.417049E1,2.4943888E1,2.7674852E1,4.115149E1],"categories":[],"categories_nodes":[],"categories_segments":[],"categories_sizes":[],"default_left":[0,0,0,0,0,0,0,0,0,0,0,0,0,0,0,0,0,0,0,0,0,0,0,0,0,0,0,0,0],"id":1,"left_children":[1,3,5,7,9,11,13,15,17,-1,19,21,23,25,27,-1,-1,-1,-1,-1,-1,-1,-1,-1,-1,-1,-1,-1,-1],"loss_changes":[1.7817684E7,7.307066E6,6.412753E6,1.322719E6,5.2147147E5,7.0258525E5,1.333042E6,4.9811E4,7.731025E4,0E0,1.0859617E5,1.54097E5,2.471646E5,3.025025E5,3.47046E5,0E0,0E0,0E0,0E0,0E0,0E0,0E0,0E0,0E0,0E0,0E0,0E0,0E0,0E0],"parents":[2147483647,0,0,1,1,2,2,3,3,4,4,5,5,6,6,7,7,8,8,10,10,11,11,12,12,13,13,14,14],"right_children":[2,4,6,8,10,12,14,16,18,-1,20,22,24,26,28,-1,-1,-1,-1,-1,-1,-1,-1,-1,-1,-1,-1,-1,-1],"split_conditions":[1E0,5E0,4E0,3E0,6E0,8E0,6E0,2E0,4E0,-5.9128246E0,7E0,2E0,2E0,1.4E1,1.4E1,-3.1039072E1,-2.4167204E1,-1.7723606E1,-1.2327822E1,8.711333E-1,5.720817E0,-1.3525034E1,-2.402384E0,-6.950498E-1,8.384259E0,1.417049E1,2.4943888E1,2.7674852E1,4.115149E1],"split_indices":[1,0,0,0,0,1,0,0,0,0,0,0,0,1,1,0,0,0,0,0,0,0,0,0,0,0,0,0,0],"split_type":[0,0,0,0,0,0,0,0,0,0,0,0,0,0,0,0,0,0,0,0,0,0,0,0,0,0,0,0,0],"sum_hessian":[6.37E2,3.66E2,2.71E2,1.94E2,1.72E2,1.19E2,1.52E2,9.7E1,9.7E1,5.2E1,1.2E2,3.2E1,8.7E1,7.9E1,7.3E1,5.8E1,3.9E1,4.6E1,5.1E1,5.3E1,6.7E1,1.6E1,1.6E1,2.8E1,5.9E1,4.6E1,3.3E1,3.9E1,3.4E1],"tree_param":{"num_deleted":"0","num_feature":"2","num_nodes":"29","size_leaf_vector":"1"}},{"base_weights":[4.106451E-1,-1.2613893E2,1.8825607E2,-2.8351547E2,-2.4521492E1,7.224489E1,3.5174127E2,-3.5327945E2,-2.3516835E2,-9.454147E1,4.1618336E1,-5.9450253E1,1.1863383E2,2.8309314E2,3.6993313E1,-2.914593E1,-1.2890551E1,-2.1634596E1,-1.6176609E1,-8.484992E0,7.6056085E0,4.8894352E-1,5.646123E0,-9.260926E0,7.105037E-1,5.30709E0,1.47613325E1,1.7188429E1,2.5823189E1],"categories":[],"categories_nodes":[],"categories_segments":[],"categories_sizes":[],"default_left":[0,0,0,0,0,0,0,0,0,0,0,0,0,0,0,0,0,0,0,0,0,0,0,0,0,0,0,0,0],"id":2,"left_children":[1,3,5,7,9,11,13,15,17,19,21,23,25,27,-1,-1,-1,-1,-1,-1,-1,-1,-1,-1,-1,-1,-1,-1,-1],"loss_changes":[1.5118813E7,6.070085E6,4.829913E6,4.1948E5,1.078352E6,9.2954156E5,6.74443E5,6.6506E4,5.10885E4,2.5693206E5,1.2295333E5,1.5494173E5,3.7363938E5,1.148465E5,0E0,0E0,0E0,0E0,0E0,0E0,0E0,0E0,0E0,0E0,0E0,0E0,0E0,0E0,0E0],"parents":[2147483647,0,0,1,1,2,2,3,3,4,4,5,5,6,6,7,7,8,8,9,9,10,10,11,11,12,12,13,13],"right_children":[2,4,6,8,10,12,14,16,18,20,22,24,26,28,-1,-1,-1,-1,-1,-1,-1,-1,-1,-1,-1,-1,-1,-1,-1],"split_conditions":[2E0,4E0,5E0,2E0,6E0,2E0,1.6E1,1E0,3E0,1E0,7E0,1.2E1,1.5E1,6E0,3.6993313E1,-2.914593E1,-1.2890551E1,-2.1634596E1,-1.6176609E1,-8.484992E0,7.6056085E0,4.8894352E-1,5.646123E0,-9.260926E0,7.105037E-1,5.30709E0,1.47613325E1,1.7188429E1,2.5823189E1],"split_indices":[1,0,0,0,0,0,1,1,0,1,0,1,1,0,0,0,0,0,0,0,0,0,0,0,0,0,0,0,0],"split_type":[0,0,0,0,0,0,0,0,0,0,0,0,0,0,0,0,0,0,0,0,0,0,0,0,0,0,0,0,0],"sum_hessian":[6.34E2,3.79E2,2.55E2,1.48E2,2.31E2,1.5E2,1.05E2,5.8E1,9E1,1.12E2,1.19E2,3.9E1,1.11E2,6.7E1,3.8E1,5.4E1,4E0,4E1,5E1,1.06E2,6E0,5.4E1,6.5E1,2.1E1,1.8E1,6.3E1,4.8E1,2.7E1,4E1],"tree_param":{"num_deleted":"0","num_feature":"2","num_nodes":"29","size_leaf_vector":"1"}},{"base_weights":[8.021607E-1,-1.1588849E2,1.5874843E2,-2.2694292E2,8.149146E0,2.069541E1,2.7486743E2,-3.0393E2,-1.611905E2,-4.6686015E0,3.6363407E1,-2.1722757E1,1.1914048E2,1.9156596E2,3.6971252E2,-2.6684982E1,-1.9759033E1,-1.4726053E1,-1.0999924E1,3.354555E-1,4.870371E0,-7.084098E0,1.4261667E0,3.223112E0,1.2215474E1,1.190778E1,2.0399797E1,2.2215387E1,3.3955807E1],"categories":[],"categories_nodes":[],"categories_segments":[],"categories_sizes":[],"default_left":[0,0,0,0,0,0,0,0,0,0,0,0,0,0,0,0,0,0,0,0,0,0,0,0,0,0,0,0,0],"id":3,"left_children":[1,3,5,7,9,11,13,15,17,-1,19,21,23,25,27,-1,-1,-1,-1,-1,-1,-1,-1,-1,-1,-1,-1,-1,-1],"loss_changes":[1.2145898E7,5.2225485E6,4.4828745E6,9.63426E5,3.3988062E5,5.4127394E5,1.130087E6,7.1161E4,3.432975E4,0E0,9.990866E4,2.4209666E5,9.7030625E4,1.8695025E5,2.34706E5,0E0,0E0,0E0,0E0,0E0,0E0,0E0,0E0,0E0,0E0,0E0,0E0,0E0,0E0],"parents":[2147483647,0,0,1,1,2,2,3,3,4,4,5,5,6,6,7,7,8,8,10,10,11,11,12,12,13,13,14,14],"right_children":[2,4,6,8,10,12,14,16,18,-1,20,22,24,26,28,-1,-1,-1,-1,-1,-1,-1,-1,-1,-1,-1,-1,-1,-1],"split_conditions":[1E0,5E0,4E0,3E0,6E0,1.7E1,6E0,2E0,4E0,-4.6686015E0,7E0,2E0,2E0,1.4E1,1.1E1,-2.6684982E1,-1.9759033E1,-1.4726053E1,-1.0999924E1,3.354555E-1,4.870371E0,-7.084098E0,1.4261667E0,3.223112E0,1.2215474E1,1.190778E1,2.0399797E1,2.2215387E1,3.3955807E1],"split_indices":[1,0,0,0,0,1,0,0,0,0,0,0,0,1,1,0,0,0,0,0,0,0,0,0,0,0,0,0,0],"split_type":[0,0,0,0,0,0,0,0,0,0,0,0,0,0,0,0,0,0,0,0,0,0,0,0,0,0,0,0,0],"sum_hessian":[6.57E2,3.78E2,2.79E2,1.99E2,1.79E2,1.28E2,1.51E2,9E1,1.09E2,5.3E1,1.26E2,9E1,3.8E1,8.2E1,6.9E1,5.6E1,3.4E1,5.2E1,5.7E1,5.5E1,7.1E1,3.3E1,5.7E1,1.2E1,2.6E1,5.1E1,3.1E1,2.8E1,4.1E1],"tree_param":{"num_deleted":"0","num_feature":"2","num_nodes":"29","size_leaf_vector":"1"}},{"base_weights":[-9.8055565E-1,-1.0732914E2,1.5875305E2,-2.0852197E2,1.0857652E1,2.3058899E1,2.6676755E2,-2.7286578E2,-1.4155444E2,-5.098321E1,3.798077E1,-1.8889412E1,9.373722E1,2.179429E2,3.7899008E2,-2.2370827E1,-1.1051497E1,-1.1869382E1,5.268655E0,-4.5482054E0,5.5762596E0,2.6624024E0,1.7444069E1,-6.251145E0,1.2439734E0,4.211906E0,1.2278504E1,1.3474615E1,2.2556677E1,1.859107E1,3.253197E1],"categories":[],"categories_nodes":[],"categories_segments":[],"categories_sizes":[],"default_left":[0,0,0,0,0,0,0,0,0,0,0,0,0,0,0,0,0,0,0,0,0,0,0,0,0,0,0,0,0,0,0],"id":4,"left_children":[1,3,5,7,9,11,13,15,17,19,21,23,25,27,29,-1,-1,-1,-1,-1,-1,-1,-1,-1,-1,-1,-1,-1,-1,-1,-1],"loss_changes":[1.0922977E7,4.618692E6,3.760682E6,8.57634E5,3.0217612E5,3.427268E5,7.0093E5,5.7132E4,1.567305E5,4.2922203E4,9.855108E4,1.5017242E5,9.747531E4,2.7579E5,7.5807E4,0E0,0E0,0E0,0E0,0E0,0E0,0E0,0E0,0E0,0E0,0E0,0E0,0E0,0E0,0E0,0E0],"parents":[2147483647,0,0,1,1,2,2,3,3,4,4,5,5,6,6,7,7,8,8,9,9,10,10,11,11,12,12,13,13,14,14],"right_children":[2,4,6,8,10,12,14,16,18,20,22,24,26,28,30,-1,-1,-1,-1,-1,-1,-1,-1,-1,-1,-1,-1,-1,-1,-1,-1],"split_conditions":[2E0,5E0,4E0,3E0,6E0,1.5E1,1.8E1,1E0,1E0,1E0,1E0,2E0,3E0,6E0,5E0,-2.2370827E1,-1.1051497E1,-1.1869382E1,5.268655E0,-4.5482054E0,5.5762596E0,2.6624024E0,1.7444069E1,-6.251145E0,1.2439734E0,4.211906E0,1.2278504E1,1.3474615E1,2.2556677E1,1.859107E1,3.253197E1],"split_indices":[1,0,0,0,0,1,1,1,1,1,1,0,0,0,0,0,0,0,0,0,0,0,0,0,0,0,0,0,0,0,0],"split_type":[0,0,0,0,0,0,0,0,0,0,0,0,0,0,0,0,0,0,0,0,0,0,0,0,0,0,0,0,0,0,0],"sum_hessian":[6.41E2,3.85E2,2.56E2,2.07E2,1.78E2,1.14E2,1.42E2,1.04E2,1.03E2,5.4E1,1.24E2,7.2E1,4.2E1,1.01E2,4.1E1,9.8E1,6E0,1E2,3E0,5.2E1,2E0,1.22E2,2E0,2.6E1,4.6E1,2.6E1,1.6E1,5.9E1,4.2E1,8E0,3.3E1],"tree_param":{"num_deleted":"0","num_feature":"2","num_nodes":"31","size_leaf_vector":"1"}},{"base_weights":[-3.5654902E0,-9.9269485E1,1.429719E2,-1.9044734E2,9.584144E0,2.2595154E1,2.411487E2,-2.5004074E2,-1.3235945E2,-2.0230047E1,5.7149933E1,-1.3686061E1,1.04608055E2,1.7717705E2,3.1011435E2,-2.1928816E1,-1.6462666E1,-1.0921994E1,5.048499E0,-3.6422122E0,3.2862842E-1,4.2335925E0,1.3960855E1,-5.5626993E0,1.454725E0,2.6740618E0,1.1104516E1,1.0497974E1,1.8180613E1,1.8182306E1,2.8827705E1],"categories":[],"categories_nodes":[],"categories_segments":[],"categories_sizes":[],"default_left":[0,0,0,0,0,0,0,0,0,0,0,0,0,0,0,0,0,0,0,0,0,0,0,0,0,0,0,0,0,0,0],"id":5,"left_children":[1,3,5,7,9,11,13,15,17,19,21,23,25,27,29,-1,-1,-1,-1,-1,-1,-1,-1,-1,-1,-1,-1,-1,-1,-1,-1],"loss_changes":[9.157979E6,3.9222165E6,3.0436485E6,7.1116E5,2.5783866E5,3.495684E5,5.71537E5,5.5444E4,9.899275E4,6.9144375E4,2.5515594E4,1.4721395E5,8.299578E4,1.4507875E5,1.968875E5,0E0,0E0,0E0,0E0,0E0,0E0,0E0,0E0,0E0,0E0,0E0,0E0,0E0,0E0,0E0,0E0],"parents":[2147483647,0,0,1,1,2,2,3,3,4,4,5,5,6,6,7,7,8,8,9,9,10,10,11,11,12,12,13,13,14,14],"right_children":[2,4,6,8,10,12,14,16,18,20,22,24,26,28,30,-1,-1,-1,-1,-1,-1,-1,-1,-1,-1,-1,-1,-1,-1,-1,-1],"split_conditions":[2E0,5E0,4E0,3E0,7E0,1.7E1,6E0,2E0,1E0,6E0,1E0,2E0,2E0,1.4E1,1.2E1,-2.1928816E1,-1.6462666E1,-1.0921994E1,5.048499E0,-3.6422122E0,3.2862842E-1,4.2335925E0,1.3960855E1,-5.5626993E0,1.454725E0,2.6740618E0,1.1104516E1,1.0497974E1,1.8180613E1,1.8182306E1,2.8827705E1],"split_indices":[1,0,0,0,0,1,0,0,1,0,1,0,0,1,1,0,0,0,0,0,0,0,0,0,0,0,0,0,0,0,0],"split_type":[0,0,0,0,0,0,0,0,0,0,0,0,0,0,0,0,0,0,0,0,0,0,0,0,0,0,0,0,0,0,0],"sum_hessian":[6.51E2,3.94E2,2.57E2,2.14E2,1.8E2,1.16E2,1.41E2,1.04E2,1.1E2,1.11E2,6.9E1,8.1E1,3.5E1,7.5E1,6.6E1,6.4E1,4E1,1.08E2,2E0,5.4E1,5.7E1,6.8E1,1E0,2.9E1,5.2E1,1.2E1,2.3E1,4.1E1,3.4E1,2.7E1,3.9E1],"tree_param":{"num_deleted":"0","num_feature":"2","num_nodes":"31","size_leaf_vector":"1"}},{"base_weights":[3.5652146E0,-8.7854385E1,1.3424817E2,-2.0486078E2,-1.5821903E1,4.9215027E1,2.613422E2,-2.5381897E2,-1.7194344E2,-6.5243385E1,2.941058E1,-1.0950564E1,1.04554634E2,1.5108249E2,2.9804456E2,-2.0941647E1,-9.501433E0,-1.5445173E1,-1.2127376E1,-5.6954155E0,4.3760886E0,6.251534E-2,4.126166E0,-7.817388E0,1.7719824E0,4.4798913E0,1.1717688E1,8.660038E0,1.39959345E1,2.0585867E1,2.8328772E1],"categories":[],"categories_nodes":[],"categories_segments":[],"categories_sizes":[],"default_left":[0,0,0,0,0,0,0,0,0,0,0,0,0,0,0,0,0,0,0,0,0,0,0,0,0,0,0,0,0,0,0],"id":6,"left_children":[1,3,5,7,9,11,13,15,17,19,21,23,25,27,29,-1,-1,-1,-1,-1,-1,-1,-1,-1,-1,-1,-1,-1,-1,-1,-1],"loss_changes":[7.8370685E6,3.2500675E6,2.9050835E6,1.93259E5,5.3842844E5,5.4386E5,3.92024E5,3.0121E4,9.84875E3,8.595669E4,7.992026E4,2.2905327E5,1.64798E5,1.070725E4,9.15225E4,0E0,0E0,0E0,0E0,0E0,0E0,0E0,0E0,0E0,0E0,0E0,0E0,0E0,0E0,0E0,0E0],"parents":[2147483647,0,0,1,1,2,2,3,3,4,4,5,5,6,6,7,7,8,8,9,9,10,10,11,11,12,12,13,13,14,14],"right_children":[2,4,6,8,10,12,14,16,18,20,22,24,26,28,30,-1,-1,-1,-1,-1,-1,-1,-1,-1,-1,-1,-1,-1,-1,-1,-1],"split_conditions":[2E0,4E0,5E0,2E0,6E0,3E0,7E0,1E0,3E0,1E0,7E0,1E1,1.2E1,6E0,7E0,-2.0941647E1,-9.501433E0,-1.5445173E1,-1.2127376E1,-5.6954155E0,4.3760886E0,6.251534E-2,4.126166E0,-7.817388E0,1.7719824E0,4.4798913E0,1.1717688E1,8.660038E0,1.39959345E1,2.0585867E1,2.8328772E1],"split_indices":[1,0,0,0,0,0,1,1,0,1,0,1,1,0,0,0,0,0,0,0,0,0,0,0,0,0,0,0,0,0,0],"split_type":[0,0,0,0,0,0,0,0,0,0,0,0,0,0,0,0,0,0,0,0,0,0,0,0,0,0,0,0,0,0,0],"sum_hessian":[6.54E2,3.85E2,2.69E2,1.46E2,2.39E2,1.62E2,1.07E2,5.6E1,9E1,1.14E2,1.25E2,7.8E1,8.4E1,2.8E1,7.9E1,5.2E1,4E0,4E1,5E1,1.09E2,5E0,5.5E1,7E1,2.1E1,5.7E1,4E1,4.4E1,1.2E1,1.6E1,4.9E1,3E1],"tree_param":{"num_deleted":"0","num_feature":"2","num_nodes":"31","size_leaf_vector":"1"}},{"base_weights":[1.5216763E0,-8.449845E1,1.1963801E2,-1.6692715E2,6.5944257E0,1.4361122E1,2.041785E2,-2.2024718E2,-1.1709544E2,-3.1685765E0,2.5024353E1,-1.5190914E1,1.0350726E2,1.486568E2,2.662084E2,-1.9325506E1,-1.4791256E1,-1.10129E1,-7.609833E0,2.650808E-1,3.354501E0,-3.5840771E0,3.0703833E0,3.686554E0,9.718218E0,9.036718E0,1.5550912E1,1.5683321E1,2.4384787E1],"categories":[],"categories_nodes":[],"categories_segments":[],"categories_sizes":[],"default_left":[0,0,0,0,0,0,0,0,0,0,0,0,0,0,0,0,0,0,0,0,0,0,0,0,0,0,0,0,0],"id":7,"left_children":[1,3,5,7,9,11,13,15,17,-1,19,21,23,25,27,-1,-1,-1,-1,-1,-1,-1,-1,-1,-1,-1,-1,-1,-1],"loss_changes":[6.6549985E6,2.846886E6,2.453512E6,5.029585E5,1.5511133E5,3.2824416E5,4.87359E5,2.6953E4,3.4353E4,0E0,4.7579297E4,1.508252E5,2.6392875E4,1.13535375E5,1.325515E5,0E0,0E0,0E0,0E0,0E0,0E0,0E0,0E0,0E0,0E0,0E0,0E0,0E0,0E0],"parents":[2147483647,0,0,1,1,2,2,3,3,4,4,5,5,6,6,7,7,8,8,10,10,11,11,12,12,13,13,14,14],"right_children":[2,4,6,8,10,12,14,16,18,-1,20,22,24,26,28,-1,-1,-1,-1,-1,-1,-1,-1,-1,-1,-1,-1,-1,-1],"split_conditions":[1E0,5E0,4E0,3E0,6E0,1.8E1,6E0,2E0,4E0,-3.1685765E0,7E0,3E0,2E0,1.4E1,1.1E1,-1.9325506E1,-1.4791256E1,-1.10129E1,-7.609833E0,2.650808E-1,3.354501E0,-3.5840771E0,3.0703833E0,3.686554E0,9.718218E0,9.036718E0,1.5550912E1,1.5683321E1,2.4384787E1],"split_indices":[1,0,0,0,0,1,0,0,0,0,0,0,0,1,1,0,0,0,0,0,0,0,0,0,0,0,0,0,0],"split_type":[0,0,0,0,0,0,0,0,0,0,0,0,0,0,0,0,0,0,0,0,0,0,0,0,0,0,0,0,0],"sum_hessian":[6.53E2,3.78E2,2.75E2,1.98E2,1.8E2,1.23E2,1.52E2,9.4E1,1.04E2,5.1E1,1.29E2,9.3E1,3E1,8.2E1,7E1,5.5E1,3.9E1,5.1E1,5.3E1,5.7E1,7.2E1,6E1,3.3E1,8E0,2.2E1,4.8E1,3.4E1,2.7E1,4.3E1],"tree_param":{"num_deleted":"0","num_feature":"2","num_nodes":"29","size_leaf_vector":"1"}},{"base_weights":[1.037609E0,-7.775847E1,1.124655E2,-1.5014372E2,6.5844407E0,3.874495E1,2.2132239E2,-1.960036E2,-1.08375916E2,-3.5863152E0,2.7342361E1,-1.3293913E1,8.7809105E1,1.7340752E2,2.897191E2,-1.7341797E1,-1.2807264E1,-1.042565E1,-6.9466248E0,5.897946E-1,3.4166548E0,-7.433097E0,1.3708725E0,1.7043436E0,8.915616E0,1.1445828E1,1.8881884E1,1.9311058E1,2.6658415E1],"categories":[],"categories_nodes":[],"categories_segments":[],"categories_sizes":[],"default_left":[0,0,0,0,0,0,0,0,0,0,0,0,0,0,0,0,0,0,0,0,0,0,0,0,0,0,0,0,0],"id":8,"left_children":[1,3,5,7,9,11,13,15,17,-1,19,21,23,25,27,-1,-1,-1,-1,-1,-1,-1,-1,-1,-1,-1,-1,-1,-1],"loss_changes":[5.6806765E6,2.3148535E6,2.1421222E6,3.695125E5,1.8905908E5,4.1223944E5,3.037005E5,3.690025E4,4.02145E4,0E0,3.8348805E4,1.9299464E5,1.2809456E5,9.159425E4,9.98825E3,0E0,0E0,0E0,0E0,0E0,0E0,0E0,0E0,0E0,0E0,0E0,0E0,0E0,0E0],"parents":[2147483647,0,0,1,1,2,2,3,3,4,4,5,5,6,6,7,7,8,8,10,10,11,11,12,12,13,13,14,14],"right_children":[2,4,6,8,10,12,14,16,18,-1,20,22,24,26,28,-1,-1,-1,-1,-1,-1,-1,-1,-1,-1,-1,-1,-1,-1],"split_conditions":[1E0,5E0,5E0,3E0,6E0,3E0,1.6E1,2E0,4E0,-3.5863152E0,7E0,9E0,9E0,7E0,7E0,-1.7341797E1,-1.2807264E1,-1.042565E1,-6.9466248E0,5.897946E-1,3.4166548E0,-7.433097E0,1.3708725E0,1.7043436E0,8.915616E0,1.1445828E1,1.8881884E1,1.9311058E1,2.6658415E1],"split_indices":[1,0,0,0,0,0,1,0,0,0,0,1,1,0,0,0,0,0,0,0,0,0,0,0,0,0,0,0,0],"split_type":[0,0,0,0,0,0,0,0,0,0,0,0,0,0,0,0,0,0,0,0,0,0,0,0,0,0,0,0,0],"sum_hessian":[6.45E2,3.78E2,2.67E2,2.03E2,1.75E2,1.6E2,1.07E2,9.5E1,1.08E2,5E1,1.25E2,7.8E1,8.2E1,6.5E1,4.2E1,5.7E1,3.8E1,5.1E1,5.7E1,5.5E1,7E1,2.1E1,5.7E1,2.2E1,6E1,4.6E1,1.9E1,2.3E1,1.9E1],"tree_param":{"num_deleted":"0","num_feature":"2","num_nodes":"29","size_leaf_vector":"1"}},{"base_weights":[-1.7679652E0,-7.042766E1,1.03408264E2,-1.6080547E2,-1.2929352E1,1.6789806E1,1.7599463E2,-1.964078E2,-1.355643E2,-5.218929E1,2.2665068E1,-5.162634E1,4.125621E1,1.4184296E2,2.5249997E2,-1.6103863E1,-8.188238E0,-1.225865E1,-9.440896E0,-4.7021446E0,4.4769025E0,-1.2787275E-1,3.1976428E0,-6.4745655E0,-3.8589016E-1,1.6698655E0,7.6944046E0,8.80045E0,1.4215385E1,1.2208718E1,2.1767317E1],"categories":[],"categories_nodes":[],"categories_segments":[],"categories_sizes":[],"default_left":[0,0,0,0,0,0,0,0,0,0,0,0,0,0,0,0,0,0,0,0,0,0,0,0,0,0,0,0,0,0,0],"id":9,"left_children":[1,3,5,7,9,11,13,15,17,19,21,23,25,27,29,-1,-1,-1,-1,-1,-1,-1,-1,-1,-1,-1,-1,-1,-1,-1,-1],"loss_changes":[4.607294E6,2.0037972E6,1.5814492E6,1.0817075E5,3.323749E5,1.9630197E5,3.22137E5,6.995E3,1.013975E4,8.379541E4,5.255024E4,4.212883E4,9.4269984E4,9.11635E4,3.871375E4,0E0,0E0,0E0,0E0,0E0,0E0,0E0,0E0,0E0,0E0,0E0,0E0,0E0,0E0,0E0,0E0],"parents":[2147483647,0,0,1,1,2,2,3,3,4,4,5,5,6,6,7,7,8,8,9,9,10,10,11,11,12,12,13,13,14,14],"right_children":[2,4,6,8,10,12,14,16,18,20,22,24,26,28,30,-1,-1,-1,-1,-1,-1,-1,-1,-1,-1,-1,-1,-1,-1,-1,-1],"split_conditions":[2E0,4E0,4E0,2E0,6E0,9E0,1.8E1,1E0,3E0,1E0,7E0,3E0,2E1,6E0,5E0,-1.6103863E1,-8.188238E0,-1.225865E1,-9.440896E0,-4.7021446E0,4.4769025E0,-1.2787275E-1,3.1976428E0,-6.4745655E0,-3.8589016E-1,1.6698655E0,7.6944046E0,8.80045E0,1.4215385E1,1.2208718E1,2.1767317E1],"split_indices":[1,0,0,0,0,1,1,1,0,1,0,0,1,0,0,0,0,0,0,0,0,0,0,0,0,0,0,0,0,0,0],"split_type":[0,0,0,0,0,0,0,0,0,0,0,0,0,0,0,0,0,0,0,0,0,0,0,0,0,0,0,0,0,0,0],"sum_hessian":[6.36E2,3.85E2,2.51E2,1.49E2,2.36E2,1.15E2,1.36E2,5.9E1,9E1,1.12E2,1.24E2,3E1,8.5E1,9.6E1,4E1,5.5E1,4E0,4.1E1,4.9E1,1.06E2,6E0,5.2E1,7.2E1,1.8E1,1.2E1,6.3E1,2.2E1,5.3E1,4.3E1,8E0,3.2E1],"tree_param":{"num_deleted":"0","num_feature":"2","num_nodes":"31","size_leaf_vector":"1"}},{"base_weights":[1.5009986E0,-6.4496735E1,9.020225E1,-1.2717148E2,4.107414E0,2.9848238E1,1.8405852E2,-1.6802399E2,-8.865394E1,-1.3860531E1,2.9512706E0,-1.8681911E1,7.373295E1,1.285733E2,2.2722856E2,-1.5021005E1,-1.1034295E1,-8.45596E0,-5.748479E0,-2.3669624E0,8.4955655E-2,-6.3193913E0,1.124241E0,2.4025276E0,8.525022E0,7.6494765E0,1.4547805E1,1.5649626E1,2.2129143E1],"categories":[],"categories_nodes":[],"categories_segments":[],"categories_sizes":[],"default_left":[0,0,0,0,0,0,0,0,0,0,0,0,0,0,0,0,0,0,0,0,0,0,0,0,0,0,0,0,0],"id":10,"left_children":[1,3,5,7,9,11,13,15,17,19,-1,21,23,25,27,-1,-1,-1,-1,-1,-1,-1,-1,-1,-1,-1,-1,-1,-1],"loss_changes":[3.8285328E6,1.6129274E6,1.5749302E6,2.935175E5,1.0654062E5,3.6556156E5,2.31872E5,2.994175E4,2.1896938E4,2.7488783E4,0E0,1.6299933E5,1.2592347E5,7.039431E4,3.95485E4,0E0,0E0,0E0,0E0,0E0,0E0,0E0,0E0,0E0,0E0,0E0,0E0,0E0,0E0],"parents":[2147483647,0,0,1,1,2,2,3,3,4,4,5,5,6,6,7,7,8,8,9,9,11,11,12,12,13,13,14,14],"right_children":[2,4,6,8,10,12,14,16,18,20,-1,22,24,26,28,-1,-1,-1,-1,-1,-1,-1,-1,-1,-1,-1,-1,-1,-1],"split_conditions":[1E0,5E0,5E0,3E0,7E0,3E0,1.1E1,2E0,4E0,6E0,2.9512706E0,1E1,1.1E1,7E0,7E0,-1.5021005E1,-1.1034295E1,-8.45596E0,-5.748479E0,-2.3669624E0,8.4955655E-2,-6.3193913E0,1.124241E0,2.4025276E0,8.525022E0,7.6494765E0,1.4547805E1,1.5649626E1,2.2129143E1],"split_indices":[1,0,0,0,0,0,1,0,0,0,0,1,1,0,0,0,0,0,0,0,0,0,0,0,0,0,0,0,0],"split_type":[0,0,0,0,0,0,0,0,0,0,0,0,0,0,0,0,0,0,0,0,0,0,0,0,0,0,0,0,0],"sum_hessian":[6.52E2,3.74E2,2.78E2,1.95E2,1.79E2,1.7E2,1.08E2,9.3E1,1.02E2,1.16E2,6.3E1,8.1E1,8.9E1,4.9E1,5.9E1,5.3E1,4E1,4.8E1,5.4E1,5.6E1,6E1,2.8E1,5.3E1,3.9E1,5E1,3.2E1,1.7E1,3.9E1,2E1],"tree_param":{"num_deleted":"0","num_feature":"2","num_nodes":"29","size_leaf_vector":"1"}},{"base_weights":[1.3447272E0,-6.3458954E1,9.1291084E1,-1.20524445E2,1.4691964E0,3.1821823E1,1.777479E2,-1.2873654E1,-8.53709E1,-2.1978915E0,1.4612891E1,-8.636289E0,7.138759E1,1.259034E2,2.2116455E2,-7.8703465E0,-5.72279E0,3.022656E-1,1.9111329E0,-4.2706666E0,2.1882613E0,9.2733526E-1,7.479031E0,8.1233E0,1.36070175E1,1.4980399E1,2.116996E1],"categories":[],"categories_nodes":[],"categories_segments":[],"categories_sizes":[],"default_left":[0,0,0,0,0,0,0,0,0,0,0,0,0,0,0,0,0,0,0,0,0,0,0,0,0,0,0],"id":11,"left_children":[1,3,5,7,9,11,13,-1,15,-1,17,19,21,23,25,-1,-1,-1,-1,-1,-1,-1,-1,-1,-1,-1,-1],"loss_changes":[3.7304318E6,1.3784955E6,1.3722718E6,2.67436E5,6.697424E4,2.5673753E5,2.1750425E5,0E0,1.240075E4,0E0,1.2070773E4,1.3029432E5,1.0595841E5,3.8703188E4,3.5923E4,0E0,0E0,0E0,0E0,0E0,0E0,0E0,0E0,0E0,0E0,0E0,0E0],"parents":[2147483647,0,0,1,1,2,2,3,3,4,4,5,5,6,6,8,8,10,10,11,11,12,12,13,13,14,14],"right_children":[2,4,6,8,10,12,14,-1,16,-1,18,20,22,24,26,-1,-1,-1,-1,-1,-1,-1,-1,-1,-1,-1,-1],"split_conditions":[1E0,5E0,5E0,3E0,6E0,3E0,1.2E1,-1.2873654E1,4E0,-2.1978915E0,7E0,1.2E1,9E0,7E0,7E0,-7.8703465E0,-5.72279E0,3.022656E-1,1.9111329E0,-4.2706666E0,2.1882613E0,9.2733526E-1,7.479031E0,8.1233E0,1.36070175E1,1.4980399E1,2.116996E1],"split_indices":[1,0,0,0,0,0,1,0,0,0,0,1,1,0,0,0,0,0,0,0,0,0,0,0,0,0,0],"split_type":[0,0,0,0,0,0,0,0,0,0,0,0,0,0,0,0,0,0,0,0,0,0,0,0,0,0,0],"sum_hessian":[6.38E2,3.71E2,2.67E2,1.97E2,1.74E2,1.59E2,1.08E2,9E1,1.07E2,5.4E1,1.2E2,7.9E1,8E1,5.1E1,5.7E1,5.2E1,5.5E1,5.6E1,6.4E1,3.5E1,4.4E1,2.2E1,5.8E1,3.5E1,1.6E1,3.5E1,2.2E1],"tree_param":{"num_deleted":"0","num_feature":"2","num_nodes":"27","size_leaf_vector":"1"}},{"base_weights":[-5.9044784E-1,-5.8380497E1,7.695544E1,-1.0974142E2,4.4309688E-1,5.439054E0,1.3739587E2,-1.457454E2,-7.54684E1,-2.266267E0,1.3737096E1,-1.4469658E1,8.333327E1,1.1219209E2,2.0806502E2,-1.28201275E1,-9.581516E0,-6.919025E0,-5.2342143E0,2.7393416E-1,1.8037006E0,-4.4019814E0,1.006594E0,3.3216443E0,7.724213E0,7.9519324E0,1.684133E1,1.2636767E1,1.8986027E1],"categories":[],"categories_nodes":[],"categories_segments":[],"categories_sizes":[],"default_left":[0,0,0,0,0,0,0,0,0,0,0,0,0,0,0,0,0,0,0,0,0,0,0,0,0,0,0,0,0],"id":12,"left_children":[1,3,5,7,9,11,13,15,17,-1,19,21,23,25,27,-1,-1,-1,-1,-1,-1,-1,-1,-1,-1,-1,-1,-1,-1],"loss_changes":[2.8860202E6,1.1148839E6,1.187935E6,2.32092E5,6.655947E4,1.9815405E5,2.42045E5,1.6604625E4,5.7374375E3,0E0,1.073373E4,1.1259658E5,1.0362297E4,1.19955E5,1.8224125E4,0E0,0E0,0E0,0E0,0E0,0E0,0E0,0E0,0E0,0E0,0E0,0E0,0E0,0E0],"parents":[2147483647,0,0,1,1,2,2,3,3,4,4,5,5,6,6,7,7,8,8,10,10,11,11,12,12,13,13,14,14],"right_children":[2,4,6,8,10,12,14,16,18,-1,20,22,24,26,28,-1,-1,-1,-1,-1,-1,-1,-1,-1,-1,-1,-1,-1,-1],"split_conditions":[1E0,5E0,4E0,3E0,6E0,2E1,7E0,2E0,4E0,-2.266267E0,7E0,2E0,2E0,2.1E1,1.1E1,-1.28201275E1,-9.581516E0,-6.919025E0,-5.2342143E0,2.7393416E-1,1.8037006E0,-4.4019814E0,1.006594E0,3.3216443E0,7.724213E0,7.9519324E0,1.684133E1,1.2636767E1,1.8986027E1],"split_indices":[1,0,0,0,0,1,0,0,0,0,0,0,0,1,1,0,0,0,0,0,0,0,0,0,0,0,0,0,0],"split_type":[0,0,0,0,0,0,0,0,0,0,0,0,0,0,0,0,0,0,0,0,0,0,0,0,0,0,0,0,0],"sum_hessian":[6.42E2,3.68E2,2.74E2,1.96E2,1.72E2,1.26E2,1.48E2,9.4E1,1.02E2,5.4E1,1.18E2,1.01E2,2.5E1,1.11E2,3.7E1,5.7E1,3.7E1,4.5E1,5.7E1,5.5E1,6.3E1,4E1,6.1E1,7E0,1.8E1,1E2,1.1E1,1.6E1,2.1E1],"tree_param":{"num_deleted":"0","num_feature":"2","num_nodes":"29","size_leaf_vector":"1"}},{"base_weights":[1.122951E0,-4.739241E1,8.339224E1,-1.1357599E2,-7.9107823E0,1.6416481E1,1.3899484E2,-1.1771901E1,-9.245907E1,-3.566545E1,1.9264246E1,-2.7924759E1,3.9273342E1,1.1549765E2,2.0527446E2,-7.5339413E0,-4.0828223E0,-3.54846E0,3.0116763E0,1.0166163E0,7.733758E0,-2.8684945E0,1.6281755E0,9.084856E-1,6.3127646E0,7.7446637E0,1.2754486E1,3.8669188E0,1.669346E1],"categories":[],"categories_nodes":[],"categories_segments":[],"categories_sizes":[],"default_left":[0,0,0,0,0,0,0,0,0,0,0,0,0,0,0,0,0,0,0,0,0,0,0,0,0,0,0,0,0],"id":13,"left_children":[1,3,5,7,9,11,13,-1,15,17,19,21,23,25,27,-1,-1,-1,-1,-1,-1,-1,-1,-1,-1,-1,-1,-1,-1],"loss_changes":[2.5823478E6,1.062607E6,8.914845E5,9.4155875E4,1.9377094E5,1.12581875E5,1.8030875E5,0E0,2.0146875E3,8.2581266E4,6.4750027E4,1.5280137E4,7.988094E4,6.5853375E4,7.490125E3,0E0,0E0,0E0,0E0,0E0,0E0,0E0,0E0,0E0,0E0,0E0,0E0,0E0,0E0],"parents":[2147483647,0,0,1,1,2,2,3,3,4,4,5,5,6,6,8,8,9,9,10,10,11,11,12,12,13,13,14,14],"right_children":[2,4,6,8,10,12,14,-1,16,18,20,22,24,26,28,-1,-1,-1,-1,-1,-1,-1,-1,-1,-1,-1,-1,-1,-1],"split_conditions":[4E0,4E0,4E0,2E0,6E0,2E0,7E0,-1.1771901E1,1E0,1E0,1E0,2E1,1.6E1,1.8E1,6E0,-7.5339413E0,-4.0828223E0,-3.54846E0,3.0116763E0,1.0166163E0,7.733758E0,-2.8684945E0,1.6281755E0,9.084856E-1,6.3127646E0,7.7446637E0,1.2754486E1,3.8669188E0,1.669346E1],"split_indices":[1,0,0,0,0,0,0,0,1,1,1,1,1,1,1,0,0,0,0,0,0,0,0,0,0,0,0,0,0],"split_type":[0,0,0,0,0,0,0,0,0,0,0,0,0,0,0,0,0,0,0,0,0,0,0,0,0,0,0,0,0],"sum_hessian":[6.45E2,4.06E2,2.39E2,1.51E2,2.55E2,1.09E2,1.3E2,5.6E1,9.5E1,1.26E2,1.29E2,3.7E1,7.2E1,9.8E1,3.2E1,9E1,5E0,1.13E2,1.3E1,1.2E2,9E0,3.2E1,5E0,4.3E1,2.9E1,7.1E1,2.7E1,1E0,3.1E1],"tree_param":{"num_deleted":"0","num_feature":"2","num_nodes":"29","size_leaf_vector":"1"}},{"base_weights":[8.247416E-1,-4.1884743E1,7.943678E1,-1.027493E2,-3.4430308E0,3.1879887E1,1.496379E2,-1.0616045E1,-8.16196E1,-3.0815695E1,2.0558157E1,1.5031149E1,7.8264404E1,1.2625347E2,1.4952952E1,-6.918177E0,-2.8624227E0,-3.2500987E0,2.8393571E0,1.0563718E0,6.737663E0,-1.1423303E0,3.26451E0,2.3543901E0,7.293285E0,5.1596613E0,1.0462193E1],"categories":[],"categories_nodes":[],"categories_segments":[],"categories_sizes":[],"default_left":[0,0,0,0,0,0,0,0,0,0,0,0,0,0,0,0,0,0,0,0,0,0,0,0,0,0,0],"id":14,"left_children":[1,3,5,7,9,11,13,-1,15,17,19,21,23,25,-1,-1,-1,-1,-1,-1,-1,-1,-1,-1,-1,-1,-1],"loss_changes":[2.1554715E6,9.729771E5,7.497414E5,9.1059625E4,1.6881947E5,1.0511041E5,5.5720125E4,0E0,1.850475E4,7.950359E4,6.3023586E4,7.688606E4,1.9998656E4,8.0493125E3,0E0,0E0,0E0,0E0,0E0,0E0,0E0,0E0,0E0,0E0,0E0,0E0,0E0],"parents":[2147483647,0,0,1,1,2,2,3,3,4,4,5,5,6,6,8,8,9,9,10,10,11,11,12,12,13,13],"right_children":[2,4,6,8,10,12,14,-1,16,18,20,22,24,26,-1,-1,-1,-1,-1,-1,-1,-1,-1,-1,-1,-1,-1],"split_conditions":[5E0,4E0,5E0,2E0,6E0,1.9E1,1.9E1,-1.0616045E1,1E0,1E0,1E0,3E0,2E0,6E0,1.4952952E1,-6.918177E0,-2.8624227E0,-3.2500987E0,2.8393571E0,1.0563718E0,6.737663E0,-1.1423303E0,3.26451E0,2.3543901E0,7.293285E0,5.1596613E0,1.0462193E1],"split_indices":[1,0,0,0,0,1,1,0,1,1,1,0,0,1,0,0,0,0,0,0,0,0,0,0,0,0,0],"split_type":[0,0,0,0,0,0,0,0,0,0,0,0,0,0,0,0,0,0,0,0,0,0,0,0,0,0,0],"sum_hessian":[6.4E2,4.15E2,2.25E2,1.6E2,2.55E2,1.35E2,9E1,6.4E1,9.6E1,1.19E2,1.36E2,1E2,3.5E1,5.8E1,3.2E1,8.6E1,1E1,1.04E2,1.5E1,1.23E2,1.3E1,4.7E1,5.3E1,8E0,2.7E1,5E0,5.3E1],"tree_param":{"num_deleted":"0","num_feature":"2","num_nodes":"27","size_leaf_vector":"1"}},{"base_weights":[3.288847E0,-3.6610264E1,7.394368E1,-7.773662E1,1.0368237E1,2.9819107E1,1.4028271E2,-1.053601E2,-5.314846E1,-4.710176E0,3.229081E1,-1.985115E1,4.54947E1,1.11265755E2,1.3768848E1,-9.4926605E0,-6.6988616E0,-4.8535047E0,6.4998466E-1,-6.066061E-1,4.8918495E0,1.9128486E0,8.377905E0,-3.1415966E0,4.530444E-1,2.449131E0,7.5415063E0,6.939749E0,1.01083765E1],"categories":[],"categories_nodes":[],"categories_segments":[],"categories_sizes":[],"default_left":[0,0,0,0,0,0,0,0,0,0,0,0,0,0,0,0,0,0,0,0,0,0,0,0,0,0,0,0,0],"id":15,"left_children":[1,3,5,7,9,11,13,15,17,19,21,23,25,27,-1,-1,-1,-1,-1,-1,-1,-1,-1,-1,-1,-1,-1,-1,-1],"loss_changes":[1.8435566E6,8.0840475E5,6.8663175E5,1.4586412E5,6.494139E4,1.1224449E5,6.7663625E4,1.9970625E4,5.578853E4,2.2596719E4,4.605625E4,1.756333E4,7.622475E4,8.2773125E3,0E0,0E0,0E0,0E0,0E0,0E0,0E0,0E0,0E0,0E0,0E0,0E0,0E0,0E0,0E0],"parents":[2147483647,0,0,1,1,2,2,3,3,4,4,5,5,6,6,7,7,8,8,9,9,10,10,11,11,12,12,13,13],"right_children":[2,4,6,8,10,12,14,16,18,20,22,24,26,28,-1,-1,-1,-1,-1,-1,-1,-1,-1,-1,-1,-1,-1,-1,-1],"split_conditions":[5E0,5E0,5E0,3E0,7E0,2E0,1.6E1,2E0,1E0,4E0,1E0,1.3E1,2E1,6E0,1.3768848E1,-9.4926605E0,-6.6988616E0,-4.8535047E0,6.4998466E-1,-6.066061E-1,4.8918495E0,1.9128486E0,8.377905E0,-3.1415966E0,4.530444E-1,2.449131E0,7.5415063E0,6.939749E0,1.01083765E1],"split_indices":[1,0,0,0,0,0,1,0,1,1,1,1,1,0,0,0,0,0,0,0,0,0,0,0,0,0,0,0,0],"split_type":[0,0,0,0,0,0,0,0,0,0,0,0,0,0,0,0,0,0,0,0,0,0,0,0,0,0,0,0,0],"sum_hessian":[6.52E2,4.17E2,2.35E2,2.22E2,1.95E2,1.42E2,9.3E1,1.03E2,1.19E2,1.16E2,7.9E1,3.4E1,1.08E2,5.1E1,4.2E1,6.1E1,4.2E1,1.06E2,1.3E1,1.12E2,4E0,7.2E1,7E0,1.9E1,1.5E1,8.4E1,2.4E1,2.2E1,2.9E1],"tree_param":{"num_deleted":"0","num_feature":"2","num_nodes":"29","size_leaf_vector":"1"}},{"base_weights":[2.954665E0,-3.2071884E1,7.468559E1,-7.301075E1,1.2018961E1,3.2930832E1,1.3422853E2,-1.0084785E2,-4.8972775E1,4.310913E0,5.683888E1,-1.690918E1,4.848689E1,1.1435397E2,1.3348273E1,-9.039858E0,-6.487122E0,-4.4335923E0,-1.1857421E-2,-5.948508E-1,1.8825558E0,3.2374856E0,7.7438927E0,-1.8275192E0,1.3866934E0,2.8203201E0,6.8491116E0,6.9954925E0,1.0544329E1],"categories":[],"categories_nodes":[],"categories_segments":[],"categories_sizes":[],"default_left":[0,0,0,0,0,0,0,0,0,0,0,0,0,0,0,0,0,0,0,0,0,0,0,0,0,0,0,0,0],"id":16,"left_children":[1,3,5,7,9,11,13,15,17,19,21,23,25,27,-1,-1,-1,-1,-1,-1,-1,-1,-1,-1,-1,-1,-1,-1,-1],"loss_changes":[1.5852621E6,7.6621E5,5.1022338E5,1.422735E5,7.057717E4,9.6183516E4,3.6034125E4,1.5084875E4,3.7765156E4,3.99124E4,1.57073125E4,6.492714E3,4.3163734E4,1.47715E4,0E0,0E0,0E0,0E0,0E0,0E0,0E0,0E0,0E0,0E0,0E0,0E0,0E0,0E0,0E0],"parents":[2147483647,0,0,1,1,2,2,3,3,4,4,5,5,6,6,7,7,8,8,9,9,10,10,11,11,12,12,13,13],"right_children":[2,4,6,8,10,12,14,16,18,20,22,24,26,28,-1,-1,-1,-1,-1,-1,-1,-1,-1,-1,-1,-1,-1,-1,-1],"split_conditions":[6E0,5E0,5E0,3E0,1E0,2E0,7E0,2E0,1E0,7E0,7E0,2E1,2E1,1.4E1,1.3348273E1,-9.039858E0,-6.487122E0,-4.4335923E0,-1.1857421E-2,-5.948508E-1,1.8825558E0,3.2374856E0,7.7438927E0,-1.8275192E0,1.3866934E0,2.8203201E0,6.8491116E0,6.9954925E0,1.0544329E1],"split_indices":[1,0,0,0,1,0,0,0,1,0,0,1,1,1,0,0,0,0,0,0,0,0,0,0,0,0,0,0,0],"split_type":[0,0,0,0,0,0,0,0,0,0,0,0,0,0,0,0,0,0,0,0,0,0,0,0,0,0,0,0,0],"sum_hessian":[6.29E2,4.23E2,2.06E2,2.19E2,2.04E2,1.22E2,8.4E1,1E2,1.19E2,1.75E2,2.9E1,2.9E1,9.3E1,5.5E1,2.9E1,5.9E1,4.1E1,1.05E2,1.4E1,1.09E2,6.6E1,2.2E1,7E0,2.5E1,4E0,7E1,2.3E1,2.4E1,3.1E1],"tree_param":{"num_deleted":"0","num_feature":"2","num_nodes":"29","size_leaf_vector":"1"}},{"base_weights":[9.936128E-1,-3.033751E1,6.42451E1,-8.083452E1,-5.647776E-1,2.586836E1,1.23116844E2,-8.160187E0,-6.4540184E1,-2.0807539E1,1.741701E1,1.9577637E-1,5.1142967E1,1.00462E2,1.2630225E1,-5.4429874E0,-9.8840123E-1,-2.4747777E0,2.5426962E0,9.77038E-1,4.880844E0,-1.4508198E0,2.0053282E0,2.643715E0,6.99887E0,6.857498E0,1.1495328E1],"categories":[],"categories_nodes":[],"categories_segments":[],"categories_sizes":[],"default_left":[0,0,0,0,0,0,0,0,0,0,0,0,0,0,0,0,0,0,0,0,0,0,0,0,0,0,0],"id":17,"left_children":[1,3,5,7,9,11,13,-1,15,17,19,21,23,25,-1,-1,-1,-1,-1,-1,-1,-1,-1,-1,-1,-1,-1],"loss_changes":[1.2623359E6,6.404171E5,4.735287E5,4.7913438E4,9.827867E4,8.369351E4,4.9502125E4,0E0,1.59494375E4,6.862356E4,3.1696176E4,3.008859E4,3.985814E4,2.146225E4,0E0,0E0,0E0,0E0,0E0,0E0,0E0,0E0,0E0,0E0,0E0,0E0,0E0],"parents":[2147483647,0,0,1,1,2,2,3,3,4,4,5,5,6,6,8,8,9,9,10,10,11,11,12,12,13,13],"right_children":[2,4,6,8,10,12,14,-1,16,18,20,22,24,26,-1,-1,-1,-1,-1,-1,-1,-1,-1,-1,-1,-1,-1],"split_conditions":[6E0,4E0,5E0,2E0,6E0,3E0,7E0,-8.160187E0,4E0,1E0,1E0,1.6E1,1.8E1,2.1E1,1.2630225E1,-5.4429874E0,-9.8840123E-1,-2.4747777E0,2.5426962E0,9.77038E-1,4.880844E0,-1.4508198E0,2.0053282E0,2.643715E0,6.99887E0,6.857498E0,1.1495328E1],"split_indices":[1,0,0,0,0,0,0,0,1,1,1,1,1,1,0,0,0,0,0,0,0,0,0,0,0,0,0],"split_type":[0,0,0,0,0,0,0,0,0,0,0,0,0,0,0,0,0,0,0,0,0,0,0,0,0,0,0],"sum_hessian":[6.35E2,4.25E2,2.1E2,1.57E2,2.68E2,1.28E2,8.2E1,6.6E1,9.1E1,1.26E2,1.42E2,6.4E1,6.4E1,5.2E1,3E1,8.5E1,6E0,1.06E2,2E1,1.28E2,1.4E1,3.7E1,2.7E1,4.4E1,2E1,4.1E1,1.1E1],"tree_param":{"num_deleted":"0","num_feature":"2","num_nodes":"27","size_leaf_vector":"1"}},{"base_weights":[4.992267E-2,-3.6092293E1,4.8239365E1,-6.929994E1,2.4450648E0,1.9356493E0,8.404704E1,-9.1128815E1,-4.945695E1,-1.1990029E0,1.0348767E1,-1.3599469E1,4.518702E1,6.765681E1,1.280947E2,-7.8529406E0,-6.281061E0,-4.6444054E0,-3.2349026E0,2.2613814E-1,1.2781266E0,-3.5448089E0,4.23027E-2,2.8024101E0,6.804373E0,3.7978935E0,7.532512E0,8.365574E0,1.1899498E1],"categories":[],"categories_nodes":[],"categories_segments":[],"categories_sizes":[],"default_left":[0,0,0,0,0,0,0,0,0,0,0,0,0,0,0,0,0,0,0,0,0,0,0,0,0,0,0,0,0],"id":18,"left_children":[1,3,5,7,9,11,13,15,17,-1,19,21,23,25,27,-1,-1,-1,-1,-1,-1,-1,-1,-1,-1,-1,-1,-1,-1],"loss_changes":[1.1460204E6,4.813498E5,4.6740138E5,8.298944E4,2.4266965E4,8.3932E4,1.0612375E5,7.218125E2,6.0290312E3,0E0,5.077092E3,3.99411E4,1.0383258E4,5.8641812E4,4.8481875E3,0E0,0E0,0E0,0E0,0E0,0E0,0E0,0E0,0E0,0E0,0E0,0E0,0E0,0E0],"parents":[2147483647,0,0,1,1,2,2,3,3,4,4,5,5,6,6,7,7,8,8,10,10,11,11,12,12,13,13,14,14],"right_children":[2,4,6,8,10,12,14,16,18,-1,20,22,24,26,28,-1,-1,-1,-1,-1,-1,-1,-1,-1,-1,-1,-1,-1,-1],"split_conditions":[1E0,5E0,4E0,3E0,6E0,1.7E1,1.8E1,2E0,4E0,-1.1990029E0,7E0,7E0,2.3E1,6E0,2.1E1,-7.8529406E0,-6.281061E0,-4.6444054E0,-3.2349026E0,2.2613814E-1,1.2781266E0,-3.5448089E0,4.23027E-2,2.8024101E0,6.804373E0,3.7978935E0,7.532512E0,8.365574E0,1.1899498E1],"split_indices":[1,0,0,0,0,1,1,0,0,0,0,1,1,0,1,0,0,0,0,0,0,0,0,0,0,0,0,0,0],"split_type":[0,0,0,0,0,0,0,0,0,0,0,0,0,0,0,0,0,0,0,0,0,0,0,0,0,0,0,0,0],"sum_hessian":[6.56E2,3.75E2,2.81E2,2.01E2,1.74E2,1.23E2,1.58E2,9.4E1,1.07E2,5.4E1,1.2E2,9.1E1,3.2E1,1.17E2,4.1E1,5.6E1,3.8E1,5.2E1,5.5E1,5.2E1,6.8E1,2.8E1,6.3E1,2.7E1,5E0,6.8E1,4.9E1,2.2E1,1.9E1],"tree_param":{"num_deleted":"0","num_feature":"2","num_nodes":"29","size_leaf_vector":"1"}},{"base_weights":[-1.3750569E0,-2.7394943E1,5.2172474E1,-5.894965E1,9.904992E0,2.0808348E1,1.06373215E2,-8.130549E1,-3.7769455E1,5.275455E0,4.154519E1,-1.1527082E0,4.3800724E1,8.719194E1,1.0297984E1,-7.1116314E0,-5.478649E0,-3.5889444E0,4.2455077E-1,-2.7807397E-1,1.5071784E0,2.231854E0,6.4088836E0,-1.2889243E0,1.7061384E0,2.8777094E0,8.282701E0,5.4596863E0,7.727454E0],"categories":[],"categories_nodes":[],"categories_segments":[],"categories_sizes":[],"default_left":[0,0,0,0,0,0,0,0,0,0,0,0,0,0,0,0,0,0,0,0,0,0,0,0,0,0,0,0,0],"id":19,"left_children":[1,3,5,7,9,11,13,15,17,19,21,23,25,27,-1,-1,-1,-1,-1,-1,-1,-1,-1,-1,-1,-1,-1,-1,-1],"loss_changes":[8.861751E5,5.0433497E5,3.51378E5,1.0678144E5,2.8637287E4,6.7207086E4,2.1359875E4,4.8120625E3,3.7205094E4,2.0601645E4,1.092277E4,2.3545992E4,2.6674375E4,1.2449375E3,0E0,0E0,0E0,0E0,0E0,0E0,0E0,0E0,0E0,0E0,0E0,0E0,0E0,0E0,0E0],"parents":[2147483647,0,0,1,1,2,2,3,3,4,4,5,5,6,6,7,7,8,8,9,9,10,10,11,11,12,12,13,13],"right_children":[2,4,6,8,10,12,14,16,18,20,22,24,26,28,-1,-1,-1,-1,-1,-1,-1,-1,-1,-1,-1,-1,-1,-1,-1],"split_conditions":[6E0,5E0,5E0,3E0,1E0,3E0,1.6E1,2E0,1E0,7E0,7E0,1.6E1,2.1E1,6E0,1.0297984E1,-7.1116314E0,-5.478649E0,-3.5889444E0,4.2455077E-1,-2.7807397E-1,1.5071784E0,2.231854E0,6.4088836E0,-1.2889243E0,1.7061384E0,2.8777094E0,8.282701E0,5.4596863E0,7.727454E0],"split_indices":[1,0,0,0,1,0,1,0,1,0,0,1,1,0,0,0,0,0,0,0,0,0,0,0,0,0,0,0,0],"split_type":[0,0,0,0,0,0,0,0,0,0,0,0,0,0,0,0,0,0,0,0,0,0,0,0,0,0,0,0,0],"sum_hessian":[6.34E2,4.27E2,2.07E2,2.31E2,1.96E2,1.32E2,7.5E1,1.11E2,1.2E2,1.72E2,2.4E1,6.8E1,6.4E1,4.3E1,3.2E1,6.6E1,4.5E1,1.03E2,1.7E1,1.05E2,6.7E1,1.9E1,5E0,4.1E1,2.7E1,5.8E1,6E0,1.7E1,2.6E1],"tree_param":{"num_deleted":"0","num_feature":"2","num_nodes":"29","size_leaf_vector":"1"}},{"base_weights":[3.3718804E-1,-2.6205135E1,5.4031853E1,-6.596492E1,-1.31359E0,2.4782616E1,1.0004812E2,-8.1401764E1,-5.528304E1,-1.0583329E1,2.3052439E1,4.216979E0,4.352524E1,8.196738E1,1.2831624E2,-6.781325E0,-4.525268E0,-4.8172784E0,-1.5697976E0,-1.3351184E0,1.9168879E0,1.5104492E0,4.870519E0,-4.3466482E-2,6.155803E0,2.5882845E0,6.3366055E0,5.7100205E0,8.065781E0,8.033661E0,1.163055E1],"categories":[],"categories_nodes":[],"categories_segments":[],"categories_sizes":[],"default_left":[0,0,0,0,0,0,0,0,0,0,0,0,0,0,0,0,0,0,0,0,0,0,0,0,0,0,0,0,0,0,0],"id":20,"left_children":[1,3,5,7,9,11,13,15,17,19,21,23,25,27,29,-1,-1,-1,-1,-1,-1,-1,-1,-1,-1,-1,-1,-1,-1,-1,-1],"loss_changes":[9.349095E5,4.343839E5,2.895897E5,2.3367062E4,6.145385E4,5.146728E4,3.2415375E4,8.04125E2,1.6937312E4,4.1950383E4,1.0686727E4,2.254611E4,2.5341594E4,3.5882812E3,1.5834375E2,0E0,0E0,0E0,0E0,0E0,0E0,0E0,0E0,0E0,0E0,0E0,0E0,0E0,0E0,0E0,0E0],"parents":[2147483647,0,0,1,1,2,2,3,3,4,4,5,5,6,6,7,7,8,8,9,9,10,10,11,11,12,12,13,13,14,14],"right_children":[2,4,6,8,10,12,14,16,18,20,22,24,26,28,30,-1,-1,-1,-1,-1,-1,-1,-1,-1,-1,-1,-1,-1,-1,-1,-1],"split_conditions":[6E0,4E0,5E0,2E0,7E0,3E0,1.9E1,1E0,1E0,1E0,1E0,2.3E1,2E1,7E0,7E0,-6.781325E0,-4.525268E0,-4.8172784E0,-1.5697976E0,-1.3351184E0,1.9168879E0,1.5104492E0,4.870519E0,-4.3466482E-2,6.155803E0,2.5882845E0,6.3366055E0,5.7100205E0,8.065781E0,8.033661E0,1.163055E1],"split_indices":[1,0,0,0,0,0,1,1,1,1,1,1,1,0,0,0,0,0,0,0,0,0,0,0,0,0,0,0,0,0,0],"split_type":[0,0,0,0,0,0,0,0,0,0,0,0,0,0,0,0,0,0,0,0,0,0,0,0,0,0,0,0,0,0,0],"sum_hessian":[6.54E2,4.38E2,2.16E2,1.68E2,2.7E2,1.33E2,8.3E1,6.6E1,1.02E2,1.96E2,7.4E1,6.4E1,6.9E1,5.3E1,3E1,5.6E1,1E1,8.9E1,1.3E1,1.67E2,2.9E1,6.8E1,6E0,6.1E1,3E0,5.4E1,1.5E1,3.7E1,1.6E1,1.4E1,1.6E1],"tree_param":{"num_deleted":"0","num_feature":"2","num_nodes":"31","size_leaf_vector":"1"}},{"base_weights":[9.724385E-1,-2.0584547E1,5.4118378E1,-4.8929543E1,1.2165836E1,2.742562E1,9.615858E1,-6.821921E1,-3.1992277E1,3.5926304E0,4.6773865E1,8.335113E0,4.542268E1,7.7672554E1,1.2152797E2,-6.015677E0,-3.185279E0,-3.0941052E0,-1.986542E-1,-4.5211178E-1,1.4031525E0,2.86385E0,5.771574E0,-6.060701E-1,2.0522535E0,2.7275844E0,5.9554725E0,5.2469597E0,8.43538E0,5.194871E0,1.0238821E1],"categories":[],"categories_nodes":[],"categories_segments":[],"categories_sizes":[],"default_left":[0,0,0,0,0,0,0,0,0,0,0,0,0,0,0,0,0,0,0,0,0,0,0,0,0,0,0,0,0,0,0],"id":21,"left_children":[1,3,5,7,9,11,13,15,17,19,21,23,25,27,29,-1,-1,-1,-1,-1,-1,-1,-1,-1,-1,-1,-1,-1,-1,-1,-1],"loss_changes":[7.5037975E5,4.3318744E5,2.0945269E5,7.9496E4,6.4216242E4,3.9819438E4,2.4796125E4,1.9992812E4,2.653136E4,2.2660889E4,9.391281E3,1.6176094E4,1.718646E4,8.186875E3,2.2866875E3,0E0,0E0,0E0,0E0,0E0,0E0,0E0,0E0,0E0,0E0,0E0,0E0,0E0,0E0,0E0,0E0],"parents":[2147483647,0,0,1,1,2,2,3,3,4,4,5,5,6,6,7,7,8,8,9,9,10,10,11,11,12,12,13,13,14,14],"right_children":[2,4,6,8,10,12,14,16,18,20,22,24,26,28,30,-1,-1,-1,-1,-1,-1,-1,-1,-1,-1,-1,-1,-1,-1,-1,-1],"split_conditions":[9E0,5E0,5E0,3E0,1E0,3E0,7E0,1E0,1E0,7E0,7E0,1.6E1,2E1,2.1E1,1.1E1,-6.015677E0,-3.185279E0,-3.0941052E0,-1.986542E-1,-4.5211178E-1,1.4031525E0,2.86385E0,5.771574E0,-6.060701E-1,2.0522535E0,2.7275844E0,5.9554725E0,5.2469597E0,8.43538E0,5.194871E0,1.0238821E1],"split_indices":[1,0,0,0,1,0,0,1,1,0,0,1,1,1,1,0,0,0,0,0,0,0,0,0,0,0,0,0,0,0,0],"split_type":[0,0,0,0,0,0,0,0,0,0,0,0,0,0,0,0,0,0,0,0,0,0,0,0,0,0,0,0,0,0,0],"sum_hessian":[6.53E2,4.65E2,1.88E2,2.49E2,2.16E2,1.16E2,7.2E1,1.15E2,1.34E2,1.74E2,4.2E1,5.7E1,5.9E1,4.4E1,2.8E1,9.1E1,2.4E1,1.09E2,2.5E1,1.05E2,6.9E1,3.1E1,1.1E1,3E1,2.7E1,4.4E1,1.5E1,3.3E1,1.1E1,4E0,2.4E1],"tree_param":{"num_deleted":"0","num_feature":"2","num_nodes":"31","size_leaf_vector":"1"}},{"base_weights":[4.3705684E-1,-2.5285213E1,3.6619366E1,-5.1163486E1,3.9335492E0,9.706359E-1,6.42348E1,-6.759455E1,-3.471409E1,-3.3179164E0,1.1926836E0,-2.7409817E1,1.1849523E1,5.144494E1,1.0366229E2,-6.0604806E0,-4.4163117E0,-3.281292E0,-2.2682157E0,-7.045091E-1,1.3978378E-1,-2.5088742E0,-1.0711176E0,-1.9082014E-1,2.782697E0,1.963623E0,5.1800528E0,5.8413525E0,9.96222E0],"categories":[],"categories_nodes":[],"categories_segments":[],"categories_sizes":[],"default_left":[0,0,0,0,0,0,0,0,0,0,0,0,0,0,0,0,0,0,0,0,0,0,0,0,0,0,0,0,0],"id":22,"left_children":[1,3,5,7,9,11,13,15,17,19,-1,21,23,25,27,-1,-1,-1,-1,-1,-1,-1,-1,-1,-1,-1,-1,-1,-1],"loss_changes":[6.0029106E5,2.852627E5,2.637717E5,5.170972E4,1.4215561E4,3.6757027E4,7.081225E4,5.8294375E3,2.92625E3,3.0178047E3,0E0,1.4082402E3,2.815879E4,3.9929312E4,1.39268125E4,0E0,0E0,0E0,0E0,0E0,0E0,0E0,0E0,0E0,0E0,0E0,0E0,0E0,0E0],"parents":[2147483647,0,0,1,1,2,2,3,3,4,4,5,5,6,6,7,7,8,8,9,9,11,11,12,12,13,13,14,14],"right_children":[2,4,6,8,10,12,14,16,18,20,-1,22,24,26,28,-1,-1,-1,-1,-1,-1,-1,-1,-1,-1,-1,-1,-1,-1],"split_conditions":[1E0,5E0,4E0,3E0,7E0,9E0,7E0,2E0,4E0,6E0,1.1926836E0,7E0,3E0,8E0,1.1E1,-6.0604806E0,-4.4163117E0,-3.281292E0,-2.2682157E0,-7.045091E-1,1.3978378E-1,-2.5088742E0,-1.0711176E0,-1.9082014E-1,2.782697E0,1.963623E0,5.1800528E0,5.8413525E0,9.96222E0],"split_indices":[1,0,0,0,0,1,0,0,0,0,0,1,0,1,1,0,0,0,0,0,0,0,0,0,0,0,0,0,0],"split_type":[0,0,0,0,0,0,0,0,0,0,0,0,0,0,0,0,0,0,0,0,0,0,0,0,0,0,0,0,0],"sum_hessian":[6.43E2,3.76E2,2.67E2,1.99E2,1.77E2,1.17E2,1.5E2,9.8E1,1.01E2,1.07E2,7E1,3.2E1,8.5E1,1.15E2,3.5E1,5.6E1,4.2E1,4.8E1,5.3E1,5.1E1,5.6E1,2.4E1,8E0,5.3E1,3.2E1,3.9E1,7.6E1,1.6E1,1.9E1],"tree_param":{"num_deleted":"0","num_feature":"2","num_nodes":"29","size_leaf_vector":"1"}},{"base_weights":[1.807477E0,-2.2510082E1,3.4607502E1,-4.2998505E1,6.8265694E-1,2.3791776E0,5.9543114E1,-4.8170004E0,-3.624465E1,-5.8349776E0,9.441815E-1,-1.4371181E1,2.2078186E1,5.1135536E1,8.860515E0,-3.2074578E0,-2.3584754E0,-8.981349E-1,-2.7125767E-2,-2.6934097E0,-2.6134878E-1,6.285092E-1,3.4960203E0,3.4147341E0,6.3433976E0],"categories":[],"categories_nodes":[],"categories_segments":[],"categories_sizes":[],"default_left":[0,0,0,0,0,0,0,0,0,0,0,0,0,0,0,0,0,0,0,0,0,0,0,0,0],"id":23,"left_children":[1,3,5,7,9,11,13,-1,15,17,-1,19,21,23,-1,-1,-1,-1,-1,-1,-1,-1,-1,-1,-1],"loss_changes":[5.152417E5,1.7632211E5,2.208574E5,2.0721E4,1.275174E4,4.0243113E4,6.107625E4,0E0,2.5664219E3,3.2853813E3,0E0,1.4032088E4,1.6876963E4,2.8740656E4,0E0,0E0,0E0,0E0,0E0,0E0,0E0,0E0,0E0,0E0,0E0],"parents":[2147483647,0,0,1,1,2,2,3,3,4,4,5,5,6,6,8,8,9,9,11,11,12,12,13,13],"right_children":[2,4,6,8,10,12,14,-1,16,18,-1,20,22,24,-1,-1,-1,-1,-1,-1,-1,-1,-1,-1,-1],"split_conditions":[1E0,5E0,4E0,2E0,7E0,1.3E1,2.1E1,-4.8170004E0,4E0,6E0,9.441815E-1,2E0,3E0,7E0,8.860515E0,-3.2074578E0,-2.3584754E0,-8.981349E-1,-2.7125767E-2,-2.6934097E0,-2.6134878E-1,6.285092E-1,3.4960203E0,3.4147341E0,6.3433976E0],"split_indices":[1,0,0,0,0,1,1,0,0,0,0,0,0,0,0,0,0,0,0,0,0,0,0,0,0],"split_type":[0,0,0,0,0,0,0,0,0,0,0,0,0,0,0,0,0,0,0,0,0,0,0,0,0],"sum_hessian":[6.44E2,3.7E2,2.74E2,1.96E2,1.74E2,1.2E2,1.54E2,5.3E1,1.43E2,1.1E2,6.4E1,6.5E1,5.5E1,1.34E2,2E1,8.8E1,5.5E1,5.5E1,5.5E1,2.3E1,4.2E1,3.4E1,2.1E1,1.05E2,2.9E1],"tree_param":{"num_deleted":"0","num_feature":"2","num_nodes":"25","size_leaf_vector":"1"}},{"base_weights":[-3.0815923E-1,-2.2282034E1,2.9867228E1,-4.4048107E1,3.0734274E0,9.49062E0,5.8740208E1,-4.8555145E0,-3.669086E1,-5.241879E0,1.3343639E0,7.032665E-1,4.544187E1,3.663919E1,7.734209E1,-3.2710223E0,-2.3492453E0,-9.337566E-1,5.7940796E-2,-2.0017972E0,8.194968E-1,2.840989E0,6.066497E0,1.9692514E0,4.7455E0,5.256223E0,7.7106786E0],"categories":[],"categories_nodes":[],"categories_segments":[],"categories_sizes":[],"default_left":[0,0,0,0,0,0,0,0,0,0,0,0,0,0,0,0,0,0,0,0,0,0,0,0,0,0,0],"id":24,"left_children":[1,3,5,7,9,11,13,-1,15,17,-1,19,21,23,25,-1,-1,-1,-1,-1,-1,-1,-1,-1,-1,-1,-1],"loss_changes":[4.343134E5,2.0930128E5,1.6182255E5,2.2756438E4,1.999991E4,5.1462402E4,4.4034E4,0E0,3.2264062E3,4.2283555E3,0E0,3.2653727E4,6.9630938E3,1.3265023E4,7.1866562E3,0E0,0E0,0E0,0E0,0E0,0E0,0E0,0E0,0E0,0E0,0E0,0E0],"parents":[2147483647,0,0,1,1,2,2,3,3,4,4,5,5,6,6,8,8,9,9,11,11,12,12,13,13,14,14],"right_children":[2,4,6,8,10,12,14,-1,16,18,-1,20,22,24,26,-1,-1,-1,-1,-1,-1,-1,-1,-1,-1,-1,-1],"split_conditions":[1E0,5E0,5E0,2E0,7E0,2E1,1.1E1,-4.8555145E0,4E0,6E0,1.3343639E0,2E0,2.3E1,7E0,7E0,-3.2710223E0,-2.3492453E0,-9.337566E-1,5.7940796E-2,-2.0017972E0,8.194968E-1,2.840989E0,6.066497E0,1.9692514E0,4.7455E0,5.256223E0,7.7106786E0],"split_indices":[1,0,0,0,0,1,1,0,0,0,0,0,1,0,0,0,0,0,0,0,0,0,0,0,0,0,0],"split_type":[0,0,0,0,0,0,0,0,0,0,0,0,0,0,0,0,0,0,0,0,0,0,0,0,0,0,0],"sum_hessian":[6.53E2,3.78E2,2.75E2,2.03E2,1.75E2,1.62E2,1.13E2,6E1,1.43E2,1.09E2,6.6E1,1.31E2,3.1E1,5.3E1,6E1,8.8E1,5.5E1,5.2E1,5.7E1,3.5E1,9.6E1,2.5E1,6E0,3.6E1,1.7E1,4E1,2E1],"tree_param":{"num_deleted":"0","num_feature":"2","num_nodes":"27","size_leaf_vector":"1"}},{"base_weights":[2.8391643E0,-1.6720371E1,2.9120863E1,-3.520624E1,4.184982E0,2.8777318E0,5.114591E1,-4.5619874E0,-2.6353794E1,-2.9505937E0,1.1944396E0,-1.3547045E1,1.8263464E1,4.3809864E1,7.7311764E0,-2.4569488E0,-1.4946419E0,-4.9330264E-1,1.1467329E-2,-1.8655534E0,-4.2736688E-1,1.0854768E0,5.0361686E0,2.4028943E0,4.7686496E0],"categories":[],"categories_nodes":[],"categories_segments":[],"categories_sizes":[],"default_left":[0,0,0,0,0,0,0,0,0,0,0,0,0,0,0,0,0,0,0,0,0,0,0,0,0],"id":25,"left_children":[1,3,5,7,9,11,13,-1,15,17,-1,19,21,23,-1,-1,-1,-1,-1,-1,-1,-1,-1,-1,-1],"loss_changes":[3.3256828E5,1.4352166E5,1.593825E5,3.6547344E4,1.3462254E4,3.234123E4,4.5827906E4,0E0,4.1732344E3,1.0554924E3,0E0,4.846705E3,1.299352E4,2.6715219E4,0E0,0E0,0E0,0E0,0E0,0E0,0E0,0E0,0E0,0E0,0E0],"parents":[2147483647,0,0,1,1,2,2,3,3,4,4,5,5,6,6,8,8,9,9,11,11,12,12,13,13],"right_children":[2,4,6,8,10,12,14,-1,16,18,-1,20,22,24,-1,-1,-1,-1,-1,-1,-1,-1,-1,-1,-1],"split_conditions":[1E0,5E0,4E0,2E0,7E0,1.2E1,2.1E1,-4.5619874E0,4E0,6E0,1.1944396E0,7E0,2.3E1,6E0,7.7311764E0,-2.4569488E0,-1.4946419E0,-4.9330264E-1,1.1467329E-2,-1.8655534E0,-4.2736688E-1,1.0854768E0,5.0361686E0,2.4028943E0,4.7686496E0],"split_indices":[1,0,0,0,0,1,1,0,0,0,0,1,1,0,0,0,0,0,0,0,0,0,0,0,0],"split_type":[0,0,0,0,0,0,0,0,0,0,0,0,0,0,0,0,0,0,0,0,0,0,0,0,0],"sum_hessian":[6.45E2,3.7E2,2.75E2,1.96E2,1.74E2,1.26E2,1.49E2,5.5E1,1.41E2,1.05E2,6.9E1,6.1E1,6.5E1,1.3E2,1.9E1,8.8E1,5.3E1,5.1E1,5.4E1,2.7E1,3.4E1,6E1,5E0,7.1E1,5.9E1],"tree_param":{"num_deleted":"0","num_feature":"2","num_nodes":"25","size_leaf_vector":"1"}},{"base_weights":[8.92287E-1,-1.41759E1,3.6020744E1,-3.4100494E1,9.169543E0,1.7882065E1,6.625544E1,-4.6898823E1,-2.2426786E1,3.8287482E0,3.2214817E1,3.0608737E0,3.2653076E1,5.2977795E1,8.522825E1,-4.1236277E0,-2.0857308E0,-2.1542802E0,-3.5383645E-1,-1.2870474E-1,9.769592E-1,1.315564E0,3.3976364E0,-3.8221404E-1,1.9272811E0,1.9402418E0,4.5437098E0,2.8829563E0,4.6987085E0,3.4378963E0,7.2384076E0],"categories":[],"categories_nodes":[],"categories_segments":[],"categories_sizes":[],"default_left":[0,0,0,0,0,0,0,0,0,0,0,0,0,0,0,0,0,0,0,0,0,0,0,0,0,0,0,0,0,0,0],"id":26,"left_children":[1,3,5,7,9,11,13,15,17,19,21,23,25,27,29,-1,-1,-1,-1,-1,-1,-1,-1,-1,-1,-1,-1,-1,-1,-1,-1],"loss_changes":[3.4033544E5,2.0962952E5,1.04659766E5,3.5253375E4,2.5477314E4,2.6608777E4,1.3622625E4,9.785141E3,1.0336098E4,7.7689883E3,5.6092227E3,1.0335537E4,1.0993621E4,2.2714688E3,2.3253594E3,0E0,0E0,0E0,0E0,0E0,0E0,0E0,0E0,0E0,0E0,0E0,0E0,0E0,0E0,0E0,0E0],"parents":[2147483647,0,0,1,1,2,2,3,3,4,4,5,5,6,6,7,7,8,8,9,9,10,10,11,11,12,12,13,13,14,14],"right_children":[2,4,6,8,10,12,14,16,18,20,22,24,26,28,30,-1,-1,-1,-1,-1,-1,-1,-1,-1,-1,-1,-1,-1,-1,-1,-1],"split_conditions":[9E0,5E0,5E0,3E0,1E0,3E0,7E0,1E0,1E0,7E0,6E0,2E1,2E1,1.4E1,1.1E1,-4.1236277E0,-2.0857308E0,-2.1542802E0,-3.5383645E-1,-1.2870474E-1,9.769592E-1,1.315564E0,3.3976364E0,-3.8221404E-1,1.9272811E0,1.9402418E0,4.5437098E0,2.8829563E0,4.6987085E0,3.4378963E0,7.2384076E0],"split_indices":[1,0,0,0,1,0,0,1,1,0,0,1,1,1,1,0,0,0,0,0,0,0,0,0,0,0,0,0,0,0,0],"split_type":[0,0,0,0,0,0,0,0,0,0,0,0,0,0,0,0,0,0,0,0,0,0,0,0,0,0,0,0,0,0,0],"sum_hessian":[6.41E2,4.49E2,1.92E2,2.42E2,2.07E2,1.21E2,7.1E1,1.14E2,1.28E2,1.69E2,3.8E1,6.1E1,6E1,4.4E1,2.7E1,9.2E1,2.2E1,1.02E2,2.6E1,1.03E2,6.6E1,1.6E1,2.2E1,4.5E1,1.6E1,4.6E1,1.4E1,1.3E1,3.1E1,4E0,2.3E1],"tree_param":{"num_deleted":"0","num_feature":"2","num_nodes":"31","size_leaf_vector":"1"}},{"base_weights":[6.0052013E-1,-1.8781813E1,2.5402386E1,-3.425754E1,-1.318962E0,9.8533136E-1,4.4624657E1,-3.6830206E0,-2.2723763E1,-7.607654E0,6.434464E-1,-1.3439154E1,1.5394421E1,3.817443E1,6.6679974E0,-2.0282276E0,-1.5847489E0,-9.866078E-1,-2.1164364E-1,-2.0566266E0,-4.3482006E-1,8.74527E-1,4.537057E0,2.4606357E0,4.885201E0],"categories":[],"categories_nodes":[],"categories_segments":[],"categories_sizes":[],"default_left":[0,0,0,0,0,0,0,0,0,0,0,0,0,0,0,0,0,0,0,0,0,0,0,0,0],"id":27,"left_children":[1,3,5,7,9,11,13,-1,15,17,-1,19,21,23,-1,-1,-1,-1,-1,-1,-1,-1,-1,-1,-1],"loss_changes":[3.1342453E5,9.886644E4,1.3419048E5,2.5312719E4,1.0246564E4,2.660304E4,3.6784094E4,0E0,2.64E2,2.405724E3,0E0,6.1448994E3,1.1181564E4,2.1719469E4,0E0,0E0,0E0,0E0,0E0,0E0,0E0,0E0,0E0,0E0,0E0],"parents":[2147483647,0,0,1,1,2,2,3,3,4,4,5,5,6,6,8,8,9,9,11,11,12,12,13,13],"right_children":[2,4,6,8,10,12,14,-1,16,18,-1,20,22,24,-1,-1,-1,-1,-1,-1,-1,-1,-1,-1,-1],"split_conditions":[1E0,5E0,4E0,3E0,7E0,1.2E1,2.1E1,-3.6830206E0,4E0,6E0,6.434464E-1,2E0,2.3E1,7E0,6.6679974E0,-2.0282276E0,-1.5847489E0,-9.866078E-1,-2.1164364E-1,-2.0566266E0,-4.3482006E-1,8.74527E-1,4.537057E0,2.4606357E0,4.885201E0],"split_indices":[1,0,0,0,0,1,1,0,0,0,0,0,1,0,0,0,0,0,0,0,0,0,0,0,0],"split_type":[0,0,0,0,0,0,0,0,0,0,0,0,0,0,0,0,0,0,0,0,0,0,0,0,0],"sum_hessian":[6.5E2,3.65E2,2.85E2,1.93E2,1.72E2,1.26E2,1.59E2,9.4E1,9.9E1,1.03E2,6.9E1,6.3E1,6.3E1,1.38E2,2.1E1,4.8E1,5.1E1,5.2E1,5.1E1,2.4E1,3.9E1,5.8E1,5E0,1.06E2,3.2E1],"tree_param":{"num_deleted":"0","num_feature":"2","num_nodes":"25","size_leaf_vector":"1"}},{"base_weights":[-3.469991E-1,-1.3998453E1,3.3230076E1,-2.9042566E1,3.5361722E0,1.6496323E1,5.986601E1,-3.819602E1,-2.0917292E1,-3.1139786E0,1.4464719E1,3.0970333E0,2.9611193E1,5.1726933E1,6.614143E0,-3.2513146E0,-9.282679E-1,-1.9538342E0,-3.2994464E-1,-6.006115E-1,1.7492744E0,9.87251E-1,3.5086248E0,-3.655653E-2,3.2688572E0,2.0347326E0,5.504076E0,2.7862198E0,4.774281E0],"categories":[],"categories_nodes":[],"categories_segments":[],"categories_sizes":[],"default_left":[0,0,0,0,0,0,0,0,0,0,0,0,0,0,0,0,0,0,0,0,0,0,0,0,0,0,0,0,0],"id":28,"left_children":[1,3,5,7,9,11,13,15,17,19,21,23,25,27,-1,-1,-1,-1,-1,-1,-1,-1,-1,-1,-1,-1,-1,-1,-1],"loss_changes":[2.9336738E5,1.2012845E5,8.14705E4,1.7422766E4,1.537978E4,2.0117234E4,8.905125E3,6.9418438E3,7.670125E3,1.4651605E4,4.4534336E3,7.802953E3,7.744539E3,5.312172E3,0E0,0E0,0E0,0E0,0E0,0E0,0E0,0E0,0E0,0E0,0E0,0E0,0E0,0E0,0E0],"parents":[2147483647,0,0,1,1,2,2,3,3,4,4,5,5,6,6,7,7,8,8,9,9,10,10,11,11,12,12,13,13],"right_children":[2,4,6,8,10,12,14,16,18,20,22,24,26,28,-1,-1,-1,-1,-1,-1,-1,-1,-1,-1,-1,-1,-1,-1,-1],"split_conditions":[9E0,5E0,5E0,3E0,7E0,3E0,2.1E1,6E0,1E0,4E0,6E0,2.3E1,2.2E1,6E0,6.614143E0,-3.2513146E0,-9.282679E-1,-1.9538342E0,-3.2994464E-1,-6.006115E-1,1.7492744E0,9.87251E-1,3.5086248E0,-3.655653E-2,3.2688572E0,2.0347326E0,5.504076E0,2.7862198E0,4.774281E0],"split_indices":[1,0,0,0,0,0,1,1,1,1,1,1,1,0,0,0,0,0,0,0,0,0,0,0,0,0,0,0,0],"split_type":[0,0,0,0,0,0,0,0,0,0,0,0,0,0,0,0,0,0,0,0,0,0,0,0,0,0,0,0,0],"sum_hessian":[6.38E2,4.54E2,1.84E2,2.44E2,2.1E2,1.14E2,7E1,1.13E2,1.31E2,1.31E2,7.9E1,5.7E1,5.7E1,5.4E1,1.6E1,1.03E2,1E1,1.08E2,2.3E1,1.12E2,1.9E1,7.5E1,4E0,5.3E1,4E0,5.3E1,4E0,1.9E1,3.5E1],"tree_param":{"num_deleted":"0","num_feature":"2","num_nodes":"29","size_leaf_vector":"1"}},{"base_weights":[4.285448E-1,-1.3252423E1,2.6740908E1,-3.422916E1,-8.042682E-1,9.688681E0,5.2596703E1,-3.3891213E0,-2.7521727E1,-1.4406457E1,3.5125442E0,3.0128577E0,3.2953632E1,4.4289104E1,6.44885E1,-2.2571108E0,-4.4694334E-1,-1.3437082E0,3.3408202E-2,1.9156621E-1,1.4875008E0,-7.009889E-1,1.1611378E0,1.587913E0,3.721014E0,2.0005198E0,3.7631357E0,3.2633407E0,5.7110124E0],"categories":[],"categories_nodes":[],"categories_segments":[],"categories_sizes":[],"default_left":[0,0,0,0,0,0,0,0,0,0,0,0,0,0,0,0,0,0,0,0,0,0,0,0,0,0,0,0,0],"id":29,"left_children":[1,3,5,7,9,11,13,-1,15,17,19,21,23,25,27,-1,-1,-1,-1,-1,-1,-1,-1,-1,-1,-1,-1,-1,-1],"loss_changes":[2.3362053E5,1.1147142E5,9.736994E4,7.50975E3,1.58457705E4,2.086793E4,5.8375938E3,0E0,1.2087969E3,2.309831E3,3.4118357E3,1.4482875E4,4.4074023E3,1.7402969E3,2.6465312E3,0E0,0E0,0E0,0E0,0E0,0E0,0E0,0E0,0E0,0E0,0E0,0E0,0E0,0E0],"parents":[2147483647,0,0,1,1,2,2,3,3,4,4,5,5,6,6,8,8,9,9,10,10,11,11,12,12,13,13,14,14],"right_children":[2,4,6,8,10,12,14,-1,16,18,20,22,24,26,28,-1,-1,-1,-1,-1,-1,-1,-1,-1,-1,-1,-1,-1,-1],"split_conditions":[6E0,4E0,5E0,2E0,5E0,2E1,7E0,-3.3891213E0,5E0,1E0,4E0,3E0,3E0,8E0,1.1E1,-2.2571108E0,-4.4694334E-1,-1.3437082E0,3.3408202E-2,1.9156621E-1,1.4875008E0,-7.009889E-1,1.1611378E0,1.587913E0,3.721014E0,2.0005198E0,3.7631357E0,3.2633407E0,5.7110124E0],"split_indices":[1,0,0,0,0,1,0,0,1,1,1,0,0,1,1,0,0,0,0,0,0,0,0,0,0,0,0,0,0],"split_type":[0,0,0,0,0,0,0,0,0,0,0,0,0,0,0,0,0,0,0,0,0,0,0,0,0,0,0,0,0],"sum_hessian":[6.47E2,4.26E2,2.21E2,1.58E2,2.68E2,1.34E2,8.7E1,6.9E1,8.9E1,6.4E1,2.04E2,1.05E2,2.9E1,5.4E1,3.3E1,8.6E1,3E0,5.5E1,9E0,1.91E2,1.3E1,5.2E1,5.3E1,1.6E1,1.3E1,8E0,4.6E1,9E0,2.4E1],"tree_param":{"num_deleted":"0","num_feature":"2","num_nodes":"29","size_leaf_vector":"1"}},{"base_weights":[6.0037243E-1,-9.883257E0,2.663896E1,-2.3693268E1,5.863665E0,5.5483823E0,4.3989937E1,-2.7811964E1,-1.185185E1,2.6043859E0,1.9950186E1,-2.6868656E0,2.024598E1,3.737835E1,5.330687E0,-2.3714767E0,-8.2773644E-1,-1.2183517E0,3.6929852E-1,-5.469954E-1,5.135825E-1,3.4490771E0,1.2428374E0,-8.514888E-1,8.0749774E-1,1.168742E0,4.3713136E0,2.4975696E0,4.2204638E0],"categories":[],"categories_nodes":[],"categories_segments":[],"categories_sizes":[],"default_left":[0,0,0,0,0,0,0,0,0,0,0,0,0,0,0,0,0,0,0,0,0,0,0,0,0,0,0,0,0],"id":30,"left_children":[1,3,5,7,9,11,13,15,17,19,21,23,25,27,-1,-1,-1,-1,-1,-1,-1,-1,-1,-1,-1,-1,-1,-1,-1],"loss_changes":[1.7879147E5,1.0169514E5,6.855305E4,1.1814422E4,1.000275E4,1.0463697E4,1.2929516E4,5.579E3,3.741336E3,6.492246E3,3.5228467E3,5.8021787E3,5.211915E3,6.1188438E3,0E0,0E0,0E0,0E0,0E0,0E0,0E0,0E0,0E0,0E0,0E0,0E0,0E0,0E0,0E0],"parents":[2147483647,0,0,1,1,2,2,3,3,4,4,5,5,6,6,7,7,8,8,9,9,10,10,11,11,12,12,13,13],"right_children":[2,4,6,8,10,12,14,16,18,20,22,24,26,28,-1,-1,-1,-1,-1,-1,-1,-1,-1,-1,-1,-1,-1,-1,-1],"split_conditions":[9E0,5E0,4E0,4E0,1E0,3E0,2.1E1,5E0,1E0,6E0,2E0,1.7E1,2.2E1,7E0,5.330687E0,-2.3714767E0,-8.2773644E-1,-1.2183517E0,3.6929852E-1,-5.469954E-1,5.135825E-1,3.4490771E0,1.2428374E0,-8.514888E-1,8.0749774E-1,1.168742E0,4.3713136E0,2.4975696E0,4.2204638E0],"split_indices":[1,0,0,0,1,0,1,1,1,0,1,1,1,0,0,0,0,0,0,0,0,0,0,0,0,0,0,0,0],"split_type":[0,0,0,0,0,0,0,0,0,0,0,0,0,0,0,0,0,0,0,0,0,0,0,0,0,0,0,0,0],"sum_hessian":[6.53E2,4.66E2,1.87E2,2.48E2,2.18E2,8.5E1,1.02E2,1.83E2,6.5E1,1.78E2,4E1,5.5E1,3E1,8.1E1,2.1E1,1.65E2,1.8E1,5.4E1,1.1E1,5.1E1,1.27E2,5E0,3.5E1,3.4E1,2.1E1,2.7E1,3E0,6E1,2.1E1],"tree_param":{"num_deleted":"0","num_feature":"2","num_nodes":"29","size_leaf_vector":"1"}},{"base_weights":[9.421699E-2,-1.0035755E1,2.473985E1,-2.8381655E1,1.0679932E0,1.251564E1,4.5279266E1,-3.4055485E1,-1.6940777E1,-6.3368464E0,7.617068E0,1.0041668E1,5.207837E1,3.7783875E1,4.6956577E0,-2.8926082E0,-8.2564276E-1,-1.5424107E0,-3.64367E-1,-8.1218785E-1,5.390799E-1,3.2867566E-1,2.0109687E0,9.732067E-3,1.4834086E0,-1.220498E0,5.2674804E0,2.2652354E0,3.3543298E0],"categories":[],"categories_nodes":[],"categories_segments":[],"categories_sizes":[],"default_left":[0,0,0,0,0,0,0,0,0,0,0,0,0,0,0,0,0,0,0,0,0,0,0,0,0,0,0,0,0],"id":31,"left_children":[1,3,5,7,9,11,13,15,17,19,21,23,25,27,-1,-1,-1,-1,-1,-1,-1,-1,-1,-1,-1,-1,-1,-1,-1],"loss_changes":[1.662719E5,9.618061E4,4.814247E4,1.0977703E4,1.4354249E4,1.151593E4,5.022672E3,5.5142812E3,1.679707E3,7.0029834E3,9.547704E3,9.864293E3,7.4926113E3,7.3596094E2,0E0,0E0,0E0,0E0,0E0,0E0,0E0,0E0,0E0,0E0,0E0,0E0,0E0,0E0,0E0],"parents":[2147483647,0,0,1,1,2,2,3,3,4,4,5,5,6,6,7,7,8,8,9,9,10,10,11,11,12,12,13,13],"right_children":[2,4,6,8,10,12,14,16,18,20,22,24,26,28,-1,-1,-1,-1,-1,-1,-1,-1,-1,-1,-1,-1,-1,-1,-1],"split_conditions":[9E0,4E0,5E0,3E0,6E0,2.3E1,2E1,6E0,4E0,1E0,1E0,3E0,2E0,6E0,4.6956577E0,-2.8926082E0,-8.2564276E-1,-1.5424107E0,-3.64367E-1,-8.1218785E-1,5.390799E-1,3.2867566E-1,2.0109687E0,9.732067E-3,1.4834086E0,-1.220498E0,5.2674804E0,2.2652354E0,3.3543298E0],"split_indices":[1,0,0,0,0,1,1,1,1,1,1,0,0,0,0,0,0,0,0,0,0,0,0,0,0,0,0,0,0],"split_type":[0,0,0,0,0,0,0,0,0,0,0,0,0,0,0,0,0,0,0,0,0,0,0,0,0,0,0,0,0],"sum_hessian":[6.64E2,4.71E2,1.93E2,1.77E2,2.94E2,1.22E2,7.1E1,1.17E2,6E1,1.38E2,1.56E2,1.16E2,6E0,4.8E1,2.3E1,1.07E2,1E1,5E1,1E1,1.07E2,3.1E1,1.31E2,2.5E1,5.4E1,6.2E1,1E0,5E0,1.7E1,3.1E1],"tree_param":{"num_deleted":"0","num_feature":"2","num_nodes":"29","size_leaf_vector":"1"}},{"base_weights":[-3.596159E-1,-1.0647471E1,2.1472466E1,-2.5041323E1,-1.2293266E0,1.0224556E1,4.1246136E1,-2.7064605E0,-1.8527655E1,-6.9608927E0,4.1346865E0,4.7023582E0,2.6648651E1,3.0913618E1,5.537004E1,-1.5502976E0,-9.4837606E-1,-8.3248127E-1,5.5638593E-1,1.982638E-1,1.3204986E0,-6.3834816E-1,7.412739E-1,1.5999222E0,3.8792202E0,2.2748482E0,3.6040487E0,2.4089217E0,5.472686E0],"categories":[],"categories_nodes":[],"categories_segments":[],"categories_sizes":[],"default_left":[0,0,0,0,0,0,0,0,0,0,0,0,0,0,0,0,0,0,0,0,0,0,0,0,0,0,0,0,0],"id":32,"left_children":[1,3,5,7,9,11,13,-1,15,17,19,21,23,25,27,-1,-1,-1,-1,-1,-1,-1,-1,-1,-1,-1,-1,-1,-1],"loss_changes":[1.4375139E5,5.8939285E4,4.517282E4,9.220453E3,8.1452485E3,1.1846704E4,9.087539E3,0E0,3.4386328E2,6.208868E3,2.7665093E3,5.8613164E3,3.8231113E3,2.953828E2,7.8201406E3,0E0,0E0,0E0,0E0,0E0,0E0,0E0,0E0,0E0,0E0,0E0,0E0,0E0,0E0],"parents":[2147483647,0,0,1,1,2,2,3,3,4,4,5,5,6,6,8,8,9,9,10,10,11,11,12,12,13,13,14,14],"right_children":[2,4,6,8,10,12,14,-1,16,18,20,22,24,26,28,-1,-1,-1,-1,-1,-1,-1,-1,-1,-1,-1,-1,-1,-1],"split_conditions":[7E0,4E0,5E0,2E0,6E0,2E1,7E0,-2.7064605E0,1E0,1E0,1E0,2E0,2.3E1,2.3E1,1.6E1,-1.5502976E0,-9.4837606E-1,-8.3248127E-1,5.5638593E-1,1.982638E-1,1.3204986E0,-6.3834816E-1,7.412739E-1,1.5999222E0,3.8792202E0,2.2748482E0,3.6040487E0,2.4089217E0,5.472686E0],"split_indices":[1,0,0,0,0,1,0,0,1,1,1,0,1,1,1,0,0,0,0,0,0,0,0,0,0,0,0,0,0],"split_type":[0,0,0,0,0,0,0,0,0,0,0,0,0,0,0,0,0,0,0,0,0,0,0,0,0,0,0,0,0],"sum_hessian":[6.38E2,4.34E2,2.04E2,1.71E2,2.63E2,1.31E2,7.3E1,7.1E1,1E2,1.27E2,1.36E2,9.9E1,3.2E1,4.4E1,2.9E1,8.7E1,1.3E1,1.02E2,2.5E1,1.21E2,1.5E1,2.6E1,7.3E1,2.6E1,6E0,4E1,4E0,1.1E1,1.8E1],"tree_param":{"num_deleted":"0","num_feature":"2","num_nodes":"29","size_leaf_vector":"1"}},{"base_weights":[2.5592682E0,-5.826805E0,2.3762506E1,-1.738159E1,7.0149875E0,9.215124E0,3.6850082E1,-2.6474796E1,-1.3189487E1,5.2083483E0,2.3887028E1,6.8534465E0,4.034914E1,3.0942535E1,4.9431564E1,-2.2439644E0,-2.7421385E-1,-1.223481E0,-2.962964E-1,1.6260305E-1,8.2905513E-1,2.1738126E0,6.3507813E-1,-2.5708458E-1,8.9984626E-1,-1.3268505E0,4.404258E0,2.9300587E0,2.083892E0,1.819038E0,4.323625E0],"categories":[],"categories_nodes":[],"categories_segments":[],"categories_sizes":[],"default_left":[0,0,0,0,0,0,0,0,0,0,0,0,0,0,0,0,0,0,0,0,0,0,0,0,0,0,0,0,0,0,0],"id":33,"left_children":[1,3,5,7,9,11,13,15,17,19,21,23,25,27,29,-1,-1,-1,-1,-1,-1,-1,-1,-1,-1,-1,-1,-1,-1,-1,-1],"loss_changes":[1.1482713E5,6.882379E4,3.4501797E4,8.952008E3,6.5815596E3,6.193978E3,5.6057266E3,2.6621719E3,3.3163164E3,3.2530957E3,8.847119E2,3.7081306E3,5.936133E3,9.3722266E2,2.3426875E3,0E0,0E0,0E0,0E0,0E0,0E0,0E0,0E0,0E0,0E0,0E0,0E0,0E0,0E0,0E0,0E0],"parents":[2147483647,0,0,1,1,2,2,3,3,4,4,5,5,6,6,7,7,8,8,9,9,10,10,11,11,12,12,13,13,14,14],"right_children":[2,4,6,8,10,12,14,16,18,20,22,24,26,28,30,-1,-1,-1,-1,-1,-1,-1,-1,-1,-1,-1,-1,-1,-1,-1,-1],"split_conditions":[9E0,5E0,4E0,2E0,5E0,2.3E1,7E0,7E0,1E0,7E0,8E0,1.2E1,2E0,1.5E1,1.1E1,-2.2439644E0,-2.7421385E-1,-1.223481E0,-2.962964E-1,1.6260305E-1,8.2905513E-1,2.1738126E0,6.3507813E-1,-2.5708458E-1,8.9984626E-1,-1.3268505E0,4.404258E0,2.9300587E0,2.083892E0,1.819038E0,4.323625E0],"split_indices":[1,0,0,0,1,1,0,1,1,0,1,1,0,1,1,0,0,0,0,0,0,0,0,0,0,0,0,0,0,0,0],"split_type":[0,0,0,0,0,0,0,0,0,0,0,0,0,0,0,0,0,0,0,0,0,0,0,0,0,0,0,0,0,0,0],"sum_hessian":[6.44E2,4.62E2,1.82E2,2.43E2,2.19E2,8.7E1,9.5E1,7.5E1,1.68E2,1.99E2,2E1,8.2E1,5E0,6.7E1,2.8E1,7E1,5E0,1.37E2,3.1E1,1.24E2,7.5E1,1.6E1,4E0,2.5E1,5.7E1,1E0,4E0,2.8E1,3.9E1,5E0,2.3E1],"tree_param":{"num_deleted":"0","num_feature":"2","num_nodes":"31","size_leaf_vector":"1"}},{"base_weights":[6.695106E-1,-7.349057E0,1.716384E1,-2.014016E1,4.5802695E-1,6.809544E0,3.4116356E1,-2.6523436E1,-1.5635706E1,-3.618334E0,1.0434013E1,1.8005652E0,2.5171125E1,2.6714779E1,4.362417E1,-2.2392392E0,-1.1297623E0,-1.3249531E0,-5.4436874E-1,-3.21023E-1,7.3702145E-1,5.884101E-1,2.9163904E0,-7.441933E-1,4.9742004E-1,1.4613197E0,3.462041E0,1.865284E0,2.85746E0,3.053139E0,5.8934083E0],"categories":[],"categories_nodes":[],"categories_segments":[],"categories_sizes":[],"default_left":[0,0,0,0,0,0,0,0,0,0,0,0,0,0,0,0,0,0,0,0,0,0,0,0,0,0,0,0,0,0,0],"id":34,"left_children":[1,3,5,7,9,11,13,15,17,19,21,23,25,27,29,-1,-1,-1,-1,-1,-1,-1,-1,-1,-1,-1,-1,-1,-1,-1,-1],"loss_changes":[8.450859E4,4.2949547E4,3.6453734E4,4.2720547E3,1.0936167E4,1.200311E4,4.394039E3,8.054922E2,6.888887E2,1.0036714E3,5.9808623E3,5.158409E3,2.709621E3,6.0541016E2,2.6016875E3,0E0,0E0,0E0,0E0,0E0,0E0,0E0,0E0,0E0,0E0,0E0,0E0,0E0,0E0,0E0,0E0],"parents":[2147483647,0,0,1,1,2,2,3,3,4,4,5,5,6,6,7,7,8,8,9,9,10,10,11,11,12,12,13,13,14,14],"right_children":[2,4,6,8,10,12,14,16,18,20,22,24,26,28,30,-1,-1,-1,-1,-1,-1,-1,-1,-1,-1,-1,-1,-1,-1,-1,-1],"split_conditions":[6E0,4E0,5E0,2E0,7E0,2E1,7E0,1E0,1E0,5E0,1E0,2E0,4E0,2.1E1,2.2E1,-2.2392392E0,-1.1297623E0,-1.3249531E0,-5.4436874E-1,-3.21023E-1,7.3702145E-1,5.884101E-1,2.9163904E0,-7.441933E-1,4.9742004E-1,1.4613197E0,3.462041E0,1.865284E0,2.85746E0,3.053139E0,5.8934083E0],"split_indices":[1,0,0,0,0,1,0,1,1,1,1,0,0,1,1,0,0,0,0,0,0,0,0,0,0,0,0,0,0,0,0],"split_type":[0,0,0,0,0,0,0,0,0,0,0,0,0,0,0,0,0,0,0,0,0,0,0,0,0,0,0,0,0,0,0],"sum_hessian":[6.37E2,4.29E2,2.08E2,1.62E2,2.67E2,1.3E2,7.8E1,6.5E1,9.7E1,1.9E2,7.7E1,1.03E2,2.7E1,4.6E1,3.2E1,5.7E1,8E0,8.7E1,1E1,1.85E2,5E0,7E1,7E0,2.9E1,7.4E1,2.1E1,6E0,3.6E1,1E1,2.9E1,3E0],"tree_param":{"num_deleted":"0","num_feature":"2","num_nodes":"31","size_leaf_vector":"1"}},{"base_weights":[2.359239E-1,-7.1780863E0,1.8925793E1,-1.7710915E1,4.791022E0,7.0318575E0,2.8903854E1,-2.4469746E1,-1.1425181E1,2.409282E0,1.51112385E1,-2.3353577E0,1.2167279E1,2.328426E1,4.1802063E1,-2.083993E0,-6.251253E-1,-1.0905408E0,-2.0678815E-1,-2.6642455E-2,5.266929E-1,6.5941733E-1,2.3839414E0,-1.2044042E0,3.3045143E-1,6.0226506E-1,1.580904E0,1.3698447E0,2.4336162E0,2.7412257E0,4.4464417E0],"categories":[],"categories_nodes":[],"categories_segments":[],"categories_sizes":[],"default_left":[0,0,0,0,0,0,0,0,0,0,0,0,0,0,0,0,0,0,0,0,0,0,0,0,0,0,0,0,0,0,0],"id":35,"left_children":[1,3,5,7,9,11,13,15,17,19,21,23,25,27,29,-1,-1,-1,-1,-1,-1,-1,-1,-1,-1,-1,-1,-1,-1,-1,-1],"loss_changes":[9.269852E4,6.0471695E4,2.2345656E4,1.0553906E4,5.4941084E3,4.26162E3,6.492383E3,3.0073281E3,2.5786855E3,2.108524E3,3.991546E3,2.694045E3,1.85925E3,2.7325977E3,1.2108516E3,0E0,0E0,0E0,0E0,0E0,0E0,0E0,0E0,0E0,0E0,0E0,0E0,0E0,0E0,0E0,0E0],"parents":[2147483647,0,0,1,1,2,2,3,3,4,4,5,5,6,6,7,7,8,8,9,9,10,10,11,11,12,12,13,13,14,14],"right_children":[2,4,6,8,10,12,14,16,18,20,22,24,26,28,30,-1,-1,-1,-1,-1,-1,-1,-1,-1,-1,-1,-1,-1,-1,-1,-1],"split_conditions":[9E0,5E0,4E0,3E0,1E0,1.3E1,2E1,6E0,1E0,7E0,7E0,2E0,3E0,6E0,2.3E1,-2.083993E0,-6.251253E-1,-1.0905408E0,-2.0678815E-1,-2.6642455E-2,5.266929E-1,6.5941733E-1,2.3839414E0,-1.2044042E0,3.3045143E-1,6.0226506E-1,1.580904E0,1.3698447E0,2.4336162E0,2.7412257E0,4.4464417E0],"split_indices":[1,0,0,0,1,1,1,1,1,0,0,0,0,0,1,0,0,0,0,0,0,0,0,0,0,0,0,0,0,0,0],"split_type":[0,0,0,0,0,0,0,0,0,0,0,0,0,0,0,0,0,0,0,0,0,0,0,0,0,0,0,0,0,0,0],"sum_hessian":[6.67E2,4.78E2,1.89E2,2.54E2,2.24E2,8.7E1,1.02E2,1.21E2,1.33E2,1.83E2,4.1E1,3.1E1,5.6E1,7.3E1,2.9E1,1.1E2,1.1E1,1.06E2,2.7E1,1.11E2,7.2E1,2.9E1,1.2E1,1E1,2.1E1,3.6E1,2E1,4.1E1,3.2E1,2.1E1,8E0],"tree_param":{"num_deleted":"0","num_feature":"2","num_nodes":"31","size_leaf_vector":"1"}},{"base_weights":[-7.558317E-1,-6.3761253E0,2.0089897E1,-1.9791399E1,-1.5653977E0,2.4690174E-2,2.8659157E1,-2.29952E1,-1.1397649E1,-4.779957E0,8.66715E0,-3.430802E0,2.6281494E1,2.3153782E1,4.512605E1,-2.0704124E0,-1.4328631E0,-1.3858824E0,-6.09069E-2,-7.744833E-1,1.5101923E-1,3.8086304E-1,2.1149218E0,6.8232787E-1,-5.1252455E-1,-1.3563184E0,3.3063085E0,1.5239642E0,3.042169E0,2.1823883E0,3.9856007E0],"categories":[],"categories_nodes":[],"categories_segments":[],"categories_sizes":[],"default_left":[0,0,0,0,0,0,0,0,0,0,0,0,0,0,0,0,0,0,0,0,0,0,0,0,0,0,0,0,0,0,0],"id":36,"left_children":[1,3,5,7,9,11,13,15,17,19,21,23,25,27,29,-1,-1,-1,-1,-1,-1,-1,-1,-1,-1,-1,-1,-1,-1,-1,-1],"loss_changes":[7.557857E4,3.275393E4,2.355561E4,3.3414258E3,1.2376351E4,3.9008345E3,7.6581797E3,9.446172E2,2.444963E3,9.364457E3,6.1213657E3,1.407052E3,3.9535881E3,3.7928281E3,5.676133E2,0E0,0E0,0E0,0E0,0E0,0E0,0E0,0E0,0E0,0E0,0E0,0E0,0E0,0E0,0E0,0E0],"parents":[2147483647,0,0,1,1,2,2,3,3,4,4,5,5,6,6,7,7,8,8,9,9,10,10,11,11,12,12,13,13,14,14],"right_children":[2,4,6,8,10,12,14,16,18,20,22,24,26,28,30,-1,-1,-1,-1,-1,-1,-1,-1,-1,-1,-1,-1,-1,-1,-1,-1],"split_conditions":[1.2E1,3E0,3E0,1E0,1E0,2.3E1,2.1E1,2E0,2E0,6E0,7E0,1.4E1,2E0,7E0,4E0,-2.0704124E0,-1.4328631E0,-1.3858824E0,-6.09069E-2,-7.744833E-1,1.5101923E-1,3.8086304E-1,2.1149218E0,6.8232787E-1,-5.1252455E-1,-1.3563184E0,3.3063085E0,1.5239642E0,3.042169E0,2.1823883E0,3.9856007E0],"split_indices":[1,0,0,1,1,1,1,0,0,0,0,1,0,0,0,0,0,0,0,0,0,0,0,0,0,0,0,0,0,0,0],"split_type":[0,0,0,0,0,0,0,0,0,0,0,0,0,0,0,0,0,0,0,0,0,0,0,0,0,0,0,0,0,0,0],"sum_hessian":[6.43E2,5.07E2,1.36E2,1.33E2,3.74E2,4.1E1,9.5E1,9.5E1,3.8E1,2.85E2,8.9E1,3.7E1,4E0,7.3E1,2.2E1,5.8E1,3.7E1,2.4E1,1.4E1,1.64E2,1.21E2,7.4E1,1.5E1,7E0,3E1,1E0,3E0,5.9E1,1.4E1,6E0,1.6E1],"tree_param":{"num_deleted":"0","num_feature":"2","num_nodes":"31","size_leaf_vector":"1"}},{"base_weights":[1.0277615E0,-3.9578564E0,1.8715956E1,-1.6418129E1,6.9164145E-1,1.3794241E1,4.8048706E1,-1.8494715E1,-4.7225785E0,-2.373932E0,9.652717E0,2.0107026E0,1.9241232E1,2.7631308E1,4.240993E0,-1.6463182E0,-1.1582187E0,-7.241462E-1,2.0292318E-1,-4.065604E-1,4.8872566E-1,3.446372E0,5.17442E-1,-9.425971E-2,1.9655195E0,1.2571691E0,2.5772696E0,2.4909842E0,4.0405273E-1],"categories":[],"categories_nodes":[],"categories_segments":[],"categories_sizes":[],"default_left":[0,0,0,0,0,0,0,0,0,0,0,0,0,0,0,0,0,0,0,0,0,0,0,0,0,0,0,0,0],"id":37,"left_children":[1,3,5,7,9,11,13,15,17,19,21,23,25,27,-1,-1,-1,-1,-1,-1,-1,-1,-1,-1,-1,-1,-1,-1,-1],"loss_changes":[5.695442E4,2.9210094E4,1.9837375E4,3.2399531E3,1.0132183E4,7.856047E3,5.621211E2,6.7326953E2,7.1434393E2,6.348509E3,9.728081E3,2.9064377E3,3.3372969E3,3.177422E2,0E0,0E0,0E0,0E0,0E0,0E0,0E0,0E0,0E0,0E0,0E0,0E0,0E0,0E0,0E0],"parents":[2147483647,0,0,1,1,2,2,3,3,4,4,5,5,6,6,7,7,8,8,9,9,10,10,11,11,12,12,13,13],"right_children":[2,4,6,8,10,12,14,16,18,20,22,24,26,28,-1,-1,-1,-1,-1,-1,-1,-1,-1,-1,-1,-1,-1,-1,-1],"split_conditions":[1.2E1,3E0,7E0,7E0,1E0,3E0,1.8E1,2E0,2E0,7E0,2E0,2.3E1,2.1E1,1.7E1,4.240993E0,-1.6463182E0,-1.1582187E0,-7.241462E-1,2.0292318E-1,-4.065604E-1,4.8872566E-1,3.446372E0,5.17442E-1,-9.425971E-2,1.9655195E0,1.2571691E0,2.5772696E0,2.4909842E0,4.0405273E-1],"split_indices":[1,0,0,1,1,0,1,0,0,0,1,1,1,1,0,0,0,0,0,0,0,0,0,0,0,0,0,0,0],"split_type":[0,0,0,0,0,0,0,0,0,0,0,0,0,0,0,0,0,0,0,0,0,0,0,0,0,0,0,0,0],"sum_hessian":[6.44E2,5.03E2,1.41E2,1.36E2,3.67E2,1.22E2,1.9E1,1.15E2,2.1E1,2.74E2,9.3E1,3.9E1,8.3E1,5E0,1.4E1,7.3E1,4.2E1,1.3E1,8E0,2.08E2,6.6E1,7E0,8.6E1,3.5E1,4E0,6.7E1,1.6E1,4E0,1E0],"tree_param":{"num_deleted":"0","num_feature":"2","num_nodes":"29","size_leaf_vector":"1"}},{"base_weights":[-2.263178E-1,-9.608701E0,6.426341E0,-1.6634352E1,2.7483907E0,8.99694E-1,1.9883083E1,-1.7538048E1,-7.978597E0,-7.3170304E0,8.209974E0,-1.9318104E0,7.8580165E0,1.8028418E1,3.5678139E0,-1.3526165E0,-2.268785E0,1.8679129E-1,-1.0663931E0,-7.240443E-1,7.279994E-2,4.9303403E-1,2.9899974E0,-4.1896483E-1,-1.5912816E-2,4.3118027E-1,2.3025281E0,9.8830664E-1,1.8772341E0],"categories":[],"categories_nodes":[],"categories_segments":[],"categories_sizes":[],"default_left":[0,0,0,0,0,0,0,0,0,0,0,0,0,0,0,0,0,0,0,0,0,0,0,0,0,0,0,0,0],"id":38,"left_children":[1,3,5,7,9,11,13,15,17,19,21,23,25,27,-1,-1,-1,-1,-1,-1,-1,-1,-1,-1,-1,-1,-1,-1,-1],"loss_changes":[4.0321227E4,2.331257E4,2.8094219E4,1.1976602E3,5.4474404E3,5.315158E3,4.238082E3,5.709961E2,1.0245576E3,5.0739734E2,3.5905986E3,1.0986707E3,3.8731777E3,2.9188008E3,0E0,0E0,0E0,0E0,0E0,0E0,0E0,0E0,0E0,0E0,0E0,0E0,0E0,0E0,0E0],"parents":[2147483647,0,0,1,1,2,2,3,3,4,4,5,5,6,6,7,7,8,8,9,9,10,10,11,11,12,12,13,13],"right_children":[2,4,6,8,10,12,14,16,18,20,22,24,26,28,-1,-1,-1,-1,-1,-1,-1,-1,-1,-1,-1,-1,-1,-1,-1],"split_conditions":[4E0,7E0,6E0,4E0,2E0,7E0,2.3E1,2E0,5E0,2E1,2.3E1,5E0,1E0,6E0,3.5678139E0,-1.3526165E0,-2.268785E0,1.8679129E-1,-1.0663931E0,-7.240443E-1,7.279994E-2,4.9303403E-1,2.9899974E0,-4.1896483E-1,-1.5912816E-2,4.3118027E-1,2.3025281E0,9.8830664E-1,1.8772341E0],"split_indices":[0,1,1,1,0,0,1,1,1,1,1,0,1,0,0,0,0,0,0,0,0,0,0,0,0,0,0,0,0],"split_type":[0,0,0,0,0,0,0,0,0,0,0,0,0,0,0,0,0,0,0,0,0,0,0,0,0,0,0,0,0],"sum_hessian":[6.44E2,2.67E2,3.77E2,1.7E2,9.7E1,2.68E2,1.09E2,1.53E2,1.7E1,3.4E1,6.3E1,1.91E2,7.7E1,1.03E2,6E0,1.47E2,6E0,6E0,1.1E1,2.8E1,6E0,6E1,3E0,6.5E1,1.26E2,7E1,7E0,5.2E1,5.1E1],"tree_param":{"num_deleted":"0","num_feature":"2","num_nodes":"29","size_leaf_vector":"1"}},{"base_weights":[-2.5739703E-1,-1.3511817E1,4.7026973E0,-1.726389E1,6.2671247E0,-9.0795195E-1,1.8975573E1,-2.030448E1,-1.1493916E1,-6.94869E0,1.9979275E1,-7.6383967E0,3.0440779E0,1.5215421E1,2.5596457E0,-2.0398045E0,-1.0713211E0,-6.948182E-1,-2.526372E0,-1.4289801E0,6.4605606E-1,1.0122176E0,2.8105981E0,-7.200564E-1,-1.3604859E-1,8.865814E-2,1.2784325E0,1.0045986E0,2.3835435E0],"categories":[],"categories_nodes":[],"categories_segments":[],"categories_sizes":[],"default_left":[0,0,0,0,0,0,0,0,0,0,0,0,0,0,0,0,0,0,0,0,0,0,0,0,0,0,0,0,0],"id":39,"left_children":[1,3,5,7,9,11,13,15,17,19,21,23,25,27,-1,-1,-1,-1,-1,-1,-1,-1,-1,-1,-1,-1,-1,-1,-1],"loss_changes":[4.128451E4,1.2798451E4,3.661383E4,2.2929766E3,5.2129116E3,8.774297E3,5.8286523E3,2.997211E3,2.6592812E3,2.6037942E3,1.109769E3,9.715635E2,5.1911934E3,3.578332E3,0E0,0E0,0E0,0E0,0E0,0E0,0E0,0E0,0E0,0E0,0E0,0E0,0E0,0E0,0E0],"parents":[2147483647,0,0,1,1,2,2,3,3,4,4,5,5,6,6,7,7,8,8,9,9,10,10,11,11,12,12,13,13],"right_children":[2,4,6,8,10,12,14,16,18,20,22,24,26,28,-1,-1,-1,-1,-1,-1,-1,-1,-1,-1,-1,-1,-1,-1,-1],"split_conditions":[3E0,1.6E1,9E0,1E0,2E0,5E0,7E0,2E0,1.4E1,2E1,2.3E1,1E0,4E0,2.2E1,2.5596457E0,-2.0398045E0,-1.0713211E0,-6.948182E-1,-2.526372E0,-1.4289801E0,6.4605606E-1,1.0122176E0,2.8105981E0,-7.200564E-1,-1.3604859E-1,8.865814E-2,1.2784325E0,1.0045986E0,2.3835435E0],"split_indices":[0,1,1,1,0,0,0,0,1,1,1,1,1,1,0,0,0,0,0,0,0,0,0,0,0,0,0,0,0],"split_type":[0,0,0,0,0,0,0,0,0,0,0,0,0,0,0,0,0,0,0,0,0,0,0,0,0,0,0,0,0],"sum_hessian":[6.26E2,1.7E2,4.56E2,1.43E2,2.7E1,3.28E2,1.28E2,9.2E1,5.1E1,1.4E1,1.3E1,1.21E2,2.07E2,1.01E2,2.7E1,5.1E1,4.1E1,4.6E1,5E0,8E0,6E0,1E1,3E0,9.8E1,2.3E1,1.81E2,2.6E1,8.7E1,1.4E1],"tree_param":{"num_deleted":"0","num_feature":"2","num_nodes":"29","size_leaf_vector":"1"}},{"base_weights":[1.4803216E0,-2.6787379E0,1.5912944E1,-7.397985E0,8.818612E0,1.0971408E1,2.711897E1,-1.5018045E1,-5.131881E0,7.2142944E0,1.7224062E1,8.749311E0,3.0761974E1,2.4254135E1,4.461387E1,-1.3457184E0,-5.2220273E-1,-5.255834E-1,5.2666706E-1,6.9634324E-1,-2.4467578E0,1.8855608E0,7.554622E-1,2.6530835E-1,1.003318E0,-1.4094385E0,3.0476062E0,2.4953492E0,1.6133461E0,1.0727148E0,4.8758006E0],"categories":[],"categories_nodes":[],"categories_segments":[],"categories_sizes":[],"default_left":[0,0,0,0,0,0,0,0,0,0,0,0,0,0,0,0,0,0,0,0,0,0,0,0,0,0,0,0,0,0,0],"id":40,"left_children":[1,3,5,7,9,11,13,15,17,19,21,23,25,27,29,-1,-1,-1,-1,-1,-1,-1,-1,-1,-1,-1,-1,-1,-1,-1,-1],"loss_changes":[3.9179664E4,2.7574473E4,7.787215E3,6.1393555E3,1.8715225E3,4.2604395E3,1.123209E3,1.1457891E3,4.743132E3,7.362539E3,9.129956E2,1.8950591E3,4.21891E3,5.052246E2,1.731209E3,0E0,0E0,0E0,0E0,0E0,0E0,0E0,0E0,0E0,0E0,0E0,0E0,0E0,0E0,0E0,0E0],"parents":[2147483647,0,0,1,1,2,2,3,3,4,4,5,5,6,6,7,7,8,8,9,9,10,10,11,11,12,12,13,13,14,14],"right_children":[2,4,6,8,10,12,14,16,18,20,22,24,26,28,30,-1,-1,-1,-1,-1,-1,-1,-1,-1,-1,-1,-1,-1,-1,-1,-1],"split_conditions":[1.2E1,6E0,6E0,2E0,4E0,2.3E1,2.3E1,6E0,9E0,3E0,8E0,3E0,2E0,1.7E1,7E0,-1.3457184E0,-5.2220273E-1,-5.255834E-1,5.2666706E-1,6.9634324E-1,-2.4467578E0,1.8855608E0,7.554622E-1,2.6530835E-1,1.003318E0,-1.4094385E0,3.0476062E0,2.4953492E0,1.6133461E0,1.0727148E0,4.8758006E0],"split_indices":[1,0,0,0,1,1,1,1,1,1,1,0,0,1,0,0,0,0,0,0,0,0,0,0,0,0,0,0,0,0,0],"split_type":[0,0,0,0,0,0,0,0,0,0,0,0,0,0,0,0,0,0,0,0,0,0,0,0,0,0,0,0,0,0,0],"sum_hessian":[6.51E2,5.06E2,1.45E2,3.59E2,1.47E2,1.02E2,4.3E1,8.1E1,2.78E2,1.25E2,2.2E1,9.3E1,9E0,3.9E1,4E0,6.6E1,1.5E1,2.48E2,3E1,1.21E2,4E0,1.1E1,1.1E1,3.9E1,5.4E1,1E0,8E0,1.2E1,2.7E1,2E0,2E0],"tree_param":{"num_deleted":"0","num_feature":"2","num_nodes":"31","size_leaf_vector":"1"}},{"base_weights":[3.0335373E-1,-4.679418E0,1.0529697E1,-1.2448205E1,3.4100432E-2,2.588459E0,1.7517561E1,-1.5398926E1,-1.0364072E1,-9.87448E-1,6.0577426E0,9.999602E-1,3.2252247E1,1.5608516E1,3.741912E1,-1.1372018E0,-1.854216E0,-9.165402E-1,-1.8706656E-1,8.78038E-2,-1.3067187E-1,1.8613958E0,-5.5406845E-1,-9.9583846E-1,1.6371423E-1,-1.3530614E0,3.9017553E0,8.055937E-1,1.4114372E0,1.8706404E0,4.6157618E0],"categories":[],"categories_nodes":[],"categories_segments":[],"categories_sizes":[],"default_left":[0,0,0,0,0,0,0,0,0,0,0,0,0,0,0,0,0,0,0,0,0,0,0,0,0,0,0,0,0,0,0],"id":41,"left_children":[1,3,5,7,9,11,13,15,17,19,21,23,25,27,29,-1,-1,-1,-1,-1,-1,-1,-1,-1,-1,-1,-1,-1,-1,-1,-1],"loss_changes":[3.250795E4,1.5709686E4,1.1552545E4,8.366543E2,1.6551041E3,4.6327173E3,3.6331602E3,2.6913574E2,8.326279E2,3.1155768E2,8.87546E3,1.3623933E3,4.88589E3,9.8293945E2,1.2124775E3,0E0,0E0,0E0,0E0,0E0,0E0,0E0,0E0,0E0,0E0,0E0,0E0,0E0,0E0,0E0,0E0],"parents":[2147483647,0,0,1,1,2,2,3,3,4,4,5,5,6,6,7,7,8,8,9,9,10,10,11,11,12,12,13,13,14,14],"right_children":[2,4,6,8,10,12,14,16,18,20,22,24,26,28,30,-1,-1,-1,-1,-1,-1,-1,-1,-1,-1,-1,-1,-1,-1,-1,-1],"split_conditions":[6E0,4E0,4E0,2E0,1E0,2.3E1,2.3E1,2E0,1E0,5E0,3E0,7E0,2E0,5E0,7E0,-1.1372018E0,-1.854216E0,-9.165402E-1,-1.8706656E-1,8.78038E-2,-1.3067187E-1,1.8613958E0,-5.5406845E-1,-9.9583846E-1,1.6371423E-1,-1.3530614E0,3.9017553E0,8.055937E-1,1.4114372E0,1.8706404E0,4.6157618E0],"split_indices":[1,0,0,0,1,1,1,1,1,0,1,1,0,0,0,0,0,0,0,0,0,0,0,0,0,0,0,0,0,0,0],"split_type":[0,0,0,0,0,0,0,0,0,0,0,0,0,0,0,0,0,0,0,0,0,0,0,0,0,0,0,0,0,0,0],"sum_hessian":[6.36E2,4.28E2,2.08E2,1.61E2,2.67E2,9.8E1,1.1E2,6.4E1,9.7E1,2.29E2,3.8E1,9.4E1,4E0,1.02E2,8E0,5.8E1,6E0,8.5E1,1.2E1,5.4E1,1.75E2,1.6E1,2.2E1,6E0,8.8E1,1E0,3E0,2.9E1,7.3E1,6E0,2E0],"tree_param":{"num_deleted":"0","num_feature":"2","num_nodes":"31","size_leaf_vector":"1"}},{"base_weights":[3.5751504E-1,-6.3329825E0,8.921033E0,-1.068054E1,2.5980215E0,4.4187016E0,2.249354E1,-1.1230764E0,-5.9010835E0,3.1350445E-2,3.5902405E-1,-8.4869665E-1,9.84468E0,5.245462E0,2.0262398E1,-3.9136824E-1,-5.514072E-1,-7.9290783E-1,1.5732108E-1,2.717376E-1,1.1409492E0,9.020551E-1,2.3561652E0],"categories":[],"categories_nodes":[],"categories_segments":[],"categories_sizes":[],"default_left":[0,0,0,0,0,0,0,0,0,0,0,0,0,0,0,0,0,0,0,0,0,0,0],"id":42,"left_children":[1,3,5,7,9,11,13,-1,15,-1,-1,17,19,-1,21,-1,-1,-1,-1,-1,-1,-1,-1],"loss_changes":[3.683937E4,1.4044675E4,1.7133043E4,3.8170684E3,4.9436652E2,6.096062E3,5.3988438E3,0E0,6.8322754E1,0E0,0E0,2.8004373E3,2.9421504E3,0E0,5.2836797E3,0E0,0E0,0E0,0E0,0E0,0E0,0E0,0E0],"parents":[2147483647,0,0,1,1,2,2,3,3,4,4,5,5,6,6,8,8,11,11,12,12,14,14],"right_children":[2,4,6,8,10,12,14,-1,16,-1,-1,18,20,-1,22,-1,-1,-1,-1,-1,-1,-1,-1],"split_conditions":[1E0,6E0,6E0,4E0,7E0,1.2E1,2E0,-1.1230764E0,5E0,3.1350445E-2,3.5902405E-1,2E0,3E0,5.245462E0,1.4E1,-3.9136824E-1,-5.514072E-1,-7.9290783E-1,1.5732108E-1,2.717376E-1,1.1409492E0,9.020551E-1,2.3561652E0],"split_indices":[1,0,0,0,0,1,1,0,0,0,0,0,0,0,1,0,0,0,0,0,0,0,0],"split_type":[0,0,0,0,0,0,0,0,0,0,0,0,0,0,0,0,0,0,0,0,0,0,0],"sum_hessian":[6.41E2,3.6E2,2.81E2,2.42E2,1.18E2,2.12E2,6.9E1,1.41E2,1.01E2,5.5E1,6.3E1,1.08E2,1.04E2,2E0,6.7E1,5.3E1,4.8E1,2.5E1,8.3E1,4.3E1,6.1E1,3.5E1,3.2E1],"tree_param":{"num_deleted":"0","num_feature":"2","num_nodes":"23","size_leaf_vector":"1"}},{"base_weights":[-8.588308E-2,-4.3575063E0,1.0828352E1,-1.4345486E1,-2.338383E0,8.760067E0,3.70422E1,-1.5771041E1,9.950256E-2,-3.6252062E0,3.55926E0,2.4251084E0,1.4775888E1,-1.3098096E0,3.4286253E0,-1.1051481E0,-2.7732894E0,-3.3918524E-1,1.2189893E0,-4.6655136E-1,-1.3642828E-1,1.4098159E0,-1.6204828E-1,-3.25134E-1,4.5938596E-1,1.5322611E0,6.901876E-1],"categories":[],"categories_nodes":[],"categories_segments":[],"categories_sizes":[],"default_left":[0,0,0,0,0,0,0,0,0,0,0,0,0,0,0,0,0,0,0,0,0,0,0,0,0,0,0],"id":43,"left_children":[1,3,5,7,9,11,13,15,17,19,21,23,25,-1,-1,-1,-1,-1,-1,-1,-1,-1,-1,-1,-1,-1,-1],"loss_changes":[3.0164672E4,9.344094E3,9.543129E3,1.6077568E3,2.957522E3,6.4428643E3,4.7400176E3,2.1461074E3,5.9010767E2,1.341502E3,5.5336636E3,1.831552E3,2.1763184E3,0E0,0E0,0E0,0E0,0E0,0E0,0E0,0E0,0E0,0E0,0E0,0E0,0E0,0E0],"parents":[2147483647,0,0,1,1,2,2,3,3,4,4,5,5,6,6,7,7,8,8,9,9,10,10,11,11,12,12],"right_children":[2,4,6,8,10,12,14,16,18,20,22,24,26,-1,-1,-1,-1,-1,-1,-1,-1,-1,-1,-1,-1,-1,-1],"split_conditions":[9E0,2E0,2.3E1,6E0,1E0,4E0,2E0,2E0,8E0,5E0,3E0,2E0,1.7E1,-1.3098096E0,3.4286253E0,-1.1051481E0,-2.7732894E0,-3.3918524E-1,1.2189893E0,-4.6655136E-1,-1.3642828E-1,1.4098159E0,-1.6204828E-1,-3.25134E-1,4.5938596E-1,1.5322611E0,6.901876E-1],"split_indices":[1,0,1,1,1,0,0,1,1,0,1,0,1,0,0,0,0,0,0,0,0,0,0,0,0,0,0],"split_type":[0,0,0,0,0,0,0,0,0,0,0,0,0,0,0,0,0,0,0,0,0,0,0,0,0,0,0],"sum_hessian":[6.45E2,4.64E2,1.81E2,7.7E1,3.87E2,1.69E2,1.2E1,7E1,7E0,3.18E2,6.9E1,8.3E1,8.6E1,1E0,1.1E1,6.5E1,5E0,6E0,1E0,1.47E2,1.71E2,1.9E1,5E1,2.8E1,5.5E1,4.9E1,3.7E1],"tree_param":{"num_deleted":"0","num_feature":"2","num_nodes":"27","size_leaf_vector":"1"}},{"base_weights":[4.483704E-1,-2.9947004E0,9.324332E0,-6.990353E0,1.5327713E0,7.316793E0,3.4241802E1,-1.000074E1,-3.9964235E0,3.6895785E-1,1.0023372E1,3.7940145E0,1.6704842E1,-1.257417E0,3.1771922E0,-8.677525E-1,-4.9030924E-1,-2.0987546E-1,-8.8037986E-1,9.220336E-2,-1.9186914E0,2.3818277E-1,1.1993613E0,1.4029193E-1,8.464945E-1,1.7481734E0,9.370316E-1],"categories":[],"categories_nodes":[],"categories_segments":[],"categories_sizes":[],"default_left":[0,0,0,0,0,0,0,0,0,0,0,0,0,0,0,0,0,0,0,0,0,0,0,0,0,0,0],"id":44,"left_children":[1,3,5,7,9,11,13,15,17,19,21,23,25,-1,-1,-1,-1,-1,-1,-1,-1,-1,-1,-1,-1,-1,-1],"loss_changes":[1.9464441E4,8.314118E3,8.653517E3,2.1591777E3,2.1307007E3,5.426577E3,4.1788633E3,3.299463E2,1.1642938E3,3.6723638E3,8.656113E2,1.6709368E3,9.003301E2,0E0,0E0,0E0,0E0,0E0,0E0,0E0,0E0,0E0,0E0,0E0,0E0,0E0,0E0],"parents":[2147483647,0,0,1,1,2,2,3,3,4,4,5,5,6,6,7,7,8,8,9,9,10,10,11,11,12,12],"right_children":[2,4,6,8,10,12,14,16,18,20,22,24,26,-1,-1,-1,-1,-1,-1,-1,-1,-1,-1,-1,-1,-1,-1],"split_conditions":[9E0,5E0,2.3E1,3E0,4E0,6E0,2E0,1E0,3E0,3E0,6E0,2E1,1.7E1,-1.257417E0,3.1771922E0,-8.677525E-1,-4.9030924E-1,-2.0987546E-1,-8.8037986E-1,9.220336E-2,-1.9186914E0,2.3818277E-1,1.1993613E0,1.4029193E-1,8.464945E-1,1.7481734E0,9.370316E-1],"split_indices":[1,0,1,0,1,0,0,1,1,1,0,1,1,0,0,0,0,0,0,0,0,0,0,0,0,0,0],"split_type":[0,0,0,0,0,0,0,0,0,0,0,0,0,0,0,0,0,0,0,0,0,0,0,0,0,0,0],"sum_hessian":[6.35E2,4.58E2,1.77E2,2.43E2,2.15E2,1.65E2,1.2E1,1.2E2,1.23E2,1.9E2,2.5E1,1.21E2,4.4E1,1E0,1.1E1,9.7E1,2.3E1,1.04E2,1.9E1,1.85E2,5E0,1.1E1,1.4E1,9.4E1,2.7E1,2E1,2.4E1],"tree_param":{"num_deleted":"0","num_feature":"2","num_nodes":"27","size_leaf_vector":"1"}},{"base_weights":[4.1162375E-1,-2.3171148E0,9.79941E0,-7.406636E0,1.1120185E0,-7.393685E-1,1.4103954E1,-1.0642436E1,-5.1793103E0,-5.804242E-1,5.17663E0,-3.2335567E0,1.2549822E1,1.1668392E1,2.2068151E1,-9.588695E-1,-4.9866396E-1,-1.5746245E-1,-5.992525E-1,-9.576317E-2,4.905458E-1,2.2547416E-1,1.1887845E0,5.1920795E-1,-5.272646E-1,-5.5375975E-2,1.812351E0,1.2891834E0,6.487184E-1,1.4871293E0,3.125228E0],"categories":[],"categories_nodes":[],"categories_segments":[],"categories_sizes":[],"default_left":[0,0,0,0,0,0,0,0,0,0,0,0,0,0,0,0,0,0,0,0,0,0,0,0,0,0,0,0,0,0,0],"id":45,"left_children":[1,3,5,7,9,11,13,15,17,19,21,23,25,27,29,-1,-1,-1,-1,-1,-1,-1,-1,-1,-1,-1,-1,-1,-1,-1,-1],"loss_changes":[1.649432E4,8.717107E3,6.588301E3,1.3935234E3,2.059862E3,1.4658475E3,1.7404219E3,4.05083E2,8.832947E2,8.847815E2,1.9675896E3,1.2506309E3,9.5231555E2,1.1512773E3,6.338877E2,0E0,0E0,0E0,0E0,0E0,0E0,0E0,0E0,0E0,0E0,0E0,0E0,0E0,0E0,0E0,0E0],"parents":[2147483647,0,0,1,1,2,2,3,3,4,4,5,5,6,6,7,7,8,8,9,9,10,10,11,11,12,12,13,13,14,14],"right_children":[2,4,6,8,10,12,14,16,18,20,22,24,26,28,30,-1,-1,-1,-1,-1,-1,-1,-1,-1,-1,-1,-1,-1,-1,-1,-1],"split_conditions":[1.2E1,4E0,3E0,2E0,7E0,2.2E1,7E0,3E0,3E0,8E0,1E0,1.4E1,2E0,1.7E1,2.2E1,-9.588695E-1,-4.9866396E-1,-1.5746245E-1,-5.992525E-1,-9.576317E-2,4.905458E-1,2.2547416E-1,1.1887845E0,5.1920795E-1,-5.272646E-1,-5.5375975E-2,1.812351E0,1.2891834E0,6.487184E-1,1.4871293E0,3.125228E0],"split_indices":[1,0,0,0,0,1,0,1,0,1,1,1,0,1,1,0,0,0,0,0,0,0,0,0,0,0,0,0,0,0,0],"split_type":[0,0,0,0,0,0,0,0,0,0,0,0,0,0,0,0,0,0,0,0,0,0,0,0,0,0,0,0,0,0,0],"sum_hessian":[6.42E2,4.98E2,1.44E2,2E2,2.98E2,4.2E1,1.02E2,8E1,1.2E2,2.11E2,8.7E1,3.6E1,6E0,8E1,2.2E1,6E1,2E1,5.1E1,6.9E1,1.94E2,1.7E1,7.1E1,1.6E1,9E0,2.7E1,3E0,3E0,3.4E1,4.6E1,2E1,2E0],"tree_param":{"num_deleted":"0","num_feature":"2","num_nodes":"31","size_leaf_vector":"1"}},{"base_weights":[-5.430998E-1,-1.1866398E0,3.377066E1,-4.237753E0,3.191521E0,-1.2049023E0,3.1663308E0,-7.450298E-1,-3.3233616E0,-1.02083E0,9.440199E0,-3.2468688E-1,-3.8041335E-2,-2.7279028E-1,5.0850105E-1,-6.240404E-2,9.700974E-1],"categories":[],"categories_nodes":[],"categories_segments":[],"categories_sizes":[],"default_left":[0,0,0,0,0,0,0,0,0,0,0,0,0,0,0,0,0],"id":46,"left_children":[1,3,5,7,9,-1,-1,-1,11,13,15,-1,-1,-1,-1,-1,-1],"loss_changes":[1.4393552E4,8.549454E3,3.9997803E3,1.7185737E3,6.9322236E3,0E0,0E0,0E0,6.701814E2,2.8063032E3,2.9193477E3,0E0,0E0,0E0,0E0,0E0,0E0],"parents":[2147483647,0,0,1,1,2,2,3,3,4,4,8,8,9,9,10,10],"right_children":[2,4,6,8,10,-1,-1,-1,12,14,16,-1,-1,-1,-1,-1,-1],"split_conditions":[2.3E1,1E0,2E0,2E0,5E0,-1.2049023E0,3.1663308E0,-7.450298E-1,7E0,1.8E1,5E0,-3.2468688E-1,-3.8041335E-2,-2.7279028E-1,5.0850105E-1,-6.240404E-2,9.700974E-1],"split_indices":[1,1,0,0,0,0,0,0,0,1,1,0,0,0,0,0,0],"split_type":[0,0,0,0,0,0,0,0,0,0,0,0,0,0,0,0,0],"sum_hessian":[6.49E2,6.38E2,1.1E1,3.76E2,2.62E2,1E0,1E1,5.6E1,3.2E2,1.57E2,1.05E2,2.54E2,6.6E1,1.19E2,3.8E1,2.2E1,8.3E1],"tree_param":{"num_deleted":"0","num_feature":"2","num_nodes":"17","size_leaf_vector":"1"}},{"base_weights":[-9.4554275E-2,-3.5469835E0,4.6434307E0,-5.450513E0,4.2506644E-1,-2.231298E0,1.0341415E1,-5.774525E-1,-5.015031E0,-3.1677663E0,1.6869955E1,3.546733E1,8.863452E0,-4.3617493E-1,-3.5359246E-1,7.580357E-1,-3.1330532E-1,-1.1567041E0,2.0821972E0,1.3704215E0,4.825521E0,-2.9477903E-1,9.039382E-1],"categories":[],"categories_nodes":[],"categories_segments":[],"categories_sizes":[],"default_left":[0,0,0,0,0,0,0,0,0,0,0,0,0,0,0,0,0,0,0,0,0,0,0],"id":47,"left_children":[1,3,5,7,-1,9,11,-1,13,15,17,19,21,-1,-1,-1,-1,-1,-1,-1,-1,-1,-1],"loss_changes":[1.0632524E4,6.3705264E3,1.07562295E4,2.0243262E2,0E0,2.2894053E3,5.255914E3,0E0,4.1462402E1,1.1727982E3,2.0976865E3,2.612374E3,4.41237E3,0E0,0E0,0E0,0E0,0E0,0E0,0E0,0E0,0E0,0E0],"parents":[2147483647,0,0,1,1,2,2,3,3,5,5,6,6,8,8,9,9,10,10,11,11,12,12],"right_children":[2,4,6,8,-1,10,12,-1,14,16,18,20,22,-1,-1,-1,-1,-1,-1,-1,-1,-1,-1],"split_conditions":[1E0,7E0,4E0,2E0,4.2506644E-1,2.3E1,2E0,-5.774525E-1,5E0,2E0,2E0,6E0,5E0,-4.3617493E-1,-3.5359246E-1,7.580357E-1,-3.1330532E-1,-1.1567041E0,2.0821972E0,1.3704215E0,4.825521E0,-2.9477903E-1,9.039382E-1],"split_indices":[1,0,0,0,0,1,1,0,0,1,0,0,1,0,0,0,0,0,0,0,0,0,0],"split_type":[0,0,0,0,0,0,0,0,0,0,0,0,0,0,0,0,0,0,0,0,0,0,0],"sum_hessian":[6.48E2,3.75E2,2.73E2,3.09E2,6.6E1,1.24E2,1.49E2,5.8E1,2.51E2,1.19E2,5E0,7E0,1.42E2,1.4E2,1.11E2,6E0,1.13E2,1E0,4E0,5E0,2E0,2.3E1,1.19E2],"tree_param":{"num_deleted":"0","num_feature":"2","num_nodes":"23","size_leaf_vector":"1"}},{"base_weights":[-1.3153512E0,-4.867006E0,6.629173E0,-7.4227753E0,4.075743E0,2.857674E0,1.2876903E1,-9.02821E0,-3.235156E0,2.6953018E0,1.6230188E1,1.5073639E-1,2.928221E-1,4.5681577E0,1.08830385E1,-8.2111263E-1,-3.1848612E-1,4.820628E-1,-3.677958E-1,1.6617663E-2,3.455808E-1,-1.1104345E0,1.6894466E0,-6.6839737E-1,1.0703465E0],"categories":[],"categories_nodes":[],"categories_segments":[],"categories_sizes":[],"default_left":[0,0,0,0,0,0,0,0,0,0,0,0,0,0,0,0,0,0,0,0,0,0,0,0,0],"id":48,"left_children":[1,3,5,7,9,11,13,15,17,19,21,-1,-1,-1,23,-1,-1,-1,-1,-1,-1,-1,-1,-1,-1],"loss_changes":[1.8259934E4,1.0246709E4,4.6758643E3,2.310377E3,1.6341047E3,9.154822E1,5.991966E3,1.5245605E3,1.2640813E3,3.66831E2,1.7649038E3,0E0,0E0,0E0,3.6175127E3,0E0,0E0,0E0,0E0,0E0,0E0,0E0,0E0,0E0,0E0],"parents":[2147483647,0,0,1,1,2,2,3,3,4,4,5,5,6,6,7,7,8,8,9,9,10,10,14,14],"right_children":[2,4,6,8,10,12,14,16,18,20,22,-1,-1,-1,24,-1,-1,-1,-1,-1,-1,-1,-1,-1,-1],"split_conditions":[6E0,1.2E1,1E0,1E0,2.3E1,7E0,2E0,5E0,2E0,1.6E1,2E0,1.5073639E-1,2.928221E-1,4.5681577E0,4E0,-8.2111263E-1,-3.1848612E-1,4.820628E-1,-3.677958E-1,1.6617663E-2,3.455808E-1,-1.1104345E0,1.6894466E0,-6.6839737E-1,1.0703465E0],"split_indices":[0,1,1,1,1,0,1,0,1,1,0,0,0,0,1,0,0,0,0,0,0,0,0,0,0],"split_type":[0,0,0,0,0,0,0,0,0,0,0,0,0,0,0,0,0,0,0,0,0,0,0,0,0],"sum_hessian":[6.45E2,4.46E2,1.99E2,3.47E2,9.9E1,1.25E2,7.4E1,2.5E2,9.7E1,9E1,9E0,5.8E1,6.7E1,2E0,7.2E1,2E2,5E1,1.2E1,8.5E1,3.6E1,5.4E1,1E0,8E0,8E0,6.4E1],"tree_param":{"num_deleted":"0","num_feature":"2","num_nodes":"25","size_leaf_vector":"1"}},{"base_weights":[5.5301285E-1,-1.1411251E0,1.0412076E1,-3.2013974E0,3.7141333E0,7.3371596E0,2.17299E1,-6.8025255E0,-2.1704543E0,3.1367335E0,2.6458984E1,-9.1871643E-1,9.349367E0,1.6955248E1,3.4507616E0,-6.1661035E-1,7.666172E-1,-2.2672293E-1,3.5567645E-2,-5.9517156E-3,4.840015E-1,2.8923373E0,-1.05068356E-1,-8.850889E-1,8.4873044E-1,2.3523974E0,5.00976E-1,1.7969824E0,9.126997E-1],"categories":[],"categories_nodes":[],"categories_segments":[],"categories_sizes":[],"default_left":[0,0,0,0,0,0,0,0,0,0,0,0,0,0,0,0,0,0,0,0,0,0,0,0,0,0,0,0,0],"id":49,"left_children":[1,3,5,7,9,11,13,15,17,19,21,23,25,27,-1,-1,-1,-1,-1,-1,-1,-1,-1,-1,-1,-1,-1,-1,-1],"loss_changes":[1.0935391E4,5.6036533E3,3.1814941E3,1.444271E3,2.1101946E3,1.2877544E3,1.3126367E3,1.3641006E3,5.339973E2,1.5346599E3,1.12452E3,1.9885562E3,3.6545894E3,2.9353955E2,0E0,0E0,0E0,0E0,0E0,0E0,0E0,0E0,0E0,0E0,0E0,0E0,0E0,0E0,0E0],"parents":[2147483647,0,0,1,1,2,2,3,3,4,4,5,5,6,6,7,7,8,8,9,9,10,10,11,11,12,12,13,13],"right_children":[2,4,6,8,10,12,14,16,18,20,22,24,26,28,-1,-1,-1,-1,-1,-1,-1,-1,-1,-1,-1,-1,-1,-1,-1],"split_conditions":[1.6E1,6E0,7E0,2E0,1.4E1,2E0,2.3E1,1.3E1,9E0,7E0,7E0,2E1,1.7E1,2E1,3.4507616E0,-6.1661035E-1,7.666172E-1,-2.2672293E-1,3.5567645E-2,-5.9517156E-3,4.840015E-1,2.8923373E0,-1.05068356E-1,-8.850889E-1,8.4873044E-1,2.3523974E0,5.00976E-1,1.7969824E0,9.126997E-1],"split_indices":[1,0,0,0,1,0,1,1,1,0,0,1,1,1,0,0,0,0,0,0,0,0,0,0,0,0,0,0,0],"split_type":[0,0,0,0,0,0,0,0,0,0,0,0,0,0,0,0,0,0,0,0,0,0,0,0,0,0,0,0,0],"sum_hessian":[6.53E2,5.58E2,9.5E1,3.92E2,1.66E2,7.6E1,1.9E1,8.6E1,3.06E2,1.63E2,3E0,1.5E1,6.1E1,1.7E1,2E0,8.2E1,4E0,2.44E2,6.2E1,7.8E1,8.5E1,2E0,1E0,8E0,7E0,7E0,5.4E1,7E0,1E1],"tree_param":{"num_deleted":"0","num_feature":"2","num_nodes":"29","size_leaf_vector":"1"}},{"base_weights":[4.264226E-1,-2.52352E0,5.313158E0,-7.731366E0,7.232831E-1,3.4953215E0,1.4542188E1,-1.1476412E1,-5.0709977E0,1.3150162E0,-2.0090698E1,-3.6941562E0,4.9884553E0,2.2947917E0,2.1048677E1,-8.3491313E-1,-2.3315363E0,-3.4783256E-1,-1.6058227E0,2.5370376E-2,1.3275839E0,-1.4374675E-1,-2.1639102E0,-3.987938E-1,1.6593066E0,4.5186827E-1,-4.0988368E-1,6.312332E-1,-1.8498696E-1,1.2627529E0,2.473618E0],"categories":[],"categories_nodes":[],"categories_segments":[],"categories_sizes":[],"default_left":[0,0,0,0,0,0,0,0,0,0,0,0,0,0,0,0,0,0,0,0,0,0,0,0,0,0,0,0,0,0,0],"id":50,"left_children":[1,3,5,7,9,11,13,15,17,19,21,23,25,27,29,-1,-1,-1,-1,-1,-1,-1,-1,-1,-1,-1,-1,-1,-1,-1,-1],"loss_changes":[9.383541E3,6.870586E3,4.0595034E3,1.4960625E3,3.1178157E3,2.2298076E3,3.1392002E3,8.718037E2,9.2155664E2,3.730372E3,8.4244116E2,1.2388522E3,1.1700039E3,4.049417E2,8.630713E2,0E0,0E0,0E0,0E0,0E0,0E0,0E0,0E0,0E0,0E0,0E0,0E0,0E0,0E0,0E0,0E0],"parents":[2147483647,0,0,1,1,2,2,3,3,4,4,5,5,6,6,7,7,8,8,9,9,10,10,11,11,12,12,13,13,14,14],"right_children":[2,4,6,8,10,12,14,16,18,20,22,24,26,28,30,-1,-1,-1,-1,-1,-1,-1,-1,-1,-1,-1,-1,-1,-1,-1,-1],"split_conditions":[4E0,4E0,2.1E1,2E0,3E0,2E0,3E0,2E0,3E0,1E0,6E0,2E1,2E1,2.2E1,7E0,-8.3491313E-1,-2.3315363E0,-3.4783256E-1,-1.6058227E0,2.5370376E-2,1.3275839E0,-1.4374675E-1,-2.1639102E0,-3.987938E-1,1.6593066E0,4.5186827E-1,-4.0988368E-1,6.312332E-1,-1.8498696E-1,1.2627529E0,2.473618E0],"split_indices":[1,0,1,0,1,0,0,1,1,1,0,1,1,1,0,0,0,0,0,0,0,0,0,0,0,0,0,0,0,0,0],"split_type":[0,0,0,0,0,0,0,0,0,0,0,0,0,0,0,0,0,0,0,0,0,0,0,0,0,0,0,0,0,0,0],"sum_hessian":[6.49E2,4.05E2,2.44E2,1.55E2,2.5E2,2.05E2,3.9E1,6.3E1,9.2E1,2.44E2,6E0,3.5E1,1.7E2,1.4E1,2.5E1,6.1E1,2E0,8.9E1,3E0,2.3E2,1.4E1,2E0,4E0,3.4E1,1E0,1.6E2,1E1,6E0,8E0,1.8E1,7E0],"tree_param":{"num_deleted":"0","num_feature":"2","num_nodes":"31","size_leaf_vector":"1"}},{"base_weights":[2.3065102E-1,-3.4443774E0,6.3248825E0,-8.137468E0,-6.552953E-1,2.138064E0,1.2734139E1,-5.6971035E0,-9.667085E0,-4.986963E-2,-1.9492935E1,-3.085277E-2,1.11887455E1,1.0046938E1,1.7878551E1,-4.953674E-1,-1.0214844E-2,-7.3159385E-1,-1.5094726E0,-4.2401135E-2,5.604297E-1,-5.8709717E-1,-2.0254178E0,1.454542E-1,-4.413842E-1,6.3406426E-1,1.5010595E0,1.0708517E0,2.2088645E-1,5.8557504E-1,2.2383947E0],"categories":[],"categories_nodes":[],"categories_segments":[],"categories_sizes":[],"default_left":[0,0,0,0,0,0,0,0,0,0,0,0,0,0,0,0,0,0,0,0,0,0,0,0,0,0,0,0,0,0,0],"id":51,"left_children":[1,3,5,7,9,11,13,15,17,19,21,23,25,27,29,-1,-1,-1,-1,-1,-1,-1,-1,-1,-1,-1,-1,-1,-1,-1,-1],"loss_changes":[1.4646684E4,5.3351494E3,6.574036E3,5.123135E2,2.930059E3,2.9448716E3,1.1613086E3,1.6737451E2,2.694707E2,8.5059686E2,3.805669E2,1.2476742E3,5.680254E2,1.5685151E3,3.208288E3,0E0,0E0,0E0,0E0,0E0,0E0,0E0,0E0,0E0,0E0,0E0,0E0,0E0,0E0,0E0,0E0],"parents":[2147483647,0,0,1,1,2,2,3,3,4,4,5,5,6,6,7,7,8,8,9,9,10,10,11,11,12,12,13,13,14,14],"right_children":[2,4,6,8,10,12,14,16,18,20,22,24,26,28,30,-1,-1,-1,-1,-1,-1,-1,-1,-1,-1,-1,-1,-1,-1,-1,-1],"split_conditions":[4E0,4E0,5E0,2E0,3E0,2E1,7E0,1E0,3E0,1E0,6E0,4E0,4E0,1.7E1,1.8E1,-4.953674E-1,-1.0214844E-2,-7.3159385E-1,-1.5094726E0,-4.2401135E-2,5.604297E-1,-5.8709717E-1,-2.0254178E0,1.454542E-1,-4.413842E-1,6.3406426E-1,1.5010595E0,1.0708517E0,2.2088645E-1,5.8557504E-1,2.2383947E0],"split_indices":[1,0,0,0,1,1,0,1,1,1,0,0,0,1,1,0,0,0,0,0,0,0,0,0,0,0,0,0,0,0,0],"split_type":[0,0,0,0,0,0,0,0,0,0,0,0,0,0,0,0,0,0,0,0,0,0,0,0,0,0,0,0,0,0,0],"sum_hessian":[6.52E2,4.07E2,2.45E2,1.51E2,2.56E2,1.49E2,9.6E1,6E1,9.1E1,2.49E2,7E0,1.21E2,2.8E1,6.5E1,3.1E1,5.5E1,5E0,8.8E1,3E0,2.34E2,1.5E1,3E0,4E0,9.1E1,3E1,2.1E1,7E0,4.4E1,2.1E1,1.6E1,1.5E1],"tree_param":{"num_deleted":"0","num_feature":"2","num_nodes":"31","size_leaf_vector":"1"}},{"base_weights":[2.905044E-1,-2.3022478E0,6.3387694E0,-3.2554069E0,9.595854E0,2.1464384E0,1.3164792E1,-2.9654045E0,-1.490697E1,3.0641632E0,1.459118E1,2.560029E-1,1.0544406E-1,4.1980143E0,1.1344014E1,-2.7854115E-1,5.884126E-1,-4.7152343E-1,-2.7177963E0,8.7586355E-1,-2.2089161E-1,4.4043508E-1,1.6558797E0,8.2685024E-1,1.8231405E0],"categories":[],"categories_nodes":[],"categories_segments":[],"categories_sizes":[],"default_left":[0,0,0,0,0,0,0,0,0,0,0,0,0,0,0,0,0,0,0,0,0,0,0,0,0],"id":52,"left_children":[1,3,5,7,9,11,13,15,17,19,21,-1,-1,-1,23,-1,-1,-1,-1,-1,-1,-1,-1,-1,-1],"loss_changes":[1.0191986E4,5.191296E3,5.5520464E3,1.3817256E3,1.0646396E3,1.0226227E2,4.7013047E3,2.2265376E3,1.518123E3,7.6506976E2,9.403462E2,0E0,0E0,0E0,5.954258E2,0E0,0E0,0E0,0E0,0E0,0E0,0E0,0E0,0E0,0E0],"parents":[2147483647,0,0,1,1,2,2,3,3,4,4,5,5,6,6,7,7,8,8,9,9,10,10,14,14],"right_children":[2,4,6,8,10,12,14,16,18,20,22,-1,-1,-1,24,-1,-1,-1,-1,-1,-1,-1,-1,-1,-1],"split_conditions":[6E0,2E1,1E0,1.9E1,3E0,7E0,2E0,1.6E1,4E0,2E0,2.1E1,2.560029E-1,1.0544406E-1,4.1980143E0,2.3E1,-2.7854115E-1,5.884126E-1,-4.7152343E-1,-2.7177963E0,8.7586355E-1,-2.2089161E-1,4.4043508E-1,1.6558797E0,8.2685024E-1,1.8231405E0],"split_indices":[0,1,1,1,0,0,1,1,0,0,1,0,0,0,1,0,0,0,0,0,0,0,0,0,0],"split_type":[0,0,0,0,0,0,0,0,0,0,0,0,0,0,0,0,0,0,0,0,0,0,0,0,0],"sum_hessian":[6.48E2,4.54E2,1.94E2,4.21E2,3.3E1,1.21E2,7.3E1,4.12E2,9E0,1.5E1,1.8E1,5.2E1,6.9E1,2E0,7.1E1,3.93E2,1.9E1,7E0,2E0,6E0,9E0,8E0,1E1,6.7E1,4E0],"tree_param":{"num_deleted":"0","num_feature":"2","num_nodes":"25","size_leaf_vector":"1"}},{"base_weights":[7.861171E-1,-1.2177645E0,6.0390754E0,-4.2870154E0,2.159743E0,-2.17918E0,9.829251E0,-2.1505013E0,-5.1812887E0,-2.4957441E-1,3.3339412E0,1.2801677E1,-3.865833E0,2.6541977E1,8.581156E0,-2.0655586E-1,7.136849E-1,-3.4952375E-1,-7.361994E-1,1.266551E-1,-4.5106137E-1,1.7697687E-1,6.878918E-1,-4.9359697E-1,1.9063989E0,-1.0452224E0,-1.5170144E-1,1.304134E-1,2.7659373E0,-1.7079552E-1,7.8802884E-1],"categories":[],"categories_nodes":[],"categories_segments":[],"categories_sizes":[],"default_left":[0,0,0,0,0,0,0,0,0,0,0,0,0,0,0,0,0,0,0,0,0,0,0,0,0,0,0,0,0,0,0],"id":53,"left_children":[1,3,5,7,9,11,13,15,17,19,21,23,25,27,29,-1,-1,-1,-1,-1,-1,-1,-1,-1,-1,-1,-1,-1,-1,-1,-1],"loss_changes":[6.7862964E3,4.850375E3,5.565877E3,4.569619E2,6.3170264E2,1.489737E3,2.3170469E3,3.7651636E2,5.215786E2,7.39765E2,8.668148E2,1.4023809E3,9.174079E2,1.5444194E3,1.5851377E3,0E0,0E0,0E0,0E0,0E0,0E0,0E0,0E0,0E0,0E0,0E0,0E0,0E0,0E0,0E0,0E0],"parents":[2147483647,0,0,1,1,2,2,3,3,4,4,5,5,6,6,7,7,8,8,9,9,10,10,11,11,12,12,13,13,14,14],"right_children":[2,4,6,8,10,12,14,16,18,20,22,24,26,28,30,-1,-1,-1,-1,-1,-1,-1,-1,-1,-1,-1,-1,-1,-1,-1,-1],"split_conditions":[9E0,5E0,3E0,2E0,6E0,1.1E1,1E1,8E0,3E0,1E0,1E0,2E0,1.2E1,4E0,1.1E1,-2.0655586E-1,7.136849E-1,-3.4952375E-1,-7.361994E-1,1.266551E-1,-4.5106137E-1,1.7697687E-1,6.878918E-1,-4.9359697E-1,1.9063989E0,-1.0452224E0,-1.5170144E-1,1.304134E-1,2.7659373E0,-1.7079552E-1,7.8802884E-1],"split_indices":[1,0,0,0,0,1,1,1,1,1,1,0,1,0,1,0,0,0,0,0,0,0,0,0,0,0,0,0,0,0,0],"split_type":[0,0,0,0,0,0,0,0,0,0,0,0,0,0,0,0,0,0,0,0,0,0,0,0,0,0,0,0,0,0,0],"sum_hessian":[6.43E2,4.66E2,1.77E2,2.44E2,2.22E2,5.6E1,1.21E2,7.3E1,1.71E2,7.3E1,1.49E2,5E0,5.1E1,7E0,1.14E2,7.1E1,2E0,1.44E2,2.7E1,5.5E1,1.8E1,1.24E2,2.5E1,2E0,3E0,8E0,4.3E1,2E0,5E0,1.2E1,1.02E2],"tree_param":{"num_deleted":"0","num_feature":"2","num_nodes":"31","size_leaf_vector":"1"}},{"base_weights":[-1.0200992E0,-6.5526204E0,1.0902302E0,-9.585235E0,-1.6068289E0,1.708397E-1,1.7632427E1,-8.566532E0,-2.1757553E1,-2.218787E0,6.7923827E0,-8.951743E-1,2.403918E0,1.2035231E1,2.241765E0,-7.838618E-1,8.062081E-1,-2.4646406E0,-4.004077E-1,-7.556052E-2,-1.7387207E0,-1.1468945E0,1.2526855E0,-1.7460378E-2,-1.6728134E0,-1.7247824E-2,5.8301085E-1,1.3411906E0,1.7663503E-1],"categories":[],"categories_nodes":[],"categories_segments":[],"categories_sizes":[],"default_left":[0,0,0,0,0,0,0,0,0,0,0,0,0,0,0,0,0,0,0,0,0,0,0,0,0,0,0,0,0],"id":54,"left_children":[1,3,5,7,9,11,13,15,17,19,21,23,25,27,-1,-1,-1,-1,-1,-1,-1,-1,-1,-1,-1,-1,-1,-1,-1],"loss_changes":[7.654559E3,2.6993599E3,7.221139E3,1.2024092E3,3.748684E2,1.0757543E3,1.1165688E3,2.510042E3,1.0587422E3,1.6207512E3,1.161133E3,4.14129E3,1.869346E3,7.996184E2,0E0,0E0,0E0,0E0,0E0,0E0,0E0,0E0,0E0,0E0,0E0,0E0,0E0,0E0,0E0],"parents":[2147483647,0,0,1,1,2,2,3,3,4,4,5,5,6,6,7,7,8,8,9,9,10,10,11,11,12,12,13,13],"right_children":[2,4,6,8,10,12,14,16,18,20,22,24,26,28,-1,-1,-1,-1,-1,-1,-1,-1,-1,-1,-1,-1,-1,-1,-1],"split_conditions":[3E0,6E0,2.1E1,2E0,2.3E1,4E0,7E0,1E0,2E0,2.2E1,2E0,3E0,6E0,6E0,2.241765E0,-7.838618E-1,8.062081E-1,-2.4646406E0,-4.004077E-1,-7.556052E-2,-1.7387207E0,-1.1468945E0,1.2526855E0,-1.7460378E-2,-1.6728134E0,-1.7247824E-2,5.8301085E-1,1.3411906E0,1.7663503E-1],"split_indices":[0,1,1,1,1,1,0,1,0,1,0,1,0,0,0,0,0,0,0,0,0,0,0,0,0,0,0,0,0],"split_type":[0,0,0,0,0,0,0,0,0,0,0,0,0,0,0,0,0,0,0,0,0,0,0,0,0,0,0,0,0],"sum_hessian":[6.54E2,1.8E2,4.74E2,1.11E2,6.9E1,4.5E2,2.4E1,1.04E2,7E0,6.5E1,4E0,3.05E2,1.45E2,1.7E1,7E0,9.8E1,6E0,4E0,3E0,6.2E1,3E0,1E0,3E0,2.96E2,9E0,9.5E1,5E1,1.1E1,6E0],"tree_param":{"num_deleted":"0","num_feature":"2","num_nodes":"29","size_leaf_vector":"1"}},{"base_weights":[-1.4303516E-1,-2.683239E0,3.1172366E0,-4.11144E0,5.218131E0,1.3690509E0,6.0557423E0,-3.9175553E0,-7.325303E0,1.9196243E1,2.9231699E0,2.5118394E0,-1.0858643E1,5.2028375E0,2.7565951E0,-3.285662E-1,1.6369237E-1,-1.6519699E0,1.4557971E-1,2.7943847E-1,2.2335684E0,-2.949861E-1,5.312506E-1,8.088099E-2,1.2767848E0,-1.505106E0,-3.3633202E-1,4.6159294E-1,-4.2436522E-1],"categories":[],"categories_nodes":[],"categories_segments":[],"categories_sizes":[],"default_left":[0,0,0,0,0,0,0,0,0,0,0,0,0,0,0,0,0,0,0,0,0,0,0,0,0,0,0,0,0],"id":55,"left_children":[1,3,5,7,9,11,13,15,17,19,21,23,25,27,-1,-1,-1,-1,-1,-1,-1,-1,-1,-1,-1,-1,-1,-1,-1],"loss_changes":[5.5405767E3,4.264519E3,1.496866E3,1.7007812E2,1.8044812E3,2.6124036E3,2.461134E3,3.5087158E2,2.1090535E3,9.9835913E2,1.277774E3,3.4149873E3,7.679071E2,6.6816406E2,0E0,0E0,0E0,0E0,0E0,0E0,0E0,0E0,0E0,0E0,0E0,0E0,0E0,0E0,0E0],"parents":[2147483647,0,0,1,1,2,2,3,3,4,4,5,5,6,6,7,7,8,8,9,9,10,10,11,11,12,12,13,13],"right_children":[2,4,6,8,10,12,14,16,18,20,22,24,26,28,-1,-1,-1,-1,-1,-1,-1,-1,-1,-1,-1,-1,-1,-1,-1],"split_conditions":[5E0,1.6E1,7E0,1.4E1,1.7E1,1.9E1,2.3E1,1.3E1,3E0,2E0,2E1,1.4E1,6E0,2.1E1,2.7565951E0,-3.285662E-1,1.6369237E-1,-1.6519699E0,1.4557971E-1,2.7943847E-1,2.2335684E0,-2.949861E-1,5.312506E-1,8.088099E-2,1.2767848E0,-1.505106E0,-3.3633202E-1,4.6159294E-1,-4.2436522E-1],"split_indices":[0,1,0,1,1,1,1,1,0,0,1,1,0,1,0,0,0,0,0,0,0,0,0,0,0,0,0,0,0],"split_type":[0,0,0,0,0,0,0,0,0,0,0,0,0,0,0,0,0,0,0,0,0,0,0,0,0,0,0,0,0],"sum_hessian":[6.67E2,3.75E2,2.92E2,3.18E2,5.7E1,1.84E2,1.08E2,3.02E2,1.6E1,7E0,5E1,1.69E2,1.5E1,1.06E2,2E0,2.93E2,9E0,6E0,1E1,3E0,4E0,1.8E1,3.2E1,1.53E2,1.6E1,6E0,9E0,1.01E2,5E0],"tree_param":{"num_deleted":"0","num_feature":"2","num_nodes":"29","size_leaf_vector":"1"}},{"base_weights":[-7.561896E-1,-2.3197348E0,7.292103E0,-4.501005E0,1.2110089E0,4.1696386E0,1.888278E1,-4.015355E0,-1.5314767E1,-1.1753553E0,6.442379E0,5.281722E0,-2.209375E0,1.58781E1,2.6095767E0,-3.4524757E-1,3.8706142E-1,-5.42655E-1,-1.8301855E0,-2.5505137E-1,5.477532E-1,7.4056476E-1,-1.13707684E-1,3.1692812E-1,1.3598107E0,2.199705E0,9.004022E-1],"categories":[],"categories_nodes":[],"categories_segments":[],"categories_sizes":[],"default_left":[0,0,0,0,0,0,0,0,0,0,0,0,0,0,0,0,0,0,0,0,0,0,0,0,0,0,0],"id":56,"left_children":[1,3,5,7,9,11,13,15,17,19,21,23,-1,25,-1,-1,-1,-1,-1,-1,-1,-1,-1,-1,-1,-1,-1],"loss_changes":[8.1209277E3,4.1642637E3,3.7213696E3,1.6925752E3,2.5917507E3,3.1152332E3,3.901128E2,8.7416455E2,7.481057E2,2.3308672E3,1.4518596E3,1.2009082E3,0E0,7.6476514E2,0E0,0E0,0E0,0E0,0E0,0E0,0E0,0E0,0E0,0E0,0E0,0E0,0E0],"parents":[2147483647,0,0,1,1,2,2,3,3,4,4,5,5,6,6,7,7,8,8,9,9,10,10,11,11,13,13],"right_children":[2,4,6,8,10,12,14,16,18,20,22,24,-1,26,-1,-1,-1,-1,-1,-1,-1,-1,-1,-1,-1,-1,-1],"split_conditions":[7E0,4E0,1.1E1,2E0,5E0,1E1,2.3E1,1E0,5E0,2E1,1.9E1,6E0,-2.209375E0,1.7E1,2.6095767E0,-3.4524757E-1,3.8706142E-1,-5.42655E-1,-1.8301855E0,-2.5505137E-1,5.477532E-1,7.4056476E-1,-1.13707684E-1,3.1692812E-1,1.3598107E0,2.199705E0,9.004022E-1],"split_indices":[0,1,1,1,0,1,1,1,0,1,1,1,0,1,0,0,0,0,0,0,0,0,0,0,0,0,0],"split_type":[0,0,0,0,0,0,0,0,0,0,0,0,0,0,0,0,0,0,0,0,0,0,0,0,0,0,0],"sum_hessian":[6.43E2,