{"learner":{"attributes":{},"feature_names":["day_of_week","hour_of_day"],"feature_types":["float","float"],"gradient_booster":{"model":{"cats":{"enc":[],"feature_segments":[],"sorted_idx":[]},"gbtree_model_param":{"num_parallel_tree":"1","num_trees":"80"},"iteration_indptr":[0,1,2,3,4,5,6,7,8,9,10,11,12,13,14,15,16,17,18,19,20,21,22,23,24,25,26,27,28,29,30,31,32,33,34,35,36,37,38,39,40,41,42,43,44,45,46,47,48,49,50,51,52,53,54,55,56,57,58,59,60,61,62,63,64,65,66,67,68,69,70,71,72,73,74,75,76,77,78,79,80],"tree_info":[0,0,0,0,0,0,0,0,0,0,0,0,0,0,0,0,0,0,0,0,0,0,0,0,0,0,0,0,0,0,0,0,0,0,0,0,0,0,0,0,0,0,0,0,0,0,0,0,0,0,0,0,0,0,0,0,0,0,0,0,0,0,0,0,0,0,0,0,0,0,0,0,0,0,0,0,0,0,0,0],"trees":[{"base_weights":[-8.290643E-2,-1.5058983E2,1.8628986E2,-2.1328436E2,5.0392647E1,8.9417175E1,3.5005698E2,-2.8805546E1,-1.5285968E2,-3.3335007E1,1.400259E2,-1.1101113E1,1.3441661E2,2.1998896E1,3.742905E2,-1.5052852E1,-6.765691E0,-6.210411E0,1.8674712E0,5.4189744E0,1.4110172E1,4.8028936E0,-5.2815166E0,1.7247297E1,7.4454966E0,3.2185215E1,2.3513735E1],"categories":[],"categories_nodes":[],"categories_segments":[],"categories_sizes":[],"default_left":[0,0,0,0,0,0,0,0,0,0,0,0,0,0,0,0,0,0,0,0,0,0,0,0,0,0,0],"id":0,"left_children":[1,3,5,7,9,11,13,-1,15,17,19,21,23,-1,25,-1,-1,-1,-1,-1,-1,-1,-1,-1,-1,-1,-1],"loss_changes":[1.4754508E7,3.6774945E6,3.6968715E6,1.913973E6,5.300025E5,6.754589E5,5.5347E4,0E0,3.673805E5,9.47035E4,7.739744E4,1.8757875E5,3.2564438E5,0E0,2.3646E4,0E0,0E0,0E0,0E0,0E0,0E0,0E0,0E0,0E0,0E0,0E0,0E0],"parents":[2147483647,0,0,1,1,2,2,3,3,4,4,5,5,6,6,8,8,9,9,10,10,11,11,12,12,14,14],"right_children":[2,4,6,8,10,12,14,-1,16,18,20,22,24,-1,26,-1,-1,-1,-1,-1,-1,-1,-1,-1,-1,-1,-1],"split_conditions":[5E0,1.3E1,1.2E1,2E0,3E0,6E0,6E0,-2.8805546E1,4E0,2E0,1.7E1,1E1,9E0,2.1998896E1,2.3E1,-1.5052852E1,-6.765691E0,-6.210411E0,1.8674712E0,5.4189744E0,1.4110172E1,4.8028936E0,-5.2815166E0,1.7247297E1,7.4454966E0,3.2185215E1,2.3513735E1],"split_indices":[0,1,1,0,0,0,0,0,0,0,1,1,1,0,1,0,0,0,0,0,0,0,0,0,0,0,0],"split_type":[0,0,0,0,0,0,0,0,0,0,0,0,0,0,0,0,0,0,0,0,0,0,0,0,0,0,0],"sum_hessian":[5.24E2,2.9E2,2.34E2,2.21E2,6.9E1,1.48E2,8.6E1,6.3E1,1.58E2,3.6E1,3.3E1,4.6E1,1.02E2,2.4E1,6.2E1,1.03E2,5.5E1,2E1,1.6E1,1.2E1,2.1E1,2E1,2.6E1,3.3E1,6.9E1,4.3E1,1.9E1],"tree_param":{"num_deleted":"0","num_feature":"2","num_nodes":"27","size_leaf_vector":"1"}},{"base_weights":[5.08528E0,-1.3276709E2,1.6967235E2,-1.8528427E2,4.6218018E1,8.470317E1,3.1787747E2,-2.7597266E2,-1.0238018E2,-2.759007E1,1.2805882E2,1.7953903E2,4.0542934E1,2.0646698E1,3.3815222E2,-2.609151E1,-1.6449852E1,-8.925931E0,4.5377707E0,-5.421949E0,1.5155784E0,5.014979E0,1.3283746E1,7.17707E0,1.655911E1,-6.525649E-1,1.0129869E1,2.9623886E1,1.9808197E1],"categories":[],"categories_nodes":[],"categories_segments":[],"categories_sizes":[],"default_left":[0,0,0,0,0,0,0,0,0,0,0,0,0,0,0,0,0,0,0,0,0,0,0,0,0,0,0,0,0],"id":1,"left_children":[1,3,5,7,9,11,13,15,17,19,21,23,25,-1,27,-1,-1,-1,-1,-1,-1,-1,-1,-1,-1,-1,-1,-1,-1],"loss_changes":[1.1797971E7,2.668705E6,2.957584E6,1.618284E6,3.9616653E5,6.29293E5,1.6986E4,3.00008E5,1.7601138E5,6.673284E4,6.657441E4,9.9784E4,4.4120516E5,0E0,8.58745E4,0E0,0E0,0E0,0E0,0E0,0E0,0E0,0E0,0E0,0E0,0E0,0E0,0E0,0E0],"parents":[2147483647,0,0,1,1,2,2,3,3,4,4,5,5,6,6,7,7,8,8,9,9,10,10,11,11,12,12,14,14],"right_children":[2,4,6,8,10,12,14,16,18,20,22,24,26,-1,28,-1,-1,-1,-1,-1,-1,-1,-1,-1,-1,-1,-1,-1,-1],"split_conditions":[5E0,1.3E1,1.2E1,3E0,3E0,9E0,6E0,2E0,1.2E1,2E0,1.7E1,6E0,7E0,2.0646698E1,2.3E1,-2.609151E1,-1.6449852E1,-8.925931E0,4.5377707E0,-5.421949E0,1.5155784E0,5.014979E0,1.3283746E1,7.17707E0,1.655911E1,-6.525649E-1,1.0129869E1,2.9623886E1,1.9808197E1],"split_indices":[0,1,1,0,0,1,0,0,1,0,1,0,0,0,1,0,0,0,0,0,0,0,0,0,0,0,0,0,0],"split_type":[0,0,0,0,0,0,0,0,0,0,0,0,0,0,0,0,0,0,0,0,0,0,0,0,0,0,0,0,0],"sum_hessian":[5.18E2,2.82E2,2.36E2,2.18E2,6.4E1,1.51E2,8.5E1,1.03E2,1.15E2,3.4E1,3E1,4.7E1,1.04E2,2.5E1,6E1,5.8E1,4.5E1,1.09E2,6E0,1.8E1,1.6E1,1.2E1,1.8E1,1.2E1,3.5E1,6.7E1,3.7E1,4.2E1,1.8E1],"tree_param":{"num_deleted":"0","num_feature":"2","num_nodes":"29","size_leaf_vector":"1"}},{"base_weights":[-2.4899852E0,-1.7235196E2,1.1405768E2,-2.2224919E2,-1.8315729E0,3.665059E1,2.707892E2,-2.3769047E1,-1.6612567E2,-6.887327E1,3.931758E1,-4.443972E1,1.136091E2,2.0563756E2,3.1666913E2,-1.3701113E1,-4.1041258E-1,-7.471171E0,-1.0803056E0,-7.859945E-1,5.669764E0,2.195394E0,-6.337268E0,1.4857388E1,6.1984286E0,1.3093336E1,1.9366142E1,2.7566841E1,1.9711899E1],"categories":[],"categories_nodes":[],"categories_segments":[],"categories_sizes":[],"default_left":[0,0,0,0,0,0,0,0,0,0,0,0,0,0,0,0,0,0,0,0,0,0,0,0,0,0,0,0,0],"id":2,"left_children":[1,3,5,7,9,11,13,-1,15,17,19,21,23,25,27,-1,-1,-1,-1,-1,-1,-1,-1,-1,-1,-1,-1,-1,-1],"loss_changes":[1.0314106E7,1.8033945E6,3.7389045E6,6.397075E5,1.3788467E5,1.3030914E6,2.397745E5,0E0,7.8536E4,2.4530586E4,4.8766973E4,2.5715173E5,2.6436475E5,2.9202625E4,2.8873E4,0E0,0E0,0E0,0E0,0E0,0E0,0E0,0E0,0E0,0E0,0E0,0E0,0E0,0E0],"parents":[2147483647,0,0,1,1,2,2,3,3,4,4,5,5,6,6,8,8,9,9,10,10,11,11,12,12,13,13,14,14],"right_children":[2,4,6,8,10,12,14,-1,16,18,20,22,24,26,28,-1,-1,-1,-1,-1,-1,-1,-1,-1,-1,-1,-1,-1,-1],"split_conditions":[4E0,1.3E1,1.2E1,2E0,2E0,6E0,6E0,-2.3769047E1,1.2E1,2.1E1,1.7E1,1E1,9E0,1.8E1,2.3E1,-1.3701113E1,-4.1041258E-1,-7.471171E0,-1.0803056E0,-7.859945E-1,5.669764E0,2.195394E0,-6.337268E0,1.4857388E1,6.1984286E0,1.3093336E1,1.9366142E1,2.7566841E1,1.9711899E1],"split_indices":[0,1,1,0,0,0,0,0,1,1,1,1,1,1,1,0,0,0,0,0,0,0,0,0,0,0,0,0,0],"split_type":[0,0,0,0,0,0,0,0,0,0,0,0,0,0,0,0,0,0,0,0,0,0,0,0,0,0,0,0,0],"sum_hessian":[5.19E2,2.11E2,3.08E2,1.63E2,4.8E1,2.07E2,1.01E2,6.8E1,9.5E1,1.8E1,3E1,1.01E2,1.06E2,4.4E1,5.7E1,9.2E1,3E0,1.2E1,6E0,1.2E1,1.8E1,3.3E1,6.8E1,3.4E1,7.2E1,2.3E1,2.1E1,3.8E1,1.9E1],"tree_param":{"num_deleted":"0","num_feature":"2","num_nodes":"29","size_leaf_vector":"1"}},{"base_weights":[3.0018933E0,-1.14108154E2,1.456421E2,-1.6174063E2,5.7658646E1,7.1299805E1,2.757757E2,-2.3642337E2,-8.63138E1,-9.453133E0,1.2302319E2,-5.4313645E0,1.0245597E2,1.7816967E1,2.9219467E2,-2.1900042E1,-1.4383795E1,-7.806327E0,3.518614E0,-3.5985892E0,2.1305733E0,6.412781E0,1.2343152E1,5.5238223E0,-3.4957607E0,1.3716151E1,5.6853824E0,2.5226946E1,1.8383387E1],"categories":[],"categories_nodes":[],"categories_segments":[],"categories_sizes":[],"default_left":[0,0,0,0,0,0,0,0,0,0,0,0,0,0,0,0,0,0,0,0,0,0,0,0,0,0,0,0,0],"id":3,"left_children":[1,3,5,7,9,11,13,15,17,19,21,23,25,-1,27,-1,-1,-1,-1,-1,-1,-1,-1,-1,-1,-1,-1,-1,-1],"loss_changes":[9.003694E6,2.4311015E6,2.3312245E6,1.286469E6,2.8630047E5,3.734977E5,1.1595E4,1.95968E5,1.7602756E5,4.3506715E4,3.1858031E4,1.3411684E5,2.2820712E5,0E0,1.9962E4,0E0,0E0,0E0,0E0,0E0,0E0,0E0,0E0,0E0,0E0,0E0,0E0,0E0,0E0],"parents":[2147483647,0,0,1,1,2,2,3,3,4,4,5,5,6,6,7,7,8,8,9,9,10,10,11,11,12,12,14,14],"right_children":[2,4,6,8,10,12,14,16,18,20,22,24,26,-1,28,-1,-1,-1,-1,-1,-1,-1,-1,-1,-1,-1,-1,-1,-1],"split_conditions":[5E0,1.4E1,1.2E1,3E0,3E0,6E0,6E0,2E0,1.2E1,2E0,4E0,9E0,9E0,1.7816967E1,2.3E1,-2.1900042E1,-1.4383795E1,-7.806327E0,3.518614E0,-3.5985892E0,2.1305733E0,6.412781E0,1.2343152E1,5.5238223E0,-3.4957607E0,1.3716151E1,5.6853824E0,2.5226946E1,1.8383387E1],"split_indices":[0,1,1,0,0,0,0,0,1,0,0,1,1,0,1,0,0,0,0,0,0,0,0,0,0,0,0,0,0],"split_type":[0,0,0,0,0,0,0,0,0,0,0,0,0,0,0,0,0,0,0,0,0,0,0,0,0,0,0,0,0],"sum_hessian":[5.37E2,2.95E2,2.42E2,2.31E2,6.4E1,1.55E2,8.7E1,1.15E2,1.16E2,3.2E1,3.2E1,4.5E1,1.1E2,2.4E1,6.3E1,6.7E1,4.8E1,1.07E2,9E0,1.6E1,1.6E1,1.5E1,1.7E1,1.5E1,3E1,3.3E1,7.7E1,4.3E1,2E1],"tree_param":{"num_deleted":"0","num_feature":"2","num_nodes":"29","size_leaf_vector":"1"}},{"base_weights":[2.930894E0,-1.05150635E2,1.3017636E2,-1.5204227E2,4.024106E1,6.764658E1,2.5145297E2,-2.2587044E2,-8.2027855E1,-2.3830755E1,1.08655E2,-4.7370415E0,9.915891E1,1.6140303E1,2.6688458E2,-2.0447893E1,-1.3742488E1,-7.106286E0,4.5058656E0,-4.485808E0,6.3924265E-1,4.4453235E0,1.0714992E1,5.109537E0,-2.80777E0,1.2758189E1,5.5722656E0,2.3486319E1,1.5798567E1],"categories":[],"categories_nodes":[],"categories_segments":[],"categories_sizes":[],"default_left":[0,0,0,0,0,0,0,0,0,0,0,0,0,0,0,0,0,0,0,0,0,0,0,0,0,0,0,0,0],"id":4,"left_children":[1,3,5,7,9,11,13,15,17,19,21,23,25,-1,27,-1,-1,-1,-1,-1,-1,-1,-1,-1,-1,-1,-1,-1,-1],"loss_changes":[7.426492E6,1.9968732E6,1.8636735E6,1.1238295E6,3.1819453E5,3.7683088E5,1.0578E4,1.28147E5,1.1320519E5,3.943518E4,3.9534688E4,1.0846912E5,1.9356112E5,0E0,5.50355E4,0E0,0E0,0E0,0E0,0E0,0E0,0E0,0E0,0E0,0E0,0E0,0E0,0E0,0E0],"parents":[2147483647,0,0,1,1,2,2,3,3,4,4,5,5,6,6,7,7,8,8,9,9,10,10,11,11,12,12,14,14],"right_children":[2,4,6,8,10,12,14,16,18,20,22,24,26,-1,28,-1,-1,-1,-1,-1,-1,-1,-1,-1,-1,-1,-1,-1,-1],"split_conditions":[5E0,1.3E1,1.2E1,3E0,3E0,6E0,6E0,2E0,1.2E1,1.9E1,1.7E1,9E0,9E0,1.6140303E1,2.3E1,-2.0447893E1,-1.3742488E1,-7.106286E0,4.5058656E0,-4.485808E0,6.3924265E-1,4.4453235E0,1.0714992E1,5.109537E0,-2.80777E0,1.2758189E1,5.5722656E0,2.3486319E1,1.5798567E1],"split_indices":[0,1,1,0,0,0,0,0,1,1,1,1,1,0,1,0,0,0,0,0,0,0,0,0,0,0,0,0,0],"split_type":[0,0,0,0,0,0,0,0,0,0,0,0,0,0,0,0,0,0,0,0,0,0,0,0,0,0,0,0,0],"sum_hessian":[5.38E2,2.91E2,2.47E2,2.2E2,7.1E1,1.64E2,8.3E1,1.06E2,1.14E2,3.7E1,3.4E1,5E1,1.14E2,2.3E1,6E1,6.6E1,4E1,1.09E2,5E0,1.8E1,1.9E1,1.2E1,2.2E1,1.5E1,3.5E1,3.6E1,7.8E1,4.1E1,1.9E1],"tree_param":{"num_deleted":"0","num_feature":"2","num_nodes":"29","size_leaf_vector":"1"}},{"base_weights":[-3.1759655E-1,-9.824319E1,1.2375049E2,-1.4129515E2,3.2222637E1,6.472527E1,1.9043247E1,-2.0332278E2,-8.12578E1,-2.3035805E1,9.603331E1,3.2688766E1,1.26972595E2,-1.8877184E1,-1.2222251E1,-9.03218E0,-3.9017951E0,-6.64236E0,-2.8543243E-1,3.5854058E0,9.9408E0,7.524499E0,1.5814343E-1,9.089832E0,2.0968046E1],"categories":[],"categories_nodes":[],"categories_segments":[],"categories_sizes":[],"default_left":[0,0,0,0,0,0,0,0,0,0,0,0,0,0,0,0,0,0,0,0,0,0,0,0,0],"id":5,"left_children":[1,3,5,7,9,11,-1,13,15,17,19,21,23,-1,-1,-1,-1,-1,-1,-1,-1,-1,-1,-1,-1],"loss_changes":[6.499959E6,1.6839798E6,1.5766485E6,8.213725E5,2.666681E5,3.089367E5,0E0,1.454365E5,1.13739375E5,4.7589766E4,4.502875E4,1.9770925E5,6.5827E4,0E0,0E0,0E0,0E0,0E0,0E0,0E0,0E0,0E0,0E0,0E0,0E0],"parents":[2147483647,0,0,1,1,2,2,3,3,4,4,5,5,7,7,8,8,9,9,10,10,11,11,12,12],"right_children":[2,4,6,8,10,12,-1,14,16,18,20,22,24,-1,-1,-1,-1,-1,-1,-1,-1,-1,-1,-1,-1],"split_conditions":[5E0,1.3E1,1.3E1,3E0,3E0,7E0,1.9043247E1,2E0,4E0,1.5E1,1.7E1,9E0,1.1E1,-1.8877184E1,-1.2222251E1,-9.03218E0,-3.9017951E0,-6.64236E0,-2.8543243E-1,3.5854058E0,9.9408E0,7.524499E0,1.5814343E-1,9.089832E0,2.0968046E1],"split_indices":[0,1,1,0,0,0,0,0,0,1,1,1,1,0,0,0,0,0,0,0,0,0,0,0,0],"split_type":[0,0,0,0,0,0,0,0,0,0,0,0,0,0,0,0,0,0,0,0,0,0,0,0,0],"sum_hessian":[5.33E2,2.98E2,2.35E2,2.24E2,7.4E1,1.56E2,7.9E1,1.09E2,1.15E2,4E1,3.4E1,1.04E2,5.2E1,6.4E1,4.5E1,5.7E1,5.8E1,9E0,3.1E1,1.3E1,2.1E1,3.4E1,7E1,4.9E1,3E0],"tree_param":{"num_deleted":"0","num_feature":"2","num_nodes":"25","size_leaf_vector":"1"}},{"base_weights":[-2.5379317E0,-9.085363E1,1.1017682E2,-1.3163736E2,3.3766254E1,5.3194206E1,2.1663577E2,-1.9074487E2,-6.7660286E1,-1.9341064E1,9.0266975E1,2.2483614E1,1.1303228E2,1.7090724E2,2.3032628E2,-1.7499043E1,-1.1582502E1,-2.2076592E0,-6.612235E0,-6.090637E0,1.7018685E-1,2.9699728E0,9.143224E0,7.1994357E0,-5.610754E-1,8.00834E0,1.9709965E1,9.542677E0,1.5645896E1,1.9734644E1,1.4756855E1],"categories":[],"categories_nodes":[],"categories_segments":[],"categories_sizes":[],"default_left":[0,0,0,0,0,0,0,0,0,0,0,0,0,0,0,0,0,0,0,0,0,0,0,0,0,0,0,0,0,0,0],"id":6,"left_children":[1,3,5,7,9,11,13,15,17,19,21,23,25,27,29,-1,-1,-1,-1,-1,-1,-1,-1,-1,-1,-1,-1,-1,-1,-1,-1],"loss_changes":[5.4152935E6,1.5545962E6,1.4383245E6,8.56845E5,2.297916E5,2.8597166E5,1.259725E4,1.214445E5,6.4994594E4,4.893121E4,4.299325E4,2.0972045E5,6.670106E4,5.9589375E3,2.5975E2,0E0,0E0,0E0,0E0,0E0,0E0,0E0,0E0,0E0,0E0,0E0,0E0,0E0,0E0,0E0,0E0],"parents":[2147483647,0,0,1,1,2,2,3,3,4,4,5,5,6,6,7,7,8,8,9,9,10,10,11,11,12,12,13,13,14,14],"right_children":[2,4,6,8,10,12,14,16,18,20,22,24,26,28,30,-1,-1,-1,-1,-1,-1,-1,-1,-1,-1,-1,-1,-1,-1,-1,-1],"split_conditions":[5E0,1.3E1,1.3E1,3E0,3E0,7E0,6E0,2E0,1E1,1.6E1,1.7E1,9E0,1.1E1,1.7E1,2.3E1,-1.7499043E1,-1.1582502E1,-2.2076592E0,-6.612235E0,-6.090637E0,1.7018685E-1,2.9699728E0,9.143224E0,7.1994357E0,-5.610754E-1,8.00834E0,1.9709965E1,9.542677E0,1.5645896E1,1.9734644E1,1.4756855E1],"split_indices":[0,1,1,0,0,0,0,0,1,1,1,1,1,1,1,0,0,0,0,0,0,0,0,0,0,0,0,0,0,0,0],"split_type":[0,0,0,0,0,0,0,0,0,0,0,0,0,0,0,0,0,0,0,0,0,0,0,0,0,0,0,0,0,0,0],"sum_hessian":[5.42E2,3.04E2,2.38E2,2.29E2,7.5E1,1.56E2,8.2E1,1.18E2,1.11E2,3.9E1,3.6E1,1.04E2,5.2E1,2.2E1,6E1,7.1E1,4.7E1,3.1E1,8E1,1E1,2.9E1,1.2E1,2.4E1,3.1E1,7.3E1,4.9E1,3E0,9E0,1.3E1,4.1E1,1.9E1],"tree_param":{"num_deleted":"0","num_feature":"2","num_nodes":"31","size_leaf_vector":"1"}},{"base_weights":[1.1201478E0,-1.1342113E2,8.4251335E1,-1.4866599E2,9.4063765E-1,3.0123032E1,1.8666182E2,-2.0845422E2,-1.1039785E2,-6.006728E1,3.3113132E1,-2.3987463E1,8.0376015E1,1.4366339E2,2.1330666E2,-1.3635876E1,-1.808908E1,-5.18914E0,-1.0683118E1,-6.005362E0,-2.4047399E0,-6.8019223E-1,5.059471E0,1.7218803E0,-3.6836233E0,1.0200642E1,4.427683E0,8.552603E0,1.4044785E1,1.8596403E1,1.3042302E1],"categories":[],"categories_nodes":[],"categories_segments":[],"categories_sizes":[],"default_left":[0,0,0,0,0,0,0,0,0,0,0,0,0,0,0,0,0,0,0,0,0,0,0,0,0,0,0,0,0,0,0],"id":7,"left_children":[1,3,5,7,9,11,13,15,17,19,21,23,25,27,29,-1,-1,-1,-1,-1,-1,-1,-1,-1,-1,-1,-1,-1,-1,-1,-1],"loss_changes":[5.094278E6,9.070395E5,1.712802E6,3.7052E5,1.0797897E5,5.5664756E5,9.1944E4,5.7555E3,1.0408375E5,6.2956875E3,4.567765E4,1.0037449E5,1.1799256E5,3.2816125E4,2.371825E4,0E0,0E0,0E0,0E0,0E0,0E0,0E0,0E0,0E0,0E0,0E0,0E0,0E0,0E0,0E0,0E0],"parents":[2147483647,0,0,1,1,2,2,3,3,4,4,5,5,6,6,7,7,8,8,9,9,10,10,11,11,12,12,13,13,14,14],"right_children":[2,4,6,8,10,12,14,16,18,20,22,24,26,28,30,-1,-1,-1,-1,-1,-1,-1,-1,-1,-1,-1,-1,-1,-1,-1,-1],"split_conditions":[4E0,1.3E1,1.2E1,2E0,2E0,6E0,6E0,1E1,1E1,1.9E1,1.8E1,1E1,9E0,1.8E1,2.3E1,-1.3635876E1,-1.808908E1,-5.18914E0,-1.0683118E1,-6.005362E0,-2.4047399E0,-6.8019223E-1,5.059471E0,1.7218803E0,-3.6836233E0,1.0200642E1,4.427683E0,8.552603E0,1.4044785E1,1.8596403E1,1.3042302E1],"split_indices":[0,1,1,0,0,0,0,1,1,1,1,1,1,1,1,0,0,0,0,0,0,0,0,0,0,0,0,0,0,0,0],"split_type":[0,0,0,0,0,0,0,0,0,0,0,0,0,0,0,0,0,0,0,0,0,0,0,0,0,0,0,0,0,0,0],"sum_hessian":[5.33E2,2.24E2,3.09E2,1.71E2,5.3E1,2.03E2,1.06E2,6.5E1,1.06E2,1.8E1,3.5E1,9.8E1,1.05E2,4.3E1,6.3E1,2.4E1,4.1E1,3.7E1,6.9E1,1.1E1,7E0,1.5E1,2E1,3.2E1,6.6E1,3.5E1,7E1,2.2E1,2.1E1,4.3E1,2E1],"tree_param":{"num_deleted":"0","num_feature":"2","num_nodes":"31","size_leaf_vector":"1"}},{"base_weights":[-1.1173009E0,-7.5818375E1,9.116519E1,-1.10109985E2,2.5781239E1,4.2378307E1,1.8176265E2,-1.5653572E2,-6.1396286E1,-1.7515572E1,7.5763756E1,9.762542E1,1.7660511E1,1.9289818E2,1.4211879E2,-9.467261E0,-1.4509072E1,-5.484035E0,4.2114286E0,-3.894173E0,9.287446E-1,2.191883E0,7.9845223E0,5.404662E0,1.1196934E1,-5.6039643E-1,5.429694E0,1.2800602E1,2.0713078E1,1.816425E1,9.340636E0],"categories":[],"categories_nodes":[],"categories_segments":[],"categories_sizes":[],"default_left":[0,0,0,0,0,0,0,0,0,0,0,0,0,0,0,0,0,0,0,0,0,0,0,0,0,0,0,0,0,0,0],"id":8,"left_children":[1,3,5,7,9,11,13,15,17,19,21,23,25,27,29,-1,-1,-1,-1,-1,-1,-1,-1,-1,-1,-1,-1,-1,-1,-1,-1],"loss_changes":[3.6674145E6,1.0271389E6,1.0442496E6,4.8793475E5,1.636333E5,2.1130747E5,9.22625E3,8.474575E4,9.253672E4,3.777579E4,3.796464E4,5.164503E4,1.3546861E5,9.319175E4,2.0877906E4,0E0,0E0,0E0,0E0,0E0,0E0,0E0,0E0,0E0,0E0,0E0,0E0,0E0,0E0,0E0,0E0],"parents":[2147483647,0,0,1,1,2,2,3,3,4,4,5,5,6,6,7,7,8,8,9,9,10,10,11,11,12,12,13,13,14,14],"right_children":[2,4,6,8,10,12,14,16,18,20,22,24,26,28,30,-1,-1,-1,-1,-1,-1,-1,-1,-1,-1,-1,-1,-1,-1,-1,-1],"split_conditions":[5E0,1.3E1,1.2E1,3E0,3E0,9E0,2.3E1,1E1,1.2E1,1.9E1,1.7E1,6E0,7E0,7E0,7E0,-9.467261E0,-1.4509072E1,-5.484035E0,4.2114286E0,-3.894173E0,9.287446E-1,2.191883E0,7.9845223E0,5.404662E0,1.1196934E1,-5.6039643E-1,5.429694E0,1.2800602E1,2.0713078E1,1.816425E1,9.340636E0],"split_indices":[0,1,1,0,0,1,1,1,1,1,1,1,0,0,0,0,0,0,0,0,0,0,0,0,0,0,0,0,0,0,0],"split_type":[0,0,0,0,0,0,0,0,0,0,0,0,0,0,0,0,0,0,0,0,0,0,0,0,0,0,0,0,0,0,0],"sum_hessian":[5.3E2,2.93E2,2.37E2,2.19E2,7.4E1,1.55E2,8.2E1,1.11E2,1.08E2,4E1,3.4E1,4.7E1,1.08E2,6.1E1,2.1E1,4.6E1,6.5E1,1.02E2,6E0,1.9E1,2.1E1,1.2E1,2.2E1,2.9E1,1.8E1,7.3E1,3.5E1,4.3E1,1.8E1,3E0,1.8E1],"tree_param":{"num_deleted":"0","num_feature":"2","num_nodes":"31","size_leaf_vector":"1"}},{"base_weights":[3.0993161E0,-9.281817E1,7.041608E1,-1.2353729E2,1.0268E0,2.3912235E1,1.5928874E2,-1.7267068E2,-8.987387E1,-4.2548916E1,2.7142893E1,-2.1585485E1,6.620999E1,1.2116524E2,1.8500476E2,-1.0180681E1,-1.5398762E1,-7.7119336E0,2.2737792E0,-5.3129454E0,-1.1854341E0,-7.6734E-1,3.738066E0,1.4531558E0,-3.5382915E0,4.7597485E0,1.7935923E1,7.625752E0,1.2229843E1,1.5859188E1,1.1783923E1],"categories":[],"categories_nodes":[],"categories_segments":[],"categories_sizes":[],"default_left":[0,0,0,0,0,0,0,0,0,0,0,0,0,0,0,0,0,0,0,0,0,0,0,0,0,0,0,0,0,0,0],"id":9,"left_children":[1,3,5,7,9,11,13,15,17,19,21,23,25,27,29,-1,-1,-1,-1,-1,-1,-1,-1,-1,-1,-1,-1,-1,-1,-1,-1],"loss_changes":[3.4286688E6,6.3146775E5,1.2856622E6,2.5739125E5,6.3746406E4,3.978662E5,8.2485E4,3.4890875E4,7.99315E4,1.2912496E4,2.5626203E4,9.080979E4,1.0014522E5,2.3121875E4,1.74E3,0E0,0E0,0E0,0E0,0E0,0E0,0E0,0E0,0E0,0E0,0E0,0E0,0E0,0E0,0E0,0E0],"parents":[2147483647,0,0,1,1,2,2,3,3,4,4,5,5,6,6,7,7,8,8,9,9,10,10,11,11,12,12,13,13,14,14],"right_children":[2,4,6,8,10,12,14,16,18,20,22,24,26,28,30,-1,-1,-1,-1,-1,-1,-1,-1,-1,-1,-1,-1,-1,-1,-1,-1],"split_conditions":[4E0,1.3E1,1.2E1,2E0,2E0,6E0,6E0,1E1,1.2E1,1.9E1,1.7E1,1E1,1.1E1,1.9E1,2.3E1,-1.0180681E1,-1.5398762E1,-7.7119336E0,2.2737792E0,-5.3129454E0,-1.1854341E0,-7.6734E-1,3.738066E0,1.4531558E0,-3.5382915E0,4.7597485E0,1.7935923E1,7.625752E0,1.2229843E1,1.5859188E1,1.1783923E1],"split_indices":[0,1,1,0,0,0,0,1,1,1,1,1,1,1,1,0,0,0,0,0,0,0,0,0,0,0,0,0,0,0,0],"split_type":[0,0,0,0,0,0,0,0,0,0,0,0,0,0,0,0,0,0,0,0,0,0,0,0,0,0,0,0,0,0,0],"sum_hessian":[5.29E2,2.18E2,3.11E2,1.64E2,5.4E1,2.05E2,1.06E2,6.5E1,9.9E1,2E1,3.4E1,9.9E1,1.06E2,4.5E1,6.1E1,2.2E1,4.3E1,9.4E1,5E0,1E1,1E1,1.2E1,2.2E1,3.6E1,6.3E1,1.03E2,3E0,2.7E1,1.8E1,4.2E1,1.9E1],"tree_param":{"num_deleted":"0","num_feature":"2","num_nodes":"31","size_leaf_vector":"1"}},{"base_weights":[-1.38687845E-2,-6.4982E1,8.0113556E1,-9.2219185E1,3.1332726E1,3.79188E1,1.5802382E2,-1.363825E2,-5.0231598E1,-3.4026505E1,5.2928207E1,-1.38117895E1,6.1517048E1,1.3712315E2,1.8472707E2,-1.91509E1,-1.0092587E1,-4.566705E0,3.2497406E0,-3.8224325E0,-6.0418385E-1,2.4679904E0,7.5177145E0,1.2196475E0,-2.974966E0,8.978214E0,2.936078E0,6.7221317E0,1.2104481E1,1.8194405E1,9.797745E0],"categories":[],"categories_nodes":[],"categories_segments":[],"categories_sizes":[],"default_left":[0,0,0,0,0,0,0,0,0,0,0,0,0,0,0,0,0,0,0,0,0,0,0,0,0,0,0,0,0,0,0],"id":10,"left_children":[1,3,5,7,9,11,13,15,17,19,21,23,25,27,29,-1,-1,-1,-1,-1,-1,-1,-1,-1,-1,-1,-1,-1,-1,-1,-1],"loss_changes":[2.7902712E6,7.7939875E5,7.829851E5,4.2149525E5,9.495761E4,1.925076E5,2.155125E4,8.7761375E4,7.702453E4,5.829248E3,4.2409266E4,3.452817E4,1.3179253E5,2.569225E4,6.2534625E4,0E0,0E0,0E0,0E0,0E0,0E0,0E0,0E0,0E0,0E0,0E0,0E0,0E0,0E0,0E0,0E0],"parents":[2147483647,0,0,1,1,2,2,3,3,4,4,5,5,6,6,7,7,8,8,9,9,10,10,11,11,12,12,13,13,14,14],"right_children":[2,4,6,8,10,12,14,16,18,20,22,24,26,28,30,-1,-1,-1,-1,-1,-1,-1,-1,-1,-1,-1,-1,-1,-1,-1,-1],"split_conditions":[5E0,1.4E1,1.2E1,3E0,2E0,6E0,7E0,1E0,1.2E1,2.1E1,4E0,1E1,9E0,1.6E1,2.3E1,-1.91509E1,-1.0092587E1,-4.566705E0,3.2497406E0,-3.8224325E0,-6.0418385E-1,2.4679904E0,7.5177145E0,1.2196475E0,-2.974966E0,8.978214E0,2.936078E0,6.7221317E0,1.2104481E1,1.8194405E1,9.797745E0],"split_indices":[0,1,1,0,0,0,0,1,1,1,0,1,1,1,1,0,0,0,0,0,0,0,0,0,0,0,0,0,0,0,0],"split_type":[0,0,0,0,0,0,0,0,0,0,0,0,0,0,0,0,0,0,0,0,0,0,0,0,0,0,0,0,0,0,0],"sum_hessian":[5.34E2,2.95E2,2.39E2,2.3E2,6.5E1,1.56E2,8.3E1,1.11E2,1.19E2,1.6E1,4.9E1,4.9E1,1.07E2,5E1,3.3E1,8E0,1.03E2,1.11E2,8E0,1E1,6E0,3.3E1,1.6E1,2.2E1,2.7E1,3.4E1,7.3E1,1.2E1,3.8E1,1.8E1,1.5E1],"tree_param":{"num_deleted":"0","num_feature":"2","num_nodes":"31","size_leaf_vector":"1"}},{"base_weights":[5.331937E-1,-7.728684E1,5.896193E1,-1.0451713E2,7.7896194E0,2.3427849E1,1.3087881E2,-1.4787299E2,-7.599787E1,-3.2375454E1,2.5097738E1,2.4656405E0,8.462204E1,6.5090756E0,1.4175764E2,-1.8132925E1,-1.0774676E1,-2.910553E0,-7.9366174E0,-4.742123E0,-9.850683E-1,-4.9476928E-1,3.5925522E0,2.9130204E0,-2.280377E0,5.8025727E0,1.6683605E1,1.2427055E1,6.968384E0],"categories":[],"categories_nodes":[],"categories_segments":[],"categories_sizes":[],"default_left":[0,0,0,0,0,0,0,0,0,0,0,0,0,0,0,0,0,0,0,0,0,0,0,0,0,0,0,0,0],"id":11,"left_children":[1,3,5,7,9,11,13,15,17,19,21,23,25,-1,27,-1,-1,-1,-1,-1,-1,-1,-1,-1,-1,-1,-1,-1,-1],"loss_changes":[2.3644118E6,5.1742862E5,7.5591744E5,1.9772638E5,3.904755E4,2.5634442E5,4.125575E4,3.8058625E4,9.2016625E4,8.444875E3,2.4445145E4,1.5874103E5,6.128272E4,0E0,4.510425E4,0E0,0E0,0E0,0E0,0E0,0E0,0E0,0E0,0E0,0E0,0E0,0E0,0E0,0E0],"parents":[2147483647,0,0,1,1,2,2,3,3,4,4,5,5,6,6,7,7,8,8,9,9,10,10,11,11,12,12,14,14],"right_children":[2,4,6,8,10,12,14,16,18,20,22,24,26,-1,28,-1,-1,-1,-1,-1,-1,-1,-1,-1,-1,-1,-1,-1,-1],"split_conditions":[4E0,1.3E1,1.2E1,2E0,2E0,7E0,5E0,1E0,1E1,1.9E1,1.8E1,1E1,1.1E1,6.5090756E0,2.3E1,-1.8132925E1,-1.0774676E1,-2.910553E0,-7.9366174E0,-4.742123E0,-9.850683E-1,-4.9476928E-1,3.5925522E0,2.9130204E0,-2.280377E0,5.8025727E0,1.6683605E1,1.2427055E1,6.968384E0],"split_indices":[0,1,1,0,0,0,0,1,1,1,1,1,1,0,1,0,0,0,0,0,0,0,0,0,0,0,0,0,0],"split_type":[0,0,0,0,0,0,0,0,0,0,0,0,0,0,0,0,0,0,0,0,0,0,0,0,0,0,0,0,0],"sum_hessian":[5.18E2,2.22E2,2.96E2,1.68E2,5.4E1,1.99E2,9.7E1,6.5E1,1.03E2,1.6E1,3.8E1,1.49E2,5E1,1.9E1,7.8E1,7E0,5.8E1,3.9E1,6.4E1,6E0,1E1,1.5E1,2.3E1,7.1E1,7.8E1,4.7E1,3E0,6.1E1,1.7E1],"tree_param":{"num_deleted":"0","num_feature":"2","num_nodes":"29","size_leaf_vector":"1"}},{"base_weights":[1.0165471E0,-7.387158E1,5.343496E1,-9.774058E1,1.8313403E0,1.8856945E1,1.2174471E2,-1.2906477E2,-7.6089195E1,-3.6085644E1,2.236252E1,-8.905242E-1,7.625319E1,9.4363434E1,1.3877133E2,-7.3523455E0,-1.1848889E1,-6.58375E0,2.7904458E0,-3.9943419E0,-1.9079533E0,-5.4260534E-1,3.1914334E0,2.62922E0,-2.3260837E0,5.2116632E0,1.568259E1,5.782898E0,9.680825E0,1.2110184E1,8.378391E0],"categories":[],"categories_nodes":[],"categories_segments":[],"categories_sizes":[],"default_left":[0,0,0,0,0,0,0,0,0,0,0,0,0,0,0,0,0,0,0,0,0,0,0,0,0,0,0,0,0,0,0],"id":12,"left_children":[1,3,5,7,9,11,13,15,17,19,21,23,25,27,29,-1,-1,-1,-1,-1,-1,-1,-1,-1,-1,-1,-1,-1,-1,-1,-1],"loss_changes":[2.0687694E6,3.9228762E5,7.29929E5,1.02084625E5,4.206643E4,2.34688E5,3.5391E4,3.3100875E4,7.175706E4,2.0276992E3,1.8152945E4,1.4842633E5,5.7742406E4,1.6549062E4,1.0752E4,0E0,0E0,0E0,0E0,0E0,0E0,0E0,0E0,0E0,0E0,0E0,0E0,0E0,0E0,0E0,0E0],"parents":[2147483647,0,0,1,1,2,2,3,3,4,4,5,5,6,6,7,7,8,8,9,9,10,10,11,11,12,12,13,13,14,14],"right_children":[2,4,6,8,10,12,14,16,18,20,22,24,26,28,30,-1,-1,-1,-1,-1,-1,-1,-1,-1,-1,-1,-1,-1,-1,-1,-1],"split_conditions":[4E0,1.3E1,1.2E1,2E0,2E0,7E0,6E0,1E1,1.2E1,1.7E1,1.7E1,1E1,1.1E1,1.9E1,2.3E1,-7.3523455E0,-1.1848889E1,-6.58375E0,2.7904458E0,-3.9943419E0,-1.9079533E0,-5.4260534E-1,3.1914334E0,2.62922E0,-2.3260837E0,5.2116632E0,1.568259E1,5.782898E0,9.680825E0,1.2110184E1,8.378391E0],"split_indices":[0,1,1,0,0,0,0,1,1,1,1,1,1,1,1,0,0,0,0,0,0,0,0,0,0,0,0,0,0,0,0],"split_type":[0,0,0,0,0,0,0,0,0,0,0,0,0,0,0,0,0,0,0,0,0,0,0,0,0,0,0,0,0,0,0],"sum_hessian":[5.25E2,2.16E2,3.09E2,1.64E2,5.2E1,2.06E2,1.03E2,6.5E1,9.9E1,1.8E1,3.4E1,1.54E2,5.2E1,4.2E1,6.1E1,2.4E1,4.1E1,9.4E1,5E0,7E0,1.1E1,1.3E1,2.1E1,7E1,8.4E1,4.9E1,3E0,2.5E1,1.7E1,4.2E1,1.9E1],"tree_param":{"num_deleted":"0","num_feature":"2","num_nodes":"31","size_leaf_vector":"1"}},{"base_weights":[4.241904E-1,-7.0310844E1,4.840552E1,-9.480304E1,1.7722546E0,1.7439865E1,1.1449763E2,-1.2853339E2,-7.072646E1,-3.3745247E1,2.145497E1,-1.7681944E1,5.1125977E1,5.609754E0,1.2338349E2,-1.6348959E1,-9.268653E0,-2.3737807E0,-7.449816E0,-4.1704855E0,-8.1170505E-1,-5.251625E-1,3.0061994E0,1.7809166E0,-2.9482634E0,7.4631987E0,2.54753E0,8.688411E0,1.1535429E1],"categories":[],"categories_nodes":[],"categories_segments":[],"categories_sizes":[],"default_left":[0,0,0,0,0,0,0,0,0,0,0,0,0,0,0,0,0,0,0,0,0,0,0,0,0,0,0,0,0],"id":13,"left_children":[1,3,5,7,9,11,13,15,17,19,21,23,25,-1,27,-1,-1,-1,-1,-1,-1,-1,-1,-1,-1,-1,-1,-1,-1],"loss_changes":[1.7886271E6,3.7621388E5,6.40631E5,1.20034875E5,3.917345E4,2.552742E5,3.077975E4,3.8797375E4,8.458556E4,8.1487773E3,1.65095E4,8.1991914E4,8.645928E4,0E0,9.55725E3,0E0,0E0,0E0,0E0,0E0,0E0,0E0,0E0,0E0,0E0,0E0,0E0,0E0,0E0],"parents":[2147483647,0,0,1,1,2,2,3,3,4,4,5,5,6,6,7,7,8,8,9,9,10,10,11,11,12,12,14,14],"right_children":[2,4,6,8,10,12,14,16,18,20,22,24,26,-1,28,-1,-1,-1,-1,-1,-1,-1,-1,-1,-1,-1,-1,-1,-1],"split_conditions":[4E0,1.3E1,1.2E1,2E0,2E0,6E0,1.5E1,1E0,1E1,1.9E1,1.7E1,1E1,9E0,5.609754E0,7E0,-1.6348959E1,-9.268653E0,-2.3737807E0,-7.449816E0,-4.1704855E0,-8.1170505E-1,-5.251625E-1,3.0061994E0,1.7809166E0,-2.9482634E0,7.4631987E0,2.54753E0,8.688411E0,1.1535429E1],"split_indices":[0,1,1,0,0,0,1,1,1,1,1,1,1,0,0,0,0,0,0,0,0,0,0,0,0,0,0,0,0],"split_type":[0,0,0,0,0,0,0,0,0,0,0,0,0,0,0,0,0,0,0,0,0,0,0,0,0,0,0,0,0],"sum_hessian":[5.25E2,2.12E2,3.13E2,1.58E2,5.4E1,2.14E2,9.9E1,6.4E1,9.4E1,1.9E1,3.5E1,1.05E2,1.09E2,1.8E1,8.1E1,7E0,5.7E1,3.4E1,6E1,1E1,9E0,1.3E1,2.2E1,3.4E1,7.1E1,3.3E1,7.6E1,5.1E1,3E1],"tree_param":{"num_deleted":"0","num_feature":"2","num_nodes":"29","size_leaf_vector":"1"}},{"base_weights":[-1.571906E0,-6.3469975E1,4.328398E1,-8.2733154E1,1.1612421E1,1.5276151E1,9.9703E1,-1.18814255E2,-5.72039E1,-2.0920475E1,2.6499329E1,-1.845177E1,4.695083E1,7.772268E1,1.13427505E2,-1.520453E1,-8.657444E0,-1.9885246E0,-6.014333E0,-1.9907573E0,-1.026822E0,1.14019886E-1,3.0265481E0,9.4977623E-1,-2.6851723E0,6.737112E0,2.1267126E0,4.9086595E0,7.854298E0,1.04451885E1,5.566004E0],"categories":[],"categories_nodes":[],"categories_segments":[],"categories_sizes":[],"default_left":[0,0,0,0,0,0,0,0,0,0,0,0,0,0,0,0,0,0,0,0,0,0,0,0,0,0,0,0,0,0,0],"id":14,"left_children":[1,3,5,7,9,11,13,15,17,19,21,23,25,27,29,-1,-1,-1,-1,-1,-1,-1,-1,-1,-1,-1,-1,-1,-1,-1,-1],"loss_changes":[1.4604059E6,3.2059875E5,4.8043012E5,1.5532112E5,2.2832832E4,2.1987217E5,2.1652688E4,3.3785188E4,5.918372E4,1.6134619E2,9.038963E3,4.622676E4,7.8208266E4,8.0355156E3,3.6006812E4,0E0,0E0,0E0,0E0,0E0,0E0,0E0,0E0,0E0,0E0,0E0,0E0,0E0,0E0,0E0,0E0],"parents":[2147483647,0,0,1,1,2,2,3,3,4,4,5,5,6,6,7,7,8,8,9,9,10,10,11,11,12,12,13,13,14,14],"right_children":[2,4,6,8,10,12,14,16,18,20,22,24,26,28,30,-1,-1,-1,-1,-1,-1,-1,-1,-1,-1,-1,-1,-1,-1,-1,-1],"split_conditions":[4E0,1.5E1,1.2E1,2E0,2E0,6E0,6E0,1E0,1E1,2.1E1,1.8E1,1E1,9E0,1.9E1,2.3E1,-1.520453E1,-8.657444E0,-1.9885246E0,-6.014333E0,-1.9907573E0,-1.026822E0,1.14019886E-1,3.0265481E0,9.4977623E-1,-2.6851723E0,6.737112E0,2.1267126E0,4.9086595E0,7.854298E0,1.04451885E1,5.566004E0],"split_indices":[0,1,1,0,0,0,0,1,1,1,1,1,1,1,1,0,0,0,0,0,0,0,0,0,0,0,0,0,0,0,0],"split_type":[0,0,0,0,0,0,0,0,0,0,0,0,0,0,0,0,0,0,0,0,0,0,0,0,0,0,0,0,0,0,0],"sum_hessian":[5.24E2,2.2E2,3.04E2,1.75E2,4.5E1,2.04E2,1E2,7.1E1,1.04E2,1.4E1,3.1E1,9.9E1,1.05E2,4.1E1,5.9E1,7E0,6.4E1,3.8E1,6.6E1,8E0,6E0,1E1,2.1E1,3.3E1,6.6E1,3.6E1,6.9E1,2.5E1,1.6E1,4.1E1,1.8E1],"tree_param":{"num_deleted":"0","num_feature":"2","num_nodes":"31","size_leaf_vector":"1"}},{"base_weights":[1.6551136E0,-4.4487843E1,5.6232124E1,-6.4089516E1,1.4926604E1,3.236601E1,8.901386E0,-9.6760735E1,-3.2012894E1,-8.04025E0,4.1507416E1,1.61488E1,6.508614E1,-4.3434615E0,-9.598178E0,-2.028374E-1,-3.4213119E0,-3.1745555E0,1.9408895E-1,9.432354E-1,4.574459E0,3.8068368E0,1.2715808E-1,8.97867E0,3.8884413E0],"categories":[],"categories_nodes":[],"categories_segments":[],"categories_sizes":[],"default_left":[0,0,0,0,0,0,0,0,0,0,0,0,0,0,0,0,0,0,0,0,0,0,0,0,0],"id":15,"left_children":[1,3,5,7,9,11,-1,13,15,17,19,21,23,-1,-1,-1,-1,-1,-1,-1,-1,-1,-1,-1,-1],"loss_changes":[1.3523341E6,3.3986188E5,3.1951406E5,2.2641056E5,4.489859E4,9.074778E4,0E0,9.996806E4,3.5393953E4,1.3343211E4,1.5161781E4,5.347486E4,3.883475E4,0E0,0E0,0E0,0E0,0E0,0E0,0E0,0E0,0E0,0E0,0E0,0E0],"parents":[2147483647,0,0,1,1,2,2,3,3,4,4,5,5,7,7,8,8,9,9,10,10,11,11,12,12],"right_children":[2,4,6,8,10,12,-1,14,16,18,20,22,24,-1,-1,-1,-1,-1,-1,-1,-1,-1,-1,-1,-1],"split_conditions":[5E0,1.3E1,1.5E1,3E0,3E0,7E0,8.901386E0,1E1,1E1,1.5E1,1.7E1,9E0,9E0,-4.3434615E0,-9.598178E0,-2.028374E-1,-3.4213119E0,-3.1745555E0,1.9408895E-1,9.432354E-1,4.574459E0,3.8068368E0,1.2715808E-1,8.97867E0,3.8884413E0],"split_indices":[0,1,1,0,0,0,0,1,1,1,1,1,1,0,0,0,0,0,0,0,0,0,0,0,0],"split_type":[0,0,0,0,0,0,0,0,0,0,0,0,0,0,0,0,0,0,0,0,0,0,0,0,0],"sum_hessian":[5.35E2,2.9E2,2.45E2,2.18E2,7.2E1,1.72E2,7.3E1,1.07E2,1.11E2,3.9E1,3.3E1,1.16E2,5.6E1,3.9E1,6.8E1,3E1,8.1E1,9E0,3E1,1.2E1,2.1E1,3.6E1,8E1,1.3E1,4.3E1],"tree_param":{"num_deleted":"0","num_feature":"2","num_nodes":"25","size_leaf_vector":"1"}},{"base_weights":[-4.2989334E-1,-4.274685E1,5.2096985E1,-5.977332E1,9.916176E0,2.533537E1,1.00351585E2,-8.690915E1,-3.2335293E1,-2.6825212E1,2.5149237E1,7.010434E0,6.1112034E1,6.88139E1,1.1094506E2,-1.3218991E1,-6.242371E0,-2.975822E0,3.4509904E0,-2.7454445E0,3.2124022E-1,1.236067E0,4.1251073E0,1.7457042E0,-1.0887667E0,8.757252E0,3.4369435E0,3.9234772E0,6.873852E0,7.219428E0,9.600875E0],"categories":[],"categories_nodes":[],"categories_segments":[],"categories_sizes":[],"default_left":[0,0,0,0,0,0,0,0,0,0,0,0,0,0,0,0,0,0,0,0,0,0,0,0,0,0,0,0,0,0,0],"id":16,"left_children":[1,3,5,7,9,11,13,15,17,19,21,23,25,27,29,-1,-1,-1,-1,-1,-1,-1,-1,-1,-1,-1,-1,-1,-1,-1,-1],"loss_changes":[1.1358436E6,2.543491E5,2.9189012E5,1.5652419E5,3.98525E4,9.660114E4,1.9427E4,6.1526812E4,4.123897E4,4.990583E3,1.2012266E4,3.0531613E4,3.9178625E4,3.5659453E3,2.4325E2,0E0,0E0,0E0,0E0,0E0,0E0,0E0,0E0,0E0,0E0,0E0,0E0,0E0,0E0,0E0,0E0],"parents":[2147483647,0,0,1,1,2,2,3,3,4,4,5,5,6,6,7,7,8,8,9,9,10,10,11,11,12,12,13,13,14,14],"right_children":[2,4,6,8,10,12,14,16,18,20,22,24,26,28,30,-1,-1,-1,-1,-1,-1,-1,-1,-1,-1,-1,-1,-1,-1,-1,-1],"split_conditions":[5E0,1.3E1,1.2E1,3E0,2E0,7E0,6E0,1E0,1.2E1,2.3E1,4E0,1E1,9E0,1.9E1,1.8E1,-1.3218991E1,-6.242371E0,-2.975822E0,3.4509904E0,-2.7454445E0,3.2124022E-1,1.236067E0,4.1251073E0,1.7457042E0,-1.0887667E0,8.757252E0,3.4369435E0,3.9234772E0,6.873852E0,7.219428E0,9.600875E0],"split_indices":[0,1,1,0,0,0,0,1,1,1,0,1,1,1,1,0,0,0,0,0,0,0,0,0,0,0,0,0,0,0,0],"split_type":[0,0,0,0,0,0,0,0,0,0,0,0,0,0,0,0,0,0,0,0,0,0,0,0,0,0,0,0,0,0,0],"sum_hessian":[5.09E2,2.82E2,2.27E2,2.13E2,6.9E1,1.47E2,8E1,1.06E2,1.07E2,2E1,4.9E1,9.8E1,4.9E1,2.2E1,5.8E1,9E0,9.7E1,1.01E2,6E0,1.6E1,4E0,3.7E1,1.2E1,5.7E1,4.1E1,1.2E1,3.7E1,1.2E1,1E1,2.1E1,3.7E1],"tree_param":{"num_deleted":"0","num_feature":"2","num_nodes":"31","size_leaf_vector":"1"}},{"base_weights":[4.2026634E0,-4.7141857E1,4.0741966E1,-6.403761E1,3.1737504E0,1.8173967E1,8.416777E1,-2.5781897E1,-8.310329E1,-9.109417E0,2.8928562E1,2.4712093E0,6.523282E1,6.422647E1,9.631885E1,-7.353697E0,1.4217936E0,-8.148828E0,-3.589116E0,-2.4874153E0,-1.7686296E-1,-2.122154E-1,3.5952196E0,1.7949153E0,-1.2807165E0,4.358396E0,1.4021663E1,4.0722036E0,9.159225E0,8.577285E0,5.9678082E0],"categories":[],"categories_nodes":[],"categories_segments":[],"categories_sizes":[],"default_left":[0,0,0,0,0,0,0,0,0,0,0,0,0,0,0,0,0,0,0,0,0,0,0,0,0,0,0,0,0,0,0],"id":17,"left_children":[1,3,5,7,9,11,13,15,17,19,21,23,25,27,29,-1,-1,-1,-1,-1,-1,-1,-1,-1,-1,-1,-1,-1,-1,-1,-1],"loss_changes":[9.699847E5,1.829791E5,2.9444044E5,1.1528619E5,1.7662809E4,1.4762953E5,1.87715E4,1.6006955E5,7.2176625E4,5.694131E3,9.221257E3,5.607227E4,4.961242E4,2.2300047E4,6.677375E3,0E0,0E0,0E0,0E0,0E0,0E0,0E0,0E0,0E0,0E0,0E0,0E0,0E0,0E0,0E0,0E0],"parents":[2147483647,0,0,1,1,2,2,3,3,4,4,5,5,6,6,7,7,8,8,9,9,10,10,11,11,12,12,13,13,14,14],"right_children":[2,4,6,8,10,12,14,16,18,20,22,24,26,28,30,-1,-1,-1,-1,-1,-1,-1,-1,-1,-1,-1,-1,-1,-1,-1,-1],"split_conditions":[4E0,1.3E1,1.2E1,1E1,3E0,7E0,1.8E1,3E0,3E0,1.5E1,1.7E1,1E1,1.1E1,7E0,2.3E1,-7.353697E0,1.4217936E0,-8.148828E0,-3.589116E0,-2.4874153E0,-1.7686296E-1,-2.122154E-1,3.5952196E0,1.7949153E0,-1.2807165E0,4.358396E0,1.4021663E1,4.0722036E0,9.159225E0,8.577285E0,5.9678082E0],"split_indices":[0,1,1,1,0,0,1,1,0,1,1,1,1,0,1,0,0,0,0,0,0,0,0,0,0,0,0,0,0,0,0],"split_type":[0,0,0,0,0,0,0,0,0,0,0,0,0,0,0,0,0,0,0,0,0,0,0,0,0,0,0,0,0,0,0],"sum_hessian":[5.15E2,2.14E2,3.01E2,1.6E2,5.4E1,1.99E2,1.02E2,5.4E1,1.06E2,3.7E1,1.7E1,1.5E2,4.9E1,4.1E1,6.1E1,2.1E1,3.3E1,7E1,3.6E1,8E0,2.9E1,6E0,1.1E1,7.2E1,7.8E1,4.6E1,3E0,3.4E1,7E0,3.8E1,2.3E1],"tree_param":{"num_deleted":"0","num_feature":"2","num_nodes":"31","size_leaf_vector":"1"}},{"base_weights":[8.600067E-1,-4.5810596E1,3.4171947E1,-6.2406994E1,2.1931362E0,1.2703047E1,7.678117E1,-3.564626E1,-7.6579666E1,-2.1869623E1,1.6441448E1,-9.733072E0,3.4804504E1,6.244535E1,9.907305E1,-6.448894E0,-1.7032398E-2,-7.815423E0,-4.869427E0,-2.5010846E0,-1.2178344E-1,-6.9684446E-2,2.262802E0,9.27449E-1,-1.6574974E0,2.3493762E0,1.3180366E1,3.4252205E0,5.557596E0,1.1582389E1,3.873006E0],"categories":[],"categories_nodes":[],"categories_segments":[],"categories_sizes":[],"default_left":[0,0,0,0,0,0,0,0,0,0,0,0,0,0,0,0,0,0,0,0,0,0,0,0,0,0,0,0,0,0,0],"id":18,"left_children":[1,3,5,7,9,11,13,15,17,19,21,23,25,27,29,-1,-1,-1,-1,-1,-1,-1,-1,-1,-1,-1,-1,-1,-1,-1,-1],"loss_changes":[8.286596E5,1.7700181E5,2.8351916E5,5.985E4,2.0245084E4,1.03479914E5,2.7048875E4,9.398505E4,2.9548312E4,4.1575215E3,7.6111904E3,2.4605516E4,6.935229E4,6.126625E3,8.329647E4,0E0,0E0,0E0,0E0,0E0,0E0,0E0,0E0,0E0,0E0,0E0,0E0,0E0,0E0,0E0,0E0],"parents":[2147483647,0,0,1,1,2,2,3,3,4,4,5,5,6,6,7,7,8,8,9,9,10,10,11,11,12,12,13,13,14,14],"right_children":[2,4,6,8,10,12,14,16,18,20,22,24,26,28,30,-1,-1,-1,-1,-1,-1,-1,-1,-1,-1,-1,-1,-1,-1,-1,-1],"split_conditions":[4E0,1.3E1,1.2E1,1E1,2E0,6E0,7E0,3E0,2E0,2.1E1,1.8E1,1E1,1.1E1,1.6E1,2.3E1,-6.448894E0,-1.7032398E-2,-7.815423E0,-4.869427E0,-2.5010846E0,-1.2178344E-1,-6.9684446E-2,2.262802E0,9.27449E-1,-1.6574974E0,2.3493762E0,1.3180366E1,3.4252205E0,5.557596E0,1.1582389E1,3.873006E0],"split_indices":[0,1,1,1,0,0,0,1,0,1,1,1,1,1,1,0,0,0,0,0,0,0,0,0,0,0,0,0,0,0,0],"split_type":[0,0,0,0,0,0,0,0,0,0,0,0,0,0,0,0,0,0,0,0,0,0,0,0,0,0,0,0,0,0,0],"sum_hessian":[5.31E2,2.21E2,3.1E2,1.64E2,5.7E1,2.07E2,1.03E2,5.8E1,1.06E2,2.1E1,3.6E1,1.03E2,1.04E2,6.5E1,3.8E1,2.5E1,3.3E1,4.3E1,6.3E1,1.4E1,7E0,1.5E1,2.1E1,3.5E1,6.8E1,1.01E2,3E0,1.9E1,4.6E1,1.9E1,1.9E1],"tree_param":{"num_deleted":"0","num_feature":"2","num_nodes":"31","size_leaf_vector":"1"}},{"base_weights":[-1.5906225E0,-3.4647747E1,3.8897087E1,-4.7686172E1,1.9257538E1,1.7804897E1,7.98043E1,-7.7634445E1,-3.408147E1,-5.4585487E-1,3.709879E1,4.9216213E1,4.3442054E0,6.6782875E1,9.386429E1,-1.0739725E1,-5.6363077E0,-3.2476168E0,2.2314892E0,-6.503913E-1,5.255176E-1,1.477367E0,3.8795178E0,1.7124933E0,7.125824E0,-8.3347297E-1,2.5492325E0,4.5778494E0,1.2037168E1,1.0882921E1,3.9177132E0],"categories":[],"categories_nodes":[],"categories_segments":[],"categories_sizes":[],"default_left":[0,0,0,0,0,0,0,0,0,0,0,0,0,0,0,0,0,0,0,0,0,0,0,0,0,0,0,0,0,0,0],"id":19,"left_children":[1,3,5,7,9,11,13,15,17,19,21,23,25,27,29,-1,-1,-1,-1,-1,-1,-1,-1,-1,-1,-1,-1,-1,-1,-1,-1],"loss_changes":[7.0267306E5,2.0403912E5,2.0220525E5,9.2287E4,2.0159336E4,6.616863E4,8.3779375E3,1.9810438E4,6.653008E4,1.5642595E3,5.4738086E3,5.018872E4,4.5429613E4,2.738889E4,6.14945E4,0E0,0E0,0E0,0E0,0E0,0E0,0E0,0E0,0E0,0E0,0E0,0E0,0E0,0E0,0E0,0E0],"parents":[2147483647,0,0,1,1,2,2,3,3,4,4,5,5,6,6,7,7,8,8,9,9,10,10,11,11,12,12,13,13,14,14],"right_children":[2,4,6,8,10,12,14,16,18,20,22,24,26,28,30,-1,-1,-1,-1,-1,-1,-1,-1,-1,-1,-1,-1,-1,-1,-1,-1],"split_conditions":[5E0,1.5E1,1.3E1,2E0,3E0,9E0,7E0,1E0,1.2E1,2E0,1.9E1,6E0,7E0,2.3E1,2.3E1,-1.0739725E1,-5.6363077E0,-3.2476168E0,2.2314892E0,-6.503913E-1,5.255176E-1,1.477367E0,3.8795178E0,1.7124933E0,7.125824E0,-8.3347297E-1,2.5492325E0,4.5778494E0,1.2037168E1,1.0882921E1,3.9177132E0],"split_indices":[0,1,1,0,0,1,0,1,1,0,1,1,0,1,1,0,0,0,0,0,0,0,0,0,0,0,0,0,0,0,0],"split_type":[0,0,0,0,0,0,0,0,0,0,0,0,0,0,0,0,0,0,0,0,0,0,0,0,0,0,0,0,0,0,0],"sum_hessian":[5.23E2,2.88E2,2.35E2,2.32E2,5.6E1,1.56E2,7.9E1,7.1E1,1.61E2,2.7E1,2.9E1,4.6E1,1.1E2,4.4E1,3.5E1,6E0,6.5E1,1.46E2,1.5E1,1.3E1,1.4E1,1.2E1,1.7E1,2.8E1,1.8E1,7.2E1,3.8E1,4.1E1,3E0,1.7E1,1.8E1],"tree_param":{"num_deleted":"0","num_feature":"2","num_nodes":"31","size_leaf_vector":"1"}},{"base_weights":[-1.8689139E0,-4.2473114E1,2.6715155E1,-5.462735E1,-3.873404E0,7.542999E0,6.707284E1,-2.6814909E1,-6.829415E1,-2.0398966E1,6.4474845E0,-4.766191E0,4.5982517E1,5.3416412E1,7.551446E1,-5.929549E0,1.2200599E0,-6.3968873E0,-3.5524597E0,-2.409174E0,-6.772827E-2,-5.3971046E-1,1.1949098E0,1.8894079E0,-1.4027516E0,2.9049165E0,1.2236589E1,3.0490386E0,5.467562E0,6.7756877E0,4.0994997E0],"categories":[],"categories_nodes":[],"categories_segments":[],"categories_sizes":[],"default_left":[0,0,0,0,0,0,0,0,0,0,0,0,0,0,0,0,0,0,0,0,0,0,0,0,0,0,0,0,0,0,0],"id":20,"left_children":[1,3,5,7,9,11,13,15,17,19,21,23,25,27,29,-1,-1,-1,-1,-1,-1,-1,-1,-1,-1,-1,-1,-1,-1,-1,-1],"loss_changes":[6.209128E5,1.0347053E5,2.4244962E5,6.202672E4,9.341681E3,1.01475266E5,7.6098125E3,1.1455428E5,2.7664188E4,3.9637725E3,3.908809E3,5.9486957E4,4.8243023E4,6.9901484E3,9.0305625E3,0E0,0E0,0E0,0E0,0E0,0E0,0E0,0E0,0E0,0E0,0E0,0E0,0E0,0E0,0E0,0E0],"parents":[2147483647,0,0,1,1,2,2,3,3,4,4,5,5,6,6,7,7,8,8,9,9,10,10,11,11,12,12,13,13,14,14],"right_children":[2,4,6,8,10,12,14,16,18,20,22,24,26,28,30,-1,-1,-1,-1,-1,-1,-1,-1,-1,-1,-1,-1,-1,-1,-1,-1],"split_conditions":[4E0,1.3E1,1.2E1,1E1,2E0,7E0,6E0,3E0,3E0,2.1E1,1.7E1,9E0,1.1E1,1.9E1,2.3E1,-5.929549E0,1.2200599E0,-6.3968873E0,-3.5524597E0,-2.409174E0,-6.772827E-2,-5.3971046E-1,1.1949098E0,1.8894079E0,-1.4027516E0,2.9049165E0,1.2236589E1,3.0490386E0,5.467562E0,6.7756877E0,4.0994997E0],"split_indices":[0,1,1,1,0,0,0,1,0,1,1,1,1,1,1,0,0,0,0,0,0,0,0,0,0,0,0,0,0,0,0],"split_type":[0,0,0,0,0,0,0,0,0,0,0,0,0,0,0,0,0,0,0,0,0,0,0,0,0,0,0,0,0,0,0],"sum_hessian":[5.33E2,2.2E2,3.13E2,1.67E2,5.3E1,2.13E2,1E2,5.6E1,1.11E2,2E1,3.3E1,1.62E2,5.1E1,4.1E1,5.9E1,2.6E1,3E1,7.3E1,3.8E1,1.3E1,7E0,1.3E1,2E1,5E1,1.12E2,4.8E1,3E0,2.2E1,1.9E1,4.1E1,1.8E1],"tree_param":{"num_deleted":"0","num_feature":"2","num_nodes":"31","size_leaf_vector":"1"}},{"base_weights":[2.665045E0,-3.6112564E1,2.9446217E1,-4.8086514E1,9.9652605E0,1.2075818E1,6.3424793E1,-1.1099837E2,-4.2317245E1,2.4776204E0,2.259255E1,8.884814E-1,4.379102E1,4.718363E1,7.359958E1,-1.019313E1,-4.4773746E0,-4.086566E-1,-4.6090403E0,-3.764611E-1,6.0223794E-1,-5.4729104E-1,2.574025E0,1.4527273E0,-1.0864772E0,2.820594E0,1.1502395E1,2.9726403E0,6.563481E0,6.6489506E0,4.434873E0],"categories":[],"categories_nodes":[],"categories_segments":[],"categories_sizes":[],"default_left":[0,0,0,0,0,0,0,0,0,0,0,0,0,0,0,0,0,0,0,0,0,0,0,0,0,0,0,0,0,0,0],"id":21,"left_children":[1,3,5,7,9,11,13,15,17,19,21,23,25,27,29,-1,-1,-1,-1,-1,-1,-1,-1,-1,-1,-1,-1,-1,-1,-1,-1],"loss_changes":[5.566661E5,1.2130884E5,1.8633428E5,5.8457062E4,4.2932593E3,7.482571E4,1.4209125E4,5.516297E3,9.133734E4,1.1237838E3,5.0150684E3,3.9480316E4,4.1860227E4,1.2329078E4,6.4504062E3,0E0,0E0,0E0,0E0,0E0,0E0,0E0,0E0,0E0,0E0,0E0,0E0,0E0,0E0,0E0,0E0],"parents":[2147483647,0,0,1,1,2,2,3,3,4,4,5,5,6,6,7,7,8,8,9,9,10,10,11,11,12,12,13,13,14,14],"right_children":[2,4,6,8,10,12,14,16,18,20,22,24,26,28,30,-1,-1,-1,-1,-1,-1,-1,-1,-1,-1,-1,-1,-1,-1,-1,-1],"split_conditions":[4E0,1.5E1,1.2E1,1E0,3E0,7E0,1.8E1,3E0,1E1,2E0,1.7E1,1E1,1.1E1,7E0,2.3E1,-1.019313E1,-4.4773746E0,-4.086566E-1,-4.6090403E0,-3.764611E-1,6.0223794E-1,-5.4729104E-1,2.574025E0,1.4527273E0,-1.0864772E0,2.820594E0,1.1502395E1,2.9726403E0,6.563481E0,6.6489506E0,4.434873E0],"split_indices":[0,1,1,1,0,0,1,0,1,0,1,1,1,0,1,0,0,0,0,0,0,0,0,0,0,0,0,0,0,0,0],"split_type":[0,0,0,0,0,0,0,0,0,0,0,0,0,0,0,0,0,0,0,0,0,0,0,0,0,0,0,0,0,0,0],"sum_hessian":[5.34E2,2.18E2,3.16E2,1.73E2,4.5E1,2.1E2,1.06E2,1.3E1,1.6E2,2.9E1,1.6E1,1.56E2,5.4E1,4.3E1,6.3E1,9E0,4E0,4.7E1,1.13E2,1.2E1,1.7E1,4E0,1.2E1,7.1E1,8.5E1,5.1E1,3E0,3.5E1,8E0,3.9E1,2.4E1],"tree_param":{"num_deleted":"0","num_feature":"2","num_nodes":"31","size_leaf_vector":"1"}},{"base_weights":[4.8759192E-1,-2.715372E1,3.4166134E1,-5.9111294E1,-1.3835531E1,1.9313694E1,6.067331E1,-1.1778457E1,-5.0554996E1,-2.7611248E1,2.1792355E1,4.8877098E1,7.043994E0,5.1157433E1,7.16356E1,-5.0478053E0,-1.215221E0,-5.391459E-1,-3.072352E0,4.2596836E0,1.3144913E0,1.6687071E0,6.628558E0,-2.9256335E-1,2.129531E0,3.4225008E0,1.0775522E1,8.855298E0,2.6323006E0],"categories":[],"categories_nodes":[],"categories_segments":[],"categories_sizes":[],"default_left":[0,0,0,0,0,0,0,0,0,0,0,0,0,0,0,0,0,0,0,0,0,0,0,0,0,0,0,0,0],"id":22,"left_children":[1,3,5,7,9,11,13,-1,15,17,19,21,23,25,27,-1,-1,-1,-1,-1,-1,-1,-1,-1,-1,-1,-1,-1,-1],"loss_changes":[4.9152212E5,1.2261109E5,9.252791E4,5.6644688E4,1.01706445E5,5.5516758E4,5.2021562E3,0E0,3.408314E4,3.3306984E4,8.905646E3,4.111428E4,2.313952E4,2.8523742E4,5.232761E4,0E0,0E0,0E0,0E0,0E0,0E0,0E0,0E0,0E0,0E0,0E0,0E0,0E0,0E0],"parents":[2147483647,0,0,1,1,2,2,3,3,4,4,5,5,6,6,8,8,9,9,10,10,11,11,12,12,13,13,14,14],"right_children":[2,4,6,8,10,12,14,-1,16,18,20,22,24,26,28,-1,-1,-1,-1,-1,-1,-1,-1,-1,-1,-1,-1,-1,-1],"split_conditions":[5E0,2E0,1.3E1,1E0,1.2E1,9E0,7E0,-1.1778457E1,1.3E1,1E1,1.3E1,6E0,7E0,2.3E1,2.3E1,-5.0478053E0,-1.215221E0,-5.391459E-1,-3.072352E0,4.2596836E0,1.3144913E0,1.6687071E0,6.628558E0,-2.9256335E-1,2.129531E0,3.4225008E0,1.0775522E1,8.855298E0,2.6323006E0],"split_indices":[0,0,1,1,1,1,0,0,1,1,1,1,0,1,1,0,0,0,0,0,0,0,0,0,0,0,0,0,0],"split_type":[0,0,0,0,0,0,0,0,0,0,0,0,0,0,0,0,0,0,0,0,0,0,0,0,0,0,0,0,0],"sum_hessian":[5.26E2,2.89E2,2.37E2,8.4E1,2.05E2,1.53E2,8.4E1,6E0,7.8E1,1.48E2,5.7E1,4.4E1,1.09E2,4.8E1,3.6E1,5.7E1,2.1E1,5.1E1,9.7E1,7E0,5E1,2.5E1,1.9E1,7.1E1,3.8E1,4.5E1,3E0,1.7E1,1.9E1],"tree_param":{"num_deleted":"0","num_feature":"2","num_nodes":"29","size_leaf_vector":"1"}},{"base_weights":[1.623275E0,-2.189963E1,3.0179983E1,-3.116961E1,1.6377645E1,1.356195E1,5.9932888E1,-4.693341E1,-1.3720025E1,3.0238569E0,2.4685059E1,3.9852623E1,1.2807709E0,4.2973915E1,6.62829E1,-2.1729844E0,-4.5880857E0,-2.07496E0,4.6001863E-1,-1.2320117E0,7.197759E-1,1.059337E0,2.7805607E0,-3.105449E-1,4.5965843E0,-4.9711245E-1,2.4143407E0,1.7603667E0,4.3763566E0,5.9131827E0,3.8871703E0],"categories":[],"categories_nodes":[],"categories_segments":[],"categories_sizes":[],"default_left":[0,0,0,0,0,0,0,0,0,0,0,0,0,0,0,0,0,0,0,0,0,0,0,0,0,0,0,0,0,0,0],"id":23,"left_children":[1,3,5,7,9,11,13,15,17,19,21,23,25,27,29,-1,-1,-1,-1,-1,-1,-1,-1,-1,-1,-1,-1,-1,-1,-1,-1],"loss_changes":[3.5399444E5,1.0305622E5,1.1686267E5,6.3447812E4,6.248676E3,4.9672547E4,6.3051875E3,2.3570375E4,2.6790322E4,2.6697744E3,3.573748E3,3.794965E4,2.3145523E4,5.1917734E3,4.5105E3,0E0,0E0,0E0,0E0,0E0,0E0,0E0,0E0,0E0,0E0,0E0,0E0,0E0,0E0,0E0,0E0],"parents":[2147483647,0,0,1,1,2,2,3,3,4,4,5,5,6,6,7,7,8,8,9,9,10,10,11,11,12,12,13,13,14,14],"right_children":[2,4,6,8,10,12,14,16,18,20,22,24,26,28,30,-1,-1,-1,-1,-1,-1,-1,-1,-1,-1,-1,-1,-1,-1,-1,-1],"split_conditions":[5E0,1.5E1,1.3E1,3E0,1.9E1,9E0,6E0,1E1,1.1E1,2E0,3E0,3E0,1.1E1,1.7E1,2.3E1,-2.1729844E0,-4.5880857E0,-2.07496E0,4.6001863E-1,-1.2320117E0,7.197759E-1,1.059337E0,2.7805607E0,-3.105449E-1,4.5965843E0,-4.9711245E-1,2.4143407E0,1.7603667E0,4.3763566E0,5.9131827E0,3.8871703E0],"split_indices":[0,1,1,0,1,1,0,1,1,0,0,1,1,1,1,0,0,0,0,0,0,0,0,0,0,0,0,0,0,0,0],"split_type":[0,0,0,0,0,0,0,0,0,0,0,0,0,0,0,0,0,0,0,0,0,0,0,0,0,0,0,0,0,0,0],"sum_hessian":[5.25E2,2.88E2,2.37E2,2.32E2,5.6E1,1.53E2,8.4E1,1.21E2,1.11E2,2.2E1,3.4E1,4.8E1,1.05E2,2.5E1,5.9E1,4.3E1,7.8E1,6.8E1,4.3E1,5E0,1.7E1,1.7E1,1.7E1,1.4E1,3.4E1,8.4E1,2.1E1,1E1,1.5E1,3.9E1,2E1],"tree_param":{"num_deleted":"0","num_feature":"2","num_nodes":"31","size_leaf_vector":"1"}},{"base_weights":[2.1270688E0,-1.5011805E1,3.7861706E1,-2.5799463E1,1.7753225E1,2.0487646E1,6.694877E1,-4.2947163E1,-1.3753516E1,-3.2753837E0,3.035407E1,5.3973923E1,4.356153E0,1.05396185E1,6.1688534E1,-7.638406E0,-3.0428255E0,1.8738065E-2,-1.6396154E0,-8.756279E-1,3.0076838E-1,1.4506662E0,3.2598636E0,2.6817796E0,6.19547E0,-8.744946E-2,8.1036186E-1,5.4482994E0,3.584912E0],"categories":[],"categories_nodes":[],"categories_segments":[],"categories_sizes":[],"default_left":[0,0,0,0,0,0,0,0,0,0,0,0,0,0,0,0,0,0,0,0,0,0,0,0,0,0,0,0,0],"id":24,"left_children":[1,3,5,7,9,11,13,15,17,19,21,23,25,-1,27,-1,-1,-1,-1,-1,-1,-1,-1,-1,-1,-1,-1,-1,-1],"loss_changes":[3.3067972E5,1.2947017E5,8.706644E4,5.6213406E4,2.4212441E4,5.9725266E4,1.4027719E4,2.5526156E4,1.5375838E4,1.9296841E3,6.5015312E3,1.4683547E4,2.402083E3,0E0,3.6609219E3,0E0,0E0,0E0,0E0,0E0,0E0,0E0,0E0,0E0,0E0,0E0,0E0,0E0,0E0],"parents":[2147483647,0,0,1,1,2,2,3,3,4,4,5,5,6,6,7,7,8,8,9,9,10,10,11,11,12,12,14,14],"right_children":[2,4,6,8,10,12,14,16,18,20,22,24,26,-1,28,-1,-1,-1,-1,-1,-1,-1,-1,-1,-1,-1,-1,-1,-1],"split_conditions":[6E0,1.4E1,1.1E1,3E0,3E0,9E0,1.2E1,1E0,1E1,2E0,1.9E1,6E0,7E0,1.05396185E1,2.3E1,-7.638406E0,-3.0428255E0,1.8738065E-2,-1.6396154E0,-8.756279E-1,3.0076838E-1,1.4506662E0,3.2598636E0,2.6817796E0,6.19547E0,-8.744946E-2,8.1036186E-1,5.4482994E0,3.584912E0],"split_indices":[0,1,1,0,0,1,1,1,1,0,1,1,0,0,1,0,0,0,0,0,0,0,0,0,0,0,0,0,0],"split_type":[0,0,0,0,0,0,0,0,0,0,0,0,0,0,0,0,0,0,0,0,0,0,0,0,0,0,0,0,0],"sum_hessian":[5.38E2,3.64E2,1.74E2,2.74E2,9E1,1.1E2,6.4E1,1.12E2,1.62E2,3.4E1,5.6E1,3.5E1,7.5E1,3E0,6.1E1,8E0,1.04E2,5.3E1,1.09E2,1.6E1,1.8E1,2.7E1,2.9E1,2E1,1.5E1,3.9E1,3.6E1,4.2E1,1.9E1],"tree_param":{"num_deleted":"0","num_feature":"2","num_nodes":"29","size_leaf_vector":"1"}},{"base_weights":[2.143038E0,-2.3770914E1,2.1005486E1,-3.2063198E1,1.0336666E-1,1.0108812E1,4.825612E1,-1.0074723E1,-4.3982136E1,-6.557742E0,1.3420416E1,-1.1747849E0,3.514599E1,3.1129509E1,6.712981E1,-4.878555E0,1.680213E0,-4.3911405E0,-1.8622003E0,-1.0173348E0,1.896289E-2,-3.4594727E-1,1.864634E0,1.3803236E0,-6.411234E-1,1.739112E0,4.2311125E0,5.7265077E0,1.124749E0,8.313572E0,1.8643594E0],"categories":[],"categories_nodes":[],"categories_segments":[],"categories_sizes":[],"default_left":[0,0,0,0,0,0,0,0,0,0,0,0,0,0,0,0,0,0,0,0,0,0,0,0,0,0,0,0,0,0,0],"id":25,"left_children":[1,3,5,7,9,11,13,15,17,19,21,23,25,27,29,-1,-1,-1,-1,-1,-1,-1,-1,-1,-1,-1,-1,-1,-1,-1,-1],"loss_changes":[2.6103002E5,4.454708E4,9.126705E4,4.332414E4,5.3216807E3,6.275837E4,2.6355594E4,9.620458E4,2.3111734E4,1.6769607E3,3.609821E3,1.954836E4,1.5264031E4,3.213852E4,6.368358E4,0E0,0E0,0E0,0E0,0E0,0E0,0E0,0E0,0E0,0E0,0E0,0E0,0E0,0E0,0E0,0E0],"parents":[2147483647,0,0,1,1,2,2,3,3,4,4,5,5,6,6,7,7,8,8,9,9,10,10,11,11,12,12,13,13,14,14],"right_children":[2,4,6,8,10,12,14,16,18,20,22,24,26,28,30,-1,-1,-1,-1,-1,-1,-1,-1,-1,-1,-1,-1,-1,-1,-1,-1],"split_conditions":[4E0,1.3E1,7E0,1E1,3E0,1.2E1,1.1E1,3E0,3E0,1.9E1,1.7E1,9E0,1.9E1,9E0,2.3E1,-4.878555E0,1.680213E0,-4.3911405E0,-1.8622003E0,-1.0173348E0,1.896289E-2,-3.4594727E-1,1.864634E0,1.3803236E0,-6.411234E-1,1.739112E0,4.2311125E0,5.7265077E0,1.124749E0,8.313572E0,1.8643594E0],"split_indices":[0,1,0,1,0,1,1,1,0,1,1,1,1,1,1,0,0,0,0,0,0,0,0,0,0,0,0,0,0,0,0],"split_type":[0,0,0,0,0,0,0,0,0,0,0,0,0,0,0,0,0,0,0,0,0,0,0,0,0,0,0,0,0,0,0],"sum_hessian":[5.32E2,2.24E2,3.08E2,1.66E2,5.8E1,2.21E2,8.7E1,5.9E1,1.07E2,3.9E1,1.9E1,1.53E2,6.8E1,4.7E1,4E1,2.2E1,3.7E1,6.9E1,3.8E1,2E1,1.9E1,7E0,1.2E1,4.1E1,1.12E2,4E1,2.8E1,1.3E1,3.4E1,2.1E1,1.9E1],"tree_param":{"num_deleted":"0","num_feature":"2","num_nodes":"31","size_leaf_vector":"1"}},{"base_weights":[4.2450368E-1,-2.3411575E1,1.726217E1,-6.632531E0,-1.9866611E1,4.972852E0,4.120824E1,2.830178E0,-2.7843605E1,2.5086023E1,-3.8611934E0,3.4395927E1,5.4422306E1,-2.1567492E0,1.1740193E0,-3.770774E0,-3.7025636E-1,-4.07885E-2,4.409005E0,-8.712709E-1,1.0322949E0,2.0326645E0,4.795778E0,6.4819126E0,1.5545202E0],"categories":[],"categories_nodes":[],"categories_segments":[],"categories_sizes":[],"default_left":[0,0,0,0,0,0,0,0,0,0,0,0,0,0,0,0,0,0,0,0,0,0,0,0,0],"id":26,"left_children":[1,3,5,-1,7,9,11,13,15,17,19,21,23,-1,-1,-1,-1,-1,-1,-1,-1,-1,-1,-1,-1],"loss_changes":[2.1231373E5,4.4541727E4,9.102216E4,0E0,3.773765E4,3.669908E4,7.5800312E3,1.980288E4,6.875072E4,4.844711E4,1.7111213E4,1.50113125E4,3.007318E4,0E0,0E0,0E0,0E0,0E0,0E0,0E0,0E0,0E0,0E0,0E0,0E0],"parents":[2147483647,0,0,1,1,2,2,4,4,5,5,6,6,7,7,8,8,9,9,10,10,11,11,12,12],"right_children":[2,4,6,-1,8,10,12,14,16,18,20,22,24,-1,-1,-1,-1,-1,-1,-1,-1,-1,-1,-1,-1],"split_conditions":[4E0,1E0,1.2E1,-6.632531E0,1E1,9E0,7E0,3E0,1.2E1,4E0,1.1E1,2.1E1,2.3E1,-2.1567492E0,1.1740193E0,-3.770774E0,-3.7025636E-1,-4.07885E-2,4.409005E0,-8.712709E-1,1.0322949E0,2.0326645E0,4.795778E0,6.4819126E0,1.5545202E0],"split_indices":[0,1,1,0,1,1,0,1,1,1,1,1,1,0,0,0,0,0,0,0,0,0,0,0,0],"split_type":[0,0,0,0,0,0,0,0,0,0,0,0,0,0,0,0,0,0,0,0,0,0,0,0,0],"sum_hessian":[5.27E2,2.18E2,3.09E2,1.1E1,2.07E2,2.05E2,1.04E2,5.4E1,1.53E2,6.2E1,1.43E2,7.1E1,3.3E1,1.5E1,3.9E1,8.3E1,7E1,3.4E1,2.8E1,1.01E2,4.2E1,5.4E1,1.7E1,1.8E1,1.5E1],"tree_param":{"num_deleted":"0","num_feature":"2","num_nodes":"25","size_leaf_vector":"1"}},{"base_weights":[7.275874E-1,-2.3489182E1,1.7561699E1,-3.235562E1,3.5372071E0,8.3212805E0,4.4153507E1,-7.94624E1,-2.780397E1,-1.0992261E1,1.1510878E1,3.5323238E-1,3.2631477E1,2.7949753E1,4.900802E1,-7.747223E0,-3.8600152E0,1.3881922E-1,-3.1883624E0,-1.2487103E0,4.783496E-1,-2.4645247E-1,1.6749144E0,-2.0016503E0,2.410993E-1,5.7368155E0,1.5798806E0,9.407606E-1,2.9606721E0,4.391802E0,3.0112777E0],"categories":[],"categories_nodes":[],"categories_segments":[],"categories_sizes":[],"default_left":[0,0,0,0,0,0,0,0,0,0,0,0,0,0,0,0,0,0,0,0,0,0,0,0,0,0,0,0,0,0,0],"id":27,"left_children":[1,3,5,7,9,11,13,15,17,19,21,23,25,27,29,-1,-1,-1,-1,-1,-1,-1,-1,-1,-1,-1,-1,-1,-1,-1,-1],"loss_changes":[2.1769944E5,5.2592938E4,7.703419E4,3.316886E4,6.4984565E3,4.5509105E4,5.0018125E3,2.9210703E3,5.4175703E4,1.660362E3,5.015695E3,1.2091719E4,2.7783926E4,2.6446973E3,2.0173281E3,0E0,0E0,0E0,0E0,0E0,0E0,0E0,0E0,0E0,0E0,0E0,0E0,0E0,0E0,0E0,0E0],"parents":[2147483647,0,0,1,1,2,2,3,3,4,4,5,5,6,6,7,7,8,8,9,9,10,10,11,11,12,12,13,13,14,14],"right_children":[2,4,6,8,10,12,14,16,18,20,22,24,26,28,30,-1,-1,-1,-1,-1,-1,-1,-1,-1,-1,-1,-1,-1,-1,-1,-1],"split_conditions":[4E0,1.3E1,1.6E1,1E0,2E0,7E0,1.8E1,2E0,1E1,2.3E1,1.8E1,3E0,9E0,6E0,2.3E1,-7.747223E0,-3.8600152E0,1.3881922E-1,-3.1883624E0,-1.2487103E0,4.783496E-1,-2.4645247E-1,1.6749144E0,-2.0016503E0,2.410993E-1,5.7368155E0,1.5798806E0,9.407606E-1,2.9606721E0,4.391802E0,3.0112777E0],"split_indices":[0,1,1,1,0,0,1,0,1,1,1,1,1,0,1,0,0,0,0,0,0,0,0,0,0,0,0,0,0,0,0],"split_type":[0,0,0,0,0,0,0,0,0,0,0,0,0,0,0,0,0,0,0,0,0,0,0,0,0,0,0,0,0,0,0],"sum_hessian":[5.32E2,2.18E2,3.14E2,1.64E2,5.4E1,2.34E2,8E1,1.3E1,1.51E2,1.9E1,3.5E1,1.77E2,5.7E1,2E1,6E1,7E0,6E0,4.4E1,1.07E2,1.5E1,4E0,1.4E1,2.1E1,1.6E1,1.61E2,1.3E1,4.4E1,8E0,1.2E1,3.7E1,2.3E1],"tree_param":{"num_deleted":"0","num_feature":"2","num_nodes":"31","size_leaf_vector":"1"}},{"base_weights":[3.871644E0,-2.7519617E1,1.6299255E1,-6.7601824E0,-2.3191021E1,6.6188803E0,3.6492214E1,-2.1518357E0,-3.0595518E1,-5.049979E0,2.3273123E1,2.8993015E1,4.7523033E1,-1.9141489E0,9.714262E-1,-3.9233344E0,-6.372916E-1,6.3289267E-1,-9.5006293E-1,1.5507486E0,9.251692E0,1.9072795E0,4.106717E0,5.3410263E0,2.7516046E0],"categories":[],"categories_nodes":[],"categories_segments":[],"categories_sizes":[],"default_left":[0,0,0,0,0,0,0,0,0,0,0,0,0,0,0,0,0,0,0,0,0,0,0,0,0],"id":28,"left_children":[1,3,5,-1,7,9,11,13,15,17,19,21,23,-1,-1,-1,-1,-1,-1,-1,-1,-1,-1,-1,-1],"loss_changes":[2.0213975E5,3.4298594E4,7.227984E4,0E0,2.143243E4,4.9090203E4,8.548844E3,1.1807408E4,4.2186695E4,1.3276017E4,3.511684E4,7.293629E3,9.5749375E3,0E0,0E0,0E0,0E0,0E0,0E0,0E0,0E0,0E0,0E0,0E0,0E0],"parents":[2147483647,0,0,1,1,2,2,4,4,5,5,6,6,7,7,8,8,9,9,10,10,11,11,12,12],"right_children":[2,4,6,-1,8,10,12,14,16,18,20,22,24,-1,-1,-1,-1,-1,-1,-1,-1,-1,-1,-1,-1],"split_conditions":[3E0,1E0,1.2E1,-6.7601824E0,1E1,6E0,2.1E1,4E0,1.2E1,1E1,1.1E1,7E0,2.3E1,-1.9141489E0,9.714262E-1,-3.9233344E0,-6.372916E-1,6.3289267E-1,-9.5006293E-1,1.5507486E0,9.251692E0,1.9072795E0,4.106717E0,5.3410263E0,2.7516046E0],"split_indices":[0,1,1,0,1,0,1,1,1,1,1,0,1,0,0,0,0,0,0,0,0,0,0,0,0],"split_type":[0,0,0,0,0,0,0,0,0,0,0,0,0,0,0,0,0,0,0,0,0,0,0,0,0],"sum_hessian":[5.16E2,1.46E2,3.7E2,9E0,1.37E2,2.51E2,1.19E2,3.6E1,1.01E2,1.48E2,1.03E2,7.3E1,4.6E1,1.4E1,2.2E1,5.5E1,4.6E1,5.1E1,9.7E1,1E2,3E0,6.1E1,1.2E1,1.7E1,2.9E1],"tree_param":{"num_deleted":"0","num_feature":"2","num_nodes":"25","size_leaf_vector":"1"}},{"base_weights":[8.558489E-1,-1.3898896E1,1.9264687E1,-3.368404E1,-5.675169E0,9.489708E0,4.166964E1,-8.513889E0,-2.698205E1,-1.5758014E1,1.826164E1,-1.080055E0,2.9906445E1,3.0955505E1,5.3393753E1,-3.6880642E-1,-2.6282055E0,1.6368443E-1,-1.9391689E0,4.9575E0,8.622031E-1,-2.3809159E0,1.3939482E-1,4.754252E0,1.5130142E0,1.8770205E0,4.639492E0,5.114165E0,3.3814232E0],"categories":[],"categories_nodes":[],"categories_segments":[],"categories_sizes":[],"default_left":[0,0,0,0,0,0,0,0,0,0,0,0,0,0,0,0,0,0,0,0,0,0,0,0,0,0,0,0,0],"id":29,"left_children":[1,3,5,7,9,11,13,-1,15,17,19,21,23,25,27,-1,-1,-1,-1,-1,-1,-1,-1,-1,-1,-1,-1,-1,-1],"loss_changes":[1.4531161E5,4.8132992E4,5.172846E4,3.954096E4,5.121286E4,3.6070914E4,7.3913594E3,0E0,1.0486699E4,2.2549629E4,1.9939965E4,9.037637E3,1.737568E4,6.74291E3,1.1653281E3,0E0,0E0,0E0,0E0,0E0,0E0,0E0,0E0,0E0,0E0,0E0,0E0,0E0,0E0],"parents":[2147483647,0,0,1,1,2,2,3,3,4,4,5,5,6,6,8,8,9,9,10,10,11,11,12,12,13,13,14,14],"right_children":[2,4,6,8,10,12,14,-1,16,18,20,22,24,26,28,-1,-1,-1,-1,-1,-1,-1,-1,-1,-1,-1,-1,-1,-1],"split_conditions":[5E0,2E0,1.5E1,1E0,1.2E1,7E0,2.1E1,-8.513889E0,1E1,1E1,1.3E1,3E0,9E0,7E0,2.3E1,-3.6880642E-1,-2.6282055E0,1.6368443E-1,-1.9391689E0,4.9575E0,8.622031E-1,-2.3809159E0,1.3939482E-1,4.754252E0,1.5130142E0,1.8770205E0,4.639492E0,5.114165E0,3.3814232E0],"split_indices":[0,0,1,1,1,0,1,0,1,1,1,1,1,0,1,0,0,0,0,0,0,0,0,0,0,0,0,0,0],"split_type":[0,0,0,0,0,0,0,0,0,0,0,0,0,0,0,0,0,0,0,0,0,0,0,0,0,0,0,0,0],"sum_hessian":[5.33E2,2.96E2,2.37E2,8.6E1,2.1E2,1.66E2,7.1E1,6E0,8E1,1.48E2,6.2E1,1.1E2,5.6E1,3.9E1,3.2E1,1.7E1,6.3E1,4.8E1,1E2,8E0,5.4E1,9E0,1.01E2,1.4E1,4.2E1,3.2E1,7E0,1.4E1,1.8E1],"tree_param":{"num_deleted":"0","num_feature":"2","num_nodes":"29","size_leaf_vector":"1"}},{"base_weights":[7.850458E-1,-2.517739E1,1.0845976E1,-3.161183E1,2.7598288E0,1.82633E0,2.8663074E1,-1.647714E1,-3.9938103E1,-4.8971763E0,1.0232845E1,-8.770434E0,1.7602024E1,1.8418436E1,3.3175568E1,-3.6852236E0,5.533372E-1,-4.3376837E0,-2.6068826E0,-8.3274853E-1,6.5672463E-1,-3.9359537E-1,1.4640986E0,-2.5772173E0,-4.0468016E-1,1.1091645E0,8.605805E0,2.5339983E0,1.2263322E0,2.9842186E0,1.512871E0],"categories":[],"categories_nodes":[],"categories_segments":[],"categories_sizes":[],"default_left":[0,0,0,0,0,0,0,0,0,0,0,0,0,0,0,0,0,0,0,0,0,0,0,0,0,0,0,0,0,0,0],"id":30,"left_children":[1,3,5,7,9,11,13,15,17,19,21,23,25,27,29,-1,-1,-1,-1,-1,-1,-1,-1,-1,-1,-1,-1,-1,-1,-1,-1],"loss_changes":[1.4027962E5,2.7051305E4,6.214007E4,1.4715836E4,1.7095188E3,4.3284574E4,5.3987188E3,3.1466764E4,6.4238594E3,1.16911E3,1.9239192E3,1.3325981E4,3.34798E4,1.2344854E3,4.5342344E3,0E0,0E0,0E0,0E0,0E0,0E0,0E0,0E0,0E0,0E0,0E0,0E0,0E0,0E0,0E0,0E0],"parents":[2147483647,0,0,1,1,2,2,3,3,4,4,5,5,6,6,7,7,8,8,9,9,10,10,11,11,12,12,13,13,14,14],"right_children":[2,4,6,8,10,12,14,16,18,20,22,24,26,28,30,-1,-1,-1,-1,-1,-1,-1,-1,-1,-1,-1,-1,-1,-1,-1,-1],"split_conditions":[3E0,1.5E1,1.2E1,1E1,2E0,6E0,5E0,3E0,1.1E1,2.3E1,1.8E1,3E0,1.1E1,1.3E1,2.3E1,-3.6852236E0,5.533372E-1,-4.3376837E0,-2.6068826E0,-8.3274853E-1,6.5672463E-1,-3.9359537E-1,1.4640986E0,-2.5772173E0,-4.0468016E-1,1.1091645E0,8.605805E0,2.5339983E0,1.2263322E0,2.9842186E0,1.512871E0],"split_indices":[0,1,1,1,0,0,0,1,1,1,1,1,1,1,1,0,0,0,0,0,0,0,0,0,0,0,0,0,0,0,0],"split_type":[0,0,0,0,0,0,0,0,0,0,0,0,0,0,0,0,0,0,0,0,0,0,0,0,0,0,0,0,0,0,0],"sum_hessian":[5.35E2,1.49E2,3.86E2,1.21E2,2.8E1,2.57E2,1.29E2,4.4E1,7.7E1,1.4E1,1.4E1,1.54E2,1.03E2,4.1E1,8.8E1,1.9E1,2.5E1,2.4E1,5.3E1,1E1,4E0,5E0,9E0,2E1,1.34E2,1E2,3E0,6E0,3.5E1,6.7E1,2.1E1],"tree_param":{"num_deleted":"0","num_feature":"2","num_nodes":"31","size_leaf_vector":"1"}},{"base_weights":[2.0471992E0,-2.180235E1,1.1374395E1,-2.8276403E1,-1.4657015E0,5.507456E0,3.3079334E1,-1.2663352E1,-3.764183E1,-9.971102E0,3.9112446E0,1.6944225E0,2.970711E1,6.508999E1,2.728479E1,-2.8027475E0,9.853577E-1,-4.182873E0,-2.299197E0,-1.0771484E0,-3.244266E-1,5.0241135E-2,5.7137126E-1,-1.694917E0,3.1431192E-1,1.770843E0,3.7433128E0,3.254965E0,6.616938E0,4.846829E-1,3.7759948E0],"categories":[],"categories_nodes":[],"categories_segments":[],"categories_sizes":[],"default_left":[0,0,0,0,0,0,0,0,0,0,0,0,0,0,0,0,0,0,0,0,0,0,0,0,0,0,0,0,0,0,0],"id":31,"left_children":[1,3,5,7,9,11,13,15,17,19,21,23,25,27,29,-1,-1,-1,-1,-1,-1,-1,-1,-1,-1,-1,-1,-1,-1,-1,-1],"loss_changes":[1.21038016E5,2.0102625E4,4.9608375E4,1.648518E4,1.7768566E3,2.8462355E4,1.3619461E4,2.5579074E4,7.883203E3,2.5537683E2,2.5010123E2,1.3785223E4,4.3971562E3,1.7949727E3,3.015016E4,0E0,0E0,0E0,0E0,0E0,0E0,0E0,0E0,0E0,0E0,0E0,0E0,0E0,0E0,0E0,0E0],"parents":[2147483647,0,0,1,1,2,2,3,3,4,4,5,5,6,6,7,7,8,8,9,9,10,10,11,11,12,12,13,13,14,14],"right_children":[2,4,6,8,10,12,14,16,18,20,22,24,26,28,30,-1,-1,-1,-1,-1,-1,-1,-1,-1,-1,-1,-1,-1,-1,-1,-1],"split_conditions":[3E0,1.3E1,7E0,1E1,1.7E1,1.9E1,9E0,4E0,1.1E1,2E0,2E0,3E0,2.3E1,6E0,1.1E1,-2.8027475E0,9.853577E-1,-4.182873E0,-2.299197E0,-1.0771484E0,-3.244266E-1,5.0241135E-2,5.7137126E-1,-1.694917E0,3.1431192E-1,1.770843E0,3.7433128E0,3.254965E0,6.616938E0,4.846829E-1,3.7759948E0],"split_indices":[0,1,0,1,1,1,1,1,1,0,0,1,1,1,1,0,0,0,0,0,0,0,0,0,0,0,0,0,0,0,0],"split_type":[0,0,0,0,0,0,0,0,0,0,0,0,0,0,0,0,0,0,0,0,0,0,0,0,0,0,0,0,0,0,0],"sum_hessian":[5.42E2,1.52E2,3.9E2,1.15E2,3.7E1,3.08E2,8.2E1,4.4E1,7.1E1,1.4E1,2.3E1,2.67E2,4.1E1,1.1E1,7.1E1,2.3E1,2.1E1,2.5E1,4.6E1,8E0,6E0,1.2E1,1.1E1,2.3E1,2.44E2,3E1,1.1E1,6E0,5E0,3.5E1,3.6E1],"tree_param":{"num_deleted":"0","num_feature":"2","num_nodes":"31","size_leaf_vector":"1"}},{"base_weights":[-9.346416E-2,-1.2925063E1,1.57416725E1,-1.9437513E1,3.277348E0,5.7025533E0,2.8551975E1,-6.1986213E0,-2.7070776E1,-1.9898617E1,1.7208548E1,3.0498835E1,-7.758685E0,2.2434835E1,3.885728E1,-2.5651357E0,1.3835734E0,-3.256215E0,-1.1688055E0,-3.7300274E0,-4.5046166E-1,4.697942E0,7.691457E-1,5.929674E-1,5.1305027E0,-2.0975679E-1,-1.1970304E0,1.3619335E0,8.271746E0,5.82586E0,5.076035E-1],"categories":[],"categories_nodes":[],"categories_segments":[],"categories_sizes":[],"default_left":[0,0,0,0,0,0,0,0,0,0,0,0,0,0,0,0,0,0,0,0,0,0,0,0,0,0,0,0,0,0,0],"id":32,"left_children":[1,3,5,7,9,11,13,15,17,19,21,23,25,27,29,-1,-1,-1,-1,-1,-1,-1,-1,-1,-1,-1,-1,-1,-1,-1,-1],"loss_changes":[1.0667508E5,3.066375E4,3.0059156E4,2.0750773E4,2.746342E4,4.463052E4,5.621258E3,4.7344934E4,2.165743E4,1.1940115E4,1.6145233E4,3.6018453E4,3.180287E3,2.7589668E4,4.0397395E4,0E0,0E0,0E0,0E0,0E0,0E0,0E0,0E0,0E0,0E0,0E0,0E0,0E0,0E0,0E0,0E0],"parents":[2147483647,0,0,1,1,2,2,3,3,4,4,5,5,6,6,7,7,8,8,9,9,10,10,11,11,12,12,13,13,14,14],"right_children":[2,4,6,8,10,12,14,16,18,20,22,24,26,28,30,-1,-1,-1,-1,-1,-1,-1,-1,-1,-1,-1,-1,-1,-1,-1,-1],"split_conditions":[5E0,1.2E1,1.1E1,1E1,2E0,9E0,7E0,3E0,1.1E1,1.3E1,1.3E1,6E0,7E0,2.3E1,2.2E1,-2.5651357E0,1.3835734E0,-3.256215E0,-1.1688055E0,-3.7300274E0,-4.5046166E-1,4.697942E0,7.691457E-1,5.929674E-1,5.1305027E0,-2.0975679E-1,-1.1970304E0,1.3619335E0,8.271746E0,5.82586E0,5.076035E-1],"split_indices":[0,1,1,1,0,1,0,1,1,1,1,1,0,1,1,0,0,0,0,0,0,0,0,0,0,0,0,0,0,0,0],"split_type":[0,0,0,0,0,0,0,0,0,0,0,0,0,0,0,0,0,0,0,0,0,0,0,0,0,0,0,0,0,0,0],"sum_hessian":[5.23E2,2.89E2,2.34E2,2.06E2,8.3E1,1.32E2,1.02E2,7.6E1,1.3E2,3.1E1,5.2E1,4.6E1,8.6E1,6.6E1,3.6E1,3.6E1,4E1,6.1E1,6.9E1,1E1,2.1E1,7E0,4.5E1,2.8E1,1.8E1,5.1E1,3.5E1,6.3E1,3E0,1.7E1,1.9E1],"tree_param":{"num_deleted":"0","num_feature":"2","num_nodes":"31","size_leaf_vector":"1"}},{"base_weights":[-1.1067023E0,-1.8149544E1,1.0766928E1,-5.780937E1,-1.5352534E1,1.107149E0,2.1528795E1,-5.502019E0,-2.9614773E0,4.723633E0,-2.168879E1,-1.5052962E1,1.0396391E1,1.2172587E1,3.3959034E1,-1.4774913E-1,4.257207E0,-2.701411E0,-4.1118035E-1,2.690932E-2,-2.7555661E0,1.9979587E0,3.230229E-1,6.524345E-1,2.0017142E0,7.513347E0,2.351669E0],"categories":[],"categories_nodes":[],"categories_segments":[],"categories_sizes":[],"default_left":[0,0,0,0,0,0,0,0,0,0,0,0,0,0,0,0,0,0,0,0,0,0,0,0,0,0,0],"id":33,"left_children":[1,3,5,7,9,11,13,-1,-1,15,17,19,21,23,25,-1,-1,-1,-1,-1,-1,-1,-1,-1,-1,-1,-1],"loss_changes":[1.0744643E5,2.3294992E4,3.2514781E4,6.4591016E2,2.6180027E4,2.507562E4,1.6799016E4,0E0,0E0,1.6028928E4,3.1009805E4,1.8215445E4,9.72497E3,4.2348975E3,1.4475891E4,0E0,0E0,0E0,0E0,0E0,0E0,0E0,0E0,0E0,0E0,0E0,0E0],"parents":[2147483647,0,0,1,1,2,2,3,3,4,4,5,5,6,6,9,9,10,10,11,11,12,12,13,13,14,14],"right_children":[2,4,6,8,10,12,14,-1,-1,16,18,20,22,24,26,-1,-1,-1,-1,-1,-1,-1,-1,-1,-1,-1,-1],"split_conditions":[4E0,1E0,1.1E1,2E0,1E1,6E0,6E0,-5.502019E0,-2.9614773E0,8E0,1.2E1,1E1,9E0,1.9E1,1.2E1,-1.4774913E-1,4.257207E0,-2.701411E0,-4.1118035E-1,2.690932E-2,-2.7555661E0,1.9979587E0,3.230229E-1,6.524345E-1,2.0017142E0,7.513347E0,2.351669E0],"split_indices":[0,1,1,0,1,0,0,0,0,1,1,1,1,1,1,0,0,0,0,0,0,0,0,0,0,0,0],"split_type":[0,0,0,0,0,0,0,0,0,0,0,0,0,0,0,0,0,0,0,0,0,0,0,0,0,0,0],"sum_hessian":[5.29E2,2.17E2,3.12E2,1.3E1,2.04E2,1.65E2,1.47E2,7E0,6E0,4.9E1,1.55E2,6E1,1.05E2,8.5E1,6.2E1,4.4E1,5E0,8.9E1,6.6E1,3.4E1,2.6E1,3.1E1,7.4E1,6.6E1,1.9E1,3E0,5.9E1],"tree_param":{"num_deleted":"0","num_feature":"2","num_nodes":"27","size_leaf_vector":"1"}},{"base_weights":[2.8656054E0,-1.6404379E1,1.0400598E1,-2.2588383E1,1.7656443E0,4.8946695E0,2.9285341E1,-4.498428E0,-1.9366936E1,-5.250533E0,8.3427305E0,1.6237606E0,2.7216728E1,3.4353565E1,8.110881E-1,9.28415E-3,-2.2723365E0,-6.076376E-1,-1.4408854E-1,1.3733234E0,3.4056187E-1,-2.191082E0,2.74421E-1,1.061384E0,3.0728302E0,1.6149849E0,5.2741265E0],"categories":[],"categories_nodes":[],"categories_segments":[],"categories_sizes":[],"default_left":[0,0,0,0,0,0,0,0,0,0,0,0,0,0,0,0,0,0,0,0,0,0,0,0,0,0,0],"id":34,"left_children":[1,3,5,7,9,11,13,-1,15,17,19,21,23,25,-1,-1,-1,-1,-1,-1,-1,-1,-1,-1,-1,-1,-1],"loss_changes":[7.538378E4,1.6444953E4,3.864046E4,1.0723949E4,1.7973522E3,2.1129695E4,7.8030625E3,0E0,1.7786672E4,1.4000476E2,6.4795215E2,1.3406282E4,5.2677637E3,2.8189031E4,0E0,0E0,0E0,0E0,0E0,0E0,0E0,0E0,0E0,0E0,0E0,0E0,0E0],"parents":[2147483647,0,0,1,1,2,2,3,3,4,4,5,5,6,6,8,8,9,9,10,10,11,11,12,12,13,13],"right_children":[2,4,6,8,10,12,14,-1,16,18,20,22,24,26,-1,-1,-1,-1,-1,-1,-1,-1,-1,-1,-1,-1,-1],"split_conditions":[3E0,1.3E1,7E0,1E0,1.9E1,1.9E1,2.3E1,-4.498428E0,1E1,2E0,2.1E1,2E0,5E0,1.1E1,8.110881E-1,9.28415E-3,-2.2723365E0,-6.076376E-1,-1.4408854E-1,1.3733234E0,3.4056187E-1,-2.191082E0,2.74421E-1,1.061384E0,3.0728302E0,1.6149849E0,5.2741265E0],"split_indices":[0,1,0,1,1,1,1,0,1,0,1,1,0,1,0,0,0,0,0,0,0,0,0,0,0,0,0],"split_type":[0,0,0,0,0,0,0,0,0,0,0,0,0,0,0,0,0,0,0,0,0,0,0,0,0,0,0],"sum_hessian":[5.17E2,1.45E2,3.72E2,1.08E2,3.7E1,2.89E2,8.3E1,8E0,1E2,1.8E1,1.9E1,2.53E2,3.6E1,6.5E1,1.8E1,3.2E1,6.8E1,1E1,8E0,5E0,1.4E1,1.4E1,2.39E2,1.7E1,1.9E1,4.6E1,1.9E1],"tree_param":{"num_deleted":"0","num_feature":"2","num_nodes":"27","size_leaf_vector":"1"}},{"base_weights":[5.324406E-1,-1.3932709E1,1.0733463E1,-2.7014265E1,-5.9478507E0,5.566399E0,2.3422127E1,-3.2914745E1,-6.191962E0,-1.3702034E1,1.2043125E1,4.088198E0,5.16513E1,2.8735209E1,2.2866161E-1,-1.4342257E0,-3.284148E0,-9.7054005E-1,3.3873534E-1,-2.2109449E-1,-1.6376626E0,5.746051E0,3.255922E-1,-1.7728485E0,4.877873E-1,-2.2578613E-1,7.456968E0,1.2350446E0,4.5576673E0],"categories":[],"categories_nodes":[],"categories_segments":[],"categories_sizes":[],"default_left":[0,0,0,0,0,0,0,0,0,0,0,0,0,0,0,0,0,0,0,0,0,0,0,0,0,0,0,0,0],"id":35,"left_children":[1,3,5,7,9,11,13,15,17,19,21,23,25,27,-1,-1,-1,-1,-1,-1,-1,-1,-1,-1,-1,-1,-1,-1,-1],"loss_changes":[8.027425E4,2.3341555E4,2.0784266E4,1.023943E4,1.9835264E4,1.5320828E4,9.969551E3,7.312742E3,1.2899513E3,7.273285E3,2.0204023E4,1.184287E4,1.6110848E4,2.6528586E4,0E0,0E0,0E0,0E0,0E0,0E0,0E0,0E0,0E0,0E0,0E0,0E0,0E0,0E0,0E0],"parents":[2147483647,0,0,1,1,2,2,3,3,4,4,5,5,6,6,7,7,8,8,9,9,10,10,11,11,12,12,13,13],"right_children":[2,4,6,8,10,12,14,16,18,20,22,24,26,28,-1,-1,-1,-1,-1,-1,-1,-1,-1,-1,-1,-1,-1,-1,-1],"split_conditions":[4E0,2E0,7E0,1.3E1,1.2E1,2.3E1,2.3E1,1E1,2.1E1,1E1,1.3E1,3E0,5E0,1.1E1,2.2866161E-1,-1.4342257E0,-3.284148E0,-9.7054005E-1,3.3873534E-1,-2.2109449E-1,-1.6376626E0,5.746051E0,3.255922E-1,-1.7728485E0,4.877873E-1,-2.2578613E-1,7.456968E0,1.2350446E0,4.5576673E0],"split_indices":[0,0,0,1,1,1,1,1,1,1,1,1,0,1,0,0,0,0,0,0,0,0,0,0,0,0,0,0,0],"split_type":[0,0,0,0,0,0,0,0,0,0,0,0,0,0,0,0,0,0,0,0,0,0,0,0,0,0,0,0,0],"sum_hessian":[5.42E2,2.24E2,3.18E2,8.4E1,1.4E2,2.27E2,9.1E1,6.5E1,1.9E1,9.8E1,4.2E1,2.21E2,6E0,7.2E1,1.9E1,2.4E1,4.1E1,1.2E1,7E0,3.8E1,6E1,4E0,3.8E1,1.5E1,2.06E2,3E0,3E0,5E1,2.2E1],"tree_param":{"num_deleted":"0","num_feature":"2","num_nodes":"29","size_leaf_vector":"1"}},{"base_weights":[-1.2308396E0,-1.5145581E1,8.420054E0,-5.7584453E0,-1.2052197E1,1.275417E0,1.6479473E1,-1.5373501E1,3.6233437E0,1.5871361E1,-1.7736776E1,9.200761E0,2.5273031E1,1.7300008E-2,-1.702741E0,4.0341042E-2,8.063525E-1,-7.224596E-1,1.8448168E0,-2.2532623E0,-8.49737E-1,3.5253718E-1,1.1109861E0,6.4726415E0,1.7071593E0],"categories":[],"categories_nodes":[],"categories_segments":[],"categories_sizes":[],"default_left":[0,0,0,0,0,0,0,0,0,0,0,0,0,0,0,0,0,0,0,0,0,0,0,0,0],"id":36,"left_children":[1,3,5,-1,7,9,11,13,15,17,19,21,23,-1,-1,-1,-1,-1,-1,-1,-1,-1,-1,-1,-1],"loss_changes":[7.116678E4,3.7283773E4,1.8002025E4,0E0,1.0832791E4,4.662416E4,9.17632E3,1.5761797E4,7.3998566E2,1.7214916E4,5.1176504E3,1.7811465E3,1.27170625E4,0E0,0E0,0E0,0E0,0E0,0E0,0E0,0E0,0E0,0E0,0E0,0E0],"parents":[2147483647,0,0,1,1,2,2,4,4,5,5,6,6,7,7,8,8,9,9,10,10,11,11,12,12],"right_children":[2,4,6,-1,8,10,12,14,16,18,20,22,24,-1,-1,-1,-1,-1,-1,-1,-1,-1,-1,-1,-1],"split_conditions":[4E0,1E0,1.1E1,-5.7584453E0,1.7E1,1E1,6E0,1E1,3E0,3E0,6E0,1.2E1,1.2E1,1.7300008E-2,-1.702741E0,4.0341042E-2,8.063525E-1,-7.224596E-1,1.8448168E0,-2.2532623E0,-8.49737E-1,3.5253718E-1,1.1109861E0,6.4726415E0,1.7071593E0],"split_indices":[0,1,1,0,1,1,0,1,0,1,0,1,1,0,0,0,0,0,0,0,0,0,0,0,0],"split_type":[0,0,0,0,0,0,0,0,0,0,0,0,0,0,0,0,0,0,0,0,0,0,0,0,0],"sum_hessian":[5.28E2,2.16E2,3.12E2,1E1,2.06E2,1.66E2,1.46E2,1.7E2,3.6E1,9.4E1,7.2E1,8.1E1,6.5E1,4.7E1,1.23E2,2.5E1,1.1E1,2.1E1,7.3E1,2.8E1,4.4E1,4.1E1,4E1,3E0,6.2E1],"tree_param":{"num_deleted":"0","num_feature":"2","num_nodes":"25","size_leaf_vector":"1"}},{"base_weights":[-6.7489517E-1,-7.0371566E0,1.3403289E1,-1.6504375E1,6.839382E-1,8.284533E0,2.8682343E1,-5.7215014E0,-2.9541365E1,-1.8263426E1,7.3741136E0,1.9198242E1,4.161155E0,3.796849E1,1.7033466E1,-2.1811733E0,7.1001613E-1,-3.0061157E0,-1.952495E0,-2.2593496E0,-1.3706613E-1,1.1614583E-1,9.5086753E-1,2.2118814E-1,3.398162E0,1.6029742E-1,8.437079E-1,1.2381543E0,5.072853E0,6.7713084E0,3.855344E-1],"categories":[],"categories_nodes":[],"categories_segments":[],"categories_sizes":[],"default_left":[0,0,0,0,0,0,0,0,0,0,0,0,0,0,0,0,0,0,0,0,0,0,0,0,0,0,0,0,0,0,0],"id":37,"left_children":[1,3,5,7,9,11,13,15,17,19,21,23,25,27,29,-1,-1,-1,-1,-1,-1,-1,-1,-1,-1,-1,-1,-1,-1,-1,-1],"loss_changes":[4.7476367E4,2.6691803E4,1.266699E4,2.2885484E4,2.5740436E4,5.5452812E3,3.7883633E3,2.8857768E4,2.136254E3,8.704258E3,3.9907104E3,1.2889236E4,1.2462286E3,1.1607754E4,1.610774E4,0E0,0E0,0E0,0E0,0E0,0E0,0E0,0E0,0E0,0E0,0E0,0E0,0E0,0E0,0E0,0E0],"parents":[2147483647,0,0,1,1,2,2,3,3,4,4,5,5,6,6,7,7,8,8,9,9,10,10,11,11,12,12,13,13,14,14],"right_children":[2,4,6,8,10,12,14,16,18,20,22,24,26,28,30,-1,-1,-1,-1,-1,-1,-1,-1,-1,-1,-1,-1,-1,-1,-1,-1],"split_conditions":[6E0,1.1E1,1.8E1,1E1,2E0,9E0,2.3E1,3E0,3E0,1.3E1,1.2E1,6E0,1.1E1,7E0,7E0,-2.1811733E0,7.1001613E-1,-3.0061157E0,-1.952495E0,-2.2593496E0,-1.3706613E-1,1.1614583E-1,9.5086753E-1,2.2118814E-1,3.398162E0,1.6029742E-1,8.437079E-1,1.2381543E0,5.072853E0,6.7713084E0,3.855344E-1],"split_indices":[0,1,1,1,0,1,1,1,0,1,1,1,1,0,0,0,0,0,0,0,0,0,0,0,0,0,0,0,0,0,0],"split_type":[0,0,0,0,0,0,0,0,0,0,0,0,0,0,0,0,0,0,0,0,0,0,0,0,0,0,0,0,0,0,0],"sum_hessian":[5.28E2,3.64E2,1.64E2,1.63E2,2.01E2,1.24E2,4E1,9E1,7.3E1,5.2E1,1.49E2,3.3E1,9.1E1,2.1E1,1.9E1,3.6E1,5.4E1,2.6E1,4.7E1,3.2E1,2E1,6.5E1,8.4E1,2E1,1.3E1,6.9E1,2.2E1,1.2E1,9E0,2E0,1.7E1],"tree_param":{"num_deleted":"0","num_feature":"2","num_nodes":"31","size_leaf_vector":"1"}},{"base_weights":[-4.165053E-1,-6.6262493E0,1.2855605E1,-3.0772614E1,-4.005483E0,5.700936E0,2.3826445E1,-3.9150032E1,-2.0685608E1,1.3263682E1,-7.6498585E0,2.192828E1,-1.5903964E0,6.033657E0,2.0172419E1,-4.14582E0,-2.109953E0,-9.5929295E-1,-3.8494701E0,4.0988165E-1,1.5570458E0,-2.2014573E0,-4.1816507E-2,7.830688E-1,4.5699596E0,-4.0269715E-1,1.5941975E-1,-5.555642E-1,1.9394376E0],"categories":[],"categories_nodes":[],"categories_segments":[],"categories_sizes":[],"default_left":[0,0,0,0,0,0,0,0,0,0,0,0,0,0,0,0,0,0,0,0,0,0,0,0,0,0,0,0,0],"id":38,"left_children":[1,3,5,7,9,11,13,15,17,19,21,23,25,-1,27,-1,-1,-1,-1,-1,-1,-1,-1,-1,-1,-1,-1,-1,-1],"loss_changes":[4.343621E4,2.2594973E4,1.3050949E4,2.1477656E3,2.0555445E4,1.2221728E4,1.0921344E4,1.5474395E3,3.716233E3,2.7767305E3,3.8077312E4,1.311378E4,8.9835986E2,0E0,7.1223633E3,0E0,0E0,0E0,0E0,0E0,0E0,0E0,0E0,0E0,0E0,0E0,0E0,0E0,0E0],"parents":[2147483647,0,0,1,1,2,2,3,3,4,4,5,5,6,6,7,7,8,8,9,9,10,10,11,11,12,12,14,14],"right_children":[2,4,6,8,10,12,14,16,18,20,22,24,26,-1,28,-1,-1,-1,-1,-1,-1,-1,-1,-1,-1,-1,-1,-1,-1],"split_conditions":[6E0,3E0,1.1E1,1E0,1E1,9E0,1.2E1,2E0,5E0,3E0,1.1E1,8E0,7E0,6.033657E0,1.5E1,-4.14582E0,-2.109953E0,-9.5929295E-1,-3.8494701E0,4.0988165E-1,1.5570458E0,-2.2014573E0,-4.1816507E-2,7.830688E-1,4.5699596E0,-4.0269715E-1,1.5941975E-1,-5.555642E-1,1.9394376E0],"split_indices":[0,1,1,1,1,1,1,0,0,0,1,1,0,0,1,0,0,0,0,0,0,0,0,0,0,0,0,0,0],"split_type":[0,0,0,0,0,0,0,0,0,0,0,0,0,0,0,0,0,0,0,0,0,0,0,0,0,0,0,0,0],"sum_hessian":[5.25E2,3.58E2,1.67E2,3.4E1,3.24E2,1.02E2,6.5E1,1.7E1,1.7E1,5.6E1,2.68E2,3.1E1,7.1E1,3E0,6.2E1,7E0,1E1,1.4E1,3E0,2.5E1,3.1E1,7E1,1.98E2,2.4E1,7E0,3.6E1,3.5E1,8E0,5.4E1],"tree_param":{"num_deleted":"0","num_feature":"2","num_nodes":"29","size_leaf_vector":"1"}},{"base_weights":[-2.2115228E0,-8.487917E0,1.1719435E1,-1.30226755E1,4.3382998E0,5.067322E0,2.2259626E1,-2.6801191E1,-8.294478E0,9.0200466E-1,1.4906775E1,2.4575037E1,-3.6441998E0,5.6716356E0,1.8585001E1,-5.6680956E0,-1.7045528E0,-8.1907153E-1,3.132268E0,-2.7260882E-1,3.87812E-1,7.3851E-1,3.9732518E0,-3.016621E0,2.4136536E0,-7.8342736E-1,1.6932262E-2,-8.4316796E-1,1.6715825E0],"categories":[],"categories_nodes":[],"categories_segments":[],"categories_sizes":[],"default_left":[0,0,0,0,0,0,0,0,0,0,0,0,0,0,0,0,0,0,0,0,0,0,0,0,0,0,0,0,0],"id":39,"left_children":[1,3,5,7,9,11,13,15,17,19,21,23,25,-1,27,-1,-1,-1,-1,-1,-1,-1,-1,-1,-1,-1,-1,-1,-1],"loss_changes":[4.5303977E4,2.0820977E4,1.1175643E4,1.6976652E4,3.4002957E3,1.7083746E4,9.762953E3,1.470593E4,1.8663326E4,1.240822E3,4.0787393E3,1.1941531E4,1.6616511E3,0E0,4.18924E3,0E0,0E0,0E0,0E0,0E0,0E0,0E0,0E0,0E0,0E0,0E0,0E0,0E0,0E0],"parents":[2147483647,0,0,1,1,2,2,3,3,4,4,5,5,6,6,7,7,8,8,9,9,10,10,11,11,12,12,14,14],"right_children":[2,4,6,8,10,12,14,16,18,20,22,24,26,-1,28,-1,-1,-1,-1,-1,-1,-1,-1,-1,-1,-1,-1,-1,-1],"split_conditions":[6E0,1.3E1,1.1E1,2E0,5E0,9E0,1.2E1,1E0,1.2E1,1.9E1,2.2E1,1E0,1E1,5.6716356E0,1.4E1,-5.6680956E0,-1.7045528E0,-8.1907153E-1,3.132268E0,-2.7260882E-1,3.87812E-1,7.3851E-1,3.9732518E0,-3.016621E0,2.4136536E0,-7.8342736E-1,1.6932262E-2,-8.4316796E-1,1.6715825E0],"split_indices":[0,1,1,0,0,1,1,1,1,1,1,1,1,0,1,0,0,0,0,0,0,0,0,0,0,0,0,0,0],"split_type":[0,0,0,0,0,0,0,0,0,0,0,0,0,0,0,0,0,0,0,0,0,0,0,0,0,0,0,0,0],"sum_hessian":[5.16E2,3.56E2,1.6E2,2.63E2,9.3E1,9.9E1,6.1E1,6.6E1,1.97E2,7.1E1,2.2E1,3E1,6.9E1,3E0,5.8E1,6E0,6E1,1.9E2,7E0,3.4E1,3.7E1,2E1,2E0,2E0,2.8E1,2.6E1,4.3E1,4E0,5.4E1],"tree_param":{"num_deleted":"0","num_feature":"2","num_nodes":"29","size_leaf_vector":"1"}},{"base_weights":[9.577779E-1,-1.8482752E1,4.498146E0,-2.1918428E1,-1.6755046E0,-4.6895143E-1,1.2838566E1,-1.1148082E1,-2.6827114E1,-4.683604E0,6.214136E-1,-5.57252E0,1.1286577E1,2.4581564E1,9.785969E0,-2.5023646E0,1.8914442E0,-2.8515108E0,-1.96908E0,-4.753174E-2,-8.232011E-1,9.367422E-2,-7.6850224E-1,3.265564E0,6.5224224E-1,1.1515902E0,4.1022787E0,7.249585E-2,1.5935916E0],"categories":[],"categories_nodes":[],"categories_segments":[],"categories_sizes":[],"default_left":[0,0,0,0,0,0,0,0,0,0,0,0,0,0,0,0,0,0,0,0,0,0,0,0,0,0,0,0,0],"id":40,"left_children":[1,3,5,7,9,11,13,15,17,19,-1,21,23,25,27,-1,-1,-1,-1,-1,-1,-1,-1,-1,-1,-1,-1,-1,-1],"loss_changes":[3.6630082E4,4.6983047E3,1.8648477E4,3.2959688E3,4.6247076E2,1.704152E4,5.7816816E3,1.6848672E4,2.0457031E1,2.6901236E2,0E0,5.397132E3,7.6258955E3,8.50826E3,1.2130186E4,0E0,0E0,0E0,0E0,0E0,0E0,0E0,0E0,0E0,0E0,0E0,0E0,0E0,0E0],"parents":[2147483647,0,0,1,1,2,2,3,3,4,4,5,5,6,6,7,7,8,8,9,9,11,11,12,12,13,13,14,14],"right_children":[2,4,6,8,10,12,14,16,18,20,-1,22,24,26,28,-1,-1,-1,-1,-1,-1,-1,-1,-1,-1,-1,-1,-1,-1],"split_conditions":[2E0,1.5E1,6E0,1E1,2.3E1,1.2E1,9E0,5E0,1.1E1,2E1,6.214136E-1,1E1,1.3E1,8E0,1.1E1,-2.5023646E0,1.8914442E0,-2.8515108E0,-1.96908E0,-4.753174E-2,-8.232011E-1,9.367422E-2,-7.6850224E-1,3.265564E0,6.5224224E-1,1.1515902E0,4.1022787E0,7.249585E-2,1.5935916E0],"split_indices":[0,1,0,1,1,1,1,1,1,1,0,1,1,1,1,0,0,0,0,0,0,0,0,0,0,0,0,0,0],"split_type":[0,0,0,0,0,0,0,0,0,0,0,0,0,0,0,0,0,0,0,0,0,0,0,0,0,0,0,0,0],"sum_hessian":[5.3E2,8.1E1,4.49E2,6.7E1,1.4E1,2.82E2,1.67E2,2.2E1,4.5E1,1.1E1,3E0,1.97E2,8.5E1,3.3E1,1.34E2,1.4E1,8E0,6E0,3.9E1,7E0,4E0,7.4E1,1.23E2,7E0,7.8E1,2.5E1,8E0,7.2E1,6.2E1],"tree_param":{"num_deleted":"0","num_feature":"2","num_nodes":"29","size_leaf_vector":"1"}},{"base_weights":[4.1125E-1,-2.070684E1,4.3580747E0,-5.136227E0,-1.6483738E1,-4.4068127E0,1.5073272E1,-1.344574E0,-2.0124752E1,4.2063193E0,-1.6124678E1,1.2255967E1,2.6389425E1,-8.209645E-1,2.237871E0,-2.0537755E0,-3.144175E-1,-8.816485E-1,7.4320686E-1,-2.1522596E0,3.4167826E-2,8.675074E-1,2.2085555E0,3.2831726E0,5.6140083E-1],"categories":[],"categories_nodes":[],"categories_segments":[],"categories_sizes":[],"default_left":[0,0,0,0,0,0,0,0,0,0,0,0,0,0,0,0,0,0,0,0,0,0,0,0,0],"id":41,"left_children":[1,3,5,-1,7,9,11,13,15,17,19,21,23,-1,-1,-1,-1,-1,-1,-1,-1,-1,-1,-1,-1],"loss_changes":[4.3932023E4,1.4187809E4,4.176579E4,0E0,4.217328E3,2.4795068E4,6.0527812E3,4.470143E3,5.4690703E3,1.1094621E4,1.8565555E4,3.2123867E3,1.0780322E4,0E0,0E0,0E0,0E0,0E0,0E0,0E0,0E0,0E0,0E0,0E0,0E0],"parents":[2147483647,0,0,1,1,2,2,4,4,5,5,6,6,7,7,8,8,9,9,10,10,11,11,12,12],"right_children":[2,4,6,-1,8,10,12,14,16,18,20,22,24,-1,-1,-1,-1,-1,-1,-1,-1,-1,-1,-1,-1],"split_conditions":[2E0,1E0,1.1E1,-5.136227E0,8E0,1E1,7E0,7E0,1.4E1,3E0,6E0,2.3E1,2.3E1,-8.209645E-1,2.237871E0,-2.0537755E0,-3.144175E-1,-8.816485E-1,7.4320686E-1,-2.1522596E0,3.4167826E-2,8.675074E-1,2.2085555E0,3.2831726E0,5.6140083E-1],"split_indices":[0,1,1,0,1,1,0,1,1,1,0,1,1,0,0,0,0,0,0,0,0,0,0,0,0],"split_type":[0,0,0,0,0,0,0,0,0,0,0,0,0,0,0,0,0,0,0,0,0,0,0,0,0],"sum_hessian":[5.25E2,8.2E1,4.43E2,6E0,7.6E1,2.44E2,1.99E2,1.5E1,6.1E1,1.41E2,1.03E2,1.61E2,3.8E1,1.2E1,3E0,4.5E1,1.6E1,3.5E1,1.06E2,6.2E1,4.1E1,1.49E2,1.2E1,2.1E1,1.7E1],"tree_param":{"num_deleted":"0","num_feature":"2","num_nodes":"25","size_leaf_vector":"1"}},{"base_weights":[-2.6475635E-1,-4.105451E0,2.0581268E1,-2.7232178E1,-2.6053865E0,4.7909565E1,1.5211994E1,-3.7913709E0,-1.7806585E1,5.065424E0,-5.3188825E0,8.2266355E-1,4.653529E0,2.07982E1,-7.0176296E-2,-1.0046118E0,-2.4833496E0,-9.5866835E-1,5.9790814E-1,-1.4491131E0,-1.7724608E-4,1.0881697E0,3.9729216E0],"categories":[],"categories_nodes":[],"categories_segments":[],"categories_sizes":[],"default_left":[0,0,0,0,0,0,0,0,0,0,0,0,0,0,0,0,0,0,0,0,0,0,0],"id":42,"left_children":[1,3,5,7,9,11,13,-1,15,17,19,-1,-1,21,-1,-1,-1,-1,-1,-1,-1,-1,-1],"loss_changes":[4.2197746E4,1.5366806E4,1.1303316E4,4.286635E3,8.748308E3,4.420203E3,6.309676E3,0E0,9.996113E2,4.606244E3,2.1088309E4,0E0,0E0,1.0125041E4,0E0,0E0,0E0,0E0,0E0,0E0,0E0,0E0,0E0],"parents":[2147483647,0,0,1,1,2,2,3,3,4,4,5,5,6,6,8,8,9,9,10,10,13,13],"right_children":[2,4,6,8,10,12,14,-1,16,18,20,-1,-1,22,-1,-1,-1,-1,-1,-1,-1,-1,-1],"split_conditions":[7E0,2E0,9E0,2E0,1E1,1E0,2.3E1,-3.7913709E0,5E0,3E0,1.1E1,8.2266355E-1,4.653529E0,1.7E1,-7.0176296E-2,-1.0046118E0,-2.4833496E0,-9.5866835E-1,5.9790814E-1,-1.4491131E0,-1.7724608E-4,1.0881697E0,3.9729216E0],"split_indices":[0,1,1,0,1,1,1,0,0,1,1,0,0,1,0,0,0,0,0,0,0,0,0],"split_type":[0,0,0,0,0,0,0,0,0,0,0,0,0,0,0,0,0,0,0,0,0,0,0],"sum_hessian":[5.25E2,4.44E2,8.1E1,2.6E1,4.18E2,1.2E1,6.9E1,7E0,1.9E1,1.09E2,3.09E2,3E0,9E0,5.1E1,1.8E1,1.5E1,4E0,1.3E1,9.6E1,9E1,2.19E2,4.2E1,9E0],"tree_param":{"num_deleted":"0","num_feature":"2","num_nodes":"23","size_leaf_vector":"1"}},{"base_weights":[-2.1018648E0,-5.284511E0,1.3211521E1,-1.4196482E1,-1.606394E0,2.0664434E0,1.668474E1,-2.5473778E0,-1.2607699E1,8.734476E0,-4.887983E0,1.5426475E-1,8.919434E0,1.9470734E1,1.1221107E1,-6.0460202E-2,-1.3381932E0,-1.0743788E0,1.8156805E0,-1.0962702E0,4.050273E-1,-4.703049E-1,4.0611148E-1,2.0057518E0,-8.164941E-1,8.154009E-1,3.7777822E0,2.1986654E0,1.9732857E-1],"categories":[],"categories_nodes":[],"categories_segments":[],"categories_sizes":[],"default_left":[0,0,0,0,0,0,0,0,0,0,0,0,0,0,0,0,0,0,0,0,0,0,0,0,0,0,0,0,0],"id":43,"left_children":[1,3,5,7,9,11,13,-1,15,17,19,21,23,25,27,-1,-1,-1,-1,-1,-1,-1,-1,-1,-1,-1,-1,-1,-1],"loss_changes":[2.6046688E4,1.4465631E4,3.5267764E3,3.2150938E3,1.0698123E4,3.000193E2,8.470332E2,0E0,5.8465547E3,2.3822723E4,2.1034566E4,5.940592E2,1.8005171E3,1.110551E4,3.6337644E3,0E0,0E0,0E0,0E0,0E0,0E0,0E0,0E0,0E0,0E0,0E0,0E0,0E0,0E0],"parents":[2147483647,0,0,1,1,2,2,3,3,4,4,5,5,6,6,8,8,9,9,10,10,11,11,12,12,13,13,14,14],"right_children":[2,4,6,8,10,12,14,-1,16,18,20,22,24,26,28,-1,-1,-1,-1,-1,-1,-1,-1,-1,-1,-1,-1,-1,-1],"split_conditions":[1.8E1,3E0,3E0,1E0,9E0,2.3E1,2.3E1,-2.5473778E0,8E0,3E0,1.1E1,2E0,2E0,7E0,7E0,-6.0460202E-2,-1.3381932E0,-1.0743788E0,1.8156805E0,-1.0962702E0,4.050273E-1,-4.703049E-1,4.0611148E-1,2.0057518E0,-8.164941E-1,8.154009E-1,3.7777822E0,2.1986654E0,1.9732857E-1],"split_indices":[1,0,0,1,1,1,1,0,1,1,1,0,0,0,0,0,0,0,0,0,0,0,0,0,0,0,0,0,0],"split_type":[0,0,0,0,0,0,0,0,0,0,0,0,0,0,0,0,0,0,0,0,0,0,0,0,0,0,0,0,0],"sum_hessian":[5.32E2,4.41E2,9.1E1,1.28E2,3.13E2,2.2E1,6.9E1,9E0,1.19E2,7.5E1,2.38E2,1.8E1,4E0,4.4E1,2.5E1,3.1E1,8.8E1,2.9E1,4.6E1,1.26E2,1.12E2,8E0,1E1,2E0,2E0,3.4E1,1E1,8E0,1.7E1],"tree_param":{"num_deleted":"0","num_feature":"2","num_nodes":"29","size_leaf_vector":"1"}},{"base_weights":[-2.6882622E-1,-1.0310121E1,3.560971E0,-2.3639677E0,-8.797398E0,-2.2282162E0,1.00496E1,3.2136016E0,-1.2753602E1,9.367238E0,-9.167663E0,1.5332642E0,1.1847362E1,-6.0792255E-1,6.428393E-1,-1.385836E0,-1.88768E-1,1.8663352E-2,2.6274734E0,-1.1125171E0,-4.1965246E-1,-1.364262E-1,7.9993165E-1,8.009656E-1,1.3905435E0],"categories":[],"categories_nodes":[],"categories_segments":[],"categories_sizes":[],"default_left":[0,0,0,0,0,0,0,0,0,0,0,0,0,0,0,0,0,0,0,0,0,0,0,0,0],"id":44,"left_children":[1,3,5,-1,7,9,11,13,15,17,19,21,23,-1,-1,-1,-1,-1,-1,-1,-1,-1,-1,-1,-1],"loss_changes":[1.991853E4,3.9019102E3,1.410885E4,0E0,6.4083916E3,1.6098616E4,2.6917656E3,1.8337314E3,4.756E3,1.6074601E4,2.250253E3,8.9441284E2,1.3089375E3,0E0,0E0,0E0,0E0,0E0,0E0,0E0,0E0,0E0,0E0,0E0,0E0],"parents":[2147483647,0,0,1,1,2,2,4,4,5,5,6,6,7,7,8,8,9,9,10,10,11,11,12,12],"right_children":[2,4,6,-1,8,10,12,14,16,18,20,22,24,-1,-1,-1,-1,-1,-1,-1,-1,-1,-1,-1,-1],"split_conditions":[3E0,1E0,1.1E1,-2.3639677E0,1E1,9E0,4E0,3E0,1.4E1,6E0,6E0,1.6E1,2.1E1,-6.0792255E-1,6.428393E-1,-1.385836E0,-1.88768E-1,1.8663352E-2,2.6274734E0,-1.1125171E0,-4.1965246E-1,-1.364262E-1,7.9993165E-1,8.009656E-1,1.3905435E0],"split_indices":[0,1,1,0,1,1,0,1,1,1,0,1,1,0,0,0,0,0,0,0,0,0,0,0,0],"split_type":[0,0,0,0,0,0,0,0,0,0,0,0,0,0,0,0,0,0,0,0,0,0,0,0,0],"sum_hessian":[5.16E2,1.42E2,3.74E2,9E0,1.33E2,1.98E2,1.76E2,3.3E1,1E2,7.4E1,1.24E2,3.1E1,1.45E2,1E1,2.3E1,6.9E1,3.1E1,5.4E1,2E1,5.5E1,6.9E1,2.3E1,8E0,1.11E2,3.4E1],"tree_param":{"num_deleted":"0","num_feature":"2","num_nodes":"25","size_leaf_vector":"1"}},{"base_weights":[-9.0940535E-2,-1.3406533E1,4.8295264E0,-1.826635E1,-3.7108378E0,2.6887689E0,1.2519536E1,-5.7149105E0,-2.7690315E1,-1.737362E1,1.5333519E1,1.6979793E0,2.6656485E1,1.7221466E1,-8.205957E-1,-7.399104E-1,3.464772E0,-1.8813168E0,-2.5542223E0,-3.0277362E0,-5.0147164E-1,7.5501237E0,1.6368112E-1,-1.1745858E0,2.157711E-1,1.8492946E-1,5.981465E0,7.058343E-1,2.911833E0],"categories":[],"categories_nodes":[],"categories_segments":[],"categories_sizes":[],"default_left":[0,0,0,0,0,0,0,0,0,0,0,0,0,0,0,0,0,0,0,0,0,0,0,0,0,0,0,0,0],"id":45,"left_children":[1,3,5,7,9,11,13,15,17,19,21,23,25,27,-1,-1,-1,-1,-1,-1,-1,-1,-1,-1,-1,-1,-1,-1,-1],"loss_changes":[3.4724266E4,6.6702754E3,6.3373037E3,1.1078768E4,1.3016145E4,7.173814E3,9.172697E3,7.67712E3,2.042461E2,6.3561484E3,2.186288E4,4.834994E3,1.3882476E4,1.095265E4,0E0,0E0,0E0,0E0,0E0,0E0,0E0,0E0,0E0,0E0,0E0,0E0,0E0,0E0,0E0],"parents":[2147483647,0,0,1,1,2,2,3,3,4,4,5,5,6,6,7,7,8,8,9,9,10,10,11,11,12,12,13,13],"right_children":[2,4,6,8,10,12,14,16,18,20,22,24,26,28,-1,-1,-1,-1,-1,-1,-1,-1,-1,-1,-1,-1,-1,-1,-1],"split_conditions":[3E0,1.2E1,7E0,1E1,2E0,2.3E1,2.3E1,9E0,2E0,1.3E1,1.3E1,2E0,5E0,1.1E1,-8.205957E-1,-7.399104E-1,3.464772E0,-1.8813168E0,-2.5542223E0,-3.0277362E0,-5.0147164E-1,7.5501237E0,1.6368112E-1,-1.1745858E0,2.157711E-1,1.8492946E-1,5.981465E0,7.058343E-1,2.911833E0],"split_indices":[0,1,0,1,0,1,1,1,0,1,1,1,0,1,0,0,0,0,0,0,0,0,0,0,0,0,0,0,0],"split_type":[0,0,0,0,0,0,0,0,0,0,0,0,0,0,0,0,0,0,0,0,0,0,0,0,0,0,0,0,0],"sum_hessian":[5.28E2,1.42E2,3.86E2,9.4E1,4.8E1,3.03E2,8.3E1,4.1E1,5.3E1,2.8E1,2E1,2.92E2,1.1E1,6.9E1,1.4E1,3.9E1,2E0,3E1,2.3E1,9E0,1.9E1,2E0,1.8E1,1.6E1,2.76E2,8E0,3E0,4.9E1,2E1],"tree_param":{"num_deleted":"0","num_feature":"2","num_nodes":"29","size_leaf_vector":"1"}},{"base_weights":[2.1223004E0,-5.5992045E0,5.097383E0,-9.5715475E0,2.7029555E0,-1.1021505E1,6.3888645E0,-1.0972264E0,-1.6361677E1,-6.183994E0,1.4846697E1,-1.5013347E1,5.42622E-1,2.4541676E1,3.8329515E0,-6.343416E-1,5.930994E-1,-1.0427303E0,-1.5973175E0,-9.944576E-1,1.5866863E0,7.147448E0,1.8421617E-1,-1.5521754E0,-3.048303E-1,1.0280336E0,3.034293E0,-2.22481E-1,6.700023E-1],"categories":[],"categories_nodes":[],"categories_segments":[],"categories_sizes":[],"default_left":[0,0,0,0,0,0,0,0,0,0,0,0,0,0,0,0,0,0,0,0,0,0,0,0,0,0,0,0,0],"id":46,"left_children":[1,3,5,7,9,11,13,15,17,19,21,23,-1,25,27,-1,-1,-1,-1,-1,-1,-1,-1,-1,-1,-1,-1,-1,-1],"loss_changes":[1.229565E4,4.9397456E3,8.105873E3,5.7937646E3,5.379931E3,2.162916E3,1.651606E4,2.7335618E3,4.1148047E2,4.9597607E3,1.9418402E4,1.1061045E3,0E0,6.3990703E3,9.486248E3,0E0,0E0,0E0,0E0,0E0,0E0,0E0,0E0,0E0,0E0,0E0,0E0,0E0,0E0],"parents":[2147483647,0,0,1,1,2,2,3,3,4,4,5,5,6,6,7,7,8,8,9,9,10,10,11,11,13,13,14,14],"right_children":[2,4,6,8,10,12,14,16,18,20,22,24,-1,26,28,-1,-1,-1,-1,-1,-1,-1,-1,-1,-1,-1,-1,-1,-1],"split_conditions":[3E0,1.2E1,3E0,1E1,2E0,7E0,9E0,5E0,2E0,2.1E1,1.3E1,2E0,5.42622E-1,6E0,1.1E1,-6.343416E-1,5.930994E-1,-1.0427303E0,-1.5973175E0,-9.944576E-1,1.5866863E0,7.147448E0,1.8421617E-1,-1.5521754E0,-3.048303E-1,1.0280336E0,3.034293E0,-2.22481E-1,6.700023E-1],"split_indices":[0,1,1,1,0,0,1,1,0,1,1,1,0,1,1,0,0,0,0,0,0,0,0,0,0,0,0,0,0],"split_type":[0,0,0,0,0,0,0,0,0,0,0,0,0,0,0,0,0,0,0,0,0,0,0,0,0,0,0,0,0],"sum_hessian":[5.33E2,1.48E2,3.85E2,1E2,4.8E1,2.8E1,3.57E2,4.5E1,5.5E1,2.8E1,2E1,2.3E1,5E0,4.3E1,3.14E2,2.5E1,2E1,3.1E1,2.4E1,2.3E1,5E0,2E0,1.8E1,1.6E1,7E0,2.4E1,1.9E1,1.28E2,1.86E2],"tree_param":{"num_deleted":"0","num_feature":"2","num_nodes":"29","size_leaf_vector":"1"}},{"base_weights":[1.0890988E0,-1.32601E0,1.3720091E1,-2.0511335E1,-3.7490925E-1,1.8588001E1,-3.3342463E-1,-1.7085194E1,-3.561367E0,-1.493312E0,6.7276273E0,1.2852606E1,3.729437E0,-1.9456019E0,-1.398298E-2,3.033394E-1,-3.0562678E-1,-2.473535E-2,1.1020087E0,2.1040905E0,6.62514E-1],"categories":[],"categories_nodes":[],"categories_segments":[],"categories_sizes":[],"default_left":[0,0,0,0,0,0,0,0,0,0,0,0,0,0,0,0,0,0,0,0,0],"id":47,"left_children":[1,3,5,7,9,11,-1,13,-1,15,17,19,-1,-1,-1,-1,-1,-1,-1,-1,-1],"loss_changes":[1.6155456E4,8.112303E3,7.47899E3,9.666074E2,3.3860322E3,1.0171953E4,0E0,2.442628E3,0E0,4.540313E3,2.880587E3,3.2862998E3,0E0,0E0,0E0,0E0,0E0,0E0,0E0,0E0,0E0],"parents":[2147483647,0,0,1,1,2,2,3,3,4,4,5,5,7,7,9,9,10,10,11,11],"right_children":[2,4,6,8,10,12,-1,14,-1,16,18,20,-1,-1,-1,-1,-1,-1,-1,-1,-1],"split_conditions":[7E0,1E0,2.3E1,5E0,1.9E1,1.7E1,-3.3342463E-1,4E0,-3.561367E0,1E1,4E0,9E0,3.729437E0,-1.9456019E0,-1.398298E-2,3.033394E-1,-3.0562678E-1,-2.473535E-2,1.1020087E0,2.1040905E0,6.62514E-1],"split_indices":[0,1,1,0,1,1,0,0,0,1,0,1,0,0,0,0,0,0,0,0,0],"split_type":[0,0,0,0,0,0,0,0,0,0,0,0,0,0,0,0,0,0,0,0,0],"sum_hessian":[5.28E2,4.44E2,8.4E1,2E1,4.24E2,6.6E1,1.8E1,1.9E1,1E0,3.67E2,5.7E1,5.6E1,1E1,1.3E1,6E0,1.12E2,2.55E2,2.9E1,2.8E1,1.3E1,4.3E1],"tree_param":{"num_deleted":"0","num_feature":"2","num_nodes":"21","size_leaf_vector":"1"}},{"base_weights":[-5.818007E-1,-3.8690407E0,6.8231006E0,-8.27849E0,-1.04890294E-1,3.0139081E0,1.9274025E1,2.1024182E0,-2.1633743E1,-9.715313E0,3.2724535E0,1.2441927E1,-4.6530184E-1,2.2885685E1,1.4879248E1,-5.6533647E-1,1.5857002E0,-5.5769265E-1,-1.9052677E0,-1.1717843E0,3.3152666E-2,4.2569616E-1,-1.6199148E-1,1.9676402E-2,2.5699353E0,-1.6150121E-1,6.7558944E-1,4.8004198E-1,2.9985821E0,5.409863E0,4.2095596E-1],"categories":[],"categories_nodes":[],"categories_segments":[],"categories_sizes":[],"default_left":[0,0,0,0,0,0,0,0,0,0,0,0,0,0,0,0,0,0,0,0,0,0,0,0,0,0,0,0,0,0,0],"id":48,"left_children":[1,3,5,7,9,11,13,15,17,19,21,23,25,27,29,-1,-1,-1,-1,-1,-1,-1,-1,-1,-1,-1,-1,-1,-1,-1,-1],"loss_changes":[1.2903152E4,6.090536E3,7.6726685E3,2.3475582E4,6.4908755E3,4.1388486E3,2.6263086E2,1.5736824E4,2.201629E3,2.6039746E3,1.6170092E3,8.153608E3,1.3043191E3,4.4579355E3,9.789272E3,0E0,0E0,0E0,0E0,0E0,0E0,0E0,0E0,0E0,0E0,0E0,0E0,0E0,0E0,0E0,0E0],"parents":[2147483647,0,0,1,1,2,2,3,3,4,4,5,5,6,6,7,7,8,8,9,9,10,10,11,11,12,12,13,13,14,14],"right_children":[2,4,6,8,10,12,14,16,18,20,22,24,26,28,30,-1,-1,-1,-1,-1,-1,-1,-1,-1,-1,-1,-1,-1,-1,-1,-1],"split_conditions":[6E0,1.1E1,1.8E1,1E1,2E0,9E0,2.3E1,6E0,2E0,1.3E1,5E0,6E0,1.5E1,7E0,7E0,-5.6533647E-1,1.5857002E0,-5.5769265E-1,-1.9052677E0,-1.1717843E0,3.3152666E-2,4.2569616E-1,-1.6199148E-1,1.9676402E-2,2.5699353E0,-1.6150121E-1,6.7558944E-1,4.8004198E-1,2.9985821E0,5.409863E0,4.2095596E-1],"split_indices":[0,1,1,1,0,1,1,1,0,1,0,1,1,0,0,0,0,0,0,0,0,0,0,0,0,0,0,0,0,0,0],"split_type":[0,0,0,0,0,0,0,0,0,0,0,0,0,0,0,0,0,0,0,0,0,0,0,0,0,0,0,0,0,0,0],"sum_hessian":[5.28E2,3.66E2,1.62E2,1.68E2,1.98E2,1.25E2,3.7E1,9.5E1,7.3E1,5.1E1,1.47E2,3.3E1,9.2E1,1.8E1,1.9E1,6.3E1,3.2E1,1E1,6.3E1,3.4E1,1.7E1,1.06E2,4.1E1,2.1E1,1.2E1,7.9E1,1.3E1,9E0,9E0,2E0,1.7E1],"tree_param":{"num_deleted":"0","num_feature":"2","num_nodes":"31","size_leaf_vector":"1"}},{"base_weights":[9.6932733E-1,-1.6529616E0,6.824146E0,-6.0464177E0,1.8570539E0,2.86679E0,1.2929164E1,1.3161956E0,-1.4899103E1,-8.549661E0,5.225751E0,1.216179E1,-1.7549022E0,4.6561036E0,9.799846E0,-9.811888E-1,8.6790884E-1,-1.5907669E0,-9.6069354E-1,-1.1039968E0,-8.01234E-2,5.7053167E-1,5.6481647E-4,1.1224703E-1,2.1944914E0,4.518181E-2,-3.1175673E-1,-1.635823E0,1.0724642E0],"categories":[],"categories_nodes":[],"categories_segments":[],"categories_sizes":[],"default_left":[0,0,0,0,0,0,0,0,0,0,0,0,0,0,0,0,0,0,0,0,0,0,0,0,0,0,0,0,0],"id":49,"left_children":[1,3,5,7,9,11,13,15,17,19,21,23,25,-1,27,-1,-1,-1,-1,-1,-1,-1,-1,-1,-1,-1,-1,-1,-1],"loss_changes":[8.240502E3,5.7324565E3,3.9734487E3,1.0774128E4,7.3014917E3,4.4031226E3,8.638243E3,1.1914253E4,8.4198047E2,2.007302E3,1.5615146E3,5.5469785E3,3.4505328E2,0E0,7.0365625E3,0E0,0E0,0E0,0E0,0E0,0E0,0E0,0E0,0E0,0E0,0E0,0E0,0E0,0E0],"parents":[2147483647,0,0,1,1,2,2,3,3,4,4,5,5,6,6,7,7,8,8,9,9,10,10,11,11,12,12,14,14],"right_children":[2,4,6,8,10,12,14,16,18,20,22,24,26,-1,28,-1,-1,-1,-1,-1,-1,-1,-1,-1,-1,-1,-1,-1,-1],"split_conditions":[6E0,1.1E1,1.1E1,1E1,2E0,9E0,1.2E1,3E0,3E0,1.3E1,5E0,7E0,7E0,4.6561036E0,1.5E1,-9.811888E-1,8.6790884E-1,-1.5907669E0,-9.6069354E-1,-1.1039968E0,-8.01234E-2,5.7053167E-1,5.6481647E-4,1.1224703E-1,2.1944914E0,4.518181E-2,-3.1175673E-1,-1.635823E0,1.0724642E0],"split_indices":[0,1,1,1,0,1,1,1,0,1,0,0,0,0,1,0,0,0,0,0,0,0,0,0,0,0,0,0,0],"split_type":[0,0,0,0,0,0,0,0,0,0,0,0,0,0,0,0,0,0,0,0,0,0,0,0,0,0,0,0,0],"sum_hessian":[5.35E2,3.7E2,1.65E2,1.64E2,2.06E2,1.01E2,6.4E1,9E1,7.4E1,5E1,1.56E2,3.3E1,6.8E1,3E0,6.1E1,3.7E1,5.3E1,2.5E1,4.9E1,2.9E1,2.1E1,1.14E2,4.2E1,2E1,1.3E1,3.3E1,3.5E1,6E0,5.5E1],"tree_param":{"num_deleted":"0","num_feature":"2","num_nodes":"29","size_leaf_vector":"1"}},{"base_weights":[-6.778211E-1,-7.239012E0,1.7759173E0,-3.2234207E1,-5.7375584E0,-1.9589359E0,5.8847504E0,-2.9984212E0,-8.797884E-1,4.7046304E0,-8.558917E0,8.256754E0,-7.9622965E0,7.298907E0,-1.9741211E0,7.097028E-2,3.101315E0,-2.0666597E0,-2.702031E-1,-5.9675276E-1,1.4063935E0,-9.7743195E-1,3.8303033E-1,3.8311923E-1,2.0221417E0,1.772146E0,-1.4358729E0],"categories":[],"categories_nodes":[],"categories_segments":[],"categories_sizes":[],"default_left":[0,0,0,0,0,0,0,0,0,0,0,0,0,0,0,0,0,0,0,0,0,0,0,0,0,0,0],"id":50,"left_children":[1,3,5,7,9,11,13,-1,-1,15,17,19,21,23,25,-1,-1,-1,-1,-1,-1,-1,-1,-1,-1,-1,-1],"loss_changes":[8.577761E3,5.2567764E3,5.9657334E3,4.7909473E2,4.1059067E3,1.257675E4,2.0704375E3,0E0,0E0,3.86654E3,9.668773E3,1.1266992E4,7.057996E3,6.963251E3,1.1574041E4,0E0,0E0,0E0,0E0,0E0,0E0,0E0,0E0,0E0,0E0,0E0,0E0],"parents":[2147483647,0,0,1,1,2,2,3,3,4,4,5,5,6,6,9,9,10,10,11,11,12,12,13,13,14,14],"right_children":[2,4,6,8,10,12,14,-1,-1,16,18,20,22,24,26,-1,-1,-1,-1,-1,-1,-1,-1,-1,-1,-1,-1],"split_conditions":[3E0,1E0,1.1E1,2E0,1E1,9E0,2.3E1,-2.9984212E0,-8.797884E-1,9E0,1.1E1,3E0,7E0,7E0,7E0,7.097028E-2,3.101315E0,-2.0666597E0,-2.702031E-1,-5.9675276E-1,1.4063935E0,-9.7743195E-1,3.8303033E-1,3.8311923E-1,2.0221417E0,1.772146E0,-1.4358729E0],"split_indices":[0,1,1,0,1,1,1,0,0,1,1,1,0,0,0,0,0,0,0,0,0,0,0,0,0,0,0],"split_type":[0,0,0,0,0,0,0,0,0,0,0,0,0,0,0,0,0,0,0,0,0,0,0,0,0,0,0],"sum_hessian":[5.31E2,1.44E2,3.87E2,7E0,1.37E2,2.03E2,1.84E2,5E0,2E0,2.9E1,1.08E2,7.5E1,1.28E2,1.56E2,2.8E1,2.7E1,2E0,2.4E1,8.4E1,2.8E1,4.7E1,9.6E1,3.2E1,1.38E2,1.8E1,1.1E1,1.7E1],"tree_param":{"num_deleted":"0","num_feature":"2","num_nodes":"27","size_leaf_vector":"1"}},{"base_weights":[9.081474E-1,-1.1273125E0,1.1777354E1,-2.5306854E0,7.840546E0,3.1097578E1,7.801854E0,-6.514821E0,-6.195803E-1,8.86101E-1,1.5483862E1,2.5212052E-1,4.133055E0,-3.735854E0,1.8505041E1,-7.2208333E-1,1.756819E-1,-1.0217687E0,1.7276336E-2,1.9408667E0,-1.8080534E-1,5.1033574E-1,2.8006117E0,2.2727007E-1,-5.1841444E-1,2.462664E0,3.067578E-1],"categories":[],"categories_nodes":[],"categories_segments":[],"categories_sizes":[],"default_left":[0,0,0,0,0,0,0,0,0,0,0,0,0,0,0,0,0,0,0,0,0,0,0,0,0,0,0],"id":51,"left_children":[1,3,5,7,9,11,13,15,17,19,21,-1,-1,23,25,-1,-1,-1,-1,-1,-1,-1,-1,-1,-1,-1,-1],"loss_changes":[1.1783157E4,5.670619E3,6.209214E3,2.9578489E3,3.2287358E3,7.883377E3,8.836939E3,2.7760532E3,2.6833765E3,2.4816785E3,4.9316475E3,0E0,0E0,6.501137E2,6.5467383E3,0E0,0E0,0E0,0E0,0E0,0E0,0E0,0E0,0E0,0E0,0E0,0E0],"parents":[2147483647,0,0,1,1,2,2,3,3,4,4,5,5,6,6,7,7,8,8,9,9,10,10,13,13,14,14],"right_children":[2,4,6,8,10,12,14,16,18,20,22,-1,-1,24,26,-1,-1,-1,-1,-1,-1,-1,-1,-1,-1,-1,-1],"split_conditions":[7E0,1.9E1,9E0,3E0,4E0,2E0,1.1E1,1.2E1,2E0,2E1,2.2E1,2.5212052E-1,4.133055E0,1E1,2.3E1,-7.2208333E-1,1.756819E-1,-1.0217687E0,1.7276336E-2,1.9408667E0,-1.8080534E-1,5.1033574E-1,2.8006117E0,2.2727007E-1,-5.1841444E-1,2.462664E0,3.067578E-1],"split_indices":[0,1,1,0,0,1,1,1,1,1,1,0,0,1,1,0,0,0,0,0,0,0,0,0,0,0,0],"split_type":[0,0,0,0,0,0,0,0,0,0,0,0,0,0,0,0,0,0,0,0,0,0,0,0,0,0,0],"sum_hessian":[5.31E2,4.48E2,8.3E1,3.88E2,6E1,1.3E1,7E1,1.25E2,2.63E2,3.2E1,2.8E1,6E0,7E0,3.4E1,3.6E1,9.7E1,2.8E1,1.6E1,2.47E2,3E0,2.9E1,2E1,8E0,1E1,2.4E1,1.9E1,1.7E1],"tree_param":{"num_deleted":"0","num_feature":"2","num_nodes":"27","size_leaf_vector":"1"}},{"base_weights":[4.5046324E-1,-2.5149276E0,3.4252734E0,2.367923E0,-9.13183E0,-6.3223176E0,5.86894E0,-5.489197E-1,1.8311895E1,2.6644725E-1,-1.0231758E1,-9.826882E0,-3.4719703E-1,9.686308E0,3.4712474E0,-4.3145207E-1,3.271734E-1,2.3483537E-1,1.861944E0,-1.5844772E0,-6.832924E-1,-7.3386125E-2,-2.08677E0,-1.6232996E-1,4.3526366E-1,5.320587E-1,2.1471672E0,-6.202385E-1,4.2364E-1],"categories":[],"categories_nodes":[],"categories_segments":[],"categories_sizes":[],"default_left":[0,0,0,0,0,0,0,0,0,0,0,0,0,0,0,0,0,0,0,0,0,0,0,0,0,0,0,0,0],"id":52,"left_children":[1,3,5,7,9,11,13,15,17,-1,19,21,23,25,27,-1,-1,-1,-1,-1,-1,-1,-1,-1,-1,-1,-1,-1,-1],"loss_changes":[4.7192817E3,8.680529E3,6.3970083E3,7.218491E3,1.5967627E3,1.1273589E3,1.9250918E3,2.9881477E3,1.762979E3,0E0,1.5303828E3,4.9009473E3,2.1547473E2,4.0912397E3,2.7643418E3,0E0,0E0,0E0,0E0,0E0,0E0,0E0,0E0,0E0,0E0,0E0,0E0,0E0,0E0],"parents":[2147483647,0,0,1,1,2,2,3,3,4,4,5,5,6,6,7,7,8,8,10,10,11,11,12,12,13,13,14,14],"right_children":[2,4,6,8,10,12,14,16,18,-1,20,22,24,26,28,-1,-1,-1,-1,-1,-1,-1,-1,-1,-1,-1,-1,-1,-1],"split_conditions":[1.1E1,1E1,2E0,7E0,2E0,1.3E1,1.3E1,5E0,2E0,2.6644725E-1,3E0,1.2E1,2.3E1,1.2E1,1.5E1,-4.3145207E-1,3.271734E-1,2.3483537E-1,1.861944E0,-1.5844772E0,-6.832924E-1,-7.3386125E-2,-2.08677E0,-1.6232996E-1,4.3526366E-1,5.320587E-1,2.1471672E0,-6.202385E-1,4.2364E-1],"split_indices":[1,1,0,0,0,1,1,1,1,0,0,1,1,1,1,0,0,0,0,0,0,0,0,0,0,0,0,0,0],"split_type":[0,0,0,0,0,0,0,0,0,0,0,0,0,0,0,0,0,0,0,0,0,0,0,0,0,0,0,0,0],"sum_hessian":[5.33E2,2.67E2,2.66E2,1.54E2,1.13E2,5.3E1,2.13E2,1.31E2,2.3E1,9E0,1.04E2,3.3E1,2E1,8.1E1,1.32E2,6.4E1,6.7E1,6E0,1.7E1,1.4E1,9E1,2.2E1,1.1E1,1.6E1,4E0,7E1,1.1E1,1.8E1,1.14E2],"tree_param":{"num_deleted":"0","num_feature":"2","num_nodes":"29","size_leaf_vector":"1"}},{"base_weights":[-3.743812E0,-8.725338E0,1.2141557E0,5.7316047E-1,-1.5891567E1,-1.2772746E1,4.541809E0,-1.014528E1,7.6085186E0,-3.2117447E1,-9.791322E0,-1.4733152E0,-2.2982883E0,7.488617E0,2.7619095E0,-1.4339625E0,-4.3190882E-1,2.8476876E-1,2.772449E0,2.3771272E0,-3.3439598E0,-1.0609627E0,-4.3445116E-1,-3.2686523E-1,4.3411133E-1,3.162257E-1,2.344668E0,-1.4158177E-1,3.644362E-1],"categories":[],"categories_nodes":[],"categories_segments":[],"categories_sizes":[],"default_left":[0,0,0,0,0,0,0,0,0,0,0,0,0,0,0,0,0,0,0,0,0,0,0,0,0,0,0,0,0],"id":53,"left_children":[1,3,5,7,9,11,13,15,17,19,21,-1,23,25,27,-1,-1,-1,-1,-1,-1,-1,-1,-1,-1,-1,-1,-1,-1],"loss_changes":[1.2977173E4,1.7467521E4,1.2345512E4,8.749118E3,1.433484E4,2.9725195E3,1.101752E3,1.6017129E3,7.542425E3,2.5188277E4,1.5776572E3,0E0,2.8452463E2,6.056158E3,1.1053105E3,0E0,0E0,0E0,0E0,0E0,0E0,0E0,0E0,0E0,0E0,0E0,0E0,0E0,0E0],"parents":[2147483647,0,0,1,1,2,2,3,3,4,4,5,5,6,6,7,7,8,8,9,9,10,10,12,12,13,13,14,14],"right_children":[2,4,6,8,10,12,14,16,18,20,22,-1,24,26,28,-1,-1,-1,-1,-1,-1,-1,-1,-1,-1,-1,-1,-1,-1],"split_conditions":[1.1E1,9E0,2E0,3E0,1E1,1.3E1,1.3E1,3E0,7E0,4E0,5E0,-1.4733152E0,2.3E1,1.2E1,4E0,-1.4339625E0,-4.3190882E-1,2.8476876E-1,2.772449E0,2.3771272E0,-3.3439598E0,-1.0609627E0,-4.3445116E-1,-3.2686523E-1,4.3411133E-1,3.162257E-1,2.344668E0,-1.4158177E-1,3.644362E-1],"split_indices":[1,1,0,1,1,1,1,0,0,0,0,0,1,1,0,0,0,0,0,0,0,0,0,0,0,0,0,0,0],"split_type":[0,0,0,0,0,0,0,0,0,0,0,0,0,0,0,0,0,0,0,0,0,0,0,0,0,0,0,0,0],"sum_hessian":[5.24E2,2.61E2,2.63E2,1.14E2,1.47E2,5E1,2.13E2,4.5E1,6.9E1,3.9E1,1.08E2,3.2E1,1.8E1,7.9E1,1.34E2,1.6E1,2.9E1,6.1E1,8E0,5E0,3.4E1,5.9E1,4.9E1,1.5E1,3E0,6.9E1,1E1,3.8E1,9.6E1],"tree_param":{"num_deleted":"0","num_feature":"2","num_nodes":"29","size_leaf_vector":"1"}},{"base_weights":[1.4251122E0,-6.196223E-1,1.14966345E1,5.0519657E0,-2.983821E0,1.4871984E1,-1.5193976E-1,-7.734505E0,8.926506E0,-1.0609878E1,-1.431987E-2,1.2100558E1,3.1102397E0,-3.65489E-1,-1.8626738E0,3.477578E-1,1.0526592E0,-1.1031458E0,2.016569E-1,-6.198383E-1,1.816565E-1,1.6791878E0,5.4861486E-1],"categories":[],"categories_nodes":[],"categories_segments":[],"categories_sizes":[],"default_left":[0,0,0,0,0,0,0,0,0,0,0,0,0,0,0,0,0,0,0,0,0,0,0],"id":54,"left_children":[1,3,5,7,9,11,-1,13,15,17,19,21,-1,-1,-1,-1,-1,-1,-1,-1,-1,-1,-1],"loss_changes":[1.0983508E4,5.9685635E3,4.097666E3,6.559006E3,7.1105615E3,4.3197803E3,0E0,1.419639E3,1.9001172E3,3.708584E3,4.0290493E3,2.9320146E3,0E0,0E0,0E0,0E0,0E0,0E0,0E0,0E0,0E0,0E0,0E0],"parents":[2147483647,0,0,1,1,2,2,3,3,4,4,5,5,7,7,8,8,9,9,10,10,11,11],"right_children":[2,4,6,8,10,12,-1,14,16,18,20,22,-1,-1,-1,-1,-1,-1,-1,-1,-1,-1,-1],"split_conditions":[7E0,1E1,2.3E1,2E0,1.1E1,2E1,-1.5193976E-1,5E0,7E0,6E0,2E0,1E1,3.1102397E0,-3.65489E-1,-1.8626738E0,3.477578E-1,1.0526592E0,-1.1031458E0,2.016569E-1,-6.198383E-1,1.816565E-1,1.6791878E0,5.4861486E-1],"split_indices":[0,1,1,1,1,1,0,0,1,0,0,1,0,0,0,0,0,0,0,0,0,0,0],"split_type":[0,0,0,0,0,0,0,0,0,0,0,0,0,0,0,0,0,0,0,0,0,0,0],"sum_hessian":[5.32E2,4.43E2,8.9E1,1.3E2,3.13E2,7.1E1,1.8E1,3E1,1E2,8.7E1,2.26E2,6.5E1,6E0,2.6E1,4E0,4.9E1,5.1E1,7E1,1.7E1,5.1E1,1.75E2,2.3E1,4.2E1],"tree_param":{"num_deleted":"0","num_feature":"2","num_nodes":"23","size_leaf_vector":"1"}},{"base_weights":[1.2201704E0,-3.7134824E0,3.2158036E0,-1.4487882E0,-2.7223606E0,2.0563766E-1,6.654864E0,-5.7031984E0,-7.0488685E-1,6.3580437E0,-3.2853212E0,5.0897174E0,1.3318154E1,3.523929E-1,-1.1285561E0,-4.586919E-1,6.1971337E-1,1.96646E-2,1.9745451E0,7.246119E-1,-4.6325642E-1,3.10768E-1,1.4819539E0,2.0887098E0,-8.067039E-2],"categories":[],"categories_nodes":[],"categories_segments":[],"categories_sizes":[],"default_left":[0,0,0,0,0,0,0,0,0,0,0,0,0,0,0,0,0,0,0,0,0,0,0,0,0],"id":55,"left_children":[1,3,5,-1,7,9,11,13,15,17,19,21,23,-1,-1,-1,-1,-1,-1,-1,-1,-1,-1,-1,-1],"loss_changes":[5.3975737E3,2.2051306E3,4.0359663E3,0E0,8.920303E2,4.509747E3,1.8302964E3,5.1589043E3,3.869379E3,8.505874E3,4.19625E3,2.3404097E3,6.256715E3,0E0,0E0,0E0,0E0,0E0,0E0,0E0,0E0,0E0,0E0,0E0,0E0],"parents":[2147483647,0,0,1,1,2,2,4,4,5,5,6,6,7,7,8,8,9,9,10,10,11,11,12,12],"right_children":[2,4,6,-1,8,10,12,14,16,18,20,22,24,-1,-1,-1,-1,-1,-1,-1,-1,-1,-1,-1,-1],"split_conditions":[3E0,1E0,1.1E1,-1.4487882E0,1.1E1,9E0,7E0,2E0,2E0,6E0,4E0,2.3E1,2.3E1,3.523929E-1,-1.1285561E0,-4.586919E-1,6.1971337E-1,1.96646E-2,1.9745451E0,7.246119E-1,-4.6325642E-1,3.10768E-1,1.4819539E0,2.0887098E0,-8.067039E-2],"split_indices":[0,1,1,0,1,1,0,0,0,1,0,1,1,0,0,0,0,0,0,0,0,0,0,0,0],"split_type":[0,0,0,0,0,0,0,0,0,0,0,0,0,0,0,0,0,0,0,0,0,0,0,0,0],"sum_hessian":[5.46E2,1.57E2,3.89E2,9E0,1.48E2,2.08E2,1.81E2,5.9E1,8.9E1,7.5E1,1.33E2,1.48E2,3.3E1,2.7E1,3.2E1,5.6E1,3.3E1,5.7E1,1.8E1,2.2E1,1.11E2,1.37E2,1.1E1,1.7E1,1.6E1],"tree_param":{"num_deleted":"0","num_feature":"2","num_nodes":"25","size_leaf_vector":"1"}},{"base_weights":[8.4522575E-1,-1.6201315E0,6.1399446E0,-3.053599E0,1.6100811E0,9.930501E0,5.167883E0,-1.1192544E0,-1.1797756E1,-5.4454346E0,4.0558624E0,2.8026562E0,2.2901344E0,5.9470437E-2,6.754385E0,2.5585186E-1,-2.8249097E-1,-3.2716146E0,-7.59467E-1,-1.0874804E0,-3.5322264E-2,2.5444112E0,2.0092113E-2,-6.259027E-1,1.5619755E0,7.023704E-3,2.0670572E-4,6.3751656E-1,1.5362616E-1],"categories":[],"categories_nodes":[],"categories_segments":[],"categories_sizes":[],"default_left":[0,0,0,0,0,0,0,0,0,0,0,0,0,0,0,0,0,0,0,0,0,0,0,0,0,0,0,0,0],"id":56,"left_children":[1,3,5,7,9,11,13,15,17,19,21,23,-1,25,27,-1,-1,-1,-1,-1,-1,-1,-1,-1,-1,-1,-1,-1,-1],"loss_changes":[6.8629683E3,1.6672319E3,5.6401807E2,4.198435E3,1.9375297E3,4.317464E3,1.093707E3,2.1459722E3,2.6291387E3,1.1763914E3,8.754985E3,4.5951504E3,0E0,5.2948095E-2,5.894419E2,0E0,0E0,0E0,0E0,0E0,0E0,0E0,0E0,0E0,0E0,0E0,0E0,0E0,0E0],"parents":[2147483647,0,0,1,1,2,2,3,3,4,4,5,5,6,6,7,7,8,8,9,9,10,10,11,11,13,13,14,14],"right_children":[2,4,6,8,10,12,14,16,18,20,22,24,-1,26,28,-1,-1,-1,-1,-1,-1,-1,-1,-1,-1,-1,-1,-1,-1],"split_conditions":[6E0,1.2E1,9E0,5E0,2E0,8E0,1E1,1E1,3E0,