{"learner":{"attributes":{},"feature_names":["day_of_week","hour_of_day"],"feature_types":[],"gradient_booster":{"model":{"cats":{"enc":[],"feature_segments":[],"sorted_idx":[]},"gbtree_model_param":{"num_parallel_tree":"1","num_trees":"80"},"iteration_indptr":[0,1,2,3,4,5,6,7,8,9,10,11,12,13,14,15,16,17,18,19,20,21,22,23,24,25,26,27,28,29,30,31,32,33,34,35,36,37,38,39,40,41,42,43,44,45,46,47,48,49,50,51,52,53,54,55,56,57,58,59,60,61,62,63,64,65,66,67,68,69,70,71,72,73,74,75,76,77,78,79,80],"tree_info":[0,0,0,0,0,0,0,0,0,0,0,0,0,0,0,0,0,0,0,0,0,0,0,0,0,0,0,0,0,0,0,0,0,0,0,0,0,0,0,0,0,0,0,0,0,0,0,0,0,0,0,0,0,0,0,0,0,0,0,0,0,0,0,0,0,0,0,0,0,0,0,0,0,0,0,0,0,0,0,0],"trees":[{"base_weights":[4.1148213E-1,-1.3848973E2,2.1332423E2,-2.7561444E2,1.6648169E1,3.9046505E1,3.5502698E2,-3.6831412E2,-1.8535464E2,-2.7299814E1,7.514904E0,-9.0847916E1,9.7498085E1,2.588493E2,4.7174454E2,-3.24818E1,-2.525582E1,-1.787237E1,-1.212343E1,-5.5039234E0,9.678356E-1,-1.017194E1,2.1712716E0,-2.531962E-1,1.0743866E1,1.50566435E1,2.668924E1,3.0196676E1,4.270133E1],"categories":[],"categories_nodes":[],"categories_segments":[],"categories_sizes":[],"default_left":[0,0,0,0,0,0,0,0,0,0,0,0,0,0,0,0,0,0,0,0,0,0,0,0,0,0,0,0,0],"id":0,"left_children":[1,3,5,7,9,11,13,15,17,19,-1,21,23,25,27,-1,-1,-1,-1,-1,-1,-1,-1,-1,-1,-1,-1,-1,-1],"loss_changes":[2.0524214E7,8.93935E6,6.752742E6,1.797584E6,6.751026E5,9.503317E5,1.572956E6,8.8083E4,1.140965E5,2.0847438E5,0E0,1.7049388E5,3.190055E5,3.861455E5,1.9033E5,0E0,0E0,0E0,0E0,0E0,0E0,0E0,0E0,0E0,0E0,0E0,0E0,0E0,0E0],"parents":[2147483647,0,0,1,1,2,2,3,3,4,4,5,5,6,6,7,7,8,8,9,9,11,11,12,12,13,13,14,14],"right_children":[2,4,6,8,10,12,14,16,18,20,-1,22,24,26,28,-1,-1,-1,-1,-1,-1,-1,-1,-1,-1,-1,-1,-1,-1],"split_conditions":[1E0,5E0,4E0,3E0,7E0,1E1,6E0,2E0,4E0,6E0,7.514904E0,3E0,2E0,1.3E1,1.2E1,-3.24818E1,-2.525582E1,-1.787237E1,-1.212343E1,-5.5039234E0,9.678356E-1,-1.017194E1,2.1712716E0,-2.531962E-1,1.0743866E1,1.50566435E1,2.668924E1,3.0196676E1,4.270133E1],"split_indices":[1,0,0,0,0,1,0,0,0,0,0,0,0,1,1,0,0,0,0,0,0,0,0,0,0,0,0,0,0],"split_type":[0,0,0,0,0,0,0,0,0,0,0,0,0,0,0,0,0,0,0,0,0,0,0,0,0,0,0,0,0],"sum_hessian":[6.92E2,4.19E2,2.73E2,2.22E2,1.97E2,1.23E2,1.5E2,1.08E2,1.14E2,1.26E2,7.1E1,3.8E1,8.5E1,8.4E1,6.6E1,5.9E1,4.9E1,5.1E1,6.3E1,6.1E1,6.5E1,2.9E1,9E0,2.3E1,6.2E1,4.5E1,3.9E1,2.9E1,3.7E1],"tree_param":{"num_deleted":"0","num_feature":"2","num_nodes":"29","size_leaf_vector":"1"}},{"base_weights":[3.4942122E0,-1.2046748E2,2.0017331E2,-2.5143198E2,2.0520733E1,8.579119E1,3.7468616E2,-3.360685E2,-1.7046492E2,-4.711563E0,5.5431473E1,-4.471608E0,1.6875902E2,2.8373413E2,4.524508E2,-2.9528881E1,-2.2826412E1,-1.68653E1,-1.1110511E1,1.5356464E0,6.8369207E0,-4.8702817E0,7.325536E0,9.142826E0,1.828373E1,1.6772991E1,2.7564306E1,2.748204E1,3.9289818E1],"categories":[],"categories_nodes":[],"categories_segments":[],"categories_sizes":[],"default_left":[0,0,0,0,0,0,0,0,0,0,0,0,0,0,0,0,0,0,0,0,0,0,0,0,0,0,0,0,0],"id":1,"left_children":[1,3,5,7,9,11,13,15,17,-1,19,21,23,25,27,-1,-1,-1,-1,-1,-1,-1,-1,-1,-1,-1,-1,-1,-1],"loss_changes":[1.7090586E7,7.944874E6,5.377327E6,1.470881E6,5.799334E5,1.2364244E6,6.28419E5,7.5745E4,1.18556E5,0E0,1.5614347E5,4.389638E5,2.539695E5,1.62021E5,6.7178E4,0E0,0E0,0E0,0E0,0E0,0E0,0E0,0E0,0E0,0E0,0E0,0E0,0E0,0E0],"parents":[2147483647,0,0,1,1,2,2,3,3,4,4,5,5,6,6,7,7,8,8,10,10,11,11,12,12,13,13,14,14],"right_children":[2,4,6,8,10,12,14,16,18,-1,20,22,24,26,28,-1,-1,-1,-1,-1,-1,-1,-1,-1,-1,-1,-1,-1,-1],"split_conditions":[1E0,5E0,5E0,3E0,6E0,3E0,1.2E1,2E0,4E0,-4.711563E0,7E0,1.6E1,1.4E1,6E0,6E0,-2.9528881E1,-2.2826412E1,-1.68653E1,-1.1110511E1,1.5356464E0,6.8369207E0,-4.8702817E0,7.325536E0,9.142826E0,1.828373E1,1.6772991E1,2.7564306E1,2.748204E1,3.9289818E1],"split_indices":[1,0,0,0,0,0,1,0,0,0,0,1,1,0,0,0,0,0,0,0,0,0,0,0,0,0,0,0,0],"split_type":[0,0,0,0,0,0,0,0,0,0,0,0,0,0,0,0,0,0,0,0,0,0,0,0,0,0,0,0,0],"sum_hessian":[6.99E2,4.29E2,2.7E2,2.22E2,2.07E2,1.64E2,1.06E2,1.07E2,1.15E2,6.3E1,1.44E2,7.9E1,8.5E1,5.1E1,5.5E1,6.1E1,4.6E1,4.8E1,6.7E1,6.6E1,7.8E1,5E1,2.9E1,4.6E1,3.9E1,2.5E1,2.6E1,1.7E1,3.8E1],"tree_param":{"num_deleted":"0","num_feature":"2","num_nodes":"29","size_leaf_vector":"1"}},{"base_weights":[1.6176693E0,-1.1387442E2,1.8098407E2,-2.3938542E2,1.8856377E1,7.165036E1,3.4993497E2,-3.1178116E2,-1.5850449E2,-4.2921467E0,5.168279E1,-5.7333004E1,1.2264662E2,2.699518E2,4.1795618E2,-2.7280094E1,-2.1404758E1,-1.5583727E1,-1.0058945E1,1.2870724E0,6.425207E0,-9.69964E0,9.305115E-1,5.5166144E0,1.4307945E1,1.5712985E1,2.5720272E1,2.531845E1,3.6050747E1],"categories":[],"categories_nodes":[],"categories_segments":[],"categories_sizes":[],"default_left":[0,0,0,0,0,0,0,0,0,0,0,0,0,0,0,0,0,0,0,0,0,0,0,0,0,0,0,0,0],"id":2,"left_children":[1,3,5,7,9,11,13,15,17,-1,19,21,23,25,27,-1,-1,-1,-1,-1,-1,-1,-1,-1,-1,-1,-1,-1,-1],"loss_changes":[1.4438527E7,7.0680045E6,5.017791E6,1.227067E6,4.954711E5,1.1055025E6,4.69311E5,5.6068E4,1.0037375E5,0E0,1.4444622E5,2.1297925E5,3.497625E5,1.33989E5,4.3081E4,0E0,0E0,0E0,0E0,0E0,0E0,0E0,0E0,0E0,0E0,0E0,0E0,0E0,0E0],"parents":[2147483647,0,0,1,1,2,2,3,3,4,4,5,5,6,6,7,7,8,8,10,10,11,11,12,12,13,13,14,14],"right_children":[2,4,6,8,10,12,14,16,18,-1,20,22,24,26,28,-1,-1,-1,-1,-1,-1,-1,-1,-1,-1,-1,-1,-1,-1],"split_conditions":[1E0,5E0,5E0,3E0,6E0,2E0,1.2E1,2E0,4E0,-4.2921467E0,7E0,1.2E1,1.4E1,6E0,6E0,-2.7280094E1,-2.1404758E1,-1.5583727E1,-1.0058945E1,1.2870724E0,6.425207E0,-9.69964E0,9.305115E-1,5.5166144E0,1.4307945E1,1.5712985E1,2.5720272E1,2.531845E1,3.6050747E1],"split_indices":[1,0,0,0,0,0,1,0,0,0,0,1,1,0,0,0,0,0,0,0,0,0,0,0,0,0,0,0,0],"split_type":[0,0,0,0,0,0,0,0,0,0,0,0,0,0,0,0,0,0,0,0,0,0,0,0,0,0,0,0,0],"sum_hessian":[6.95E2,4.23E2,2.72E2,2.17E2,2.06E2,1.66E2,1.06E2,1.13E2,1.04E2,6.4E1,1.42E2,4.7E1,1.19E2,5.1E1,5.5E1,6.4E1,4.9E1,4.7E1,5.7E1,6.4E1,7.8E1,2.4E1,2.3E1,6.2E1,5.7E1,2.3E1,2.8E1,1.6E1,3.9E1],"tree_param":{"num_deleted":"0","num_feature":"2","num_nodes":"29","size_leaf_vector":"1"}},{"base_weights":[-1.0189179E0,-1.04938736E2,1.6653665E2,-2.159112E2,1.6946333E1,3.0269669E1,2.7913998E2,-2.8454257E2,-1.442352E2,-3.9651866E0,4.5211456E1,-1.5168676E1,1.3997728E2,2.0739944E2,3.6839072E2,-2.5310303E1,-1.904407E1,-1.4026445E1,-9.441727E0,1.3086823E0,5.567034E0,-6.477177E0,2.4155753E0,4.0279207E0,1.3359054E1,1.0008467E1,1.9435102E1,2.3967218E1,3.457032E1],"categories":[],"categories_nodes":[],"categories_segments":[],"categories_sizes":[],"default_left":[0,0,0,0,0,0,0,0,0,0,0,0,0,0,0,0,0,0,0,0,0,0,0,0,0,0,0,0,0],"id":3,"left_children":[1,3,5,7,9,11,13,15,17,-1,19,21,23,25,27,-1,-1,-1,-1,-1,-1,-1,-1,-1,-1,-1,-1,-1,-1],"loss_changes":[1.2554365E7,6.022678E6,4.2265275E6,1.105137E6,4.0266947E5,6.3022475E5,8.90434E5,9.934E4,7.386125E4,0E0,1.0436147E5,2.710704E5,8.1167125E4,2.21128E5,1.59963E5,0E0,0E0,0E0,0E0,0E0,0E0,0E0,0E0,0E0,0E0,0E0,0E0,0E0,0E0],"parents":[2147483647,0,0,1,1,2,2,3,3,4,4,5,5,6,6,7,7,8,8,10,10,11,11,12,12,13,13,14,14],"right_children":[2,4,6,8,10,12,14,16,18,-1,20,22,24,26,28,-1,-1,-1,-1,-1,-1,-1,-1,-1,-1,-1,-1,-1,-1],"split_conditions":[1E0,5E0,4E0,3E0,6E0,1.7E1,6E0,2E0,4E0,-3.9651866E0,7E0,2E0,2E0,7E0,1.4E1,-2.5310303E1,-1.904407E1,-1.4026445E1,-9.441727E0,1.3086823E0,5.567034E0,-6.477177E0,2.4155753E0,4.0279207E0,1.3359054E1,1.0008467E1,1.9435102E1,2.3967218E1,3.457032E1],"split_indices":[1,0,0,0,0,1,0,0,0,0,0,0,0,1,1,0,0,0,0,0,0,0,0,0,0,0,0,0,0],"split_type":[0,0,0,0,0,0,0,0,0,0,0,0,0,0,0,0,0,0,0,0,0,0,0,0,0,0,0,0,0],"sum_hessian":[7.19E2,4.44E2,2.75E2,2.32E2,2.12E2,1.25E2,1.5E2,1.17E2,1.15E2,6.3E1,1.49E2,8.9E1,3.6E1,8.5E1,6.5E1,6.6E1,5.1E1,5E1,6.5E1,6.9E1,8E1,3.6E1,5.3E1,9E0,2.7E1,2.7E1,5.8E1,3.4E1,3.1E1],"tree_param":{"num_deleted":"0","num_feature":"2","num_nodes":"29","size_leaf_vector":"1"}},{"base_weights":[3.8498163E0,-9.467298E1,1.6067526E2,-1.9789836E2,1.5884913E1,3.0149714E1,2.635234E2,-2.6303522E2,-1.3158664E2,-3.624537E0,4.5507008E1,-3.0275297E1,1.08247375E2,1.9370462E2,3.404476E2,-2.3471333E1,-1.7789314E1,-1.2983591E1,-8.513033E0,1.2838898E0,5.557779E0,-7.4721813E0,8.053315E-1,2.5133684E0,1.0801751E1,9.486222E0,1.8605955E1,2.29689E1,3.2623436E1],"categories":[],"categories_nodes":[],"categories_segments":[],"categories_sizes":[],"default_left":[0,0,0,0,0,0,0,0,0,0,0,0,0,0,0,0,0,0,0,0,0,0,0,0,0,0,0,0,0],"id":4,"left_children":[1,3,5,7,9,11,13,15,17,-1,19,21,23,25,27,-1,-1,-1,-1,-1,-1,-1,-1,-1,-1,-1,-1,-1,-1],"loss_changes":[1.0892633E7,4.944704E6,3.6434675E6,9.3292E5,3.8271284E5,5.742825E5,7.50409E5,7.303E4,7.0083375E4,0E0,9.913381E4,1.7666011E5,1.0478394E5,2.118755E5,1.379465E5,0E0,0E0,0E0,0E0,0E0,0E0,0E0,0E0,0E0,0E0,0E0,0E0,0E0,0E0],"parents":[2147483647,0,0,1,1,2,2,3,3,4,4,5,5,6,6,7,7,8,8,10,10,11,11,12,12,13,13,14,14],"right_children":[2,4,6,8,10,12,14,16,18,-1,20,22,24,26,28,-1,-1,-1,-1,-1,-1,-1,-1,-1,-1,-1,-1,-1,-1],"split_conditions":[1E0,5E0,4E0,3E0,6E0,1.5E1,6E0,2E0,4E0,-3.624537E0,7E0,8E0,2E0,9E0,1.5E1,-2.3471333E1,-1.7789314E1,-1.2983591E1,-8.513033E0,1.2838898E0,5.557779E0,-7.4721813E0,8.053315E-1,2.5133684E0,1.0801751E1,9.486222E0,1.8605955E1,2.29689E1,3.2623436E1],"split_indices":[1,0,0,0,0,1,0,0,0,0,0,1,0,1,1,0,0,0,0,0,0,0,0,0,0,0,0,0,0],"split_type":[0,0,0,0,0,0,0,0,0,0,0,0,0,0,0,0,0,0,0,0,0,0,0,0,0,0,0,0,0],"sum_hessian":[7.03E2,4.32E2,2.71E2,2.23E2,2.09E2,1.2E2,1.51E2,1.11E2,1.12E2,6.8E1,1.41E2,6.8E1,5.2E1,8.1E1,7E1,6E1,5.1E1,4.8E1,6.4E1,6.4E1,7.7E1,2.6E1,4.2E1,1.4E1,3.8E1,2.9E1,5.2E1,4.2E1,2.8E1],"tree_param":{"num_deleted":"0","num_feature":"2","num_nodes":"29","size_leaf_vector":"1"}},{"base_weights":[-1.1023955E0,-8.716465E1,1.5034476E2,-1.7679698E2,1.5080373E1,6.4340904E1,2.8124927E2,-2.3474509E2,-1.1690883E2,-1.3779212E1,6.520631E1,-5.228457E0,1.296804E2,2.4218346E2,3.046365E1,-2.0953257E1,-1.5654395E1,-9.714946E0,3.671543E0,-3.1959004E0,1.0382254E0,4.5295463E0,1.679285E1,-4.5302186E0,3.4985254E0,3.637444E0,1.210711E1,1.3604999E1,2.1473341E1],"categories":[],"categories_nodes":[],"categories_segments":[],"categories_sizes":[],"default_left":[0,0,0,0,0,0,0,0,0,0,0,0,0,0,0,0,0,0,0,0,0,0,0,0,0,0,0,0,0],"id":5,"left_children":[1,3,5,7,9,11,13,15,17,19,21,23,25,27,-1,-1,-1,-1,-1,-1,-1,-1,-1,-1,-1,-1,-1,-1,-1],"loss_changes":[9.280195E6,4.1633308E6,2.8865435E6,8.123945E5,3.0902722E5,7.1434144E5,3.04441E5,7.82425E4,9.4771E4,9.574827E4,8.503575E4,1.9624766E5,1.4085562E5,9.81425E4,0E0,0E0,0E0,0E0,0E0,0E0,0E0,0E0,0E0,0E0,0E0,0E0,0E0,0E0,0E0],"parents":[2147483647,0,0,1,1,2,2,3,3,4,4,5,5,6,6,7,7,8,8,9,9,10,10,11,11,12,12,13,13],"right_children":[2,4,6,8,10,12,14,16,18,20,22,24,26,28,-1,-1,-1,-1,-1,-1,-1,-1,-1,-1,-1,-1,-1,-1,-1],"split_conditions":[2E0,5E0,5E0,3E0,7E0,3E0,1.8E1,2E0,1E0,6E0,1E0,1.3E1,9E0,7E0,3.046365E1,-2.0953257E1,-1.5654395E1,-9.714946E0,3.671543E0,-3.1959004E0,1.0382254E0,4.5295463E0,1.679285E1,-4.5302186E0,3.4985254E0,3.637444E0,1.210711E1,1.3604999E1,2.1473341E1],"split_indices":[1,0,0,0,0,0,1,0,1,0,1,1,1,1,0,0,0,0,0,0,0,0,0,0,0,0,0,0,0],"split_type":[0,0,0,0,0,0,0,0,0,0,0,0,0,0,0,0,0,0,0,0,0,0,0,0,0,0,0,0,0],"sum_hessian":[7.1E2,4.53E2,2.57E2,2.41E2,2.12E2,1.56E2,1.01E2,1.21E2,1.2E2,1.35E2,7.7E1,7.6E1,8E1,7.5E1,2.6E1,6.8E1,5.3E1,1.17E2,3E0,6.8E1,6.7E1,7.4E1,3E0,3.7E1,3.9E1,1.7E1,6.3E1,2.2E1,5.3E1],"tree_param":{"num_deleted":"0","num_feature":"2","num_nodes":"29","size_leaf_vector":"1"}},{"base_weights":[-1.6663663E0,-8.4448395E1,1.2648968E2,-2.000617E2,-1.2359655E1,4.941543E1,2.4949365E2,-1.9990913E1,-1.6826152E2,-6.528431E1,3.614843E1,-7.744398E0,1.1217794E2,1.7344835E2,2.9525812E2,-1.5050604E1,-1.1482618E1,-7.181112E0,-3.1215732E0,9.012152E-1,4.582554E0,-7.4833317E0,2.500279E0,7.1546335E0,1.6146652E1,1.1315514E1,1.8371208E1,2.1003754E1,2.8228102E1],"categories":[],"categories_nodes":[],"categories_segments":[],"categories_sizes":[],"default_left":[0,0,0,0,0,0,0,0,0,0,0,0,0,0,0,0,0,0,0,0,0,0,0,0,0,0,0,0,0],"id":6,"left_children":[1,3,5,7,9,11,13,-1,15,17,19,21,23,25,27,-1,-1,-1,-1,-1,-1,-1,-1,-1,-1,-1,-1,-1,-1],"loss_changes":[7.5961295E6,3.6229988E6,2.6516745E6,2.22554E5,6.929566E5,6.250929E5,3.24647E5,0E0,2.459275E4,7.943769E4,7.350234E4,3.1074734E5,1.5120394E5,4.4849375E4,3.17E4,0E0,0E0,0E0,0E0,0E0,0E0,0E0,0E0,0E0,0E0,0E0,0E0,0E0,0E0],"parents":[2147483647,0,0,1,1,2,2,3,3,4,4,5,5,6,6,8,8,9,9,10,10,11,11,12,12,13,13,14,14],"right_children":[2,4,6,8,10,12,14,-1,16,18,20,22,24,26,28,-1,-1,-1,-1,-1,-1,-1,-1,-1,-1,-1,-1,-1,-1],"split_conditions":[1E0,4E0,5E0,2E0,6E0,3E0,9E0,-1.9990913E1,3E0,5E0,7E0,1E1,2E1,7E0,7E0,-1.5050604E1,-1.1482618E1,-7.181112E0,-3.1215732E0,9.012152E-1,4.582554E0,-7.4833317E0,2.500279E0,7.1546335E0,1.6146652E1,1.1315514E1,1.8371208E1,2.1003754E1,2.8228102E1],"split_indices":[1,0,0,0,0,0,1,0,0,0,0,1,1,0,0,0,0,0,0,0,0,0,0,0,0,0,0,0,0],"split_type":[0,0,0,0,0,0,0,0,0,0,0,0,0,0,0,0,0,0,0,0,0,0,0,0,0,0,0,0,0],"sum_hessian":[7.14E2,4.34E2,2.8E2,1.66E2,2.68E2,1.73E2,1.07E2,6.2E1,1.04E2,1.28E2,1.4E2,9.1E1,8.2E1,4.2E1,6.5E1,5.4E1,5E1,6.5E1,6.3E1,6.5E1,7.5E1,2.8E1,6.3E1,6.7E1,1.5E1,2.9E1,1.3E1,4.5E1,2E1],"tree_param":{"num_deleted":"0","num_feature":"2","num_nodes":"29","size_leaf_vector":"1"}},{"base_weights":[-1.4739603E-1,-7.4344055E1,1.2595927E2,-1.524547E2,1.3743943E1,5.266099E1,2.4113928E2,-2.0064621E2,-1.01312584E2,-1.1262251E1,5.5669006E1,-3.1824104E1,8.345665E1,1.8978868E2,2.9719235E2,-1.7947498E1,-1.3367136E1,-8.360617E0,4.3950486E0,-2.4760005E0,6.4096594E-1,4.1195836E0,1.1540052E1,-4.984635E0,6.2975144E-1,4.5059743E0,1.1365173E1,1.0753825E1,1.7345081E1,2.0301281E1,2.8711975E1],"categories":[],"categories_nodes":[],"categories_segments":[],"categories_sizes":[],"default_left":[0,0,0,0,0,0,0,0,0,0,0,0,0,0,0,0,0,0,0,0,0,0,0,0,0,0,0,0,0,0,0],"id":7,"left_children":[1,3,5,7,9,11,13,15,17,19,21,23,25,27,29,-1,-1,-1,-1,-1,-1,-1,-1,-1,-1,-1,-1,-1,-1,-1,-1],"loss_changes":[6.6432595E6,3.0777282E6,2.207678E6,5.637855E5,2.2183648E5,4.2414334E5,2.37189E5,5.8736E4,6.4152625E4,5.0717242E4,2.1782719E4,5.3734273E4,1.8122625E5,5.46455E4,3.48705E4,0E0,0E0,0E0,0E0,0E0,0E0,0E0,0E0,0E0,0E0,0E0,0E0,0E0,0E0,0E0,0E0],"parents":[2147483647,0,0,1,1,2,2,3,3,4,4,5,5,6,6,7,7,8,8,9,9,10,10,11,11,12,12,13,13,14,14],"right_children":[2,4,6,8,10,12,14,16,18,20,22,24,26,28,30,-1,-1,-1,-1,-1,-1,-1,-1,-1,-1,-1,-1,-1,-1,-1,-1],"split_conditions":[2E0,5E0,5E0,3E0,7E0,2E0,1.4E1,2E0,1E0,6E0,1E0,1.3E1,1.7E1,6E0,7E0,-1.7947498E1,-1.3367136E1,-8.360617E0,4.3950486E0,-2.4760005E0,6.4096594E-1,4.1195836E0,1.1540052E1,-4.984635E0,6.2975144E-1,4.5059743E0,1.1365173E1,1.0753825E1,1.7345081E1,2.0301281E1,2.8711975E1],"split_indices":[1,0,0,0,0,0,1,0,1,0,1,1,1,0,0,0,0,0,0,0,0,0,0,0,0,0,0,0,0,0,0],"split_type":[0,0,0,0,0,0,0,0,0,0,0,0,0,0,0,0,0,0,0,0,0,0,0,0,0,0,0,0,0,0,0],"sum_hessian":[7.08E2,4.46E2,2.62E2,2.36E2,2.1E2,1.61E2,1.01E2,1.2E2,1.16E2,1.32E2,7.8E1,4.3E1,1.18E2,5.5E1,4.6E1,6.7E1,5.3E1,1.14E2,2E0,6.5E1,6.7E1,7.6E1,2E0,2.4E1,1.9E1,8.2E1,3.6E1,2E1,3.5E1,3E1,1.6E1],"tree_param":{"num_deleted":"0","num_feature":"2","num_nodes":"31","size_leaf_vector":"1"}},{"base_weights":[8.5469985E-1,-7.210964E1,1.1479229E2,-1.6884694E2,-1.32238035E1,4.4990513E1,2.1972052E2,-1.6837557E1,-1.4052005E2,-5.7433193E1,2.4978937E1,-6.5099587E0,9.845454E1,1.6543784E2,2.6729147E2,-1.2647257E1,-9.700862E0,-6.110201E0,-3.006179E0,5.0268114E-1,3.312606E0,-3.617463E0,4.321677E0,3.4196658E0,1.0123916E1,9.792234E0,1.5865288E1,1.8207626E1,2.6347963E1],"categories":[],"categories_nodes":[],"categories_segments":[],"categories_sizes":[],"default_left":[0,0,0,0,0,0,0,0,0,0,0,0,0,0,0,0,0,0,0,0,0,0,0,0,0,0,0,0,0],"id":8,"left_children":[1,3,5,7,9,11,13,-1,15,17,19,21,23,25,27,-1,-1,-1,-1,-1,-1,-1,-1,-1,-1,-1,-1,-1,-1],"loss_changes":[5.8775245E6,2.4529402E6,2.0115875E6,1.62608E5,4.5575406E5,4.604625E5,2.398305E5,0E0,1.4669625E4,4.4149625E4,4.427517E4,2.0394511E5,1.22929E5,5.2130875E4,6.54595E4,0E0,0E0,0E0,0E0,0E0,0E0,0E0,0E0,0E0,0E0,0E0,0E0,0E0,0E0],"parents":[2147483647,0,0,1,1,2,2,3,3,4,4,5,5,6,6,8,8,9,9,10,10,11,11,12,12,13,13,14,14],"right_children":[2,4,6,8,10,12,14,-1,16,18,20,22,24,26,28,-1,-1,-1,-1,-1,-1,-1,-1,-1,-1,-1,-1,-1,-1],"split_conditions":[1E0,4E0,5E0,2E0,6E0,3E0,1.2E1,-1.6837557E1,3E0,5E0,7E0,1.5E1,1.1E1,6E0,7E0,-1.2647257E1,-9.700862E0,-6.110201E0,-3.006179E0,5.0268114E-1,3.312606E0,-3.617463E0,4.321677E0,3.4196658E0,1.0123916E1,9.792234E0,1.5865288E1,1.8207626E1,2.6347963E1],"split_indices":[1,0,0,0,0,0,1,0,0,0,0,1,1,0,0,0,0,0,0,0,0,0,0,0,0,0,0,0,0],"split_type":[0,0,0,0,0,0,0,0,0,0,0,0,0,0,0,0,0,0,0,0,0,0,0,0,0,0,0,0,0],"sum_hessian":[7.05E2,4.3E2,2.75E2,1.62E2,2.68E2,1.66E2,1.09E2,6.3E1,9.9E1,1.24E2,1.44E2,8.5E1,8.1E1,5.3E1,5.6E1,4.8E1,5.1E1,6.2E1,6.2E1,6.8E1,7.6E1,5.2E1,3.3E1,2.8E1,5.3E1,2.5E1,2.8E1,3.7E1,1.9E1],"tree_param":{"num_deleted":"0","num_feature":"2","num_nodes":"29","size_leaf_vector":"1"}},{"base_weights":[3.9019494E0,-6.075671E1,1.04546745E2,-1.3096983E2,9.741655E0,1.3706381E1,1.7465257E2,-1.7462096E2,-8.928483E1,-2.6834402E0,2.7333149E1,-6.9004105E1,3.9629185E1,1.252992E2,2.3208662E2,-1.5582667E1,-1.1452651E1,-8.873696E0,-5.6831455E0,6.46574E-1,3.4934673E0,-8.185373E0,-2.0802538E0,-5.746712E-1,5.177249E0,6.4443903E0,1.217164E1,1.2910668E1,2.089041E1],"categories":[],"categories_nodes":[],"categories_segments":[],"categories_sizes":[],"default_left":[0,0,0,0,0,0,0,0,0,0,0,0,0,0,0,0,0,0,0,0,0,0,0,0,0,0,0,0,0],"id":9,"left_children":[1,3,5,7,9,11,13,15,17,-1,19,21,23,25,27,-1,-1,-1,-1,-1,-1,-1,-1,-1,-1,-1,-1,-1,-1],"loss_changes":[4.5421195E6,2.104988E6,1.73619E6,3.719835E5,1.6310392E5,2.600251E5,4.074425E5,3.74545E4,3.5939312E4,0E0,4.7446273E4,3.888172E4,1.0850603E5,8.9847625E4,1.0160075E5,0E0,0E0,0E0,0E0,0E0,0E0,0E0,0E0,0E0,0E0,0E0,0E0,0E0,0E0],"parents":[2147483647,0,0,1,1,2,2,3,3,4,4,5,5,6,6,7,7,8,8,10,10,11,11,12,12,13,13,14,14],"right_children":[2,4,6,8,10,12,14,16,18,-1,20,22,24,26,28,-1,-1,-1,-1,-1,-1,-1,-1,-1,-1,-1,-1,-1,-1],"split_conditions":[1E0,5E0,4E0,3E0,6E0,8E0,6E0,2E0,4E0,-2.6834402E0,7E0,2E0,2E0,9E0,9E0,-1.5582667E1,-1.1452651E1,-8.873696E0,-5.6831455E0,6.46574E-1,3.4934673E0,-8.185373E0,-2.0802538E0,-5.746712E-1,5.177249E0,6.4443903E0,1.217164E1,1.2910668E1,2.089041E1],"split_indices":[1,0,0,0,0,1,0,0,0,0,0,0,0,1,1,0,0,0,0,0,0,0,0,0,0,0,0,0,0],"split_type":[0,0,0,0,0,0,0,0,0,0,0,0,0,0,0,0,0,0,0,0,0,0,0,0,0,0,0,0,0],"sum_hessian":[6.96E2,4.24E2,2.72E2,2.12E2,2.12E2,1.19E2,1.53E2,1.02E2,1.1E2,6.1E1,1.51E2,2.8E1,9.1E1,8.4E1,6.9E1,5.9E1,4.3E1,4.8E1,6.2E1,7E1,8.1E1,1.5E1,1.3E1,3.2E1,5.9E1,3.3E1,5.1E1,2.2E1,4.7E1],"tree_param":{"num_deleted":"0","num_feature":"2","num_nodes":"29","size_leaf_vector":"1"}},{"base_weights":[-8.7103313E-1,-6.0277664E1,9.1874825E1,-1.4532553E2,-8.080715E0,1.54648285E1,1.5888722E2,-1.4340787E1,-1.23698105E2,-4.888169E1,3.0723671E1,-3.8297943E1,5.8705086E1,1.3450201E2,2.0025518E1,-1.1196355E1,-8.380028E0,-5.160239E0,-2.4599035E0,9.5741117E-1,3.689117E0,-6.188736E0,-4.1425544E-1,2.867288E0,8.093623E0,8.109706E0,1.479002E1],"categories":[],"categories_nodes":[],"categories_segments":[],"categories_sizes":[],"default_left":[0,0,0,0,0,0,0,0,0,0,0,0,0,0,0,0,0,0,0,0,0,0,0,0,0,0,0],"id":10,"left_children":[1,3,5,7,9,11,13,-1,15,17,19,21,23,25,-1,-1,-1,-1,-1,-1,-1,-1,-1,-1,-1,-1,-1],"loss_changes":[3.9229482E6,1.9254555E6,1.421019E6,9.892175E4,4.289812E5,3.067861E5,2.963095E5,0E0,1.7373875E4,3.5406844E4,3.9571984E4,7.592766E4,6.725139E4,1.7985825E5,0E0,0E0,0E0,0E0,0E0,0E0,0E0,0E0,0E0,0E0,0E0,0E0,0E0],"parents":[2147483647,0,0,1,1,2,2,3,3,4,4,5,5,6,6,8,8,9,9,10,10,11,11,12,12,13,13],"right_children":[2,4,6,8,10,12,14,-1,16,18,20,22,24,26,-1,-1,-1,-1,-1,-1,-1,-1,-1,-1,-1,-1,-1],"split_conditions":[1E0,4E0,4E0,2E0,6E0,1.2E1,1.8E1,-1.4340787E1,3E0,5E0,7E0,2E0,2E1,6E0,2.0025518E1,-1.1196355E1,-8.380028E0,-5.160239E0,-2.4599035E0,9.5741117E-1,3.689117E0,-6.188736E0,-4.1425544E-1,2.867288E0,8.093623E0,8.109706E0,1.479002E1],"split_indices":[1,0,0,0,0,1,1,0,0,0,0,0,1,0,0,0,0,0,0,0,0,0,0,0,0,0,0],"split_type":[0,0,0,0,0,0,0,0,0,0,0,0,0,0,0,0,0,0,0,0,0,0,0,0,0,0,0],"sum_hessian":[7.1E2,4.33E2,2.77E2,1.64E2,2.69E2,1.3E2,1.47E2,6.1E1,1.03E2,1.31E2,1.38E2,5.8E1,7.2E1,1.18E2,2.9E1,5.2E1,5.1E1,6.9E1,6.2E1,6.3E1,7.5E1,2.6E1,3.2E1,4.8E1,2.4E1,7.3E1,4.5E1],"tree_param":{"num_deleted":"0","num_feature":"2","num_nodes":"27","size_leaf_vector":"1"}},{"base_weights":[1.3580742E0,-5.5926483E1,8.945145E1,-1.138231E2,7.044121E0,1.4569789E1,1.5368153E2,-1.48728E2,-7.693148E1,-2.051275E0,2.172581E1,-5.666815E1,3.7682487E1,1.12016945E2,2.0300212E2,-1.3420874E1,-9.921279E0,-7.578731E0,-4.8862376E0,4.5083472E-1,2.7884734E0,-6.825094E0,-2.1099384E0,-9.076065E-1,4.7583303E0,6.6309977E0,1.1967817E1,9.3997135E0,1.7561728E1],"categories":[],"categories_nodes":[],"categories_segments":[],"categories_sizes":[],"default_left":[0,0,0,0,0,0,0,0,0,0,0,0,0,0,0,0,0,0,0,0,0,0,0,0,0,0,0,0,0],"id":11,"left_children":[1,3,5,7,9,11,13,15,17,-1,19,21,23,25,27,-1,-1,-1,-1,-1,-1,-1,-1,-1,-1,-1,-1,-1,-1],"loss_changes":[3.5475685E6,1.5539062E6,1.3300352E6,2.74427E5,9.893081E4,2.1453405E5,2.8344375E5,3.23435E4,2.5259625E4,0E0,2.9803688E4,2.5519047E4,1.0540117E5,7.8461E4,6.884525E4,0E0,0E0,0E0,0E0,0E0,0E0,0E0,0E0,0E0,0E0,0E0,0E0,0E0,0E0],"parents":[2147483647,0,0,1,1,2,2,3,3,4,4,5,5,6,6,7,7,8,8,10,10,11,11,12,12,13,13,14,14],"right_children":[2,4,6,8,10,12,14,16,18,-1,20,22,24,26,28,-1,-1,-1,-1,-1,-1,-1,-1,-1,-1,-1,-1,-1,-1],"split_conditions":[1E0,5E0,4E0,3E0,6E0,8E0,6E0,2E0,4E0,-2.051275E0,7E0,2E0,2E0,1.4E1,7E0,-1.3420874E1,-9.921279E0,-7.578731E0,-4.8862376E0,4.5083472E-1,2.7884734E0,-6.825094E0,-2.1099384E0,-9.076065E-1,4.7583303E0,6.6309977E0,1.1967817E1,9.3997135E0,1.7561728E1],"split_indices":[1,0,0,0,0,1,0,0,0,0,0,0,0,1,1,0,0,0,0,0,0,0,0,0,0,0,0,0,0],"split_type":[0,0,0,0,0,0,0,0,0,0,0,0,0,0,0,0,0,0,0,0,0,0,0,0,0,0,0,0,0],"sum_hessian":[7.01E2,4.25E2,2.76E2,2.21E2,2.04E2,1.28E2,1.48E2,1.12E2,1.09E2,6.3E1,1.41E2,3.1E1,9.7E1,8.2E1,6.6E1,6E1,5.2E1,4.9E1,6E1,6.4E1,7.7E1,1.5E1,1.6E1,3E1,6.7E1,4.8E1,3.4E1,1.2E1,5.4E1],"tree_param":{"num_deleted":"0","num_feature":"2","num_nodes":"29","size_leaf_vector":"1"}},{"base_weights":[3.8502913E0,-4.70178E1,8.7022354E1,-1.19655304E2,-4.7387466E0,3.7075645E1,1.6446745E2,-1.4812552E2,-1.0013205E2,-3.595896E1,2.5407978E1,-2.6535593E1,5.9374886E1,1.4179663E2,1.8434832E1,-1.2105713E1,-6.463105E0,-8.148456E0,-2.732988E0,-3.1555934E0,2.7133815E0,1.8345424E0,1.0533529E1,-3.2832253E0,4.3138423E0,2.8666735E0,8.636282E0,7.9919257E0,1.2556004E1],"categories":[],"categories_nodes":[],"categories_segments":[],"categories_sizes":[],"default_left":[0,0,0,0,0,0,0,0,0,0,0,0,0,0,0,0,0,0,0,0,0,0,0,0,0,0,0,0,0],"id":12,"left_children":[1,3,5,7,9,11,13,15,17,19,21,23,25,27,-1,-1,-1,-1,-1,-1,-1,-1,-1,-1,-1,-1,-1,-1,-1],"loss_changes":[2.9656542E6,1.3353374E6,1.02282425E6,7.4101E4,2.6068131E5,2.3278817E5,1.2286225E5,1.3325E3,7.6638125E3,3.446553E4,3.4081008E4,5.2395305E4,1.3450869E5,3.5112125E4,0E0,0E0,0E0,0E0,0E0,0E0,0E0,0E0,0E0,0E0,0E0,0E0,0E0,0E0,0E0],"parents":[2147483647,0,0,1,1,2,2,3,3,4,4,5,5,6,6,7,7,8,8,9,9,10,10,11,11,12,12,13,13],"right_children":[2,4,6,8,10,12,14,16,18,20,22,24,26,28,-1,-1,-1,-1,-1,-1,-1,-1,-1,-1,-1,-1,-1,-1,-1],"split_conditions":[2E0,4E0,5E0,2E0,6E0,2E0,1.9E1,1E0,1E0,1E0,1E0,2E1,1.7E1,7E0,1.8434832E1,-1.2105713E1,-6.463105E0,-8.148456E0,-2.732988E0,-3.1555934E0,2.7133815E0,1.8345424E0,1.0533529E1,-3.2832253E0,4.3138423E0,2.8666735E0,8.636282E0,7.9919257E0,1.2556004E1],"split_indices":[1,0,0,0,0,0,1,1,1,1,1,1,1,1,0,0,0,0,0,0,0,0,0,0,0,0,0,0,0],"split_type":[0,0,0,0,0,0,0,0,0,0,0,0,0,0,0,0,0,0,0,0,0,0,0,0,0,0,0,0,0],"sum_hessian":[6.99E2,4.34E2,2.65E2,1.59E2,2.75E2,1.62E2,1.03E2,6.2E1,9.7E1,1.35E2,1.4E2,4.2E1,1.2E2,7.9E1,2.4E1,5.8E1,4E0,9.4E1,3E0,1.29E2,6E0,1.38E2,2E0,3.6E1,6E0,8.2E1,3.8E1,2.3E1,5.6E1],"tree_param":{"num_deleted":"0","num_feature":"2","num_nodes":"29","size_leaf_vector":"1"}},{"base_weights":[-1.6604261E0,-4.873193E1,7.2193275E1,-9.681397E1,6.22218E0,2.6676188E1,1.4838531E2,-1.3075195E2,-6.433175E1,-1.0378292E1,2.7753623E0,-6.429313E0,6.389735E1,1.1470741E2,1.9651512E2,-1.1386401E1,-9.083883E0,-6.263217E0,-4.2303987E0,-1.8548998E0,2.0714633E-1,-1.9630129E0,5.6308274E0,9.2816806E-1,6.7269583E0,7.222146E0,1.2490692E1,1.3385289E1,1.9270107E1],"categories":[],"categories_nodes":[],"categories_segments":[],"categories_sizes":[],"default_left":[0,0,0,0,0,0,0,0,0,0,0,0,0,0,0,0,0,0,0,0,0,0,0,0,0,0,0,0,0],"id":13,"left_children":[1,3,5,7,9,11,13,15,17,19,-1,21,23,25,27,-1,-1,-1,-1,-1,-1,-1,-1,-1,-1,-1,-1,-1,-1],"loss_changes":[2.4648128E6,1.144721E6,9.532206E5,2.462385E5,9.630047E4,2.1481798E5,1.44412E5,6.147E3,1.5041875E4,2.148548E4,0E0,1.3108884E5,8.560184E4,4.9665E4,1.2805E4,0E0,0E0,0E0,0E0,0E0,0E0,0E0,0E0,0E0,0E0,0E0,0E0,0E0,0E0],"parents":[2147483647,0,0,1,1,2,2,3,3,4,4,5,5,6,6,7,7,8,8,9,9,11,11,12,12,13,13,14,14],"right_children":[2,4,6,8,10,12,14,16,18,20,-1,22,24,26,28,-1,-1,-1,-1,-1,-1,-1,-1,-1,-1,-1,-1,-1,-1],"split_conditions":[1E0,5E0,5E0,3E0,7E0,3E0,1.4E1,2E0,4E0,6E0,2.7753623E0,2E1,9E0,7E0,7E0,-1.1386401E1,-9.083883E0,-6.263217E0,-4.2303987E0,-1.8548998E0,2.0714633E-1,-1.9630129E0,5.6308274E0,9.2816806E-1,6.7269583E0,7.222146E0,1.2490692E1,1.3385289E1,1.9270107E1],"split_indices":[1,0,0,0,0,0,1,0,0,0,0,1,1,0,0,0,0,0,0,0,0,0,0,0,0,0,0,0,0],"split_type":[0,0,0,0,0,0,0,0,0,0,0,0,0,0,0,0,0,0,0,0,0,0,0,0,0,0,0,0,0],"sum_hessian":[7.07E2,4.32E2,2.75E2,2.3E2,2.02E2,1.73E2,1.02E2,1.11E2,1.19E2,1.28E2,7.4E1,9.2E1,8.1E1,6.2E1,4E1,6.2E1,4.9E1,5.1E1,6.8E1,6.4E1,6.4E1,7.5E1,1.7E1,2.3E1,5.8E1,4.1E1,2.1E1,2.7E1,1.3E1],"tree_param":{"num_deleted":"0","num_feature":"2","num_nodes":"29","size_leaf_vector":"1"}},{"base_weights":[1.4266149E0,-3.995095E1,7.733535E1,-1.0539647E2,9.4911015E-1,3.539456E1,1.433729E2,-1.0241911E1,-8.7947205E1,-2.669593E1,2.5972666E1,1.8701511E1,9.3270195E1,1.19053505E2,1.6614225E1,-7.149942E0,-2.4512255E0,-2.5267434E0,2.4668918E0,1.6665206E0,1.0124349E1,-9.418335E-1,3.8695822E0,5.022113E0,9.605699E0,6.23554E0,1.05050535E1],"categories":[],"categories_nodes":[],"categories_segments":[],"categories_sizes":[],"default_left":[0,0,0,0,0,0,0,0,0,0,0,0,0,0,0,0,0,0,0,0,0,0,0,0,0,0,0],"id":14,"left_children":[1,3,5,7,9,11,13,-1,15,17,19,21,23,25,-1,-1,-1,-1,-1,-1,-1,-1,-1,-1,-1,-1,-1],"loss_changes":[2.2080145E6,1.2180102E6,6.8180275E5,5.783625E4,1.9508277E5,1.4607219E5,1.25405625E5,0E0,5.6031875E3,3.865978E4,7.389544E4,1.09064266E5,2.0249344E4,2.6051812E4,0E0,0E0,0E0,0E0,0E0,0E0,0E0,0E0,0E0,0E0,0E0,0E0,0E0],"parents":[2147483647,0,0,1,1,2,2,3,3,4,4,5,5,6,6,8,8,9,9,10,10,11,11,12,12,13,13],"right_children":[2,4,6,8,10,12,14,-1,16,18,20,22,24,26,-1,-1,-1,-1,-1,-1,-1,-1,-1,-1,-1,-1,-1],"split_conditions":[3E0,4E0,5E0,2E0,6E0,2E1,1.9E1,-1.0241911E1,1E0,1E0,1E0,3E0,3E0,7E0,1.6614225E1,-7.149942E0,-2.4512255E0,-2.5267434E0,2.4668918E0,1.6665206E0,1.0124349E1,-9.418335E-1,3.8695822E0,5.022113E0,9.605699E0,6.23554E0,1.05050535E1],"split_indices":[1,0,0,0,0,1,1,0,1,1,1,0,0,1,0,0,0,0,0,0,0,0,0,0,0,0,0],"split_type":[0,0,0,0,0,0,0,0,0,0,0,0,0,0,0,0,0,0,0,0,0,0,0,0,0,0,0],"sum_hessian":[7.01E2,4.54E2,2.47E2,1.74E2,2.8E2,1.52E2,9.5E1,7.3E1,1.01E2,1.33E2,1.47E2,1.19E2,3.3E1,7.1E1,2.4E1,9.8E1,3E0,1.23E2,1E1,1.41E2,6E0,5.9E1,6E1,1.7E1,1.6E1,1.8E1,5.3E1],"tree_param":{"num_deleted":"0","num_feature":"2","num_nodes":"27","size_leaf_vector":"1"}},{"base_weights":[2.6194217E0,-3.2779854E1,7.6305756E1,-9.156382E1,2.7547905E0,2.395365E1,1.2496811E2,-9.414509E0,-7.299261E1,-2.035404E1,2.4802225E1,6.102666E0,6.1965405E1,1.05710754E2,1.4757352E1,-6.1179633E0,-2.8015642E0,-2.342698E0,3.0608113E0,1.4382138E0,6.983962E0,-6.6471696E-1,3.1100028E0,1.6622627E0,5.99399E0,7.4766583E0,1.345395E1],"categories":[],"categories_nodes":[],"categories_segments":[],"categories_sizes":[],"default_left":[0,0,0,0,0,0,0,0,0,0,0,0,0,0,0,0,0,0,0,0,0,0,0,0,0,0,0],"id":15,"left_children":[1,3,5,7,9,11,13,-1,15,17,19,21,23,25,-1,-1,-1,-1,-1,-1,-1,-1,-1,-1,-1,-1,-1],"loss_changes":[1.8649294E6,1.00917525E6,5.880445E5,7.96865E4,1.5437094E5,7.629767E4,1.17994625E5,0E0,1.173375E4,7.858455E4,6.4540555E4,3.716266E4,1.7658688E4,5.5459E4,0E0,0E0,0E0,0E0,0E0,0E0,0E0,0E0,0E0,0E0,0E0,0E0,0E0],"parents":[2147483647,0,0,1,1,2,2,3,3,4,4,5,5,6,6,8,8,9,9,10,10,11,11,12,12,13,13],"right_children":[2,4,6,8,10,12,14,-1,16,18,20,22,24,26,-1,-1,-1,-1,-1,-1,-1,-1,-1,-1,-1,-1,-1],"split_conditions":[6E0,4E0,4E0,2E0,6E0,1.8E1,7E0,-9.414509E0,1E0,1E0,1E0,3E0,2E0,2.1E1,1.4757352E1,-6.1179633E0,-2.8015642E0,-2.342698E0,3.0608113E0,1.4382138E0,6.983962E0,-6.6471696E-1,3.1100028E0,1.6622627E0,5.99399E0,7.4766583E0,1.345395E1],"split_indices":[1,0,0,0,0,1,0,0,1,1,1,0,0,1,0,0,0,0,0,0,0,0,0,0,0,0,0],"split_type":[0,0,0,0,0,0,0,0,0,0,0,0,0,0,0,0,0,0,0,0,0,0,0,0,0,0,0],"sum_hessian":[7.13E2,4.82E2,2.31E2,1.81E2,3.01E2,1.12E2,1.19E2,7.3E1,1.08E2,1.47E2,1.54E2,7.7E1,3.5E1,9.2E1,2.7E1,9.8E1,1E1,1.28E2,1.9E1,1.4E2,1.4E1,5.4E1,2.3E1,9E0,2.6E1,7.9E1,1.3E1],"tree_param":{"num_deleted":"0","num_feature":"2","num_nodes":"27","size_leaf_vector":"1"}},{"base_weights":[-1.3477497E0,-3.3531303E1,7.396206E1,-7.1866585E1,1.28342E1,2.4536354E1,1.1858412E2,-9.542005E1,-4.609556E1,1.533186E-1,3.621773E1,8.194008E0,5.8497078E1,1.0049939E2,1.7175522E2,-8.641804E0,-6.2746234E0,-4.2969885E0,5.43777E-1,-3.9822426E-1,5.5116014E0,2.5425577E0,6.672845E0,-2.6407248E-1,2.5903094E0,1.6164672E0,5.4728312E0,7.1275353E0,1.240469E1,1.0174262E1,1.5677316E1],"categories":[],"categories_nodes":[],"categories_segments":[],"categories_sizes":[],"default_left":[0,0,0,0,0,0,0,0,0,0,0,0,0,0,0,0,0,0,0,0,0,0,0,0,0,0,0,0,0,0,0],"id":16,"left_children":[1,3,5,7,9,11,13,15,17,19,21,23,25,27,29,-1,-1,-1,-1,-1,-1,-1,-1,-1,-1,-1,-1,-1,-1,-1,-1],"loss_changes":[1.6675876E6,8.576459E5,4.5141862E5,1.5584888E5,6.4933152E4,5.4465473E4,8.659E4,2.0856625E4,5.1932906E4,5.07822E4,1.3467922E4,1.9011074E4,1.07646875E4,3.7832625E4,3.138125E3,0E0,0E0,0E0,0E0,0E0,0E0,0E0,0E0,0E0,0E0,0E0,0E0,0E0,0E0,0E0,0E0],"parents":[2147483647,0,0,1,1,2,2,3,3,4,4,5,5,6,6,7,7,8,8,9,9,10,10,11,11,12,12,13,13,14,14],"right_children":[2,4,6,8,10,12,14,16,18,20,22,24,26,28,30,-1,-1,-1,-1,-1,-1,-1,-1,-1,-1,-1,-1,-1,-1,-1,-1],"split_conditions":[7E0,5E0,4E0,3E0,7E0,1.8E1,7E0,2E0,1E0,4E0,1E0,3E0,2E0,2.1E1,1.6E1,-8.641804E0,-6.2746234E0,-4.2969885E0,5.43777E-1,-3.9822426E-1,5.5116014E0,2.5425577E0,6.672845E0,-2.6407248E-1,2.5903094E0,1.6164672E0,5.4728312E0,7.1275353E0,1.240469E1,1.0174262E1,1.5677316E1],"split_indices":[1,0,0,0,0,1,0,0,1,1,1,0,0,1,1,0,0,0,0,0,0,0,0,0,0,0,0,0,0,0,0],"split_type":[0,0,0,0,0,0,0,0,0,0,0,0,0,0,0,0,0,0,0,0,0,0,0,0,0,0,0,0,0,0,0],"sum_hessian":[6.86E2,4.81E2,2.05E2,2.63E2,2.18E2,9.8E1,1.07E2,1.36E2,1.27E2,1.42E2,7.6E1,6.7E1,3.1E1,8.2E1,2.5E1,7.5E1,6.1E1,1.11E2,1.6E1,1.33E2,9E0,7.1E1,5E0,4.6E1,2.1E1,7E0,2.4E1,7E1,1.2E1,1.1E1,1.4E1],"tree_param":{"num_deleted":"0","num_feature":"2","num_nodes":"31","size_leaf_vector":"1"}},{"base_weights":[1.5851839E0,-3.027259E1,6.380912E1,-7.7522285E1,-3.169799E0,2.9389223E1,1.15492485E2,-7.882717E0,-6.3976852E1,-1.6206255E1,2.9075205E1,1.6776407E1,7.633828E1,9.784513E1,1.3503996E1,-5.7986846E0,-4.253585E0,-2.7076025E0,-5.562424E-1,1.8195895E0,7.709118E0,-4.264835E-1,3.1814885E0,3.9011614E0,8.052885E0,6.797472E0,1.0597618E1],"categories":[],"categories_nodes":[],"categories_segments":[],"categories_sizes":[],"default_left":[0,0,0,0,0,0,0,0,0,0,0,0,0,0,0,0,0,0,0,0,0,0,0,0,0,0,0],"id":17,"left_children":[1,3,5,7,9,11,13,-1,15,17,19,21,23,25,-1,-1,-1,-1,-1,-1,-1,-1,-1,-1,-1,-1,-1],"loss_changes":[1.3816238E6,5.9011025E5,4.1643462E5,4.1510938E4,1.240572E5,8.3398164E4,7.1913E4,0E0,5.7989375E3,3.4039938E4,3.4014867E4,5.8158094E4,1.5211422E4,2.1291812E4,0E0,0E0,0E0,0E0,0E0,0E0,0E0,0E0,0E0,0E0,0E0,0E0,0E0],"parents":[2147483647,0,0,1,1,2,2,3,3,4,4,5,5,6,6,8,8,9,9,10,10,11,11,12,12,13,13],"right_children":[2,4,6,8,10,12,14,-1,16,18,20,22,24,26,-1,-1,-1,-1,-1,-1,-1,-1,-1,-1,-1,-1,-1],"split_conditions":[4E0,4E0,5E0,2E0,7E0,2E1,1.9E1,-7.882717E0,3E0,5E0,1E0,3E0,3E0,7E0,1.3503996E1,-5.7986846E0,-4.253585E0,-2.7076025E0,-5.562424E-1,1.8195895E0,7.709118E0,-4.264835E-1,3.1814885E0,3.9011614E0,8.052885E0,6.797472E0,1.0597618E1],"split_indices":[1,0,0,0,0,1,1,0,0,0,1,0,0,0,0,0,0,0,0,0,0,0,0,0,0,0,0],"split_type":[0,0,0,0,0,0,0,0,0,0,0,0,0,0,0,0,0,0,0,0,0,0,0,0,0,0,0],"sum_hessian":[6.95E2,4.6E2,2.35E2,1.67E2,2.93E2,1.42E2,9.3E1,6.3E1,1.04E2,2.09E2,8.4E1,1.13E2,2.9E1,7.2E1,2.1E1,5.5E1,4.9E1,7.1E1,1.38E2,7.8E1,6E0,5.8E1,5.5E1,1.5E1,1.4E1,5.5E1,1.7E1],"tree_param":{"num_deleted":"0","num_feature":"2","num_nodes":"27","size_leaf_vector":"1"}},{"base_weights":[-1.5208776E0,-2.8322403E1,6.1231857E1,-7.389148E1,2.314935E-1,3.0464443E1,1.1137509E2,-9.423873E1,-6.0728245E1,-1.1441119E1,2.8320183E1,1.5304337E1,6.8360916E1,9.181174E1,1.4922789E2,-7.736595E0,-2.1487596E0,-5.2301917E0,-1.6686181E0,-1.479651E0,2.4289367E0,1.6681614E0,6.938169E0,-5.2785385E-1,3.0996213E0,2.1970787E0,6.1367917E0,5.9204855E0,8.302708E0,7.8531857E0,1.3029922E1],"categories":[],"categories_nodes":[],"categories_segments":[],"categories_sizes":[],"default_left":[0,0,0,0,0,0,0,0,0,0,0,0,0,0,0,0,0,0,0,0,0,0,0,0,0,0,0,0,0,0,0],"id":18,"left_children":[1,3,5,7,9,11,13,15,17,19,21,23,25,27,29,-1,-1,-1,-1,-1,-1,-1,-1,-1,-1,-1,-1,-1,-1,-1,-1],"loss_changes":[1.2025888E6,6.519056E5,3.2676138E5,4.5969375E4,1.0163534E5,7.593875E4,4.6281875E4,9.7116875E3,2.0880031E4,6.514439E4,3.7885086E4,5.005692E4,1.08684375E4,4.2569688E3,2.1286875E3,0E0,0E0,0E0,0E0,0E0,0E0,0E0,0E0,0E0,0E0,0E0,0E0,0E0,0E0,0E0,0E0],"parents":[2147483647,0,0,1,1,2,2,3,3,4,4,5,5,6,6,7,7,8,8,9,9,10,10,11,11,12,12,13,13,14,14],"right_children":[2,4,6,8,10,12,14,16,18,20,22,24,26,28,30,-1,-1,-1,-1,-1,-1,-1,-1,-1,-1,-1,-1,-1,-1,-1,-1],"split_conditions":[7E0,4E0,5E0,2E0,7E0,1.9E1,7E0,6E0,1E0,1E0,1E0,3E0,2E0,1.4E1,1.1E1,-7.736595E0,-2.1487596E0,-5.2301917E0,-1.6686181E0,-1.479651E0,2.4289367E0,1.6681614E0,6.938169E0,-5.2785385E-1,3.0996213E0,2.1970787E0,6.1367917E0,5.9204855E0,8.302708E0,7.8531857E0,1.3029922E1],"split_indices":[1,0,0,0,0,1,0,1,1,1,1,0,0,1,1,0,0,0,0,0,0,0,0,0,0,0,0,0,0,0,0],"split_type":[0,0,0,0,0,0,0,0,0,0,0,0,0,0,0,0,0,0,0,0,0,0,0,0,0,0,0,0,0,0,0],"sum_hessian":[7.13E2,5E2,2.13E2,1.92E2,3.08E2,1.33E2,8E1,7.3E1,1.19E2,2.18E2,9E1,9.6E1,3.7E1,5.5E1,2.5E1,7E1,3E0,1.06E2,1.3E1,1.87E2,3.1E1,8.1E1,9E0,5E1,4.6E1,7E0,3E1,2.5E1,3E1,7E0,1.8E1],"tree_param":{"num_deleted":"0","num_feature":"2","num_nodes":"31","size_leaf_vector":"1"}},{"base_weights":[1.9259103E-2,-2.3895754E1,5.5137577E1,-5.6235825E1,1.1184046E1,2.4163733E1,1.0416798E2,-7.554893E1,-3.5690453E1,5.0022807E0,5.1303856E1,8.70906E0,6.0001324E1,8.698993E1,1.391672E2,-6.2350297E0,-1.0868652E0,-3.3254657E0,3.0005917E-1,-1.4416978E0,1.1648536E0,3.032859E0,6.3864226E0,-1.1530572E0,2.4923258E0,2.7655885E0,7.020066E0,6.1462536E0,1.016539E1,6.8893857E0,1.2725291E1],"categories":[],"categories_nodes":[],"categories_segments":[],"categories_sizes":[],"default_left":[0,0,0,0,0,0,0,0,0,0,0,0,0,0,0,0,0,0,0,0,0,0,0,0,0,0,0,0,0,0,0],"id":19,"left_children":[1,3,5,7,9,11,13,15,17,19,21,23,25,27,29,-1,-1,-1,-1,-1,-1,-1,-1,-1,-1,-1,-1,-1,-1,-1,-1],"loss_changes":[9.1479925E5,5.4971875E5,3.164015E5,9.7295875E4,5.752998E4,7.1479E4,3.6592625E4,1.8036625E4,2.890286E4,4.4936125E4,8.817359E3,4.819517E4,2.4489188E4,1.34513125E4,1.2692531E4,0E0,0E0,0E0,0E0,0E0,0E0,0E0,0E0,0E0,0E0,0E0,0E0,0E0,0E0,0E0,0E0],"parents":[2147483647,0,0,1,1,2,2,3,3,4,4,5,5,6,6,7,7,8,8,9,9,10,10,11,11,12,12,13,13,14,14],"right_children":[2,4,6,8,10,12,14,16,18,20,22,24,26,28,30,-1,-1,-1,-1,-1,-1,-1,-1,-1,-1,-1,-1,-1,-1,-1,-1],"split_conditions":[7E0,5E0,5E0,3E0,1E0,1.9E1,7E0,6E0,1E0,6E0,7E0,3E0,3E0,2E1,1.1E1,-6.2350297E0,-1.0868652E0,-3.3254657E0,3.0005917E-1,-1.4416978E0,1.1648536E0,3.032859E0,6.3864226E0,-1.1530572E0,2.4923258E0,2.7655885E0,7.020066E0,6.1462536E0,1.016539E1,6.8893857E0,1.2725291E1],"split_indices":[1,0,0,0,1,1,0,1,1,0,0,0,0,1,1,0,0,0,0,0,0,0,0,0,0,0,0,0,0,0,0],"split_type":[0,0,0,0,0,0,0,0,0,0,0,0,0,0,0,0,0,0,0,0,0,0,0,0,0,0,0,0,0,0,0],"sum_hessian":[6.92E2,4.83E2,2.09E2,2.51E2,2.32E2,1.29E2,8E1,1.28E2,1.23E2,2.02E2,3E1,9.1E1,3.8E1,5.6E1,2.4E1,1.23E2,5E0,1.07E2,1.6E1,5.9E1,1.43E2,2.2E1,8E0,4.5E1,4.6E1,2.1E1,1.7E1,4.7E1,9E0,8E0,1.6E1],"tree_param":{"num_deleted":"0","num_feature":"2","num_nodes":"31","size_leaf_vector":"1"}},{"base_weights":[3.38534E-1,-2.2301271E1,5.3303574E1,-5.079513E1,1.1201453E1,1.4993047E1,8.84017E1,-6.908151E1,-3.2538204E1,5.75087E0,4.771035E1,-6.012707E0,3.4554165E1,7.394543E1,1.2722674E2,-5.6922607E0,-1.0144043E0,-3.0700426E0,4.833357E-1,-7.6148935E-2,1.3762312E0,2.9056723E0,5.3485723E0,-1.9919015E0,5.5800277E-1,6.573574E-1,3.4853408E0,4.996537E0,8.278701E0,7.0540805E0,1.123126E1],"categories":[],"categories_nodes":[],"categories_segments":[],"categories_sizes":[],"default_left":[0,0,0,0,0,0,0,0,0,0,0,0,0,0,0,0,0,0,0,0,0,0,0,0,0,0,0,0,0,0,0],"id":20,"left_children":[1,3,5,7,9,11,13,15,17,19,21,23,25,27,29,-1,-1,-1,-1,-1,-1,-1,-1,-1,-1,-1,-1,-1,-1,-1,-1],"loss_changes":[8.6095644E5,4.807438E5,2.8776956E5,8.856025E4,4.5892414E4,4.2940945E4,5.3453875E4,1.48725E4,3.1309969E4,1.5598619E4,4.113828E3,1.2683322E4,1.24598125E4,2.2042812E4,2.5287812E3,0E0,0E0,0E0,0E0,0E0,0E0,0E0,0E0,0E0,0E0,0E0,0E0,0E0,0E0,0E0,0E0],"parents":[2147483647,0,0,1,1,2,2,3,3,4,4,5,5,6,6,7,7,8,8,9,9,10,10,11,11,12,12,13,13,14,14],"right_children":[2,4,6,8,10,12,14,16,18,20,22,24,26,28,30,-1,-1,-1,-1,-1,-1,-1,-1,-1,-1,-1,-1,-1,-1,-1,-1],"split_conditions":[7E0,5E0,4E0,3E0,1E0,1.5E1,7E0,6E0,1E0,7E0,7E0,2E0,2E0,1.8E1,1.1E1,-5.6922607E0,-1.0144043E0,-3.0700426E0,4.833357E-1,-7.6148935E-2,1.3762312E0,2.9056723E0,5.3485723E0,-1.9919015E0,5.5800277E-1,6.573574E-1,3.4853408E0,4.996537E0,8.278701E0,7.0540805E0,1.123126E1],"split_indices":[1,0,0,0,1,1,0,1,1,0,0,0,0,1,1,0,0,0,0,0,0,0,0,0,0,0,0,0,0,0,0],"split_type":[0,0,0,0,0,0,0,0,0,0,0,0,0,0,0,0,0,0,0,0,0,0,0,0,0,0,0,0,0,0,0],"sum_hessian":[7.16E2,5.02E2,2.14E2,2.71E2,2.31E2,1.03E2,1.11E2,1.34E2,1.37E2,2.02E2,2.9E1,5E1,5.3E1,8.3E1,2.8E1,1.29E2,5E0,1.19E2,1.8E1,1.28E2,7.4E1,2E1,9E0,2E1,3E1,1.4E1,3.9E1,6.2E1,2.1E1,9E0,1.9E1],"tree_param":{"num_deleted":"0","num_feature":"2","num_nodes":"31","size_leaf_vector":"1"}},{"base_weights":[1.5186415E0,-2.4210983E1,4.1958668E1,-6.0479885E1,-2.8349931E0,1.476341E1,8.274105E1,-5.537641E0,-3.0623047E0,-1.820149E1,1.117337E1,-2.4138567E0,4.0693523E1,6.42113E1,1.08491104E2,-2.0133493E0,-8.854728E-1,7.000204E-2,1.5812778E0,-1.5332121E0,1.2312635E0,6.324693E-1,3.8752356E0,4.2110515E0,6.839282E0,7.36494E0,1.0410865E1],"categories":[],"categories_nodes":[],"categories_segments":[],"categories_sizes":[],"default_left":[0,0,0,0,0,0,0,0,0,0,0,0,0,0,0,0,0,0,0,0,0,0,0,0,0,0,0],"id":21,"left_children":[1,3,5,7,9,11,13,-1,-1,15,17,19,21,23,25,-1,-1,-1,-1,-1,-1,-1,-1,-1,-1,-1,-1],"loss_changes":[7.439376E5,3.3862747E5,3.0710484E5,2.8786688E4,5.9614984E4,7.492686E4,4.5996375E4,0E0,0E0,6.2798125E3,1.2813697E4,3.0716562E4,1.6635258E4,1.200025E4,4.021875E3,0E0,0E0,0E0,0E0,0E0,0E0,0E0,0E0,0E0,0E0,0E0,0E0],"parents":[2147483647,0,0,1,1,2,2,3,3,4,4,5,5,6,6,9,9,10,10,11,11,12,12,13,13,14,14],"right_children":[2,4,6,8,10,12,14,-1,-1,16,18,20,22,24,26,-1,-1,-1,-1,-1,-1,-1,-1,-1,-1,-1,-1],"split_conditions":[1E0,4E0,5E0,3E0,6E0,1.5E1,1.4E1,-5.537641E0,-3.0623047E0,5E0,7E0,3E0,2E0,7E0,7E0,-2.0133493E0,-8.854728E-1,7.000204E-2,1.5812778E0,-1.5332121E0,1.2312635E0,6.324693E-1,3.8752356E0,4.2110515E0,6.839282E0,7.36494E0,1.0410865E1],"split_indices":[1,0,0,0,0,1,1,0,0,0,0,0,0,0,0,0,0,0,0,0,0,0,0,0,0,0,0],"split_type":[0,0,0,0,0,0,0,0,0,0,0,0,0,0,0,0,0,0,0,0,0,0,0,0,0,0,0],"sum_hessian":[7.13E2,4.36E2,2.77E2,1.61E2,2.75E2,1.67E2,1.1E2,1.14E2,4.7E1,1.31E2,1.44E2,1.01E2,6.6E1,6.6E1,4.4E1,6.5E1,6.6E1,6.6E1,7.8E1,5.2E1,4.9E1,1.3E1,5.3E1,4.5E1,2.1E1,2.8E1,1.6E1],"tree_param":{"num_deleted":"0","num_feature":"2","num_nodes":"27","size_leaf_vector":"1"}},{"base_weights":[-2.326483E-1,-2.292068E1,3.477957E1,-4.525315E1,1.2487056E0,2.5443249E0,6.1484158E1,-5.5080156E0,-3.6344154E1,-4.2581778E0,8.7980765E-1,-1.2924293E1,3.0063505E1,4.977342E1,1.0066338E2,-3.710004E0,-2.543492E0,-7.082594E-1,4.3251954E-2,-2.3130422E0,-7.972676E-2,5.180194E-1,3.301464E0,3.5584826E0,7.8153033E0,6.0944324E0,9.653213E0],"categories":[],"categories_nodes":[],"categories_segments":[],"categories_sizes":[],"default_left":[0,0,0,0,0,0,0,0,0,0,0,0,0,0,0,0,0,0,0,0,0,0,0,0,0,0,0],"id":22,"left_children":[1,3,5,7,9,11,13,-1,15,17,-1,19,21,23,25,-1,-1,-1,-1,-1,-1,-1,-1,-1,-1,-1,-1],"loss_changes":[5.616142E5,2.3161447E5,2.3915394E5,4.4378125E4,1.1159833E4,5.445038E4,6.4729938E4,0E0,6.011453E3,2.937559E3,0E0,1.5609318E4,1.1890656E4,2.5832969E4,7.4575938E3,0E0,0E0,0E0,0E0,0E0,0E0,0E0,0E0,0E0,0E0,0E0,0E0],"parents":[2147483647,0,0,1,1,2,2,3,3,4,4,5,5,6,6,8,8,9,9,11,11,12,12,13,13,14,14],"right_children":[2,4,6,8,10,12,14,-1,16,18,-1,20,22,24,26,-1,-1,-1,-1,-1,-1,-1,-1,-1,-1,-1,-1],"split_conditions":[1E0,5E0,4E0,2E0,7E0,1.6E1,7E0,-5.5080156E0,3E0,6E0,8.7980765E-1,2E0,2E0,2.1E1,1.1E1,-3.710004E0,-2.543492E0,-7.082594E-1,4.3251954E-2,-2.3130422E0,-7.972676E-2,5.180194E-1,3.301464E0,3.5584826E0,7.8153033E0,6.0944324E0,9.653213E0],"split_indices":[1,0,0,0,0,1,0,0,0,0,0,0,0,1,1,0,0,0,0,0,0,0,0,0,0,0,0],"split_type":[0,0,0,0,0,0,0,0,0,0,0,0,0,0,0,0,0,0,0,0,0,0,0,0,0,0,0],"sum_hessian":[7.05E2,4.28E2,2.77E2,2.22E2,2.06E2,1.26E2,1.51E2,5.9E1,1.63E2,1.32E2,7.4E1,8.1E1,4.5E1,1.18E2,3.3E1,4.8E1,1.15E2,6.7E1,6.5E1,3.4E1,4.7E1,1.5E1,3E1,1.08E2,1E1,1.7E1,1.6E1],"tree_param":{"num_deleted":"0","num_feature":"2","num_nodes":"27","size_leaf_vector":"1"}},{"base_weights":[-2.9665387E-1,-1.8767094E1,4.2255795E1,-4.9456482E1,3.1179398E-1,2.0799461E1,7.8658394E1,-5.544698E1,-3.461099E1,-4.507771E0,3.5342907E1,1.0863541E1,5.148238E1,6.97222E1,8.971041E0,-4.5397334E0,-8.660469E-1,-2.944601E0,-3.524492E-1,-1.4777452E0,6.193657E-1,1.6266024E0,3.2119398E0,-1.8041225E-1,2.0507703E0,3.215995E0,5.6314178E0,4.8896055E0,6.8816795E0],"categories":[],"categories_nodes":[],"categories_segments":[],"categories_sizes":[],"default_left":[0,0,0,0,0,0,0,0,0,0,0,0,0,0,0,0,0,0,0,0,0,0,0,0,0,0,0,0,0],"id":23,"left_children":[1,3,5,7,9,11,13,15,17,19,21,23,25,27,-1,-1,-1,-1,-1,-1,-1,-1,-1,-1,-1,-1,-1,-1,-1],"loss_changes":[5.556825E5,2.8867647E5,1.6551216E5,1.48890625E4,5.1653914E4,4.0902098E4,1.58166875E4,7.098875E3,3.6196094E3,4.6157434E4,1.8530312E3,2.0210656E4,4.210922E3,3.8556875E3,0E0,0E0,0E0,0E0,0E0,0E0,0E0,0E0,0E0,0E0,0E0,0E0,0E0,0E0,0E0],"parents":[2147483647,0,0,1,1,2,2,3,3,4,4,5,5,6,6,7,7,8,8,9,9,10,10,11,11,12,12,13,13],"right_children":[2,4,6,8,10,12,14,16,18,20,22,24,26,28,-1,-1,-1,-1,-1,-1,-1,-1,-1,-1,-1,-1,-1,-1,-1],"split_conditions":[7E0,4E0,5E0,3E0,1E0,2E1,2E1,6E0,4E0,6E0,5E0,3E0,2.2E1,7E0,8.971041E0,-4.5397334E0,-8.660469E-1,-2.944601E0,-3.524492E-1,-1.4777452E0,6.193657E-1,1.6266024E0,3.2119398E0,-1.8041225E-1,2.0507703E0,3.215995E0,5.6314178E0,4.8896055E0,6.8816795E0],"split_indices":[1,0,0,0,1,1,1,1,1,0,0,0,1,0,0,0,0,0,0,0,0,0,0,0,0,0,0,0,0],"split_type":[0,0,0,0,0,0,0,0,0,0,0,0,0,0,0,0,0,0,0,0,0,0,0,0,0,0,0,0,0],"sum_hessian":[7.05E2,4.92E2,2.13E2,1.88E2,3.04E2,1.35E2,7.8E1,1.32E2,5.6E1,2.68E2,3.6E1,1.03E2,3.2E1,6.4E1,1.4E1,1.28E2,4E0,5.2E1,4E0,1.25E2,1.43E2,1E1,2.6E1,5.5E1,4.8E1,2.2E1,1E1,4.5E1,1.9E1],"tree_param":{"num_deleted":"0","num_feature":"2","num_nodes":"29","size_leaf_vector":"1"}},{"base_weights":[5.251035E-1,-2.0681658E1,3.203681E1,-4.1089314E1,2.9225204E0,1.1383922E1,6.402091E1,-5.388376E1,-2.7591576E1,-5.359664E0,1.3030502E0,-1.7702478E1,2.2835794E1,5.3488518E1,7.496622E0,-4.651418E0,-3.8019052E0,-2.5176249E0,-1.9482098E0,-9.961821E-1,1.2742884E-1,-3.261624E0,-2.7622038E-1,5.358353E-1,3.0691748E0,3.0407884E0,5.1702495E0],"categories":[],"categories_nodes":[],"categories_segments":[],"categories_sizes":[],"default_left":[0,0,0,0,0,0,0,0,0,0,0,0,0,0,0,0,0,0,0,0,0,0,0,0,0,0,0],"id":24,"left_children":[1,3,5,7,9,11,13,15,17,19,-1,21,23,25,-1,-1,-1,-1,-1,-1,-1,-1,-1,-1,-1,-1,-1],"loss_changes":[4.751281E5,2.0484514E5,1.881925E5,3.788797E4,2.2005191E4,5.8695656E4,3.0007188E4,3.7890625E2,6.532422E2,6.0851562E3,0E0,1.6294736E4,3.1319008E4,1.2199734E4,0E0,0E0,0E0,0E0,0E0,0E0,0E0,0E0,0E0,0E0,0E0,0E0,0E0],"parents":[2147483647,0,0,1,1,2,2,3,3,4,4,5,5,6,6,7,7,8,8,9,9,11,11,12,12,13,13],"right_children":[2,4,6,8,10,12,14,16,18,20,-1,22,24,26,-1,-1,-1,-1,-1,-1,-1,-1,-1,-1,-1,-1,-1],"split_conditions":[1E0,5E0,5E0,3E0,7E0,9E0,1.8E1,2E0,4E0,6E0,1.3030502E0,2E0,3E0,6E0,7.496622E0,-4.651418E0,-3.8019052E0,-2.5176249E0,-1.9482098E0,-9.961821E-1,1.2742884E-1,-3.261624E0,-2.7622038E-1,5.358353E-1,3.0691748E0,3.0407884E0,5.1702495E0],"split_indices":[1,0,0,0,0,1,1,0,0,0,0,0,0,0,0,0,0,0,0,0,0,0,0,0,0,0,0],"split_type":[0,0,0,0,0,0,0,0,0,0,0,0,0,0,0,0,0,0,0,0,0,0,0,0,0,0,0],"sum_hessian":[7.09E2,4.24E2,2.85E2,2.27E2,1.97E2,1.74E2,1.11E2,1.15E2,1.12E2,1.22E2,7.5E1,4.9E1,1.25E2,8.4E1,2.7E1,6.4E1,5.1E1,4.7E1,6.5E1,6E1,6.2E1,1.8E1,3.1E1,6.2E1,6.3E1,3.7E1,4.7E1],"tree_param":{"num_deleted":"0","num_feature":"2","num_nodes":"27","size_leaf_vector":"1"}},{"base_weights":[-1.359565E-1,-1.8811003E1,2.868322E1,-3.7983795E1,1.7427027E0,3.2477794E0,4.944258E1,-4.9589424E1,-2.6754303E1,-5.9857864E0,1.1975126E0,-2.4810293E1,1.5191139E1,3.9718372E1,8.230912E1,-4.264328E0,-3.4907293E0,-2.6491437E0,-1.7224606E0,-7.717275E-1,-1.7430545E-1,-2.6102774E0,-1.2219865E0,-4.0850955E-1,1.9673392E0,2.2017E0,4.5464077E0,5.422408E0,8.263784E0],"categories":[],"categories_nodes":[],"categories_segments":[],"categories_sizes":[],"default_left":[0,0,0,0,0,0,0,0,0,0,0,0,0,0,0,0,0,0,0,0,0,0,0,0,0,0,0,0,0],"id":25,"left_children":[1,3,5,7,9,11,13,15,17,19,-1,21,23,25,27,-1,-1,-1,-1,-1,-1,-1,-1,-1,-1,-1,-1,-1,-1],"loss_changes":[3.8050838E5,1.6912305E5,1.4662997E5,2.7605469E4,2.1351066E4,4.2600457E4,4.562978E4,6.33125E1,3.1075234E3,1.8186104E3,0E0,2.334504E3,1.7107557E4,2.348161E4,3.366375E3,0E0,0E0,0E0,0E0,0E0,0E0,0E0,0E0,0E0,0E0,0E0,0E0,0E0,0E0],"parents":[2147483647,0,0,1,1,2,2,3,3,4,4,5,5,6,6,7,7,8,8,9,9,11,11,12,12,13,13,14,14],"right_children":[2,4,6,8,10,12,14,16,18,20,-1,22,24,26,28,-1,-1,-1,-1,-1,-1,-1,-1,-1,-1,-1,-1,-1,-1],"split_conditions":[1E0,5E0,4E0,3E0,7E0,1E1,1.8E1,2E0,4E0,6E0,1.1975126E0,6E0,2E0,6E0,7E0,-4.264328E0,-3.4907293E0,-2.6491437E0,-1.7224606E0,-7.717275E-1,-1.7430545E-1,-2.6102774E0,-1.2219865E0,-4.0850955E-1,1.9673392E0,2.2017E0,4.5464077E0,5.422408E0,8.263784E0],"split_indices":[1,0,0,0,0,1,1,0,0,0,0,1,0,0,0,0,0,0,0,0,0,0,0,0,0,0,0,0,0],"split_type":[0,0,0,0,0,0,0,0,0,0,0,0,0,0,0,0,0,0,0,0,0,0,0,0,0,0,0,0,0],"sum_hessian":[7.05E2,4.28E2,2.77E2,2.21E2,2.07E2,1.25E2,1.52E2,1.07E2,1.14E2,1.31E2,7.6E1,3.7E1,8.8E1,1.19E2,3.3E1,6.1E1,4.6E1,4.9E1,6.5E1,6.6E1,6.5E1,1.9E1,1.8E1,2.8E1,6E1,7.1E1,4.8E1,2.2E1,1.1E1],"tree_param":{"num_deleted":"0","num_feature":"2","num_nodes":"29","size_leaf_vector":"1"}},{"base_weights":[1.5607195E0,-1.35428705E1,3.426688E1,-4.0861813E1,2.8210611E0,1.7467567E1,6.1335552E1,-3.7904959E0,-2.5463518E1,-3.3574576E0,1.8450085E1,1.0261544E1,4.0303234E1,5.082062E1,6.659337E0,-2.1510541E0,6.934537E-1,-1.0723857E0,1.691524E-1,1.1450601E0,3.8766952E0,-3.955537E-1,1.2782748E0,2.158437E0,4.359349E0,3.2124872E0,4.7601404E0],"categories":[],"categories_nodes":[],"categories_segments":[],"categories_sizes":[],"default_left":[0,0,0,0,0,0,0,0,0,0,0,0,0,0,0,0,0,0,0,0,0,0,0,0,0,0,0],"id":26,"left_children":[1,3,5,7,9,11,13,-1,15,17,19,21,23,25,-1,-1,-1,-1,-1,-1,-1,-1,-1,-1,-1,-1,-1],"loss_changes":[3.4872028E5,2.1603816E5,1.0033455E5,1.6963656E4,2.9320902E4,2.245948E4,1.5348656E4,0E0,2.956125E3,1.2013502E4,9.982492E3,9.3806045E3,4.767836E3,3.1654531E3,0E0,0E0,0E0,0E0,0E0,0E0,0E0,0E0,0E0,0E0,0E0,0E0,0E0],"parents":[2147483647,0,0,1,1,2,2,3,3,4,4,5,5,6,6,8,8,9,9,10,10,11,11,12,12,13,13],"right_children":[2,4,6,8,10,12,14,-1,16,18,20,22,24,26,-1,-1,-1,-1,-1,-1,-1,-1,-1,-1,-1,-1,-1],"split_conditions":[6E0,4E0,5E0,3E0,7E0,2E1,7E0,-3.7904959E0,4E0,5E0,1E0,2E0,3E0,1.4E1,6.659337E0,-2.1510541E0,6.934537E-1,-1.0723857E0,1.691524E-1,1.1450601E0,3.8766952E0,-3.955537E-1,1.2782748E0,2.158437E0,4.359349E0,3.2124872E0,4.7601404E0],"split_indices":[1,0,0,0,0,1,0,0,1,0,1,0,0,1,0,0,0,0,0,0,0,0,0,0,0,0,0],"split_type":[0,0,0,0,0,0,0,0,0,0,0,0,0,0,0,0,0,0,0,0,0,0,0,0,0,0,0],"sum_hessian":[7.04E2,4.82E2,2.22E2,1.8E2,3.02E2,1.38E2,8.4E1,1.25E2,5.5E1,2.17E2,8.5E1,1.06E2,3.2E1,5.9E1,2.5E1,5.3E1,2E0,7.6E1,1.41E2,7.6E1,9E0,2.9E1,7.7E1,1.8E1,1.4E1,2.9E1,3E1],"tree_param":{"num_deleted":"0","num_feature":"2","num_nodes":"27","size_leaf_vector":"1"}},{"base_weights":[1.2447829E0,-1.0903313E1,3.293451E1,-2.7557951E1,9.143084E0,9.86588E0,5.4763447E1,-3.7134846E1,-1.7785606E1,4.6277213E0,3.0926895E1,1.7974187E0,2.6198772E1,4.8530865E1,6.616397E0,-3.154185E0,-1.0818108E0,-1.6293172E0,-3.4842572E-1,-8.939703E-2,1.1741842E0,1.2080752E0,3.4551198E0,-6.761592E-1,9.842359E-1,8.6243373E-1,2.471123E0,3.461936E0,5.255457E0],"categories":[],"categories_nodes":[],"categories_segments":[],"categories_sizes":[],"default_left":[0,0,0,0,0,0,0,0,0,0,0,0,0,0,0,0,0,0,0,0,0,0,0,0,0,0,0,0,0],"id":27,"left_children":[1,3,5,7,9,11,13,15,17,19,21,23,25,27,-1,-1,-1,-1,-1,-1,-1,-1,-1,-1,-1,-1,-1,-1,-1],"loss_changes":[2.7368766E5,1.718588E5,9.8661766E4,2.5637953E4,2.287354E4,1.2735696E4,1.35751875E4,7.0992188E3,4.79859E3,1.1275059E4,7.1101875E3,7.210566E3,1.9811211E3,4.8256094E3,0E0,0E0,0E0,0E0,0E0,0E0,0E0,0E0,0E0,0E0,0E0,0E0,0E0,0E0,0E0],"parents":[2147483647,0,0,1,1,2,2,3,3,4,4,5,5,6,6,7,7,8,8,9,9,10,10,11,11,12,12,13,13],"right_children":[2,4,6,8,10,12,14,16,18,20,22,24,26,28,-1,-1,-1,-1,-1,-1,-1,-1,-1,-1,-1,-1,-1,-1,-1],"split_conditions":[9E0,5E0,4E0,3E0,1E0,3E0,2.1E1,5E0,1E0,7E0,6E0,1.6E1,1.2E1,7E0,6.616397E0,-3.154185E0,-1.0818108E0,-1.6293172E0,-3.4842572E-1,-8.939703E-2,1.1741842E0,1.2080752E0,3.4551198E0,-6.761592E-1,9.842359E-1,8.6243373E-1,2.471123E0,3.461936E0,5.255457E0],"split_indices":[1,0,0,0,1,0,1,1,1,0,0,1,1,0,0,0,0,0,0,0,0,0,0,0,0,0,0,0,0],"split_type":[0,0,0,0,0,0,0,0,0,0,0,0,0,0,0,0,0,0,0,0,0,0,0,0,0,0,0,0,0],"sum_hessian":[7.09E2,5.13E2,1.96E2,2.8E2,2.33E2,9.6E1,1E2,1.4E2,1.4E2,1.94E2,3.9E1,6.5E1,3.1E1,8.4E1,1.6E1,1.27E2,1.3E1,1.17E2,2.3E1,1.24E2,7E1,1.8E1,2.1E1,3.3E1,3.2E1,8E0,2.3E1,6.7E1,1.7E1],"tree_param":{"num_deleted":"0","num_feature":"2","num_nodes":"29","size_leaf_vector":"1"}},{"base_weights":[-3.7256226E-1,-1.1623758E1,3.0721455E1,-2.8521957E1,7.4871187E0,1.6311228E1,5.607229E1,-4.382834E1,-2.2285122E1,3.947306E0,2.526449E1,9.121081E0,3.6990654E0,4.488063E1,7.553108E1,-3.7618437E0,-1.392161E0,-2.0767767E0,-2.6785836E-1,-3.9537683E-1,6.169387E-1,1.4442923E0,3.1081676E0,-2.3475213E-1,1.698916E0,3.1794302E0,4.881262E0,3.0351512E0,6.7092376E0],"categories":[],"categories_nodes":[],"categories_segments":[],"categories_sizes":[],"default_left":[0,0,0,0,0,0,0,0,0,0,0,0,0,0,0,0,0,0,0,0,0,0,0,0,0,0,0,0,0],"id":28,"left_children":[1,3,5,7,9,11,13,15,17,19,21,23,-1,25,27,-1,-1,-1,-1,-1,-1,-1,-1,-1,-1,-1,-1,-1,-1],"loss_changes":[2.4489867E5,1.6620439E5,6.703328E4,2.5084797E4,1.5128984E4,2.5399871E4,1.1201125E4,5.7667812E3,1.3551797E4,6.831294E3,3.2176973E3,1.4375866E4,0E0,1.3054844E3,4.0241875E3,0E0,0E0,0E0,0E0,0E0,0E0,0E0,0E0,0E0,0E0,0E0,0E0,0E0,0E0],"parents":[2147483647,0,0,1,1,2,2,3,3,4,4,5,5,6,6,7,7,8,8,9,9,10,10,11,11,13,13,14,14],"right_children":[2,4,6,8,10,12,14,16,18,20,22,24,-1,26,28,-1,-1,-1,-1,-1,-1,-1,-1,-1,-1,-1,-1,-1,-1],"split_conditions":[9E0,5E0,5E0,2E0,1E0,2.1E1,7E0,3E0,1E0,6E0,7E0,3E0,3.6990654E0,2E1,1.1E1,-3.7618437E0,-1.392161E0,-2.0767767E0,-2.6785836E-1,-3.9537683E-1,6.169387E-1,1.4442923E0,3.1081676E0,-2.3475213E-1,1.698916E0,3.1794302E0,4.881262E0,3.0351512E0,6.7092376E0],"split_indices":[1,0,0,0,1,1,0,1,1,0,0,0,0,1,1,0,0,0,0,0,0,0,0,0,0,0,0,0,0],"split_type":[0,0,0,0,0,0,0,0,0,0,0,0,0,0,0,0,0,0,0,0,0,0,0,0,0,0,0,0,0],"sum_hessian":[6.98E2,5.13E2,1.85E2,2.72E2,2.41E2,1.19E2,6.6E1,7.7E1,1.95E2,2.02E2,3.9E1,9.7E1,2.2E1,4.4E1,2.2E1,6.8E1,9E0,1.63E2,3.2E1,6E1,1.42E2,2.7E1,1.2E1,4.9E1,4.8E1,3.6E1,8E0,5E0,1.7E1],"tree_param":{"num_deleted":"0","num_feature":"2","num_nodes":"29","size_leaf_vector":"1"}},{"base_weights":[3.4885207E-1,-9.745226E0,2.8621248E1,-2.9914783E1,2.2140415E0,1.1590172E1,4.5896584E1,-3.355916E1,-1.6805725E0,-1.7960514E0,2.1723707E1,5.447418E0,3.4353127E1,3.8064014E1,6.7739334E1,-2.8360925E0,-8.843408E-1,-1.1320789E0,1.8327962E-1,1.110528E0,3.3786685E0,-8.829914E-1,1.061444E0,1.894625E0,3.2744317E0,2.6625774E0,4.385111E0,2.8328075E0,5.9801965E0],"categories":[],"categories_nodes":[],"categories_segments":[],"categories_sizes":[],"default_left":[0,0,0,0,0,0,0,0,0,0,0,0,0,0,0,0,0,0,0,0,0,0,0,0,0,0,0,0,0],"id":29,"left_children":[1,3,5,7,9,11,13,15,-1,17,19,21,23,25,27,-1,-1,-1,-1,-1,-1,-1,-1,-1,-1,-1,-1,-1,-1],"loss_changes":[2.0175984E5,1.25738266E5,5.4192516E4,5.592797E3,2.5700283E4,1.3096448E4,1.3161375E4,5.398875E3,0E0,1.3817608E4,8.420711E3,9.944488E3,4.3428516E2,3.7822812E3,2.5677734E3,0E0,0E0,0E0,0E0,0E0,0E0,0E0,0E0,0E0,0E0,0E0,0E0,0E0,0E0],"parents":[2147483647,0,0,1,1,2,2,3,3,4,4,5,5,6,6,7,7,9,9,10,10,11,11,12,12,13,13,14,14],"right_children":[2,4,6,8,10,12,14,16,-1,18,20,22,24,26,28,-1,-1,-1,-1,-1,-1,-1,-1,-1,-1,-1,-1,-1,-1],"split_conditions":[9E0,4E0,4E0,3E0,1E0,2.1E1,7E0,6E0,-1.6805725E0,5E0,7E0,2E0,2.2E1,2E1,1.1E1,-2.8360925E0,-8.843408E-1,-1.1320789E0,1.8327962E-1,1.110528E0,3.3786685E0,-8.829914E-1,1.061444E0,1.894625E0,3.2744317E0,2.6625774E0,4.385111E0,2.8328075E0,5.9801965E0],"split_indices":[1,0,0,0,1,1,0,1,0,0,0,0,1,1,1,0,0,0,0,0,0,0,0,0,0,0,0,0,0],"split_type":[0,0,0,0,0,0,0,0,0,0,0,0,0,0,0,0,0,0,0,0,0,0,0,0,0,0,0,0,0],"sum_hessian":[7.05E2,5.2E2,1.85E2,1.93E2,3.27E2,9.4E1,9.1E1,1.35E2,5.8E1,2.72E2,5.5E1,7.5E1,1.9E1,6.9E1,2.2E1,1.24E2,1.1E1,6.7E1,2.05E2,4.1E1,1.4E1,2.4E1,5.1E1,9E0,1E1,5.6E1,1.3E1,5E0,1.7E1],"tree_param":{"num_deleted":"0","num_feature":"2","num_nodes":"29","size_leaf_vector":"1"}},{"base_weights":[-2.3865879E-1,-1.2294609E1,1.8362803E1,-2.1580376E1,7.0226836E0,8.830292E0,4.8535854E1,-3.0684675E1,-1.5661545E1,2.4200496E-1,8.481018E-1,-1.0452004E1,1.4619894E1,3.701472E1,5.687692E1,-2.8450463E0,-1.9684521E0,-1.4010402E0,-9.648854E-1,-1.5545917E0,4.1783768E-1,7.432862E-1,2.056439E0,1.7352148E0,3.186E0,3.5623143E0,5.918581E0],"categories":[],"categories_nodes":[],"categories_segments":[],"categories_sizes":[],"default_left":[0,0,0,0,0,0,0,0,0,0,0,0,0,0,0,0,0,0,0,0,0,0,0,0,0,0,0],"id":30,"left_children":[1,3,5,7,9,11,13,15,17,-1,-1,19,21,23,25,-1,-1,-1,-1,-1,-1,-1,-1,-1,-1,-1,-1],"loss_changes":[1.596734E5,7.764191E4,8.010641E4,1.5254391E4,1.9850547E3,2.404309E4,4.333328E3,2.5057188E3,9.820117E2,0E0,0E0,7.1398657E3,9.50823E3,4.712422E2,4.520672E3,0E0,0E0,0E0,0E0,0E0,0E0,0E0,0E0,0E0,0E0,0E0,0E0],"parents":[2147483647,0,0,1,1,2,2,3,3,4,4,5,5,6,6,7,7,8,8,11,11,12,12,13,13,14,14],"right_children":[2,4,6,8,10,12,14,16,18,-1,-1,20,22,24,26,-1,-1,-1,-1,-1,-1,-1,-1,-1,-1,-1,-1],"split_conditions":[1E0,6E0,6E0,3E0,7E0,2E0,7E0,2E0,5E0,2.4200496E-1,8.481018E-1,1.3E1,1.6E1,9E0,1.6E1,-2.8450463E0,-1.9684521E0,-1.4010402E0,-9.648854E-1,-1.5545917E0,4.1783768E-1,7.432862E-1,2.056439E0,1.7352148E0,3.186E0,3.5623143E0,5.918581E0],"split_indices":[1,0,0,0,0,0,0,0,0,0,0,1,1,1,1,0,0,0,0,0,0,0,0,0,0,0,0],"split_type":[0,0,0,0,0,0,0,0,0,0,0,0,0,0,0,0,0,0,0,0,0,0,0,0,0,0,0],"sum_hessian":[7.1E2,4.31E2,2.79E2,2.91E2,1.4E2,2.13E2,6.6E1,1.13E2,1.78E2,6.7E1,7.3E1,4.9E1,1.64E2,3E1,3.6E1,6E1,5.3E1,1.15E2,6.3E1,3.1E1,1.8E1,1.12E2,5.2E1,6E0,2.4E1,2.3E1,1.3E1],"tree_param":{"num_deleted":"0","num_feature":"2","num_nodes":"27","size_leaf_vector":"1"}},{"base_weights":[1.6024178E-1,-9.161002E0,2.5364828E1,-2.4446032E1,1.0234213E-1,8.409366E0,4.1557976E1,-3.1885397E1,-1.9428358E1,-2.9922361E0,1.7150854E1,5.412474E0,3.394108E1,3.377781E1,4.50644E0,-2.7618673E0,-9.951687E-1,-1.7091535E0,-6.7889845E-1,-7.308029E-1,2.3323147E-1,9.243408E-1,2.7501547E0,-5.9677403E-2,1.3874928E0,5.195638E-1,3.1992712E0,1.4827327E0,3.292571E0],"categories":[],"categories_nodes":[],"categories_segments":[],"categories_sizes":[],"default_left":[0,0,0,0,0,0,0,0,0,0,0,0,0,0,0,0,0,0,0,0,0,0,0,0,0,0,0,0,0],"id":31,"left_children":[1,3,5,7,9,11,13,15,17,19,21,23,25,27,-1,-1,-1,-1,-1,-1,-1,-1,-1,-1,-1,-1,-1,-1,-1],"loss_changes":[1.7056248E5,7.504546E4,5.3464742E4,6.8461797E3,1.7514203E4,7.2383247E3,9.590547E3,3.623E3,2.4032188E3,1.022395E4,4.519578E3,6.47896E3,1.4007412E3,6.8863594E3,0E0,0E0,0E0,0E0,0E0,0E0,0E0,0E0,0E0,0E0,0E0,0E0,0E0,0E0,0E0],"parents":[2147483647,0,0,1,1,2,2,3,3,4,4,5,5,6,6,7,7,8,8,9,9,10,10,11,11,12,12,13,13],"right_children":[2,4,6,8,10,12,14,16,18,20,22,24,26,28,-1,-1,-1,-1,-1,-1,-1,-1,-1,-1,-1,-1,-1,-1,-1],"split_conditions":[9E0,4E0,4E0,2E0,1E0,2.2E1,1.8E1,3E0,1E0,6E0,7E0,3E0,2E0,5E0,4.50644E0,-2.7618673E0,-9.951687E-1,-1.7091535E0,-6.7889845E-1,-7.308029E-1,2.3323147E-1,9.243408E-1,2.7501547E0,-5.9677403E-2,1.3874928E0,5.195638E-1,3.1992712E0,1.4827327E0,3.292571E0],"split_indices":[1,0,0,0,1,1,1,1,1,0,0,0,0,0,0,0,0,0,0,0,0,0,0,0,0,0,0,0,0],"split_type":[0,0,0,0,0,0,0,0,0,0,0,0,0,0,0,0,0,0,0,0,0,0,0,0,0,0,0,0,0],"sum_hessian":[7.24E2,5.29E2,1.95E2,1.99E2,3.3E2,9.6E1,9.9E1,7.8E1,1.21E2,2.8E2,5E1,8.7E1,9E0,6.7E1,3.2E1,6.8E1,1E1,1.02E2,1.9E1,1.37E2,1.43E2,3.9E1,1.1E1,5.8E1,2.9E1,2E0,7E0,2.3E1,4.4E1],"tree_param":{"num_deleted":"0","num_feature":"2","num_nodes":"29","size_leaf_vector":"1"}},{"base_weights":[1.02457E0,-7.3347273E0,2.3531754E1,-1.9569433E1,6.244759E0,9.452128E0,3.678818E1,-3.0420597E1,-1.5035608E1,3.3526294E0,2.12127E1,5.8723593E0,3.086158E0,3.173674E1,5.166078E1,-2.6095407E0,-7.9518765E-1,-1.3766699E0,-2.2411914E-1,-6.7849904E-2,8.4713864E-1,1.0543023E0,2.655071E0,1.5735635E-1,1.0269219E0,2.2637122E0,4.101543E0,2.186966E0,4.551891E0],"categories":[],"categories_nodes":[],"categories_segments":[],"categories_sizes":[],"default_left":[0,0,0,0,0,0,0,0,0,0,0,0,0,0,0,0,0,0,0,0,0,0,0,0,0,0,0,0,0],"id":32,"left_children":[1,3,5,7,9,11,13,15,17,19,21,23,-1,25,27,-1,-1,-1,-1,-1,-1,-1,-1,-1,-1,-1,-1,-1,-1],"loss_changes":[1.3130914E5,8.4687984E4,3.4928266E4,1.2727477E4,1.0404874E4,9.469663E3,5.647875E3,3.188125E3,5.028926E3,6.210415E3,3.314875E3,2.2593733E3,0E0,3.5891562E3,1.3748516E3,0E0,0E0,0E0,0E0,0E0,0E0,0E0,0E0,0E0,0E0,0E0,0E0,0E0,0E0],"parents":[2147483647,0,0,1,1,2,2,3,3,4,4,5,5,6,6,7,7,8,8,9,9,10,10,11,11,13,13,14,14],"right_children":[2,4,6,8,10,12,14,16,18,20,22,24,-1,26,28,-1,-1,-1,-1,-1,-1,-1,-1,-1,-1,-1,-1,-1,-1],"split_conditions":[9E0,5E0,4E0,2E0,1E0,2.2E1,7E0,6E0,1E0,7E0,7E0,3E0,3.086158E0,2.1E1,1.1E1,-2.6095407E0,-7.9518765E-1,-1.3766699E0,-2.2411914E-1,-6.7849904E-2,8.4713864E-1,1.0543023E0,2.655071E0,1.5735635E-1,1.0269219E0,2.2637122E0,4.101543E0,2.186966E0,4.551891E0],"split_indices":[1,0,0,0,1,1,0,1,1,0,0,0,0,1,1,0,0,0,0,0,0,0,0,0,0,0,0,0,0],"split_type":[0,0,0,0,0,0,0,0,0,0,0,0,0,0,0,0,0,0,0,0,0,0,0,0,0,0,0,0,0],"sum_hessian":[6.96E2,5.08E2,1.88E2,2.67E2,2.41E2,9.2E1,9.6E1,7.7E1,1.9E2,2.03E2,3.8E1,8.3E1,9E0,7.4E1,2.2E1,6.9E1,8E0,1.61E2,2.9E1,1.29E2,7.4E1,2.4E1,1.4E1,5.4E1,2.9E1,6.5E1,9E0,5E0,1.7E1],"tree_param":{"num_deleted":"0","num_feature":"2","num_nodes":"29","size_leaf_vector":"1"}},{"base_weights":[-4.4545847E-1,-8.271341E0,1.7428745E1,-2.1718739E1,2.8920445E-1,5.293697E0,3.784047E1,-2.9874443E1,-1.6069103E1,-2.0619884E0,1.7653873E1,-1.6961983E0,1.2517562E1,2.860405E1,3.60983E0,-2.2678533E0,-3.1596043E0,-1.2432957E0,-1.7595019E0,-7.391346E-1,3.340809E-1,2.3076758E0,5.806333E-1,-8.027478E-1,2.0781353E-1,6.482544E-2,1.2703254E0,2.5181334E0,2.6795313E-1],"categories":[],"categories_nodes":[],"categories_segments":[],"categories_sizes":[],"default_left":[0,0,0,0,0,0,0,0,0,0,0,0,0,0,0,0,0,0,0,0,0,0,0,0,0,0,0,0,0],"id":33,"left_children":[1,3,5,7,9,11,13,15,17,19,21,23,25,27,-1,-1,-1,-1,-1,-1,-1,-1,-1,-1,-1,-1,-1,-1,-1],"loss_changes":[9.8760555E4,5.6528758E4,5.305459E4,8.320602E3,1.2325534E4,6.888425E3,4.090375E3,1.10390625E1,1.7873047E1,1.1947757E4,3.9793223E3,2.5322695E3,2.6238496E3,2.6513574E3,0E0,0E0,0E0,0E0,0E0,0E0,0E0,0E0,0E0,0E0,0E0,0E0,0E0,0E0,0E0],"parents":[2147483647,0,0,1,1,2,2,3,3,4,4,5,5,6,6,7,7,8,8,9,9,10,10,11,11,12,12,13,13],"right_children":[2,4,6,8,10,12,14,16,18,20,22,24,26,28,-1,-1,-1,-1,-1,-1,-1,-1,-1,-1,-1,-1,-1,-1,-1],"split_conditions":[6E0,4E0,5E0,2E0,1E0,1.5E1,1.4E1,2E0,2E0,6E0,3E0,2E0,2E0,1.3E1,3.60983E0,-2.2678533E0,-3.1596043E0,-1.2432957E0,-1.7595019E0,-7.391346E-1,3.340809E-1,2.3076758E0,5.806333E-1,-8.027478E-1,2.0781353E-1,6.482544E-2,1.2703254E0,2.5181334E0,2.6795313E-1],"split_indices":[1,0,0,0,1,1,1,1,1,0,1,0,0,1,0,0,0,0,0,0,0,0,0,0,0,0,0,0,0],"split_type":[0,0,0,0,0,0,0,0,0,0,0,0,0,0,0,0,0,0,0,0,0,0,0,0,0,0,0,0,0],"sum_hessian":[7.04E2,4.9E2,2.14E2,1.9E2,3E2,1.35E2,7.9E1,7.6E1,1.14E2,2.65E2,3.5E1,6.9E1,6.6E1,3.7E1,4.2E1,6.9E1,7E0,1.08E2,6E0,1.23E2,1.42E2,1.6E1,1.9E1,2.3E1,4.6E1,1.5E1,5.1E1,3.3E1,4E0],"tree_param":{"num_deleted":"0","num_feature":"2","num_nodes":"29","size_leaf_vector":"1"}},{"base_weights":[8.204492E-2,-9.215174E0,1.4604409E1,-2.0230808E1,-2.4970174E0,4.712448E0,2.9309582E1,-1.9137758E0,-1.4060801E0,-5.839157E0,4.783311E-1,-2.4010842E0,1.753339E1,1.919393E1,3.8721214E1,-7.143384E-1,-3.2264847E-1,-7.150083E-1,3.34392E-1,6.6569823E-1,2.1948304E0,1.0683455E0,2.2996426E0,2.5919921E0,4.1053734E0],"categories":[],"categories_nodes":[],"categories_segments":[],"categories_sizes":[],"default_left":[0,0,0,0,0,0,0,0,0,0,0,0,0,0,0,0,0,0,0,0,0,0,0,0,0],"id":34,"left_children":[1,3,5,7,9,11,13,-1,-1,15,-1,17,19,21,23,-1,-1,-1,-1,-1,-1,-1,-1,-1,-1],"loss_changes":[9.478192E4,3.162352E4,3.971874E4,1.1671328E3,7.598622E3,1.509046E4,9.72932E3,0E0,0E0,1.0355068E3,0E0,4.640149E3,5.1536113E3,2.6838945E3,2.796211E3,0E0,0E0,0E0,0E0,0E0,0E0,0E0,0E0,0E0,0E0],"parents":[2147483647,0,0,1,1,2,2,3,3,4,4,5,5,6,6,9,9,11,11,12,12,13,13,14,14],"right_children":[2,4,6,8,10,12,14,-1,-1,16,-1,18,20,22,24,-1,-1,-1,-1,-1,-1,-1,-1,-1,-1],"split_conditions":[1E0,4E0,5E0,2E0,7E0,1.6E1,1.2E1,-1.9137758E0,-1.4060801E0,5E0,4.783311E-1,3E0,3E0,7E0,7E0,-7.143384E-1,-3.2264847E-1,-7.150083E-1,3.34392E-1,6.6569823E-1,2.1948304E0,1.0683455E0,2.2996426E0,2.5919921E0,4.1053734E0],"split_indices":[1,0,0,0,0,1,1,0,0,0,0,0,0,0,0,0,0,0,0,0,0,0,0,0,0],"split_type":[0,0,0,0,0,0,0,0,0,0,0,0,0,0,0,0,0,0,0,0,0,0,0,0,0],"sum_hessian":[7E2,4.27E2,2.73E2,1.61E2,2.66E2,1.64E2,1.09E2,6.4E1,9.7E1,1.91E2,7.5E1,1.06E2,5.8E1,5.4E1,5.5E1,6.9E1,1.22E2,5.3E1,5.3E1,3.1E1,2.7E1,3.5E1,1.9E1,3.9E1,1.6E1],"tree_param":{"num_deleted":"0","num_feature":"2","num_nodes":"25","size_leaf_vector":"1"}},{"base_weights":[-3.5869256E-1,-7.0116243E0,1.760942E1,-1.8268333E1,1.01200394E-1,-9.963127E-1,2.6161655E1,-2.3961853E1,-1.4151796E1,-2.3489523E0,1.3406908E1,-6.132741E0,8.203247E0,1.9676157E1,3.679348E1,-2.0070522E0,-3.9606932E-1,-1.2585253E0,-3.8078433E-1,-4.9443042E-1,5.598767E-1,1.253286E0,-8.4085155E-1,-1.555249E0,-3.6564198E-1,1.5161003E0,5.021749E-1,1.2553918E0,3.4347973E0,2.3394365E0,3.5003808E0],"categories":[],"categories_nodes":[],"categories_segments":[],"categories_sizes":[],"default_left":[0,0,0,0,0,0,0,0,0,0,0,0,0,0,0,0,0,0,0,0,0,0,0,0,0,0,0,0,0,0,0],"id":35,"left_children":[1,3,5,7,9,11,13,15,17,19,21,23,25,27,29,-1,-1,-1,-1,-1,-1,-1,-1,-1,-1,-1,-1,-1,-1,-1,-1],"loss_changes":[8.7149055E4,4.2597492E4,3.1372832E4,4.489039E3,1.0692024E4,3.0272397E3,8.584656E3,1.6958203E3,1.7352578E3,9.963711E3,2.9203828E3,7.635271E2,3.5716943E2,7.294793E3,1.3485469E3,0E0,0E0,0E0,0E0,0E0,0E0,0E0,0E0,0E0,0E0,0E0,0E0,0E0,0E0,0E0,0E0],"parents":[2147483647,0,0,1,1,2,2,3,3,4,4,5,5,6,6,7,7,8,8,9,9,10,10,11,11,12,12,13,13,14,14],"right_children":[2,4,6,8,10,12,14,16,18,20,22,24,26,28,30,-1,-1,-1,-1,-1,-1,-1,-1,-1,-1,-1,-1,-1,-1,-1,-1],"split_conditions":[9E0,4E0,3E0,2E0,1E0,1.7E1,6E0,7E0,1E0,7E0,8E0,1E1,1.8E1,2.1E1,7E0,-2.0070522E0,-3.9606932E-1,-1.2585253E0,-3.8078433E-1,-4.9443042E-1,5.598767E-1,1.253286E0,-8.4085155E-1,-1.555249E0,-3.6564198E-1,1.5161003E0,5.021749E-1,1.2553918E0,3.4347973E0,2.3394365E0,3.5003808E0],"split_indices":[1,0,0,0,1,1,0,1,1,0,1,1,1,1,0,0,0,0,0,0,0,0,0,0,0,0,0,0,0,0,0],"split_type":[0,0,0,0,0,0,0,0,0,0,0,0,0,0,0,0,0,0,0,0,0,0,0,0,0,0,0,0,0,0,0],"sum_hessian":[7.27E2,5.31E2,1.96E2,2.05E2,3.26E2,6.2E1,1.34E2,8.4E1,1.21E2,2.76E2,5E1,4E1,2.2E1,8.5E1,4.9E1,7.9E1,5E0,1.03E2,1.8E1,1.96E2,8E1,4.6E1,4E0,3E0,3.7E1,2E0,2E1,7.4E1,1.1E1,2.6E1,2.3E1],"tree_param":{"num_deleted":"0","num_feature":"2","num_nodes":"31","size_leaf_vector":"1"}},{"base_weights":[7.917687E-1,-4.2151423E0,1.9663826E1,-1.3826296E1,7.4260755E0,6.4556046E0,2.6336842E1,-2.2487297E1,-1.0501855E1,5.020534E0,1.6855463E1,3.103635E0,3.1078104E1,1.8829536E1,3.512241E1,-1.9740885E0,-6.907887E-1,-1.0226898E0,-2.0446557E-1,-2.625868E-3,5.7942486E-1,2.1469808E0,1.0476805E0,3.0633256E-1,-6.857519E-1,-6.607226E-1,3.247787E0,1.0827105E0,2.3170536E0,2.3911731E0,3.5360365E0],"categories":[],"categories_nodes":[],"categories_segments":[],"categories_sizes":[],"default_left":[0,0,0,0,0,0,0,0,0,0,0,0,0,0,0,0,0,0,0,0,0,0,0,0,0,0,0,0,0,0,0],"id":36,"left_children":[1,3,5,7,9,11,13,15,17,19,21,23,25,27,29,-1,-1,-1,-1,-1,-1,-1,-1,-1,-1,-1,-1,-1,-1,-1,-1],"loss_changes":[6.669884E4,6.25348E4,1.2874496E4,8.574496E3,5.654122E3,4.1127725E3,5.8023438E3,2.3338398E3,4.010543E3,2.279919E3,1.5623721E3,4.2248257E2,2.5820508E3,2.5595488E3,7.690039E2,0E0,0E0,0E0,0E0,0E0,0E0,0E0,0E0,0E0,0E0,0E0,0E0,0E0,0E0,0E0,0E0],"parents":[2147483647,0,0,1,1,2,2,3,3,4,4,5,5,6,6,7,7,8,8,9,9,10,10,11,11,12,12,13,13,14,14],"right_children":[2,4,6,8,10,12,14,16,18,20,22,24,26,28,30,-1,-1,-1,-1,-1,-1,-1,-1,-1,-1,-1,-1,-1,-1,-1,-1],"split_conditions":[1.2E1,5E0,3E0,2E0,1E0,2.3E1,1.8E1,6E0,1E0,6E0,3E0,2.2E1,2E0,6E0,2.2E1,-1.9740885E0,-6.907887E-1,-1.0226898E0,-2.0446557E-1,-2.625868E-3,5.7942486E-1,2.1469808E0,1.0476805E0,3.0633256E-1,-6.857519E-1,-6.607226E-1,3.247787E0,1.0827105E0,2.3170536E0,2.3911731E0,3.5360365E0],"split_indices":[1,0,0,0,1,1,1,1,1,0,1,1,0,0,1,0,0,0,0,0,0,0,0,0,0,0,0,0,0,0,0],"split_type":[0,0,0,0,0,0,0,0,0,0,0,0,0,0,0,0,0,0,0,0,0,0,0,0,0,0,0,0,0,0,0],"sum_hessian":[7.04E2,5.57E2,1.47E2,3.05E2,2.52E2,5E1,9.7E1,8.3E1,2.22E2,2.02E2,5E1,4.5E1,5E0,5.4E1,4.3E1,7.1E1,1.2E1,1.72E2,5E1,6.2E1,1.4E2,1.2E1,3.8E1,4.3E1,2E0,1E0,4E0,3.7E1,1.7E1,3E1,1.3E1],"tree_param":{"num_deleted":"0","num_feature":"2","num_nodes":"31","size_leaf_vector":"1"}},{"base_weights":[5.737106E-2,-5.4466796E0,1.4849208E1,-1.618729E1,9.680877E-1,6.7788415E0,2.8507456E1,-1.5403464E1,-2.0435867E1,-6.544316E-1,9.092803E0,9.7107124E-1,1.3170673E1,7.3962955E0,3.184705E1,-1.313928E0,5.547766E-1,-2.92735E0,-9.365959E-1,-2.5775418E-1,1.4455563E-1,2.5101683E-1,1.9493488E0,-1.4302099E0,1.7371629E-1,2.4215682E0,9.07483E-1,7.3307896E-1,2.754375E-1,2.1273649E0,3.3032138E0],"categories":[],"categories_nodes":[],"categories_segments":[],"categories_sizes":[],"default_left":[0,0,0,0,0,0,0,0,0,0,0,0,0,0,0,0,0,0,0,0,0,0,0,0,0,0,0,0,0,0,0],"id":37,"left_children":[1,3,5,7,9,11,13,15,17,19,21,23,25,27,29,-1,-1,-1,-1,-1,-1,-1,-1,-1,-1,-1,-1,-1,-1,-1,-1],"loss_changes":[5.7641297E4,3.556731E4,2.0970344E4,3.279336E2,4.2770825E3,4.51613E3,4.7701484E3,3.9213594E3,3.379046E3,1.7184266E3,4.8352993E3,1.5094873E3,1.4686758E3,4.529956E1,1.929043E3,0E0,0E0,0E0,0E0,0E0,0E0,0E0,0E0,0E0,0E0,0E0,0E0,0E0,0E0,0E0,0E0],"parents":[2147483647,0,0,1,1,2,2,3,3,4,4,5,5,6,6,7,7,8,8,9,9,10,10,11,11,12,12,13,13,14,14],"right_children":[2,4,6,8,10,12,14,16,18,20,22,24,26,28,30,-1,-1,-1,-1,-1,-1,-1,-1,-1,-1,-1,-1,-1,-1,-1,-1],"split_conditions":[9E0,4E0,5E0,2E0,1E0,3E0,1.1E1,1E0,5E0,6E0,7E0,1E1,1E1,7E0,7E0,-1.313928E0,5.547766E-1,-2.92735E0,-9.365959E-1,-2.5775418E-1,1.4455563E-1,2.5101683E-1,1.9493488E0,-1.4302099E0,1.7371629E-1,2.4215682E0,9.07483E-1,7.3307896E-1,2.754375E-1,2.1273649E0,3.3032138E0],"split_indices":[1,0,0,1,1,0,1,1,1,0,0,1,1,0,0,0,0,0,0,0,0,0,0,0,0,0,0,0,0,0,0],"split_type":[0,0,0,0,0,0,0,0,0,0,0,0,0,0,0,0,0,0,0,0,0,0,0,0,0,0,0,0,0,0,0],"sum_hessian":[7.06E2,5.15E2,1.91E2,1.92E2,3.23E2,1.21E2,7E1,1.66E2,2.6E1,2.7E2,5.3E1,6.4E1,5.7E1,1E1,6E1,1.59E2,7E0,8E0,1.8E1,1.32E2,1.38E2,3.9E1,1.4E1,3E0,6.1E1,4E0,5.3E1,6E0,4E0,4.1E1,1.9E1],"tree_param":{"num_deleted":"0","num_feature":"2","num_nodes":"31","size_leaf_vector":"1"}},{"base_weights":[8.767127E-1,-4.7712727E0,1.4604772E1,-1.0976582E1,1.8934591E0,9.623167E-1,2.112245E1,-1.3173004E1,-5.5722995E0,-1.0826205E0,7.333164E0,-4.29185E0,2.311746E1,1.6841532E1,2.9595427E1,-1.2671345E0,-8.9936674E-1,-5.937233E-1,7.2151154E-1,-2.1309413E-1,1.2115254E0,4.415229E-1,1.5228453E0,1.12293616E-1,-5.016718E-1,8.098551E-1,2.3978784E0,8.52163E-1,1.7308714E0,1.5550728E0,2.5553637E0],"categories":[],"categories_nodes":[],"categories_segments":[],"categories_sizes":[],"default_left":[0,0,0,0,0,0,0,0,0,0,0,0,0,0,0,0,0,0,0,0,0,0,0,0,0,0,0,0,0,0,0],"id":38,"left_children":[1,3,5,7,9,11,13,15,17,19,21,23,25,27,29,-1,-1,-1,-1,-1,-1,-1,-1,-1,-1,-1,-1,-1,-1,-1,-1],"loss_changes":[5.426726E4,2.0533719E4,1.8118766E4,2.977207E3,3.8932979E3,7.898473E3,4.507125E3,7.5890234E2,2.1176152E3,4.0425667E3,1.6994624E3,6.2874603E2,8.5473047E2,2.5589512E3,4.5166016E2,0E0,0E0,0E0,0E0,0E0,0E0,0E0,0E0,0E0,0E0,0E0,0E0,0E0,0E0,0E0,0E0],"parents":[2147483647,0,0,1,1,2,2,3,3,4,4,5,5,6,6,7,7,8,8,9,9,10,10,11,11,12,12,13,13,14,14],"right_children":[2,4,6,8,10,12,14,16,18,20,22,24,26,28,30,-1,-1,-1,-1,-1,-1,-1,-1,-1,-1,-1,-1,-1,-1,-1,-1],"split_conditions":[7E0,5E0,3E0,4E0,7E0,2.1E1,1.8E1,2E0,2E0,4E0,1E0,1.1E1,2E0,5E0,4E0,-1.2671345E0,-8.9936674E-1,-5.937233E-1,7.2151154E-1,-2.1309413E-1,1.2115254E0,4.415229E-1,1.5228453E0,1.12293616E-1,-5.016718E-1,8.098551E-1,2.3978784E0,8.52163E-1,1.7308714E0,1.5550728E0,2.5553637E0],"split_indices":[1,0,0,0,0,1,1,0,1,1,1,1,0,0,0,0,0,0,0,0,0,0,0,0,0,0,0,0,0,0,0],"split_type":[0,0,0,0,0,0,0,0,0,0,0,0,0,0,0,0,0,0,0,0,0,0,0,0,0,0,0,0,0,0,0],"sum_hessian":[6.98E2,4.95E2,2.03E2,2.56E2,2.39E2,6.6E1,1.37E2,1.81E2,7.5E1,1.55E2,8.4E1,5.4E1,1.2E1,9.3E1,4.4E1,7.3E1,1.08E2,6.7E1,8E0,1.42E2,1.3E1,7.4E1,1E1,1.4E1,4E1,5E0,7E0,4.2E1,5.1E1,1E1,3.4E1],"tree_param":{"num_deleted":"0","num_feature":"2","num_nodes":"31","size_leaf_vector":"1"}},{"base_weights":[-1.3027462E-1,-7.7251167E0,9.566241E0,-1.3575602E1,5.055071E0,3.3706558E0,2.0391804E1,-1.6633276E1,-5.689256E0,2.6061096E0,3.197793E1,2.098558E0,4.4863155E-1,1.5213834E1,3.0056667E1,-1.4097974E0,-5.0055283E-1,-5.5661476E-1,4.6428344E-1,-5.7945204E-1,4.5344123E-1,2.449707E-1,3.105929E0,1.3009599E-1,1.9912168E-1,1.0032324E0,2.62652E0,1.6908162E0,3.456296E0],"categories":[],"categories_nodes":[],"categories_segments":[],"categories_sizes":[],"default_left":[0,0,0,0,0,0,0,0,0,0,0,0,0,0,0,0,0,0,0,0,0,0,0,0,0,0,0,0,0],"id":39,"left_children":[1,3,5,7,9,11,13,15,17,19,21,23,-1,25,27,-1,-1,-1,-1,-1,-1,-1,-1,-1,-1,-1,-1,-1,-1],"loss_changes":[5.0298773E4,2.870565E4,2.0052479E4,6.2473203E3,7.8945596E3,5.3466113E2,4.9975547E3,1.8296758E3,1.1337139E3,3.418695E3,1.8607432E3,1.8822693E1,0E0,3.0265508E3,3.4266445E3,0E0,0E0,0E0,0E0,0E0,0E0,0E0,0E0,0E0,0E0,0E0,0E0,0E0,0E0],"parents":[2147483647,0,0,1,1,2,2,3,3,4,4,5,5,6,6,7,7,8,8,9,9,10,10,11,11,13,13,14,14],"right_children":[2,4,6,8,10,12,14,16,18,20,22,24,-1,26,28,-1,-1,-1,-1,-1,-1,-1,-1,-1,-1,-1,-1,-1,-1],"split_conditions":[5E0,9E0,1E0,4E0,2.2E1,7E0,7E0,6E0,2E0,2E0,2E0,6E0,4.4863155E-1,2E1,1.6E1,-1.4097974E0,-5.0055283E-1,-5.5661476E-1,4.6428344E-1,-5.7945204E-1,4.5344123E-1,2.449707E-1,3.105929E0,1.3009599E-1,1.9912168E-1,1.0032324E0,2.62652E0,1.6908162E0,3.456296E0],"split_indices":[0,1,1,0,1,0,0,1,1,0,0,0,0,1,1,0,0,0,0,0,0,0,0,0,0,0,0,0,0],"split_type":[0,0,0,0,0,0,0,0,0,0,0,0,0,0,0,0,0,0,0,0,0,0,0,0,0,0,0,0,0],"sum_hessian":[6.81E2,3.82E2,2.99E2,2.62E2,1.2E2,1.91E2,1.08E2,1.88E2,7.4E1,1.11E2,9E0,1.23E2,6.8E1,7.2E1,3.6E1,1.71E2,1.7E1,6.7E1,7E0,2.6E1,8.5E1,2E0,7E0,5.8E1,6.5E1,6.4E1,8E0,2.3E1,1.3E1],"tree_param":{"num_deleted":"0","num_feature":"2","num_nodes":"29","size_leaf_vector":"1"}},{"base_weights":[8.734891E-1,-5.821247E0,1.093609E1,-1.5349284E0,-3.5412648E0,4.61943E0,2.0595432E1,-5.4110484E0,2.8374138E-1,3.2111206E0,4.3282185E1,2.92333E0,1.9348085E1,-6.3030505E-1,-3.2566056E-1,-3.0516408E-2,8.986131E-1,-6.834326E-1,4.4284625E0,2.9288313E-1,1.7676971E0],"categories":[],"categories_nodes":[],"categories_segments":[],"categories_sizes":[],"default_left":[0,0,0,0,0,0,0,0,0,0,0,0,0,0,0,0,0,0,0,0,0],"id":40,"left_children":[1,3,5,-1,7,9,11,13,-1,15,17,-1,19,-1,-1,-1,-1,-1,-1,-1,-1],"loss_changes":[4.789385E4,1.2943934E4,1.7233059E4,0E0,4.8698213E3,9.280714E3,1.5207188E3,9.271084E2,0E0,4.845709E3,4.2271924E3,0E0,4.4887656E3,0E0,0E0,0E0,0E0,0E0,0E0,0E0,0E0],"parents":[2147483647,0,0,1,1,2,2,4,4,5,5,6,6,7,7,9,9,10,10,12,12],"right_children":[2,4,6,-1,8,10,12,14,-1,16,18,-1,20,-1,-1,-1,-1,-1,-1,-1,-1],"split_conditions":[1E0,2E0,5E0,-1.5349284E0,7E0,2.3E1,2E0,4E0,2.8374138E-1,1.6E1,2E0,2.92333E0,5E0,-6.3030505E-1,-3.2566056E-1,-3.0516408E-2,8.986131E-1,-6.834326E-1,4.4284625E0,2.9288313E-1,1.7676971E0],"split_indices":[1,0,0,0,0,1,1,0,0,1,0,0,1,0,0,0,0,0,0,0,0],"split_type":[0,0,0,0,0,0,0,0,0,0,0,0,0,0,0,0,0,0,0,0,0],"sum_hessian":[7.09E2,4.26E2,2.83E2,6.1E1,3.65E2,1.72E2,1.11E2,2.89E2,7.6E1,1.67E2,5E0,6E0,1.05E2,1E2,1.89E2,1.16E2,5.1E1,1E0,4E0,1.6E1,8.9E1],"tree_param":{"num_deleted":"0","num_feature":"2","num_nodes":"21","size_leaf_vector":"1"}},{"base_weights":[7.725075E-2,-4.1833444E0,1.2361538E1,-1.4558716E1,-3.498304E-1,9.911282E0,3.1468023E1,-1.58398695E1,-8.243784E-1,-2.3622718E0,6.067289E0,6.6789017E0,1.9209005E1,2.8271077E0,3.4493286E1,-1.1621354E0,-2.3906152E0,-3.7729385E-1,5.076582E-1,-3.5721877E-1,-3.808917E-2,4.247916E-1,1.6970507E0,1.264383E-1,8.398628E-1,1.8205153E0,9.7950864E-1,9.9534667E-1,-6.560937E-1,1.8067826E0,3.7244651E0],"categories":[],"categories_nodes":[],"categories_segments":[],"categories_sizes":[],"default_left":[0,0,0,0,0,0,0,0,0,0,0,0,0,0,0,0,0,0,0,0,0,0,0,0,0,0,0,0,0,0,0],"id":41,"left_children":[1,3,5,7,9,11,13,15,17,19,21,23,25,27,29,-1,-1,-1,-1,-1,-1,-1,-1,-1,-1,-1,-1,-1,-1,-1,-1],"loss_changes":[3.65839E4,2.0637684E4,8.114955E3,2.4503516E3,4.921682E3,4.7103643E3,1.6354102E3,1.9263164E3,3.9268704E2,1.1481644E3,9.312554E2,2.3396206E3,7.3441797E2,4.2013928E2,1.5341875E3,0E0,0E0,0E0,0E0,0E0,0E0,0E0,0E0,0E0,0E0,0E0,0E0,0E0,0E0,0E0,0E0],"parents":[2147483647,0,0,1,1,2,2,3,3,4,4,5,5,6,6,7,7,8,8,9,9,10,10,11,11,12,12,13,13,14,14],"right_children":[2,4,6,8,10,12,14,16,18,20,22,24,26,28,30,-1,-1,-1,-1,-1,-1,-1,-1,-1,-1,-1,-1,-1,-1,-1,-1],"split_conditions":[9E0,3E0,2.2E1,6E0,7E0,6E0,2E0,2E0,2E0,5E0,6E0,1.4E1,1.7E1,2.3E1,2.3E1,-1.1621354E0,-2.3906152E0,-3.7729385E-1,5.076582E-1,-3.5721877E-1,-3.808917E-2,4.247916E-1,1.6970507E0,1.264383E-1,8.398628E-1,1.8205153E0,9.7950864E-1,9.9534667E-1,-6.560937E-1,1.8067826E0,3.7244651E0],"split_indices":[1,0,1,1,0,0,0,1,0,0,1,1,1,1,1,0,0,0,0,0,0,0,0,0,0,0,0,0,0,0,0],"split_type":[0,0,0,0,0,0,0,0,0,0,0,0,0,0,0,0,0,0,0,0,0,0,0,0,0,0,0,0,0,0,0],"sum_hessian":[6.97E2,5.18E2,1.79E2,1.39E2,3.79E2,1.6E2,1.9E1,1.27E2,1.2E1,2.89E2,9E1,1.2E2,4E1,2E0,1.7E1,1.18E2,9E0,8E0,4E0,1.36E2,1.53E2,8.7E1,3E0,5.2E1,6.8E1,2.5E1,1.5E1,1E0,1E0,1E1,7E0],"tree_param":{"num_deleted":"0","num_feature":"2","num_nodes":"31","size_leaf_vector":"1"}},{"base_weights":[5.75669E-1,-9.76703E0,4.589941E0,-1.2983348E0,-1.9903283E0,9.967168E-1,1.795549E1,-3.7017405E0,3.6158325E1,-2.4030135E0,2.8355145E0,1.5275466E1,3.0506979E1,7.7577513E-1,-3.9835128E-1,-6.298486E-1,4.276787E0,-2.706462E-1,8.697715E-1,1.5228832E-1,7.0601845E-1,9.9894494E-1,2.0713036E0,1.4247477E0,2.7216585E0],"categories":[],"categories_nodes":[],"categories_segments":[],"categories_sizes":[],"default_left":[0,0,0,0,0,0,0,0,0,0,0,0,0,0,0,0,0,0,0,0,0,0,0,0,0],"id":42,"left_children":[1,3,5,-1,7,9,11,13,15,17,19,21,23,-1,-1,-1,-1,-1,-1,-1,-1,-1,-1,-1,-1],"loss_changes":[2.9398342E4,9.918041E3,2.4475064E4,0E0,6.0750635E3,2.526134E3,3.1669336E3,1.5547712E3,3.4681372E3,1.8842733E3,1.4456526E3,2.3706523E3,1.9720703E2,0E0,0E0,0E0,0E0,0E0,0E0,0E0,0E0,0E0,0E0,0E0,0E0],"parents":[2147483647,0,0,1,1,2,2,4,4,5,5,6,6,7,7,8,8,9,9,10,10,11,11,12,12],"right_children":[2,4,6,-1,8,10,12,14,16,18,20,22,24,-1,-1,-1,-1,-1,-1,-1,-1,-1,-1,-1,-1],"split_conditions":[3E0,1E0,1.1E1,-1.2983348E0,2.3E1,5E0,7E0,2E0,2E0,9E0,4E0,2.1E1,1.6E1,7.7577513E-1,-3.9835128E-1,-6.298486E-1,4.276787E0,-2.706462E-1,8.697715E-1,1.5228832E-1,7.0601845E-1,9.9894494E-1,2.0713036E0,1.4247477E0,2.7216585E0],"split_indices":[0,1,1,0,1,0,0,1,0,1,1,1,1,0,0,0,0,0,0,0,0,0,0,0,0],"split_type":[0,0,0,0,0,0,0,0,0,0,0,0,0,0,0,0,0,0,0,0,0,0,0,0,0],"sum_hessian":[7.06E2,1.97E2,5.09E2,1.07E2,9E1,4.02E2,1.07E2,8.7E1,3E0,1.41E2,2.61E2,9E1,1.7E1,7E0,8E1,1E0,2E0,1.32E2,9E0,2.27E2,3.4E1,7.3E1,1.7E1,5E0,1.2E1],"tree_param":{"num_deleted":"0","num_feature":"2","num_nodes":"25","size_leaf_vector":"1"}},{"base_weights":[-3.050887E-1,-3.378373E0,1.0958887E1,-9.00417E0,1.8464099E-1,6.826056E0,2.4086174E1,-1.2583129E1,-6.539759E0,-2.474646E0,2.8897705E0,-1.5224236E0,1.0407998E1,7.5941696E0,2.840364E0,-1.0696038E0,-6.33166E-1,-6.077829E-1,-2.4509338E-1,-2.3652008E-1,1.1445585E0,1.2689859E-1,1.1622645E0,5.2962564E-2,-8.5335094E-1,1.0703073E0,3.613749E-1,1.3859108E-1,1.3660058E0],"categories":[],"categories_nodes":[],"categories_segments":[],"categories_sizes":[],"default_left":[0,0,0,0,0,0,0,0,0,0,0,0,0,0,0,0,0,0,0,0,0,0,0,0,0,0,0,0,0],"id":43,"left_children":[1,3,5,7,9,11,13,15,17,19,21,23,25,27,-1,-1,-1,-1,-1,-1,-1,-1,-1,-1,-1,-1,-1,-1,-1],"loss_changes":[2.454614E4,1.1166615E4,8.0820215E3,1.822834E3,2.4674019E3,3.5145854E3,6.5095996E3,2.1380078E2,4.546128E2,1.4412306E3,2.5560718E3,7.2618616E2,1.3746211E3,8.5961896E2,0E0,0E0,0E0,0E0,0E0,0E0,0E0,0E0,0E0,0E0,0E0,0E0,0E0,0E0,0E0],"parents":[2147483647,0,0,1,1,2,2,3,3,4,4,5,5,6,6,7,7,8,8,9,9,10,10,11,11,12,12,13,13],"right_children":[2,4,6,8,10,12,14,16,18,20,22,24,26,28,-1,-1,-1,-1,-1,-1,-1,-1,-1,-1,-1,-1,-1,-1,-1],"split_conditions":[1.2E1,4E0,2.1E1,2E0,6E0,3E0,3E0,6E0,1E0,1.1E1,6E0,1.9E1,1.7E1,2.3E1,2.840364E0,-1.0696038E0,-6.33166E-1,-6.077829E-1,-2.4509338E-1,-2.3652008E-1,1.1445585E0,1.2689859E-1,1.1622645E0,5.2962564E-2,-8.5335094E-1,1.0703073E0,3.613749E-1,1.3859108E-1,1.3660058E0],"split_indices":[1,0,1,0,0,0,0,1,1,1,1,1,1,1,0,0,0,0,0,0,0,0,0,0,0,0,0,0,0],"split_type":[0,0,0,0,0,0,0,0,0,0,0,0,0,0,0,0,0,0,0,0,0,0,0,0,0,0,0,0,0],"sum_hessian":[7.07E2,5.56E2,1.51E2,2.15E2,3.41E2,1.16E2,3.5E1,8.6E1,1.29E2,1.72E2,1.69E2,3.5E1,8.1E1,1.5E1,2E1,7.2E1,1.4E1,9.8E1,3.1E1,1.68E2,4E0,1.53E2,1.6E1,2.9E1,6E0,5.3E1,2.8E1,1E1,5E0],"tree_param":{"num_deleted":"0","num_feature":"2","num_nodes":"29","size_leaf_vector":"1"}},{"base_weights":[2.6934205E-2,-3.5269392E0,9.584842E0,-1.0187639E1,4.805027E-1,7.6725388E0,2.3839128E1,-1.167446E1,-6.4614067E0,-9.9390155E-1,7.6025214E0,-2.9905274E0,9.458084E0,1.9476788E1,3.5980012E0,-8.503381E-1,-1.3764282E0,-4.3044075E-1,-1.1801822E0,-2.95212E-1,1.1969002E-1,3.2579672E-1,1.3395619E0,-1.1557779E0,2.6005572E-1,6.4039636E-1,1.5412804E0,8.065299E-1,1.754912E0],"categories":[],"categories_nodes":[],"categories_segments":[],"categories_sizes":[],"default_left":[0,0,0,0,0,0,0,0,0,0,0,0,0,0,0,0,0,0,0,0,0,0,0,0,0,0,0,0,0],"id":44,"left_children":[1,3,5,7,9,11,13,15,17,19,21,23,25,27,-1,-1,-1,-1,-1,-1,-1,-1,-1,-1,-1,-1,-1,-1,-1],"loss_changes":[2.381112E4,1.3644695E4,4.996211E3,9.8829297E2,3.3677913E3,3.2459414E3,1.1524736E3,6.0334766E2,4.314353E2,1.7913737E3,1.7067598E3,1.8345591E3,1.9123428E3,2.4101514E2,0E0,0E0,0E0,0E0,0E0,0E0,0E0,0E0,0E0,0E0,0E0,0E0,0E0,0E0,0E0],"parents":[2147483647,0,0,1,1,2,2,3,3,4,4,5,5,6,6,7,7,8,8,9,9,10,10,11,11,12,12,13,13],"right_children":[2,4,6,8,10,12,14,16,18,20,22,24,26,28,-1,-1,-1,-1,-1,-1,-1,-1,-1,-1,-1,-1,-1,-1,-1],"split_conditions":[9E0,4E0,7E0,3E0,1E0,2E0,2.2E1,2E0,5E0,6E0,7E0,1.3E1,2.2E1,1.1E1,3.5980012E0,-8.503381E-1,-1.3764282E0,-4.3044075E-1,-1.1801822E0,-2.95212E-1,1.1969002E-1,3.2579672E-1,1.3395619E0,-1.1557779E0,2.6005572E-1,6.4039636E-1,1.5412804E0,8.065299E-1,1.754912E0],"split_indices":[1,0,0,0,1,0,1,1,1,0,0,1,1,1,0,0,0,0,0,0,0,0,0,0,0,0,0,0,0],"split_type":[0,0,0,0,0,0,0,0,0,0,0,0,0,0,0,0,0,0,0,0,0,0,0,0,0,0,0,0,0],"sum_hessian":[6.99E2,5.1E2,1.89E2,1.91E2,3.19E2,1.68E2,2.1E1,1.35E2,5.6E1,2.65E2,5.4E1,2.4E1,1.44E2,1.9E1,2E0,1.16E2,1.9E1,5.1E1,5E0,1.27E2,1.38E2,4E1,1.4E1,8E0,1.6E1,1.27E2,1.7E1,5E0,1.4E1],"tree_param":{"num_deleted":"0","num_feature":"2","num_nodes":"29","size_leaf_vector":"1"}},{"base_weights":[-1.1651689E-1,-6.4448667E0,4.023797E0,-1.0221886E1,-5.248326E-2,7.3935354E-1,1.412033E1,-1.48598385E1,-6.8681126E0,-5.208605E0,2.7131543E0,-1.18273474E-1,4.9360795E0,1.0768018E1,2.5603876E1,-1.0883579E0,-1.8687292E0,-3.260813E-1,-7.841644E-1,-7.6299554E-1,1.1764843E0,-3.298544E-1,3.1533915E-1,9.7146325E-2,-4.305446E-2,1.0454361E0,7.633943E-2,6.361332E-1,1.926451E0,1.0331872E0,2.749698E0],"categories":[],"categories_nodes":[],"categories_segments":[],"categories_sizes":[],"default_left":[0,0,0,0,0,0,0,0,0,0,0,0,0,0,0,0,0,0,0,0,0,0,0,0,0,0,0,0,0,0,0],"id":45,"left_children":[1,3,5,7,9,11,13,15,17,19,21,23,25,27,29,-1,-1,-1,-1,-1,-1,-1,-1,-1,-1,-1,-1,-1,-1,-1,-1],"loss_changes":[1.8550291E4,6.759827E3,1.4182681E4,2.6355566E3,1.511428E3,1.1667329E3,3.76642E3,4.6109863E2,8.11999E2,3.3299307E3,5.957848E2,1.517373E2,1.7684183E3,2.9204395E3,2.114833E3,0E0,0E0,0E0,0E0,0E0,0E0,0E0,0E0,0E0,0E0,0E0,0E0,0E0,0E0,0E0,0E0],"parents":[2147483647,0,0,1,1,2,2,3,3,4,4,5,5,6,6,7,7,8,8,9,9,10,10,11,11,12,12,13,13,14,14],"right_children":[2,4,6,8,10,12,14,16,18,20,22,24,26,28,30,-1,-1,-1,-1,-1,-1,-1,-1,-1,-1,-1,-1,-1,-1,-1,-1],"split_conditions":[4E0,6E0,9E0,2E0,2E0,1E0,7E0,2E0,3E0,2E1,1E1,5E0,3E0,2.1E1,1.6E1,-1.0883579E0,-1.8687292E0,-3.260813E-1,-7.841644E-1,-7.6299554E-1,1.1764843E0,-3.298544E-1,3.1533915E-1,9.7146325E-2,-4.305446E-2,1.0454361E0,7.633943E-2,6.361332E-1,1.926451E0,1.0331872E0,2.749698E0],"split_indices":[0,1,1,0,0,1,0,1,0,1,1,0,1,1,1,0,0,0,0,0,0,0,0,0,0,0,0,0,0,0,0],"split_type":[0,0,0,0,0,0,0,0,0,0,0,0,0,0,0,0,0,0,0,0,0,0,0,0,0,0,0,0,0,0,0],"sum_hessian":[7.06E2,2.79E2,4.27E2,1.75E2,1.04E2,3.23E2,1.04E2,7.2E1,1.03E2,3.6E1,6.8E1,2.69E2,5.4E1,8.2E1,2.2E1,6.5E1,7E0,5.4E1,4.9E1,3E1,6E0,1E1,5.8E1,6.4E1,2.05E2,1.7E1,3.7E1,6.9E1,1.3E1,1E1,1.2E1],"tree_param":{"num_deleted":"0","num_feature":"2","num_nodes":"31","size_leaf_vector":"1"}},{"base_weights":[1.5731981E0,-8.0824506E-1,1.0120879E1,-4.8437057E0,4.0951643E0,7.8454437E0,2.599529E1,-9.505948E0,-2.977984E0,1.9269255E0,7.9765844E0,6.5195518E0,1.5275934E1,1.3406677E1,2.3626883E0,-8.6032706E-1,-2.2383462E-1,-3.025749E-1,3.2597017E-1,2.0868087E-1,-6.1827856E-1,7.07854E-1,-1.6199152E0,3.5144895E-1,9.315119E-1,4.8134887E-1,1.5839002E0,1.8139281E0,-2.735026E-1],"categories":[],"categories_nodes":[],"categories_segments":[],"categories_sizes":[],"default_left":[0,0,0,0,0,0,0,0,0,0,0,0,0,0,0,0,0,0,0,0,0,0,0,0,0,0,0,0,0],"id":46,"left_children":[1,3,5,7,9,11,13,15,17,19,21,23,25,27,-1,-1,-1,-1,-1,-1,-1,-1,-1,-1,-1,-1,-1,-1,-1],"loss_changes":[1.4481168E4,1.1041481E4,5.39484E3,2.633417E3,2.1054229E3,1.2501357E3,4.5035938E2,6.9832227E2,1.2631912E3,1.0928604E3,2.393266E3,1.234648E3,7.18416E2,1.01308997E3,0E0,0E0,0E0,0E0,0E0,0E0,0E0,0E0,0E0,0E0,0E0,0E0,0E0,0E0,0E0],"parents":[2147483647,0,0,1,1,2,2,3,3,4,4,5,5,6,6,7,7,8,8,9,9,10,10,11,11,12,12,13,13],"right_children":[2,4,6,8,10,12,14,16,18,20,22,24,26,28,-1,-1,-1,-1,-1,-1,-1,-1,-1,-1,-1,-1,-1,-1,-1],"split_conditions":[1.2E1,5E0,7E0,2E0,7E0,2.2E1,1.6E1,7E0,9E0,8E0,1E1,5E0,3E0,1.3E1,2.3626883E0,-8.6032706E-1,-2.2383462E-1,-3.025749E-1,3.2597017E-1,2.0868087E-1,-6.1827856E-1,7.07854E-1,-1.6199152E0,3.5144895E-1,9.315119E-1,4.8134887E-1,1.5839002E0,1.8139281E0,-2.735026E-1],"split_indices":[1,0,0,0,0,1,1,1,1,1,1,0,0,1,0,0,0,0,0,0,0,0,0,0,0,0,0,0,0],"split_type":[0,0,0,0,0,0,0,0,0,0,0,0,0,0,0,0,0,0,0,0,0,0,0,0,0,0,0,0,0],"sum_hessian":[7.1E2,5.56E2,1.54E2,3.05E2,2.51E2,1.36E2,1.8E1,8.6E1,2.19E2,1.62E2,8.9E1,1.17E2,1.9E1,5E0,1.3E1,7.2E1,1.4E1,1.97E2,2.2E1,1.52E2,1E1,8.7E1,2E0,8.4E1,3.3E1,7E0,1.2E1,3E0,2E0],"tree_param":{"num_deleted":"0","num_feature":"2","num_nodes":"29","size_leaf_vector":"1"}},{"base_weights":[2.1239562E-1,-2.7432427E0,7.393428E0,-5.2084966E0,2.6231458E0,3.8683236E-1,1.1048439E1,-6.186884E0,2.985978E-1,3.4163826E0,-1.0977064E1,-8.432726E-1,1.4058533E1,9.519536E0,2.3691763E1,-6.029538E-1,-3.5678688E-1,-1.0869516E0,3.7552255E-1,1.844515E-1,2.074919E0,-1.5313444E0,3.21145E-1,6.4442763E-3,-2.4726317E0,-7.3600584E-1,1.6440214E0,8.269924E-1,-2.8236082E-1,1.4278703E0,3.1334438E0],"categories":[],"categories_nodes":[],"categories_segments":[],"categories_sizes":[],"default_left":[0,0,0,0,0,0,0,0,0,0,0,0,0,0,0,0,0,0,0,0,0,0,0,0,0,0,0,0,0,0,0],"id":47,"left_children":[1,3,5,7,9,11,13,15,17,19,21,23,25,27,29,-1,-1,-1,-1,-1,-1,-1,-1,-1,-1,-1,-1,-1,-1,-1,-1],"loss_changes":[1.5068477E4,6.6681064E3,5.296827E3,1.8607314E3,1.7528235E3,1.2227244E3,2.4034004E3,6.4954004E2,3.2985142E3,3.7173071E3,1.1784475E3,1.8633802E3,1.0949965E3,1.3491924E3,5.669883E2,0E0,0E0,0E0,0E0,0E0,0E0,0E0,0E0,0E0,0E0,0E0,0E0,0E0,0E0,0E0,0E0],"parents":[2147483647,0,0,1,1,2,2,3,3,4,4,5,5,6,6,7,7,8,8,9,9,10,10,11,11,12,12,13,13,14,14],"right_children":[2,4,6,8,10,12,14,16,18,20,22,24,26,28,30,-1,-1,-1,-1,-1,-1,-1,-1,-1,-1,-1,-1,-1,-1,-1,-1],"split_conditions":[7E0,6E0,3E0,1E0,3E0,2.3E1,2.2E1,4E0,2E0,1E0,4E0,2.2E1,2E0,2.1E1,7E0,-6.029538E-1,-3.5678688E-1,-1.0869516E0,3.7552255E-1,1.844515E-1,2.074919E0,-1.5313444E0,3.21145E-1,6.4442763E-3,-2.4726317E0,-7.3600584E-1,1.6440214E0,8.269924E-1,-2.8236082E-1,1.4278703E0,3.1334438E0],"split_indices":[1,0,0,1,1,1,1,0,0,1,1,1,0,1,0,0,0,0,0,0,0,0,0,0,0,0,0,0,0,0,0],"split_type":[0,0,0,0,0,0,0,0,0,0,0,0,0,0,0,0,0,0,0,0,0,0,0,0,0,0,0,0,0,0,0],"sum_hessian":[7.08E2,5.02E2,2.06E2,3.44E2,1.58E2,7.1E1,1.35E2,2.92E2,5.2E1,1.5E2,8E0,6.6E1,5E0,1.22E2,1.3E1,1.62E2,1.3E2,1.2E1,4E1,1.44E2,6E0,5E0,3E0,6.5E1,1E0,1E0,4E0,1.15E2,7E0,1.1E1,2E0],"tree_param":{"num_deleted":"0","num_feature":"2","num_nodes":"31","size_leaf_vector":"1"}},{"base_weights":[1.1200852E0,-1.0127634E0,8.293277E0,-3.6811256E0,2.0272741E0,6.161894E0,2.5984879E1,-6.5914817E0,-2.4361663E0,1.5058308E0,5.4737325E0,3.338262E0,1.7341309E1,2.3156853E0,1.5731689E1,-5.961679E-1,-9.4843745E-2,-2.981528E-1,2.2289824E-1,1.7532365E-1,-1.8836132E0,7.112259E-1,-9.106119E-1,8.0748045E-1,1.2624045E-1,4.9949473E-1,2.7946758E0,-3.3693847E-1,2.9663217E0],"categories":[],"categories_nodes":[],"categories_segments":[],"categories_sizes":[],"default_left":[0,0,0,0,0,0,0,0,0,0,0,0,0,0,0,0,0,0,0,0,0,0,0,0,0,0,0,0,0],"id":48,"left_children":[1,3,5,7,9,11,13,15,17,19,21,23,25,-1,27,-1,-1,-1,-1,-1,-1,-1,-1,-1,-1,-1,-1,-1,-1],"loss_changes":[1.0748529E4,4.404124E3,5.9108027E3,1.0310684E3,4.4822913E2,4.5192603E3,6.0776367E1,3.9127515E2,1.385502E3,3.8650818E3,2.0017104E3,1.375315E3,5.443586E3,0E0,2.710599E3,0E0,0E0,0E0,0E0,0E0,0E0,0E0,0E0,0E0,0E0,0E0,0E0,0E0,0E0],"parents":[2147483647,0,0,1,1,2,2,3,3,4,4,5,5,6,6,7,7,8,8,9,9,10,10,11,11,12,12,14,14],"right_children":[2,4,6,8,10,12,14,16,18,20,22,24,26,-1,28,-1,-1,-1,-1,-1,-1,-1,-1,-1,-1,-1,-1,-1,-1],"split_conditions":[1.1E1,5E0,7E0,2E0,4E0,2.1E1,2.1E1,6E0,1E0,3E0,7E0,1.3E1,4E0,2.3156853E0,2.2E1,-5.961679E-1,-9.4843745E-2,-2.981528E-1,2.2289824E-1,1.7532365E-1,-1.8836132E0,7.112259E-1,-9.106119E-1,8.0748045E-1,1.2624045E-1,4.9949473E-1,2.7946758E0,-3.3693847E-1,2.9663217E0],"split_indices":[1,0,0,0,1,1,1,1,1,1,0,1,0,0,1,0,0,0,0,0,0,0,0,0,0,0,0,0,0],"split_type":[0,0,0,0,0,0,0,0,0,0,0,0,0,0,0,0,0,0,0,0,0,0,0,0,0,0,0,0,0],"sum_hessian":[7.01E2,5.41E2,1.6E2,2.88E2,2.53E2,1.44E2,1.6E1,8.5E1,2.03E2,2.21E2,3.2E1,1.16E2,2.8E1,1.1E1,5E0,7.3E1,1.2E1,1.63E2,4E1,2.16E2,5E0,2.7E1,5E0,2.3E1,9.3E1,1.8E1,1E1,3E0,2E0],"tree_param":{"num_deleted":"0","num_feature":"2","num_nodes":"29","size_leaf_vector":"1"}},{"base_weights":[7.405599E-2,-1.4255813E0,7.856018E0,-6.855994E0,7.0974386E-1,5.729699E0,1.9114326E1,-6.232792E0,-1.5297485E1,-7.3332256E-1,5.4605494E0,5.8726436E-3,1.0499446E1,1.4922089E1,2.8081186E0,-6.6054374E-1,-2.7976887E-2,-2.925608E0,-2.1991943E-1,-1.3568684E-1,2.1751444E-1,2.1222879E-1,1.189355E0,-1.9299291E0,1.8003088E-1,1.8945724E0,6.153577E-1,1.8572993E0,-2.2166991E-1],"categories":[],"categories_nodes":[],"categories_segments":[],"categories_sizes":[],"default_left":[0,0,0,0,0,0,0,0,0,0,0,0,0,0,0,0,0,0,0,0,0,0,0,0,0,0,0,0,0],"id":49,"left_children":[1,3,5,7,9,11,13,15,17,19,21,23,25,27,-1,-1,-1,-1,-1,-1,-1,-1,-1,-1,-1,-1,-1,-1,-1],"loss_changes":[8.378676E3,6.9854766E3,2.667375E3,7.989834E2,2.9725344E3,2.7027576E3,6.826074E2,1.9022944E3,2.8358008E3,1.1114043E3,2.6279922E3,2.5456523E3,1.8163838E3,2.4122998E3,0E0,0E0,0E0,0E0,0E0,0E0,0E0,0E0,0E0,0E0,0E0,0E0,0E0,0E0,0E0],"parents":[2147483647,0,0,1,1,2,2,3,3,4,4,5,5,6,6,7,7,8,8,9,9,10,10,11,11,12,12,13,13],"right_children":[2,4,6,8,10,12,14,16,18,20,22,24,26,28,-1,-1,-1,-1,-1,-1,-1,-1,-1,-1,-1,-1,-1,-1,-1],"split_conditions":[1.4E1,3E0,2.2E1,1.2E1,7E0,4E0,7E0,1E0,1.3E1,4E0,1E0,1.5E1,1.5E1,6E0,2.8081186E0,-6.6054374E-1,-2.7976887E-2,-2.925608E0,-2.1991943E-1,-1.3568684E-1,2.1751444E-1,2.1222879E-1,1.189355E0,-1.9299291E0,1.8003088E-1,1.8945724E0,6.153577E-1,1.8572993E0,-2.2166991E-1],"split_indices":[1,0,1,1,0,0,0,1,1,1,1,1,1,0,0,0,0,0,0,0,0,0,0,0,0,0,0,0,0],"split_type":[0,0,0,0,0,0,0,0,0,0,0,0,0,0,0,0,0,0,0,0,0,0,0,0,0,0,0,0,0],"sum_hessian":[7.16E2,6.01E2,1.15E2,1.69E2,4.32E2,9.8E1,1.7E1,1.59E2,1E1,3.32E2,1E2,4.5E1,5.3E1,1.5E1,2E0,1.18E2,4.1E1,3E0,7E0,2.6E2,7.2E1,7.8E1,2.2E1,3E0,4.2E1,8E0,4.5E1,1E1,5E0],"tree_param":{"num_deleted":"0","num_feature":"2","num_nodes":"29","size_leaf_vector":"1"}},{"base_weights":[1.1742028E0,-6.7836297E-1,5.7411494E0,-1.7690964E0,6.2552543E0,3.6717165E0,1.1318299E1,-2.4237342E0,5.2682805E-1,1.4391214E0,1.522554E1,4.5834575E0,-1.1222805E1,1.8423676E0,8.2040205E0,-2.602038E-1,-6.304662E-2,9.737163E-2,-5.1479053E-1,-2.7652401E-2,4.43464E-1,3.864951E-1,1.6912057E0,2.8876874E-1,1.8390625E0,-1.3476286E0,1.3378906E-3,5.396205E-1,1.7176025E0],"categories":[],"categories_nodes":[],"categories_segments":[],"categories_sizes":[],"default_left":[0,0,0,0,0,0,0,0,0,0,0,0,0,0,0,0,0,0,0,0,0,0,0,0,0,0,0,0,0],"id":50,"left_children":[1,3,5,7,9,11,13,15,17,19,21,23,25,-1,27,-1,-1,-1,-1,-1,-1,-1,-1,-1,-1,-1,-1,-1,-1],"loss_changes":[6.010899E3,3.8378064E3,2.324458E3,6.595906E2,2.9590327E3,2.1020112E3,1.8170381E3,4.5971338E2,4.7879956E2,3.3886798E2,1.3733335E3,2.4800823E3,5.6903516E2,0E0,7.260178E2,0E0,0E0,0E0,0E0,0E0,0E0,0E0,0E0,0E0,0E0,0E0,0E0,0E0,0E0],"parents":[2147483647,0,0,1,1,2,2,3,3,4,4,5,5,6,6,7,7,8,8,9,9,10,10,11,11,12,12,14,14],"right_children":[2,4,6,8,10,12,14,16,18,20,22,24,26,-1,28,-1,-1,-1,-1,-1,-1,-1,-1,-1,-1,-1,-1,-1,-1],"split_conditions":[6E0,1.6E1,5E0,5E0,4E0,3E0,1E1,1E0,1.2E1,3E0,1.8E1,1E0,4E0,1.8423676E0,2.3E1,-2.602038E-1,-6.304662E-2,9.737163E-2,-5.1479053E-1,-2.7652401E-2,4.43464E-1,3.864951E-1,1.6912057E0,2.8876874E-1,1.8390625E0,-1.3476286E0,1.3378906E-3,5.396205E-1,1.7176025E0],"split_indices":[0,1,1,0,0,1,1,1,1,0,1,1,1,0,1,0,0,0,0,0,0,0,0,0,0,0,0,0,0],"split_type":[0,0,0,0,0,0,0,0,0,0,0,0,0,0,0,0,0,0,0,0,0,0,0,0,0,0,0,0,0],"sum_hessian":[7.09E2,5.05E2,2.04E2,4.37E2,6.8E1,1.5E2,5.4E1,3.4E2,9.7E1,4.5E1,2.3E1,1.42E2,8E0,1E1,4.4E1,2.25E2,1.15E2,8.9E1,8E0,3.2E1,1.3E1,9E0,1.4E1,1.36E2,6E0,5E0,3E0,4.1E1,3E0],"tree_param":{"num_deleted":"0","num_feature":"2","num_nodes":"29","size_leaf_vector":"1"}},{"base_weights":[2.6326233E-1,-3.0544379E0,4.546431E0,-4.639016E0,4.331206E0,1.5563518E0,1.00968895E1,-6.698644E0,-3.774216E0,3.6462142E0,1.1144246E1,1.3977907E0,1.44067E-1,2.34416E0,8.679903E0,-6.348517E-1,8.1300914E-1,-2.7301264E-1,-1.572082E0,4.7835377E-1,1.0195111E-1,-7.9973143E-1,1.3897402E0,1.3791268E-1,8.562071E-2,8.8926926E-2,8.0600286E-1],"categories":[],"categories_nodes":[],"categories_segments":[],"categories_sizes":[],"default_left":[0,0,0,0,0,0,0,0,0,0,0,0,0,0,0,0,0,0,0,0,0,0,0,0,0,0,0],"id":51,"left_children":[1,3,5,7,9,11,13,15,17,19,21,23,-1,-1,25,-1,-1,-1,-1,-1,-1,-1,-1,-1,-1,-1,-1],"loss_changes":[1.0060548E4,4.6896416E3,5.112546E3,5.6072217E2,2.9071387E2,5.3135376E0,2.684708E3,2.082958E3,1.2761873E3,3.576214E2,9.635893E2,1.1720352E1,0E0,0E0,1.0657998E3,0E0,0E0,0E0,0E0,0E0,0E0,0E0,0E0,0E0,0E0,0E0,0E0],"parents":[2147483647,0,0,1,1,2,2,3,3,4,4,5,5,6,6,7,7,8,8,9,9,10,10,11,11,14,14],"right_children":[2,4,6,8,10,12,14,16,18,20,22,24,-1,-1,26,-1,-1,-1,-1,-1,-1,-1,-1,-1,-1,-1,-1],"split_conditions":[5E0,1.5E1,1E0,2E0,2.3E1,7E0,2E0,1.2E1,1.4E1,1.9E1,2E0,6E0,1.44067E-1,2.34416E0,5E0,-6.348517E-1,8.1300914E-1,-2.7301264E-1,-1.572082E0,4.7835377E-1,1.0195111E-1,-7.9973143E-1,1.3897402E0,1.3791268E-1,8.562071E-2,8.8926926E-2,8.0600286E-1],"split_indices":[0,1,1,0,1,0,1,1,1,1,0,0,0,0,1,0,0,0,0,0,0,0,0,0,0,0,0],"split_type":[0,0,0,0,0,0,0,0,0,0,0,0,0,0,0,0,0,0,0,0,0,0,0,0,0,0,0],"sum_hessian":[7.06E2,3.98E2,3.08E2,3.28E2,7E1,2.01E2,1.07E2,9.5E1,2.33E2,6.5E1,5E0,1.26E2,7.5E1,6E0,1.01E2,8.9E1,6E0,2.29E2,4E0,3.2E1,3.3E1,1E0,4E0,6.1E1,6.5E1,1.6E1,8.5E1],"tree_param":{"num_deleted":"0","num_feature":"2","num_nodes":"27","size_leaf_vector":"1"}},{"base_weights":[2.885411E-1,-4.3300457E0,2.1208909E0,-6.9493337E0,-1.1854038E0,4.129408E-1,8.458623E0,-2.5128368E-1,-8.909307E-1,1.0172681E0,-2.46476E0,-4.2326543E-1,3.1958547E0,7.5867662E0,2.4901514E1,-2.4733543E0,-8.511E-2,-6.709283E-2,1.740441E-1,3.1615332E-1,-1.6642643E0,9.82526E-1,5.2225775E-1,1.1271045E0,2.7260938E0],"categories":[],"categories_nodes":[],"categories_segments":[],"categories_sizes":[],"default_left":[0,0,0,0,0,0,0,0,0,0,0,0,0,0,0,0,0,0,0,0,0,0,0,0,0],"id":52,"left_children":[1,3,5,7,9,11,13,-1,-1,-1,15,17,19,21,23,-1,-1,-1,-1,-1,-1,-1,-1,-1,-1],"loss_changes":[6.017819E3,1.6555806E3,5.506193E3,1.7191284E3,1.6853145E3,9.368428E2,1.3593491E3,0E0,0E0,0E0,3.3949148E3,3.364805E2,1.7696838E3,4.3666797E2,1.5921875E1,0E0,0E0,0E0,0E0,0E0,0E0,0E0,0E0,0E0,0E0],"parents":[2147483647,0,0,1,1,2,2,3,3,4,4,5,5,6,6,10,10,11,11,12,12,13,13,14,14],"right_children":[2,4,6,8,10,12,14,-1,-1,-1,16,18,20,22,24,-1,-1,-1,-1,-1,-1,-1,-1,-1,-1],"split_conditions":[3E0,1E0,1.1E1,2E0,2E0,7E0,2.3E1,-2.5128368E-1,-8.909307E-1,1.0172681E0,3E0,4E0,1E1,1.3E1,7E0,-2.4733543E0,-8.511E-2,-6.709283E-2,1.740441E-1,3.1615332E-1,-1.6642643E0,9.82526E-1,5.2225775E-1,1.1271045E0,2.7260938E0],"split_indices":[0,1,1,0,1,0,1,0,0,0,1,1,1,1,0,0,0,0,0,0,0,0,0,0,0],"split_type":[0,0,0,0,0,0,0,0,0,0,0,0,0,0,0,0,0,0,0,0,0,0,0,0,0],"sum_hessian":[7.09E2,2.01E2,5.08E2,1.09E2,9.2E1,4.01E2,1.07E2,5.8E1,5.1E1,7E0,8.5E1,3.09E2,9.2E1,1.03E2,4E0,3E0,8.2E1,2.67E2,4.2E1,9E1,2E0,1.7E1,8.6E1,3E0,1E0],"tree_param":{"num_deleted":"0","num_feature":"2","num_nodes":"25","size_leaf_vector":"1"}},{"base_weights":[-5.675058E-1,-1.4223061E0,1.110878E1,-3.1161714E0,2.6188695E0,2.9474976E1,8.287711E0,-4.497797E0,-9.0668577E-1,3.537788E0,-1.66631E1,3.9191673E1,-7.643408E-1,-3.555298E-1,1.5145091E1,-1.9523723E-1,-4.5971072E-1,-2.014552E-1,3.527876E-1,8.4827624E-2,1.2341876E0,-2.441084E0,-6.677399E-1,3.4720287E0,8.9427733E-1,-4.4375303E-1,1.3062402E0,1.6208115E0,8.0354625E-1],"categories":[],"categories_nodes":[],"categories_segments":[],"categories_sizes":[],"default_left":[0,0,0,0,0,0,0,0,0,0,0,0,0,0,0,0,0,0,0,0,0,0,0,0,0,0,0,0,0],"id":53,"left_children":[1,3,5,7,9,11,13,15,17,19,21,23,-1,25,27,-1,-1,-1,-1,-1,-1,-1,-1,-1,-1,-1,-1,-1,-1],"loss_changes":[7.0223867E3,4.491771E3,2.24271E3,1.4062617E3,3.496351E3,2.6498594E3,2.553994E3,7.155029E2,1.5447075E3,5.4624014E3,7.819778E2,1.0434473E2,0E0,1.8227822E3,4.2267627E2,0E0,0E0,0E0,0E0,0E0,0E0,0E0,0E0,0E0,0E0,0E0,0E0,0E0,0E0],"parents":[2147483647,0,0,1,1,2,2,3,3,4,4,5,5,6,6,7,7,8,8,9,9,10,10,11,11,13,13,14,14],"right_children":[2,4,6,8,10,12,14,16,18,20,22,24,-1,26,28,-1,-1,-1,-1,-1,-1,-1,-1,-1,-1,-1,-1,-1,-1],"split_conditions":[2E1,6E0,2E0,1E0,1.7E1,2.3E1,4E0,3E0,5E0,6E0,1.9E1,2.2E1,-7.643408E-1,2.3E1,6E0,-1.9523723E-1,-4.5971072E-1,-2.014552E-1,3.527876E-1,8.4827624E-2,1.2341876E0,-2.441084E0,-6.677399E-1,3.4720287E0,8.9427733E-1,-4.4375303E-1,1.3062402E0,1.6208115E0,8.0354625E-1],"split_indices":[1,0,0,1,1,1,0,0,0,1,1,1,0,1,0,0,0,0,0,0,0,0,0,0,0,0,0,0,0],"split_type":[0,0,0,0,0,0,0,0,0,0,0,0,0,0,0,0,0,0,0,0,0,0,0,0,0,0,0,0,0],"sum_hessian":[7.01E2,6.54E2,4.7E1,4.61E2,1.93E2,5E0,4.2E1,2.83E2,1.78E2,1.85E2,8E0,4E0,1E0,1.9E1,2.3E1,1.08E2,1.75E2,1.37E2,4.1E1,1.54E2,3.1E1,2E0,6E0,3E0,1E0,1.5E1,4E0,1E1,1.3E1],"tree_param":{"num_deleted":"0","num_feature":"2","num_nodes":"29","size_leaf_vector":"1"}},{"base_weights":[3.354865E-2,-2.5332954E0,4.116197E0,-4.4609284E0,-3.3135632E-1,2.2109335E1,3.0703452E0,-5.7621455E0,-3.2191381E0,-5.804734E-1,7.4827513E-3,1.2020508E1,2.8191323E0,-7.817423E-1,6.432748E0,-5.1176643E-1,-3.9154372E-1,-1.510706E-1,-3.371156E-1,-1.6505385E-3,-9.1199815E-2,1.4039983E0,-5.2895505E-2,-1.7458692E0,2.3583652E-2,2.3952518E-1,8.568433E-1],"categories":[],"categories_nodes":[],"categories_segments":[],"categories_sizes":[],"default_left":[0,0,0,0,0,0,0,0,0,0,0,0,0,0,0,0,0,0,0,0,0,0,0,0,0,0,0],"id":54,"left_children":[1,3,5,7,9,11,13,15,17,19,-1,21,-1,23,25,-1,-1,-1,-1,-1,-1,-1,-1,-1,-1,-1,-1],"loss_changes":[7.4928066E3,1.8618708E3,5.1259297E3,3.5955713E2,2.185889E1,1.5633745E3,3.3985232E3,3.0956543E1,1.5355151E2,4.069833E1,0E0,7.128352E2,0E0,2.792642E3,2.0273286E3,0E0,0E0,0E0,0E0,0E0,0E0,0E0,0E0,0E0,0E0,0E0,0E0],"parents":[2147483647,0,0,1,1,2,2,3,3,4,4,5,5,6,6,7,7,8,8,9,9,11,11,13,13,14,14],"right_children":[2,4,6,8,10,12,14,16,18,20,-1,22,-1,24,26,-1,-1,-1,-1,-1,-1,-1,-1,-1,-1,-1,-1],"split_conditions":[1E0,5E0,2E0,3E0,7E0,5E0,4E0,2E0,4E0,6E0,7.4827513E-3,3E0,2.8191323E0,4E0,1.4E1,-5.1176643E-1,-3.9154372E-1,-1.510706E-1,-3.371156E-1,-1.6505385E-3,-9.1199815E-2,1.4039983E0,-5.2895505E-2,-1.7458692E0,2.3583652E-2,2.3952518E-1,8.568433E-1],"split_indices":[1,0,1,0,0,0,0,0,0,0,0,0,0,1,1,0,0,0,0,0,0,0,0,0,0,0,0],"split_type":[0,0,0,0,0,0,0,0,0,0,0,0,0,0,0,0,0,0,0,0,0,0,0,0,0,0,0],"sum_hessian":[7.13E2,4.38E2,2.75E2,2.33E2,2.05E2,1.4E1,2.61E2,1.12E2,1.21E2,1.29E2,7.6E1,9E0,5E0,1.22E2,1.39E2,6.1E1,5.1E1,5.3E1,6.8E1,6.5E1,6.4E1,6E0,3E0,5E0,1.17E2,7.8E1,6.1E1],"tree_param":{"num_deleted":"0","num_feature":"2","num_nodes":"27","size_leaf_vector":"1"}},{"base_weights":[4.645713E-1,-3.7110538E0,2.1387384E0,-6.2197924E0,5.820813E-1,5.137254E-1,6.6009054E0,-9.382426E0,-2.3848836E0,-1.7192517E-1,9.658813E0,-7.813987E-1,4.6780953E0,1.9853748E1,5.53068E0,-6.6331303E-1,-1.3659277E0,-2.6228037E-1,3.9816964E-1,1.10670574E-1,-4.3013328E-1,-7.347119E-1,1.2211308E0,-3.200486E-2,-7.742179E-1,3.3340248E-1,1.0101035E0,1.9987167E0,9.81569E-1,3.250141E-1,1.3923157E0],"categories":[],"categories_nodes":[],"categories_segments":[],"categories_sizes":[],"default_left":[0,0,0,0,0,0,0,0,0,0,0,0,0,0,0,0,0,0,0,0,0,0,0,0,0,0,0,0,0,0,0],"id":55,"left_children":[1,3,5,7,9,11,13,15,17,19,21,23,25,27,29,-1,-1,-1,-1,-1,-1,-1,-1,-1,-1,-1,-1,-1,-1,-1,-1],"loss_changes":[5.1041533E3,2.2546238E3,3.7744216E3,1.5785747E3,5.3548596E2,2.0693184E3,1.8617056E3,4.6263428E2,4.1762677E2,5.983709E2,7.739012E2,9.901327E2,3.1666357E2,8.2538574E1,2.1951934E3,0E0,0E0,0E0,0E0,0E0,0E0,0E0,0E0,0E0,0E0,0E0,0E0,0E0,0E0,0E0,0E0],"parents":[2147483647,0,0,1,1,2,2,3,3,4,4,5,5,6,6,7,7,8,8,9,9,10,10,11,11,12,12,13,13,14,14],"right_children":[2,4,6,8,10,12,14,16,18,20,22,24,26,28,30,-1,-1,-1,-1,-1,-1,-1,-1,-1,-1,-1,-1,-1,-1,-1,-1],"split_conditions":[3E0,6E0,9E0,2E0,2.3E1,7E0,1E1,2E0,1E0,1.9E1,2E0,7E0,6E0,5E0,2.2E1,-6.6331303E-1,-1.3659277E0,-2.6228037E-1,3.9816964E-1,1.10670574E-1,-4.3013328E-1,-7.347119E-1,1.2211308E0,-3.200486E-2,-7.742179E-1,3.3340248E-1,1.0101035E0,1.9987167E0,9.81569E-1,3.250141E-1,1.3923157E0],"split_indices":[0,1,1,0,1,0,1,1,1,1,0,1,1,0,1,0,0,0,0,0,0,0,0,0,0,0,0,0,0,0,0],"split_type":[0,0,0,0,0,0,0,0,0,0,0,0,0,0,0,0,0,0,0,0,0,0,0,0,0,0,0,0,0,0,0],"sum_hessian":[7.28E2,2.08E2,5.2E2,1.31E2,7.7E1,3.82E2,1.38E2,7.1E1,6E1,7.2E1,5E0,2.92E2,9E1,9E0,1.29E2,6.4E1,7E0,5.4E1,6E0,5.6E1,1.6E1,1E0,4E0,2.81E2,1.1E1,8.6E1,4E0,4E0,5E0,1.16E2,1.3E1],"tree_param":{"num_deleted":"0","num_feature":"2","num_nodes":"31","size_leaf_vector":"1"}},{"base_weights":[2.4353963E-1,-4.8814764E0,2.2305174E0,-5.96467E0,1.0908701E1,3.1164265E-1,6.181984E0,-7.4953876E0,-3.5673053E0,2.1264143E1,-1.005127E0,7.771528E-1,-1.38089485E1,5.2076106E0,1.6388926E1,-3.8660824E-1,-8.29475E-1,1.2712613E0,-4.1660893E-1,3.1341307E0,5.011054E-1,-2.4335496E0,7.173714E-1,1.9228637E-2,9.1179013E-1,-1.7086718E0,-7.80651E-1,2.0986621E-1,5.977891E-1,9.5319575E-1,2.3057487E0],"categories":[],"categories_nodes":[],"categories_segments":[],"categories_sizes":[],"default_left":[0,0,0,0,0,0,0,0,0,0,0,0,0,0,0,0,0,0,0,0,0,0,0,0,0,0,0,0,0,0,0],"id":56,"left_children":[1,3,5,7,9,11,13,15,17,19,21,23,25,27,29,-1,-1,-1,-1,-1,-1,-1,-1,-1,-1,-1,-1,-1,-1,-1,-1],"loss_changes":[7.1799263E3,3.4345195E3,3.849917E3,6.521538E2,1.6252217E3,2.265366E3,1.565585E3,8.067285E2,2.4446255E3,1.635457E3,2.3260623E3,1.895654E3,1.27977295E2,8.758701E2,4.3533447E2,0E0,0E0,0E0,0E0,0E0,0E0,0E0,0E0,0E0,0E0,0E0,0E0,0E0,0E0,0E0,0E0],"parents":[2147483647,0,0,1,1,2,2,3,3,4,4,5,5,6,6,7,7,8,8,9,9,10,10,11,11,12,12,13,13,14,14],