{"learner":{"attributes":{},"feature_names":["day_of_week","hour_of_day"],"feature_types":[],"gradient_booster":{"model":{"cats":{"enc":[],"feature_segments":[],"sorted_idx":[]},"gbtree_model_param":{"num_parallel_tree":"1","num_trees":"80"},"iteration_indptr":[0,1,2,3,4,5,6,7,8,9,10,11,12,13,14,15,16,17,18,19,20,21,22,23,24,25,26,27,28,29,30,31,32,33,34,35,36,37,38,39,40,41,42,43,44,45,46,47,48,49,50,51,52,53,54,55,56,57,58,59,60,61,62,63,64,65,66,67,68,69,70,71,72,73,74,75,76,77,78,79,80],"tree_info":[0,0,0,0,0,0,0,0,0,0,0,0,0,0,0,0,0,0,0,0,0,0,0,0,0,0,0,0,0,0,0,0,0,0,0,0,0,0,0,0,0,0,0,0,0,0,0,0,0,0,0,0,0,0,0,0,0,0,0,0,0,0,0,0,0,0,0,0,0,0,0,0,0,0,0,0,0,0,0,0],"trees":[{"base_weights":[-1.4270502E-1,-1.695604E2,1.9898683E2,-3.1156937E2,-9.257999E0,5.4287846E1,3.852711E2,-4.0020078E2,-2.1704839E2,-8.107798E0,2.5466095E1,-7.993304E1,1.0971055E2,2.8103476E2,4.7015564E2,-3.5011436E1,-2.7183916E1,-1.9872494E1,-1.4441822E1,-9.4393677E-1,4.312473E0,-1.1688722E1,-8.225352E-1,4.121585E0,1.3898965E1,1.5240163E1,2.684937E1,2.82295E1,4.132011E1],"categories":[],"categories_nodes":[],"categories_segments":[],"categories_sizes":[],"default_left":[0,0,0,0,0,0,0,0,0,0,0,0,0,0,0,0,0,0,0,0,0,0,0,0,0,0,0,0,0],"id":0,"left_children":[1,3,5,7,9,11,13,15,17,-1,19,21,23,25,27,-1,-1,-1,-1,-1,-1,-1,-1,-1,-1,-1,-1,-1,-1],"loss_changes":[1.966813E7,7.167894E6,7.203063E6,1.312184E6,4.7904175E5,1.1394799E6,9.03092E5,4.3524E4,5.0222E4,0E0,1.1615625E5,2.059139E5,3.9343012E5,2.07846E5,1.60196E5,0E0,0E0,0E0,0E0,0E0,0E0,0E0,0E0,0E0,0E0,0E0,0E0,0E0,0E0],"parents":[2147483647,0,0,1,1,2,2,3,3,4,4,5,5,6,6,7,7,8,8,10,10,11,11,12,12,13,13,14,14],"right_children":[2,4,6,8,10,12,14,16,18,-1,20,22,24,26,28,-1,-1,-1,-1,-1,-1,-1,-1,-1,-1,-1,-1,-1,-1],"split_conditions":[1E0,5E0,5E0,3E0,6E0,2E0,1.1E1,2E0,4E0,-8.107798E0,7E0,1.3E1,1.4E1,6E0,6E0,-3.5011436E1,-2.7183916E1,-1.9872494E1,-1.4441822E1,-9.4393677E-1,4.312473E0,-1.1688722E1,-8.225352E-1,4.121585E0,1.3898965E1,1.5240163E1,2.684937E1,2.82295E1,4.132011E1],"split_indices":[1,0,0,0,0,0,1,0,0,0,0,1,1,0,0,0,0,0,0,0,0,0,0,0,0,0,0,0,0],"split_type":[0,0,0,0,0,0,0,0,0,0,0,0,0,0,0,0,0,0,0,0,0,0,0,0,0,0,0,0,0],"sum_hessian":[5.81E2,3.14E2,2.67E2,1.66E2,1.48E2,1.51E2,1.16E2,8.4E1,8.2E1,4E1,1.08E2,4.4E1,1.07E2,5.4E1,6.2E1,4.8E1,3.6E1,4.1E1,4.1E1,4.7E1,6.1E1,2.2E1,2.2E1,5.7E1,5E1,2.2E1,3.2E1,2E1,4.2E1],"tree_param":{"num_deleted":"0","num_feature":"2","num_nodes":"29","size_leaf_vector":"1"}},{"base_weights":[5.312061E-1,-1.6013799E2,1.8958731E2,-2.9049612E2,-1.0954668E1,5.3562565E1,3.6501965E2,-3.682717E2,-2.0337303E2,-7.291042E0,1.9872173E1,-2.1285261E1,1.3819794E2,3.041501E2,3.855668E1,-3.2082752E1,-2.4857435E1,-1.9043417E1,-1.3504713E1,-1.3744357E0,3.8476112E0,-5.520546E0,7.5943003E0,4.5667396E0,1.4483239E1,1.8324184E1,2.8243612E1],"categories":[],"categories_nodes":[],"categories_segments":[],"categories_sizes":[],"default_left":[0,0,0,0,0,0,0,0,0,0,0,0,0,0,0,0,0,0,0,0,0,0,0,0,0,0,0],"id":1,"left_children":[1,3,5,7,9,11,13,15,17,-1,19,21,23,25,-1,-1,-1,-1,-1,-1,-1,-1,-1,-1,-1,-1,-1],"loss_changes":[1.7587394E7,6.0838095E6,6.328044E6,1.056705E6,3.6516566E5,9.5949225E5,6.79102E5,3.944E4,5.6881E4,0E0,1.1271991E5,4.5576988E5,2.3639888E5,2.09216E5,0E0,0E0,0E0,0E0,0E0,0E0,0E0,0E0,0E0,0E0,0E0,0E0,0E0],"parents":[2147483647,0,0,1,1,2,2,3,3,4,4,5,5,6,6,7,7,8,8,10,10,11,11,12,12,13,13],"right_children":[2,4,6,8,10,12,14,16,18,-1,20,22,24,26,-1,-1,-1,-1,-1,-1,-1,-1,-1,-1,-1,-1,-1],"split_conditions":[1E0,5E0,5E0,3E0,6E0,3E0,1.7E1,2E0,4E0,-7.291042E0,7E0,1.8E1,1.1E1,6E0,3.855668E1,-3.2082752E1,-2.4857435E1,-1.9043417E1,-1.3504713E1,-1.3744357E0,3.8476112E0,-5.520546E0,7.5943003E0,4.5667396E0,1.4483239E1,1.8324184E1,2.8243612E1],"split_indices":[1,0,0,0,0,0,1,0,0,0,0,1,1,0,0,0,0,0,0,0,0,0,0,0,0,0,0],"split_type":[0,0,0,0,0,0,0,0,0,0,0,0,0,0,0,0,0,0,0,0,0,0,0,0,0,0,0],"sum_hessian":[5.77E2,3.12E2,2.65E2,1.66E2,1.46E2,1.5E2,1.15E2,8.6E1,8E1,4E1,1.06E2,8E1,7E1,7.8E1,3.7E1,5.1E1,3.5E1,3.7E1,4.3E1,4.6E1,6E1,5.7E1,2.3E1,2.5E1,4.5E1,3.3E1,4.5E1],"tree_param":{"num_deleted":"0","num_feature":"2","num_nodes":"27","size_leaf_vector":"1"}},{"base_weights":[-7.665846E-2,-1.4373827E2,1.7452774E2,-2.643123E2,-1.0234786E1,1.5348022E1,2.9488437E2,-3.4191098E2,-1.844908E2,-6.5833764E0,2.0165388E1,-2.5936125E1,1.1203578E2,2.0736403E2,3.77306E2,-2.9576366E1,-2.3278547E1,-1.6948698E1,-1.2485118E1,-8.9349335E-1,3.447039E0,-7.512108E0,9.9730635E-1,1.9144932E0,1.1057957E1,1.2466797E1,2.1072247E1,2.384798E1,3.674482E1],"categories":[],"categories_nodes":[],"categories_segments":[],"categories_sizes":[],"default_left":[0,0,0,0,0,0,0,0,0,0,0,0,0,0,0,0,0,0,0,0,0,0,0,0,0,0,0,0,0],"id":2,"left_children":[1,3,5,7,9,11,13,15,17,-1,19,21,23,25,27,-1,-1,-1,-1,-1,-1,-1,-1,-1,-1,-1,-1,-1,-1],"loss_changes":[1.4448357E7,5.0839625E6,4.97664E6,9.65132E5,3.3243372E5,4.539647E5,9.89368E5,9.909E3,3.2287E4,0E0,7.733484E4,2.0997314E5,7.514181E4,1.7263825E5,3.50223E5,0E0,0E0,0E0,0E0,0E0,0E0,0E0,0E0,0E0,0E0,0E0,0E0,0E0,0E0],"parents":[2147483647,0,0,1,1,2,2,3,3,4,4,5,5,6,6,7,7,8,8,10,10,11,11,12,12,13,13,14,14],"right_children":[2,4,6,8,10,12,14,16,18,-1,20,22,24,26,28,-1,-1,-1,-1,-1,-1,-1,-1,-1,-1,-1,-1,-1,-1],"split_conditions":[1E0,5E0,4E0,3E0,6E0,1.7E1,6E0,2E0,4E0,-6.5833764E0,7E0,2E0,2E0,1.4E1,1.4E1,-2.9576366E1,-2.3278547E1,-1.6948698E1,-1.2485118E1,-8.9349335E-1,3.447039E0,-7.512108E0,9.9730635E-1,1.9144932E0,1.1057957E1,1.2466797E1,2.1072247E1,2.384798E1,3.674482E1],"split_indices":[1,0,0,0,0,1,0,0,0,0,0,0,0,1,1,0,0,0,0,0,0,0,0,0,0,0,0,0,0],"split_type":[0,0,0,0,0,0,0,0,0,0,0,0,0,0,0,0,0,0,0,0,0,0,0,0,0,0,0,0,0],"sum_hessian":[5.74E2,3.15E2,2.59E2,1.65E2,1.5E2,1.12E2,1.47E2,8.2E1,8.3E1,4.4E1,1.06E2,7.9E1,3.3E1,7.3E1,7.4E1,4.9E1,3.3E1,3.9E1,4.4E1,4.5E1,6.1E1,2.8E1,5.1E1,8E0,2.5E1,4E1,3.3E1,4E1,3.4E1],"tree_param":{"num_deleted":"0","num_feature":"2","num_nodes":"29","size_leaf_vector":"1"}},{"base_weights":[3.8630683E0,-1.3282588E2,1.6175694E2,-2.4513351E2,-7.083676E0,1.1270734E1,2.750265E2,-3.1745886E2,-1.7331584E2,-6.4096365E0,2.246405E1,-3.9595737E1,7.2105576E1,1.9365375E2,3.4999002E2,-2.7693756E1,-2.1628515E1,-1.5941672E1,-1.1473742E1,-3.3386967E-1,3.358387E0,-5.9230614E0,3.0188253E0,-1.5748915E-1,8.423667E0,8.023326E0,1.7929474E1,2.225392E1,3.391481E1],"categories":[],"categories_nodes":[],"categories_segments":[],"categories_sizes":[],"default_left":[0,0,0,0,0,0,0,0,0,0,0,0,0,0,0,0,0,0,0,0,0,0,0,0,0,0,0,0,0],"id":3,"left_children":[1,3,5,7,9,11,13,15,17,-1,19,21,23,25,27,-1,-1,-1,-1,-1,-1,-1,-1,-1,-1,-1,-1,-1,-1],"loss_changes":[1.2884565E7,4.517242E6,4.718505E6,8.22806E5,3.2982662E5,3.741895E5,8.96021E5,1.86645E4,3.892375E4,0E0,5.6838887E4,1.7858334E5,1.354271E5,1.9937425E5,3.12218E5,0E0,0E0,0E0,0E0,0E0,0E0,0E0,0E0,0E0,0E0,0E0,0E0,0E0,0E0],"parents":[2147483647,0,0,1,1,2,2,3,3,4,4,5,5,6,6,7,7,8,8,10,10,11,11,12,12,13,13,14,14],"right_children":[2,4,6,8,10,12,14,16,18,-1,20,22,24,26,28,-1,-1,-1,-1,-1,-1,-1,-1,-1,-1,-1,-1,-1,-1],"split_conditions":[1E0,5E0,4E0,3E0,6E0,1.4E1,6E0,2E0,4E0,-6.4096365E0,7E0,3E0,2E0,6E0,1.4E1,-2.7693756E1,-2.1628515E1,-1.5941672E1,-1.1473742E1,-3.3386967E-1,3.358387E0,-5.9230614E0,3.0188253E0,-1.5748915E-1,8.423667E0,8.023326E0,1.7929474E1,2.225392E1,3.391481E1],"split_indices":[1,0,0,0,0,1,0,0,0,0,0,0,0,1,1,0,0,0,0,0,0,0,0,0,0,0,0,0,0],"split_type":[0,0,0,0,0,0,0,0,0,0,0,0,0,0,0,0,0,0,0,0,0,0,0,0,0,0,0,0,0],"sum_hessian":[5.95E2,3.19E2,2.76E2,1.68E2,1.51E2,1.19E2,1.57E2,8.2E1,8.6E1,4.3E1,1.08E2,6.5E1,5.4E1,7.7E1,8E1,4.7E1,3.5E1,4.3E1,4.3E1,4.6E1,6.2E1,4.5E1,2E1,1.7E1,3.7E1,2E1,5.7E1,4.3E1,3.7E1],"tree_param":{"num_deleted":"0","num_feature":"2","num_nodes":"29","size_leaf_vector":"1"}},{"base_weights":[4.642652E0,-1.19436066E2,1.4483037E2,-2.2320789E2,-5.1826344E0,3.9426796E1,2.8240482E2,-2.8384464E2,-1.5910963E2,-3.8834778E1,3.5642424E0,-2.1891697E1,1.0757781E2,2.3379231E2,3.0810862E1,-2.4840979E1,-1.8902334E1,-1.4797534E1,-1.0508322E1,-5.7689934E0,-8.6163336E-1,-9.109691E0,1.1724654E0,3.4787047E0,1.1586903E1,1.3909064E1,2.184404E1],"categories":[],"categories_nodes":[],"categories_segments":[],"categories_sizes":[],"default_left":[0,0,0,0,0,0,0,0,0,0,0,0,0,0,0,0,0,0,0,0,0,0,0,0,0,0,0],"id":4,"left_children":[1,3,5,7,9,11,13,15,17,19,-1,21,23,25,-1,-1,-1,-1,-1,-1,-1,-1,-1,-1,-1,-1,-1],"loss_changes":[1.0262549E7,3.709861E6,4.0055985E6,5.92258E5,2.5278697E5,6.6262406E5,5.09238E5,3.1914E4,3.4558875E4,8.327575E4,0E0,2.8404497E5,1.7280538E5,1.50154E5,0E0,0E0,0E0,0E0,0E0,0E0,0E0,0E0,0E0,0E0,0E0,0E0,0E0],"parents":[2147483647,0,0,1,1,2,2,3,3,4,4,5,5,6,6,7,7,8,8,9,9,11,11,12,12,13,13],"right_children":[2,4,6,8,10,12,14,16,18,20,-1,22,24,26,-1,-1,-1,-1,-1,-1,-1,-1,-1,-1,-1,-1,-1],"split_conditions":[1E0,5E0,5E0,3E0,7E0,3E0,1.7E1,2E0,4E0,6E0,3.5642424E0,1E1,1.1E1,6E0,3.0810862E1,-2.4840979E1,-1.8902334E1,-1.4797534E1,-1.0508322E1,-5.7689934E0,-8.6163336E-1,-9.109691E0,1.1724654E0,3.4787047E0,1.1586903E1,1.3909064E1,2.184404E1],"split_indices":[1,0,0,0,0,0,1,0,0,0,0,1,1,0,0,0,0,0,0,0,0,0,0,0,0,0,0],"split_type":[0,0,0,0,0,0,0,0,0,0,0,0,0,0,0,0,0,0,0,0,0,0,0,0,0,0,0],"sum_hessian":[5.88E2,3.12E2,2.76E2,1.63E2,1.49E2,1.57E2,1.19E2,8.2E1,8.1E1,8.9E1,6E1,8.3E1,7.4E1,8.3E1,3.6E1,4.9E1,3.3E1,3.9E1,4.2E1,4E1,4.9E1,2.3E1,6E1,2.8E1,4.6E1,3.5E1,4.8E1],"tree_param":{"num_deleted":"0","num_feature":"2","num_nodes":"27","size_leaf_vector":"1"}},{"base_weights":[2.1688852E0,-1.1175327E2,1.366815E2,-2.0715335E2,-7.574268E0,3.794249E1,2.624831E2,-2.67463E2,-1.4582564E2,-5.326536E0,1.8175026E1,-1.8619207E1,1.01833E2,1.9229471E2,3.3545477E2,-2.3178381E1,-1.81481E1,-1.344613E1,-9.701747E0,-6.6402566E-1,3.0968108E0,-8.67565E0,1.4588746E0,3.459493E0,1.08820505E1,1.0619237E1,1.8444483E1,2.272699E1,3.1923004E1],"categories":[],"categories_nodes":[],"categories_segments":[],"categories_sizes":[],"default_left":[0,0,0,0,0,0,0,0,0,0,0,0,0,0,0,0,0,0,0,0,0,0,0,0,0,0,0,0,0],"id":5,"left_children":[1,3,5,7,9,11,13,15,17,-1,19,21,23,25,27,-1,-1,-1,-1,-1,-1,-1,-1,-1,-1,-1,-1,-1,-1],"loss_changes":[9.056417E6,3.1788105E6,3.3562745E6,5.78672E5,2.3519769E5,5.548007E5,5.44984E5,9.331E3,2.6056375E4,0E0,5.903812E4,2.7344397E5,1.38357E5,1.1294925E5,7.2805E4,0E0,0E0,0E0,0E0,0E0,0E0,0E0,0E0,0E0,0E0,0E0,0E0,0E0,0E0],"parents":[2147483647,0,0,1,1,2,2,3,3,4,4,5,5,6,6,7,7,8,8,10,10,11,11,12,12,13,13,14,14],"right_children":[2,4,6,8,10,12,14,16,18,-1,20,22,24,26,28,-1,-1,-1,-1,-1,-1,-1,-1,-1,-1,-1,-1,-1,-1],"split_conditions":[1E0,5E0,5E0,3E0,6E0,3E0,1.4E1,2E0,4E0,-5.326536E0,7E0,1E1,1.1E1,6E0,7E0,-2.3178381E1,-1.81481E1,-1.344613E1,-9.701747E0,-6.6402566E-1,3.0968108E0,-8.67565E0,1.4588746E0,3.459493E0,1.08820505E1,1.0619237E1,1.8444483E1,2.272699E1,3.1923004E1],"split_indices":[1,0,0,0,0,0,1,0,0,0,0,1,1,0,0,0,0,0,0,0,0,0,0,0,0,0,0,0,0],"split_type":[0,0,0,0,0,0,0,0,0,0,0,0,0,0,0,0,0,0,0,0,0,0,0,0,0,0,0,0,0],"sum_hessian":[5.89E2,3.19E2,2.7E2,1.66E2,1.53E2,1.52E2,1.18E2,8.2E1,8.4E1,4.6E1,1.07E2,8.1E1,7.1E1,6.2E1,5.6E1,4.9E1,3.3E1,4.1E1,4.3E1,4.7E1,6E1,2.3E1,5.8E1,2.7E1,4.4E1,2.6E1,3.6E1,3.4E1,2.2E1],"tree_param":{"num_deleted":"0","num_feature":"2","num_nodes":"29","size_leaf_vector":"1"}},{"base_weights":[1.9515707E0,-1.0593909E2,1.2530343E2,-1.9426576E2,-5.1292586E0,3.1742605E1,2.4031642E2,-2.4753664E2,-1.3935541E2,-4.874575E0,1.936659E1,-6.215481E1,6.384738E1,1.8695992E2,3.092732E2,-2.1415928E1,-1.6886768E1,-1.2658281E1,-9.344207E0,-2.812428E-1,2.926942E0,-9.527278E0,-1.1914954E0,1.4234855E0,7.9766526E0,1.0300352E1,1.7625237E1,2.0814787E1,2.9329325E1],"categories":[],"categories_nodes":[],"categories_segments":[],"categories_sizes":[],"default_left":[0,0,0,0,0,0,0,0,0,0,0,0,0,0,0,0,0,0,0,0,0,0,0,0,0,0,0,0,0],"id":6,"left_children":[1,3,5,7,9,11,13,15,17,-1,19,21,23,25,27,-1,-1,-1,-1,-1,-1,-1,-1,-1,-1,-1,-1,-1,-1],"loss_changes":[7.958456E6,2.839443E6,2.9946105E6,4.62775E5,2.0622108E5,4.712245E5,4.0209E5,5.9645E3,1.812375E4,0E0,4.1502242E4,1.0586097E5,1.8980281E5,1.1336125E5,5.3801E4,0E0,0E0,0E0,0E0,0E0,0E0,0E0,0E0,0E0,0E0,0E0,0E0,0E0,0E0],"parents":[2147483647,0,0,1,1,2,2,3,3,4,4,5,5,6,6,7,7,8,8,10,10,11,11,12,12,13,13,14,14],"right_children":[2,4,6,8,10,12,14,16,18,-1,20,22,24,26,28,-1,-1,-1,-1,-1,-1,-1,-1,-1,-1,-1,-1,-1,-1],"split_conditions":[1E0,5E0,5E0,3E0,6E0,2E0,1.5E1,2E0,4E0,-4.874575E0,7E0,1.2E1,1.2E1,6E0,7E0,-2.1415928E1,-1.6886768E1,-1.2658281E1,-9.344207E0,-2.812428E-1,2.926942E0,-9.527278E0,-1.1914954E0,1.4234855E0,7.9766526E0,1.0300352E1,1.7625237E1,2.0814787E1,2.9329325E1],"split_indices":[1,0,0,0,0,0,1,0,0,0,0,1,1,0,0,0,0,0,0,0,0,0,0,0,0,0,0,0,0],"split_type":[0,0,0,0,0,0,0,0,0,0,0,0,0,0,0,0,0,0,0,0,0,0,0,0,0,0,0,0,0],"sum_hessian":[5.96E2,3.18E2,2.78E2,1.69E2,1.49E2,1.54E2,1.24E2,8.4E1,8.5E1,4.5E1,1.04E2,3.9E1,1.15E2,7.2E1,5.2E1,5E1,3.4E1,4.3E1,4.2E1,4.5E1,5.9E1,1.7E1,2.2E1,5.1E1,6.4E1,2.8E1,4.4E1,3.1E1,2.1E1],"tree_param":{"num_deleted":"0","num_feature":"2","num_nodes":"29","size_leaf_vector":"1"}},{"base_weights":[2.0897068E-1,-9.4959656E1,1.1210977E2,-1.7678308E2,-6.1888633E0,2.9069624E0,1.9902184E2,-2.2618451E2,-1.2527711E2,-4.422811E0,1.3154216E1,-2.6566391E1,8.3200745E1,1.3801442E2,2.5821326E2,-1.9835518E1,-1.5222762E1,-1.1387593E1,-8.31239E0,-5.033234E-1,2.3150203E0,-5.924616E0,2.8720596E-1,1.6789485E0,8.181577E0,7.588251E0,1.4762841E1,1.611049E1,2.5013973E1],"categories":[],"categories_nodes":[],"categories_segments":[],"categories_sizes":[],"default_left":[0,0,0,0,0,0,0,0,0,0,0,0,0,0,0,0,0,0,0,0,0,0,0,0,0,0,0,0,0],"id":7,"left_children":[1,3,5,7,9,11,13,15,17,-1,19,21,23,25,27,-1,-1,-1,-1,-1,-1,-1,-1,-1,-1,-1,-1,-1,-1],"loss_changes":[6.325767E6,2.330499E6,2.5904762E6,3.965905E5,1.4792656E5,2.9092666E5,5.132515E5,1.8438E4,1.5850875E4,0E0,3.455743E4,1.2916117E5,3.700339E4,1.3710525E5,1.722655E5,0E0,0E0,0E0,0E0,0E0,0E0,0E0,0E0,0E0,0E0,0E0,0E0,0E0,0E0],"parents":[2147483647,0,0,1,1,2,2,3,3,4,4,5,5,6,6,7,7,8,8,10,10,11,11,12,12,13,13,14,14],"right_children":[2,4,6,8,10,12,14,16,18,-1,20,22,24,26,28,-1,-1,-1,-1,-1,-1,-1,-1,-1,-1,-1,-1,-1,-1],"split_conditions":[1E0,5E0,4E0,3E0,6E0,1.8E1,6E0,2E0,4E0,-4.422811E0,7E0,2E0,2E0,1.4E1,1.4E1,-1.9835518E1,-1.5222762E1,-1.1387593E1,-8.31239E0,-5.033234E-1,2.3150203E0,-5.924616E0,2.8720596E-1,1.6789485E0,8.181577E0,7.588251E0,1.4762841E1,1.611049E1,2.5013973E1],"split_indices":[1,0,0,0,0,1,0,0,0,0,0,0,0,1,1,0,0,0,0,0,0,0,0,0,0,0,0,0,0],"split_type":[0,0,0,0,0,0,0,0,0,0,0,0,0,0,0,0,0,0,0,0,0,0,0,0,0,0,0,0,0],"sum_hessian":[5.92E2,3.2E2,2.72E2,1.66E2,1.54E2,1.21E2,1.51E2,8.3E1,8.3E1,4.3E1,1.11E2,8.9E1,3.2E1,7.6E1,7.5E1,4.8E1,3.5E1,4.3E1,4E1,5E1,6.1E1,3.4E1,5.5E1,8E0,2.4E1,4.1E1,3.5E1,3.9E1,3.6E1],"tree_param":{"num_deleted":"0","num_feature":"2","num_nodes":"29","size_leaf_vector":"1"}},{"base_weights":[1.3273277E0,-8.7209564E1,1.09384415E2,-1.6301591E2,-3.9454281E0,8.82897E0,1.8626021E2,-2.1085725E2,-1.1381959E2,-4.1887746E0,1.5281353E1,-3.473169E1,6.2272305E1,1.3203677E2,2.3660591E2,-1.8339458E1,-1.439798E1,-1.0475082E1,-7.8316674E0,-3.3967057E-1,2.4181314E0,-4.578576E0,1.4104829E0,5.0780576E-1,6.7818346E0,6.171157E0,1.2813258E1,1.503531E1,2.2836561E1],"categories":[],"categories_nodes":[],"categories_segments":[],"categories_sizes":[],"default_left":[0,0,0,0,0,0,0,0,0,0,0,0,0,0,0,0,0,0,0,0,0,0,0,0,0,0,0,0,0],"id":8,"left_children":[1,3,5,7,9,11,13,15,17,-1,19,21,23,25,27,-1,-1,-1,-1,-1,-1,-1,-1,-1,-1,-1,-1,-1,-1],"loss_changes":[5.587123E6,2.0254925E6,2.031419E6,3.714085E5,1.441511E5,2.698859E5,3.755175E5,6.4375E3,1.0352375E4,0E0,3.25226E4,7.6413086E4,6.489567E4,1.01915875E5,1.270265E5,0E0,0E0,0E0,0E0,0E0,0E0,0E0,0E0,0E0,0E0,0E0,0E0,0E0,0E0],"parents":[2147483647,0,0,1,1,2,2,3,3,4,4,5,5,6,6,7,7,8,8,10,10,11,11,12,12,13,13,14,14],"right_children":[2,4,6,8,10,12,14,16,18,-1,20,22,24,26,28,-1,-1,-1,-1,-1,-1,-1,-1,-1,-1,-1,-1,-1,-1],"split_conditions":[1E0,5E0,4E0,3E0,6E0,1.5E1,6E0,2E0,4E0,-4.1887746E0,7E0,3E0,2E0,9E0,1.4E1,-1.8339458E1,-1.439798E1,-1.0475082E1,-7.8316674E0,-3.3967057E-1,2.4181314E0,-4.578576E0,1.4104829E0,5.0780576E-1,6.7818346E0,6.171157E0,1.2813258E1,1.503531E1,2.2836561E1],"split_indices":[1,0,0,0,0,1,0,0,0,0,0,0,0,1,1,0,0,0,0,0,0,0,0,0,0,0,0,0,0],"split_type":[0,0,0,0,0,0,0,0,0,0,0,0,0,0,0,0,0,0,0,0,0,0,0,0,0,0,0,0,0],"sum_hessian":[5.82E2,3.2E2,2.62E2,1.67E2,1.53E2,1.14E2,1.48E2,8.3E1,8.4E1,4.3E1,1.1E2,6.3E1,5.1E1,7.3E1,7.5E1,4.8E1,3.5E1,3.7E1,4.7E1,4.8E1,6.2E1,4.4E1,1.9E1,1.5E1,3.6E1,2.6E1,4.7E1,4E1,3.5E1],"tree_param":{"num_deleted":"0","num_feature":"2","num_nodes":"29","size_leaf_vector":"1"}},{"base_weights":[-5.350148E-1,-8.226547E1,9.72959E1,-1.525966E2,-5.377961E0,2.1897472E1,1.8898392E2,-1.9346094E2,-1.1186005E2,-3.7234466E0,1.0246482E1,-5.1240314E1,5.1926582E1,1.3276918E2,2.3521893E2,-1.6800179E1,-1.3257671E1,-1.0022168E1,-7.7719865E0,-6.1355007E-1,2.0933375E0,-7.5053954E0,-1.7345609E-1,-5.743389E-1,5.429743E0,8.129517E0,1.504654E1,1.5760876E1,2.3255209E1],"categories":[],"categories_nodes":[],"categories_segments":[],"categories_sizes":[],"default_left":[0,0,0,0,0,0,0,0,0,0,0,0,0,0,0,0,0,0,0,0,0,0,0,0,0,0,0,0,0],"id":9,"left_children":[1,3,5,7,9,11,13,15,17,-1,19,21,23,25,27,-1,-1,-1,-1,-1,-1,-1,-1,-1,-1,-1,-1,-1,-1],"loss_changes":[4.6375525E6,1.7079765E6,1.8209288E6,2.530305E5,9.824058E4,3.2331506E5,2.78062E5,2.36575E3,4.6055E3,0E0,3.1860629E4,8.9638625E4,9.850253E4,7.737531E4,7.837525E4,0E0,0E0,0E0,0E0,0E0,0E0,0E0,0E0,0E0,0E0,0E0,0E0,0E0,0E0],"parents":[2147483647,0,0,1,1,2,2,3,3,4,4,5,5,6,6,7,7,8,8,10,10,11,11,12,12,13,13,14,14],"right_children":[2,4,6,8,10,12,14,16,18,-1,20,22,24,26,28,-1,-1,-1,-1,-1,-1,-1,-1,-1,-1,-1,-1,-1,-1],"split_conditions":[1E0,5E0,5E0,3E0,6E0,2E0,1.1E1,2E0,4E0,-3.7234466E0,7E0,1.3E1,8E0,7E0,7E0,-1.6800179E1,-1.3257671E1,-1.0022168E1,-7.7719865E0,-6.1355007E-1,2.0933375E0,-7.5053954E0,-1.7345609E-1,-5.743389E-1,5.429743E0,8.129517E0,1.504654E1,1.5760876E1,2.3255209E1],"split_indices":[1,0,0,0,0,0,1,0,0,0,0,1,1,0,0,0,0,0,0,0,0,0,0,0,0,0,0,0,0],"split_type":[0,0,0,0,0,0,0,0,0,0,0,0,0,0,0,0,0,0,0,0,0,0,0,0,0,0,0,0,0],"sum_hessian":[5.78E2,3.15E2,2.63E2,1.64E2,1.51E2,1.45E2,1.18E2,8E1,8.4E1,4.1E1,1.1E2,4.2E1,1.03E2,5.5E1,6.3E1,4.6E1,3.4E1,4E1,4.4E1,5.2E1,5.8E1,2.2E1,2E1,2.2E1,8.1E1,3.7E1,1.8E1,4E1,2.3E1],"tree_param":{"num_deleted":"0","num_feature":"2","num_nodes":"29","size_leaf_vector":"1"}},{"base_weights":[-4.7521275E-2,-7.417133E1,8.890123E1,-1.4004576E2,-4.930291E0,4.6131396E0,1.5529639E2,-1.4504282E1,-9.660361E1,-3.5733278E0,1.1640831E1,-2.9971476E1,5.5337204E1,1.2573257E2,1.9699505E1,-8.971402E0,-6.3632665E0,-2.3613298E-1,1.9664048E0,-8.588603E0,-1.1405321E0,4.419427E-1,6.008363E0,8.596568E0,1.5596556E1],"categories":[],"categories_nodes":[],"categories_segments":[],"categories_sizes":[],"default_left":[0,0,0,0,0,0,0,0,0,0,0,0,0,0,0,0,0,0,0,0,0,0,0,0,0],"id":10,"left_children":[1,3,5,7,9,11,13,-1,15,-1,17,19,21,23,-1,-1,-1,-1,-1,-1,-1,-1,-1,-1,-1],"loss_changes":[3.9163738E6,1.4771429E6,1.5102902E6,2.800115E5,1.05217516E5,2.121712E5,3.75041E5,0E0,1.30864375E4,0E0,2.1408719E4,8.602925E4,4.783386E4,1.25803E5,0E0,0E0,0E0,0E0,0E0,0E0,0E0,0E0,0E0,0E0,0E0],"parents":[2147483647,0,0,1,1,2,2,3,3,4,4,5,5,6,6,8,8,10,10,11,11,12,12,13,13],"right_children":[2,4,6,8,10,12,14,-1,16,-1,18,20,22,24,-1,-1,-1,-1,-1,-1,-1,-1,-1,-1,-1],"split_conditions":[1E0,5E0,4E0,3E0,6E0,1.5E1,1.9E1,-1.4504282E1,4E0,-3.5733278E0,7E0,5E0,2E0,7E0,1.9699505E1,-8.971402E0,-6.3632665E0,-2.3613298E-1,1.9664048E0,-8.588603E0,-1.1405321E0,4.419427E-1,6.008363E0,8.596568E0,1.5596556E1],"split_indices":[1,0,0,0,0,1,1,0,0,0,0,1,0,0,0,0,0,0,0,0,0,0,0,0,0],"split_type":[0,0,0,0,0,0,0,0,0,0,0,0,0,0,0,0,0,0,0,0,0,0,0,0,0],"sum_hessian":[5.92E2,3.23E2,2.69E2,1.65E2,1.58E2,1.19E2,1.5E2,8.3E1,8.2E1,4.6E1,1.12E2,7.1E1,4.8E1,1.15E2,3.5E1,4E1,4.2E1,5.3E1,5.9E1,1.1E1,6E1,1.4E1,3.4E1,9.3E1,2.2E1],"tree_param":{"num_deleted":"0","num_feature":"2","num_nodes":"25","size_leaf_vector":"1"}},{"base_weights":[-2.187249E0,-7.127722E1,8.141469E1,-1.316674E2,-3.1650286E0,1.5912959E1,1.6631244E2,-1.6730359E2,-9.132604E1,-3.738597E0,1.3651462E1,-2.2399532E1,5.7197144E1,9.824301E1,2.0319742E2,-1.479619E1,-1.0933865E1,-8.09404E0,-6.3399296E0,-2.631216E-1,2.1628475E0,-6.588404E0,4.6179706E-1,3.499786E0,9.189876E0,5.8677464E0,1.1423703E1,1.3684571E1,2.0129559E1],"categories":[],"categories_nodes":[],"categories_segments":[],"categories_sizes":[],"default_left":[0,0,0,0,0,0,0,0,0,0,0,0,0,0,0,0,0,0,0,0,0,0,0,0,0,0,0,0,0],"id":11,"left_children":[1,3,5,7,9,11,13,15,17,-1,19,21,23,25,27,-1,-1,-1,-1,-1,-1,-1,-1,-1,-1,-1,-1,-1,-1],"loss_changes":[3.344363E6,1.3035019E6,1.4543224E6,2.262395E5,1.1053567E5,2.3695447E5,2.662615E5,2.22935E4,1.617E3,0E0,2.480289E4,1.3222262E5,5.0827562E4,3.6113E4,7.05685E4,0E0,0E0,0E0,0E0,0E0,0E0,0E0,0E0,0E0,0E0,0E0,0E0,0E0,0E0],"parents":[2147483647,0,0,1,1,2,2,3,3,4,4,5,5,6,6,7,7,8,8,10,10,11,11,12,12,13,13,14,14],"right_children":[2,4,6,8,10,12,14,16,18,-1,20,22,24,26,28,-1,-1,-1,-1,-1,-1,-1,-1,-1,-1,-1,-1,-1,-1],"split_conditions":[1E0,5E0,5E0,3E0,6E0,3E0,9E0,2E0,4E0,-3.738597E0,7E0,1E1,1.9E1,7E0,7E0,-1.479619E1,-1.0933865E1,-8.09404E0,-6.3399296E0,-2.631216E-1,2.1628475E0,-6.588404E0,4.6179706E-1,3.499786E0,9.189876E0,5.8677464E0,1.1423703E1,1.3684571E1,2.0129559E1],"split_indices":[1,0,0,0,0,0,1,0,0,0,0,1,1,0,0,0,0,0,0,0,0,0,0,0,0,0,0,0,0],"split_type":[0,0,0,0,0,0,0,0,0,0,0,0,0,0,0,0,0,0,0,0,0,0,0,0,0,0,0,0,0],"sum_hessian":[5.77E2,3.16E2,2.61E2,1.67E2,1.49E2,1.48E2,1.13E2,8.7E1,8E1,4.1E1,1.08E2,7.7E1,7.1E1,4.1E1,7.2E1,5.2E1,3.5E1,4E1,4E1,4.8E1,6E1,2.4E1,5.3E1,5.9E1,1.2E1,2.8E1,1.3E1,4.6E1,2.6E1],"tree_param":{"num_deleted":"0","num_feature":"2","num_nodes":"29","size_leaf_vector":"1"}},{"base_weights":[1.2434946E0,-6.2560562E1,7.8977005E1,-1.16645134E2,-3.4716742E0,2.639681E0,1.3544904E2,-1.5099834E2,-6.298504E0,-2.8417494E0,8.187881E0,-1.9080929E1,6.264538E1,1.092101E2,2.0254251E2,-1.3151032E1,-1.0305862E1,-2.3813495E-1,1.367672E0,-3.2397108E0,1.7754048E0,3.225831E0,7.802935E0,6.4024706E0,1.15121565E1,1.3663557E1,1.8985325E1],"categories":[],"categories_nodes":[],"categories_segments":[],"categories_sizes":[],"default_left":[0,0,0,0,0,0,0,0,0,0,0,0,0,0,0,0,0,0,0,0,0,0,0,0,0,0,0],"id":12,"left_children":[1,3,5,7,9,11,13,15,-1,-1,17,19,21,23,25,-1,-1,-1,-1,-1,-1,-1,-1,-1,-1,-1,-1],"loss_changes":[2.8716552E6,1.0158585E6,1.1247934E6,2.0432025E5,5.7465582E4,1.4717169E5,2.4194975E5,4.357625E3,0E0,0E0,1.1289211E4,7.426164E4,1.943286E4,9.9834375E4,4.731875E3,0E0,0E0,0E0,0E0,0E0,0E0,0E0,0E0,0E0,0E0,0E0,0E0],"parents":[2147483647,0,0,1,1,2,2,3,3,4,4,5,5,6,6,7,7,10,10,11,11,12,12,13,13,14,14],"right_children":[2,4,6,8,10,12,14,16,-1,-1,18,20,22,24,26,-1,-1,-1,-1,-1,-1,-1,-1,-1,-1,-1,-1],"split_conditions":[1E0,5E0,4E0,3E0,6E0,1.9E1,1.8E1,2E0,-6.298504E0,-2.8417494E0,7E0,3E0,3E0,6E0,7E0,-1.3151032E1,-1.0305862E1,-2.3813495E-1,1.367672E0,-3.2397108E0,1.7754048E0,3.225831E0,7.802935E0,6.4024706E0,1.15121565E1,1.3663557E1,1.8985325E1],"split_indices":[1,0,0,0,0,1,1,0,0,0,0,0,0,0,0,0,0,0,0,0,0,0,0,0,0,0,0],"split_type":[0,0,0,0,0,0,0,0,0,0,0,0,0,0,0,0,0,0,0,0,0,0,0,0,0,0,0],"sum_hessian":[5.77E2,3.17E2,2.6E2,1.65E2,1.52E2,1.11E2,1.49E2,8.5E1,8E1,4E1,1.12E2,8.2E1,2.9E1,1.09E2,4E1,4.9E1,3.6E1,5E1,6.2E1,5.4E1,2.8E1,1.9E1,1E1,6.1E1,4.8E1,2.4E1,1.6E1],"tree_param":{"num_deleted":"0","num_feature":"2","num_nodes":"27","size_leaf_vector":"1"}},{"base_weights":[-9.1379665E-2,-4.912518E1,7.3985825E1,-1.21473E2,-5.6906214E0,2.032618E1,1.5454523E2,-1.3850055E2,-8.1687744E1,-3.516357E1,1.7648407E1,-8.9904995E0,5.283998E1,1.2453066E2,1.605805E1,-1.2212818E1,-9.256529E0,-6.8996167E0,-1.3464428E0,-3.6644397E0,2.1420364E0,8.36465E-1,6.2606244E0,-1.7661995E0,2.6942542E0,3.0060298E0,9.573717E0,6.4259105E0,1.1358352E1],"categories":[],"categories_nodes":[],"categories_segments":[],"categories_sizes":[],"default_left":[0,0,0,0,0,0,0,0,0,0,0,0,0,0,0,0,0,0,0,0,0,0,0,0,0,0,0,0,0],"id":13,"left_children":[1,3,5,7,9,11,13,15,17,19,21,23,25,27,-1,-1,-1,-1,-1,-1,-1,-1,-1,-1,-1,-1,-1,-1,-1],"loss_changes":[2.12489E6,1.1054319E6,1.00406875E6,7.8109E4,1.5263984E5,1.3487578E5,1.0390925E5,1.1706875E4,1.0963E4,6.582322E4,5.3238156E4,4.2623883E4,6.385378E4,3.41055E4,0E0,0E0,0E0,0E0,0E0,0E0,0E0,0E0,0E0,0E0,0E0,0E0,0E0,0E0,0E0],"parents":[2147483647,0,0,1,1,2,2,3,3,4,4,5,5,6,6,7,7,8,8,9,9,10,10,11,11,12,12,13,13],"right_children":[2,4,6,8,10,12,14,16,18,20,22,24,26,28,-1,-1,-1,-1,-1,-1,-1,-1,-1,-1,-1,-1,-1,-1,-1],"split_conditions":[5E0,4E0,5E0,3E0,6E0,3E0,7E0,2E0,1E0,1E0,1E0,2E1,2E1,1.1E1,1.605805E1,-1.2212818E1,-9.256529E0,-6.8996167E0,-1.3464428E0,-3.6644397E0,2.1420364E0,8.36465E-1,6.2606244E0,-1.7661995E0,2.6942542E0,3.0060298E0,9.573717E0,6.4259105E0,1.1358352E1],"split_indices":[1,0,0,0,0,0,0,0,1,1,1,1,1,1,0,0,0,0,0,0,0,0,0,0,0,0,0,0,0],"split_type":[0,0,0,0,0,0,0,0,0,0,0,0,0,0,0,0,0,0,0,0,0,0,0,0,0,0,0,0,0],"sum_hessian":[5.83E2,3.51E2,2.32E2,1.31E2,2.2E2,1.4E2,9.2E1,9E1,4.1E1,9.7E1,1.23E2,7.4E1,6.6E1,5.8E1,3.4E1,5.2E1,3.8E1,3.8E1,3E0,8.3E1,1.4E1,1.11E2,1.2E1,5.7E1,1.7E1,5.5E1,1.1E1,1.8E1,4E1],"tree_param":{"num_deleted":"0","num_feature":"2","num_nodes":"29","size_leaf_vector":"1"}},{"base_weights":[8.789316E-1,-5.4170765E1,6.574835E1,-1.0160328E2,-3.940628E0,-1.24171816E-1,1.1493968E2,-1.2790376E2,-7.339905E1,-2.1094398E1,1.8271089E0,-5.42917E1,2.3951817E1,9.277684E1,1.4062749E1,-1.1384957E1,-8.32623E0,-6.924351E0,-4.729804E0,-2.882696E0,-5.999238E-1,-5.5092545E0,-1.1926785E0,-1.1924545E0,3.5809238E0,5.4345694E0,9.988382E0],"categories":[],"categories_nodes":[],"categories_segments":[],"categories_sizes":[],"default_left":[0,0,0,0,0,0,0,0,0,0,0,0,0,0,0,0,0,0,0,0,0,0,0,0,0,0,0],"id":14,"left_children":[1,3,5,7,9,11,13,15,17,19,-1,21,23,25,-1,-1,-1,-1,-1,-1,-1,-1,-1,-1,-1,-1,-1],"loss_changes":[2.0926211E6,7.5486525E5,8.716704E5,1.11523E5,7.1684E4,1.5258025E5,1.9135888E5,1.3681375E4,1.00954375E4,1.9024762E4,0E0,1.9636258E4,6.616494E4,8.316969E4,0E0,0E0,0E0,0E0,0E0,0E0,0E0,0E0,0E0,0E0,0E0,0E0,0E0],"parents":[2147483647,0,0,1,1,2,2,3,3,4,4,5,5,6,6,7,7,8,8,9,9,11,11,12,12,13,13],"right_children":[2,4,6,8,10,12,14,16,18,20,-1,22,24,26,-1,-1,-1,-1,-1,-1,-1,-1,-1,-1,-1,-1,-1],"split_conditions":[1E0,5E0,4E0,3E0,7E0,1E1,1.8E1,2E0,4E0,6E0,1.8271089E0,3E0,2E0,6E0,1.4062749E1,-1.1384957E1,-8.32623E0,-6.924351E0,-4.729804E0,-2.882696E0,-5.999238E-1,-5.5092545E0,-1.1926785E0,-1.1924545E0,3.5809238E0,5.4345694E0,9.988382E0],"split_indices":[1,0,0,0,0,1,1,0,0,0,0,0,0,0,0,0,0,0,0,0,0,0,0,0,0,0,0],"split_type":[0,0,0,0,0,0,0,0,0,0,0,0,0,0,0,0,0,0,0,0,0,0,0,0,0,0,0],"sum_hessian":[5.84E2,3.16E2,2.68E2,1.62E2,1.54E2,1.15E2,1.53E2,8.2E1,8E1,9.4E1,6E1,3.5E1,8E1,1.14E2,3.9E1,4.8E1,3.4E1,3.9E1,4.1E1,4.4E1,5E1,2.5E1,1E1,2.8E1,5.2E1,6.6E1,4.8E1],"tree_param":{"num_deleted":"0","num_feature":"2","num_nodes":"27","size_leaf_vector":"1"}},{"base_weights":[-2.901351E0,-5.1701736E1,5.7651386E1,-9.583935E1,-3.63022E0,1.5574138E-1,1.0419442E2,-9.851947E0,-6.643795E1,-2.4934218E0,6.8463545E0,-1.8902765E1,5.7961353E1,8.530163E1,1.6942471E2,-6.090772E0,-4.4156947E0,-2.8949955E-1,1.2324632E0,-5.23048E0,-3.911555E-1,1.5202893E0,5.519345E0,5.149942E0,8.931059E0,9.320693E0,1.4805233E1],"categories":[],"categories_nodes":[],"categories_segments":[],"categories_sizes":[],"default_left":[0,0,0,0,0,0,0,0,0,0,0,0,0,0,0,0,0,0,0,0,0,0,0,0,0,0,0],"id":15,"left_children":[1,3,5,7,9,11,13,-1,15,-1,17,19,21,23,25,-1,-1,-1,-1,-1,-1,-1,-1,-1,-1,-1,-1],"loss_changes":[1.7612038E6,6.998335E5,7.118055E5,1.29926E5,4.6084766E4,1.3329827E5,1.6670812E5,0E0,5.063375E3,0E0,1.044649E4,5.894994E4,1.15805625E4,5.6747375E4,4.922875E3,0E0,0E0,0E0,0E0,0E0,0E0,0E0,0E0,0E0,0E0,0E0,0E0],"parents":[2147483647,0,0,1,1,2,2,3,3,4,4,5,5,6,6,8,8,10,10,11,11,12,12,13,13,14,14],"right_children":[2,4,6,8,10,12,14,-1,16,-1,18,20,22,24,26,-1,-1,-1,-1,-1,-1,-1,-1,-1,-1,-1,-1],"split_conditions":[1E0,5E0,4E0,3E0,6E0,1.9E1,1.9E1,-9.851947E0,4E0,-2.4934218E0,7E0,7E0,2E0,6E0,6E0,-6.090772E0,-4.4156947E0,-2.8949955E-1,1.2324632E0,-5.23048E0,-3.911555E-1,1.5202893E0,5.519345E0,5.149942E0,8.931059E0,9.320693E0,1.4805233E1],"split_indices":[1,0,0,0,0,1,1,0,0,0,0,1,0,0,0,0,0,0,0,0,0,0,0,0,0,0,0],"split_type":[0,0,0,0,0,0,0,0,0,0,0,0,0,0,0,0,0,0,0,0,0,0,0,0,0,0,0],"sum_hessian":[5.94E2,3.29E2,2.65E2,1.71E2,1.58E2,1.19E2,1.46E2,8.7E1,8.4E1,4.3E1,1.15E2,9E1,2.9E1,1.15E2,3.1E1,4.2E1,4.2E1,5.2E1,6.3E1,2E1,7E1,7E0,2.2E1,6.6E1,4.9E1,9E0,2.2E1],"tree_param":{"num_deleted":"0","num_feature":"2","num_nodes":"27","size_leaf_vector":"1"}},{"base_weights":[-2.0466378E0,-3.895487E1,5.8732716E1,-9.51521E1,-5.111685E0,1.690703E1,1.225025E2,-9.573054E0,-7.688297E1,-2.9249533E1,1.4200885E1,-6.6137624E0,4.319007E1,8.769034E1,1.451172E2,-6.3521624E0,-7.8400147E-1,-2.989619E0,1.2169824E0,6.4210325E-1,4.6827607E0,-1.6974229E0,3.2131627E0,2.3763733E0,6.408325E0,5.5015965E0,7.9510508E0,9.670754E0,1.3826009E1],"categories":[],"categories_nodes":[],"categories_segments":[],"categories_sizes":[],"default_left":[0,0,0,0,0,0,0,0,0,0,0,0,0,0,0,0,0,0,0,0,0,0,0,0,0,0,0,0,0],"id":16,"left_children":[1,3,5,7,9,11,13,-1,15,17,19,21,23,25,27,-1,-1,-1,-1,-1,-1,-1,-1,-1,-1,-1,-1,-1,-1],"loss_changes":[1.2764586E6,6.727838E5,5.7137994E5,5.0356875E4,1.0390374E5,8.126958E4,5.419225E4,0E0,1.257175E4,3.631357E4,3.347421E4,4.8672805E4,2.848414E4,1.1328438E3,1.2680125E4,0E0,0E0,0E0,0E0,0E0,0E0,0E0,0E0,0E0,0E0,0E0,0E0,0E0,0E0],"parents":[2147483647,0,0,1,1,2,2,3,3,4,4,5,5,6,6,8,8,9,9,10,10,11,11,12,12,13,13,14,14],"right_children":[2,4,6,8,10,12,14,-1,16,18,20,22,24,26,28,-1,-1,-1,-1,-1,-1,-1,-1,-1,-1,-1,-1,-1,-1],"split_conditions":[5E0,4E0,5E0,2E0,6E0,3E0,1.4E1,-9.573054E0,2E0,1E0,1E0,2E1,1.8E1,6E0,7E0,-6.3521624E0,-7.8400147E-1,-2.989619E0,1.2169824E0,6.4210325E-1,4.6827607E0,-1.6974229E0,3.2131627E0,2.3763733E0,6.408325E0,5.5015965E0,7.9510508E0,9.670754E0,1.3826009E1],"split_indices":[1,0,0,0,0,0,1,0,1,1,1,1,1,0,0,0,0,0,0,0,0,0,0,0,0,0,0,0,0],"split_type":[0,0,0,0,0,0,0,0,0,0,0,0,0,0,0,0,0,0,0,0,0,0,0,0,0,0,0,0,0],"sum_hessian":[5.67E2,3.53E2,2.14E2,1.32E2,2.21E2,1.3E2,8.4E1,5.4E1,7.8E1,9.8E1,1.23E2,6.9E1,6.1E1,3.5E1,4.9E1,7.5E1,3E0,8.3E1,1.5E1,1.09E2,1.4E1,5.3E1,1.6E1,4.6E1,1.5E1,1.6E1,1.9E1,2.9E1,2E1],"tree_param":{"num_deleted":"0","num_feature":"2","num_nodes":"29","size_leaf_vector":"1"}},{"base_weights":[-3.5123923E0,-4.2854256E1,4.6220875E1,-8.138719E1,-1.5765482E0,3.5271314E-1,8.3568146E1,-9.9051834E1,-4.9301887E0,-1.4367413E1,1.5302633E0,-4.5972332E1,1.579034E1,7.142275E1,1.2572483E1,-8.635977E0,-6.8448644E0,-1.7032738E0,-6.1641675E-1,-5.755491E0,-1.8726137E0,4.627724E-2,3.4600956E0,4.079569E0,7.6962185E0],"categories":[],"categories_nodes":[],"categories_segments":[],"categories_sizes":[],"default_left":[0,0,0,0,0,0,0,0,0,0,0,0,0,0,0,0,0,0,0,0,0,0,0,0,0],"id":17,"left_children":[1,3,5,7,9,11,13,15,-1,17,-1,19,21,23,-1,-1,-1,-1,-1,-1,-1,-1,-1,-1,-1],"loss_changes":[1.1250689E6,5.1043862E5,4.3508544E5,5.1838E4,4.1588742E4,8.296803E4,1.1390106E5,1.087375E3,0E0,4.3101543E3,0E0,1.53109375E4,3.631759E4,5.6851625E4,0E0,0E0,0E0,0E0,0E0,0E0,0E0,0E0,0E0,0E0,0E0],"parents":[2147483647,0,0,1,1,2,2,3,3,4,4,5,5,6,6,7,7,9,9,11,11,12,12,13,13],"right_children":[2,4,6,8,10,12,14,16,-1,18,-1,20,22,24,-1,-1,-1,-1,-1,-1,-1,-1,-1,-1,-1],"split_conditions":[1E0,5E0,4E0,3E0,7E0,9E0,2.1E1,2E0,-4.9301887E0,6E0,1.5302633E0,2E0,1.8E1,6E0,1.2572483E1,-8.635977E0,-6.8448644E0,-1.7032738E0,-6.1641675E-1,-5.755491E0,-1.8726137E0,4.627724E-2,3.4600956E0,4.079569E0,7.6962185E0],"split_indices":[1,0,0,0,0,1,1,0,0,0,0,0,1,0,0,0,0,0,0,0,0,0,0,0,0],"split_type":[0,0,0,0,0,0,0,0,0,0,0,0,0,0,0,0,0,0,0,0,0,0,0,0,0],"sum_hessian":[5.73E2,3.2E2,2.53E2,1.65E2,1.55E2,1.14E2,1.39E2,8.5E1,8E1,9.6E1,5.9E1,2.8E1,8.6E1,1.21E2,1.8E1,4.7E1,3.8E1,4.6E1,5E1,1.2E1,1.6E1,5.6E1,3E1,6.8E1,5.3E1],"tree_param":{"num_deleted":"0","num_feature":"2","num_nodes":"25","size_leaf_vector":"1"}},{"base_weights":[2.0111887E0,-3.4716198E1,5.7326233E1,-8.211638E1,-5.1752853E0,1.8195091E1,1.09837524E2,-8.039059E0,-6.89529E1,-2.6755955E1,1.2556209E1,-5.8375077E0,4.4905624E1,8.97795E1,1.450961E2,-5.745002E0,-7.984355E-1,-2.5756552E0,7.1673965E-1,6.3499296E-1,4.338698E0,-1.3533103E0,2.316352E0,2.383473E0,6.0120454E0,4.2035275E0,8.111093E0,8.577178E0,1.2639288E1],"categories":[],"categories_nodes":[],"categories_segments":[],"categories_sizes":[],"default_left":[0,0,0,0,0,0,0,0,0,0,0,0,0,0,0,0,0,0,0,0,0,0,0,0,0,0,0,0,0],"id":18,"left_children":[1,3,5,7,9,11,13,-1,15,17,19,21,23,25,27,-1,-1,-1,-1,-1,-1,-1,-1,-1,-1,-1,-1,-1,-1],"loss_changes":[1.2067152E6,4.9946244E5,4.8499538E5,2.620275E4,8.490326E4,8.820566E4,5.8402375E4,0E0,1.328025E4,1.9716562E4,2.3054518E4,2.8628025E4,2.7470406E4,2.3634812E4,1.57875E2,0E0,0E0,0E0,0E0,0E0,0E0,0E0,0E0,0E0,0E0,0E0,0E0,0E0,0E0],"parents":[2147483647,0,0,1,1,2,2,3,3,4,4,5,5,6,6,8,8,9,9,10,10,11,11,12,12,13,13,14,14],"right_children":[2,4,6,8,10,12,14,-1,16,18,20,22,24,26,28,-1,-1,-1,-1,-1,-1,-1,-1,-1,-1,-1,-1,-1,-1],"split_conditions":[5E0,4E0,5E0,2E0,6E0,3E0,7E0,-8.039059E0,2E0,1E0,1E0,2E1,1.6E1,1E1,1.1E1,-5.745002E0,-7.984355E-1,-2.5756552E0,7.1673965E-1,6.3499296E-1,4.338698E0,-1.3533103E0,2.316352E0,2.383473E0,6.0120454E0,4.2035275E0,8.111093E0,8.577178E0,1.2639288E1],"split_indices":[1,0,0,0,0,0,0,0,1,1,1,1,1,1,1,0,0,0,0,0,0,0,0,0,0,0,0,0,0],"split_type":[0,0,0,0,0,0,0,0,0,0,0,0,0,0,0,0,0,0,0,0,0,0,0,0,0,0,0,0,0],"sum_hessian":[5.92E2,3.56E2,2.36E2,1.36E2,2.2E2,1.36E2,1E2,5.4E1,8.2E1,9.9E1,1.21E2,7.2E1,6.4E1,6.6E1,3.4E1,7.8E1,4E0,8.6E1,1.3E1,1.1E2,1.1E1,5.5E1,1.7E1,4.4E1,2E1,1.7E1,4.9E1,1.1E1,2.3E1],"tree_param":{"num_deleted":"0","num_feature":"2","num_nodes":"29","size_leaf_vector":"1"}},{"base_weights":[-8.770011E-2,-3.392128E1,5.1475647E1,-7.962887E1,-6.0895214E0,1.7825977E1,1.0230893E2,-8.015138E0,-6.456699E1,-2.472777E1,8.779329E0,-1.7803793E1,3.1899626E1,8.4512726E1,1.05983715E1,-5.2776923E0,-1.7396923E0,-2.4992516E0,1.5806836E0,3.492424E-1,3.4013448E0,-2.214009E0,1.5417947E0,1.7679389E0,4.9610715E0,3.0603213E0,7.354076E0],"categories":[],"categories_nodes":[],"categories_segments":[],"categories_sizes":[],"default_left":[0,0,0,0,0,0,0,0,0,0,0,0,0,0,0,0,0,0,0,0,0,0,0,0,0,0,0],"id":19,"left_children":[1,3,5,7,9,11,13,-1,15,17,19,21,23,25,-1,-1,-1,-1,-1,-1,-1,-1,-1,-1,-1,-1,-1],"loss_changes":[1.0083645E6,4.4348588E5,3.89886E5,3.44085E4,6.0631285E4,7.026821E4,3.7663875E4,0E0,3.3154688E3,2.8721453E4,1.7981469E4,1.517302E4,2.814221E4,1.7059031E4,0E0,0E0,0E0,0E0,0E0,0E0,0E0,0E0,0E0,0E0,0E0,0E0,0E0],"parents":[2147483647,0,0,1,1,2,2,3,3,4,4,5,5,6,6,8,8,9,9,10,10,11,11,12,12,13,13],"right_children":[2,4,6,8,10,12,14,-1,16,18,20,22,24,26,-1,-1,-1,-1,-1,-1,-1,-1,-1,-1,-1,-1,-1],"split_conditions":[5E0,4E0,5E0,2E0,6E0,2E0,7E0,-8.015138E0,2E0,1E0,1E0,2E1,2E1,7E0,1.05983715E1,-5.2776923E0,-1.7396923E0,-2.4992516E0,1.5806836E0,3.492424E-1,3.4013448E0,-2.214009E0,1.5417947E0,1.7679389E0,4.9610715E0,3.0603213E0,7.354076E0],"split_indices":[1,0,0,0,0,0,0,0,1,1,1,1,1,1,0,0,0,0,0,0,0,0,0,0,0,0,0],"split_type":[0,0,0,0,0,0,0,0,0,0,0,0,0,0,0,0,0,0,0,0,0,0,0,0,0,0,0],"sum_hessian":[5.76E2,3.48E2,2.28E2,1.31E2,2.17E2,1.38E2,9E1,5.3E1,7.8E1,9.6E1,1.21E2,3.9E1,9.9E1,5.9E1,3.1E1,7.5E1,3E0,8.4E1,1.2E1,1.08E2,1.3E1,3.1E1,8E0,7.6E1,2.3E1,9E0,5E1],"tree_param":{"num_deleted":"0","num_feature":"2","num_nodes":"27","size_leaf_vector":"1"}},{"base_weights":[1.2403446E0,-2.8941858E1,4.669944E1,-6.796974E1,-5.1853256E0,1.471091E1,9.1140915E1,-7.751393E1,-4.6468956E1,-1.5674322E1,1.8452063E1,-2.4062216E0,3.3141354E1,7.2074554E1,1.23945854E2,-6.8441443E0,-5.194072E0,-3.9340584E0,-5.685815E-1,-2.49764E0,-7.22456E-1,1.0783515E0,4.374698E0,-7.80738E-1,2.3422816E0,-9.275252E-1,3.3708563E0,4.871561E0,9.310283E0,7.1709723E0,1.0874863E1],"categories":[],"categories_nodes":[],"categories_segments":[],"categories_sizes":[],"default_left":[0,0,0,0,0,0,0,0,0,0,0,0,0,0,0,0,0,0,0,0,0,0,0,0,0,0,0,0,0,0,0],"id":20,"left_children":[1,3,5,7,9,11,13,15,17,19,21,23,25,27,29,-1,-1,-1,-1,-1,-1,-1,-1,-1,-1,-1,-1,-1,-1,-1,-1],"loss_changes":[8.1498056E5,3.3064625E5,3.3558256E5,2.4101E4,5.5578164E4,4.3930957E4,5.2988312E4,3.754125E3,4.3383984E3,1.5726906E4,1.1694494E4,1.729313E4,2.7447047E4,2.5109E4,2.2126875E3,0E0,0E0,0E0,0E0,0E0,0E0,0E0,0E0,0E0,0E0,0E0,0E0,0E0,0E0,0E0,0E0],"parents":[2147483647,0,0,1,1,2,2,3,3,4,4,5,5,6,6,7,7,8,8,9,9,10,10,11,11,12,12,13,13,14,14],"right_children":[2,4,6,8,10,12,14,16,18,20,22,24,26,28,30,-1,-1,-1,-1,-1,-1,-1,-1,-1,-1,-1,-1,-1,-1,-1,-1],"split_conditions":[5E0,4E0,5E0,3E0,7E0,3E0,7E0,2E0,1E0,5E0,1E0,2.1E1,9E0,2.1E1,1.1E1,-6.8441443E0,-5.194072E0,-3.9340584E0,-5.685815E-1,-2.49764E0,-7.22456E-1,1.0783515E0,4.374698E0,-7.80738E-1,2.3422816E0,-9.275252E-1,3.3708563E0,4.871561E0,9.310283E0,7.1709723E0,1.0874863E1],"split_indices":[1,0,0,0,0,0,0,0,1,0,1,1,1,1,1,0,0,0,0,0,0,0,0,0,0,0,0,0,0,0,0],"split_type":[0,0,0,0,0,0,0,0,0,0,0,0,0,0,0,0,0,0,0,0,0,0,0,0,0,0,0,0,0,0,0],"sum_hessian":[5.92E2,3.56E2,2.36E2,1.34E2,2.22E2,1.38E2,9.8E1,9.1E1,4.3E1,1.54E2,6.8E1,7.2E1,6.6E1,6.4E1,3.4E1,5.2E1,3.9E1,4E1,3E0,4.5E1,1.09E2,6.1E1,7E0,5.9E1,1.3E1,1.1E1,5.5E1,5.3E1,1.1E1,1.1E1,2.3E1],"tree_param":{"num_deleted":"0","num_feature":"2","num_nodes":"31","size_leaf_vector":"1"}},{"base_weights":[-7.0271194E-1,-2.6888258E1,4.4464573E1,-6.460878E1,-2.931182E0,1.4312177E1,8.718896E1,-6.8769965E0,-5.075807E1,-1.1503304E1,1.8673416E1,-1.5834926E1,2.6608673E1,7.208917E1,9.088143E0,-4.2594066E0,-1.7764474E0,-1.2936478E0,1.0498817E0,9.905505E-1,5.019144E0,-2.7551143E0,6.92327E-2,8.379307E-1,3.4582033E0,4.9727592E0,7.4839187E0],"categories":[],"categories_nodes":[],"categories_segments":[],"categories_sizes":[],"default_left":[0,0,0,0,0,0,0,0,0,0,0,0,0,0,0,0,0,0,0,0,0,0,0,0,0,0,0],"id":21,"left_children":[1,3,5,7,9,11,13,-1,15,17,19,21,23,25,-1,-1,-1,-1,-1,-1,-1,-1,-1,-1,-1,-1,-1],"loss_changes":[7.025545E5,3.3959178E5,2.7958903E5,3.881825E4,4.299537E4,4.824213E4,2.7705062E4,0E0,5.273172E3,1.9292357E4,1.7521143E4,1.1836143E4,2.4215914E4,6.970375E3,0E0,0E0,0E0,0E0,0E0,0E0,0E0,0E0,0E0,0E0,0E0,0E0,0E0],"parents":[2147483647,0,0,1,1,2,2,3,3,4,4,5,5,6,6,8,8,9,9,10,10,11,11,12,12,13,13],"right_children":[2,4,6,8,10,12,14,-1,16,18,20,22,24,26,-1,-1,-1,-1,-1,-1,-1,-1,-1,-1,-1,-1,-1],"split_conditions":[6E0,4E0,5E0,2E0,7E0,2E0,1.9E1,-6.8769965E0,2E0,1E0,1E0,1.3E1,1.5E1,7E0,9.088143E0,-4.2594066E0,-1.7764474E0,-1.2936478E0,1.0498817E0,9.905505E-1,5.019144E0,-2.7551143E0,6.92327E-2,8.379307E-1,3.4582033E0,4.9727592E0,7.4839187E0],"split_indices":[1,0,0,0,0,0,1,0,1,1,1,1,1,0,0,0,0,0,0,0,0,0,0,0,0,0,0],"split_type":[0,0,0,0,0,0,0,0,0,0,0,0,0,0,0,0,0,0,0,0,0,0,0,0,0,0,0],"sum_hessian":[5.92E2,3.75E2,2.17E2,1.45E2,2.3E2,1.28E2,8.9E1,5.5E1,9E1,1.65E2,6.5E1,3.7E1,9.1E1,5.9E1,3E1,8.2E1,8E0,1.39E2,2.6E1,5.8E1,7E0,1.7E1,2E1,4.7E1,4.4E1,4.3E1,1.6E1],"tree_param":{"num_deleted":"0","num_feature":"2","num_nodes":"27","size_leaf_vector":"1"}},{"base_weights":[-6.8847835E-1,-2.6808727E1,3.83281E1,-5.1122223E1,-1.4970224E0,1.0710113E1,7.891555E1,-6.665784E1,-3.5706398E1,-2.0936295E1,7.0300727E0,2.4832861E0,4.2397053E1,6.371336E1,1.0431615E2,-5.861803E0,-4.4447947E0,-3.1450632E0,5.664087E-1,-1.7927705E0,8.871354E-1,2.7052405E-1,2.6070018E0,-1.8328216E0,9.5501655E-1,1.7166846E0,5.6217365E0,4.323245E0,7.9610643E0,6.6258063E0,9.675024E0],"categories":[],"categories_nodes":[],"categories_segments":[],"categories_sizes":[],"default_left":[0,0,0,0,0,0,0,0,0,0,0,0,0,0,0,0,0,0,0,0,0,0,0,0,0,0,0,0,0,0,0],"id":22,"left_children":[1,3,5,7,9,11,13,15,17,19,21,23,25,27,29,-1,-1,-1,-1,-1,-1,-1,-1,-1,-1,-1,-1,-1,-1,-1,-1],"loss_changes":[5.972143E5,2.1593456E5,2.625766E5,4.0489344E4,2.8823754E4,3.6651016E4,3.0037438E4,2.389E3,1.4476375E4,2.7492734E3,1.1172682E4,2.7402693E4,1.541802E4,1.6091984E4,2.130375E3,0E0,0E0,0E0,0E0,0E0,0E0,0E0,0E0,0E0,0E0,0E0,0E0,0E0,0E0,0E0,0E0],"parents":[2147483647,0,0,1,1,2,2,3,3,4,4,5,5,6,6,7,7,8,8,9,9,10,10,11,11,12,12,13,13,14,14],"right_children":[2,4,6,8,10,12,14,16,18,20,22,24,26,28,30,-1,-1,-1,-1,-1,-1,-1,-1,-1,-1,-1,-1,-1,-1,-1,-1],"split_conditions":[5E0,5E0,5E0,3E0,6E0,2E1,7E0,2E0,1E0,3E0,1E0,2E0,3E0,2.1E1,1.8E1,-5.861803E0,-4.4447947E0,-3.1450632E0,5.664087E-1,-1.7927705E0,8.871354E-1,2.7052405E-1,2.6070018E0,-1.8328216E0,9.5501655E-1,1.7166846E0,5.6217365E0,4.323245E0,7.9610643E0,6.6258063E0,9.675024E0],"split_indices":[1,0,0,0,0,1,0,0,1,1,1,0,0,1,1,0,0,0,0,0,0,0,0,0,0,0,0,0,0,0,0],"split_type":[0,0,0,0,0,0,0,0,0,0,0,0,0,0,0,0,0,0,0,0,0,0,0,0,0,0,0,0,0,0,0],"sum_hessian":[5.84E2,3.5E2,2.34E2,1.78E2,1.72E2,1.4E2,9.4E1,8.7E1,9.1E1,5.2E1,1.2E2,1.12E2,2.8E1,6.1E1,3.3E1,5.1E1,3.6E1,8.4E1,7E0,5E1,2E0,1.06E2,1.4E1,3E1,8.2E1,1.7E1,1.1E1,5E1,1.1E1,1.7E1,1.6E1],"tree_param":{"num_deleted":"0","num_feature":"2","num_nodes":"31","size_leaf_vector":"1"}},{"base_weights":[6.9077976E-2,-2.0421394E1,4.4613205E1,-4.5234226E1,4.8681216E0,1.2034367E1,7.500776E1,-5.9392567E1,-3.0771221E1,-2.0301945E0,3.0703024E1,7.2827325E0,6.7334785E1,6.3151173E1,9.981408E1,-5.056476E0,-1.7956889E0,-2.9474468E0,-3.227539E-1,-1.2851417E0,2.6856157E-1,1.2411149E0,5.0714393E0,-1.4176562E-1,1.8912356E0,-1.2696777E-1,6.3269024E0,4.385277E0,7.484619E0,4.5190463E0,8.518932E0],"categories":[],"categories_nodes":[],"categories_segments":[],"categories_sizes":[],"default_left":[0,0,0,0,0,0,0,0,0,0,0,0,0,0,0,0,0,0,0,0,0,0,0,0,0,0,0,0,0,0,0],"id":23,"left_children":[1,3,5,7,9,11,13,15,17,19,21,23,25,27,29,-1,-1,-1,-1,-1,-1,-1,-1,-1,-1,-1,-1,-1,-1,-1,-1],"loss_changes":[5.330327E5,2.51222E5,1.812976E5,3.9536406E4,3.5527582E4,2.3158684E4,2.1637875E4,1.2811281E4,1.6410266E4,1.1999453E4,1.9870816E4,1.2483626E4,5.7950645E3,1.1852375E4,2.3685625E3,0E0,0E0,0E0,0E0,0E0,0E0,0E0,0E0,0E0,0E0,0E0,0E0,0E0,0E0,0E0,0E0],"parents":[2147483647,0,0,1,1,2,2,3,3,4,4,5,5,6,6,7,7,8,8,9,9,10,10,11,11,12,12,13,13,14,14],"right_children":[2,4,6,8,10,12,14,16,18,20,22,24,26,28,30,-1,-1,-1,-1,-1,-1,-1,-1,-1,-1,-1,-1,-1,-1,-1,-1],"split_conditions":[9E0,5E0,4E0,3E0,1E0,2.3E1,7E0,6E0,1E0,6E0,7E0,3E0,2E0,2.1E1,1.1E1,-5.056476E0,-1.7956889E0,-2.9474468E0,-3.227539E-1,-1.2851417E0,2.6856157E-1,1.2411149E0,5.0714393E0,-1.4176562E-1,1.8912356E0,-1.2696777E-1,6.3269024E0,4.385277E0,7.484619E0,4.5190463E0,8.518932E0],"split_indices":[1,0,0,0,1,1,0,1,1,0,0,0,0,1,1,0,0,0,0,0,0,0,0,0,0,0,0,0,0,0,0],"split_type":[0,0,0,0,0,0,0,0,0,0,0,0,0,0,0,0,0,0,0,0,0,0,0,0,0,0,0,0,0,0,0],"sum_hessian":[5.82E2,3.99E2,1.83E2,2.01E2,1.98E2,8.9E1,9.4E1,1E2,1.01E2,1.57E2,4.1E1,8.3E1,6E0,6.6E1,2.8E1,9E1,1E1,8.2E1,1.9E1,4.3E1,1.14E2,2.9E1,1.2E1,5.4E1,2.9E1,1E0,5E0,5.4E1,1.2E1,5E0,2.3E1],"tree_param":{"num_deleted":"0","num_feature":"2","num_nodes":"31","size_leaf_vector":"1"}},{"base_weights":[1.0607673E0,-2.0013077E1,3.602158E1,-4.1538002E1,2.938446E0,4.0589767E0,6.2449154E1,-5.5320404E1,-2.870893E1,-9.0303496E-2,2.0104704E1,-3.9424944E0,3.333444E1,5.079486E1,8.996712E1,-4.815631E0,-3.855976E0,-2.5840957E0,5.003906E-2,-3.9098603E-1,6.005189E-1,6.9184875E-1,3.3645592E0,-1.6096257E0,3.6152145E-1,1.7536817E0,4.372815E0,3.5967734E0,6.7203555E0,4.8788004E0,7.9296446E0],"categories":[],"categories_nodes":[],"categories_segments":[],"categories_sizes":[],"default_left":[0,0,0,0,0,0,0,0,0,0,0,0,0,0,0,0,0,0,0,0,0,0,0,0,0,0,0,0,0,0,0],"id":24,"left_children":[1,3,5,7,9,11,13,15,17,19,21,23,25,27,29,-1,-1,-1,-1,-1,-1,-1,-1,-1,-1,-1,-1,-1,-1,-1,-1],"loss_changes":[4.3688206E5,1.829131E5,1.8811328E5,3.2183594E4,9.36043E3,2.4024588E4,3.4555844E4,2.575E2,1.0663281E4,5.648749E3,6.426746E3,1.1178925E4,4.15659E3,1.3276234E4,3.2401562E3,0E0,0E0,0E0,0E0,0E0,0E0,0E0,0E0,0E0,0E0,0E0,0E0,0E0,0E0,0E0,0E0],"parents":[2147483647,0,0,1,1,2,2,3,3,4,4,5,5,6,6,7,7,8,8,9,9,10,10,11,11,12,12,13,13,14,14],"right_children":[2,4,6,8,10,12,14,16,18,20,22,24,26,28,30,-1,-1,-1,-1,-1,-1,-1,-1,-1,-1,-1,-1,-1,-1,-1,-1],"split_conditions":[6E0,5E0,4E0,3E0,1E0,2E1,7E0,2E0,1E0,7E0,7E0,2E0,3E0,2.1E1,1.1E1,-4.815631E0,-3.855976E0,-2.5840957E0,5.003906E-2,-3.9098603E-1,6.005189E-1,6.9184875E-1,3.3645592E0,-1.6096257E0,3.6152145E-1,1.7536817E0,4.372815E0,3.5967734E0,6.7203555E0,4.8788004E0,7.9296446E0],"split_indices":[1,0,0,0,1,1,0,0,1,0,0,0,0,1,1,0,0,0,0,0,0,0,0,0,0,0,0,0,0,0,0],"split_type":[0,0,0,0,0,0,0,0,0,0,0,0,0,0,0,0,0,0,0,0,0,0,0,0,0,0,0,0,0,0,0],"sum_hessian":[5.91E2,3.69E2,2.22E2,1.9E2,1.79E2,1.01E2,1.21E2,9E1,1E2,1.53E2,2.6E1,8E1,2.1E1,8.7E1,3.4E1,4.9E1,4.1E1,8.9E1,1.1E1,9.4E1,5.9E1,1.8E1,8E0,2.7E1,5.3E1,1.5E1,6E0,7.6E1,1.1E1,1E1,2.4E1],"tree_param":{"num_deleted":"0","num_feature":"2","num_nodes":"31","size_leaf_vector":"1"}},{"base_weights":[-3.96116E-1,-2.4396105E1,2.7679134E1,-4.5402325E1,-1.2946038E0,-1.9630669E0,4.987564E1,-4.54034E0,-2.6693285E0,-9.21845E0,9.365143E-1,-1.1075387E1,2.483184E1,3.8861385E1,8.395187E1,-1.051637E0,-4.2108718E-1,-2.4542332E0,5.391026E-2,1.0522608E0,3.5046544E0,2.5390446E0,5.258837E0,5.2805653E0,7.6723685E0],"categories":[],"categories_nodes":[],"categories_segments":[],"categories_sizes":[],"default_left":[0,0,0,0,0,0,0,0,0,0,0,0,0,0,0,0,0,0,0,0,0,0,0,0,0],"id":25,"left_children":[1,3,5,7,9,11,13,-1,-1,15,-1,17,19,21,23,-1,-1,-1,-1,-1,-1,-1,-1,-1,-1],"loss_changes":[3.9619922E5,1.5377344E5,1.7840325E5,2.0786656E4,1.5766678E4,2.8842182E4,5.4912812E4,0E0,0E0,1.4062329E3,0E0,2.028842E4,6.072283E3,2.0694188E4,1.6057031E3,0E0,0E0,0E0,0E0,0E0,0E0,0E0,0E0,0E0,0E0],"parents":[2147483647,0,0,1,1,2,2,3,3,4,4,5,5,6,6,9,9,11,11,12,12,13,13,14,14],"right_children":[2,4,6,8,10,12,14,-1,-1,16,-1,18,20,22,24,-1,-1,-1,-1,-1,-1,-1,-1,-1,-1],"split_conditions":[1E0,5E0,4E0,3E0,7E0,1.9E1,1.9E1,-4.54034E0,-2.6693285E0,6E0,9.365143E-1,2E0,3E0,7E0,2.1E1,-1.051637E0,-4.2108718E-1,-2.4542332E0,5.391026E-2,1.0522608E0,3.5046544E0,2.5390446E0,5.258837E0,5.2805653E0,7.6723685E0],"split_indices":[1,0,0,0,0,1,1,0,0,0,0,0,0,0,1,0,0,0,0,0,0,0,0,0,0],"split_type":[0,0,0,0,0,0,0,0,0,0,0,0,0,0,0,0,0,0,0,0,0,0,0,0,0],"sum_hessian":[5.86E2,3.16E2,2.7E2,1.65E2,1.51E2,1.16E2,1.54E2,8.3E1,8.2E1,9.4E1,5.7E1,8.7E1,2.9E1,1.18E2,3.6E1,4.6E1,4.8E1,3.2E1,5.5E1,1.9E1,1E1,9.5E1,2.3E1,1.7E1,1.9E1],"tree_param":{"num_deleted":"0","num_feature":"2","num_nodes":"25","size_leaf_vector":"1"}},{"base_weights":[3.4356886E-1,-1.6485321E1,3.469714E1,-4.0020008E1,-2.0090427E0,1.3717407E1,6.681439E1,-4.7515137E1,-2.3601171E1,-8.319034E0,2.1570713E1,-1.3558209E-1,2.8050423E1,5.5866577E1,6.295603E0,-4.0730877E0,-1.4227107E0,-1.9442899E0,-7.69812E-1,-1.46492E0,-1.5401475E-2,8.998037E-1,4.1340017E0,-4.2092875E-1,3.818395E0,1.6740054E0,4.2896423E0,3.3625057E0,5.1317363E0],"categories":[],"categories_nodes":[],"categories_segments":[],"categories_sizes":[],"default_left":[0,0,0,0,0,0,0,0,0,0,0,0,0,0,0,0,0,0,0,0,0,0,0,0,0,0,0,0,0],"id":26,"left_children":[1,3,5,7,9,11,13,15,17,19,21,23,25,27,-1,-1,-1,-1,-1,-1,-1,-1,-1,-1,-1,-1,-1,-1,-1],"loss_changes":[3.3935766E5,1.341533E5,1.2912909E5,1.7337797E4,3.6632523E4,2.3433307E4,5.4886875E3,9.400672E3,2.4727734E2,1.5750037E4,1.5578916E4,1.5218096E4,9.445367E3,2.2298125E3,0E0,0E0,0E0,0E0,0E0,0E0,0E0,0E0,0E0,0E0,0E0,0E0,0E0,0E0,0E0],"parents":[2147483647,0,0,1,1,2,2,3,3,4,4,5,5,6,6,7,7,8,8,9,9,10,10,11,11,12,12,13,13],"right_children":[2,4,6,8,10,12,14,16,18,20,22,24,26,28,-1,-1,-1,-1,-1,-1,-1,-1,-1,-1,-1,-1,-1,-1,-1],"split_conditions":[9E0,4E0,5E0,3E0,1E0,3E0,1.8E1,6E0,7E0,6E0,7E0,2.3E1,2E1,6E0,6.295603E0,-4.0730877E0,-1.4227107E0,-1.9442899E0,-7.69812E-1,-1.46492E0,-1.5401475E-2,8.998037E-1,4.1340017E0,-4.2092875E-1,3.818395E0,1.6740054E0,4.2896423E0,3.3625057E0,5.1317363E0],"split_indices":[1,0,0,0,1,0,1,1,1,0,0,1,1,0,0,0,0,0,0,0,0,0,0,0,0,0,0,0,0],"split_type":[0,0,0,0,0,0,0,0,0,0,0,0,0,0,0,0,0,0,0,0,0,0,0,0,0,0,0,0,0],"sum_hessian":[5.85E2,3.93E2,1.92E2,1.49E2,2.44E2,1.17E2,7.5E1,1.01E2,4.8E1,1.93E2,5.1E1,6E1,5.7E1,4.2E1,3.3E1,9E1,1.1E1,4.5E1,3E0,8.6E1,1.07E2,3.9E1,1.2E1,5.5E1,5E0,4.6E1,1.1E1,1.8E1,2.4E1],"tree_param":{"num_deleted":"0","num_feature":"2","num_nodes":"29","size_leaf_vector":"1"}},{"base_weights":[8.677336E-1,-1.4528611E1,3.0809286E1,-3.1886732E1,4.0084834E0,7.027217E0,5.3137768E1,-3.9466336E0,-2.39328E1,7.3185265E-1,4.1968613E1,-1.2225413E1,1.6989712E1,4.3413143E1,7.76354E1,-2.207406E0,-7.178586E-1,-6.7390794E-1,3.652351E-1,2.4134765E0,5.350154E0,-1.4081923E0,5.960083E-1,1.0490596E0,4.8707733E0,3.024022E0,5.4164977E0,2.5544856E0,6.894625E0],"categories":[],"categories_nodes":[],"categories_segments":[],"categories_sizes":[],"default_left":[0,0,0,0,0,0,0,0,0,0,0,0,0,0,0,0,0,0,0,0,0,0,0,0,0,0,0,0,0],"id":27,"left_children":[1,3,5,7,9,11,13,-1,15,17,19,21,23,25,27,-1,-1,-1,-1,-1,-1,-1,-1,-1,-1,-1,-1,-1,-1],"loss_changes":[2.7151E5,1.2529602E5,1.0583008E5,2.6711234E4,2.3477357E4,1.9004523E4,2.1167312E4,0E0,7.4172188E3,6.1808135E3,2.3912578E3,3.7281719E3,1.0261834E4,7.803578E3,8.1864062E3,0E0,0E0,0E0,0E0,0E0,0E0,0E0,0E0,0E0,0E0,0E0,0E0,0E0,0E0],"parents":[2147483647,0,0,1,1,2,2,3,3,4,4,5,5,6,6,8,8,9,9,10,10,11,11,12,12,13,13,14,14],"right_children":[2,4,6,8,10,12,14,-1,16,18,20,22,24,26,28,-1,-1,-1,-1,-1,-1,-1,-1,-1,-1,-1,-1,-1,-1],"split_conditions":[8E0,5E0,4E0,2E0,5E0,2E0,7E0,-3.9466336E0,1E0,6E0,7E0,2E1,2.3E1,2.1E1,1.1E1,-2.207406E0,-7.178586E-1,-6.7390794E-1,3.652351E-1,2.4134765E0,5.350154E0,-1.4081923E0,5.960083E-1,1.0490596E0,4.8707733E0,3.024022E0,5.4164977E0,2.5544856E0,6.894625E0],"split_indices":[1,0,0,0,1,0,0,0,1,0,0,1,1,1,1,0,0,0,0,0,0,0,0,0,0,0,0,0,0],"split_type":[0,0,0,0,0,0,0,0,0,0,0,0,0,0,0,0,0,0,0,0,0,0,0,0,0,0,0,0,0],"sum_hessian":[5.87E2,3.88E2,1.99E2,2E2,1.88E2,9.7E1,1.02E2,6.1E1,1.39E2,1.74E2,1.4E1,3.3E1,6.4E1,7.5E1,2.7E1,1.11E2,2.8E1,5.1E1,1.23E2,1.1E1,3E0,2.6E1,7E0,6E1,4E0,6.3E1,1.2E1,5E0,2.2E1],"tree_param":{"num_deleted":"0","num_feature":"2","num_nodes":"29","size_leaf_vector":"1"}},{"base_weights":[-7.745035E-1,-1.543484E1,2.3662977E1,-4.2322628E1,-5.6361146E0,1.2094649E1,5.496817E1,-3.8545108E0,-2.6332664E0,-1.1786985E1,1.2006751E1,-9.745671E0,1.8566172E1,3.3064613E0,5.0199203E0,-1.4556369E0,-5.156991E-1,7.277814E-1,2.4313996E0,-2.0410233E0,-1.1369222E-2,1.2523187E0,4.677768E0],"categories":[],"categories_nodes":[],"categories_segments":[],"categories_sizes":[],"default_left":[0,0,0,0,0,0,0,0,0,0,0,0,0,0,0,0,0,0,0,0,0,0,0],"id":28,"left_children":[1,3,5,7,9,11,13,-1,-1,15,17,19,21,-1,-1,-1,-1,-1,-1,-1,-1,-1,-1],"loss_changes":[2.063657E5,9.460924E4,7.755931E4,3.7048281E3,2.8899055E4,2.265402E4,3.5609375E3,0E0,0E0,6.62524E3,3.4145303E3,5.5989287E3,1.3378941E4,0E0,0E0,0E0,0E0,0E0,0E0,0E0,0E0,0E0,0E0],"parents":[2147483647,0,0,1,1,2,2,3,3,4,4,5,5,6,6,9,9,10,10,11,11,12,12],"right_children":[2,4,6,8,10,12,14,-1,-1,16,18,20,22,-1,-1,-1,-1,-1,-1,-1,-1,-1,-1],"split_conditions":[6E0,3E0,6E0,2E0,7E0,2E0,1.4E1,-3.8545108E0,-2.6332664E0,5E0,1E0,1.2E1,2.3E1,3.3064613E0,5.0199203E0,-1.4556369E0,-5.156991E-1,7.277814E-1,2.4313996E0,-2.0410233E0,-1.1369222E-2,1.2523187E0,4.677768E0],"split_indices":[1,0,0,0,0,0,1,0,0,0,1,1,1,0,0,0,0,0,0,0,0,0,0],"split_type":[0,0,0,0,0,0,0,0,0,0,0,0,0,0,0,0,0,0,0,0,0,0,0],"sum_hessian":[5.74E2,3.59E2,2.15E2,9.5E1,2.64E2,1.58E2,5.7E1,5.6E1,3.9E1,1.96E2,6.8E1,3.6E1,1.22E2,2.3E1,3.4E1,8.8E1,1.08E2,6E1,8E0,1.3E1,2.3E1,1.15E2,7E0],"tree_param":{"num_deleted":"0","num_feature":"2","num_nodes":"23","size_leaf_vector":"1"}},{"base_weights":[-3.7628588E-1,-1.38137455E1,1.972456E1,-2.8353455E1,6.402012E-1,4.1656866E0,4.3603626E1,-3.913771E1,-2.3259295E1,-5.0623336E0,9.72192E0,-5.8049803E0,1.5711154E1,3.3606045E1,6.251472E1,-2.8961444E0,-4.9005117E0,-2.0911565E0,6.544372E-1,-5.09438E-1,5.813876E-1,5.465327E-1,2.2585003E0,-8.637957E-1,8.212983E-1,5.2791643E-1,2.9435897E0,1.4725326E0,3.3050299E0,3.7539055E0,5.935876E0],"categories":[],"categories_nodes":[],"categories_segments":[],"categories_sizes":[],"default_left":[0,0,0,0,0,0,0,0,0,0,0,0,0,0,0,0,0,0,0,0,0,0,0,0,0,0,0,0,0,0,0],"id":29,"left_children":[1,3,5,7,9,11,13,15,17,19,21,23,25,27,29,-1,-1,-1,-1,-1,-1,-1,-1,-1,-1,-1,-1,-1,-1,-1,-1],"loss_changes":[1.5909381E5,7.420328E4,8.749977E4,8.758547E3,9.267625E3,1.6667908E4,1.54821875E4,1.3540234E3,1.1261125E4,1.8170735E3,3.4984136E3,6.369177E3,1.2629168E4,6.619328E3,2.165289E3,0E0,0E0,0E0,0E0,0E0,0E0,0E0,0E0,0E0,0E0,0E0,0E0,0E0,0E0,0E0,0E0],"parents":[2147483647,0,0,1,1,2,2,3,3,4,4,5,5,6,6,7,7,8,8,9,9,10,10,11,11,12,12,13,13,14,14],"right_children":[2,4,6,8,10,12,14,16,18,20,22,24,26,28,30,-1,-1,-1,-1,-1,-1,-1,-1,-1,-1,-1,-1,-1,-1,-1,-1],"split_conditions":[5E0,5E0,5E0,2E0,7E0,3E0,7E0,2E0,1E0,2E0,1E0,2E1,1.6E1,1.2E1,1.8E1,-2.8961444E0,-4.9005117E0,-2.0911565E0,6.544372E-1,-5.09438E-1,5.813876E-1,5.465327E-1,2.2585003E0,-8.637957E-1,8.212983E-1,5.2791643E-1,2.9435897E0,1.4725326E0,3.3050299E0,3.7539055E0,5.935876E0],"split_indices":[1,0,0,0,0,0,0,1,1,1,1,1,1,1,1,0,0,0,0,0,0,0,0,0,0,0,0,0,0,0,0],"split_type":[0,0,0,0,0,0,0,0,0,0,0,0,0,0,0,0,0,0,0,0,0,0,0,0,0,0,0,0,0,0,0],"sum_hessian":[5.87E2,3.52E2,2.35E2,1.75E2,1.77E2,1.43E2,9.2E1,5.4E1,1.21E2,1.09E2,6.8E1,7.7E1,6.6E1,6.2E1,3E1,5E1,4E0,1.11E2,1E1,9.9E1,1E1,6E1,8E0,5.9E1,1.8E1,4.7E1,1.9E1,2.2E1,4E1,1.5E1,1.5E1],"tree_param":{"num_deleted":"0","num_feature":"2","num_nodes":"31","size_leaf_vector":"1"}},{"base_weights":[-2.8903064E-1,-1.3255365E1,2.1537962E1,-3.0734947E1,-2.452958E0,5.5999303E0,4.467443E1,-3.9161266E1,-2.4957834E1,-7.954712E0,1.0579489E1,-2.1330915E-1,2.7199581E1,3.7502235E1,5.4321604E0,-2.9328475E0,-4.586879E0,-2.0791945E0,-1.0500163E0,-8.075358E-1,7.8726614E-1,5.433845E-1,3.452222E0,-1.3120251E0,5.4314876E-1,1.6848177E0,4.098287E0,2.195533E0,3.4730752E0],"categories":[],"categories_nodes":[],"categories_segments":[],"categories_sizes":[],"default_left":[0,0,0,0,0,0,0,0,0,0,0,0,0,0,0,0,0,0,0,0,0,0,0,0,0,0,0,0,0],"id":30,"left_children":[1,3,5,7,9,11,13,15,17,19,21,23,25,27,-1,-1,-1,-1,-1,-1,-1,-1,-1,-1,-1,-1,-1,-1,-1],"loss_changes":[1.6783103E5,7.016622E4,8.124353E4,5.9351406E3,1.6647162E4,1.6580242E4,1.2446875E4,4.431797E2,7.213594E2,6.305284E3,8.218803E3,1.2013332E4,3.051752E3,3.0298828E3,0E0,0E0,0E0,0E0,0E0,0E0,0E0,0E0,0E0,0E0,0E0,0E0,0E0,0E0,0E0],"parents":[2147483647,0,0,1,1,2,2,3,3,4,4,5,5,6,6,7,7,8,8,9,9,10,10,11,11,12,12,13,13],"right_children":[2,4,6,8,10,12,14,16,18,20,22,24,26,28,-1,-1,-1,-1,-1,-1,-1,-1,-1,-1,-1,-1,-1,-1,-1],"split_conditions":[6E0,4E0,5E0,2E0,7E0,2E1,2E1,1E0,2E0,2E0,1E0,2E0,4E0,1.1E1,5.4321604E0,-2.9328475E0,-4.586879E0,-2.0791945E0,-1.0500163E0,-8.075358E-1,7.8726614E-1,5.433845E-1,3.452222E0,-1.3120251E0,5.4314876E-1,1.6848177E0,4.098287E0,2.195533E0,3.4730752E0],"split_indices":[1,0,0,0,0,1,1,1,1,1,1,0,0,1,0,0,0,0,0,0,0,0,0,0,0,0,0,0,0],"split_type":[0,0,0,0,0,0,0,0,0,0,0,0,0,0,0,0,0,0,0,0,0,0,0,0,0,0,0,0,0],"sum_hessian":[5.91E2,3.71E2,2.2E2,1.41E2,2.3E2,1.31E2,8.9E1,5.5E1,8.6E1,1.62E2,6.8E1,1.04E2,2.7E1,7E1,1.9E1,5.1E1,4E0,7.8E1,8E0,1.45E2,1.7E1,6.2E1,6E0,3.1E1,7.3E1,2.3E1,4E0,2.8E1,4.2E1],"tree_param":{"num_deleted":"0","num_feature":"2","num_nodes":"29","size_leaf_vector":"1"}},{"base_weights":[6.819881E-2,-1.1562457E1,2.3444899E1,-3.0713037E1,2.3336731E-1,6.8687334E0,3.8839317E1,-3.599564E1,-1.9005312E1,-3.5032063E0,1.741642E1,3.7399385E0,4.700879E1,3.364057E1,4.7193613E0,-3.027817E0,-1.169294E0,-1.6059532E0,-7.656152E-1,-1.3520057E0,2.5797345E-2,7.583744E-1,3.2869093E0,-2.1543945E-1,1.3188127E0,-5.1049316E-1,4.557651E0,5.8452845E-1,2.8438504E0],"categories":[],"categories_nodes":[],"categories_segments":[],"categories_sizes":[],"default_left":[0,0,0,0,0,0,0,0,0,0,0,0,0,0,0,0,0,0,0,0,0,0,0,0,0,0,0,0,0],"id":31,"left_children":[1,3,5,7,9,11,13,15,17,19,21,23,25,27,-1,-1,-1,-1,-1,-1,-1,-1,-1,-1,-1,-1,-1,-1,-1],"loss_changes":[1.6449044E5,9.1269516E4,5.1024492E4,8.840359E3,1.6176652E4,1.2132009E4,8.911422E3,3.6044375E3,3.1224023E2,1.0614621E4,8.0643154E3,7.587394E3,4.08658E3,4.0101172E3,0E0,0E0,0E0,0E0,0E0,0E0,0E0,0E0,0E0,0E0,0E0,0E0,0E0,0E0,0E0],"parents":[2147483647,0,0,1,1,2,2,3,3,4,4,5,5,6,6,7,7,8,8,9,9,10,10,11,11,12,12,13,13],"right_children":[2,4,6,8,10,12,14,16,18,20,22,24,26,28,-1,-1,-1,-1,-1,-1,-1,-1,-1,-1,-1,-1,-1,-1,-1],"split_conditions":[8E0,4E0,4E0,3E0,1E0,2.3E1,2.1E1,6E0,1E0,5E0,7E0,3E0,2E0,9E0,4.7193613E0,-3.027817E0,-1.169294E0,-1.6059532E0,-7.656152E-1,-1.3520057E0,2.5797345E-2,7.583744E-1,3.2869093E0,-2.1543945E-1,1.3188127E0,-5.1049316E-1,4.557651E0,5.8452845E-1,2.8438504E0],"split_indices":[1,0,0,0,1,1,1,1,1,0,0,0,0,1,0,0,0,0,0,0,0,0,0,0,0,0,0,0,0],"split_type":[0,0,0,0,0,0,0,0,0,0,0,0,0,0,0,0,0,0,0,0,0,0,0,0,0,0,0,0,0],"sum_hessian":[6.03E2,4.03E2,2E2,1.53E2,2.5E2,9.7E1,1.03E2,1.04E2,4.9E1,2.06E2,4.4E1,9.1E1,6E0,8.4E1,1.9E1,9.5E1,9E0,4.3E1,6E0,4.5E1,1.61E2,3.4E1,1E1,6.1E1,3E1,1E0,5E0,6E0,7.8E1],"tree_param":{"num_deleted":"0","num_feature":"2","num_nodes":"29","size_leaf_vector":"1"}},{"base_weights":[5.400064E-1,-9.767286E0,1.7940039E1,-2.615383E1,7.581941E-1,5.8280263E0,3.604029E1,-2.4041545E0,-1.7893965E1,-5.058578E0,5.567504E0,1.1252941E0,2.4595675E1,2.8419018E1,4.931937E1,-1.5535719E0,-3.1820473E-1,-6.265742E-1,1.0189446E0,3.8354376E-1,2.7711947E0,-9.3186176E-1,5.1120245E-1,1.3308145E0,3.5061018E0,1.8803948E0,3.5910463E0,2.1620498E0,4.6069517E0],"categories":[],"categories_nodes":[],"categories_segments":[],"categories_sizes":[],"default_left":[0,0,0,0,0,0,0,0,0,0,0,0,0,0,0,0,0,0,0,0,0,0,0,0,0,0,0,0,0],"id":32,"left_children":[1,3,5,7,9,11,13,-1,15,17,19,21,23,25,27,-1,-1,-1,-1,-1,-1,-1,-1,-1,-1,-1,-1,-1,-1],"loss_changes":[1.0365857E5,6.2628715E4,4.6924508E4,4.034336E3,6.2385376E3,1.1446021E4,7.3018906E3,0E0,9.418955E2,5.0848433E3,2.5763635E3,7.1356265E3,3.2511543E3,3.5579414E3,3.9731094E3,0E0,0E0,0E0,0E0,0E0,0E0,0E0,0E0,0E0,0E0,0E0,0E0,0E0,0E0],"parents":[2147483647,0,0,1,1,2,2,3,3,4,4,5,5,6,6,8,8,9,9,10,10,11,11,12,12,13,13,14,14],"right_children":[2,4,6,8,10,12,14,-1,16,18,20,22,24,26,28,-1,-1,-1,-1,-1,-1,-1,-1,-1,-1,-1,-1,-1,-1],"split_conditions":[6E0,4E0,5E0,3E0,6E0,2E1,7E0,-2.4041545E0,1E0,2E0,5E0,2E0,2.3E1,2.1E1,1.1E1,-1.5535719E0,-3.1820473E-1,-6.265742E-1,1.0189446E0,3.8354376E-1,2.7711947E0,-9.3186176E-1,5.1120245E-1,1.3308145E0,3.5061018E0,1.8803948E0,3.5910463E0,2.1620498E0,4.6069517E0],"split_indices":[1,0,0,0,0,1,0,0,1,1,1,0,1,1,1,0,0,0,0,0,0,0,0,0,0,0,0,0,0],"split_type":[0,0,0,0,0,0,0,0,0,0,0,0,0,0,0,0,0,0,0,0,0,0,0,0,0,0,0,0,0],"sum_hessian":[5.76E2,3.62E2,2.14E2,1.41E2,2.21E2,1.29E2,8.5E1,9.4E1,4.7E1,1E2,1.21E2,1.04E2,2.5E1,5.6E1,2.9E1,4.2E1,5E0,8.7E1,1.3E1,1.19E2,2E0,3E1,7.4E1,1.9E1,6E0,4.5E1,1.1E1,9E0,2E1],"tree_param":{"num_deleted":"0","num_feature":"2","num_nodes":"29","size_leaf_vector":"1"}},{"base_weights":[6.271222E-1,-1.019544E1,1.7138157E1,-1.712377E1,3.1201022E0,4.4516296E0,3.5064365E1,-2.5927856E1,-1.15023E1,1.8600723E0,1.451537E1,-1.03471775E1,1.0030661E1,2.7879913E1,4.7935295E1,-2.3163714E0,-1.6819178E0,-1.0499918E0,5.9520185E-1,-5.6096677E-2,3.116496E-1,2.4950812E0,-1.4796178E-1,-9.9772316E-1,2.4490722E-1,-1.3511842E0,1.1687564E0,1.4453144E0,2.6355515E0,3.4238913E0,5.9581103E0],"categories":[],"categories_nodes":[],"categories_segments":[],"categories_sizes":[],"default_left":[0,0,0,0,0,0,0,0,0,0,0,0,0,0,0,0,0,0,0,0,0,0,0,0,0,0,0,0,0,0,0],"id":33,"left_children":[1,3,5,7,9,11,13,15,17,19,21,23,25,27,29,-1,-1,-1,-1,-1,-1,-1,-1,-1,-1,-1,-1,-1,-1,-1,-1],"loss_changes":[1.0470938E5,3.2711512E4,5.2605656E4,1.1233383E4,1.7247227E3,1.141492E4,7.540742E3,7.271289E2,4.5236035E3,5.8144226E2,3.3319353E3,1.1205923E3,1.2573077E4,2.585625E3,1.3114844E3,0E0,0E0,0E0,0E0,0E0,0E0,0E0,0E0,0E0,0E0,0E0,0E0,0E0,0E0,0E0,0E0],"parents":[2147483647,0,0,1,1,2,2,3,3,4,4,5,5,6,6,7,7,8,8,9,9,10,10,11,11,12,12,13,13,14,14],"right_children":[2,4,6,8,10,12,14,16,18,20,22,24,26,28,30,-1,-1,-1,-1,-1,-1,-1,-1,-1,-1,-1,-1,-1,-1,-1,-1],"split_conditions":[5E0,6E0,5E0,3E0,1E0,2E0,7E0,2E0,2E0,7E0,3E0,2.1E1,9E0,1.2E1,2.2E1,-2.3163714E0,-1.6819178E0,-1.0499918E0,5.9520185E-1,-5.6096677E-2,3.116496E-1,2.4950812E0,-1.4796178E-1,-9.9772316E-1,2.4490722E-1,-1.3511842E0,1.1687564E0,1.4453144E0,2.6355515E0,3.4238913E0,5.9581103E0],"split_indices":[1,0,0,0,1,0,0,0,1,0,1,1,1,1,1,0,0,0,0,0,0,0,0,0,0,0,0,0,0,0,0],"split_type":[0,0,0,0,0,0,0,0,0,0,0,0,0,0,0,0,0,0,0,0,0,0,0,0,0,0,0,0,0,0,0],"sum_hessian":[5.84E2,3.53E2,2.31E2,2.32E2,1.21E2,1.36E2,9.5E1,8.9E1,1.43E2,1.1E2,1.1E1,3.7E1,9.9E1,6.3E1,3.2E1,5.2E1,3.7E1,1.32E2,1.1E1,4.9E1,6.1E1,5E0,6E0,3.2E1,5E0,1.4E1,8.5E1,2.3E1,4E1,2.9E1,3E0],"tree_param":{"num_deleted":"0","num_feature":"2","num_nodes":"31","size_leaf_vector":"1"}},{"base_weights":[2.1497977E0,-4.452779E0,2.1493748E1,-1.4418762E1,6.0066295E0,6.4191117E0,3.3364872E1,-2.5460348E1,-9.755567E0,2.4031844E0,2.3456621E1,2.0983546E0,3.9421566E0,2.7776453E1,3.9440122E0,-2.189458E0,-1.3244287E0,-9.544277E-1,2.2347493E-1,-2.7211162E-1,3.8389313E-1,1.2152884E0,3.2688699E0,-5.178823E-1,5.1501215E-1,3.2270858E0,1.7148091E0],"categories":[],"categories_nodes":[],"categories_segments":[],"categories_sizes":[],"default_left":[0,0,0,0,0,0,0,0,0,0,0,0,0,0,0,0,0,0,0,0,0,0,0,0,0,0,0],"id":34,"left_children":[1,3,5,7,9,11,13,15,17,19,21,23,-1,25,-1,-1,-1,-1,-1,-1,-1,-1,-1,-1,-1,-1,-1],"loss_changes":[7.379009E4,4.5013312E4,2.6091906E4,1.1130703E4,1.3211326E4,1.2118371E4,5.9329688E3,6.512344E2,4.3180654E3,2.4635586E3,4.5580625E3,2.3106272E3,0E0,4.153957E3,0E0,0E0,0E0,0E0,0E0,0E0,0E0,0E0,0E0,0E0,0E0,0E0,0E0],"parents":[2147483647,0,0,1,1,2,2,3,3,4,4,5,5,6,6,7,7,8,8,9,9,10,10,11,11,13,13],"right_children":[2,4,6,8,10,12,14,16,18,20,22,24,-1,26,-1,-1,-1,-1,-1,-1,-1,-1,-1,-1,-1,-1,-1],"split_conditions":[1.2E1,5E0,4E0,2E0,5E0,2.3E1,2.1E1,5E0,9E0,6E0,7E0,1.6E1,3.9421566E0,1.5E1,3.9440122E0,-2.189458E0,-1.3244287E0,-9.544277E-1,2.2347493E-1,-2.7211162E-1,3.8389313E-1,1.2152884E0,3.2688699E0,-5.178823E-1,5.1501215E-1,3.2270858E0,1.7148091E0],"split_indices":[1,0,0,0,1,1,1,1,1,0,0,1,0,1,0,0,0,0,0,0,0,0,0,0,0,0,0],"split_type":[0,0,0,0,0,0,0,0,0,0,0,0,0,0,0,0,0,0,0,0,0,0,0,0,0,0,0],"sum_hessian":[5.76E2,4.3E2,1.46E2,2.2E2,2.1E2,6.5E1,8.1E1,6.4E1,1.56E2,1.75E2,3.5E1,6E1,5E0,6.2E1,1.9E1,5.1E1,1.3E1,1.33E2,2.3E1,5.1E1,1.24E2,2.5E1,1E1,2E1,4E1,1.9E1,4.3E1],"tree_param":{"num_deleted":"0","num_feature":"2","num_nodes":"27","size_leaf_vector":"1"}},{"base_weights":[4.8935658E-1,-7.7512913E0,1.798759E1,-1.7992924E1,2.8816843E0,3.9740942E0,3.1120539E1,-2.0709848E1,-9.553921E0,1.0033506E0,1.9112799E1,1.3655375E0,3.65723E1,2.4717083E1,4.7518135E1,-1.9140347E0,-1.4797589E0,-1.008674E0,3.8730368E-1,-1.7974317E-1,5.025682E-1,2.0778847E0,1.3446149E-1,-6.8350583E-1,5.239205E-1,-7.9779786E-1,3.679347E0,1.6452062E0,2.6008174E0,3.418902E0,5.722207E0],"categories":[],"categories_nodes":[],"categories_segments":[],"categories_sizes":[],"default_left":[0,0,0,0,0,0,0,0,0,0,0,0,0,0,0,0,0,0,0,0,0,0,0,0,0,0,0,0,0,0,0],"id":35,"left_children":[1,3,5,7,9,11,13,15,17,19,21,23,25,27,29,-1,-1,-1,-1,-1,-1,-1,-1,-1,-1,-1,-1,-1,-1,-1,-1],"loss_changes":[8.7378484E4,4.491825E4,3.5579793E4,4.617047E3,6.1697754E3,8.028315E3,9.325617E3,6.8171875E2,2.3914653E3,3.153788E3,2.4678809E3,4.6274263E3,3.527665E3,1.7258516E3,4.304297E1,0E0,0E0,0E0,0E0,0E0,0E0,0E0,0E0,0E0,0E0,0E0,0E0,0E0,0E0,0E0,0E0],"parents":[2147483647,0,0,1,1,2,2,3,3,4,4,5,5,6,6,7,7,8,8,9,9,10,10,11,11,12,12,13,13,14,14],"right_children":[2,4,6,8,10,12,14,16,18,20,22,24,26,28,30,-1,-1,-1,-1,-1,-1,-1,-1,-1,-1,-1,-1,-1,-1,-1,-1],"split_conditions":[9E0,5E0,4E0,4E0,5E0,2.3E1,7E0,2E0,1E0,7E0,8E0,2E0,2E0,1.8E1,2.3E1,-1.9140347E0,-1.4797589E0,-1.008674E0,3.8730368E-1,-1.7974317E-1,5.025682E-1,2.0778847E0,1.3446149E-1,-6.8350583E-1,5.239205E-1,-7.9779786E-1,3.679347E0,1.6452062E0,2.6008174E0,3.418902E0,5.722207E0],"split_indices":[1,0,0,0,1,1,0,0,1,0,1,0,0,1,1,0,0,0,0,0,0,0,0,0,0,0,0,0,0,0,0],"split_type":[0,0,0,0,0,0,0,0,0,0,0,0,0,0,0,0,0,0,0,0,0,0,0,0,0,0,0,0,0,0,0],"sum_hessian":[6.04E2,4.11E2,1.93E2,2.09E2,2.02E2,9.4E1,9.9E1,1.57E2,5.2E1,1.82E2,2E1,8.8E1,6E0,7.3E1,2.6E1,6E1,9.7E1,4.3E1,9E0,1.13E2,6.9E1,1.4E1,6E0,3E1,5.8E1,1E0,5E0,5E1,2.3E1,2.4E1,2E0],"tree_param":{"num_deleted":"0","num_feature":"2","num_nodes":"31","size_leaf_vector":"1"}},{"base_weights":[-7.6373E-1,-8.121862E0,1.1775883E1,-1.9559813E1,-1.3325474E0,2.8620288E0,2.4223478E1,-2.2617907E1,-1.3606133E1,-2.9232368E0,8.016856E0,-1.1383667E0,1.704694E1,2.0548784E1,3.1035435E0,-1.6956283E0,-2.749746E0,-1.1954802E0,-1.2248535E-1,-8.938396E-1,-4.0742878E-2,1.1474402E0,1.2774251E-1,-5.684587E-1,4.3794537E-1,6.1522406E-1,2.4646466E0,1.0070298E0,1.9678956E0],"categories":[],"categories_nodes":[],"categories_segments":[],"categories_sizes":[],"default_left":[0,0,0,0,0,0,0,0,0,0,0,0,0,0,0,0,0,0,0,0,0,0,0,0,0,0,0,0,0],"id":36,"left_children":[1,3,5,7,9,11,13,15,17,19,21,23,25,27,-1,-1,-1,-1,-1,-1,-1,-1,-1,-1,-1,-1,-1,-1,-1],"loss_changes":[5.388796E4,2.8551285E4,2.3897182E4,2.1866055E3,3.4737388E3,7.226053E3,4.0217188E3,7.596094E2,7.6841406E2,3.9572976E3,1.3579846E3,3.9849302E3,3.3683018E3,2.0761895E3,0E0,0E0,0E0,0E0,0E0,0E0,0E0,0E0,0E0,0E0,0E0,0E0,0E0,0E0,0E0],"parents":[2147483647,0,0,1,1,2,2,3,3,4,4,5,5,6,6,7,7,8,8,9,9,10,10,11,11,12,12,13,13],"right_children":[2,4,6,8,10,12,14,16,18,20,22,24,26,28,-1,-1,-1,-1,-1,-1,-1,-1,-1,-1,-1,-1,-1,-1,-1],"split_conditions":[6E0,4E0,5E0,3E0,1E0,2E1,2.1E1,2E0,1E0,5E0,3E0,3E0,3E0,6E0,3.1035435E0,-1.6956283E0,-2.749746E0,-1.1954802E0,-1.2248535E-1,-8.938396E-1,-4.0742878E-2,1.1474402E0,1.2774251E-1,-5.684587E-1,4.3794537E-1,6.1522406E-1,2.4646466E0,1.0070298E0,1.9678956E0],"split_indices":[1,0,0,0,1,1,1,1,1,0,1,0,0,0,0,0,0,0,0,0,0,0,0,0,0,0,0,0,0],"split_type":[0,0,0,0,0,0,0,0,0,0,0,0,0,0,0,0,0,0,0,0,0,0,0,0,0,0,0,0,0],"sum_hessian":[5.82E2,3.67E2,2.15E2,1.36E2,2.31E2,1.26E2,8.9E1,8.8E1,4.8E1,1.98E2,3.3E1,9.9E1,2.7E1,7.3E1,1.6E1,8.1E1,7E0,4.3E1,5E0,4.4E1,1.54E2,1.6E1,1.7E1,5.2E1,4.7E1,1.7E1,1E1,2.6E1,4.7E1],"tree_param":{"num_deleted":"0","num_feature":"2","num_nodes":"29","size_leaf_vector":"1"}},{"base_weights":[-4.371562E-1,-8.449537E0,1.2630047E1,-2.0938934E1,-1.1044331E0,-3.2387908E0,2.058635E1,-2.3937119E1,-1.4879805E1,-4.1604743E0,6.1923776E0,-8.325096E0,3.1395514E0,1.8090279E1,4.960504E0,-1.8278915E0,-2.5572631E0,-1.3157649E0,-1.14322916E-1,-4.3318588E-1,4.4521174E-1,3.78324E-1,1.3260962E0,-5.5458474E-1,-1.9296452E0,-6.872802E-2,5.073278E-1,1.213957E0,2.3062482E0],"categories":[],"categories_nodes":[],"categories_segments":[],"categories_sizes":[],"default_left":[0,0,0,0,0,0,0,0,0,0,0,0,0,0,0,0,0,0,0,0,0,0,0,0,0,0,0,0,0],"id":37,"left_children":[1,3,5,7,9,11,13,15,17,19,21,23,25,27,-1,-1,-1,-1,-1,-1,-1,-1,-1,-1,-1,-1,-1,-1,-1],"loss_changes":[6.114647E4,3.318528E4,2.8095785E4,2.0781172E3,5.1323154E3,2.4593018E3,1.417959E4,3.865625E1,9.6729395E2,2.0064253E3,9.5486597E2,7.567776E2,4.407796E2,3.9771914E3,0E0,0E0,0E0,0E0,0E0,0E0,0E0,0E0,0E0,0E0,0E0,0E0,0E0,0E0,0E0],"parents":[2147483647,0,0,1,1,2,2,3,3,4,4,5,5,6,6,7,7,8,8,9,9,10,10,11,11,12,12,13,13],"right_children":[2,4,6,8,10,12,14,16,18,20,22,24,26,28,-1,-1,-1,-1,-1,-1,-1,-1,-1,-1,-1,-1,-1,-1,-1],"split_conditions":[6E0,4E0,3E0,3E0,7E0,1.6E1,2.3E1,2E0,1E0,2E0,1E0,1.5E1,2E0,7E0,4.960504E0,-1.8278915E0,-2.5572631E0,-1.3157649E0,-1.14322916E-1,-4.3318588E-1,4.4521174E-1,3.78324E-1,1.3260962E0,-5.5458474E-1,-1.9296452E0,-6.872802E-2,5.073278E-1,1.213957E0,2.3062482E0],"split_indices":[1,0,0,0,0,1,1,1,1,1,1,1,0,0,0,0,0,0,0,0,0,0,0,0,0,0,0,0,0],"split_type":[0,0,0,0,0,0,0,0,0,0,0,0,0,0,0,0,0,0,0,0,0,0,0,0,0,0,0,0,0],"sum_hessian":[5.82E2,3.61E2,2.21E2,1.33E2,2.28E2,7.4E1,1.47E2,8.7E1,4.6E1,1.61E2,6.7E1,4.1E1,3.3E1,1.4E2,7E0,8E1,7E0,4.1E1,5E0,1.43E2,1.8E1,6E1,7E0,3.9E1,2E0,1.5E1,1.8E1,1.12E2,2.8E1],"tree_param":{"num_deleted":"0","num_feature":"2","num_nodes":"29","size_leaf_vector":"1"}},{"base_weights":[-6.242771E-1,-8.96064E0,9.213096E0,-1.3069302E1,1.1596693E1,2.0720215E0,2.2774137E1,-1.652428E1,-7.4538503E0,1.7883072E0,2.5336315E1,-1.1072478E0,7.01824E0,1.5302934E1,3.5668022E1,-1.5977224E0,-1.184561E0,-1.4297552E0,-2.616286E-1,2.4210668E-1,-6.107568E-1,1.2084659E0,2.7354836E0,-1.5152778E-1,7.1721065E-1,6.1784196E-1,-8.849088E-1,9.5710874E-1,2.2129793E0,2.3436162E0,4.1536937E0],"categories":[],"categories_nodes":[],"categories_segments":[],"categories_sizes":[],"default_left":[0,0,0,0,0,0,0,0,0,0,0,0,0,0,0,0,0,0,0,0,0,0,0,0,0,0,0,0,0,0,0],"id":38,"left_children":[1,3,5,7,9,11,13,15,17,19,21,23,25,27,29,-1,-1,-1,-1,-1,-1,-1,-1,-1,-1,-1,-1,-1,-1,-1,-1],"loss_changes":[4.7729145E4,2.6757443E4,2.5809205E4,4.979367E3,7.0971567E3,2.7754343E3,8.316789E3,6.632969E2,4.3871206E3,3.964047E2,1.4769834E3,8.729293E2,9.646406E2,2.1451729E3,1.8970469E3,0E0,0E0,0E0,0E0,0E0,0E0,0E0,0E0,0E0,0E0,0E0,0E0,0E0,0E0,0E0,0E0],"parents":[2147483647,0,0,1,1,2,2,3,3,4,4,5,5,6,6,7,7,8,8,9,9,10,10,11,11,12,12,13,13,14,14],"right_children":[2,4,6,8,10,12,14,16,18,20,22,24,26,28,30,-1,-1,-1,-1,-1,-1,-1,-1,-1,-1,-1,-1,-1,-1,-1,-1],"split_conditions":[5E0,1.6E1,5E0,1E0,3E0,7E0,7E0,2E0,2E0,2.3E1,2E1,2E0,3E0,2.1E1,2.1E1,-1.5977224E0,-1.184561E0,-1.4297552E0,-2.616286E-1,2.4210668E-1,-6.107568E-1,1.2084659E0,2.7354836E0,-1.5152778E-1,7.1721065E-1,6.1784196E-1,-8.849088E-1,9.5710874E-1,2.2129793E0,2.3436162E0,4.1536937E0],"split_indices":[0,1,1,1,0,0,0,0,0,1,1,1,1,1,1,0,0,0,0,0,0,0,0,0,0,0,0,0,0,0,0],"split_type":[0,0,0,0,0,0,0,0,0,0,0,0,0,0,0,0,0,0,0,0,0,0,0,0,0,0,0,0,0,0,0],"sum_hessian":[5.8E2,3.14E2,2.66E2,2.62E2,5.2E1,1.75E2,9.1E1,1.61E2,1.01E2,3.1E1,2.1E1,1.07E2,6.8E1,5.9E1,3.2E1,5E1,1.11E2,2.8E1,7.3E1,2.8E1,3E0,1.1E1,1E1,1E2,7E0,6.6E1,2E0,4.8E1,1.1E1,2.5E1,7E0],"tree_param":{"num_deleted":"0","num_feature":"2","num_nodes":"31","size_leaf_vector":"1"}},{"base_weights":[4.4193646E-1,-6.7805266E0,1.2041631E1,-1.9119083E1,-2.5803366E0,1.5261266E0,2.1042095E1,-1.4641274E0,-2.6197649E1,-4.200733E0,7.8888855E0,-8.995461E-1,3.2712874E0,1.7458267E1,3.0240059E1,-3.1036367E0,2.825E-1,-5.9431565E-1,-9.347884E-3,3.6674803E-1,1.6739355E0,-4.3651566E-1,4.6754953E-1,1.8019129E0,9.306559E-1,2.1039438E0,4.76541E0],"categories":[],"categories_nodes":[],"categories_segments":[],"categories_sizes":[],"default_left":[0,0,0,0,0,0,0,0,0,0,0,0,0,0,0,0,0,0,0,0,0,0,0,0,0,0,0],"id":39,"left_children":[1,3,5,7,9,11,13,-1,15,17,19,21,-1,23,25,-1,-1,-1,-1,-1,-1,-1,-1,-1,-1,-1,-1],"loss_changes":[4.825421E4,1.8348285E4,2.0884305E4,4.1339844E1,4.5456406E3,9.8718955E3,3.3947695E3,0E0,2.75863E3,3.044554E3,1.4547991E3,3.0435613E3,0E0,2.3346543E3,2.1317441E3,0E0,0E0,0E0,0E0,0E0,0E0,0E0,0E0,0E0,0E0,0E0,0E0],"parents":[2147483647,0,0,1,1,2,2,3,3,4,4,5,5,6,6,8,8,9,9,10,10,11,11,13,13,14,14],"right_children":[2,4,6,8,10,12,14,-1,16,18,20,22,-1,24,26,-1,-1,-1,-1,-1,-1,-1,-1,-1,-1,-1,-1],"split_conditions":[6E0,3E0,4E0,2E0,1E0,2.3E1,7E0,-1.4641274E0,2E0,6E0,7E0,1.6E1,3.2712874E0,1.5E1,2.3E1,-3.1036367E0,2.825E-1,-5.9431565E-1,-9.347884E-3,3.6674803E-1,1.6739355E0,-4.3651566E-1,4.6754953E-1,1.8019129E0,9.306559E-1,2.1039438E0,4.76541E0],"split_indices":[1,0,0,1,1,1,0,0,0,0,0,1,0,1,1,0,0,0,0,0,0,0,0,0,0,0,0],"split_type":[0,0,0,0,0,0,0,0,0,0,0,0,0,0,0,0,0,0,0,0,0,0,0,0,0,0,0],"sum_hessian":[5.74E2,3.54E2,2.2E2,8.9E1,2.65E2,1.02E2,1.18E2,8.3E1,6E0,2.3E2,3.5E1,9.7E1,5E0,8.7E1,3.1E1,4E0,2E0,1.28E2,1.02E2,2.9E1,6E0,5.8E1,3.9E1,4.5E1,4.2E1,2.9E1,2E0],"tree_param":{"num_deleted":"0","num_feature":"2","num_nodes":"27","size_leaf_vector":"1"}},{"base_weights":[1.5427369E0,-2.40904E0,1.6381329E1,-8.21652E0,4.292707E0,9.991105E0,2.4909565E0,-1.0778735E1,2.247915E0,6.822938E-1,1.0346212E1,8.062651E0,2.8267822E1,-1.1869365E0,-5.355727E-1,-5.264447E-1,4.691203E-1,-1.07648075E-1,4.5068625E-1,5.4373103E-1,2.4151905E0,-2.4095153E-2,1.0603404E0,-8.9416504E-1,2.8399625E0],"categories":[],"categories_nodes":[],"categories_segments":[],"categories_sizes":[],"default_left":[0,0,0,0,0,0,0,0,0,0,0,0,0,0,0,0,0,0,0,0,0,0,0,0,0],"id":40,"left_children":[1,3,5,7,9,11,-1,13,15,17,19,21,23,-1,-1,-1,-1,-1,-1,-1,-1,-1,-1,-1,-1],"loss_changes":[3.4577715E4,1.8172117E4,1.1381082E4,6.7272617E3,4.735619E3,2.8737188E3,0E0,3.2318594E3,1.6348156E3,1.3831543E3,5.500175E3,3.5211548E3,2.678812E3,0E0,0E0,0E0,0E0,0E0,0E0,0E0,0E0,0E0,0E0,0E0,0E0],"parents":[2147483647,0,0,1,1,2,2,3,3,4,4,5,5,7,7,8,8,9,9,10,10,11,11,12,12],"right_children":[2,4,6,8,10,12,-1,14,16,18,20,22,24,-1,-1,-1,-1,-1,-1,-1,-1,-1,-1,-1,-1],"split_conditions":[1.4E1,5E0,6E0,9E0,7E0,2.3E1,2.4909565E0,3E0,2E0,2E0,4E0,3E0,2E0,-1.1869365E0,-5.355727E-1,-5.264447E-1,4.691203E-1,-1.07648075E-1,4.5068625E-1,5.4373103E-1,2.4151905E0,-2.4095153E-2,1.0603404E0,-8.9416504E-1,2.8399625E0],"split_indices":[1,0,0,1,0,1,0,0,0,1,1,0,0,0,0,0,0,0,0,0,0,0,0,0,0],"split_type":[0,0,0,0,0,0,0,0,0,0,0,0,0,0,0,0,0,0,0,0,0,0,0,0,0],"sum_hessian":[5.88E2,4.65E2,1.23E2,2.49E2,2.16E2,8.7E1,3.6E1,2E2,4.9E1,1.36E2,8E1,8E1,7E0,9.9E1,1.01E2,1.4E1,3.5E1,9.7E1,3.9E1,6.9E1,1.1E1,3.1E1,4.9E1,1E0,6E0],"tree_param":{"num_deleted":"0","num_feature":"2","num_nodes":"25","size_leaf_vector":"1"}},{"base_weights":[6.0042024E-1,-3.33534E0,1.2736072E1,-1.0907672E1,1.696832E0,2.2166991E0,1.7436436E1,-1.2146631E1,-3.3402991E0,-9.1939396E-1,9.251239E0,-3.405487E-1,1.8895569E1,1.5529641E1,2.9557335E0,-1.0980539E0,-8.8015646E-1,-6.521722E-1,3.1699395E-1,-2.0622924E-1,2.1192537E-1,1.4016578E0,5.7330686E-1,-2.359545E-1,3.772154E-1,-8.5839844E-1,2.1573339E0,8.752665E-1,1.525892E0],"categories":[],"categories_nodes":[],"categories_segments":[],"categories_sizes":[],"default_left":[0,0,0,0,0,0,0,0,0,0,0,0,0,0,0,0,0,0,0,0,0,0,0,0,0,0,0,0,0],"id":41,"left_children":[1,3,5,7,9,11,13,15,17,19,21,23,25,27,-1,-1,-1,-1,-1,-1,-1,-1,-1,-1,-1,-1,-1,-1,-1],"loss_changes":[2.7697264E4,1.670862E4,6.9825234E3,1.600168E3,5.2262104E3,1.925775E3,3.0720293E3,1.2011719E2,9.4593286E2,1.1727126E3,1.046833E3,5.415005E2,1.7240176E3,1.2712324E3,0E0,0E0,0E0,0E0,0E0,0E0,0E0,0E0,0E0,0E0,0E0,0E0,0E0,0E0,0E0],"parents":[2147483647,0,0,1,1,2,2,3,3,4,4,5,5,6,6,7,7,8,8,9,9,10,10,11,11,12,12,13,13],"right_children":[2,4,6,8,10,12,14,16,18,20,22,24,26,28,-1,-1,-1,-1,-1,-1,-1,-1,-1,-1,-1,-1,-1,-1,-1],"split_conditions":[1.2E1,4E0,3E0,8E0,1E0,2.3E1,2.3E1,2E0,3E0,7E0,5E0,2E1,2E0,5E0,2.9557335E0,-1.0980539E0,-8.8015646E-1,-6.521722E-1,3.1699395E-1,-2.0622924E-1,2.1192537E-1,1.4016578E0,5.7330686E-1,-2.359545E-1,3.772154E-1,-8.5839844E-1,2.1573339E0,8.752665E-1,1.525892E0],"split_indices":[1,0,0,1,1,1,1,0,0,0,0,1,0,0,0,0,0,0,0,0,0,0,0,0,0,0,0,0,0],"split_type":[0,0,0,0,0,0,0,0,0,0,0,0,0,0,0,0,0,0,0,0,0,0,0,0,0,0,0,0,0],"sum_hessian":[5.78E2,4.37E2,1.41E2,1.74E2,2.63E2,4.4E1,9.7E1,1.49E2,2.5E1,1.96E2,6.7E1,3.9E1,5E0,9E1,7E0,5.8E1,9.1E1,1.5E1,1E1,1.34E2,6.2E1,1.2E1,5.5E1,2.6E1,1.3E1,1E0,4E0,4.1E1,4.9E1],"tree_param":{"num_deleted":"0","num_feature":"2","num_nodes":"29","size_leaf_vector":"1"}},{"base_weights":[-2.8321987E-2,-4.787743E0,7.676518E0,-1.3931195E1,-1.5628467E0,5.8440704E0,3.682805E1,-1.2461537E1,-2.5030163E1,-3.7810571E0,4.889399E0,1.6614481E0,1.7391302E1,-8.2406247E-1,3.329108E0,-1.1183994E0,-8.005135E-1,-2.7587695E0,-1.0383805E0,-4.0405306E-1,3.358667E-1,2.1740042E-1,1.5253396E0,4.3273464E-2,1.0390548E0,1.7865928E0,1.0148909E0],"categories":[],"categories_nodes":[],"categories_segments":[],"categories_sizes":[],"default_left":[0,0,0,0,0,0,0,0,0,0,0,0,0,0,0,0,0,0,0,0,0,0,0,0,0,0,0],"id":42,"left_children":[1,3,5,7,9,11,13,15,17,19,21,23,25,-1,-1,-1,-1,-1,-1,-1,-1,-1,-1,-1,-1,-1,-1],"loss_changes":[2.1415701E4,1.0622923E4,1.1697134E4,1.2213828E3,3.854221E3,1.0161922E4,3.360795E3,1.7698828E2,6.9169824E2,2.0473413E3,2.0728125E3,1.9729182E3,1.0186172E3,0E0,0E0,0E0,0E0,0E0,0E0,0E0,0E0,0E0,0E0,0E0,0E0,0E0,0E0],"parents":[2147483647,0,0,1,1,2,2,3,3,4,4,5,5,6,6,7,7,8,8,9,9,10,10,11,11,12,12],"right_children":[2,4,6,8,10,12,14,16,18,20,22,24,26,-1,-1,-1,-1,-1,-1,-1,-1,-1,-1,-1,-1,-1,-1],"split_conditions":[6E0,3E0,2.3E1,1E0,7E0,6E0,2E0,2E0,2E0,1E0,1E0,2.1E1,1.5E1,-8.2406247E-1,3.329108E0,-1.1183994E0,-8.005135E-1,-2.7587695E0,-1.0383805E0,-4.0405306E-1,3.358667E-1,2.1740042E-1,1.5253396E0,4.3273464E-2,1.0390548E0,1.7865928E0,1.0148909E0],"split_indices":[1,0,1,1,0,0,0,0,0,1,1,1,1,0,0,0,0,0,0,0,0,0,0,0,0,0,0],"split_type":[0,0,0,0,0,0,0,0,0,0,0,0,0,0,0,0,0,0,0,0,0,0,0,0,0,0,0],"sum_hessian":[5.82E2,3.6E2,2.22E2,9.3E1,2.67E2,2.1E2,1.2E1,8.4E1,9E0,1.99E2,6.8E1,1.55E2,5.5E1,1E0,1.1E1,4.9E1,3.5E1,4E0,5E0,1.72E2,2.7E1,6E1,8E0,1.42E2,1.3E1,2.5E1,3E1],"tree_param":{"num_deleted":"0","num_feature":"2","num_nodes":"27","size_leaf_vector":"1"}},{"base_weights":[-1.1404703E0,-5.558644E0,7.93193E0,-1.1227024E1,3.4291816E-1,-5.062328E0,1.3876761E1,-1.2879518E1,-6.718253E0,-1.2209401E0,6.031666E0,-7.177002E0,1.5518352E1,1.2050393E1,2.9998555E0,-1.0557581E0,5.321354E-1,-6.948398E-1,2.5596973E-1,-7.9703845E-2,-1.2495663E-1,-6.2428944E-2,1.5769168E0,-1.6614238E0,-4.5857403E-1,-7.910986E-1,1.8062011E0,6.1041236E-1,1.4751794E0],"categories":[],"categories_nodes":[],"categories_segments":[],"categories_sizes":[],"default_left":[0,0,0,0,0,0,0,0,0,0,0,0,0,0,0,0,0,0,0,0,0,0,0,0,0,0,0,0,0],"id":43,"left_children":[1,3,5,7,9,11,13,15,17,19,21,23,25,27,-1,-1,-1,-1,-1,-1,-1,-1,-1,-1,-1,-1,-1,-1,-1],"loss_changes":[2.3492904E4,1.3184053E4,1.4901995E4,1.4110684E3,1.7332649E3,2.7661824E3,5.2428047E3,9.9303516E2,1.1203997E3,1.0164673E1,3.9292422E3,9.805908E2,1.2993795E3,3.3613652E3,0E0,0E0,0E0,0E0,0E0,0E0,0E0,0E0,0E0,0E0,0E0,0E0,0E0,0E0,0E0],"parents":[2147483647,0,0,1,1,2,2,3,3,4,4,5,5,6,6,7,7,8,8,9,9,10,10,11,11,12,12,13,13],"right_children":[2,4,6,8,10,12,14,16,18,20,22,24,26,28,-1,-1,-1,-1,-1,-1,-1,-1,-1,-1,-1,-1,-1,-1,-1],"split_conditions":[9E0,5E0,3E0,4E0,1E0,2.3E1,2.3E1,8E0,1E0,7E0,7E0,1E1,2E0,6E0,2.9998555E0,-1.0557581E0,5.321354E-1,-6.948398E-1,2.5596973E-1,-7.9703845E-2,-1.2495663E-1,-6.2428944E-2,1.5769168E0,-1.6614238E0,-4.5857403E-1,-7.910986E-1,1.8062011E0,6.1041236E-1,1.4751794E0],"split_indices":[1,0,0,0,1,1,1,1,1,0,0,1,0,0,0,0,0,0,0,0,0,0,0,0,0,0,0,0,0],"split_type":[0,0,0,0,0,0,0,0,0,0,0,0,0,0,0,0,0,0,0,0,0,0,0,0,0,0,0,0,0],"sum_hessian":[5.84E2,3.93E2,1.91E2,2E2,1.93E2,6E1,1.31E2,1.45E2,5.5E1,1.52E2,4.1E1,5.5E1,5E0,1.23E2,8E0,1.43E2,2E0,4.6E1,9E0,9.4E1,5.8E1,2.8E1,1.3E1,4E0,5.1E1,1E0,4E0,7.4E1,4.9E1],"tree_param":{"num_deleted":"0","num_feature":"2","num_nodes":"29","size_leaf_vector":"1"}},{"base_weights":[7.5951576E-1,-4.4145675E0,6.7001557E0,-9.511435E0,4.510189E0,2.322339E0,1.4825641E1,-8.850338E0,-1.52390585E1,3.2925444E0,2.2478445E1,-3.3050973E0,4.9075794E0,1.0930356E1,2.2031181E1,-7.844084E-1,6.5984026E-2,-3.7506104E-2,-1.9052767E0,1.2664655E-1,7.3107785E-1,-7.594531E-1,2.3511393E0,-1.273411E-1,-9.660514E-1,2.0740178E-1,5.2917504E-1,1.4026144E0,-4.231608E-2,3.4360693E0,1.4708809E0],"categories":[],"categories_nodes":[],"categories_segments":[],"categories_sizes":[],"default_left":[0,0,0,0,0,0,0,0,0,0,0,0,0,0,0,0,0,0,0,0,0,0,0,0,0,0,0,0,0,0,0],"id":44,"left_children":[1,3,5,7,9,11,13,15,17,19,21,23,25,27,29,-1,-1,-1,-1,-1,-1,-1,-1,-1,-1,-1,-1,-1,-1,-1,-1],"loss_changes":[1.7765037E4,1.4098786E4,9.534405E3,6.110703E2,2.3983105E3,2.5767166E3,2.3975488E3,1.6615996E3,2.3958076E3,1.0548263E3,1.8256418E3,8.222831E2,4.610498E2,4.775733E3,1.6504893E3,0E0,0E0,0E0,0E0,0E0,0E0,0E0,0E0,0E0,0E0,0E0,0E0,0E0,0E0,0E0,0E0],"parents":[2147483647,0,0,1,1,2,2,3,3,4,4,5,5,6,6,7,7,8,8,9,9,10,10,11,11,12,12,13,13,14,14],"right_children":[2,4,6,8,10,12,14,16,18,20,22,24,26,28,30,-1,-1,-1,-1,-1,-1,-1,-1,-1,-1,-1,-1,-1,-1,-1,-1],"split_conditions":[5E0,9E0,5E0,5E0,2.3E1,6E0,7E0,1E0,2E0,4E0,2E0,1E0,7E0,1.6E1,8E0,-7.844084E-1,6.5984026E-2,-3.7506104E-2,-1.9052767E0,1.2664655E-1,7.3107785E-1,-7.594531E-1,2.3511393E0,-1.273411E-1,-9.660514E-1,2.0740178E-1,5.2917504E-1,1.4026144E0,-4.231608E-2,3.4360693E0,1.4708809E0],"split_indices":[0,1,1,1,1,0,0,1,0,0,0,1,0,1,1,0,0,0,0,0,0,0,0,0,0,0,0,0,0,0,0],"split_type":[0,0,0,0,0,0,0,0,0,0,0,0,0,0,0,0,0,0,0,0,0,0,0,0,0,0,0,0,0,0,0],"sum_hessian":[5.76E2,3.08E2,2.68E2,1.96E2,1.12E2,1.75E2,9.3E1,1.78E2,1.8E1,1.06E2,6E0,5.5E1,1.2E2,6.2E1,3.1E1,1.62E2,1.6E1,7E0,1.1E1,8.3E1,2.3E1,1E0,5E0,4.7E1,8E0,5.2E1,6.8E1,3.9E1,2.3E1,3E0,2.8E1],"tree_param":{"num_deleted":"0","num_feature":"2","num_nodes":"31","size_leaf_vector":"1"}},{"base_weights":[7.7974784E-1,-2.569077E0,7.936385E0,-7.3997936E0,4.289129E-1,5.2147384E0,2.3972326E1,-9.750641E0,-5.837156E0,-5.645932E-1,8.971853E0,3.9767275E0,2.5819065E1,8.31533E0,3.2693188E1,-8.331093E-1,5.057552E-1,-3.470789E-1,-1.1965257E0,-8.852844E-2,2.3818456E-1,1.0470424E0,-5.544059E-1,-3.1725258E-1,4.6808687E-1,3.7457418E-1,3.343371E0,1.9028344E0,-3.6730956E-2,4.209658E0,2.2527137E0],"categories":[],"categories_nodes":[],"categories_segments":[],"categories_sizes":[],"default_left":[0,0,0,0,0,0,0,0,0,0,0,0,0,0,0,0,0,0,0,0,0,0,0,0,0,0,0,0,0,0,0],"id":45,"left_children":[1,3,5,7,9,11,13,15,17,19,21,23,25,27,29,-1,-1,-1,-1,-1,-1,-1,-1,-1,-1,-1,-1,-1,-1,-1,-1],"loss_changes":[1.4136554E4,5.8251143E3,8.0800947E3,5.0880762E2,2.1184438E3,4.0296821E3,3.414794E3,7.054209E2,1.2334749E3,4.3331955E2,1.7925349E3,2.3157822E3,2.8429116E3,1.5040815E3,5.4322266E1,0E0,0E0,0E0,0E0,0E0,0E0,0E0,0E0,0E0,0E0,0E0,0E0,0E0,0E0,0E0,0E0],"parents":[2147483647,0,0,1,1,2,2,3,3,4,4,5,5,6,6,7,7,8,8,9,9,10,10,11,11,12,12,13,13,14,14],"right_children":[2,4,6,8,10,12,14,16,18,20,22,24,26,28,30,-1,-1,-1,-1,-1,-1,-1,-1,-1,-1,-1,-1,-1,-1,-1,-1],"split_conditions":[9E0,4E0,7E0,2E0,5E0,2.3E1,1.6E1,8E0,5E0,1E0,8E0,2E0,3E0,1E1,1.7E1,-8.331093E-1,5.057552E-1,-3.470789E-1,-1.1965257E0,-8.852844E-2,2.3818456E-1,1.0470424E0,-5.544059E-1,-3.1725258E-1,4.6808687E-1,3.7457418E-1,3.343371E0,1.9028344E0,-3.6730956E-2,4.209658E0,2.2527137E0],"split_indices":[1,0,0,0,1,1,1,1,1,1,1,0,0,1,1,0,0,0,0,0,0,0,0,0,0,0,0,0,0,0,0],"split_type":[0,0,0,0,0,0,0,0,0,0,0,0,0,0,0,0,0,0,0,0,0,0,0,0,0,0,0,0,0,0,0],"sum_hessian":[5.88E2,4.01E2,1.87E2,1.53E2,2.48E2,1.61E2,2.6E1,5.9E1,9.4E1,2.23E2,2.5E1,1.53E2,8E0,1E1,1.6E1,5.7E1,2E0,8.2E1,1.2E1,1.94E2,2.9E1,2E1,5E0,2.9E1,1.24E2,4E0,4E0,3E0,7E0,1E0,1.5E1],"tree_param":{"num_deleted":"0","num_feature":"2","num_nodes":"31","size_leaf_vector":"1"}},{"base_weights":[9.647703E-1,-6.994602E0,3.961174E0,-1.0019192E1,-1.0905718E0,-9.8605865E-1,1.02155E1,-1.2306661E1,-6.464256E0,-4.823003E0,1.8594704E0,-4.1317892E-1,-1.03605956E-1,8.204285E0,2.6900616E1,-1.0523202E0,-5.13249E-1,-4.3704712E-1,-1.054459E0,-6.134831E-1,1.7458618E-1,3.3938912E-1,-7.3387694E-1,-6.503093E-2,1.1330536E-1,4.6749294E-1,1.3768022E0,1.6658963E0,2.8169196E0],"categories":[],"categories_nodes":[],"categories_segments":[],"categories_sizes":[],"default_left":[0,0,0,0,0,0,0,0,0,0,0,0,0,0,0,0,0,0,0,0,0,0,0,0,0,0,0,0,0],"id":46,"left_children":[1,3,5,7,9,11,13,15,17,19,21,-1,23,25,27,-1,-1,-1,-1,-1,-1,-1,-1,-1,-1,-1,-1,-1,-1],"loss_changes":[1.4122757E4,2.8819507E3,1.3314963E4,7.905508E2,6.255747E2,8.881489E2,6.155199E3,2.350791E2,2.2386243E2,5.1508325E2,8.802068E2,0E0,2.1676172E2,3.534747E3,2.7685547E2,0E0,0E0,0E0,0E0,0E0,0E0,0E0,0E0,0E0,0E0,0E0,0E0,0E0,0E0],"parents":[2147483647,0,0,1,1,2,2,3,3,4,4,5,5,6,6,7,7,8,8,9,9,10,10,12,12,13,13,14,14],"right_children":[2,4,6,8,10,12,14,16,18,20,22,-1,24,26,28,-1,-1,-1,-1,-1,-1,-1,-1,-1,-1,-1,-1,-1,-1],"split_conditions":[3E0,1E1,1E0,2E0,2E0,4E0,2.1E1,5E0,7E0,2E1,2.2E1,-4.1317892E-1,7E0,7E0,7E0,-1.0523202E0,-5.13249E-1,-4.3704712E-1,-1.054459E0,-6.134831E-1,1.7458618E-1,3.3938912E-1,-7.3387694E-1,-6.503093E-2,1.1330536E-1,4.6749294E-1,1.3768022E0,1.6658963E0,2.8169196E0],"split_indices":[0,1,1,0,0,0,1,1,1,1,1,0,0,0,0,0,0,0,0,0,0,0,0,0,0,0,0,0,0],"split_type":[0,0,0,0,0,0,0,0,0,0,0,0,0,0,0,0,0,0,0,0,0,0,0,0,0,0,0,0,0],"sum_hessian":[5.9E2,1.61E2,4.29E2,1.06E2,5.5E1,2.4E2,1.89E2,6.3E1,4.3E1,2.4E1,3.1E1,4.1E1,1.99E2,1.7E2,1.9E1,5.4E1,9E0,3.9E1,4E0,1.7E1,7E0,2.6E1,5E0,1.36E2,6.3E1,1.36E2,3.4E1,1.3E1,6E0],"tree_param":{"num_deleted":"0","num_feature":"2","num_nodes":"29","size_leaf_vector":"1"}},{"base_weights":[-1.2876806E0,-6.866371E0,5.3119893E0,-1.1857772E1,-1.1969507E0,2.7276506E0,2.1962637E1,-7.7829057E-1,-1.0156437E0,-2.6583211E0,8.315282E-2,-2.0107598E0,6.4686203E0,1.4788197E1,3.0006424E1,-3.4898873E-2,-3.7834316E-1,-1.1034565E0,4.9257584E-2,1.0150889E-1,7.4141437E-1,1.7415657E0,-1.827595E-1,3.986201E0,2.0290546E0],"categories":[],"categories_nodes":[],"categories_segments":[],"categories_sizes":[],"default_left":[0,0,0,0,0,0,0,0,0,0,0,0,0,0,0,0,0,0,0,0,0,0,0,0,0],"id":47,"left_children":[1,3,5,7,9,11,13,-1,-1,15,-1,17,19,21,23,-1,-1,-1,-1,-1,-1,-1,-1,-1,-1],"loss_changes":[2.161154E4,8.984683E3,1.151541E4,1.7794336E2,4.929859E2,4.1609497E3,1.6338066E3,0E0,0E0,4.1670697E2,0E0,3.226914E3,1.8948716E3,2.5527402E3,2.0876074E2,0E0,0E0,0E0,0E0,0E0,0E0,0E0,0E0,0E0,0E0],"parents":[2147483647,0,0,1,1,2,2,3,3,4,4,5,5,6,6,9,9,11,11,12,12,13,13,14,14],"right_children":[2,4,6,8,10,12,14,-1,-1,16,-1,18,20,22,24,-1,-1,-1,-1,-1,-1,-1,-1,-1,-1],"split_conditions":[1E0,5E0,7E0,2E0,7E0,1.2E1,1.6E1,-7.7829057E-1,-1.0156437E0,6E0,8.315282E-2,2E0,3E0,1E1,1.7E1,-3.4898873E-2,-3.7834316E-1,-1.1034565E0,4.9257584E-2,1.0150889E-1,7.4141437E-1,1.7415657E0,-1.827595E-1,3.986201E0,2.0290546E0],"split_indices":[1,0,0,0,0,1,1,0,0,0,0,0,0,1,1,0,0,0,0,0,0,0,0,0,0],"split_type":[0,0,0,0,0,0,0,0,0,0,0,0,0,0,0,0,0,0,0,0,0,0,0,0,0],"sum_hessian":[5.85E2,3.17E2,2.68E2,1.68E2,1.49E2,2.33E2,3.5E1,5.1E1,1.17E2,9E1,5.9E1,1.03E2,1.3E2,2E1,1.5E1,4.4E1,4.6E1,1.8E1,8.5E1,4.6E1,8.4E1,1.4E1,6E0,1E0,1.4E1],"tree_param":{"num_deleted":"0","num_feature":"2","num_nodes":"25","size_leaf_vector":"1"}},{"base_weights":[-1.5257736E-1,-1.3095834E0,1.5644369E1,-6.143085E0,2.0719304E0,6.7502747E0,2.0710815E1,-1.0125402E1,-3.606361E0,6.7316437E-1,8.168656E0,2.6902854E0,1.30685425E1,1.5180491E1,2.8855782E1,-8.3820575E-1,2.582324E-1,-5.262442E-1,1.4518496E-1,1.210709E-1,-1.4970508E0,1.0912037E0,-9.8095275E-2,9.426611E-1,-5.480859E-1,-7.551074E-1,1.5566231E0,1.7209765E0,8.599674E-1,1.499661E0,3.4261782E0],"categories":[],"categories_nodes":[],"categories_segments":[],"categories_sizes":[],"default_left":[0,0,0,0,0,0,0,0,0,0,0,0,0,0,0,0,0,0,0,0,0,0,0,0,0,0,0,0,0,0,0],"id":48,"left_children":[1,3,5,7,9,11,13,15,17,19,21,23,25,27,29,-1,-1,-1,-1,-1,-1,-1,-1,-1,-1,-1,-1,-1,-1,-1,-1],"loss_changes":[1.0712627E4,8.9368545E3,1.6626553E3,2.2364424E3,2.740483E3,3.752755E2,6.880615E2,4.4295117E2,2.251236E3,4.312272E3,3.1008982E3,1.0350812E3,1.0464904E3,2.4569067E2,4.6843652E2,0E0,0E0,0E0,0E0,0E0,0E0,0E0,0E0,0E0,0E0,0E0,0E0,0E0,0E0,0E0,0E0],"parents":[2147483647,0,0,1,1,2,2,3,3,4,4,5,5,6,6,7,7,8,8,9,9,10,10,11,11,12,12,13,13,14,14],"right_children":[2,4,6,8,10,12,14,16,18,20,22,24,26,28,30,-1,-1,-1,-1,-1,-1,-1,-1,-1,-1,-1,-1,-1,-1,-1,-1],"split_conditions":[2.1E1,4E0,3E0,2E0,1.2E1,2.3E1,2.3E1,2E1,9E0,1E1,1.7E1,2E0,2E0,6E0,7E0,-8.3820575E-1,2.582324E-1,-5.262442E-1,1.4518496E-1,1.210709E-1,-1.4970508E0,1.0912037E0,-9.8095275E-2,9.426611E-1,-5.480859E-1,-7.551074E-1,1.5566231E0,1.7209765E0,8.599674E-1,1.499661E0,3.4261782E0],"split_indices":[1,0,0,0,1,1,1,1,1,1,1,0,0,0,0,0,0,0,0,0,0,0,0,0,0,0,0,0,0,0,0],"split_type":[0,0,0,0,0,0,0,0,0,0,0,0,0,0,0,0,0,0,0,0,0,0,0,0,0,0,0,0,0,0,0],"sum_hessian":[5.84E2,5.45E2,3.9E1,2.24E2,3.21E2,1.5E1,2.4E1,8.6E1,1.38E2,2.62E2,5.9E1,1E1,5E0,1.6E1,8E0,8.4E1,2E0,8.9E1,4.9E1,2.52E2,1E1,3.7E1,2.2E1,5E0,5E0,1E0,4E0,5E0,1.1E1,6E0,2E0],"tree_param":{"num_deleted":"0","num_feature":"2","num_nodes":"31","size_leaf_vector":"1"}},{"base_weights":[3.211426E-1,-7.4545145E-1,1.5573408E1,-5.057211E0,2.1614087E0,1.1175833E1,2.2627947E1,-8.541175E0,-2.999685E0,-5.831107E-1,8.070216E0,6.147261E0,1.3934486E1,-7.2490233E-1,2.5762602E1,-5.9361035E-1,-2.3061426E0,-3.075108E-1,4.5903996E-1,-8.932816E-2,2.507715E-1,3.7559715E-1,9.896522E-1,8.7981933E-1,2.1778971E-2,1.6546426E0,7.9691076E-1,1.5511612E0,3.2434437E0],"categories":[],"categories_nodes":[],"categories_segments":[],"categories_sizes":[],"default_left":[0,0,0,0,0,0,0,0,0,0,0,0,0,0,0,0,0,0,0,0,0,0,0,0,0,0,0,0,0],"id":49,"left_children":[1,3,5,7,9,11,13,15,17,19,21,23,25,-1,27,-1,-1,-1,-1,-1,-1,-1,-1,-1,-1,-1,-1,-1,-1],"loss_changes":[9.707323E3,7.0047246E3,9.5700586E2,1.5872573E3,5.421129E3,2.7501514E2,1.6241289E3,1.6736113E3,1.076875E3,4.576964E2,1.4805166E3,3.1046957E2,2.2297095E2,0E0,4.3845215E2,0E0,0E0,0E0,0E0,0E0,0E0,0E0,0E0,0E0,0E0,0E0,0E0,0E0,0E0],"parents":[2147483647,0,0,1,1,2,2,3,3,4,4,5,5,6,6,7,7,8,8,9,9,10,10,11,11,12,12,14,14],"right_children":[2,4,6,8,10,12,14,16,18,20,22,24,26,-1,28,-1,-1,-1,-1,-1,-1,-1,-1,-1,-1,-1,-1,-1,-1],"split_conditions":[2.1E1,4E0,2.3E1,2E0,5E0,3E0,2E0,1.7E1,1.8E1,1E0,6E0,2E0,5E0,-7.2490233E-1,7E0,-5.9361035E-1,-2.3061426E0,-3.075108E-1,4.5903996E-1,-8.932816E-2,2.507715E-1,3.7559715E-1,9.896522E-1,8.7981933E-1,2.1778971E-2,1.6546426E0,7.9691076E-1,1.5511612E0,3.2434437E0],"split_indices":[1,0,1,0,1,0,0,1,1,1,0,0,0,0,0,0,0,0,0,0,0,0,0,0,0,0,0,0,0],"split_type":[0,0,0,0,0,0,0,0,0,0,0,0,0,0,0,0,0,0,0,0,0,0,0,0,0,0,0,0,0],"sum_hessian":[5.95E2,5.57E2,3.8E1,2.24E2,3.33E2,2.5E1,1.3E1,8.2E1,1.42E2,2.28E2,1.05E2,1E1,1.5E1,1E0,1.2E1,7.9E1,3E0,1.3E2,1.2E1,2E2,2.8E1,6E1,4.5E1,5E0,5E0,4E0,1.1E1,1E1,2E0],"tree_param":{"num_deleted":"0","num_feature":"2","num_nodes":"29","size_leaf_vector":"1"}},{"base_weights":[-2.4911758E-1,-1.9686618E0,8.095693E0,-3.882947E0,3.5923123E0,6.2672186E0,2.8568298E1,-1.0425346E1,-2.4836206E0,1.9041772E-1,5.827895E0,4.4645543E0,1.106399E1,1.512054E0,3.0704622E0,-7.458857E-1,-1.969685E0,-2.5435847E-1,2.6280332E-1,-1.00432664E-1,8.9946777E-1,1.00144E0,2.1507627E-1,4.2851162E-1,-1.379095E0,3.1972818E0,5.4504925E-1],"categories":[],"categories_nodes":[],"categories_segments":[],"categories_sizes":[],"default_left":[0,0,0,0,0,0,0,0,0,0,0,0,0,0,0,0,0,0,0,0,0,0,0,0,0,0,0],"id":50,"left_children":[1,3,5,7,9,11,13,15,17,19,21,23,25,-1,-1,-1,-1,-1,-1,-1,-1,-1,-1,-1,-1,-1,-1],"loss_changes":[8.482007E3,5.2301406E3,3.6017515E3,3.315664E3,9.571477E2,7.634192E2,3.3484863E1,7.714341E2,1.2227279E3,8.291262E2,1.5625886E3,1.4472457E3,2.799179E3,0E0,0E0,0E0,0E0,0E0,0E0,0E0,0E0,0E0,0E0,0E0,0E0,0E0,0E0],"parents":[2147483647,0,0,1,1,2,2,3,3,4,4,5,5,6,6,7,7,8,8,9,9,10,10,11,11,12,12],"right_children":[2,4,6,8,10,12,14,16,18,20,22,24,26,-1,-1,-1,-1,-1,-1,-1,-1,-1,-1,-1,-1,-1,-1],"split_conditions":[7E0,1.2E1,2.1E1,2E0,3E0,4E0,2.3E1,1.1E1,9E0,2.3E1,1.5E1,3E0,7E0,1.512054E0,3.0704622E0,-7.458857E-1,-1.969685E0,-2.5435847E-1,2.6280332E-1,-1.00432664E-1,8.9946777E-1,1.00144E0,2.1507627E-1,4.2851162E-1,-1.379095E0,3.1972818E0,5.4504925E-1],"split_indices":[0,1,1,0,0,1,1,1,1,1,1,1,1,0,0,0,0,0,0,0,0,0,0,0,0,0,0],"split_type":[0,0,0,0,0,0,0,0,0,0,0,0,0,0,0,0,0,0,0,0,0,0,0,0,0,0,0],"sum_hessian":[5.89E2,4.89E2,1E2,3.64E2,1.25E2,9.3E1,7E0,6.3E1,3.01E2,5E1,7.5E1,6.9E1,2.4E1,5E0,2E0,6E1,3E0,2.69E2,3.2E1,4.5E1,5E0,2.3E1,5.2E1,6.7E1,2E0,2E0,2.2E1],"tree_param":{"num_deleted":"0","num_feature":"2","num_nodes":"27","size_leaf_vector":"1"}},{"base_weights":[8.7822473E-1,3.2208642E-1,2.7685059E1,-3.1973352E0,2.7806237E0,-7.318848E-1,3.1865257E1,-4.216961E0,4.6368756E0,-2.1370485E-2,6.4101954E0,3.783933E0,2.0165146E1,-4.11327E-1,-1.3386147E-1,1.734966E-1,7.0901656E-1,7.471969E-2,-1.7364714E-1,1.2062705E0,4.5962015E-1,6.9759923E-1,2.9066992E0],"categories":[],"categories_nodes":[],"categories_segments":[],"categories_sizes":[],"default_left":[0,0,0,0,0,0,0,0,0,0,0,0,0,0,0,0,0,0,0,0,0,0,0],"id":51,"left_children":[1,3,5,7,9,-1,11,13,15,17,19,-1,21,-1,-1,-1,-1,-1,-1,-1,-1,-1,-1],"loss_changes":[8.801893E3,5.0274155E3,2.1391826E3,1.928676E3,3.4782903E3,0E0,1.0325684E3,4.9001392E2,2.7282117E2,4.0036594E2,7.721846E2,0E0,1.1635864E3,0E0,0E0,0E0,0E0,0E0,0E0,0E0,0E0,0E0,0E0],"parents":[2147483647,0,0,1,1,2,2,3,3,4,4,6,6,7,7,8,8,9,9,10,10,12,12],"right_children":[2,4,6,8,10,-1,12,14,16,18,20,-1,22,-1,-1,-1,-1,-1,-1,-1,-1,-1,-1],"split_conditions":[2.3E1,4E0,2E0,1.8E1,1E0,-7.318848E-1,4E0,9E0,3E0,7E0,2E0,3.783933E0,7E0,-4.11327E-1,-1.3386147E-1,1.734966E-1,7.0901656E-1,7.471969E-2,-1.7364714E-1,1.2062705E0,4.5962015E-1,6.9759923E-1,2.9066992E0],"split_indices":[1,0,0,1,1,0,0,1,0,0,1,0,0,0,0,0,0,0,0,0,0,0,0],"split_type":[0,0,0,0,0,0,0,0,0,0,0,0,0,0,0,0,0,0,0,0,0,0,0],"sum_hessian":[5.9E2,5.79E2,1.1E1,2.38E2,3.41E2,1E0,1E1,2.11E2,2.7E1,1.93E2,1.48E2,3E0,7E0,1.54E2,5.7E1,1.8E1,9E0,1.34E2,5.9E1,9E0,1.39E2,5E0,2E0],"tree_param":{"num_deleted":"0","num_feature":"2","num_nodes":"23","size_leaf_vector":"1"}},{"base_weights":[1.0615757E0,-1.3635446E0,6.336372E0,-3.1134017E0,6.2524605E0,1.8770163E1,5.4475613E0,-4.6457314E0,-6.275068E-1,6.9694905E0,-1.0814745E0,-1.4924023E0,2.8120703E1,3.6470275E0,1.1842985E1,-2.2710945E-1,-4.2616317E-1,-1.0404149E-1,3.298236E-1,4.4240358E-1,2.0582266E0,2.9606917E0,9.4648236E-1,4.413931E-1,-4.0222538E-1,1.9042383E-1,1.3810966E0],"categories":[],"categories_nodes":[],"categories_segments":[],"categories_sizes":[],"default_left":[0,0,0,0,0,0,0,0,0,0,0,0,0,0,0,0,0,0,0,0,0,0,0,0,0,0,0],"id":52,"left_children":[1,3,5,7,9,11,13,15,17,19,-1,-1,21,23,25,-1,-1,-1,-1,-1,-1,-1,-1,-1,-1,-1,-1],"loss_changes":[7.5559287E3,5.4168696E3,1.9532871E3,1.2541243E3,1.171617E3,4.723942E3,1.9719648E3,2.3600781E2,4.1138196E2,1.8558435E3,0E0,0E0,1.0099668E3,2.266834E3,1.9081016E3,0E0,0E0,0E0,0E0,0E0,0E0,0E0,0E0,0E0,0E0,0E0,0E0],"parents":[2147483647,0,0,1,1,2,2,3,3,4,4,5,5,6,6,7,7,8,8,9,9,12,12,13,13,14,14],"right_children":[2,4,6,8,10,12,14,16,18,20,-1,-1,22,24,26,-1,-1,-1,-1,-1,-1,-1,-1,-1,-1,-1,-1],"split_conditions":[9E0,7E0,1E1,5E0,8E0,2E0,2.1E1,2E0,5E0,4E0,-1.0814745E0,-1.4924023E0,5E0,1.9E1,3E0,-2.2710945E-1,-4.2616317E-1,-1.0404149E-1,3.298236E-1,4.4240358E-1,2.0582266E0,2.9606917E0,9.4648236E-1,4.413931E-1,-4.0222538E-1,1.9042383E-1,1.3810966E0],"split_indices":[1,0,1,0,1,0,1,0,1,1,0,0,0,1,0,0,0,0,0,0,0,0,0,0,0,0,0],"split_type":[0,0,0,0,0,0,0,0,0,0,0,0,0,0,0,0,0,0,0,0,0,0,0,0,0,0,0],"sum_hessian":[5.89E2,4.04E2,1.85E2,3.29E2,7.5E1,1.1E1,1.74E2,2.03E2,1.26E2,7.3E1,2E0,2E0,9E0,1.37E2,3.7E1,5.7E1,1.46E2,1.11E2,1.5E1,6.9E1,4E0,5E0,4E0,1.13E2,2.4E1,1.4E1,2.3E1],"tree_param":{"num_deleted":"0","num_feature":"2","num_nodes":"27","size_leaf_vector":"1"}},{"base_weights":[4.3904814E-1,-1.5407209E0,4.78565E0,-5.112282E0,7.688601E-1,1.7160002E1,3.9711788E0,-4.2741323E0,-9.020557E0,-8.366836E-2,4.1806817E0,-1.4128059E0,2.6860025E1,-4.013756E-1,6.1232214E0,-1.9368403E-1,-4.2996284E-1,-1.9797827E0,-4.818864E-1,-1.7579795E-1,4.3086894E-2,7.8324266E-2,1.0377133E0,2.5873086E0,1.2805351E0,1.0258333E-1,-4.6275946E-1,3.4589717E-1,8.7343025E-1],"categories":[],"categories_nodes":[],"categories_segments":[],"categories_sizes":[],"default_left":[0,0,0,0,0,0,0,0,0,0,0,0,0,0,0,0,0,0,0,0,0,0,0,0,0,0,0,0,0],"id":53,"left_children":[1,3,5,7,9,11,13,15,17,19,21,-1,23,25,27,-1,-1,-1,-1,-1,-1,-1,-1,-1,-1,-1,-1,-1,-1],"loss_changes":[5.0328496E3,3.3199514E3,1.7762295E3,4.790083E2,7.1297516E2,4.189662E3,1.6303743E3,2.561543E2,1.1235144E3,2.6030264E2,1.3663887E3,0E0,1.773877E1,5.3309344E2,9.5364404E2,0E0,0E0,0E0,0E0,0E0,0E0,0E0,0E0,0E0,0E0,0E0,0E0,0E0,0E0],"parents":[2147483647,0,0,1,1,2,2,3,3,4,4,5,5,6,6,7,7,8,8,9,9,10,10,12,12,13,13,14,14],"right_children":[2,4,6,8,10,12,14,16,18,20,22,-1,24,26,28,-1,-1,-1,-1,-1,-1,-1,-1,-1,-1,-1,-1,-1,-1],"split_conditions":[9E0,4E0,1E1,2E0,1E0,2E0,1.4E1,2E0,3E0,5E0,7E0,-1.4128059E0,5E0,1.3E1,6E0,-1.9368403E-1,-4.2996284E-1,-1.9797827E0,-4.818864E-1,-1.7579795E-1,4.3086894E-2,7.8324266E-2,1.0377133E0,2.5873086E0,1.2805351E0,1.0258333E-1,-4.6275946E-1,3.4589717E-1,8.7343025E-1],"split_indices":[1,0,1,1,1,0,1,0,1,0,0,0,0,1,0,0,0,0,0,0,0,0,0,0,0,0,0,0,0],"split_type":[0,0,0,0,0,0,0,0,0,0,0,0,0,0,0,0,0,0,0,0,0,0,0,0,0,0,0,0,0],"sum_hessian":[5.83E2,4.01E2,1.82E2,1.57E2,2.44E2,1E1,1.72E2,1.31E2,2.6E1,1.96E2,4.8E1,2E0,8E0,5.7E1,1.15E2,5E1,8.1E1,3E0,2.3E1,4.4E1,1.52E2,3.6E1,1.2E1,4E0,4E0,4.4E1,1.3E1,8.5E1,3E1],"tree_param":{"num_deleted":"0","num_feature":"2","num_nodes":"29","size_leaf_vector":"1"}},{"base_weights":[5.537364E-1,-2.3913062E0,2.654522E0,-3.8025138E0,4.392155E0,8.7751037E-1,5.8288693E0,-4.173093E0,-1.0907171E0,1.5881112E0,1.0740864E1,1.2254884E0,-6.65697E0,7.1405226E-1,1.0769977E1,-4.2948177E-1,-2.7471277E-1,1.9192138E-1,-4.8540306E-1,3.516729E-1,-4.6110675E-1,3.5613903E-1,2.4176562E0,7.24006E-2,7.4917966E-1,-1.5845811E-1,-1.9497265E0,4.4375977E-1,-5.3284687E-1,3.929055E-1,1.0704573E0],"categories":[],"categories_nodes":[],"categories_segments":[],"categories_sizes":[],"default_left":[0,0,0,0,0,0,0,0,0,0,0,0,0,0,0,0,0,0,0,0,0,0,0,0,0,0,0,0,0,0,0],"id":54,"left_children":[1,3,5,7,9,11,13,15,17,19,21,23,25,27,29,-1,-1,-1,-1,-1,-1,-1,-1,-1,-1,-1,-1,-1,-1,-1,-1],"loss_changes":[3.6689944E3,2.3812004E3,1.9466196E3,2.0145996E2,7.484308E2,5.928269E2,3.1261445E3,1.4062036E2,4.661185E2,6.652639E2,1.4581105E3,5.497389E2,7.801049E2,2.246702E3,8.978955E2,0E0,0E0,0E0,0E0,0E0,0E0,0E0,0E0,0E0,0E0,0E0,0E0,0E0,0E0,0E0,0E0],"parents":[2147483647,0,0,1,1,2,2,3,3,4,4,5,5,6,6,7,7,8,8,9,9,10,10,11,11,12,12,13,13,14,14],"right_children":[2,4,6,8,10,12,14,16,18,20,22,24,26,28,30,-1,-1,-1,-1,-1,-1,-1,-1,-1,-1,-1,-1,-1,-1,-1,-1],"split_conditions":[4E0,1.6E1,5E0,1.2E1,3E0,3E0,6E0,2E0,1.4E1,2.2E1,2.2E1,2E0,7E0,1.5E1,1.1E1,-4.2948177E-1,-2.7471277E-1,1.9192138E-1,-4.8540306E-1,3.516729E-1,-4.6110675E-1,3.5613903E-1,2.4176562E0,7.24006E-2,7.4917966E-1,-1.5845811E-1,-1.9497265E0,4.4375977E-1,-5.3284687E-1,3.929055E-1,1.0704573E0],"split_indices":[0,1,1,1,0,1,0,0,1,1,1,1,0,1,1,0,0,0,0,0,0,0,0,0,0,0,0,0,0,0,0],"split_type":[0,0,0,0,0,0,0,0,0,0,0,0,0,0,0,0,0,0,0,0,0,0,0,0,0,0,0,0,0,0,0],"sum_hessian":[5.91E2,2.46E2,3.45E2,2.04E2,4.2E1,2.22E2,1.23E2,1.79E2,2.5E1,3E1,1.2E1,2.13E2,9E0,6.1E1,6.2E1,6.6E1,1.13E2,1.5E1,1E1,2.2E1,8E0,1E1,2E0,2.06E2,7E0,8E0,1E0,3.7E1,2.4E1,2E1,4.2E1],"tree_param":{"num_deleted":"0","num_feature":"2","num_nodes":"31","size_leaf_vector":"1"}},{"base_weights":[-3.501022E-1,-5.660909E0,1.6877191E0,-8.170221E0,-2.730543E0,1.2277651E0,1.45765705E1,-7.1593757E0,-1.6472343E1,-3.7538135E0,1.05317E0,-2.1353558E-2,5.071412E0,1.6979443E0,9.130274E0,-7.38646E-1,1.577362E-1,-2.0570247E0,1.2051513E-1,-2.4335828E-1,-1.250271E0,-5.690693E-2,7.674474E-2,2.916586E-1,8.175674E-1,1.6439942E-1,1.9963411E0],"categories":[],"categories_nodes":[],"categories_segments":[],"categories_sizes":[],"default_left":[0,0,0,0,0,0,0,0,0,0,0,0,0,0,0,0,0,0,0,0,0,0,0,0,0,0,0],"id":55,"left_children":[1,3,5,7,9,11,13,15,17,19,-1,21,23,-1,25,-1,-1,-1,-1,-1,-1,-1,-1,-1,-1,-1,-1],"loss_changes":[6.5571514E3,1.2130288E3,2.5786895E3,6.373633E2,1.3343569E3,2.0358052E3,3.4929932E2,1.5708838E3,1.5339255E3,5.8641394E2,0E0,2.178841E2,7.2606616E2,0E0,1.068311E3,0E0,0E0,0E0,0E0,0E0,0E0,0E0,0E0,0E0,0E0,0E0,0E0],"parents":[2147483647,0,0,1,1,2,2,3,3,4,4,5,5,6,6,7,7,8,8,9,9,11,11,12,12,14,14],"right_children":[2,4,6,8,10,12,14,16,18,20,-1,22,24,-1,26,-1,-1,-1,-1,-1,-1,-1,-1,-1,-1,-1,-1],"split_conditions":[3E0,2E0,2.2E1,1.8E1,2.3E1,7E0,6E0,1.2E1,2.2E1,2.2E1,1.05317E0,2E0,1.1E1,1.6979443E0,7E0,-7.38646E-1,1.577362E-1,-2.0570247E0,1.2051513E-1,-2.4335828E-1,-1.250271E0,-5.690693E-2,7.674474E-2,2.916586E-1,8.175674E-1,1.6439942E-1,1.9963411E0],"split_indices":[0,0,1,1,1,0,0,1,1,1,0,1,1,0,0,0,0,0,0,0,0,0,0,0,0,0,0],"split_type":[0,0,0,0,0,0,0,0,0,0,0,0,0,0,0,0,0,0,0,0,0,0,0,0,0,0,0],"sum_hessian":[6.04E2,1.67E2,4.37E2,8.9E1,7.8E1,4.23E2,1.4E1,8.1E1,8E0,7.4E1,4E0,3.2E2,1.03E2,5E0,9E0,6.6E1,1.5E1,5E0,3E0,7.1E1,3E0,1.88E2,1.32E2,8.2E1,2.1E1,7E0,2E0],"tree_param":{"num_deleted":"0","num_feature":"2","num_nodes":"27","size_leaf_vector":"1"}},{"base_weights":[-7.369735E-1,-2.2617257E0,5.043129E0,-8.11198E0,-1.1786566E0,-3.1335618E0,8.36862E0,-5.412826E0,-1.4000382E1,-2.1069996E0,4.187641E0,1.4281955E0,-7.2903023E0,6.402008E0,2.6988663E1,-4.8962587E-1,1.1984814E0,-2.3986847E0,-8.7223095E-1,-1.4246732E-1,-1.214027E0,1.1727604E0,1.1398998E-1,-1.0469863E0,5.208238E-1,-1.7829257E0,-1.4444205E-1,1.0136905E0,4.2603222E-1,2.9335277E0,1.1077266E0],"categories":[],"categories_nodes":[],"categories_segments":[],"categories_sizes":[],"default_left":[0,0,0,0,0,0,0,0,0,0,0,0,0,0,0,0,0,0,0,0,0,0,0,0,0,0,0,0,0,0,0],"id":56,"left_children":[1,3,5,7,9,11,13,15,17,19,21,23,25,27,29,-1,-1,-1,-1,-1,-1,-1,-1,-1,-1,-1,-1,-1,-1,-1,-1],"loss_changes":[5.149515E3,2.9177769E3,3.3435886E3,1.068565E3,1.9566938E3,6.930454E2,3.013019E3,8.2754663E2,7.6226465E2,1.3965984E3,1.6571283E3,1.4130513E3,1.5225338E3,4.7247046E2,5.1002637E2,0E0,0E0,0E0,0E0,0E0,0E0,0E0,0E0,0E0,0E0,0E0,0E0,0E0,0E0,0E0,0E0],"parents":[2147483647,0,0,1,1,2,2,3,3,4,4,5,5,6,6,7,7,8,8,9,9,10,10,11,11,12,12,13,13,14,14],"right_children":[2,4,6,8,10,12,14,16,18,20,22,24,26,28,30,-1,-1,-1,-1,-1,-1,-1,-1,-1,-1,-1,-1,-1,-1,-1,-1],"split_conditions":[1.4E1,2E0,3E0,2E0,9E0,1.9E1,2.3E1,1E0,3E0,8E0,1E1,1.6E1,2.1E1,1.5E1,6E0,-4.8962587E-1,1.1984814E0,-2.3986847E0,-8.7223095E-1,-1.4246732E-1,-1.214027E0,1.1727604E0,1.1398998E-1,-1.0469863E0,5.208238E-1,-1.7829257E0,-1.4444205E-1,1.0136905E0,4.2603222E-1,2.9335277E0,1.1077266E0],"split_indices":[1,0,0,1,1,1,1,1,1,1,1,1,1,1,0,0,0,0,0,0,0,0,0,0,0,0,0,0,0,0,0],"split_type":[0,0,0,0,0,0,0,0,0,0,0,0,0,0,0,0,0,0,0,0,0,0,0,0,0,0,0,0,0,0,0],"sum_hessian":[5.82E2,4.61E2,1.21E2,7.1E1,3.9E2,3.5E1,8.6E1,5E1,2.1E1,3.33E2,5.7E1,1.7E1,1.8E1,7.9E1,7E0,4.9E1,1E0,2E0,1.9E1,3.26E2,7E0,1.1E1,4.6E1,4E0,1.3E1,4E0,1.4E1,1E1,6.9E1,3E0,4E0],"tree_param":{"num_deleted":"0","num_feature":"2","num_nodes":"31","size_leaf_vector":"1"}},{"base_weights":[3.9461356E-1,-1.5729969E0,6.281591E0,-1.0781771E0,-1.5718937E1,4.710475E0,